<?xml version="1.0"?>
<opencv_storage>
<ANN type_id="opencv-ml-ann-mlp">
  <layer_sizes type_id="opencv-matrix">
    <rows>1</rows>
    <cols>3</cols>
    <dt>i</dt>
    <data>
      200 80 6</data></layer_sizes>
  <activation_function>SIGMOID_SYM</activation_function>
  <f_param1>5.9999999999999998e-001</f_param1>
  <f_param2>1.</f_param2>
  <min_val>-9.4999999999999996e-001</min_val>
  <max_val>9.4999999999999996e-001</max_val>
  <min_val1>-9.7999999999999998e-001</min_val1>
  <max_val1>9.7999999999999998e-001</max_val1>
  <training_params>
    <train_method>BACKPROP</train_method>
    <dw_scale>1.0000000000000001e-001</dw_scale>
    <moment_scale>1.0000000000000001e-001</moment_scale>
    <term_criteria><epsilon>9.9999997473787516e-005</epsilon>
      <iterations>1000</iterations></term_criteria></training_params>
  <input_scale>
    2.6628992376018442e+002 -7.0584410736837688e-001
    3.8671202841289858e+002 -7.5076034465647867e-001
    2.5013177479647578e+002 -8.6308841076674037e-001
    2.9756813975693547e+002 -1.2381041712390157e+000
    3.7486662123967346e+002 -1.6786164383576003e+000
    1.6551845731927827e+002 -8.2244753374952417e-001
    2.9649018424251960e+002 -6.5333767017544131e-001
    2.2894436870564203e+002 -7.6348323661828987e-001
    2.5635696999930195e+002 -6.7409928148345466e-001
    2.0374075210927896e+002 -8.1410045698310562e-001
    1.6604999765333810e+002 -1.1092562025601074e+000
    1.2916016356453676e+002 -4.7520008888080906e-001
    1.5985888483212349e+002 -9.3157169965879272e-001
    1.5964499817989349e+002 -9.5601818514437509e-001
    1.7016150009625682e+002 -9.3189324158580289e-001
    3.5857344078824575e+001 -6.9523037263307907e-001
    1.0921757186584419e+002 -1.4229627998590271e+000
    2.0338270094894358e+002 -8.8144141659642405e-001
    1.4432399460780283e+002 -2.0179035392017419e+000
    1.6849339121935157e+002 -1.1067891363915456e+000
    2.0640788640038878e+002 -1.0687967233721340e+000
    2.4597429024997533e+002 -1.2350784210941095e+000
    4.3380319969745636e+002 -2.1200732274197107e+000
    1.9835505114393206e+002 -9.6265006166723877e-001
    2.5540876852811380e+002 -6.7285598616091158e-001
    2.2127068399261898e+002 -7.7933238635839186e-001
    2.0695113999155510e+002 -9.2178286784332930e-001
    2.6257508991157596e+002 -1.2624555402356368e+000
    2.1736930936556655e+002 -9.9647744185019349e-001
    1.4857590456109435e+002 -6.6564537244278332e-001
    2.6224243048425120e+002 -1.0835760957605498e+000
    3.5484969188238995e+002 -1.1393288906998031e+000
    1.8538848668450029e+002 -8.7149767941462064e-001
    1.6356629886990217e+002 -8.9690308486818904e-001
    1.7623384002119334e+002 -1.2529652005063432e+000
    1.3869708222726015e+002 -1.0570986661602224e+000
    2.5977623495361860e+002 -7.4533327434688967e-001
    3.2830094716985707e+002 -1.3228751106264665e+000
    1.8892042693974562e+002 -1.0026930395221685e+000
    2.4535846088606792e+002 -7.6054337209031220e-001
    1.3240552592205026e+002 -6.5720292373782707e-001
    6.6314314556370945e+001 -8.2781302784713073e-001
    3.2121057252984122e+002 -1.5095805859438480e+000
    1.3289674074188380e+002 -1.1825326834588019e+000
    2.3706063527344492e+002 -9.0887269331350751e-001
    2.9153928930632145e+002 -7.4037289866535849e-001
    2.3280212338821642e+002 -8.4666814808749535e-001
    1.3128776295553416e+002 -4.9396509243241810e-001
    2.7033925079817271e+002 -4.9692679337728984e-001
    1.5825335510207529e+002 -1.2118547402856292e+000
    7.0390976135317686e+001 -9.5845149312787548e-001
    2.2813500467488495e+002 -9.0527482706520646e-001
    1.7146083470942230e+002 -1.4273637863386701e+000
    3.7641807323806466e+002 -1.4529664316146911e+000
    1.9893762316768053e+002 -8.6935579744225611e-001
    1.7738927122920452e+002 -9.7539767654699594e-001
    6.2089786597081805e+001 -4.8378313852814686e-001
    1.5686525032915966e+002 -1.5119334528706265e+000
    2.1039129729223126e+002 -7.8513247464657521e-001
    3.0757213668665980e+002 -8.2841490848290600e-001
    6.1945830147753036e+001 -7.5354719686072258e-001
    6.1159668014670729e+001 -1.5392860351401827e+000
    3.1760739233880082e+002 -9.9137946226381779e-001
    1.3587802667553387e+002 -1.8997150218004122e+000
    2.2303637575962549e+002 -5.1475861461420624e-001
    3.0746013698776034e+002 -1.0683532498003105e+000
    3.5199436043764160e+002 -1.5708035985172812e+000
    3.4819154958119810e+002 -9.0646563611035558e-001
    1.7399000854801619e+002 -9.5289389605053099e-001
    1.6647542816151852e+002 -8.9449294152858772e-001
    3.6402823154030528e+002 -1.8438769714875776e+000
    1.7909906578872580e+002 -1.0584763910896049e+000
    2.4294237038905743e+002 -8.6076041641633649e-001
    2.1209876740329415e+002 -8.7261497653079012e-001
    2.1282365220321830e+002 -8.3770113532481028e-001
    3.2074691469729805e+002 -6.2367793023997165e-001
    1.9532901251694028e+002 -8.4022214023225306e-001
    3.5279875464683818e+002 -1.5197243827444924e+000
    4.0181900572685748e+002 -5.4309277261506028e-001
    2.8560949512963526e+002 -7.4943001590342084e-001
    1.9493441629651315e+002 -1.2401098917464843e+000
    1.8746511889674343e+002 -7.8388215529032168e-001
    2.6070439087287724e+002 -7.8232633682473152e-001
    2.3334078156670972e+002 -7.8157536068738465e-001
    3.1323020492594884e+002 -1.6708255319617593e+000
    2.6304383038775262e+002 -9.8039365894507957e-001
    3.5146217391204317e+002 -1.4949680402256331e+000
    1.4459738946102618e+002 -1.3089765564494806e+000
    2.4876420505462684e+002 -9.6210358772301074e-001
    2.1626249416184677e+002 -9.0151743894751868e-001
    1.2497259978494237e+002 -9.0521468210442224e-001
    1.0628854542234200e+002 -9.0050853314649237e-001
    1.3275765450873385e+002 -5.1913683025505519e-001
    1.6434165509135198e+002 -1.0185710962883447e+000
    2.6865221604107899e+002 -7.2940242390676313e-001
    2.2243375292022145e+002 -1.1211438697512031e+000
    2.2708395779188979e+002 -1.2835724162241962e+000
    2.0556262751368629e+002 -9.0091264055337861e-001
    1.3740131510027098e+002 -5.9517439041818676e-001
    1.7695002888934562e+002 -1.4174177733881028e+000
    1.3946163668335112e+002 -8.9795025337367107e-001
    1.7749460892822111e+002 -8.8932165938694341e-001
    1.7360793983969191e+002 -1.1011336499795212e+000
    1.4232218948114112e+002 -1.0597672533114455e+000
    2.1454601457069268e+002 -1.0234906955290843e+000
    4.3128886623803646e+002 -6.2188333840410415e-001
    1.9167590831230066e+002 -6.6445825530666713e-001
    1.4318253142731709e+002 -1.0131373566412387e+000
    3.3580302159593765e+002 -7.9150717510404045e-001
    1.9164957661060782e+002 -1.2725515178079709e+000
    2.8427622593420392e+002 -8.4320900629762474e-001
    2.2220104683171897e+002 -7.9804102570165980e-001
    1.5840119288832290e+002 -1.0382308249770638e+000
    2.1912527659388496e+002 -9.5089823141443519e-001
    3.4855598848132445e+002 -1.2874293530514653e+000
    1.3507514481123590e+002 -6.0542824769867654e-001
    1.6611850608937982e+002 -6.5350934080378120e-001
    1.9752616849742222e+002 -7.6387160362552931e-001
    1.3256655149804894e+002 -7.4365312159834618e-001
    2.5012788861467982e+002 -9.2612508167199925e-001
    2.1954633463115132e+002 -1.0254149023434049e+000
    3.3856960016075186e+002 -9.4484215265295546e-001
    8.7313502535527704e+001 -6.3364824800026265e-001
    2.2054104951694495e+002 -1.1692938058698914e+000
    1.3771396558071729e+002 -6.5973705237206848e-001
    1.6636205938751169e+002 -9.9395344146935372e-001
    1.0767468755875666e+002 -6.6876895832113770e-001
    2.8053599593937867e+002 -7.7274446929644525e-001
    2.4745464131919354e+002 -6.5782868110571202e-001
    1.5528596202729020e+002 -8.1442661027546481e-001
    8.2125340213570766e+001 -9.5729942207820140e-001
    2.8132376422763122e+002 -8.3299283108055722e-001
    1.7789283933512576e+002 -1.0239816926218643e+000
    1.7147373718566234e+002 -6.6989372348372833e-001
    1.1377584195764371e+002 -4.8210018376633151e-001
    2.3303683695480598e+002 -7.0638433063689865e-001
    2.1595594859033739e+002 -8.4564811176858268e-001
    2.5401624284673395e+002 -9.0524007748481183e-001
    1.9494819317879791e+002 -9.0565137641159466e-001
    2.4957702955554828e+002 -1.5235954092654342e+000
    1.9882731678705673e+002 -9.8501312756344739e-001
    4.3078821872209375e+002 -2.0848926753563939e+000
    2.8614780999143187e+002 -7.8197011702135855e-001
    1.1518910575245945e+002 -9.6232571183570270e-001
    1.7465104645266663e+002 -7.0313386917241527e-001
    1.9716338925316981e+002 -1.0652198352370954e+000
    1.3979131061387673e+002 -1.1928954275688932e+000
    1.5518827477251094e+002 -1.3540101654285712e+000
    1.9495245763978454e+002 -8.2998243871001731e-001
    1.9883256512218867e+002 -9.2876536361408368e-001
    1.6958642005733313e+002 -1.2605833793485239e+000
    1.8804855174273581e+002 -5.0633356541967067e-001
    2.2478655140668329e+002 -6.6467642929553961e-001
    1.8708080336020396e+002 -1.0084219774539485e+000
    3.8153780614828742e+002 -4.7408200681651069e-001
    2.2857570297828673e+002 -1.2012180629491109e+000
    1.8989933262432112e+002 -7.2515315056633634e-001
    2.2768948646129888e+002 -9.5985669230967219e-001
    2.6755738703082915e+002 -9.6400294880700510e-001
    1.8769358422791345e+002 -6.3977245920675818e-001
    3.1037197363603661e+002 -1.4149816511246032e+000
    2.3164966848780804e+002 -7.6372504832494070e-001
    2.1063554922399589e+002 -8.6082783134921137e-001
    1.9525504772585759e+002 -4.0079756040644005e-001
    1.1979403409989972e+002 -1.0199788870706619e+000
    3.3488423279688442e+002 -6.7451327178313925e-001
    2.2425868906314864e+002 -7.6760594252138969e-001
    1.7654046681533350e+002 -9.4982567134778129e-001
    1.5469615451779239e+002 -1.8139533946662103e+000
    2.6590678873547449e+002 -5.2998958517933381e-001
    2.9433391357493616e+002 -9.1984269847768085e-001
    1.8882880174172621e+002 -1.2693252919967497e+000
    3.3469645653721545e+002 -1.3984822032675044e+000
    2.0839129001144747e+002 -8.3374497003217596e-001
    1.2672122173150883e+002 -8.6729775564999356e-001
    3.7179261898633717e+002 -5.7648982519164171e-001
    2.0973295235838955e+002 -7.9826111716890769e-001
    2.6310228374759566e+002 -6.5454575676651572e-001
    2.0245580886261413e+002 -7.8648344897847222e-001
    2.2283765721553351e+002 -8.0159024616057906e-001
    2.1245164562142728e+002 -7.1699416880010880e-001
    2.1093808166273911e+002 -9.4440712747738698e-001
    3.1803741191067911e+002 -1.0040114873536561e+000
    2.8111438647228169e+002 -9.9315729079455894e-001
    2.2440974210372943e+002 -1.0046341781687709e+000
    3.1447572731882076e+002 -1.1074538356533028e+000
    3.5153205758138250e+002 -6.1314340385706823e-001
    2.5239280489207044e+002 -6.9433265539742917e-001
    3.0199165795029683e+002 -1.1787512873613228e+000
    3.4279277396998754e+002 -1.7215957931878529e+000
    1.8531779429113297e+002 -7.9700505697024704e-001
    2.0168127568505784e+002 -1.0741323054603553e+000
    2.1466410535514149e+002 -7.0107428744390821e-001
    3.1802956576982115e+002 -1.1724061823593466e+000
    2.5575410256149419e+002 -9.9367062155958685e-001
    3.2907571772625988e+002 -7.7615462481988828e-001
    3.1280807532233587e+002 -7.6162360470115364e-001
    2.7931247744088978e+002 -7.4064672676580556e-001
    3.2185822763484634e+002 -1.3898876250005963e+000
    8.8113562451956497e+001 -8.6757908804975614e-001</input_scale>
  <output_scale>
    5.2631578947368418e-001 4.9999999999999994e-001
    5.2631578947368418e-001 4.9999999999999994e-001
    5.2631578947368418e-001 4.9999999999999994e-001
    5.2631578947368418e-001 4.9999999999999994e-001
    5.2631578947368418e-001 4.9999999999999994e-001
    5.2631578947368418e-001 4.9999999999999994e-001</output_scale>
  <inv_output_scale>
    1.8999999999999999e+000 -9.4999999999999996e-001
    1.8999999999999999e+000 -9.4999999999999996e-001
    1.8999999999999999e+000 -9.4999999999999996e-001
    1.8999999999999999e+000 -9.4999999999999996e-001
    1.8999999999999999e+000 -9.4999999999999996e-001
    1.8999999999999999e+000 -9.4999999999999996e-001</inv_output_scale>
  <weights>
    <_>
      -6.5668995711466102e-003 -7.9672406409475399e-002
      4.0205553188084105e-003 -7.8351149695434288e-002
      -1.2599416970718208e-001 1.1208473549113122e-001
      1.4970089953600052e-001 2.3106887577764110e-002
      -5.0663209246870719e-002 -2.3288790836942564e-002
      5.6714404231639835e-002 7.1156728323046287e-002
      8.2840434251919740e-002 -2.1854565989406033e-001
      1.8455410234590422e-001 6.1190100413041952e-002
      -8.7457550156201352e-002 9.5549543398051759e-002
      -9.0245236330748893e-002 6.4483360941949383e-002
      7.9671809947089917e-002 3.6112437909072724e-002
      2.4509746993849644e-002 -4.8356293142107411e-002
      1.6298424933558351e-002 2.0561927601664861e-002
      -6.7216689257957540e-002 -1.7852754198758597e-001
      1.5559700227619542e-002 -7.8252225206707649e-003
      -1.4142921511310147e-001 -4.3000912820788738e-002
      -1.8697533347753356e-001 -9.1040210650729120e-002
      -1.8053175430980024e-002 -1.9086696002376136e-001
      2.4459250970118181e-003 5.2273902901571259e-002
      8.7042990639417478e-002 1.3330773733140483e-001
      2.6548771065283458e-002 4.8901155956228275e-003
      -3.2092523142000534e-002 -1.7834376808486732e-001
      -5.2159557914256978e-002 -2.0554909706068353e-001
      -2.6142027309111100e-002 -5.0572432946180267e-002
      -1.7153268541316136e-001 1.2199278679530459e-001
      3.5294757711669324e-002 -7.3582109998953718e-002
      -1.5217352516022161e-002 7.2555448948565249e-003
      -1.1064328657483195e-002 4.3692250982164060e-002
      1.1811443453668276e-002 1.8910757943044185e-001
      -4.1450937169477210e-002 -8.1242406255218322e-002
      -1.8370205302884874e-002 2.1413200926102358e-002
      -1.5548260732713795e-001 -1.4940401564038064e-001
      -9.8496653278301316e-002 6.9185915899397044e-002
      3.5839178551987039e-002 -6.8657636120290896e-002
      3.2891277455744938e-002 1.8590181153166477e-001
      6.1604810340697758e-002 -1.9596610098340114e-002
      -7.1997080184449627e-002 9.3380309986062476e-002
      -1.8365339923956872e-001 3.3850733049020774e-002
      1.7053402627943243e-001 -2.1690699487527255e-002
      1.5953020744380441e-003 1.1123708131505905e-002
      -1.3468581359920476e-001 -1.0825120620406961e-001
      1.1061605753555949e-002 2.3419262089752063e-002
      -2.2392985734132087e-001 -4.2216676104582088e-002
      6.5356119527283721e-002 -1.1856799638634589e-001
      1.2998992362125671e-002 -3.4361257245550648e-002
      -7.3027014533806556e-002 9.4956127673588853e-002
      -3.1598312412985143e-003 -1.9702641814003261e-001
      2.5028614706193508e-001 -3.1679447168622067e-002
      -7.0646500527768830e-002 -4.2169681584619645e-002
      -6.8102909006285198e-002 3.9337387359298336e-002
      1.6168814579205953e-001 6.3976289182964344e-003
      -4.4988610977797820e-002 3.1506779551689845e-002
      -1.4413206481629899e-002 -1.3168838860441934e-001
      -1.5815786455766054e-001 -1.5041379447447126e-001
      7.7211039396039308e-002 -7.6681616473751851e-002
      -3.4840760402066834e-001 -1.0640422562333818e-001
      -1.5354837711221636e-001 -1.6031675829968995e-002
      -5.7758712782266575e-002 -6.4880780848944983e-002
      8.1257047265936799e-002 2.2663596078962896e-002
      1.9065857008972644e-002 2.8408638044765189e-001
      7.3899765659165784e-002 8.6596555531864045e-002
      -1.6065992571536672e-001 -1.4315944969145247e-001
      -1.9726111244601116e-001 -2.0027170144702688e-001
      -3.8742962383873501e-002 -1.1315125043293318e-001
      -4.0732473132813196e-002 1.2199590608676808e-001
      1.9206448650436472e-001 -3.0568399417340814e-002
      -3.7610399821881114e-002 4.7622992569236015e-002
      -1.0615855969049737e-001 1.2324260388657688e-002
      4.8171784531267407e-002 2.5356724620269006e-001
      5.9500714079159158e-003 4.1322676646608408e-002
      -9.0029416669462875e-002 -2.8422304375386547e-002
      -1.2981736145206677e-001 -1.8133123735709974e-001
      -2.3559407952624525e-001 6.1264691091362240e-002
      -3.0706219681205526e-002 -1.4345546958467981e-001
      3.1638527323106271e-002 3.3028598516627601e-002
      -1.6708732162641982e-003 7.0817968422539727e-003
      -2.8832761876255556e-002 4.7317807192634780e-002
      -1.5194718795368858e-001 8.1619431068347237e-002
      1.7129299630332609e-001 -6.0922465331072713e-002
      -1.3779922626514963e-002 3.4213879484623212e-002
      -6.0705773993348433e-001 1.8094415657648451e-003
      9.2639923093363163e-002 -1.6111294173976945e-001
      3.9204296572391786e-002 2.0789856056692413e-001
      1.6318194285620738e-001 1.0160772072188121e-001
      -1.8959843678868418e-001 1.9901315577592529e-003
      1.2007131654631749e-001 2.2129998079940937e-002
      -3.4389885123192393e-001 -1.5224401948955799e-001
      -8.6857173829568091e-002 5.0730529994862078e-002
      1.7728878373478504e-001 1.7292710893371616e-001
      -2.0367980742172748e-002 -1.0158428069107617e-001
      9.2800216832536628e-002 -2.1272502051270120e-001
      3.1115144964975850e-002 -6.2153228988902576e-002
      2.0435784865527476e-001 1.3570502459072975e-001
      -2.1646141560838997e-002 -2.4033142256401152e-001
      -3.6914174122076912e-002 1.1102333570803595e-001
      4.8738433323859430e-002 7.0434017861688472e-002
      1.5537227677697335e-001 -1.7856195522682461e-001
      6.0194880623932433e-002 1.2722849379260931e-002
      -3.9496834364775919e-002 3.1061291649224502e-002
      2.1191060537395939e-001 3.1425786385841308e-002
      2.7464995729832588e-003 -9.0815050351136045e-002
      8.4161125248504082e-002 5.5905994678564337e-002
      1.8078453126157562e-001 1.3812349887201916e-001
      1.3068680750688103e-001 -6.5556797852303866e-002
      1.7959044445332153e-001 6.3553238432810202e-002
      8.6627360132927572e-002 6.0806798511994414e-002
      5.7528466828755426e-002 -1.7607875908093279e-001
      7.4368067698143595e-002 -9.4351767858315658e-002
      -1.3908194817619129e-001 -6.1493551686093294e-002
      -8.7100362457658929e-003 -3.1246441535518692e-002
      -3.2777489398083080e-002 5.8925892469665980e-002
      -7.1902839048961387e-002 1.4283771176772322e-001
      2.1454028072543463e-001 -1.7484623465261134e-001
      2.0304200788031940e-001 1.2719650503554888e-001
      3.9407933442448147e-002 2.9478031292299912e-002
      9.7979777593982353e-002 -5.6525504878129476e-002
      -1.8958175477211126e-001 -1.2440783801572206e-001
      -1.4903462116433572e-001 -7.4238729308505639e-003
      8.6853968368727705e-002 1.5190389820127824e-002
      -7.8504151825716517e-003 2.8158512988048754e-002
      -2.3738408752380577e-001 -5.7508545951529454e-002
      1.5182015424221968e-002 -5.9865299134826772e-002
      -8.2836798982476312e-002 -2.3231764063531675e-002
      -7.3171125528199807e-002 -2.0421393232367444e-001
      -5.0551239241339509e-002 -1.3671638459668798e-002
      -4.3994831327765313e-002 1.9461858804637650e-002
      1.4455880766751988e-001 -3.8056822519060057e-001
      2.5618798922398850e-001 2.0338351897127271e-001
      -1.7142749359352116e-001 -1.3202896143743709e-001
      -1.5378015115634414e-001 2.0284004955585980e-001
      1.7238179750830149e-001 1.1452386340974763e-001
      4.6448243119952361e-002 -1.6740761449225489e-001
      -3.2186892268650583e-002 1.0095234515476340e-002
      -4.7194581553903193e-002 4.1217466352055004e-002
      2.9681726927866570e-002 -2.3156313291414279e-002
      -1.8618248556718797e-001 -2.7976305923230461e-002
      -1.7169784140870675e-001 -2.3452394208825347e-001
      2.1519795820316065e-001 -2.1412078474811477e-001
      8.3269913017818858e-002 2.8888312864138132e-002
      -6.5275191261260135e-002 6.1914399479729480e-002
      6.3408968002551885e-002 -7.0030048455156724e-003
      1.2304179846166280e-001 -9.8955552663319082e-002
      -1.2280200579716158e-001 -1.7408090244125982e-001
      -7.9646466216207659e-003 2.2565236407844861e-002
      1.0083578544629683e-001 2.6115276202509329e-002
      1.2764350142815986e-001 -6.9871985293788810e-002
      -1.1348009226696312e-001 -9.2971941521170776e-002
      4.1385412749288558e-002 6.3419676309499698e-002
      5.1838727595916276e-002 1.3314370699170214e-001
      3.0300940920700262e-003 -2.6162600344678232e-002
      9.5612819396181187e-002 -9.9276654607837925e-002
      -1.4420989301427453e-001 -1.5120998612868572e-001
      -1.7579869156734682e-001 3.5128957474037679e-002
      -5.9275981011939947e-002 -9.8742662591447455e-002
      2.7172059468869098e-001 1.3799390358961752e-001
      8.4721065514241939e-002 -1.2123601813423424e-001
      -8.1133832487940122e-002 -6.6946006319836979e-002
      3.1157612346407074e-002 -2.9637759484872631e-002
      -1.2385271207623823e-001 1.8855584605945608e-002
      -6.7327810570739333e-002 4.9047067074128294e-002
      -7.0215193421999791e-002 9.2363988919998571e-002
      2.1087163682863692e-002 -7.1173025628295250e-003
      1.1087084230241062e-001 -1.4130836210556103e-001
      2.9590627650934037e-001 1.2169496619956859e-001
      -3.2879347490094052e-002 3.9703107164411007e-002
      1.4835432541109259e-001 1.0417478238452844e-001
      5.0630718032307953e-002 -1.1401727956078227e-001
      1.8441734092537684e-002 3.4145226506701831e-001
      9.5604171492461629e-002 2.5886788329926563e-001
      -1.0622537996459293e-002 -1.5002883230892405e-001
      -5.8445292295696449e-002 4.0554460182687449e-002
      8.5968385047420451e-002 -2.5739191714158455e-001
      -1.8729604790686941e-001 1.6963062970565548e-001
      2.9489468200981837e-002 -1.5016360826717259e-001
      -6.8242752758520556e-002 1.3164652726982731e-001
      2.7265199505876241e-002 1.4583550142870952e-001
      -1.1623441435985916e-001 -1.8112705274176744e-001
      -2.2304809554498484e-001 -3.0073958440813631e-001
      8.2558734382417009e-002 -8.3328101375167218e-002
      -1.6446405515852547e-001 -4.0629264678213005e-002
      1.6794230843232183e-001 -1.3999407789292528e-001
      1.5239192811280397e-001 -4.7665883039003279e-002
      4.9160074647785920e-002 3.8142640623539545e-002
      1.7956266209012547e-001 5.0496857910622826e-002
      -2.2454019143619777e-001 7.9994962616403653e-002
      -1.3725999685540430e-001 1.5078970682465370e-001
      1.8853224604097971e-001 -6.2664790880913755e-003
      1.0367757261174124e-001 -3.0519951601148393e-001
      4.2724536237578950e-002 2.8989126879638616e-002
      5.4158189793951830e-002 -1.5481473816218716e-001
      4.5301968285077272e-002 -8.3450088806046790e-002
      1.2401183189397105e-001 -1.9547930495711588e-001
      1.8214454830325327e-001 2.9574556879509956e-002
      -1.2121571115713797e-002 1.9468973469748893e-001
      2.4144516949995043e-003 2.2848272167548689e-001
      1.0856142846301801e-001 -1.8966978315048243e-002
      -1.5417709012826064e-001 6.1681136465970687e-003
      -2.0641229023410579e-001 -8.5672664066702708e-003
      4.1906835294445409e-003 4.3463896563405324e-002
      5.2119979392576364e-002 -5.6728099491062375e-002
      -4.5326003175473847e-002 2.1896178525656871e-002
      -6.4019435787351642e-003 7.1977861270805868e-002
      1.0363111093485618e-001 -1.2548025660423644e-002
      4.7191144033132591e-002 7.6154421563385213e-002
      8.9801505897185899e-002 1.8658779117911920e-002
      3.8445195130584128e-002 -4.0693331578521633e-002
      4.5794686323162297e-002 1.4937377978542479e-001
      -8.4664580434476097e-002 -5.4318621471312174e-002
      -2.5724089314059399e-002 -8.7564714085110018e-002
      4.5265389983065923e-002 -2.4127956443120817e-002
      -7.2352438745974204e-002 5.9187531301340718e-002
      -1.9420881082881966e-002 4.2796428960296104e-002
      -6.5910568141946346e-002 -3.6701588109067186e-002
      -4.3617127708162010e-003 4.4323000097666342e-002
      1.2581312011956400e-002 2.8478347655022891e-002
      1.1085108886817267e-001 3.9615586016610707e-002
      4.4712995743274808e-002 1.3769861058632829e-001
      -2.0282730586078653e-002 6.3807060339713728e-002
      -7.4884339282992665e-003 -2.2392670064166020e-002
      2.4479647818300084e-002 4.6006342188122551e-002
      -1.1475855718963094e-002 6.0060206683813969e-002
      -6.3348487991667798e-002 3.3619552381427643e-002
      4.9144611757311420e-002 1.3796477829209688e-001
      -1.5318345294619059e-002 -1.0739017721964256e-001
      -2.5699920908802781e-001 2.7511154269974945e-002
      -7.3874842895170018e-002 -9.8973037371424932e-002
      -8.6669211744889993e-002 -6.7539300490858404e-003
      -1.5180461373362395e-003 1.3162475645330346e-001
      2.1765488399055686e-003 5.7646477352023669e-002
      4.0031727091575375e-002 4.3927068410026162e-003
      -4.7960137803414640e-002 -1.3929979096042567e-002
      4.1157143612233403e-002 7.1692737868548073e-002
      7.1472189918115672e-002 -2.9426379718353129e-002
      2.1099230711526195e-003 5.2082937089942626e-002
      -1.4033913760964925e-001 3.3767391111274560e-002
      -2.5752229779843323e-002 2.7706528288911035e-002
      1.0415123946076420e-001 1.0756852141213115e-001
      -5.0628163572621855e-003 -1.4310477150713473e-002
      -7.8460144742192789e-002 -3.9918973762445645e-002
      1.9944826535352147e-002 -4.3124778580130624e-004
      -3.3834083399000031e-001 -4.9247610703587455e-003
      1.4199159838573358e-002 1.9546211462444266e-001
      1.0755156154071385e-001 -1.3640529213783742e-001
      -6.4564712641466931e-002 7.8144832448544352e-002
      6.4604362572507748e-002 -1.4879295435441546e-002
      1.5153486710371877e-001 -1.1274485880687173e-001
      7.4955088422269216e-003 1.6830785683253197e-001
      -4.4984333600011368e-002 -1.4367299287129440e-001
      8.1628225271867388e-002 -7.2276352848126890e-002
      8.6529458564742878e-003 -1.1852835991916839e-001
      -1.8543131456241543e-001 5.9605101302532430e-002
      2.0809059659899662e-001 1.7426511091751173e-001
      -7.8694965844995385e-002 2.6739864588169331e-002
      1.0657294156975766e-001 3.1324424528472075e-002
      5.9821071100293589e-002 -5.0688599442128807e-002
      2.6657826484401748e-001 6.1057693089212649e-003
      1.1799410264783371e-001 4.1136620314001761e-002
      -1.1362108914269074e-001 -3.6567183991031857e-002
      -5.5273384856733498e-002 -1.2891635230753018e-001
      -6.9853435920693346e-002 -1.6588637147199869e-001
      -1.3706832531686186e-001 2.0095282831744443e-001
      -2.2217733487276412e-001 4.3276508770452242e-002
      1.9361443380972385e-001 1.3520834023547010e-001
      -1.8330748280634437e-001 -1.8633742521007740e-001
      -1.0925801523955635e-001 -1.0031503065505205e-001
      -2.2677521228870967e-001 -4.5690154100266278e-002
      5.7949692566739552e-003 -4.6348975376534020e-002
      -6.7751799552512773e-002 -1.1083503724752430e-001
      2.3793177448155679e-003 -1.7508797763643666e-001
      9.7957397500537391e-002 -3.4355681788210177e-002
      -5.6575876997854622e-002 -5.6276948618905467e-003
      9.7371003037972064e-003 9.3197706514790687e-002
      7.1778855518811732e-002 -8.7123911540563356e-002
      -6.9258693777328375e-004 -8.1102424594036819e-003
      -6.8813887559450004e-002 -8.1772747962958914e-002
      4.8958477020713591e-002 -2.8384912647232953e-002
      -7.9296334004580610e-002 1.4810906410428323e-001
      7.3371718463070184e-003 -1.4041034290592383e-001
      -1.4404715747253441e-001 -1.1630880255974146e-001
      7.7870214785582759e-002 -7.5617750226843583e-002
      1.2445848394195653e+000 5.6656311407495538e-002
      -2.5197282780958741e-001 8.8489386736325490e-002
      -1.5284682738337574e-001 -9.0466261373759183e-002
      -2.9848822084095811e-001 -1.4497276057291530e-001
      2.3116555020213997e-001 -2.1064578480498697e-002
      -2.3745973179683552e-001 3.8488029373827670e-002
      7.3534617255136658e-001 3.9378930346634478e-001
      9.4012636468489036e-002 -1.0965615119708449e-001
      -1.9182630759014252e-001 -3.1122043901807206e-001
      -1.6013275268414385e-002 1.4624274225198022e-001
      -1.7466413884988399e-001 4.2233547070406041e-001
      -2.2257742780831563e-001 -5.4316014833735951e-002
      -3.5751904483450409e-001 -2.0636834599205359e-001
      5.1815359909753611e-002 5.8233427720730557e-001
      -2.5784157585603614e-003 -1.7049115839499446e-001
      -2.7129220745152949e-001 -1.6712077662978975e-001
      -2.6765393595143067e-001 1.5018489425426534e-001
      1.4822011915233453e-002 -1.4629688885622187e-002
      -3.5930438648745512e-004 1.5764935909826711e-001
      -1.7812468221675593e-001 -1.8408813568263160e-001
      9.4411625537252450e-002 1.3919951285046242e-001
      -7.7438891526587200e-002 -3.6943294567898875e-002
      -3.9049831232051302e-001 -1.6303782775786826e-001
      6.4885537955824441e-002 3.3572573380930987e-001
      -1.2306238861108522e-001 -2.2170866056340280e-001
      -1.3907129954410338e-001 -1.4789575145999556e-001
      -3.3972918720173856e-001 4.5321048970656425e-001
      -8.9212632009546378e-002 -5.9394001561947726e-002
      7.5542154811926249e-002 -8.3169852083365248e-002
      -2.6454482344080194e-001 -2.6308245773198013e-002
      2.7105420899070837e-001 1.4926111534638731e-002
      1.5898530153835097e-001 -2.8868575885172365e-001
      -2.5852191881965264e-001 3.8520421075045852e-001
      -3.0223310273577764e-001 -2.4044800978963612e-001
      2.2713366102846261e-001 -1.2390683344188375e-001
      -1.3528361963943147e-001 2.0285690481009136e-001
      3.6276050820113970e-001 -1.6934115083676180e-002
      3.4010642911926797e-001 8.8197707456774105e-002
      -2.3487561502733981e-001 1.0777727182837121e-001
      -4.9444387245547734e-002 -1.3202732207481471e-001
      2.5825057399113660e-001 -2.6657894378818124e-002
      1.8899927397803200e-002 6.0369792221997502e-002
      -2.2151528554457268e-002 8.9057293113384964e-002
      -2.8277547691325421e-002 1.3771586152824165e-002
      7.8067106285241619e-002 1.1066882927426385e-003
      -6.7178750930542014e-002 -4.8650735720467048e-002
      -2.5060494538025607e-001 1.6746483232498477e-001
      -1.4201954289786559e-001 -3.9823008289897871e-001
      -1.8107143291194186e-002 -2.0495644872898483e-001
      9.3854198457046942e-002 -3.6105145769872358e-004
      -9.5644559478693561e-002 -4.0109843862382435e-002
      -1.4581920488308767e-001 1.6533780073459550e-001
      7.9837854959694893e-002 -1.5069683439276041e-001
      3.0987892228773441e-002 -9.6852586070843953e-003
      3.1766166892116685e-002 -1.3921348895189961e-001
      9.6731146053305475e-002 -7.8746016854562700e-002
      9.6783695289345301e-002 2.7316203556110952e-001
      5.8004521740096009e-002 2.2122942656621372e-001
      7.9574722442979209e-002 -1.1874640908649373e-001
      5.7566904139420109e-002 -2.8900011693962103e-002
      -8.1584912147067881e-002 3.1539736313774042e-001
      -4.5706742592260802e-001 1.4398135533877665e-001
      -2.1159164665731946e-002 7.3869416129490231e-002
      -5.2808554075890739e-002 -1.7647535678746266e-002
      -5.9188838422641707e-002 -4.6191600499107040e-002
      -1.1622632696630550e-001 -7.1389742233055609e-002
      2.7249029827991558e-002 -4.8063313114645956e-002
      -1.3256272456099485e-001 2.4602505821594517e-001
      7.9080170997323646e-002 -8.6263446973853838e-002
      2.6862392401373791e-002 1.0839873856447527e-002
      -2.3089660612526280e-001 -1.0142966415979029e-001
      -2.6994907029544067e-002 8.2763202552450219e-002
      -4.7674126978099203e-002 -1.4993914743329168e-001
      -3.5284891045653966e-002 -9.5914339983704272e-002
      -2.3952490816978361e-001 -1.1761098043081393e-001
      -1.2138590089466596e-001 9.2758407221576106e-002
      9.2897846434912182e-002 7.8834721221777704e-002
      -2.9103176403707600e-002 1.4535170906602498e-002
      7.8809801165401566e-002 -6.3524399731640716e-002
      3.7448705992046159e-002 -1.6048694635720631e-002
      2.4887510413291441e-003 -2.9250614615942239e-002
      -2.5679400967762039e-002 -2.6212757832000322e-001
      -2.7103680618129910e-002 1.0148224613445081e-001
      -1.4280505588183021e-001 -8.4253445384617126e-002
      -1.0623330990287320e-001 -2.0931463689945348e-002
      -2.0880692730760372e-002 -4.0149649328899986e-002
      -3.2803122608308852e-002 -2.1338320379973286e-001
      8.1731821175195535e-002 2.9598553863690652e-001
      1.2624685323855439e-002 -4.5344637290675047e-002
      -1.0336470119507873e-001 2.5370448904095243e-002
      1.4297652938244756e-001 -2.3511257676930145e-002
      9.2218763565569309e-002 -9.6950992267848465e-002
      -4.5292690962876858e-002 5.4242281787556863e-002
      1.7762123956216888e-002 1.7960071058101262e-001
      -2.3967709542893928e-002 -5.2803199267878194e-002
      -3.5974514765322756e-002 -8.7981741269526167e-002
      3.7387631580439624e-002 -2.1271383948159225e-001
      -6.5767216280023993e-002 -5.1802855289714574e-002
      2.7874185934890796e-002 1.9358281784309295e-001
      7.7692179042936085e-002 -2.1287882956922414e-002
      -5.6879967658532690e-002 -2.6059196218676572e-001
      2.8289369661873126e-001 1.1989121334795934e-002
      8.5875675112979652e-002 -2.9470243020677894e-002
      -3.7411181241538916e-002 1.2549098001352826e-001
      1.7095085995484685e-001 -1.3394749956240162e-001
      1.8262503904366389e-001 1.3475619377796075e-001
      -2.5651449206048199e-001 1.9567858291105578e-002
      1.4145681779674502e-002 -2.2386168100683965e-001
      8.9780957948117409e-003 -8.1970721189070797e-002
      -1.8133146975184503e-001 -3.2777421592321367e-002
      2.7245650774873198e-001 -3.8017687135279539e-004
      -1.5609988253553421e-002 4.0101405917421805e-002
      -5.8451335834603976e-002 1.1193917405737632e-002
      6.2358447119394339e-002 -1.2281971202872173e-001
      2.5163826709316112e-001 -5.6640620244784466e-002
      6.9460977694588061e-002 -3.1096596888241412e-002
      -3.5139008773198942e-002 -2.0152235244113903e-001
      1.6885009858203129e-001 -2.5655507893412869e-002
      -1.3751032687162915e-001 9.1948558730493013e-002
      -6.9532588470422790e-002 -1.4846479132442005e-002
      1.0994439865362887e-001 6.7782517828573110e-003
      -3.6153658909647106e-002 -1.0002304093295292e-001
      -8.9710271217960075e-002 1.2507716228514035e-001
      -3.7418027896139988e-002 -1.3147414865212909e-001
      6.3653575581608238e-002 -3.0755283910938465e-002
      -1.1538767781953296e-001 1.5077045894910466e-003
      3.4043058124001768e-002 -2.5797716648631480e-002
      1.1590436281569921e-001 1.4429452057382783e-001
      -8.2966095207099091e-002 8.3669211521407452e-002
      -1.1050667235110209e-001 1.1520348158196167e-001
      2.6223421237150837e-002 4.2677970182056026e-002
      -2.5490720221937376e-002 1.1966485203708793e-001
      4.3203929903573177e-002 -7.4356850510348876e-002
      -5.2968353299245208e-002 1.3307896967588820e-001
      -1.5251925953250835e-002 -7.9629845802613002e-003
      -6.9669697698433439e-002 -3.2875420115316550e-002
      -9.0005969040820200e-002 -9.9769797583035252e-002
      9.5321608594370111e-002 -8.0876382435608407e-002
      3.6950438906841243e-002 1.0422467028082363e-001
      5.5645760697785901e-002 9.5955600779519867e-002
      5.6954025166583766e-002 -1.1668996545950268e-001
      1.7055553766707141e-001 -1.9970268251233610e-002
      -1.5234306522704577e-001 -8.4473411968846154e-002
      -4.0016634265813339e-002 2.2101912348119074e-001
      5.9812207336279122e-002 -9.7950361201448316e-002
      2.8352387517378091e-002 -9.3491134654593952e-002
      -2.1332082095598115e-001 1.2911833205696646e-001
      -6.3910601134686152e-003 -3.6750461920526939e-001
      1.5333480096291862e-002 6.6823084855074405e-002
      -1.3713860183566656e-001 -1.6205341454021735e-002
      2.0497657906875547e-001 2.9770638199119192e-002
      4.1730310924450086e-002 -7.1934986645796048e-002
      -7.1521538253784905e-002 1.3125548449265287e-001
      1.0742332966633166e-002 -6.6895638877846053e-002
      2.2377220112676927e-001 1.2635341266750829e-002
      2.6012124339083075e-002 2.5226298309249887e-002
      -3.5567840932635493e-002 -1.4250819582922178e-001
      1.4262822310958828e-001 8.5301221927944745e-002
      -1.0866049951125314e-001 1.1563063494653091e-001
      -9.6470258937831330e-002 1.9980548298864052e-002
      -2.0211998081402213e-001 -4.5584862369260737e-002
      4.8947269933194662e-002 1.4272368307404552e-002
      -1.5460365700556325e-003 4.5641928415079067e-002
      -3.8135537433641772e-002 -8.1201490340259017e-002
      -4.2411954643512301e-002 -1.0214235643691085e-002
      -3.4691635643374685e-002 -1.4283847594816781e-001
      -1.5217301095183761e-001 3.8261528245351409e-002
      -6.0242772939128990e-002 -8.8150243516263743e-002
      -9.6090400383767177e-002 -7.1668212128385977e-003
      2.9441061158897334e-002 1.4282061929298495e-001
      -6.8872428411807947e-004 -8.7605098989885624e-002
      -8.8661978868055880e-002 1.0778319391453968e-001
      1.5552528452896985e-001 -4.9089073847816238e-002
      1.9198006126513571e-002 2.4050258114909458e-002
      3.8052654494429024e-002 -6.0510175696274489e-002
      2.9398460378703177e-004 -7.3224718442118919e-002
      3.3906932423777549e-002 7.7992361561683043e-002
      8.0927445455962019e-002 1.4432815727020343e-001
      1.8466144830811135e-002 -7.5550395578250634e-002
      5.8273130495527722e-002 6.9307874144984433e-002
      -4.7548118909604573e-002 4.1608078582720649e-002
      -2.1887462559790746e-001 4.5672201698378885e-002
      9.4019857637350712e-002 3.5007201916081108e-002
      -7.0090241512379095e-002 -4.6159129239129265e-002
      2.1605639879606314e-001 -1.3417751820475514e-002
      1.6325811009213290e-001 -1.8906811260753409e-001
      4.9189272686029663e-002 9.7344790150131928e-003
      -7.7134212933261476e-002 9.4287363705717234e-002
      -2.3146945607004773e-003 -1.2316733295222494e-002
      2.0920889710072971e-002 9.7964667107725723e-002
      -1.0171178918078806e-001 1.4427852409352701e-002
      -3.6625135436831588e-002 8.7648103237028920e-004
      1.4564901421482706e-002 -1.0567508554879472e-001
      3.7359383783521459e-002 -8.5040744018290773e-002
      -9.0206646220566830e-002 -9.6272909195301265e-002
      -2.0137615428588967e-002 -2.1146029535201939e-003
      8.4004710212305489e-002 3.6826995278310078e-002
      -2.0264977397532070e-002 -4.0476891851554946e-002
      -1.2207923975448259e-002 -9.3019623545981076e-002
      4.4977990949875632e-002 5.3572933181335096e-002
      3.1463513206592836e-001 -3.2618869679134556e-002
      -7.5378541591481135e-002 -8.0791324545937404e-002
      -1.3510370307360756e-001 8.5546368982537035e-002
      2.8195805212917001e-002 -8.7006587028788454e-002
      -5.6272436768830085e-002 -7.9531073518695847e-003
      -1.2378002860646990e-001 1.6243686996746676e-001
      9.1619371903040120e-002 1.6087544153107241e-002
      5.0742642843557853e-002 9.8157445177123506e-002
      -1.5427444677697166e-001 -1.5341854127138167e-002
      3.3369715220228796e-003 1.6358258823807495e-001
      1.2896226212608580e-001 1.5130949012736655e-001
      -2.9561314913304743e-002 -2.3355988528000762e-001
      6.3943955240494940e-002 -3.6884839929923502e-002
      -1.0645200577670774e-001 -1.7003197415541932e-001
      6.0855848484183241e-003 -9.0797886868416555e-002
      -2.8937785849919379e-001 -6.5110527077489239e-002
      -1.2150355777302051e-001 1.2479809800731054e-001
      1.3991977160765562e-001 -1.1581769377712862e-001
      -4.5496397013577522e-002 8.5306087085196852e-002
      1.1714216762412823e-001 1.7852370694380831e-001
      3.0321262260103760e-001 5.3251810583439647e-002
      -1.0772880347896217e-002 -1.3970656433362408e-001
      -2.6359786595569668e-001 -1.1922401840209064e-001
      7.2315403411734328e-002 1.6107175687956141e-001
      -5.0881399873591332e-002 -5.3601442096998679e-002
      1.3958791856500172e-001 -2.4722142961541493e-001
      -7.9763521757160935e-002 1.7230096616751270e-001
      -6.9849749614205078e-002 -5.9701324283168546e-003
      8.0887656762143309e-002 5.3907006040928414e-002
      -7.6917618238292240e-002 9.3759827729378610e-003
      1.5395225671942683e-001 -8.9972552587520488e-002
      -9.8619648764114679e-002 -9.0866259962293569e-002
      -9.7136505328735662e-002 1.9156073249894853e-001
      2.1120711129751141e-002 -6.3329131840165934e-002
      2.2931363569027918e-002 4.6151139583525153e-002
      -9.7006250576619005e-002 1.2274167254324937e-001
      1.3854417542719127e-001 -2.5431848555109434e-002
      -9.0950042828196520e-002 1.8420954718498458e-001
      1.3780032230898376e-001 4.2306665452114749e-002
      -2.3007993988809230e-002 -4.4905932695217315e-003
      2.1042103674094131e-002 -6.7887606276343965e-002
      -2.3113951501971687e-002 -1.7193584691426476e-002
      3.1449759156321810e-002 -1.1838440440422551e-001
      1.8368043910219065e-001 1.6729647787802271e-001
      -3.3280356938606100e-002 4.3298021704027915e-003
      7.0346820857422401e-002 2.1922659998695276e-001
      8.6925164087280016e-002 -8.1724150067448986e-002
      1.1395289932781520e-001 1.6408544488796178e-001
      8.3239201820309125e-002 1.6887799186226618e-001
      6.5305998174141015e-003 -1.8213009565205307e-001
      -1.0721151136878328e-002 -7.3452769091088263e-002
      1.5351727387318381e-001 -3.3697276260434395e-001
      -1.8288854521234524e-001 1.3541576827640112e-001
      -1.6982714304676742e-002 -1.8552488692024433e-001
      -1.6234039566614050e-002 3.2597974941315735e-002
      5.9420142464985781e-002 2.6330961129741409e-002
      -1.3080406363044592e-001 -1.6714893121289554e-001
      -1.8745754732136874e-001 -1.5132303684254614e-001
      -2.1244108477739079e-002 3.1538804612272583e-002
      3.5439460552289278e-003 5.4063998627393913e-004
      2.8084209694638956e-001 -1.4075941407157729e-002
      5.8622286232675513e-002 -1.6655954254411398e-001
      -7.0629810471614290e-002 -7.0230533819371166e-002
      1.4419105654513478e-001 -1.7930107312332655e-001
      -3.2589973620123530e-001 5.5567211560129670e-002
      -7.6692678700793951e-002 1.1285941358850703e-001
      1.8115118907950861e-001 -4.6742706048794422e-002
      1.5936526663683638e-004 -2.4561689574694201e-001
      -3.4658294159558893e-002 8.5380854577638207e-002
      -2.6690921648988272e-002 -2.7931543321152068e-003
      1.0637487991627907e-001 6.4828433304122066e-002
      -1.0352234721074285e-001 -1.1701774512791234e-001
      3.2119150763183099e-002 9.6234851166151061e-002
      -2.1630203853722853e-002 3.3558699776632665e-002
      2.1311015570656964e-003 9.9159916629117398e-002
      1.1427598506337272e-001 5.2150478247080294e-002
      -1.8766057848907874e-001 4.0758909290591214e-002
      -1.3207942533127046e-001 1.3899408023085220e-002
      1.3678019502998481e-001 -4.4749743589137317e-002
      6.1709317031941317e-002 -1.0388499478854950e-001
      -3.8559392225605733e-002 -1.6088752049111105e-002
      -9.1821653603072137e-003 -9.1102798935791776e-002
      -3.7646995585171802e-002 3.2228888248437039e-002
      -4.2353782971187137e-002 -3.4625234938633793e-002
      -5.6446651938668949e-002 -2.4521361974286369e-002
      -7.3178456733239312e-003 -1.1835163159952504e-002
      7.6268985162374639e-002 -4.0660819114279483e-002
      -2.6859832285241442e-002 1.4175310125218782e-001
      8.0872788100539716e-003 6.1254726381925750e-002
      3.7974297197474276e-003 7.0872807417856731e-002
      6.2940754752332809e-002 2.8745672739390472e-002
      7.9804540308860680e-002 -1.5602224793288005e-001
      2.7611629339135760e-002 1.0492340259429550e-001
      -3.7266207592188952e-003 5.8079838686768977e-002
      -5.9767254217252964e-002 6.7020344059805642e-002
      1.8389314252451237e-002 9.8230843599224245e-003
      3.2017099325395683e-002 -1.0777390634531578e-001
      4.2749977855881693e-002 -2.3131533908828370e-003
      -8.5824061820795369e-002 1.6448472121688390e-001
      4.3116398287798299e-002 5.5116721791551783e-002
      5.4622590001732654e-002 -2.1191897811842789e-001
      2.3303383748617312e-001 -1.8994649158472477e-002
      7.6280113669014368e-002 -2.7367511481969271e-002
      1.1820993945498953e-001 8.3715963883637182e-002
      5.2480497913859864e-002 -2.3199330710398633e-002
      8.0032090803788744e-002 3.5854193618998137e-002
      -2.7599641788977152e-002 5.7157312111230971e-002
      1.7735853697394895e-002 -1.8016105843430699e-001
      -7.1051872759422388e-002 1.2941006338094052e-002
      -1.4047522334543897e-001 5.2902866482919128e-002
      1.8309749628778949e-001 7.8373932669933311e-002
      9.6929870111470869e-003 -4.2328257127169422e-005
      4.2538957746097478e-002 4.7997391589752469e-002
      2.9869312864040282e-002 4.2525386142102779e-002
      1.1046108979311615e-001 -2.4704996365586838e-002
      5.5862274436924354e-002 3.3334367962257409e-002
      -3.6500303047106136e-002 -1.2344442911939414e-001
      1.1351887546937069e-001 1.7784352393723765e-002
      -4.5063405147170638e-002 5.6837690073862954e-002
      -3.5716361177234930e-002 1.0978292398499465e-002
      -7.3719117781240118e-001 5.2148027207454456e-002
      4.6697193540260230e-002 -8.1366555179438207e-002
      1.5857896819930301e-001 3.2587343356159350e-002
      -4.4021475509195296e-001 -2.6377724106082989e-001
      1.7218035222724964e-001 -7.4464275228794327e-002
      8.2022626612269320e-002 -4.2859476436513266e-001
      -3.2694984637185759e-001 -2.8101653436116297e-001
      1.7377523691420784e-002 6.5732450029374015e-002
      5.3732477415410221e-002 -3.6199523508696385e-001
      -1.4001461980389254e-001 1.5125090663803498e-001
      -1.9688255939328625e-003 -1.4276038105446118e-001
      6.0927586288717661e-001 1.9236838921512164e-001
      -2.5231894463034792e-002 1.3383870462964589e-001
      2.0988673395657581e-001 4.8711570575650770e-001
      4.6788553604457994e-002 -1.0910253116050633e-001
      2.8631939223287939e-001 -6.9068329337813705e-002
      2.6907395947447948e-001 -2.3392230141026926e-001
      -1.3760837661707931e-001 1.7828439304567803e-001
      -1.0028842141105986e-001 2.2646079829920918e-001
      6.4834297576472841e-003 -9.6864909196073018e-002
      -3.4585337883127998e-001 -7.7576158658741137e-002
      3.5620407073381349e-001 2.6623524092437512e-001
      3.4247729235711122e-001 1.0148793969219475e-001
      -2.9854670683717949e-001 2.1678668195237794e-001
      5.5089797842277528e-002 -2.1510858334405844e-001
      2.1835807005200464e-001 2.3205556510936018e-001
      -4.1027950742039854e-001 -2.9689067393857221e-001
      7.7789094034046824e-002 -5.2471691167963033e-002
      -9.7524449787638069e-003 -1.2259915243736474e-001
      -1.5827109893708616e-001 -1.9156572267771826e-002
      2.0958072305443948e-001 1.0438144495110352e-001
      1.2138521221330527e-001 2.5856508701365299e-001
      -1.7370047291529389e-001 -3.0498434322875190e-001
      5.4427950798106715e-002 -1.7414091148574612e-001
      3.9220586195641727e-001 -2.2864614538951061e-001
      2.3946687347347548e-001 -1.8755494482637747e-001
      -2.8784932614604847e-001 -1.0235672250790016e-001
      4.6836073002289996e-001 -2.9070453655947509e-001
      -4.7291838718951984e-001 8.0290892885249737e-002
      -7.4081530685488645e-002 3.5968423597546754e-002
      -4.2976221959401528e-001 -1.1305287692935810e-002
      9.2948483899965587e-002 -1.8236895226995181e-001
      3.4398799996038718e-002 1.8487099278400834e-001
      4.3560941260462421e-002 -1.2974850782052680e-001
      9.4808357559791924e-003 2.7564482392144450e-002
      7.0233469164949103e-002 -2.4335379048604719e-001
      -3.1803889721547646e-001 -1.7618276061531404e-001
      1.1966978787421859e-001 1.0389832750839631e-001
      -7.9178207236491938e-002 9.0078746291633732e-003
      -9.9009949573514888e-002 1.2657236497858365e-001
      1.1123990417459462e-001 -6.6794045861999649e-002
      -1.1725781591851991e-001 1.8227227260326312e-001
      2.8547510590308656e-001 4.7532684459375939e-002
      1.6525972840105398e-002 -1.4419068916448508e-001
      2.5761371389981354e-002 -5.8771675998846151e-003
      5.0695130692402439e-002 1.2112562683854054e-002
      1.5424385387725528e-001 -5.9540266466364775e-002
      2.0908997440865110e-001 -5.1217728283292026e-002
      1.2897129192598683e-001 -1.2668020536128347e-001
      8.2105380133673897e-002 2.4515134433465945e-002
      -1.1584462001303350e-001 -1.4363440474105083e-001
      1.4511960425913167e-001 2.2495909185698590e-001
      1.2797699841802193e-001 4.0456379567361679e-002
      -6.5365401576245583e-002 -1.0914352955239860e-001
      1.7077062014628125e-001 9.6592313431531657e-002
      8.4731892165002647e-003 -4.5780083467066171e-003
      -7.1132624008804726e-002 -2.3789817525563353e-001
      4.7369785582430587e-002 1.2745012216656826e-001
      7.3473240020020647e-002 9.0275763460579153e-002
      8.6214929791777126e-002 -4.9319598302885979e-002
      -8.9132245276082156e-002 -1.2792866203398343e-001
      -8.6666121025028589e-002 2.0997631249911508e-001
      -6.9180384632027858e-002 -2.7480410509379072e-001
      1.0337811666282236e-001 -4.2382091489985403e-002
      -2.0447903523381061e-002 1.1700059223676507e-001
      3.5962721040539658e-002 -1.3363758617582153e-001
      -6.5148804381491773e-002 -6.5275816803786288e-002
      -9.6288470878700780e-002 -8.3558617587243204e-003
      4.4903666452913722e-002 -4.5926083448830944e-002
      -3.4524141832564442e-002 7.7108165992179359e-002
      3.7895424516112503e-001 -7.7477575457204434e-002
      -5.2985237357769499e-002 -5.0222932674721853e-002
      -6.6402643720563329e-002 3.5604938162131547e-002
      2.7858658772291084e-001 4.9878448921236856e-002
      -2.9169098908402812e-002 2.3256126829426998e-002
      -4.0027139754006943e-002 1.6471864003140288e-001
      2.1892935932393903e-001 8.3311984933772551e-002
      8.3540636105254876e-002 1.5524729515086372e-001
      -1.5681077648133251e-001 1.7552253733370107e-001
      4.9387174900188506e-003 9.6137435939656415e-002
      5.9312869283698375e-002 3.1449167146671390e-002
      -1.8160427192459047e-001 -1.5489823411761797e-001
      7.5359742928701956e-002 6.4070363773691607e-003
      -9.4336923913271753e-002 -1.5746454328488890e-001
      1.2563887123404603e-003 -6.0918235861703730e-002
      -1.3011456485640563e-001 -5.1584560537686952e-002
      -6.1000481478190698e-002 3.8710164722114221e-002
      1.4807271834605248e-001 -1.5986361360898810e-001
      2.2502762116732775e-002 -1.0398273121655808e-002
      6.9931932090512391e-002 4.2484375149307030e-002
      2.5279039599892411e-001 -5.2689622271554229e-002
      -4.1728758371032099e-002 -9.0340942008619640e-002
      -9.4526751845050369e-002 -8.4984081027970379e-002
      1.1372091249517211e-001 -4.0255015595378536e-002
      9.0183202153515784e-003 -2.0142539736650655e-002
      -5.2582110217851537e-002 -1.4774527722739103e-001
      1.4967801268694025e-001 1.9893246475077861e-001
      -9.9908484774596198e-002 -1.0418687565550663e-001
      6.8840167648079681e-002 4.8013538352299365e-002
      -4.3806661127762991e-002 -4.2957744655887024e-002
      3.0580892758151051e-002 -8.0109910237647075e-002
      -1.5634355868722874e-001 -6.6828160523247984e-002
      -2.8303426674092962e-002 1.4641440069764070e-001
      3.6453396405407922e-002 -4.2765877813874731e-003
      -1.4862538710579301e-001 1.5222309890940944e-001
      -5.9124750484180387e-002 1.8658575298138069e-001
      7.4346195321167638e-002 4.1756215664925996e-002
      -2.5130732277111401e-001 1.7056855963663217e-001
      2.1209023514044192e-001 -3.8711275068868518e-002
      4.4247558035921362e-002 -4.4148455224330592e-002
      -3.8242700522507544e-001 7.5221392924283786e-002
      3.4859158214119945e-002 2.4460061529872984e-001
      1.0778059933268588e-001 -2.7901120649278643e-001
      -6.3186597269116754e-002 1.9353189299591902e-001
      -1.2938516760352703e-001 3.9406539302143888e-004
      1.9738489675618184e-001 1.2809243222787967e-001
      1.0820712992946854e-001 6.5753841432410962e-002
      -1.3860610881289234e-001 9.2630670211735402e-003
      2.7029412363855931e-001 6.9238884484814092e-002
      5.1664994565309735e-002 -3.0017578614648643e-001
      -1.0505123212858730e-001 -1.4224680394279236e-002
      5.3480522507550754e-002 -2.2609364253043718e-001
      -7.9325037639494847e-002 1.6683778218556389e-001
      1.1027659057427185e-001 -8.9269460298548639e-002
      -1.7633358782524956e-002 1.4271370107603068e-001
      1.2676906496175483e-001 1.2534088193254680e-001
      -5.2524098738529666e-002 -1.7546940499680930e-001
      -2.1035744065403730e-001 -5.2888830817845255e-002
      -1.2379101382748083e-001 -1.7855704221210850e-001
      -1.6346250429878451e-001 -1.3350484324864559e-001
      6.5823413755146373e-002 1.0388150877993969e-001
      -1.4442605105546641e-001 -8.4482968641398690e-002
      1.0439045786225809e-001 6.8990295917995464e-002
      4.1134364894477381e-002 -1.3519360005492245e-001
      -2.9862949839867436e-001 9.3498482258152042e-003
      -1.9449073097445105e-001 2.1369310551621409e-001
      2.2177619648398064e-001 -1.0287189994945389e-001
      9.7200227510331083e-002 -1.7788265920056882e-002
      -1.5082080608540893e-001 -1.3050905141382652e-001
      2.4592207667444960e-001 -6.3868016424530336e-003
      -1.5761796905878356e-001 7.1341244083913805e-002
      1.5123236093439615e-001 -3.1175227858464660e-002
      2.2421057675425632e-001 -2.1656126323482933e-002
      -3.9426653224562465e-002 1.7074699941932978e-001
      -1.6509653730942689e-001 -4.3566702502459413e-002
      1.2375447431949495e-001 -1.1559966555580156e-001
      -1.8926028195828476e-001 1.7598285936412372e-001
      -1.4254392512860507e-003 -5.7276379212379880e-002
      5.7125812917670084e-002 -7.9484342772266792e-002
      8.6114336186067911e-002 -6.0970710931081668e-002
      -3.6287880874276635e-001 5.9418691309825758e-002
      5.4551916554641026e-002 8.0834335001324517e-002
      2.0270364606529317e-001 -5.8618575707318189e-002
      6.5994950468483776e-002 1.4069169167098844e-001
      -2.9745201446319862e-002 7.3339216328293750e-003
      1.9774686370399758e-001 -4.3057509600521252e-002
      -1.2184961155192069e-002 1.6396793981083643e-001
      -3.3162031042844259e-001 8.2811090395306819e-002
      1.4374018327244681e-001 1.0281182557743843e-001
      5.8636374013697708e-002 -9.0899145241408755e-002
      -1.1141337326350666e-001 3.6468352252929610e-002
      9.3534977895632920e-002 -1.2016504699622914e-001
      -1.0792639370194342e-001 2.5910655228100199e-001
      1.5354417008440913e-001 5.2546236997832257e-002
      -4.9447779181447521e-002 1.1918892107830344e-001
      3.5887034391320671e-001 1.1193039556758848e-001
      2.9607330155466910e-001 -2.6999436092990375e-001
      -7.2804128915146774e-002 2.4912421305242108e-001
      -6.1711389821562643e-002 -6.5612463509555033e-002
      -1.0956428613341705e-002 -9.0442727436722742e-002
      3.0175697517254095e-002 -4.6737365407129888e-002
      -1.1144057708675759e-002 1.1952479269828163e-001
      3.7485711598983834e-001 2.4766832046756210e-001
      1.0660758956831501e-001 -1.7957055431290964e-001
      -2.0149989023442821e-001 -3.2583438059587098e-003
      -2.2396695469417838e-001 1.0049685833079380e-001
      -3.9922115995884508e-002 -2.1087824970700436e-001
      7.6397002297986336e-002 -1.0816331092654343e-002
      -4.8302034872717121e-002 -1.5218801641142035e-001
      1.4789153300907240e-001 1.5600144854481222e-003
      -1.8088465488264736e-002 -4.9712343035757285e-002
      6.2605002501186058e-002 2.9581646038340897e-001
      3.1172786176014344e-001 -1.2824873546346210e-001
      2.8812775268427807e-002 1.3983576359416774e-001
      -9.1326368940024300e-002 -1.2993047427818627e-001
      1.7334528408804267e-001 -1.6069994467971574e-001
      -2.5728973140945283e-001 5.6351633735604166e-002
      9.3929896723928388e-002 -1.1181102302412785e-001
      -1.8430860548455977e-001 -4.2355432069017679e-002
      3.7690239390392337e-002 -3.2558544851467815e-002
      3.5709432733700491e-001 2.7672336988828546e-002
      -3.3174891655269441e-002 4.2359765427341864e-002
      2.8508118498674982e-002 -1.0396811588247880e-001
      1.1014845059695400e-001 -1.4011442411727307e-003
      8.9574897274397228e-002 5.7441501104011005e-003
      -2.2962750616880787e-002 -8.8593600632204922e-002
      5.5645228861971131e-002 1.9386084533539924e-001
      5.1781720737206091e-002 1.6275731814826760e-002
      -7.8380363035255737e-002 7.6164425113143544e-002
      3.0187799688539525e-002 8.1000229337135129e-003
      -1.1490210904614263e-001 -5.2449055900252631e-002
      8.7987714788466800e-002 5.3867463902311036e-002
      -2.5829939284614550e-002 -2.2503448957702371e-002
      -1.4059053496220757e-002 3.8733844908307287e-002
      9.9917420017978428e-003 1.4230845485890486e-002
      1.0148221547398066e-001 1.2134089717291815e-003
      -1.5937367789952264e-002 1.5100089183248866e-001
      -1.0837517965831931e-002 -2.0083145802031799e-002
      4.2654402538738395e-002 -1.3945483523942584e-002
      -1.4120875058368323e-001 6.7962239732506868e-002
      -4.5697720187778713e-003 -1.8995855073124169e-002
      -7.7959523047325924e-002 9.2949326073285231e-003
      -3.2538911915638007e-002 5.2935697598036208e-003
      4.1874034670444371e-002 5.4281700284257557e-002
      1.2715727307766139e-001 7.2823116286046333e-002
      -4.3111825247982030e-002 -5.6354600035493030e-002
      3.7629398682418269e-002 8.1693669405530842e-002
      1.3601052119777940e-002 6.1074457583474899e-002
      -1.9541865692193166e-002 1.6498921789286747e-001
      -6.9226717018246989e-004 6.0221007368629328e-002
      4.1640398917054428e-002 -4.3342155911294415e-002
      1.2240345680916580e-001 -2.9410634915753499e-002
      -2.9346243331096346e-002 2.7515695854836750e-002
      -2.0285019985218054e-002 -6.8031192662053514e-004
      -1.3685070041386809e-002 3.9369364384441935e-003
      -7.2631953025193416e-002 9.5551022375840212e-004
      1.3688990184520711e-001 1.1356624779866302e-001
      -8.6367701292880669e-002 4.2071412417768690e-002
      1.1653426261957568e-002 6.3935581861401317e-003
      1.4494151612291756e-002 2.2934331612717674e-002
      7.3903497177428790e-001 -7.0896250232280716e-002
      -1.0480196144833806e-001 -2.4101355818796408e-001
      -1.0650275665934969e-001 1.6215162773751798e-001
      2.8857244050336939e-001 1.7906035285496585e-001
      -2.7302171380887635e-001 1.8881099573266613e-002
      -1.4062005133638647e-001 3.6530476716439164e-001
      3.8433570910701093e-001 -7.5661002598126316e-003
      -7.7606771508130440e-003 1.5257949237976737e-001
      -4.2311536161124229e-002 2.5996998088536294e-001
      5.5856700351608626e-002 -4.7258515281921723e-002
      1.4769700269519981e-001 5.8276001034261692e-003
      -2.3756053827025259e-001 -2.8851479656150708e-001
      2.7638735146151561e-001 5.6499550691242878e-002
      -1.6868500640835923e-001 1.2084006919986807e-002
      -5.5505625067087373e-002 6.9214378402178353e-002
      -1.6917031621909553e-001 1.3355265600287988e-002
      3.8971076666051659e-002 7.5605853441854552e-003
      2.3047814358845989e-001 -2.7874629348061970e-002
      1.9587439609005653e-002 1.2410172730185635e-001
      8.5773023056959871e-002 8.2210103746613611e-002
      3.0097787668282094e-001 -2.4474288392492149e-001
      1.5791844036492622e-001 -1.6290223161395470e-001
      -1.8321988417470939e-001 -6.5849019014488447e-002
      2.6006200444977667e-001 8.4649786703644939e-002
      2.5371268885075560e-001 -3.5505189162178246e-003
      3.4085100264740049e-002 -1.8977907745973954e-001
      1.1361472646764628e-001 2.9350352233136312e-001
      -3.1749533369812850e-002 -8.7114190489197427e-002
      -4.7609292645233101e-002 1.3572302392312457e-001
      -1.3259665557183367e-001 8.1583150755111702e-002
      1.9216271631435508e-001 3.5884984365529428e-002
      -3.6346709471088763e-002 1.5228874521431957e-001
      1.5613701223388460e-001 2.6796289444943200e-001
      1.2234567616195385e-001 9.7839135987831546e-002
      1.0223642030851854e-001 -2.6718385281333645e-002
      -1.4691909302748299e-001 1.9070176047902515e-001
      1.4188019200050220e-001 -2.3852970838909626e-001
      -9.0406005783034135e-002 1.7407508596357341e-001
      3.0553346420699368e-001 -6.1898876417227418e-002
      3.2353807571539855e-002 -6.7816474740425195e-002
      1.3888104976652338e-001 9.6269102212352423e-002
      -5.4543921380691140e-002 6.5493544354765258e-003
      3.0765981284810617e-002 3.2716423030125404e-002
      1.1176476037166903e-001 1.0558028196955394e-001
      -6.2643279047808295e-002 1.6818678571392884e-002
      -4.9115461356093071e-002 4.2377050183805144e-002
      1.0164706374474748e-001 8.8254947889366359e-002
      -7.6920405525200644e-002 8.3190937165235120e-003
      3.9963857604119850e-002 6.8374522767388604e-002
      5.3864468043359488e-002 -7.1801043385055122e-002
      2.2492520803185562e-002 1.5872279039456014e-001
      -9.9934423711928830e-002 -2.2053467909115404e-001
      -8.0449218631831493e-002 4.5432454340539975e-002
      -3.3734386495344215e-002 -7.9477795955187849e-002
      -6.3834408605236231e-002 6.2900227887868962e-002
      -8.0427139272640585e-002 7.5189073288179573e-002
      3.2850127025292691e-002 -2.0498818030663397e-002
      -6.1017217369067685e-002 -6.2742426075137803e-002
      -8.2033601965803227e-002 3.2431030990873098e-002
      -5.8449102525150662e-002 3.2139817282647164e-002
      1.4389237556101270e-001 9.5256349552545888e-002
      -5.4078032488164250e-002 3.5249930878023382e-002
      -3.7825269791811403e-002 8.1637219597222088e-002
      1.7626729372206645e-001 4.8993063898046613e-002
      -1.3343808128481818e-001 7.2971691361889170e-003
      2.0769468363377699e-002 -1.2957576811995023e-002
      3.0945874814873958e-002 6.5181175499849725e-002
      2.1782126234627712e-002 -4.6644025718180319e-002
      -3.4404273955461737e-002 -3.4372656670532332e-002
      -9.6519061336619669e-003 -6.4002255185669201e-003
      2.3068824762400592e-002 1.7392909058007486e-002
      1.4321908655984200e-001 3.5254774069217744e-003
      1.0542027936757981e-001 3.4717575611068106e-002
      -1.0060991538259283e-002 1.0372178168580135e-001
      -3.9689303376891721e-002 -4.3762812641970919e-002
      -4.0773706444515417e-002 8.9846330853439200e-003
      1.1360994132498324e-002 6.6431674777157890e-003
      -4.9088186034106800e-002 7.0263075748418030e-002
      7.3117191539730439e-002 4.0568534824285810e-002
      3.9781258923265806e-003 -4.8642131608795026e-002
      -2.3756548807746869e-001 -2.5323289615954762e-002
      5.7052659349668189e-002 -1.0113356527141319e-001
      8.5418178276941120e-002 -4.6930330018512184e-002
      3.2374177730874511e-002 5.9145888427272073e-002
      -2.8663200545334572e-001 3.2463985969447488e-002
      1.3376384924215176e-001 5.4967545749979356e-002
      -9.5249376057442922e-002 -1.1945374804237059e-001
      -2.7731147530432036e-002 1.0790083892863524e-001
      1.4862534688168250e-001 1.4257954897229999e-001
      -4.9936992248467905e-002 -1.4764319207400980e-001
      8.3623662412023236e-002 8.7629256142972817e-002
      5.4110748285577159e-002 -2.2498725450036679e-002
      -5.3783324436667293e-002 1.0406021443935598e-001
      4.0482782548132347e-002 1.2669575956404144e-002
      3.9925822493599855e-003 5.8056113523587763e-002
      1.3993769111166779e-001 6.7245796113080639e-002
      2.1154665811113565e-002 -1.5246842217444498e-001
      -1.0794507894568414e-001 -1.4584479671465059e-001
      9.6552536473676620e-002 -1.6652374511250745e-001
      -2.1374857788354455e-002 -1.1661659315209733e-001
      3.5494716353961751e-002 -1.3056422500805215e-001
      8.6128395341551214e-002 -9.5827915423739151e-003
      1.5874408313658719e-001 1.1295437934290626e-002
      2.0779767726044822e-003 -7.0309411425850871e-002
      -5.0692335844656024e-002 9.5827436689684634e-003
      -1.0256191425855743e-001 2.1666413965930587e-001
      -8.9211420209998976e-002 -1.2249016794580438e-001
      5.3377362060529829e-002 -1.7355603979322035e-001
      8.0449505366311735e-002 -4.0960566666427299e-002
      1.3830891863781308e-001 -9.0731696123027922e-002
      -4.5236733792577068e-002 -5.7734171772286895e-002
      -4.8126772227518475e-002 -7.3266177960387827e-002
      4.8284966415765775e-002 -8.7835897142208019e-002
      -1.8095356775574806e-002 9.1655905178241695e-002
      -7.2240534508968460e-002 1.4724974148647066e-001
      1.2185223936961642e-001 -3.8308726878658710e-002
      -2.0301832796387234e-001 -3.1945019786622141e-002
      4.1708445080510491e-002 -5.5598795203996319e-002
      9.5638029105506339e-002 7.2900938945594587e-003
      1.1498797080804951e-002 4.1612694731310287e-003
      -1.1476542538086112e+000 1.0435149427821487e-001
      1.1644036091011320e-001 -6.5669714213590885e-002
      3.3484602417754444e-001 -8.8606757661089747e-002
      -3.4295713748007722e-001 6.2344737749159815e-002
      1.9120620345019317e-002 -3.7064076313213942e-002
      3.1780030195758080e-001 -2.5310666857582614e-001
      -1.4760660845483711e-001 -1.8685715478077483e-001
      -2.2289542633249443e-001 4.0373122596344924e-001
      3.3629089670072337e-001 -7.4591238173516233e-002
      -1.0506867249278229e-001 -1.5735800426714544e-001
      -3.8387719565938755e-002 -7.3207189310697113e-002
      5.1429890671941081e-001 -1.4682323959566587e-001
      -3.9289409855250375e-002 4.1617564267617302e-001
      2.4860345914725440e-001 2.7622262563325534e-001
      -5.1159357176841884e-002 1.8093043490178098e-001
      4.7621363236261088e-001 1.5743705933863081e-001
      3.6489238559147641e-001 -5.2238739021767322e-001
      -2.6050596282733818e-001 8.7576823032481696e-002
      -1.7299568417458061e-001 5.7770329503441943e-002
      -2.3905472140960438e-002 -2.0607797876686262e-001
      -1.5775442530358350e-001 -4.2444837713031641e-001
      6.9067893401554592e-001 1.8269960579241715e-001
      5.2543752036558655e-001 2.4269729999812920e-001
      -5.4248023473801026e-002 -1.3409212589997612e-002
      -1.7218562562027925e-001 -8.0091010668114318e-002
      1.8810733690809420e-002 4.9317237766904098e-001
      -7.8191367176568161e-002 -3.2956604279366847e-001
      2.6389847588794219e-001 -4.4867655252833281e-002
      -1.0577575010062429e-001 -1.6728944461069659e-001
      2.0361116747077825e-002 -9.4448055190443747e-002
      9.8081518073494633e-002 1.1753731820376434e-001
      9.1201726904631839e-002 3.2481148889008227e-001
      2.5243276350295041e-001 -2.9555099103398857e-001
      1.4134235263507491e-001 1.1884250330600964e-001
      2.0737370758161600e-001 -6.9844228536926706e-002
      4.1590144323153883e-001 -2.8202778232538350e-001
      -4.1676203650871096e-001 4.9976892748928789e-003
      3.7100948469923034e-001 -2.3319857615388023e-001
      -3.5034303146271423e-001 6.2668804058944733e-002
      -1.3852295186179036e-002 4.0293467173153956e-002
      7.6017749618800451e-002 2.7183197546384322e-002
      5.9937738799791078e-003 2.7838672422340989e-003
      4.8633647197873109e-002 -1.6539450081835754e-002
      1.2321965455920848e-001 1.1554913735507653e-001
      -6.5285925320616819e-002 3.4204947010410283e-002
      3.6454302715570305e-002 5.8650317663184064e-002
      6.1699065078520819e-002 3.7271645349760726e-002
      4.0864928755437437e-002 -4.7648267697874808e-002
      4.2175836074976422e-002 8.8051872075732198e-003
      2.0243050059148886e-002 -1.1170993270882677e-001
      6.3755949070562160e-002 2.3875096028020393e-002
      -1.4934839712414474e-001 5.1750733646861266e-002
      -3.3620876950196089e-002 6.5290300490806604e-003
      -8.0777878396578184e-003 -1.7597477080750867e-001
      -6.6969049034318658e-003 5.7840414649678373e-002
      1.6860250119759102e-002 8.2816171867853144e-002
      3.4415608297582554e-003 1.2212250385125860e-001
      -1.8637417327520438e-002 -3.7921469145761638e-002
      1.0373130590873908e-001 -1.6875878075857526e-001
      -6.0267953803951946e-002 -7.3377190140626380e-002
      -2.4080564724826205e-002 1.2700416883421986e-001
      -8.9305744577215337e-002 1.1125935008887259e-003
      3.9177435730310307e-004 4.3415732032615034e-002
      -3.6561897362689111e-002 -5.9549770704591401e-002
      -2.1828820282369897e-002 3.4934054948610592e-002
      -4.8397187421013350e-002 -4.4065233852798008e-002
      1.2412250862826164e-001 -4.4391294567395025e-002
      5.5105836166196638e-002 1.1918664896262449e-001
      4.1814977241933844e-002 3.1932157995686605e-002
      1.1326519200044079e-001 -9.0121386664211545e-002
      -8.0058038516658936e-002 -6.6620935361782332e-002
      3.9780888109945137e-002 -5.1999379167820773e-003
      1.1162903230102401e-001 -2.8014645533866976e-002
      -2.4133598445569573e-002 1.3543229907780799e-001
      -1.0537206084320018e-001 7.2506468210201305e-002
      -3.7705970006799899e-002 -1.8258688410035081e-002
      8.1166092554090484e-003 5.8583783845996391e-002
      -1.6347520295184181e-001 2.7499725829505876e-002
      1.9576504396860739e-001 -1.2496984748471062e-002
      1.1423318088455779e-002 -1.3029611274206571e-002
      8.5486213337393230e-002 9.7531486167243747e-002
      -8.6491906926380972e-003 2.5014010611685156e-001
      1.2525210951215129e-001 -5.8258652377874406e-002
      -1.6696368384369664e-001 8.9995537626873706e-002
      2.3582644352633683e-001 1.0430084027644610e-002
      6.2855927286589300e-002 -7.1492009677946222e-002
      6.8134648574205661e-002 4.7373139861177876e-001
      -4.9966194805695396e-001 -3.1322662768759996e-001
      8.2829820077430782e-003 -9.9129110182362187e-002
      1.7916150151860460e-001 -1.1699711041234805e-002
      -3.4508520678737609e-001 -3.8877362662586665e-002
      -1.2296393874636206e-001 1.1236262272277239e-001
      -1.3194207828885557e-002 -3.9422621129034476e-002
      1.6057813314124783e-001 3.0973428655893326e-001
      4.9762744839249680e-003 -1.6933766981485621e-002
      2.5988147044275139e-001 3.0015432048152296e-002
      3.0038828097134312e-001 3.2710432044870519e-001
      1.4236814289724314e-001 3.6606339931470938e-001
      -6.9631792150538885e-002 -4.6493160209096641e-002
      -2.4002252891405468e-002 -1.4259196558668921e-001
      -1.0282980234038647e-001 2.9019344607490671e-001
      -3.0310842455982479e-001 1.5410577793278679e-001
      2.6829073565594874e-001 3.2269407508090459e-001
      9.7143388655579459e-003 6.5702431012744478e-002
      -6.2805141403130177e-002 -4.3350462582165870e-002
      -3.3436646795688862e-001 -2.3378881373573474e-001
      7.2111632029034298e-002 -4.9738112769218502e-002
      -1.5302683218421152e-002 2.4566783339823473e-001
      -5.2495250107194059e-002 -1.4748381867772617e-001
      6.0787751497483881e-002 3.9075757419947753e-002
      -1.4746876327350628e-001 -5.1980501554969596e-002
      1.8814133450333040e-001 2.9931254325550999e-001
      1.8967706694888134e-001 -1.0797833389623862e-001
      -2.1391105248816964e-002 -8.9564596047827880e-003
      -1.7732820848705455e-001 -2.8795365006459867e-001
      -1.8941516336513306e-001 -6.7307329596715371e-002
      2.3377369451279573e-001 9.5989981122876780e-002
      2.6620438124730622e-001 8.8805871673941685e-003
      -2.4855668395350172e-001 -4.4181670449195284e-002
      6.7422674983321093e-002 -4.2071328971895749e-002
      2.4799920591370361e-001 -2.8432673322090565e-002
      6.0561283192891502e-002 3.9801504229674531e-002
      -1.9608011242338166e-001 -3.1660999752921713e-002
      8.7475489658614125e-002 -4.4797834070021650e-002
      -9.5244136461235404e-002 2.0854490577690427e-002
      -9.1397012054037122e-002 -2.1774353095558657e-001
      -1.7928338040248662e-001 -2.3253740441964803e-002
      8.7427263016758475e-002 -2.3604097774885152e-001
      -7.2580724349510253e-002 -9.9502076697039393e-002
      7.0283281359303854e-002 6.2111987008332127e-002
      7.2282550033315851e-002 -1.2057716780459125e-001
      1.1541132046022912e-001 2.9828556541102180e-001
      4.2519619023731060e-002 -2.0618640933373727e-001
      -5.5203889151952484e-002 -2.2263626143166917e-001
      4.5999038695835562e-002 -1.0332124092862410e-001
      -2.1768274048437578e-001 -5.6625410142694857e-002
      -1.3816346208722466e-001 1.7469445191256497e-001
      9.3217669475725518e-002 3.6683050526941464e-002
      1.9446127911387414e-002 -2.3048018868467085e-001
      -3.9065356554597822e-002 1.2112423261519201e-001
      -1.7158661736768194e-001 2.1547401988966527e-001
      -3.2675376314056853e-001 7.6139602147881846e-002
      -1.7141924453976592e-001 -1.2060313244051861e-001
      -1.5452985295878374e-001 3.6535657090617506e-002
      1.8125736966212194e-001 5.7102050078683693e-002
      1.1576494067786830e-002 -1.4338810050720532e-001
      2.5007337245536249e-001 -6.1802043183147568e-002
      -1.4189451808461370e-001 4.9470932287716006e-002
      -8.1507983968589430e-004 6.9506657950080042e-002
      1.0038949689874757e-001 8.1303950809326522e-002
      -2.3547542874584756e-001 -8.4937791456027936e-002
      1.1780213701582347e-002 -1.5052840401852249e-001
      -1.5928031669266207e-001 -9.6785323813493543e-002
      -1.2110822920101716e-002 -4.4982989406543994e-002
      -1.6793164750775660e-001 3.4170986147509692e-002
      -1.1865773329056460e-001 -9.7115138178450458e-004
      1.6910764526547762e-003 7.5041209368922907e-003
      -2.4046078021915274e-001 -1.0706612865126547e-001
      2.4247036030491018e-001 -1.7614125961342708e-002
      2.4235919029720398e-002 3.5437291018411352e-002
      -2.8589722178176461e-002 3.3927526832923841e-002
      1.5993459764579138e-002 -1.4796422290120978e-001
      1.3256460070142724e-002 2.8534290430816062e-001
      -1.0068135411079766e-001 -2.8456177074314908e-002
      -5.6933984195309977e-002 1.9851232731852683e-003
      -2.9048785772255770e-002 -2.1925815422449743e-001
      -1.2003529287629015e-001 1.9177352053888855e-001
      -1.3064100817327229e-001 -1.8105285405334001e-001
      -1.0778289924667309e-001 -2.2705347861181144e-002
      7.5516273490177352e-002 1.7296224759355688e-001
      -5.4001895557992313e-002 -5.6426157504061811e-002
      -4.5524919527545192e-002 9.9485649626731235e-003
      2.0503574483319376e-001 6.4201569447665877e-002
      4.3425319935294443e-002 3.7167373340311362e-004
      1.7958442605146648e-004 -1.0737344712888688e-002
      7.4060563829719248e-002 -2.7465020604660786e-002
      1.2945107798614777e-001 9.2545083421160315e-002
      2.7281636168401036e-001 3.0994305626724128e-001
      -3.1373452580002244e-002 -9.7986051952252216e-003
      1.3727644695462943e-001 5.0037559793365764e-002
      -2.3817803224004150e-001 1.0949767947124159e-002
      -1.5998145759116503e-001 2.0673855902974278e-001
      1.5379051331549780e-002 1.1387943517070788e-001
      1.7730596290928045e-003 1.0338126475956331e-002
      8.4501134141327330e-002 -1.5144401254660274e-002
      5.1819294743369271e-002 -2.8299600794164598e-001
      4.5877500737713663e-002 -6.3641776915283194e-002
      -2.9561303158805508e-002 4.0393430951913556e-001
      -7.4439960344499276e-002 -2.4246317495153380e-002
      -2.1602099525635753e-002 6.1877697412116718e-002
      -1.3597589127307017e-001 2.0920650072485396e-003
      1.5930348513964157e-003 1.4604928571471998e-001
      -6.3842908177672670e-004 -1.3146184931864349e-001
      8.0132596022033972e-002 -5.9336873280703500e-002
      -1.8171502909971193e-001 -1.8703990943927484e-001
      -9.4382034431725922e-002 -1.9514771031258066e-002
      1.0600463243777179e-001 -8.4176117003207998e-002
      8.6195483452978075e-002 -6.0679081446645175e-002
      2.2037850193489000e-002 -5.0636809365297165e-002
      1.7438194852987240e-002 8.1407422343287416e-003
      4.3104679263933188e-001 8.1908689903524123e-002
      -3.4827371850127999e-002 -5.8065138711250026e-002
      -4.3685259786670080e-002 1.6172568882348584e-001
      -1.6167960950455050e-002 3.0820242711608634e-002
      -1.5250828823373394e-001 -4.7995910901624536e-003
      -2.2612127894657530e-001 -7.5395011025438899e-002
      -6.7089931944875142e-002 3.6144512203795935e-002
      1.8715295003598548e-002 -9.4162224692806398e-002
      -1.8037832786278268e-002 -7.8737023533105729e-002
      3.4688623914280674e-002 2.2914425119646260e-002
      2.1160001261521354e-002 -8.8376532302248942e-002
      -1.9904865901026245e-001 1.4515976060958727e-001
      2.2705229642458213e-001 -8.8745592924324518e-002
      -3.4791475767627345e-003 -2.5842096650795089e-003
      -8.8412939060963005e-003 -4.9296601716795466e-002
      5.7720563999490000e-002 -6.4912400188444352e-002
      -6.4819091030771242e-002 4.5223096475695938e-002
      1.0220171750361695e-001 1.7569323595562533e-001
      -7.0066422530869865e-002 -7.0727140312905057e-002
      1.3382000465815674e-001 -2.9682177964154528e-002
      -1.0667818955026148e-001 2.3117572338015304e-003
      5.0019552869913194e-003 1.3675886276976482e-001
      -1.6764845524633440e-001 -5.1088033002803158e-002
      -4.0196126132895436e-002 -1.9084283982571011e-002
      1.5432536895977270e-001 -4.8591494658137294e-002
      1.8074074636096765e-001 -1.2132867015074679e-001
      -1.5250426931010837e-004 9.2275246739128194e-002
      -6.2615993035423603e-002 1.9985463977574855e-001
      -4.9553668820964021e-002 -1.1904462012402789e-001
      2.2840509162641482e-002 8.5297023396795416e-002
      -5.0675905128075099e-002 9.3287786310642246e-002
      1.2789002534553037e-001 2.3239697828740517e-002
      -8.4776913848208069e-002 8.4637747734544709e-003
      8.3323591580546003e-002 -9.1364576291413716e-002
      -2.8617584755101295e-002 -4.2575915716372099e-002
      -1.4093947682825983e-001 1.1503290355984833e-001
      1.3841097081652598e-001 8.9714925877787800e-004
      6.2847700116129622e-004 2.7993704109034089e-002
      4.9997709418826648e-002 -9.4935305720883177e-003
      -1.4896677172074614e-002 -2.2882851176183540e-003
      3.7664560496046678e-001 7.0549201389642296e-002
      -3.5367900123409547e-002 2.0835530936640225e-002
      -5.5186920725581894e-002 -4.8000334020481421e-002
      3.1949329789655964e-002 -4.2678499918117695e-002
      -1.5569124107654148e-001 9.7961532923089636e-003
      -9.5004623499936533e-002 -1.6574073624237159e-001
      6.3034014043962402e-002 1.4515465492645815e-001
      -3.2792675385866304e-002 -2.7364974499045280e-001
      -3.1847519489972900e-002 -1.3370077880421696e-001
      9.3345299563131867e-002 4.7713001821405865e-002
      -2.4600559527630021e-002 -5.0003081651832280e-002
      2.8370174750510572e-002 2.4682460525667033e-001
      -5.4662302099698037e-002 -1.1047033222653600e-001
      4.4671054027950560e-002 1.7699783553954909e-001
      -3.2590663773694336e-003 -2.2015959268745312e-002
      1.8961742222389652e-002 1.4667855981878522e-002
      -5.5986265635750300e-002 2.2431750489864888e-001
      -3.6086533752637357e-003 7.9623481498113158e-002
      6.1310401428249769e-002 -1.7930640601627562e-001
      -8.3183852437390349e-002 -5.9141223103761485e-002
      -1.2901986644032853e-001 1.4477306969049356e-001
      -1.9091831148451741e-001 1.0673375570863206e-001
      -7.0826505140116083e-002 -3.2348380734669682e-002
      -5.8681687149931633e-002 8.6583575854170744e-002
      1.8161996777351250e-001 -7.6270526262917013e-002
      -6.9041030222373925e-003 -1.2554020282883635e-001
      4.0075994375968600e-002 5.1472852841581165e-002
      -5.8900261002329625e-002 1.0529782592053498e-001
      8.8673617699926242e-003 -6.9258375577166589e-002
      5.5255218378143289e-002 6.5687679481672978e-002
      -1.2106910164006508e-001 -1.2345266470047329e-001
      1.8671249953423716e-001 -2.8573043945597943e-002
      -5.8810116396618428e-003 -4.1914110704698027e-002
      -8.9835311493529010e-002 5.5899487070789601e-002
      -1.2959808345783977e-001 -6.0877355958380328e-002
      -1.3539617076381685e-001 8.5279036052798990e-002
      1.0759743781977409e-001 -2.4793138297716216e-002
      1.7107094802272258e-003 -7.0254865646177680e-002
      4.8341312515252026e-002 -1.3484850170117512e-002
      3.3034060820304086e-002 -7.3842529105170238e-002
      1.6415746771671208e-002 2.2321830485381425e-001
      -1.1617999966254813e-002 -1.6044679212654196e-002
      2.5571109764107347e-001 -2.2035459061099959e-002
      1.7912931913019234e-001 2.2258681757174273e-001
      -1.6830714045586886e-001 2.6411261127129926e-002
      1.1861837660272347e-002 1.3947685252920136e-001
      1.5281322932501315e-001 3.4022097908201371e-001
      -3.2194790717256916e-001 2.6919390745613442e-001
      2.1185615982107409e-001 2.6465904171345944e-001
      5.0620103080804224e-002 -2.1385628204870966e-001
      -1.8276790452554451e-001 1.5035130015654102e-002
      -2.6140562917501053e-001 -1.7202663158879333e-001
      -5.1329065615757521e-002 1.9758452444347829e-001
      4.5912761314058713e-002 -7.7073682323829121e-002
      -1.5970602233541734e-001 2.2109770448620272e-001
      3.1608431013984378e-001 2.0038727554577340e-001
      1.4102593634502231e-001 -1.5256835326627019e-001
      -5.0371041607452885e-002 -8.7864197492647095e-002
      -4.5810549362860088e-002 -6.1614889841371617e-002
      1.0278834520810449e-002 -1.2582022673351367e-001
      -6.8047791179074293e-002 -2.7896823286986749e-001
      3.7551687035842762e-001 1.9899660973698460e-001
      2.4073636374327018e-001 2.7149297669486411e-001
      1.6136822042285751e-001 1.2034011292253363e-001
      -1.9267283319769225e-002 3.1254242399692690e-002
      -2.3671042961493299e-001 1.9395676175362098e-001
      6.8712413912813963e-002 -2.5666963200217624e-003
      1.8581973966168824e-001 -3.5585209118239858e-001
      -9.8426413280931629e-002 -5.8552166619000721e-002
      1.3628980938798153e-002 -1.0669548488800004e-001
      1.1776162844021318e-001 5.7900673323713958e-002
      3.6890533139463205e-001 1.4255964594139939e-001
      3.3789057874743200e-001 1.6675389317727919e-002
      9.7576838187472759e-002 2.2333979687669936e-001
      -1.7713505322280276e-002 7.2629712166331828e-003
      2.8623832265425878e-002 2.0403297297932246e-002
      6.3602126995855782e-002 -1.3132915284622226e-001
      -3.3843535426376789e-002 -8.5614829179858451e-002
      3.0915507485742452e-002 1.7081884104627004e-001
      -1.8622036434607896e-002 -5.6980787527036759e-003
      -1.7654204644213414e-001 1.3983515758649970e-001
      3.0522276202880269e-002 8.5211651905230765e-002
      1.6897622840050974e-001 -4.2248534981107699e-002
      -5.4589534546383104e-003 3.2617991712610248e-002
      1.5872573117340374e-001 2.2927444976231830e-002
      4.2868140862751007e-003 -1.3041416893850105e-001
      -1.3386282070166988e-001 3.2203594209498421e-001
      -1.4083988666169103e-001 -2.1552343257678927e-001
      1.3099361596992934e-001 -1.3556184289194712e-001
      6.4773993558212783e-002 -1.5660359204510166e-001
      -1.1955986505298030e-001 1.4671116824791237e-002
      6.8837012246330603e-003 1.7451165334149493e-001
      2.0561193250781033e-002 -5.1992386647697723e-002
      3.0531554542951381e-002 4.1800426942061569e-002
      -6.8491490324278745e-002 1.2281022453931445e-001
      1.1130948175066765e-001 1.3842496223078465e-001
      2.3230797056268795e-001 -2.0799211156437663e-002
      -3.4741490864385150e-004 2.1287747572403284e-001
      2.0815938963045039e-002 -7.7109614496942161e-002
      -2.4598221202787034e-002 -3.7649007474541492e-003
      -1.0314747747616944e-001 5.9986321535760660e-002
      -8.7551176860131627e-002 1.8129939955427998e-001
      1.3921910852339300e-001 2.4562507631478833e-001
      -1.0304584709111013e-002 1.0979052787886667e-002
      7.2582560221445103e-002 5.9568531644406973e-002
      -1.2143983448713536e-001 2.7000594017112009e-002
      -8.1406468735849107e-003 -1.2744116314032913e-001
      6.5336536670655213e-002 9.7892409276310668e-002
      -4.0050483228682730e-002 -2.5671014741302480e-002
      6.3842871051211655e-002 -1.1192811340508488e-002
      -1.2329353764626227e-001 -6.2611173745647633e-002
      2.6443869216678528e-001 1.8631774506934959e-001
      1.1554876601776759e-001 -1.2921985911682785e-001
      2.0744949828793253e-003 1.8538482629823436e-001
      -9.7480943375306342e-002 -1.6438554600883118e-001
      2.7853501616303847e-002 -9.7854613831769341e-002
      -6.0669615267565632e-002 -8.4150182509383942e-002
      -2.9232014973826655e-002 2.0315689740284332e-002
      -2.0084845189090944e-001 7.0132160387080644e-002
      -2.3611745657778550e-002 2.2342408165660591e-002
      -8.2236849931401312e-001 -8.7149149824744088e-002
      2.1358793699254569e-001 -2.3904344093718011e-001
      -5.4372055203035792e-002 4.5854057857462510e-001
      1.1893799590006819e-001 -8.4698036095809365e-002
      -5.1764545381813167e-002 -5.2863791990841770e-003
      1.8846484451498096e-002 -1.3276584256335491e-001
      -8.0931416030411496e-001 -4.3757565375156321e-001
      -5.4672501515918688e-002 -1.1401478401439560e-001
      2.0015234805366468e-002 7.8178289624899477e-002
      -3.8241168646402646e-002 8.5995321987937842e-002
      2.2791080977504277e-001 -5.1167061055505847e-001
      7.0489513245068164e-002 2.1636564836376668e-001
      6.2910395730986235e-001 5.5826792422518340e-002
      -5.6767398435751334e-002 -3.6770856563301074e-001
      1.1589656677106350e-002 -3.3590313186963622e-002
      -1.0774957258232036e-002 -5.1979726703849656e-002
      3.3279068015114255e-001 -8.2942763463509456e-002
      3.0661459391285295e-001 2.1321551685489468e-001
      -4.0248378100671703e-003 -2.1625764944006851e-002
      4.5425354514707422e-001 2.1749055193727923e-001
      -1.9090290804328824e-001 -1.8446670367453166e-001
      7.2479622337336555e-002 1.7013768785362826e-001
      2.4678854942389317e-001 1.1819518033408524e-001
      -6.8638317068036289e-002 -1.3999481835356853e-001
      3.9840396635364939e-001 2.9573716503247537e-002
      3.4600717107764656e-001 -1.5790844216573331e-002
      3.6257289826783357e-001 -2.3403374430719986e-001
      -4.4443893563679442e-002 2.8369811781466980e-001
      -8.4668972492697975e-002 3.6943645180553576e-002
      2.7734614741782567e-002 1.7825894341880025e-001
      -1.8634444418770008e-001 -3.8937145282931435e-002
      -1.3655947825581308e-001 4.6216736181197909e-001
      5.2095441120929960e-002 -3.7473938483610847e-001
      4.1001471920407312e-001 -8.1576714081332324e-002
      7.1697453292922375e-002 2.0039086111786203e-003
      1.5439164887641807e-002 -8.7250785174965192e-002
      -7.5402599849100610e-002 -1.9516373935332601e-001
      -2.4691444011203326e-001 -9.2382921242463320e-002
      2.0100752095347374e-001 -5.7897520668744623e-002
      -1.8963344761154400e-002 1.4411949405053190e-001
      5.1403803102843559e-001 -7.9605152214158786e-002
      -6.6511219151628456e-002 2.5834736129780669e-002
      -9.7494318027743998e-002 -1.9942692216914616e-002
      3.9182088718777791e-001 1.1945655237386420e-001
      -1.2560808374767845e-002 1.3069374463569299e-002
      4.0071542605558397e-002 3.4650863426204609e-001
      1.7325097813327686e-001 4.5996864839661242e-002
      1.5628210048483571e-001 4.0190103068009735e-002
      -1.0885853853915217e-001 2.4441501484017319e-001
      3.0773077029159469e-002 -8.4544651630322019e-003
      -1.3866048244719447e-002 1.2204295049306536e-001
      -2.3220887597427933e-001 -3.0152535318050988e-001
      -1.2892309261534587e-001 2.3184515181991591e-002
      -1.1297288990159392e-001 -3.1775417707771370e-001
      -1.6371509478100392e-003 4.1038892138526566e-002
      -2.0647423786878019e-001 3.7157770544469326e-003
      -3.1216332651854123e-001 2.6872613276631960e-002
      1.9765431132401000e-002 -2.6838218788469553e-001
      -3.0199415690677411e-002 -1.5172168297095511e-002
      -2.5403625363633716e-002 1.3314878714951284e-001
      3.3205004449862635e-001 1.8426437992016528e-002
      -8.2297273984353367e-002 -2.1113122007401053e-001
      -2.1458972243301749e-001 -1.3669432608716828e-001
      2.2263314714448262e-001 -2.4797810627908862e-001
      -3.9202835496720595e-001 1.7427405894856440e-001
      -1.9612209198375413e-001 -1.2917363722240682e-001
      1.0318279049504887e-001 2.2499217336231378e-001
      -3.1038333177637420e-002 -2.7022885785742729e-003
      2.1149546056847261e-002 2.5069802576478611e-001
      3.8342077981636233e-002 -1.3696013593598424e-002
      -2.6622968867281542e-002 2.9151966595920387e-002
      -1.8401297147949114e-001 -3.2057162914836684e-001
      -1.7823426995790020e-002 2.5041865653273793e-001
      -5.9951563018162846e-002 4.2625422142755887e-002
      -1.0767356691256658e-001 2.9715556176261188e-001
      -3.4311280944629860e-002 1.8076823721689872e-001
      1.5789763243704744e-001 1.1792174013342409e-001
      -3.0421857705881983e-001 2.3588311275776586e-001
      2.7924073685878464e-001 -9.5478144795477018e-002
      5.6328487275364214e-002 -3.9281874909058420e-002
      1.0701690907657835e+000 5.5319148747634543e-002
      -1.5031549378017711e-001 -4.3895725728693297e-002
      -2.3137105796483298e-003 4.5300159393501911e-002
      7.8578874482182814e-002 1.6668675717002326e-001
      1.6970647482437157e-001 2.6183620653214463e-002
      -5.6135757311867866e-002 1.9331604954935477e-002
      2.5994325341920355e-001 1.8954936663615168e-001
      -5.4011318097281033e-002 3.9287398441266649e-003
      -1.4720709380227154e-002 -1.2855176557589687e-001
      6.8093771281909465e-002 -1.1116149614352339e-001
      -9.5432110344584875e-002 1.8930853072936893e-001
      -2.8933345793956167e-001 -4.4245201915567758e-002
      6.7008722473640599e-003 -8.9510531121195114e-002
      1.7128505692238088e-002 3.5622165502067767e-002
      -3.6725448508645862e-002 -9.1524787245079925e-002
      3.9302924199273864e-002 -6.2430494677213455e-002
      -5.8601095302512042e-002 2.3241100494080949e-001
      5.0694975432441893e-003 2.5556402548853611e-002
      1.4587411301759781e-001 -4.4899434065394629e-002
      -1.4006887547422799e-002 -2.0213992056603822e-001
      1.5909229841914463e-001 6.6795591047649941e-002
      1.5573098972388025e-002 8.7047626609982012e-002
      -1.8907435597916153e-001 1.9278858560306839e-002
      8.7393563409067107e-002 9.4320121288596015e-002
      -7.0307954502537393e-002 -1.6607627610655107e-001
      -1.8195732954830876e-001 6.3246162332392455e-003
      2.8522240226467724e-002 1.3515631127380912e-001
      -7.1058836075857446e-002 -4.8763142079127443e-002
      1.9889009012499814e-001 -1.8682011362245723e-001
      -1.0130277840337670e-001 -7.6136496083055477e-002
      1.2648706114313898e-001 -2.7993577640524736e-001
      6.7902977727944264e-002 -2.2070418749616360e-002
      3.5293084955684527e-002 1.5117103700637122e-001
      -6.2047097998128943e-002 -5.2852519571497440e-002
      -1.2485824477316047e-002 -7.7721741980997142e-002
      -1.5972632932400330e-001 1.6833525523774401e-001
      1.6844956525177562e-001 -3.6366639006727257e-002
      -5.3332808034235860e-002 1.8748379371623075e-001
      1.0170525771053135e-001 5.3476294001189237e-002
      1.4748300896312723e-002 -1.5794068098993838e-001
      4.3535263172552913e-001 6.3791343151590296e-002
      -1.1764371668225593e-001 1.1866389937389997e-001
      -3.9945526019925869e-002 -2.8261697716316533e-002
      -1.7372819105654827e-001 -4.4407674872060696e-002
      2.9319663540411905e-001 -9.8537313183755318e-003
      -1.0373208026369048e-001 -2.8176879941304328e-002
      1.4038424857697460e-001 2.5257271425158018e-001
      -1.0332635606200107e-001 -4.0918687652699792e-001
      -9.8051754655160986e-002 -1.5166394165415159e-001
      1.0544473747007471e-001 6.6061764611224552e-002
      -1.9041804033211462e-001 1.5202731995960678e-001
      -2.4227494257758878e-001 3.1084917336535361e-001
      -7.9764312127184059e-002 -1.8687614292213953e-001
      1.0137625563803780e-001 2.1421892789971494e-001
      -1.7778025335518029e-002 -4.3209494009722439e-002
      6.9333641733901705e-002 -3.0586171681333964e-002
      5.1601727587394751e-003 3.4733737774417783e-001
      7.9282436023238007e-002 1.4666773782452883e-001
      -9.4980594338657742e-002 9.6956921254938863e-002
      -6.8048618863695759e-002 -1.1470525864801386e-001
      -9.8520291686692962e-002 2.9347052971910909e-001
      -2.6592790841609926e-001 2.9271588363287335e-002
      -7.6320689786135640e-002 1.1039362639022550e-001
      -1.7396907590586368e-002 1.7289373181621109e-001
      -3.3454227915254750e-002 -9.4038804054921030e-002
      -1.5695768280749045e-001 -2.8085217381999938e-001
      -2.9726007528338177e-002 2.8844218758133339e-001
      -7.8440759957551440e-002 2.1325030886606816e-001
      -5.8856930709596217e-002 -1.1626646306359333e-001
      -1.1721197762008927e-001 7.8392235427419771e-002
      -7.7478300290548530e-002 1.1964032062383938e-001
      1.3346367264120884e-001 -3.5890130182557295e-002
      3.0021496331920427e-002 1.0797992219347217e-001
      -1.0236846842875710e-001 -3.8798516193784510e-003
      -4.4709613931235910e-002 -2.0291451291740209e-001
      -2.2243156225125349e-001 1.1891753328692013e-001
      2.5683155281642550e-001 3.9212899237264100e-002
      1.8476990987758649e-001 1.4931620556641878e-001
      -1.6631266767341599e-001 8.7024261509438244e-003
      1.1227115513622671e-002 -8.0971535766381331e-002
      6.0421663825183325e-002 -4.6134656632814408e-002
      3.7963497869125842e-003 2.2628226176696492e-003
      -8.7903785081224900e-002 -7.9144375313487086e-002
      9.2716399947462683e-002 1.0367354324360542e-002
      -1.4835709639020181e-001 1.9435278327164185e-002
      5.0214146768769757e-002 -1.4171539941410789e-003
      -4.5242782208000668e-002 -3.7199370092578760e-001
      2.6081401144635707e-001 1.3508517986014762e-001
      5.4141437497114871e-002 4.6241659648641638e-002
      -6.3396665898523427e-002 -8.2138303056607867e-002
      2.1593660695634695e-001 -1.5943320740846829e-002
      1.5970563123897122e-001 -8.5600039646247475e-002
      -6.4310111918989998e-002 2.5752673919404938e-002
      -3.8401021412042949e-002 -2.9955324762903929e-001
      2.5065458283109146e-002 -5.2314858447251970e-002
      -9.2153394804411107e-002 -7.1819851236212210e-003
      -3.3323837715176158e-001 -1.7809814664487048e-001
      -1.6315502101515239e-001 -4.5354259894539395e-001
      2.4731986016033155e-002 -7.0878211125695076e-002
      -8.2714606792363379e-002 -5.8856708990776489e-002
      9.6931846152624346e-002 4.7869821599652175e-002
      -6.2882079279402661e-002 -8.7669883989295816e-002
      -2.0799795898620407e-001 -2.0432340099263877e-001
      -3.1947589310870737e-002 -3.3431501855159848e-002
      8.4488260199974366e-002 2.9734852566953179e-003
      2.0057620296796491e-001 2.2461476906157349e-001
      1.7053752082379617e-001 5.2246733610957505e-003
      -5.4031122963580147e-002 -4.4623944219737793e-001
      3.7687334573175878e-002 6.9939671575766041e-002
      4.0956299356579053e-002 -4.6832357215359950e-002
      1.0787013676346478e-001 -1.3049290679281076e-002
      -1.2036540351729967e-001 -3.5329858996808683e-001
      -1.2012045515895434e-001 9.1685769438617476e-002
      -8.9117050260683686e-002 -4.0222262266116221e-002
      7.3214356270908235e-002 2.7734986390330230e-001
      1.6542040969834387e-001 4.5575098814045055e-002
      -2.0275301213087810e-001 -3.2190054553176660e-002
      -2.1226009676843702e-001 -7.5259468955824485e-002
      3.7061278308374322e-002 6.3480766483714228e-003
      3.1357078326033849e-002 -7.1045052772721967e-002
      -1.2813653349842363e-001 -1.6977187231211947e-002
      4.2047537164095920e-002 5.2417146374101820e-001
      -1.3545193105369269e-001 -5.4955290400994805e-001
      -5.1754184776626166e-001 1.8464810615718731e-002
      1.5275279751280615e-001 -2.7575623848026649e-002
      1.9749010317961316e-001 -1.5404437942078547e-001
      -1.0817998787436887e-001 2.8602773918328694e-001
      4.0217828706102507e-002 -5.1371366895349924e-001
      -2.1510625917848209e-002 -5.6301092571906708e-001
      1.0633819620214885e-001 -6.9623291391286174e-002
      -1.8457488117854134e-001 1.7521374537921247e-001
      3.5386155439112127e-001 2.5416397444442468e-001
      -6.2700230398784329e-001 -1.8525696721352825e-001
      2.1100226550784715e-001 2.4776516419292771e-001
      1.8445426301046511e-001 -2.4403216746827439e-001
      -1.4290223468845661e-001 -8.5647071371589945e-002
      -3.2414239003709311e-001 1.1422395199489124e-001
      -3.5059955752662902e-001 1.5763661976237141e-002
      -7.5297343332874148e-002 -3.3467761469530649e-001
      -3.5682485626411570e-001 -7.9711386307054228e-003
      -3.3661431706013073e-001 7.0321136951729613e-001
      -7.6444050801244623e-001 -1.1138695614218570e-001
      -4.8717857530665182e-002 -1.5274566256400565e-001
      -3.5796036445763246e-001 -2.1018028226373678e-001
      -5.8517627878001122e-001 -1.6238996327724897e-001
      -3.6982759164698253e-001 1.7673007835935539e-001
      -7.2136575066594705e-003 -3.3320083991685256e-001
      -1.2875093338786464e-001 1.8834856283863524e-001
      -7.0334489753680748e-003 -8.0341743659391035e-002
      2.5945286182259253e-001 4.7294555050424519e-003
      -3.3777189670941399e-001 -4.9707579191769796e-002
      -3.6659730835970253e-002 -3.9335011682680976e-001
      -2.0472195223522546e-001 -1.9992609098215236e-001
      -3.7621082406657114e-001 -1.4575230106589893e-001
      -3.5921467838208160e-001 -8.0741658473031039e-002
      9.2483046580866465e-002 -1.6566629055485455e-001
      -1.3940929358758244e-001 5.6572981908010544e-001
      1.4111320247013706e-001 -2.5071207568568182e-001
      -1.7926166942336269e-001 -2.0985065745256029e-001
      1.5042259383688966e-001 -9.4687168939613528e-002
      2.6278472052121371e-001 -5.3005837787202491e-002
      -2.7140831594341955e-002 -2.6144108364004170e-002
      -1.1377499302743341e-001 7.7481774353777441e-002
      -1.9236489944740690e-001 3.8456501235880625e-002
      -3.3966655852523099e-002 -2.3539871558389686e-002
      -4.3239373531728104e-002 5.4616164048520453e-002
      3.7811754282617439e-002 -3.3864158256492138e-002
      3.2054696234166111e-002 -1.3127057792209526e-001
      5.2690097717358469e-002 -2.2246968152889807e-001
      2.7954789247659585e-002 -1.0601247234578337e-001
      8.8036058310289877e-002 4.6191257181602052e-002
      -4.4518128049282728e-002 4.9973677177321908e-002
      1.9461551288656946e-002 -1.2867402234775269e-001
      -5.9353108664333971e-002 -1.1354174040046452e-001
      3.1893467591019950e-002 -9.9353166948819654e-002
      -1.1840922282221039e-001 -1.0039651416342180e-001
      -7.4762399593347281e-002 6.0413856708419776e-002
      -8.0446478792771198e-002 1.0029661141779484e-002
      -4.8347885011404766e-002 4.5259269669653719e-002
      1.0542744658570891e-001 3.4870473036472288e-004
      -4.0553102058512938e-002 8.3781626884765564e-002
      -7.6937532590041297e-002 -6.0202541702899667e-002
      -1.3908432207118457e-001 -8.3969743167812874e-002
      -1.0210627667144154e-001 4.2490975057672228e-002
      7.4727615883484616e-002 -4.4869035975008451e-002
      8.0495616247847776e-002 1.7683199949479644e-002
      9.7128782737845309e-002 3.9233938125139346e-002
      -9.2148876521548989e-002 3.2956877730839017e-002
      -1.0385149329892315e-001 -2.2866125944697221e-002
      -1.0457961754379828e-001 4.5518478865674644e-002
      6.7351282092664227e-003 1.0996749434743852e-001
      -6.4969201782617267e-002 -3.5545835804505425e-002
      -7.9910461054806328e-002 3.5569800079350643e-002
      -1.0582872830686908e-002 -1.0535687370831234e-001
      -1.1710134490913471e-001 -4.1378605433284928e-002
      -5.6243731701414446e-002 5.9463476816772165e-002
