<?xml version="1.0"?>
<opencv_storage>
<ANN type_id="opencv-ml-ann-mlp">
  <layer_sizes type_id="opencv-matrix">
    <rows>1</rows>
    <cols>3</cols>
    <dt>i</dt>
    <data>
      300 80 6</data></layer_sizes>
  <activation_function>SIGMOID_SYM</activation_function>
  <f_param1>5.9999999999999998e-001</f_param1>
  <f_param2>1.</f_param2>
  <min_val>-9.4999999999999996e-001</min_val>
  <max_val>9.4999999999999996e-001</max_val>
  <min_val1>-9.7999999999999998e-001</min_val1>
  <max_val1>9.7999999999999998e-001</max_val1>
  <training_params>
    <train_method>BACKPROP</train_method>
    <dw_scale>1.0000000000000001e-001</dw_scale>
    <moment_scale>1.0000000000000001e-001</moment_scale>
    <term_criteria><epsilon>9.9999997473787516e-005</epsilon>
      <iterations>1000</iterations></term_criteria></training_params>
  <input_scale>
    2.6849957699305270e+002 -7.1124532431763987e-001
    2.8821472948543271e+002 -7.1739392205758079e-001
    4.0971162470125176e+002 -5.8921048017850219e-001
    2.8969551923982795e+002 -1.1749706738057741e+000
    3.8257193885924954e+002 -1.6557914714867592e+000
    2.0604038157716892e+002 -8.3353719554735783e-001
    2.2194535630887037e+002 -7.7563540446148194e-001
    2.6260784933837164e+002 -7.1204404547640632e-001
    2.8508690293906187e+002 -5.3544250221022316e-001
    3.2150619481928140e+002 -6.8226990627590267e-001
    2.1017701047797092e+002 -1.0819073497804124e+000
    2.1445599067645290e+002 -4.5132743028253908e-001
    1.3105360335429924e+002 -9.6663486987694813e-001
    1.7322019179887477e+002 -8.6138065548322396e-001
    2.0868495718951195e+002 -5.8036755934708084e-001
    3.6524327473108549e+001 -6.2308425514865795e-001
    2.4717208129743736e+002 -1.1424610665779453e+000
    2.5606308445690365e+002 -8.2151703796272335e-001
    1.7038684708129639e+002 -1.9684416586750364e+000
    2.4183789624269446e+002 -7.5964174287605180e-001
    2.3456260945483970e+002 -9.3921701530667379e-001
    2.6203951877082193e+002 -1.2143664275369557e+000
    4.6962036035286854e+002 -2.2257918511099843e+000
    2.8731690529144925e+002 -7.0199670610253939e-001
    2.5679428362553875e+002 -6.1770611235157902e-001
    2.6854998546947718e+002 -6.3108823203099140e-001
    2.3495467038888108e+002 -9.5838018802267477e-001
    5.4081949305279477e+002 -5.1518309865774470e-001
    2.2749769028996056e+002 -9.5761547011724824e-001
    4.2903258447470540e+002 -3.7106665846822301e-001
    2.5182421313774921e+002 -1.0179168095656197e+000
    3.8215027321175882e+002 -6.2353629123856380e-001
    1.7969545920923733e+002 -7.3377487947538755e-001
    2.7118530853473618e+002 -6.9355486977979919e-001
    2.7762725136927611e+002 -6.8651539100344605e-001
    1.4483276583067371e+002 -8.7558840184143105e-001
    2.7039513777067054e+002 -6.4014676693580042e-001
    3.4755814758654458e+002 -1.3254694412078127e+000
    2.1947226703556746e+002 -9.0060890288153095e-001
    2.5160407122210458e+002 -6.7249302955609513e-001
    1.6481796710133176e+002 -5.9294109682884044e-001
    6.8496055167448787e+001 -7.8236142596761105e-001
    3.5821443652357368e+002 -1.5895549470522861e+000
    1.9027408054491289e+002 -8.9061007691677774e-001
    3.9362704447483583e+002 -6.9733132902166717e-001
    3.1331834722303336e+002 -7.1975620412077235e-001
    2.4063866660898086e+002 -7.2941563065696047e-001
    1.1612555520485846e+002 -5.2588328510332394e-001
    2.7335946337898389e+002 -4.9460531714598588e-001
    2.8181937410313640e+002 -6.3755043335027706e-001
    9.9287511070225463e+001 -6.1744734549770564e-001
    3.6615320457996916e+002 -7.5430896356594057e-001
    2.6346978975072903e+002 -1.0816451866261090e+000
    3.8431020447422873e+002 -1.4594218237532579e+000
    2.5256643973657873e+002 -6.9335730659436545e-001
    2.6729360604237741e+002 -6.6340716738785288e-001
    9.2305202625698527e+001 -4.0055949138916730e-001
    2.1588174909774651e+002 -1.2536841659084552e+000
    2.2830252584973510e+002 -7.5969218065415844e-001
    2.8937717693200426e+002 -7.8725603143854839e-001
    1.3436129342093756e+002 -7.5227127105796698e-001
    7.7687809858830633e+001 -1.3933930005743327e+000
    3.2805636819524540e+002 -9.5031300888642001e-001
    2.1190588146097343e+002 -1.4495271312766791e+000
    2.3427494658322777e+002 -4.9912010015199182e-001
    3.0399153023650780e+002 -1.0168250144947646e+000
    3.8447006840134293e+002 -5.7497876090325795e-001
    3.5850568121749978e+002 -8.9445069666308963e-001
    1.8610843478245226e+002 -7.9383195773654713e-001
    2.9965527967793867e+002 -5.9563573353820887e-001
    2.8719251900896376e+002 -6.7872986615028963e-001
    2.6634299323532093e+002 -8.4737431266306296e-001
    2.9621805479515223e+002 -7.8369867686396855e-001
    2.2635983421932062e+002 -7.8338798727872183e-001
    2.0633846201592021e+002 -5.5866798155469366e-001
    3.9884170687481912e+002 -5.4006952293412491e-001
    3.3838975419056993e+002 -6.4825558009394857e-001
    3.5842043225542739e+002 -1.4611557065922516e+000
    4.1443073414453767e+002 -5.5913919350705243e-001
    3.5439329717521093e+002 -5.9727827493116137e-001
    2.1601681234597342e+002 -1.1753044353638087e+000
    1.8018837734446953e+002 -3.9754154810532927e-001
    3.7659413447164297e+002 -7.0833613605387058e-001
    2.3544712508784994e+002 -7.3328873463320876e-001
    3.3812585710952533e+002 -1.7529760654255155e+000
    2.8155152993405295e+002 -9.2914350327630046e-001
    3.1846512673917812e+002 -1.3535289406010642e+000
    1.7439466247143653e+002 -1.1062537356320750e+000
    2.6679572533992570e+002 -9.3833560525382442e-001
    2.3443508967879899e+002 -7.6078936569211220e-001
    1.8250069369321409e+002 -9.2655767855779037e-001
    3.4346724802194370e+002 -6.7261801516167108e-001
    1.4328617322776415e+002 -4.5752429429395736e-001
    2.5506410117322679e+002 -5.4929073153617880e-001
    3.4203689786708219e+002 -6.8856057181301966e-001
    2.5889673158231653e+002 -6.2879092211779719e-001
    3.3972407406602264e+002 -9.8199544397340977e-001
    2.6545208974023893e+002 -6.0691591665323374e-001
    1.4028440755295426e+002 -5.4169465553157981e-001
    1.9977804562684048e+002 -1.1651095434099867e+000
    2.5364210308458678e+002 -7.6078204231442459e-001
    2.3106233269423262e+002 -8.1249892211496189e-001
    2.7761948667983410e+002 -4.8211178220892065e-001
    1.7957698655025993e+002 -9.2486914191327296e-001
    2.2186653404021635e+002 -9.0739440246130665e-001
    4.2683281200640965e+002 -6.5060861066246467e-001
    2.0110139986922454e+002 -6.2320022852987089e-001
    1.8674879920725820e+002 -8.7110536995056498e-001
    3.5081039976799212e+002 -7.2327961911214000e-001
    2.7643328179459343e+002 -8.0185831041969680e-001
    2.8384479106076884e+002 -8.1073395882049126e-001
    2.7848021624924860e+002 -7.3585472292531873e-001
    2.0809820819683597e+002 -9.2680909670789369e-001
    2.1840563362470914e+002 -1.1169668501122461e+000
    4.0474131811951696e+002 -5.8303244580716507e-001
    1.8603170934177859e+002 -5.3047011158024659e-001
    1.5586011334131274e+002 -4.8879981872833700e-001
    2.1749941221763842e+002 -5.9943522627743540e-001
    1.3259987180675975e+002 -7.2398557961779486e-001
    3.0871708889705889e+002 -6.9838872438736155e-001
    3.2221000533188743e+002 -8.0299856181973062e-001
    3.5291368407472527e+002 -8.9901008519530634e-001
    1.1093964893477880e+002 -5.7115829010145414e-001
    2.3278505259635534e+002 -1.1274693970515912e+000
    4.6610410920090271e+002 -5.0636948621540478e-001
    2.3632832727456949e+002 -7.5244504972095150e-001
    2.3277219369755187e+002 -7.0412653213953547e-001
    3.8111460226327495e+002 -6.5222843838537747e-001
    3.0753913276438777e+002 -6.3573575701129637e-001
    2.9820367504877089e+002 -6.0753391554780178e-001
    8.8355954795590478e+001 -8.3158067029347971e-001
    2.3943073765540436e+002 -6.1744086428119405e-001
    2.1369406493144123e+002 -8.3181016922022399e-001
    1.8844794958405754e+002 -7.1808638307625572e-001
    2.2713761564937860e+002 -4.8981406113757109e-001
    2.5239601112894326e+002 -6.2888536617939828e-001
    2.8458315433339448e+002 -7.7206262700438333e-001
    2.5151040305077083e+002 -8.9761051145901227e-001
    1.4078148302474426e+002 -4.3186330901369008e-001
    2.6637559294326877e+002 -1.4603807303154455e+000
    2.5609047225158548e+002 -9.2047239862893349e-001
    4.6491306742107315e+002 -2.2861872122807010e+000
    3.4901690070638358e+002 -7.2610312619464368e-001
    1.0450167836617621e+002 -8.4223154414062107e-001
    1.2562294107968707e+002 -7.4113949443300708e-001
    1.9576067715195740e+002 -8.1846037204771216e-001
    1.6337500935878660e+002 -1.2933319904545955e+000
    1.7057187053627953e+002 -1.1599592265540783e+000
    2.1266631934688641e+002 -7.9522058010585472e-001
    2.3611340021798750e+002 -7.8658776900049865e-001
    2.6606689895211622e+002 -6.2092491420445950e-001
    1.7880212899926661e+002 -5.2600926731889264e-001
    2.1401247354414500e+002 -6.0313111792357632e-001
    2.5169358833584528e+002 -8.4383243739427638e-001
    3.1829059690239899e+002 -5.2816319540125312e-001
    3.1830773681615995e+002 -6.5152803202235454e-001
    4.5712693932961423e+002 -4.8320556075860027e-001
    6.3157550383195201e+002 -4.8049697372939276e-001
    2.8720744147556354e+002 -9.2495736050247379e-001
    1.9338207892919857e+002 -5.7963050883549960e-001
    2.3168957247554127e+002 -9.5331523331884471e-001
    3.0009331591390861e+002 -8.8996403711134986e-001
    4.7047515175832092e+002 -4.2139820970420294e-001
    2.1668266807269987e+002 -4.2457249309832951e-001
    1.1899219238541511e+002 -9.8646419287053067e-001
    3.5356674284506499e+002 -6.8528647815278310e-001
    2.3065853711666361e+002 -7.5006171674587829e-001
    3.7158265627579709e+002 -4.6759589084721043e-001
    1.6164050226449649e+002 -1.5916366953880983e+000
    3.3422721611998674e+002 -6.7786397855434155e-001
    3.1137896669171874e+002 -9.8789927337422956e-001
    1.9472499815659890e+002 -1.1977596412120568e+000
    2.5739742123163660e+002 -8.7308114587409902e-001
    1.9205607930457120e+002 -1.0271289524027643e+000
    1.2868236090122340e+002 -8.4951479938998020e-001
    4.9487346295646995e+002 -4.7206616918979188e-001
    2.8687511741822522e+002 -6.1143002381366574e-001
    3.5116595126436187e+002 -4.7291387339684099e-001
    2.9301116601116661e+002 -4.7165829994948777e-001
    2.0117664825086098e+002 -7.8771262196514968e-001
    2.4526220059969222e+002 -7.3573995510495038e-001
    2.7972908718761283e+002 -7.1122323380567498e-001
    4.7034336330985712e+002 -4.4651532433768892e-001
    5.1543624357753743e+002 -5.6223730287417395e-001
    2.4472077345581647e+002 -9.6290347499659557e-001
    3.4603532426457087e+002 -1.3355923230717699e+000
    3.4186801036672426e+002 -6.9737121041108030e-001
    2.2804930167283010e+002 -7.6231305561373852e-001
    3.3008825165549308e+002 -1.2267722252188020e+000
    3.5936585369301315e+002 -1.7095474044638705e+000
    3.0771389777285907e+002 -6.4009020226585811e-001
    2.3456610429852344e+002 -7.6902050186557713e-001
    2.6544401674424836e+002 -4.2821933580393373e-001
    3.4973076884506543e+002 -1.0179080603213442e+000
    3.1313148859808751e+002 -8.8009458139611363e-001
    3.5414567080518788e+002 -8.0245105000432293e-001
    3.0826946079391098e+002 -7.3188237296480863e-001
    3.1182000399904206e+002 -7.0127638901264833e-001
    3.5789375566288271e+002 -1.4878188553711063e+000
    1.4070293224978511e+002 -7.5649284566295705e-001
    2.4771812840941357e+002 -1.2176374252304358e+000
    3.4927141085376684e+002 -5.6042108466807716e-001
    2.3035192288652496e+002 -6.6303496076388757e-001
    2.8734536759687353e+002 -6.5002808897953923e-001
    3.0344798493582448e+002 -7.6299497210678857e-001
    9.6490716003577290e+001 -6.5087041645319232e-001
    3.0356844722037931e+002 -6.7738604666981117e-001
    4.4294565621637503e+002 -4.3469754727781462e-001
    3.6726110289992067e+002 -6.4269049557830116e-001
    3.2993721829528283e+002 -6.1607026170924617e-001
    2.4947068173475247e+002 -7.5639104993118889e-001
    2.4691900816482868e+002 -1.1370021145819573e+000
    2.2722121195183988e+002 -4.6644381920136663e-001
    3.0538540949372566e+002 -8.0640439887466853e-001
    3.7495645643140864e+002 -7.2823734803429729e-001
    2.3124855801590064e+002 -8.8448966704968024e-001
    2.0270652471898632e+002 -4.9733421240619541e-001
    1.9546909479673855e+002 -7.2566960303327788e-001
    2.3245091116429168e+002 -8.5778168628457874e-001
    2.7994113973705680e+002 -8.0537637416525421e-001
    2.4861067559205244e+002 -7.2591735497515653e-001
    1.8018540844051779e+002 -7.9454875867644581e-001
    2.6864392237854457e+002 -7.8021582890083918e-001
    2.1885085592269945e+002 -4.3526300131415996e-001
    3.7943114392884110e+002 -9.2235177729276696e-001
    3.7047036848310046e+002 -1.3131294846754422e+000
    1.9621761670127691e+002 -1.1144880458832795e+000
    1.2583314344289521e+002 -5.6236144427193979e-001
    2.2520343705410392e+002 -6.6103222528471950e-001
    2.7902405594930792e+002 -4.8734588702228154e-001
    1.6127961914010291e+002 -7.9731897346757186e-001
    2.3668422716624090e+002 -9.7647214978232721e-001
    3.9436587199576951e+002 -7.9956111709132149e-001
    2.7162802677477600e+002 -5.3292756391456009e-001
    3.3549330654027381e+002 -9.7018773870817776e-001
    3.1120311633931044e+002 -6.6891940202109446e-001
    1.1512387311874079e+002 -1.0149301735215319e+000
    2.2133027768436705e+002 -7.6560187171355853e-001
    2.5652553624583328e+002 -6.0285321742183995e-001
    3.0172365921060515e+002 -7.1757768619967344e-001
    3.2219064564367039e+002 -8.9134520085465108e-001
    3.3610095629075352e+002 -5.8271137669706308e-001
    2.7487537498448205e+002 -6.4703379229768476e-001
    2.7536095407340343e+002 -7.3625866112380922e-001
    2.7944338599149995e+002 -4.0143670659321734e-001
    2.4873794471661765e+002 -7.2341210652571797e-001
    1.4607443860864573e+003 -2.6457329956813314e-001
    2.9195265083923937e+002 -6.7698603994266804e-001
    1.9373165431135436e+002 -6.1625595543629397e-001
    2.7388909164619611e+002 -5.8511944002998872e-001
    3.3960238385574291e+002 -5.8432946816054043e-001
    2.9487888857604293e+002 -6.8289767624407804e-001
    2.7312590292624287e+002 -7.1336857001610554e-001
    4.0398012228529109e+002 -5.4663132713511964e-001
    3.8035067239952281e+002 -7.5174636957322805e-001
    3.2277140390752282e+002 -7.9932569984076707e-001
    4.2944922963693614e+002 -6.4132197515792910e-001
    3.4186396850916304e+002 -7.0721836718338360e-001
    2.9557156706043264e+002 -6.5668882564748887e-001
    5.8915189492994705e+002 -4.8017898212016957e-001
    2.1261919250895377e+002 -1.0400388769343476e+000
    3.3117487357566552e+002 -1.3000635298675407e+000
    2.9105118059911723e+002 -5.0301527765433873e-001
    2.7269804756655054e+002 -7.0698594503967671e-001
    9.9285409360445655e+001 -7.3789481168710325e-001
    2.1849077053669697e+002 -5.4745838514145240e-001
    2.0064133352089490e+002 -8.1961659895750527e-001
    1.8039160038635870e+002 -7.7646210817366423e-001
    2.7598397211951044e+002 -6.8404071143503142e-001
    3.8284471360113037e+002 -5.2944321529462290e-001
    4.0136841909060212e+002 -6.0170280117019836e-001
    2.6688190760561332e+002 -5.3296645307562751e-001
    3.9257502441971297e+002 -5.1634586468402233e-001
    4.4909361305267288e+002 -4.7507798996129635e-001
    4.0773781563367413e+002 -1.8914080661154888e+000
    3.5175519782502755e+002 -9.2621263724184022e-001
    3.0472498247785620e+002 -7.2687705640880307e-001
    1.1061916332470622e+002 -1.2409414359468218e+000
    3.1687165143048367e+002 -5.6551890900753499e-001
    2.0916378329534803e+002 -5.9825728408630174e-001
    3.2151027392368917e+002 -7.4804335482083406e-001
    3.2879217047846265e+002 -1.3664609296693702e+000
    2.5697704106676747e+002 -5.5222476651891850e-001
    3.0849635663445764e+002 -6.7646368387330891e-001
    2.4921114519452797e+002 -5.8326948970761672e-001
    2.3209966236415082e+002 -7.1188462162120902e-001
    2.0782680788143904e+002 -1.1181982537988100e+000
    3.5814087630316948e+002 -5.9885659214678522e-001
    3.7091836046243060e+002 -9.9689718910715774e-001
    1.7889908608642946e+002 -8.0502719377077214e-001
    3.0146515134985748e+002 -8.8455790275987345e-001
    3.7418477658029900e+002 -6.9317824279565576e-001
    3.4177420471251492e+002 -6.7516193665633184e-001
    2.2610780220903479e+002 -4.9540697835929515e-001
    3.5557396506365075e+002 -5.8464206072110159e-001
    3.4352863915948905e+002 -6.4078382180900406e-001
    2.9466610443355182e+002 -7.8261284996054226e-001
    2.9064598411675314e+002 -8.8830621162806167e-001
    3.4018659192415726e+002 -7.6527198436984623e-001
    3.1715268911415279e+002 -8.4723967548536405e-001</input_scale>
  <output_scale>
    5.2631578947368418e-001 4.9999999999999994e-001
    5.2631578947368418e-001 4.9999999999999994e-001
    5.2631578947368418e-001 4.9999999999999994e-001
    5.2631578947368418e-001 4.9999999999999994e-001
    5.2631578947368418e-001 4.9999999999999994e-001
    5.2631578947368418e-001 4.9999999999999994e-001</output_scale>
  <inv_output_scale>
    1.8999999999999999e+000 -9.4999999999999996e-001
    1.8999999999999999e+000 -9.4999999999999996e-001
    1.8999999999999999e+000 -9.4999999999999996e-001
    1.8999999999999999e+000 -9.4999999999999996e-001
    1.8999999999999999e+000 -9.4999999999999996e-001
    1.8999999999999999e+000 -9.4999999999999996e-001</inv_output_scale>
  <weights>
    <_>
      -1.4374191555635232e-001 6.2648622792130834e-002
      2.8556650627046966e-002 9.9786296060282054e-002
      -5.6064983872710153e-002 6.4606008550187860e-002
      -8.6176583177668423e-002 -8.9732841428251955e-002
      -2.8218303552540341e-003 -2.1488657988917002e-002
      4.8595830854549445e-002 4.9742784979124261e-003
      3.2647884015662168e-002 -3.9535978555999822e-002
      -1.3954804254274127e-002 -1.8732031862735504e-002
      -3.8999197300791835e-002 8.0988753623821991e-002
      4.0254124555394614e-002 8.8601787460467943e-002
      -4.2680281904791638e-002 -1.5343880776488251e-002
      3.8913897835587762e-005 5.1550800058603748e-002
      1.6947199963749666e-002 4.3006481960133916e-002
      -2.4945921349499692e-002 -6.3982345071483177e-002
      -7.3151009337453041e-002 8.2934304313121640e-002
      -5.7174063044975236e-002 5.1504722653458825e-002
      -2.6012915997762790e-002 -5.7559709538030489e-002
      -7.5645018734076017e-002 -5.0463525874976656e-002
      -7.5564602129547687e-002 7.4402228828153130e-002
      6.9631055702593109e-003 2.3209429526867942e-002
      -5.7672594157032610e-002 2.6089399181641746e-002
      2.4813142447913872e-002 -2.3143816307500717e-002
      -4.8297297663548473e-003 8.4993743463608232e-002
      -2.0380868079749457e-002 7.7957770425847284e-002
      3.1094440243476337e-002 1.3375587400756341e-002
      3.3549236765519456e-002 -5.6228727277455783e-003
      -9.1474621354687043e-003 -4.8944342767941573e-002
      2.7324895265008187e-002 5.8854573865833475e-002
      -4.4969946912791547e-002 -8.2788145522729645e-002
      -8.2534647124853186e-002 2.8753909111307735e-002
      -1.6478333984300569e-002 2.6683644860809905e-002
      6.9613704259605990e-003 -6.4749583419811893e-002
      -6.1045169133628610e-003 8.6269963853498083e-002
      6.4110792768636599e-002 -2.5972106230446122e-002
      -6.7585276901302241e-002 -9.8382478381868282e-002
      4.3101298704142171e-002 2.0050928835566341e-002
      -6.7209592670454898e-002 5.7192921536962767e-002
      4.5317912983167702e-002 3.6169514449349585e-002
      -4.0605472808013979e-002 -1.0932296453062171e-001
      -3.7004356328621462e-004 -4.1464261876108889e-002
      -4.9909446041828613e-002 2.3947494258181243e-002
      -2.8569387962622494e-002 7.8568224470683540e-003
      -2.4655266485170871e-002 1.2530890255459153e-002
      -1.3642982969189974e-002 -2.3344579708552676e-002
      9.9468635105733096e-003 -2.4125237922352109e-002
      2.4740874350255839e-003 6.8131175978514017e-003
      7.9807517060812103e-003 2.7685519485416282e-002
      1.0145758964701905e-002 4.5833642435967508e-003
      2.5536429851478352e-002 -1.1526642553388405e-002
      1.0606126603419223e-002 -3.8768019486030939e-002
      6.6527552938449974e-002 -3.4567158664507582e-002
      -3.5854178298074945e-003 -2.0883416194053157e-002
      3.8582648261948002e-002 2.1970064626840521e-002
      1.6784101458814733e-003 1.1851877572592226e-002
      2.9403934253865453e-002 2.6657744781940478e-002
      2.0519210033490019e-002 -1.0178278236045656e-002
      -1.8818505738745217e-002 9.0078903830585026e-003
      2.3497753575903346e-003 2.0294355528727080e-002
      3.6441444804692961e-002 -1.6665038534486115e-002
      -7.7471808993730537e-003 -1.0082107875610355e-002
      3.7857407165778627e-003 9.4665119063776192e-003
      2.6544836447997136e-003 -1.7686881667434155e-002
      -6.1665092618761368e-003 1.2160947118930664e-002
      1.0485074007681283e-002 4.5921549231029694e-002
      -2.6172435006983633e-002 -5.6586275189555854e-003
      -2.7268545400505516e-002 1.5780289658413424e-002
      2.8525585954448034e-002 -2.8297590674871143e-002
      -1.3108462309999208e-002 -2.9969816002070507e-002
      -2.0982755073759053e-002 1.0585502276380280e-002
      3.3117408814124394e-002 2.0995429778670509e-002
      -2.1859272977592017e-003 -1.0759657655655718e-002
      -3.0427652110700427e-002 3.3932832617624760e-002
      -1.4448915995095037e-002 1.8889437384278535e-002
      -9.8571870564169595e-003 3.1281241491069187e-002
      -1.9041633256678708e-002 -6.7779056055393893e-003
      -2.0675894534820907e-002 3.1739377620750353e-002
      -2.0039203573288780e-003 -2.3290092827493766e-002
      -5.6401045149954955e-002 4.1916985517407253e-002
      3.5469810220700289e-002 4.1182577718123517e-002
      2.1834381180273435e-002 -1.0672302627796013e-002
      -2.4316568294134944e-001 -4.3700559180320238e-002
      -1.4531630673976831e-001 3.6722726016054710e-002
      -8.1114235024846132e-002 -1.1854950206037865e-002
      1.1619788144852997e-001 6.0080075334090752e-002
      1.9642127205081794e-001 -1.9393704337600437e-001
      -5.1107790436231891e-002 7.5860540288517853e-002
      -1.3535931528445874e-001 -7.1417553696310865e-002
      4.5396417584679438e-002 9.2827533884286884e-002
      -1.2396182397581187e-001 1.2158981667228928e-001
      -9.3764915115444991e-002 4.5302225263694373e-002
      -1.8267638529965072e-001 3.9505944121041470e-002
      7.2906148210306262e-002 7.1634725184984496e-002
      1.3202046464735823e-001 1.4748210437177717e-002
      -6.1389573503639307e-002 -6.8684416394782247e-002
      -9.5310744812297107e-002 -1.9339530875660607e-002
      -1.5147501125571747e-001 3.9444950081917340e-002
      7.3517187578305387e-002 -6.6752787044495110e-002
      -1.3498278177638498e-001 5.8200951824916303e-002
      -7.7878932058019518e-002 -2.2385810337595593e-002
      -5.5072769073110525e-002 -6.2436486521902097e-002
      -9.5338455282571177e-002 1.6783739641880027e-002
      -1.2169465598821007e-001 2.1082247390313263e-002
      5.8446149721049355e-002 -3.2396395147005312e-002
      -8.2333456273019023e-002 9.1349039200928989e-002
      4.2695607321446914e-002 8.7623813065940734e-002
      -7.7032878874854743e-002 2.1635195079272673e-001
      1.1268911832194084e-001 -1.1758604016735534e-002
      6.4339122829436032e-002 -4.5260743091798762e-002
      -9.4158048458965388e-002 -1.0601380601219682e-001
      -1.5454613366681042e-002 2.2581806532983327e-002
      -1.8762214113831649e-001 -4.0038556503994190e-002
      9.8473041805013678e-002 8.8824503951288533e-003
      1.4096043628606644e-001 -1.4939548973520826e-003
      1.7949923204228068e-002 -8.4536741841389328e-003
      2.4526724549422591e-002 -2.2850606137027867e-002
      1.4627839419319904e-003 2.0571068899914887e-002
      -3.3132905973155137e-002 -4.0124966790532735e-002
      1.7089880107412114e-001 6.6143065668899312e-002
      -2.2354133316243908e-002 2.6872076645063470e-002
      8.0792407126653018e-002 1.2331218018196049e-002
      1.0758838271230794e-004 1.3949824439982955e-001
      -1.0983743067842089e-001 1.3654659158205792e-002
      -6.2898847491781290e-002 2.4160278767055111e-002
      1.1787379576654346e-003 -5.0288093597152937e-002
      8.0513037354181818e-002 -5.7853210342547499e-002
      3.1118750184921332e-002 -1.4318642566564041e-001
      8.0593305776156088e-002 -1.6752002937318192e-001
      7.7350312253693307e-002 -3.8002230491653390e-002
      1.5691170882011213e-001 8.6069933437113340e-003
      5.3101186784553292e-002 1.4466522198587034e-001
      7.4425958574854928e-002 -4.6495074054236155e-002
      -1.5159386918779338e-002 6.1975959163984719e-002
      4.3029202423386335e-002 1.4178302349313385e-001
      7.0258978124385668e-002 -6.6101543066794926e-003
      -1.8267424238037476e-002 9.6122531818508800e-002
      1.5316253604851976e-001 -1.3142504461286311e-001
      -5.8605160711610753e-002 -7.5778066401309144e-002
      5.3332337140355526e-003 -1.1602919011257708e-001
      -3.4489749926619032e-002 1.1440403234356657e-002
      8.6224232817756485e-002 2.9089256799972357e-002
      1.4115418890986347e-002 1.7180150657324072e-002
      -4.3463260808656694e-003 -1.0333829678872491e-001
      -4.8828161589950077e-002 3.4038034460208998e-002
      1.4649787967316915e-003 9.8759597685641728e-002
      1.3402570276304093e-001 -2.2799227899622698e-002
      -6.5307627219052686e-002 1.2691771116602632e-001
      5.1839484646389003e-002 -1.6808428819025500e-001
      -1.5829869236130938e-002 1.0763305908554562e-001
      -4.7656270149261139e-002 8.6977864301025734e-002
      -5.9763955178441672e-002 2.1768107155806757e-001
      -3.6443424325242439e-002 -1.7675917008123002e-002
      5.8869506385038177e-002 1.7156207598731718e-001
      1.5970210005150814e-001 4.8907622600757462e-002
      6.7300129019306057e-002 -3.6831049697239382e-002
      -3.6983982652613885e-002 -5.9125773298248696e-002
      6.6205283569241519e-002 1.6047990584183744e-001
      -1.5815974375002401e-001 -3.4365614324784376e-002
      -1.8357606165331261e-001 7.5291245329198578e-002
      9.4912051705820802e-002 -9.5089477186091939e-002
      2.5108679688270578e-002 1.4003941403494466e-002
      -2.5693680686818726e-001 -5.5912146285659707e-002
      -9.1038529312415309e-002 -4.4057769155718053e-002
      2.4978789809723397e-002 -3.4308265158749469e-002
      7.4198729520368975e-002 7.6633351491440516e-002
      1.3816775858594449e-001 -8.7795440638928912e-002
      -4.2894062693716643e-002 1.2266760560302292e-001
      -1.2737913792874128e-001 -4.0786640100923227e-002
      -2.0892258530089084e-002 5.2283890438451171e-002
      -1.3783477971807886e-001 1.1815429995827818e-001
      -1.1272512384381415e-001 4.1030309152934666e-002
      -1.0959656353916672e-001 2.2240494607727271e-002
      4.9584231105183570e-002 4.8866726773784730e-002
      6.3657805960372349e-002 7.1184186426515667e-002
      -7.9098994403447739e-002 -5.1472780588728471e-002
      -9.0056824726522516e-002 -5.2444583574723508e-002
      -1.2054679273184896e-001 1.2525253593912083e-001
      9.3579884984925227e-002 -3.8783127448393247e-002
      -1.0553109346761551e-001 4.8480559200280243e-002
      -5.6851472298350830e-003 4.6283902856368846e-002
      -1.4713006971239553e-001 -9.3731488191132528e-002
      -7.3777719499914435e-002 -3.5316309421829971e-002
      -1.0988634637249912e-001 4.3651757430164202e-002
      4.3247188744841986e-002 -2.8213297865942826e-002
      -1.1320576131112646e-001 -4.5329190953009246e-002
      -2.7723623062506413e-002 7.8212073281404018e-002
      -5.7659021539418313e-002 1.0213335353435335e-001
      1.1563252507042950e-001 4.8165301956571600e-002
      6.2369598950741532e-002 -8.7083724759133466e-002
      -5.2136054247214840e-002 -5.9177265180929951e-002
      1.0224783075198600e-002 -3.2337965037268740e-002
      -1.0357086417582290e-001 -3.0374311187074371e-002
      1.0761011220031545e-001 -1.0077833164593687e-001
      6.1378865613148405e-003 -3.5793595585547629e-002
      3.9744268244284668e-002 1.4505397911940741e-002
      6.4689003268621745e-002 8.3488685440668703e-002
      -1.4749080478337289e-002 7.1042562204898128e-003
      4.1854559507373566e-002 -2.7887774338113832e-003
      1.2829074310681701e-001 -1.3066793900765955e-002
      -6.2508967332050996e-002 6.3355645281670354e-003
      3.8849508989607595e-002 1.7239916216842625e-002
      8.3793502993395205e-002 9.0362205576774782e-003
      -5.4122273861745571e-003 5.6586389753217871e-002
      -3.6383995660591556e-002 1.8971762451726545e-002
      -2.1874668952842569e-002 -4.3387097624863827e-002
      -3.8404953640063286e-002 1.4191628027545960e-002
      -3.4718775206692481e-003 4.4910208455086462e-002
      2.2820305627953025e-002 7.6005634662386370e-002
      3.1316346194671114e-002 5.7975833175456473e-002
      -1.8947112555710462e-002 5.0366229117806277e-002
      2.3640801562998009e-002 -3.1763334237245998e-002
      -4.8985397784940606e-002 -2.0425564972065529e-002
      1.4596075252327647e-002 -2.9022453742098827e-002
      -1.5006978109414931e-002 -3.1730457507702044e-002
      -7.3492899877760087e-003 -1.1352999604828959e-002
      -2.1186678508409778e-003 4.2622151948615621e-002
      -9.5473035271026144e-002 9.1576063129115509e-002
      -1.8281060854337530e-002 3.1314702408187081e-002
      -1.2972539308352609e-002 9.1117642296045884e-003
      2.1920044933739592e-002 -8.9661619939532033e-002
      1.0261318577216105e-001 4.5201101163094927e-002
      -3.2105266623522671e-002 7.4671153187922642e-003
      -7.1069103769211758e-002 3.7742111265478474e-002
      2.8670461292753757e-002 -4.1628639048802117e-003
      -3.7220278525259165e-002 1.3672911428408508e-002
      1.5290257397468306e-002 4.2446469087839018e-003
      6.1094397001783873e-002 -1.8636729964624180e-002
      -5.5714991906731522e-002 2.3679830044485602e-002
      3.0826890092721057e-003 4.9684920734892946e-002
      3.3099471306765417e-002 -3.4710582638765683e-002
      3.9941184528719795e-002 -2.9471582527227428e-002
      4.0411992703359448e-002 3.1347314485883071e-002
      4.6731447652183386e-002 -1.0619866963491062e-001
      1.8637913144559502e-002 3.7859748527876665e-003
      -4.5243190357430449e-002 -3.3279949193542907e-002
      4.8091669758276244e-002 -5.7848341299698694e-002
      -3.8081696686986653e-002 -2.4791495162902959e-002
      -1.1773653428631362e-002 -1.1983374567465664e-002
      5.3991495303218069e-002 4.6952899570000331e-002
      -4.0801755144533568e-002 1.3401458733942220e-003
      9.7301473650225068e-003 -3.1529868006728093e-002
      3.1553300796817940e-001 -7.7295316197112302e-002
      -7.2175624894203119e-003 2.9684762799151932e-002
      -3.0409794237697890e-002 -5.3052529687804880e-003
      1.2101200703432055e-001 1.6470014889836553e-002
      6.0274434826817318e-002 -3.4659018937846189e-002
      -5.3459719102803983e-002 1.3736241467029869e-001
      -3.7983579888044773e-002 1.0074050059060724e-001
      1.0768941751465388e-001 1.4052554116725130e-001
      -5.8284772356860803e-002 1.8335144248439736e-001
      -6.7357080871981431e-002 -1.0238044440100517e-001
      1.9810904132779183e-004 -5.1654485019915465e-002
      8.8273027344708085e-002 -9.2161933675376673e-002
      7.4127683210482742e-002 -3.1283880414968081e-002
      -4.2547330855286149e-002 1.9944781607865218e-002
      4.7068518279153933e-002 7.8572220547029649e-003
      -1.5027048281660196e-001 1.0136853125844227e-001
      4.9688245013623906e-002 7.4262620633339535e-002
      -1.1166667189871766e-002 1.1277588702648400e-001
      4.0273939669988497e-002 -7.6541346861512691e-002
      -2.5010939437140577e-002 -1.0983276536785189e-002
      -1.2205361749794659e-001 -1.5178608274943967e-002
      -1.0905979817545680e-001 1.4067456958362687e-001
      6.8318591195870956e-002 -1.1196980752602041e-001
      -8.6876515081587516e-002 -2.2982017617599063e-002
      -3.7520720854736678e-002 5.5568165287883386e-002
      4.3226592305579931e-002 1.6929298574483321e-002
      4.8643738395775786e-002 1.5902681319467693e-001
      8.8415239403115357e-003 -1.4788480151411841e-002
      5.2169469345405929e-002 3.9811321545617277e-002
      2.5224412449300217e-002 -1.2156577667412358e-001
      -2.0304181906473536e-002 1.5988644198852871e-002
      1.3219733934365016e-001 -1.1022257554023943e-001
      -1.0244601257539948e-002 -5.1567321928071091e-002
      -1.4173996205987716e-002 -3.7496301076134012e-002
      4.8874188634056924e-002 1.3724459068305621e-002
      -1.0347944642889340e-001 -6.4729831750088229e-002
      -3.1377592781273357e-004 -1.2173041004332061e-001
      1.6598883104654094e-001 6.8588828264794649e-002
      -1.0699496386142369e-001 1.5087870749699317e-001
      5.9615951906121435e-002 -4.0937161049418781e-002
      4.5583091327582329e-002 1.1277429223943423e-001
      1.2495107103581543e-001 1.0070880154550116e-001
      -9.3943267781357143e-002 1.2319084518872632e-001
      2.3349494112617007e-003 2.1201527580434140e-002
      -7.0593408992449952e-002 1.4168290000666567e-001
      -4.1047185231705176e-002 -2.3609510053317764e-001
      1.2535537304735586e-001 -1.2405271955007297e-001
      8.8408782796624938e-002 -9.3551561914420753e-002
      2.4398722536015865e-001 -1.0112898735837886e-001
      8.0048326280885790e-002 1.2762084153388611e-001
      1.6055681406788214e-001 -2.0985493666397660e-002
      -5.5696541276515354e-002 1.4709739041888291e-002
      -6.3271996717381374e-002 -4.2237618524111606e-002
      1.0123141037926302e-001 -2.9859889006603165e-003
      5.2064181146748344e-002 -4.0832327818960304e-002
      2.3626828249693724e-001 -3.1580872771904478e-001
      -3.3688057050339740e-002 -5.2855467686839873e-002
      1.3330439343023776e-001 -1.5237181901407174e-001
      -6.5848930706271036e-003 1.6210322740596081e-001
      1.0296746556811721e-001 4.1017958711550888e-002
      -1.8567359071333495e-003 1.9123751639913783e-001
      2.0614968411907156e-001 -3.6746420475081053e-002
      -2.4214878389442607e-001 9.3187149775269557e-003
      1.2114643842947594e-001 2.6537393951769430e-002
      1.5522981162446662e-002 -5.1674124422228539e-002
      1.3007839629066476e-001 -7.1007682921296250e-002
      -5.4234918552992450e-002 -2.5429901520952824e-002
      1.0688807565134609e-002 1.4855618319222294e-001
      5.0131492922580602e-002 7.2785952031335421e-002
      -1.2053805381780425e-001 1.2582053694258491e-001
      4.9293402417790476e-002 -5.8352631694429669e-002
      -7.3973019866814635e-002 3.2577579188031747e-001
      -1.3378891217195013e-001 2.2487467608463554e-002
      -7.7806974773385940e-002 -2.2401124593490307e-002
      -9.3669027171554856e-002 -7.6731326254907944e-002
      1.7955909882727891e-001 5.8715805895773084e-002
      -8.4490022528821138e-002 -7.7789465364765970e-002
      -1.7628019994227889e-001 -2.5910721481229335e-002
      1.0291756482545274e-001 1.1332011873461108e-002
      2.0861489049440279e-002 -5.1984188276150568e-002
      -1.5974856974587914e-001 -5.8530588106573460e-002
      6.2193354272295767e-003 1.9002017318046377e-002
      5.8207704937044268e-002 -6.2490447537888946e-002
      -1.0580853775639872e-001 -3.9046376209349289e-002
      -1.5200805437274270e-001 3.0731498905930698e-002
      6.2604959932977586e-002 -3.5248198771224005e-003
      -3.7520438819386603e-002 1.0165758417465806e-001
      -6.2348231406357209e-002 -4.7504368635744552e-002
      -5.1591115456258864e-002 -1.5861961429145419e-001
      2.2914256205685494e-002 -1.0104393626649946e-001
      -5.5867298158612702e-002 -1.1345753932077771e-001
      -5.4510211429078810e-002 -4.1302765186791865e-002
      -2.6735924461164681e-002 -2.9359629738853903e-002
      4.8227169502545700e-002 3.9267070256425528e-002
      -1.0352875411055892e-002 3.1556309405267949e-002
      -2.7554681439830374e-003 -2.0820206908283224e-002
      -8.3611500698344582e-002 1.0210847638965216e-001
      7.9207521118440496e-002 -2.2810976084062633e-005
      1.0610766601830478e-001 -2.8066711327803081e-002
      -9.4290856094248462e-002 -2.5319685841872171e-002
      1.3372237962129668e-001 -3.9332334556136876e-002
      2.5543087718328378e-002 -1.2647702249351103e-001
      1.8419772754054398e-001 5.2680992852555342e-002
      6.4352028009615217e-002 1.8459298424170541e-002
      5.9223404344567292e-002 -5.2598113849832352e-002
      -1.0522910726531684e-001 -8.4970926817822118e-002
      -3.2884652867620226e-002 -5.2926248923577009e-002
      -8.6166989712918710e-002 -1.3104490891598686e-001
      -6.2997987180556311e-002 -1.6755957594889254e-002
      1.3425420496724622e-001 -2.4342848545007553e-002
      1.5879334157231245e-001 1.2389391605283184e-002
      -1.6223273908068947e-001 -8.8573671999472164e-003
      4.6597246554519883e-002 4.1578258358451456e-002
      -9.9782391227602317e-005 1.4304688387855044e-001
      -5.7450536355562222e-002 -2.2601495772080760e-002
      -1.2222680017625774e-001 -2.4771175276729403e-002
      2.3730393272523017e-002 8.4359328582094578e-002
      2.7697704764459577e-003 6.0088938726288689e-003
      -1.6041290696688040e-002 -1.3191851101469226e-001
      -7.0976419739090205e-002 2.4247653356156397e-002
      -1.7927479040405656e-001 -7.8215962239667081e-003
      -5.8146199445372360e-002 -5.1924714085973288e-002
      -6.9945122493578100e-003 2.2331567041256741e-002
      -3.0998050110146523e-002 -4.5671042138646929e-002
      1.1686718279377357e-002 -2.7123189927070364e-002
      1.9968389366131555e-002 -2.4757599113791190e-002
      -3.7824570260367910e-002 -6.7962287029170506e-003
      2.5186548432798064e-002 -2.7765800711299648e-002
      -2.0687700836496334e-002 -3.6503328138190343e-002
      -1.3283224773047339e-002 1.2359711938776477e-002
      6.2363468432566100e-004 -5.0285151740818872e-002
      -1.1045022000287718e-003 -2.0321614572525515e-002
      3.0448790219656151e-002 2.8856838826401658e-002
      3.3437960165777332e-002 -2.1457591756703257e-002
      -5.0713647753393751e-002 5.1097164533511534e-002
      -5.4342033183072637e-003 6.2785663041480033e-002
      -3.6485571878167936e-002 4.3160943290890290e-003
      1.4033533902045300e-002 7.3455783601973371e-002
      -5.5472203258623773e-003 -1.4499896459531540e-002
      3.6386469309973822e-002 -9.8902778820412658e-003
      1.2554251815321740e-002 -2.7412524615724947e-002
      -4.9552125610848041e-002 -2.1680491057777602e-002
      9.1851494198591802e-002 1.3829432192798452e-002
      -1.4761879498790972e-002 3.7218685988060225e-002
      9.6986850167935859e-002 -1.8143236347181558e-002
      -8.8237129841705429e-003 2.5384326946188161e-002
      4.1043045453038982e-002 -4.0815624604143959e-002
      -3.5520886629955208e-002 -3.9147839904625517e-002
      5.9289544983146415e-003 -1.2363623863961400e-002
      4.0350066538350051e-003 6.3529200703446670e-002
      7.1745888427775531e-002 1.9824626335883229e-002
      5.6201278460498707e-004 -6.3795375729153503e-002
      8.9849142059431050e-002 2.2544856593008610e-002
      2.2751773910162323e-002 -2.8487956399739871e-002
      4.5031731734801773e-002 3.0303533862105277e-002
      -4.3846116539079445e-002 3.9618607067902503e-002
      -5.5083673623259319e-002 -2.0205473316396407e-002
      -2.3781386784596206e-002 5.2826476382602044e-002
      2.5255413998988289e-002 -5.6192653708909022e-003
      2.0045922229995274e-002 -9.2552120039584573e-003
      6.0233864410001850e-002 3.2752507541602548e-002
      -4.7276425334040868e-002 2.8063833208060905e-002
      -2.0456424550831409e-002 4.0819078756643423e-003
      9.0706270663476946e-002 -1.1046311312455052e-001
      1.1505856246070158e-001 -1.0751518256336301e-001
      4.6134376890448643e-002 5.1387948676690727e-002
      -6.5963235580669697e-003 3.0038033306829512e-002
      5.8474360212627863e-002 1.7127982652073917e-001
      -9.1345256753206858e-002 1.7452914234265629e-001
      1.5749162759742610e-003 -2.0452553141247092e-002
      -7.7513650131723968e-002 -3.7147578747945109e-002
      8.1366992629056098e-002 -4.3811357499304780e-002
      5.1694621167779543e-002 1.0410981319643414e-001
      -3.8881964421607407e-002 -2.9383095793217448e-002
      -4.6759400369075402e-002 1.7482510244736157e-001
      -8.3674450754508495e-002 2.3312266318630823e-001
      3.6236381429978190e-002 -2.0457996077371862e-002
      -8.6428891564040697e-002 9.8247889294694637e-004
      -3.4725838228391377e-002 -1.0398107162126023e-001
      9.1067057374436100e-002 5.6990138414588047e-002
      -1.4131595188475105e-001 -6.4991248777318059e-002
      -2.0489395041082206e-001 1.1337674763134538e-001
      6.8935643257799523e-002 -2.2984037367598052e-002
      -1.2651398486599114e-001 4.5439954295464047e-002
      -4.1906492608730056e-002 5.0926384810328976e-002
      4.7905171319271626e-002 4.3369589757418343e-002
      -1.5588000422831816e-002 -2.0004224498076000e-003
      -1.4688643972203050e-002 9.2035026446015550e-002
      4.3153657644207769e-002 -1.0057547576815096e-002
      -7.4439738320153978e-002 -4.3929165524586537e-003
      -4.9914740518153360e-003 8.1795715413922415e-002
      1.8546542021618917e-001 -2.0286665005845253e-001
      1.0276998728095963e-002 -4.0049698700544555e-002
      1.2486001278757899e-001 -1.2854225187252383e-001
      2.8030965592524288e-002 -8.8686906745418584e-002
      -5.3542061859785363e-002 5.7421817566340530e-002
      -5.8941553429958313e-003 -3.8154054741234150e-002
      2.2840754115362193e-002 1.6608079138849033e-001
      -5.7581223911754423e-002 6.8375739067770391e-002
      5.3842659266287632e-002 -3.0210266701945685e-002
      1.3181058291810625e-002 -2.1603577206776556e-002
      -3.6951250130807314e-002 -3.7564665576837727e-002
      -3.0911497179933318e-002 -4.2227827077266619e-002
      5.3694657910836148e-003 4.3050170134001635e-002
      3.2386457279584911e-002 -6.3096739382317250e-003
      -5.8605188619610005e-002 -1.4820322663571173e-001
      -2.4763325749171661e-002 -1.7275067552911777e-002
      2.2394501361548091e-002 -2.9925275322204258e-002
      7.5628464029790343e-002 -1.5524475002215057e-001
      -3.3364620042047440e-002 -3.9225527192995990e-002
      5.6942480490682290e-002 -3.3961338066562409e-002
      -3.4241585171652406e-002 -1.4063545176576762e-002
      3.3546688358808335e-002 -6.5628252259079201e-002
      7.3421651346975383e-002 2.8986146826223178e-002
      2.2606267857434793e-002 -3.0182770520310889e-002
      1.4708254680237101e-001 -1.8270069539539238e-001
      -7.8217915791272703e-003 2.4774442711844768e-002
      7.9558223996056540e-002 4.7035911416812341e-002
      9.3010878073761544e-002 -4.2419955120885498e-002
      8.3178494650986198e-003 -3.6966921286578934e-002
      5.3960648613585793e-002 5.4395282100766239e-002
      1.7682950580835799e-002 -3.0944949854471285e-002
      -1.8201831364042104e-002 -6.4664974945724809e-003
      9.2706562831157774e-002 7.2176179762301626e-003
      6.8900033838638144e-002 -1.6921999426313738e-002
      -2.0857396978806324e-002 3.5731596282696218e-002
      6.4852925477331444e-002 -3.1817058177697699e-002
      -2.0450900751338274e-002 -8.6743661310800912e-002
      -2.3973567438377937e-003 8.2065566252312677e-002
      8.6808839807531415e-002 8.6770081669615334e-002
      2.2130312986066866e-002 -5.1572246231916280e-002
      -8.7247000573159580e-002 1.9445774144862324e-001
      1.5853304688278915e-002 -3.9476439877025793e-003
      -1.3118335658694652e-001 3.8829249544551560e-002
      4.9687958929217887e-002 -2.9957831237346719e-003
      1.1310812384694334e-003 -3.7397640989328923e-003
      -6.3721412300514910e-002 -2.4138991844648770e-002
      -7.6447538494265124e-002 -2.5669931601740869e-002
      9.2950354510704228e-002 4.6283433809141787e-002
      -2.4349617437475729e-003 4.7162062710441668e-002
      -9.2913255306006054e-002 3.3067394933472181e-002
      9.2235459413616647e-002 1.1831045880813770e-001
      -6.6767017191097275e-002 1.2353669378090842e-001
      -2.8313909877872610e-002 5.0625660779008728e-002
      -4.9702864265104875e-002 1.1579196707300912e-001
      -7.9565493342967517e-002 -1.1602371409214203e-001
      5.9858164612016880e-002 -7.4526509107813291e-002
      3.5547787743227359e-002 -1.1465537893779176e-001
      1.0189825150192323e-001 -3.8841646914087147e-002
      2.2582588043514117e-002 8.2550830013336601e-002
      7.8402016593275531e-002 1.9777561275924130e-002
      -6.3243844179408787e-002 4.4520216128415294e-002
      -5.2533953449477054e-002 -1.1781545259742879e-001
      4.7700731630564673e-002 -1.2665337737148558e-002
      2.7160132686525444e-002 -5.9237481082957698e-002
      1.0465333845794372e-001 -1.7206393866880010e-001
      -4.6539490827626297e-002 -5.0543937954745856e-002
      3.9141118778167713e-002 -1.4998046159853914e-001
      -6.3301098556063307e-002 9.8211875147646066e-002
      4.2218923225062856e-002 1.0600003771975265e-002
      1.1133388189996173e-002 1.2706403786939555e-001
      1.9730871359261995e-001 -1.8591065749301933e-002
      -1.0894103556363585e-001 2.8110069332291390e-002
      1.3296250046899363e-001 7.5338115621612536e-002
      1.0056360992208725e-002 -4.0940434678026605e-002
      9.3108898157568024e-002 -4.0535422300558580e-002
      -2.8106322067140165e-002 -4.3715079918497025e-002
      3.1895349856809280e-002 6.7702911582787767e-002
      1.7884778265162923e-002 -1.0569148170512748e-002
      -9.1214800657288569e-002 7.8838771374513408e-002
      -5.2071369275479605e-003 -4.9665847596775760e-002
      -1.0909915691424187e-001 1.5644337703918812e-001
      -5.4868038997671481e-002 2.6846860447510782e-002
      -1.4606272454823194e-001 -4.0498453163556186e-003
      -1.3761158325837808e-001 -1.2413584729032705e-001
      1.2809824107588233e-001 1.9932444279865496e-002
      -4.2466475561084259e-002 -2.0392746591642877e-002
      -6.3508723191808419e-002 -3.5528803755655557e-002
      8.8165765183598366e-002 2.4945682014605949e-002
      1.1313413162257872e-002 -4.8661646000222505e-002
      1.3346136133433514e-001 2.4988109077999126e-002
      4.2698265209891076e-002 -1.3304639408970977e-002
      5.4091028912340760e-003 -1.7055328055122953e-002
      4.1538146580359606e-002 -9.7990375695038625e-003
      4.5240533815280530e-002 -1.8622406640128361e-002
      3.9308212565271242e-002 1.3795144552704736e-001
      6.2354057078590777e-002 1.9740111903241202e-002
      -7.4315445291527268e-002 8.1388580780637876e-002
      -2.2338836867724258e-002 1.6839174094714399e-001
      2.2225055051838666e-002 2.9040168983954829e-002
      7.0181615330049241e-002 1.3157376817040956e-001
      3.3538312852853490e-002 2.9850758083404812e-002
      -1.6724911455448993e-002 2.0339799554029460e-002
      -1.0375705831057419e-001 4.0872653835942963e-002
      7.2964308432598560e-002 -9.6788872157998942e-003
      -5.1554332573292588e-002 5.2224562246152295e-002
      4.8690602924784318e-002 -5.5444132252347199e-002
      -1.2771890770924740e-001 -6.3093534166053199e-003
      -1.4906915539833548e-001 5.5200345658408249e-002
      4.1296134448341175e-002 3.0172833981360288e-002
      -8.1519012393076212e-002 1.0220500000047473e-002
      -1.5675002821815383e-002 6.5477082852358218e-002
      -8.9729495369820944e-002 1.6176999071568349e-002
      -4.1108234722952455e-002 -5.2739853123554628e-002
      -1.1706255453753979e-001 4.4579795573768344e-002
      2.3569129239642366e-002 -3.9673221392569537e-003
      -6.5428336871376461e-002 7.0820714921259312e-002
      5.6417614932022034e-002 1.4392002677976348e-001
      -2.3716036137691399e-002 1.2524810745211610e-002
      -1.5324967363289135e-001 -1.3129523386641026e-001
      -2.8327736941490499e-002 1.5092416925716791e-002
      7.4410682884211390e-002 -8.5561887503282558e-002
      -7.8677462624177227e-002 -8.2816360237189954e-002
      1.0955613112003396e-001 -3.0959143882730817e-002
      -1.2321089049106844e-002 9.0528797976462457e-003
      7.7370843925958069e-002 -5.2475805023447661e-002
      1.2304416374688065e-001 6.0333037453233540e-002
      4.7388659638440987e-002 -6.5687776953162608e-002
      -3.5411608036513963e-002 5.0099808207451323e-003
      1.0429150371940837e-002 3.6083839586355991e-002
      2.8886319776606900e-001 -6.8653762179498243e-003
      -1.3753332038310761e-002 1.0773560781600798e-001
      7.1032260281996273e-002 -5.7385891057153741e-002
      -1.9847681472514343e-002 -4.8826942235274340e-002
      -8.1135616494715981e-003 8.3034266459416833e-002
      4.6357013210245657e-002 -4.6357835591991966e-003
      -4.5704571270291146e-003 3.8742890477779832e-002
      -2.2541599828630136e-003 3.3988198777055091e-002
      -1.9153776340027086e-003 -4.9967216650551267e-002
      6.6988691436615806e-003 -5.0529903597529041e-002
      6.0095467363457632e-002 -1.5931737486711658e-002
      3.8066526389194605e-003 -2.6244097130401878e-002
      -1.2731892973149956e-002 3.1046641369791985e-002
      1.6822414411316110e-002 3.6498241676934239e-002
      7.8395312416379453e-002 1.1106755547681549e-002
      6.2711373321642141e-003 3.7076675532353595e-002
      -6.9099194471800903e-003 4.5824746664564556e-002
      4.2388089998101133e-002 -4.1447636559822323e-002
      7.5383700496545886e-002 -2.1946288160883669e-002
      -5.2654223433871675e-002 5.3988684752408799e-003
      5.3647746220332332e-002 -7.5511344975859623e-002
      -4.8466496598106763e-002 -3.5076920049739058e-002
      3.1656185090920982e-002 3.7287104968193193e-003
      4.0979463915056497e-002 3.2252408567926404e-002
      -1.1120787485487699e-002 -9.4491900927746557e-003
      -4.3524304190123479e-002 -1.5032234803440347e-002
      -1.4626335736147886e-002 -4.6653924179175738e-003
      -4.2814109514725904e-002 -3.0174809590434937e-002
      -1.6785835495796920e-002 2.3722723279523180e-002
      6.3684006407676491e-002 -2.8552808440758929e-003
      -1.7652483384849680e-002 8.5770660548612487e-003
      -1.1343649293259844e-002 -6.0039545417150626e-002
      6.9562117942835993e-003 1.0239804014312204e-002
      2.0941558954265381e-002 7.9377315921521259e-003
      -8.4949834106835778e-002 -8.7538330277777632e-002
      -6.2716069332811819e-002 -8.8665186181479845e-003
      -2.2977320517714114e-002 1.4577075863430485e-002
      2.3793257009305884e-002 -1.8075008786183108e-002
      -1.9188996454800929e-002 -3.2187165495596914e-002
      -4.1628848781664396e-002 3.1617050535770866e-002
      7.6159399210346446e-001 -2.8667721350140621e-003
      -2.2842586788521393e-001 1.2864836458989529e-001
      -1.0710886534837227e-001 -2.0772198217783935e-001
      2.6189313510982493e-001 2.3229020315617166e-001
      1.9247534304714758e-001 -1.3590392506757615e-001
      -2.3560997847419063e-001 -1.9406234732523578e-001
      -3.8454430065596498e-002 1.1201430650525454e-001
      1.3635801356672642e-001 1.5452629504086884e-001
      1.4548174221904564e-001 -1.9857359277119604e-001
      -1.0590528070189813e-001 -2.4086067658441807e-001
      1.8127707150275732e-001 -4.4043492574025615e-002
      1.1813276904351876e-002 -5.6604688406426906e-002
      1.2578807827801161e-001 2.2649053096421021e-003
      9.6161370601096918e-002 3.0851046622697786e-001
      2.1665270305909096e-001 -7.8783243658419391e-002
      2.7775327736355737e-001 -2.3287611912075157e-001
      1.4329001637355809e-001 9.0190187354937307e-002
      7.2586300853928601e-002 1.2253022010263509e-001
      1.6565449517116748e-001 -2.1927560754453410e-001
      -8.4682437979179213e-003 -8.1078471388996209e-002
      1.1389435911411050e-001 5.2414836501079740e-002
      -2.4444975832236318e-001 -1.2759028210370568e-001
      3.2117967371326800e-002 -1.9245862230837532e-001
      2.0299942947410571e-001 1.1884109459404966e-001
      1.9574226509749099e-001 1.9789386217939700e-003
      -1.4274127182723367e-001 2.0972704249071075e-001
      1.7375879010265730e-001 -9.4829986497225502e-002
      -5.2340035255656538e-002 -2.0253130695491486e-001
      -1.4556675414818235e-001 3.2936922685085013e-001
      2.0956458871892006e-001 2.3585117766362179e-001
      -7.4475158488518933e-002 -1.2995387047427792e-001
      -1.2366174959461712e-001 2.5517712302520851e-001
      2.4428174163469779e-001 -3.0154190103409861e-001
      -2.0414809203761083e-001 2.1279353616183241e-001
      1.3300985866420514e-001 -4.7598645770114398e-002
      -9.5079577714204333e-002 1.3913964574413365e-001
      -2.1068885708589807e-001 -1.4877498893233146e-001
      -2.1585885547754827e-001 1.2382461361638793e-001
      3.3538897001509449e-001 1.5734376563786834e-001
      7.5155762262498288e-002 2.1010815803840086e-001
      6.4707093923603964e-002 -2.1176795822471992e-003
      8.8045673627329766e-003 -8.9662861606387603e-002
      -1.1081621772413588e-001 3.4771089364940021e-002
      7.4897266665860857e-002 1.0927692366854586e-001
      8.4357255339006579e-002 -2.0054533001893009e-002
      -1.1264119206818905e-001 8.8630082261976065e-002
      1.9990383080093297e-002 -6.1209239155864986e-002
      4.4791497733209541e-002 5.8921785316391805e-004
      9.4686810348690198e-002 9.3762948896472451e-002
      -4.1963067747543298e-002 7.5545022942221068e-002
      8.4407348995552023e-002 8.1521142471721653e-002
      8.6937481960315168e-003 1.9231746607693702e-002
      4.6099774993311617e-002 -5.2656788548648144e-002
      -5.5492497031303288e-002 3.8861923309448140e-002
      4.4836448336197689e-002 -9.0702723136618854e-002
      6.0703247573286904e-003 -1.2129412034814215e-001
      4.3858659759156850e-002 -4.6743803312201411e-002
      -4.0319201578783465e-002 5.1485214769786895e-002
      -1.0983526941649289e-001 6.4206292850213356e-002
      5.2323504031322396e-002 -2.3829915189344426e-002
      -6.6147046696416606e-002 1.0518470655719855e-001
      3.5249106122893552e-002 3.2257836176152924e-002
      -1.1694306504635900e-001 -4.2569821801827175e-002
      1.1715896201073229e-002 -5.0273955207047777e-002
      -9.4962321035421043e-002 1.4683961400471433e-002
      3.8398196417233202e-002 5.4208079181013176e-002
      7.7912308922116841e-002 1.9000947511858532e-002
      6.7159913236963992e-002 6.6871170915152905e-002
      1.1270840945590145e-002 2.2697540334718172e-002
      -1.3508678796705775e-001 -3.7184340130222919e-002
      -1.0250770475970239e-001 -4.6321581955469884e-002
      3.0627338454634855e-002 1.0593723090304008e-001
      -3.8408872660577444e-002 -8.3263048561298375e-002
      -1.1689763687478515e-001 -1.9058616073162424e-002
      5.6530448950049023e-002 4.6494423622865225e-002
      1.0360227709098493e-001 -8.2142406284776114e-003
      4.6606201916061442e-002 -7.6513204869605764e-002
      3.1290940856499819e-002 -6.5096162423932985e-002
      3.9797667802550361e-002 8.3312128292945237e-002
      7.6303571796018585e-002 3.1854540680508046e-002
      -5.9099924089483481e-002 3.4174356018160826e-003
      -1.2760784894560345e-001 1.1213676634696217e-001
      7.5265896388658372e-003 -1.1710537228331684e-001
      3.5824337556100851e-002 -2.8872053593309105e-002
      1.0489278327093321e-001 -1.5046682496726985e-001
      3.9895786889279569e-002 1.3298302482483077e-002
      -7.9682468766600428e-002 4.8146856388311440e-002
      4.4499641271916641e-002 1.2615444921507535e-001
      -1.1071976821452932e-001 7.9115792988507419e-002
      -3.2829115836175725e-002 -8.0143423565252808e-002
      -1.2637610942944183e-001 -7.8060913479307131e-002
      5.2106291022624221e-002 -6.5834932795546860e-003
      7.0095057338698641e-002 1.1360135211070270e-001
      -1.7564669408387284e-002 1.4804879233018991e-002
      -3.5695828684108713e-002 9.9007366442951425e-002
      -7.3594120162590981e-002 1.5681017642926137e-001
      1.8889761445805901e-002 2.5746300604438846e-002
      -5.2282123235021162e-002 3.0443711133862440e-002
      4.8941704034411851e-002 -1.4491788667448094e-001
      -6.3635746569771952e-003 -1.0978542598378412e-002
      -1.9124178516878476e-002 -1.1727513897581188e-001
      -2.3703760130381840e-001 3.6438354035218064e-002
      1.6830959658715164e-001 1.8551475227271711e-004
      -7.1170514900347759e-002 1.2237761640092526e-001
      -3.7712181225688930e-002 3.6209068771558384e-002
      -6.9362957409760909e-002 1.2209202598695715e-001
      4.4960391703814731e-002 -3.6171362038878781e-002
      -2.4412417144646776e-002 -6.0287409231945442e-002
      -5.8023286609175419e-003 -1.5219866385986498e-002
      8.4779159187399838e-002 -1.6472669841514260e-002
      5.7717883523733986e-003 2.8400041328934617e-002
      1.0748131017194147e-001 -1.3841325749645633e-001
      4.1336140910902541e-002 -6.9002091905356208e-002
      8.7629944955283992e-002 -2.4903823300885999e-002
      7.4540520196368962e-002 -7.4592614535825927e-002
      -1.3314313396035191e-001 9.6731605102772830e-002
      1.2026788905289973e-002 -1.1712515587453553e-002
      1.8956355036671139e-002 1.3859169680552674e-001
      -3.5505669855470198e-002 1.0344420966905932e-002
      3.2345318392682239e-002 1.0358384618525283e-002
      3.8220732137021518e-001 2.6533456610108263e-002
      5.4960363673132694e-002 2.6973721323858089e-002
      4.0634713637397173e-002 -3.9076470026513856e-002
      1.3089498371180902e-001 -5.6450550093568004e-003
      5.6413044993057326e-002 -1.4021790874101074e-002
      2.7051967450944303e-004 9.4262909664103375e-002
      6.7670895068843273e-002 3.2923610073968629e-002
      6.7367881626879789e-002 1.1507305472279553e-001
      2.4829745389019154e-002 2.4050496653750045e-001
      1.2420167928264702e-002 2.4403175151286767e-002
      4.7277619535142430e-002 2.7893874416981518e-002
      8.8377682759694404e-002 -7.5251738888703013e-002
      1.4386252822761004e-002 8.5106039413256937e-002
      -5.9113408159973992e-002 -1.4022636135318541e-002
      1.3644956129171928e-002 3.8621173508016728e-002
      -7.1095387550183367e-002 8.8669413132223013e-002
      2.6812725277293354e-002 -3.1335952694023423e-003
      -5.4379112508323245e-002 -4.5660988498019146e-002
      -3.0510688217833093e-002 -6.5565910194391411e-002
      1.3687277595051078e-001 7.8757765282539485e-002
      -1.0092468941954089e-001 -5.2109816573271683e-002
      -5.5813908799713256e-002 1.5225612191556104e-001
      -5.3116512157292413e-002 -8.6999838048537975e-002
      -1.0657911861715093e-001 2.4836063496083455e-003
      -1.8495191770168609e-001 3.1407246402074401e-002
      2.8349737690947212e-002 -1.5785799882176214e-002
      -4.2153665959407449e-002 1.0819132397055142e-001
      7.9987445465298963e-003 1.6871438479050055e-001
      1.1352064891956176e-001 3.5969347894904122e-002
      -9.3147229950486507e-002 -1.2684431113731640e-001
      -1.2985498763076687e-002 7.7146662360752946e-002
      2.0492437235812991e-001 -8.1257892438827833e-002
      -1.2304015408620572e-001 -3.6370209981178812e-002
      7.9415127748832831e-002 -1.6169887447496709e-001
      -1.2952878324561618e-002 -8.4425993406772815e-002
      -1.5861292083321828e-002 -5.7591298553303768e-003
      1.5121001970954093e-001 -7.4141754771274562e-002
      4.4028657627477553e-003 1.3779337982936296e-002
      -8.9646799454922918e-002 8.6920331340602411e-002
      2.6976757913111955e-002 -3.0195599497710099e-002
      7.6714882273698215e-001 -1.3535994594858585e-002
      -8.1859366590697577e-002 3.4465317593878157e-002
      1.4696522498137646e-002 -1.9630995544298743e-001
      2.4101849674631243e-001 9.7763815953213873e-002
      1.2228316022604294e-001 -6.1681079474260367e-002
      -7.2750718284806185e-002 3.6584381588060801e-002
      -2.9181403170798211e-002 1.7813411781108243e-001
      8.7087950454041455e-002 2.2861319335257449e-001
      1.8142874203295616e-002 4.0040300948032986e-002
      -7.8864256890421619e-002 -1.8891258099916580e-001
      4.7058671464906582e-002 7.3955345953477261e-002
      8.0680475807914820e-002 -1.0400917703014080e-001
      3.9375865456013903e-002 7.4261107593716180e-002
      -4.8200771817195738e-002 2.2563686529802041e-001
      1.7552048422394545e-001 -2.4325109961371993e-002
      7.3497246484660494e-002 7.8947410790299821e-002
      1.5569645698345727e-001 5.2044912935100877e-002
      -5.6218834826267092e-002 7.8165333402229253e-002
      6.4734418391435372e-002 -2.5773607621554623e-001
      -9.2532405760919025e-004 -5.0754612750557948e-003
      -3.2567290495096367e-003 -6.4521509748142802e-002
      -2.7485456697809041e-001 9.0345764567602779e-002
      2.8159525676172956e-002 -1.5257906571722984e-001
      4.3665823616234153e-002 -3.6560631725599486e-002
      -9.3263609534551609e-002 4.8681314698407800e-002
      -4.4266928393327368e-002 6.1367389082739691e-002
      3.4436009493634699e-002 7.4152754237504573e-002
      5.6788551615936742e-003 -2.9208208419133810e-002
      2.1819312724763791e-002 2.0561565085078332e-001
      8.1997972510843856e-002 -5.3388979589290370e-002
      -9.0980144160331608e-002 8.5269273319724254e-003
      4.2617209518379780e-002 -8.3850279716938994e-002
      -1.4627201142159157e-002 -2.8234612627381511e-001
      -6.8553781669675462e-003 1.1331204996806812e-002
      1.4241401385925403e-001 -1.5780792962961730e-002
      -1.1394393535508929e-001 4.4442612101292994e-002
      3.7749973472336315e-002 -8.9123423245129826e-002
      -6.5228126313162826e-002 5.2470438115976167e-002
      7.5669633827752394e-002 1.8201621226506928e-001
      3.9320034440919839e-002 1.2252039160789306e-001
      -2.9492827490977275e-001 -6.4543444373258221e-002
      1.0605960210984423e-001 5.5719058306178335e-002
      -3.8071732532835974e-002 9.5082029544291458e-002
      -8.2499769921435775e-002 6.2766199891354499e-002
      -2.9860059150895343e-002 6.9866030452178207e-002
      -5.6468682696129542e-002 2.8824035615065829e-002
      -2.8727735324550602e-002 -1.8885039209273698e-002
      -4.9354757887752475e-002 -1.0428554350409318e-001
      6.8641822997547721e-003 1.0001734265837815e-002
      -2.4185940552589092e-002 3.8752204834493055e-004
      -1.0666508863388094e-002 4.8840459144929030e-002
      -5.0281531965234251e-002 2.6566832895098338e-002
      -2.0803056572093664e-002 -1.5184051062247769e-001
      -2.5145244790064639e-002 -5.6306449274999198e-002
      -4.1898901977739985e-003 -8.8572109300176005e-002
      -2.0281512276001099e-002 -9.3230469854127057e-002
      -2.8966506973547048e-002 5.1043834789620858e-004
      1.9283068836988632e-002 -9.3225200022995988e-002
      -1.7638318464516699e-002 1.2429050994323705e-001
      -9.0774033041921914e-002 -5.6544545290645315e-002
      -1.9918137350643007e-002 1.0557231882964085e-001
      1.8407382145646581e-001 -9.3536214483038709e-003
      -6.8858073822354718e-002 4.2608983690359988e-002
      4.5280205703958423e-002 1.4456663386471436e-002
      -6.0928313049344207e-002 -8.3915138649837545e-003
      4.5187761022125475e-002 -2.5425929239175294e-002
      2.8607395366329811e-002 5.7127718520602180e-002
      5.5638769050183341e-002 -4.2562613408519426e-002
      -9.6336699978632860e-003 -8.8518047974565750e-002
      -4.5658611680209162e-002 -7.7334164483640028e-002
      -1.3803811804366349e-002 -5.9913509114160879e-002
      -7.6140142797305896e-002 6.5365693373822809e-002
      -9.1865525503153897e-002 6.1130663183986314e-002
      -1.3947772240457559e-001 6.8833240435784038e-002
      -1.3196926738534434e-001 1.4815163033951653e-002
      6.5831329351166312e-002 -9.3609133927222338e-002
      4.8233393151007928e-002 4.0369284960585256e-002
      7.6313198006371930e-002 -1.0460781061060999e-001
      -2.9535129294644750e-002 6.0485501011377802e-003
      9.4984610100114306e-004 -2.6008470912684937e-002
      -1.0510869862382682e-002 5.5506728771453163e-002
      -1.1897592290418017e-001 -2.9731263102012830e-002
      6.1188287044573797e-002 -5.1767572623133050e-002
      -2.4708467259903582e-003 -1.0609352379285521e-001
      4.9637142856120205e-002 -5.9568689365204430e-002
      1.3670630753801263e-001 1.2187866032681632e-002
      -3.3273367094289468e-003 -2.0770353354078700e-003
      -1.0445250441117116e-002 8.9222333141159113e-002
      -1.0172465779200764e-001 4.2510938479132149e-002
      3.3288406706174126e-002 -1.0121789497608799e-002
      -8.2872499426564827e-002 -4.3565376237418629e-002
      2.6504987912281033e-002 1.6893796954899253e-002
      -7.8759425624845576e-003 1.2000614483094546e-001
      -1.7868907487186024e-002 -2.3398980509282085e-002
      -2.1675588292873312e-002 9.5109648605819108e-002
      -5.3839038152008648e-002 1.5297395383521681e-001
      2.1517373189872343e-002 -2.6705391857186733e-002
      -8.4779475461467593e-002 1.1366234444697136e-002
      -2.3604103131728026e-002 -7.6631141972254013e-002
      4.0152137241057463e-002 4.4753609799147602e-002
      -1.1972293617155187e-002 -1.2650096894065468e-001
      -1.5266649622457709e-001 5.0289734027895699e-003
      1.3081771493542751e-001 2.7597113678327852e-002
      -8.7294707733023766e-002 1.5821300107856619e-002
      2.9061061912473717e-002 2.1389139863201359e-002
      -7.3205306245043719e-002 7.6718763792085934e-002
      -4.5605673059106448e-002 -4.3103244405407491e-002
      -3.2584205263535573e-002 -5.4701424716222641e-004
      -5.1445684784357890e-002 2.0873621115298727e-002
      1.5874700477132807e-002 3.7820360035687083e-002
      -8.8231743008154260e-003 4.2374601347214602e-002
      1.0580727496868460e-001 -1.2972255548973358e-001
      9.0451481119236329e-002 -2.0650256684305911e-003
      1.9512641882338791e-001 -4.3105166392256061e-002
      9.7967168410070138e-002 3.3588679685132489e-002
      -6.3805862411368389e-002 6.8046407182930174e-002
      -2.9623508906497040e-003 4.1523450388525049e-002
      -2.5674981626618774e-002 7.5511439025652521e-002
      -1.6869185747298780e-002 -6.2209512985472358e-002
      -2.1354390497485977e-002 1.2546103435332702e-002
      -2.2662406814595047e-002 4.9070806752197910e-002
      -1.6161059304931752e-002 3.8220087869799461e-002
      3.9466404078776413e-002 3.3155253333491015e-002
      -8.8594571115654899e-002 -1.9097669665958241e-002
      -5.2563358375508559e-002 6.4077401759140784e-002
      3.6957692604032685e-002 -1.3006379537833179e-001
      5.0863997271893828e-002 -1.1402183664414628e-001
      -4.3541352347894254e-002 -1.5118783735059205e-001
      9.2753772667163156e-002 -7.4310898381002286e-002
      5.2923513773133764e-002 1.0604638931899471e-001
      5.7060114314036139e-002 3.1954367259031516e-002
      -7.2501464473285107e-002 7.7614567197291956e-002
      -5.5165633717794371e-002 6.0815740872912742e-002
      3.9463236672110200e-002 -3.1987048906404289e-002
      -3.7707632071007899e-002 -3.8700345947340009e-002
      1.2879000453118911e-001 -1.0239032010606665e-001
      -2.9778568919744848e-002 -5.7699881269065591e-002
      2.4007811503780874e-003 -1.3877307269658673e-001
      9.2984207400462100e-003 7.8165754855909458e-002
      1.6276445275335970e-002 -1.4138028241889089e-002
      3.1680301474818102e-002 -1.1863869182274294e-002
      1.2740027328999737e-001 -6.7393098791739631e-002
      -9.7830947716724570e-002 7.7053340369853160e-002
      2.6034881079923144e-002 2.6041233221508343e-002
      2.1830787923360909e-002 -3.9637815510187635e-002
      -1.4771532073334188e-002 1.7965110802734479e-002
      9.2954283937902171e-003 -6.1232055862328043e-002
      4.6793753641581519e-003 1.2804173876051530e-002
      -2.3698843797905191e-002 -3.0921020073847749e-003
      -1.2905383746567745e-002 9.0209209794587283e-002
      1.3922778307910876e-002 -2.7891546131298638e-002
      -5.0166876135336297e-002 9.5371302453364379e-002
      6.4628576722098579e-003 5.3455763788592549e-002
      2.0172906342388875e-002 9.6414082349046398e-003
      -9.0586489284019064e-002 -1.2852822293780113e-002
      4.4041881421971858e-002 2.7566836660789726e-002
      -4.8409696989027917e-002 5.7877127983362496e-002
      -1.1931903268220916e-001 -7.1317082477026048e-002
      1.0368714331326441e-001 -1.3332877993699646e-001
      -5.6245327498073837e-002 1.7836141897654444e-002
      -5.8978572281399494e-002 1.7468402442280505e-002
      6.3684231474482378e-002 7.1316035904328487e-002
      -4.6008852349847487e-002 5.2983742034221327e-002
      -7.6418799222446945e-002 -7.8732655431083039e-003
      -1.9215624484679693e-002 1.6730564961891400e-002
      2.3243311443678590e-002 6.1320479015783962e-002
      1.1744705384861749e-002 3.3318863589030579e-003
      -2.8051194600962979e-002 -3.0867785441716804e-002
      -9.4628869443416572e-003 3.1142073787543436e-002
      5.3198196212641260e-003 1.9802120270304150e-002
      3.1930672586812578e-002 9.9121773981787620e-003
      -1.1541177737938550e-002 1.0002554834058501e-002
      1.1506012345855852e-002 -1.6585591631589309e-002
      -8.2166067136692448e-003 -1.9649399525721450e-002
      1.3675974695098934e-002 -5.1356916254481468e-003
      -6.2826709901679087e-002 4.2505286498043846e-002
      -3.1362327424772733e-002 -1.5188212770677265e-002
      -1.5286241628715141e-002 -6.1815442482095230e-002
      -3.8610601753080384e-002 1.0069011340901896e-001
      4.9904811661577217e-002 1.8934353966482270e-002
      -4.7984221786927586e-002 2.5945770771886041e-002
      8.2331974340813782e-002 4.1233923821181691e-002
      2.3733930375710453e-002 5.6512481955922463e-002
      7.9048173380336321e-003 -6.5653979050118668e-004
      -4.3420364073531698e-002 -8.0830413312674067e-004
      6.1714150200177995e-002 -2.4562342729117528e-002
      1.4991270421112764e-002 3.3577069122070341e-002
      2.1437672952788731e-002 3.3505082052437976e-002
      3.1910554201014588e-002 -4.8603089774928387e-002
      -5.8229148869938720e-002 -6.2722885101516676e-002
      1.8741920807279684e-003 -2.5392232258569501e-003
      -1.7829817471768157e-002 -7.4967129757637932e-002
      -4.6889572562487984e-002 4.1879874593610956e-002
      3.5961454030833159e-002 -3.6261646114457674e-002
      -1.0833259606195236e-001 -6.1785007737506260e-002
      1.0688039005238646e-002 -2.6062731749523560e-002
      2.4430369754452723e-002 4.4658169217951620e-002
      5.6556138598256124e-002 -2.4319123202470438e-002
      -5.6995634457653183e-002 -5.6657260422664765e-002
      1.2211329542120982e-002 -2.7749343117497174e-002
      5.6216167330153455e-001 -3.3251844531019786e-002
      -1.0359818117749869e-001 9.6665215319207271e-002
      -5.2531701411050416e-002 -8.9603379932771177e-002
      1.1482494260846299e-001 1.5123743393633626e-001
      7.7010258349868119e-002 -5.1307305410302822e-003
      -1.7886618940500290e-001 -2.2726481279736443e-001
      -4.9391775670032910e-002 5.3812321014131928e-002
      1.0603768883723710e-001 -1.8034238092625096e-003
      2.1145262267208431e-001 -2.1433932632869435e-001
      -5.6395933175894170e-002 -1.3138952691639547e-001
      7.1453877173633870e-002 -5.6744392342063972e-002
      -3.9219955708162481e-002 -8.5469572667609364e-002
      3.6024766511285083e-002 -7.2861592671359304e-002
      1.2774223413415914e-001 1.5537053989269844e-001
      1.2320845029857724e-001 -9.7535112922693040e-002
      2.7817743336743933e-001 -2.7077657933138649e-001
      3.5562876556399338e-003 9.6654479672146257e-002
      1.7038907251195459e-001 -7.1714853461306835e-002
      1.9105388055992359e-001 -1.3754653434170391e-001
      -5.0525431621958258e-002 -5.0806276134579338e-002
      1.0109584088982654e-001 7.5243705275501047e-002
      -2.8079251992017995e-002 -5.9183174034385153e-002
      -2.1545412906853773e-002 -1.2006315207822306e-001
      2.1391554292052517e-001 5.0912068136823183e-002
      7.5657706840186176e-002 -5.8852696655241843e-002
      -3.9958478304566232e-002 1.0150370234644793e-001
      1.0922304126051491e-001 -4.5169237429492637e-002
      -4.9839769132906955e-002 -1.5992995644558397e-001
      1.1428217857720153e-002 2.1678782231036492e-001
      2.1446830070429179e-001 1.7271524444256642e-001
      -5.5882318646812548e-002 -8.6618607661589450e-002
      -1.4286820255293814e-001 2.5645417294496969e-001
      1.3720452092008648e-001 -1.2702563543619191e-001
      -2.2874119849132032e-001 8.9348069694482501e-002
      -7.6159933608747843e-002 -7.7571421551486067e-002
      -6.0961738018783483e-002 6.0795658940414152e-002
      -1.5524704337372897e-001 -1.3098790535057789e-001
      -1.9338106565674676e-001 4.9997651390636381e-002
      2.1349398228120020e-001 1.5552917635042551e-001
      1.9835400072172802e-002 9.1928612624674305e-002
      2.8215736406536607e-001 -2.3285492975321004e-001
      2.5078682884258791e-001 3.6970770424483011e-002
      7.2630308914481828e-002 6.5769776202566646e-002
      -7.9209682104239162e-002 8.1810297240897722e-002
      -1.9111376310706854e-001 2.4219099822572335e-001
      -1.7766535910698017e-001 2.5446932938322286e-002
      -8.8261719032295183e-002 2.6975340109305546e-001
      -1.4432528052615581e-003 -1.1714816183359857e-001
      -1.3209041770764261e-002 -2.2604115361888680e-001
      -1.1242386507234961e-001 -2.7377529666667255e-001
      -6.8985698780680851e-002 -6.7741934799904480e-002
      -3.6461894459213218e-002 -2.3853594500890052e-001
      -4.9422203136481206e-002 -3.4811534373918662e-001
      7.1531639955256576e-002 -4.6593944076515029e-002
      3.7992791070378923e-002 -1.2010195165316627e-001
      -1.4088005635689252e-001 -9.5903094841529729e-003
      -8.9893023155027715e-002 2.1710993451919083e-001
      2.3603110884252296e-001 -5.9818129653786183e-002
      2.3517980084072374e-001 -5.1044480874405995e-002
      -2.2195103067905692e-002 2.7746266349019222e-002
      7.9160739657107598e-002 -2.6713577861216631e-003
      2.6853946748745094e-001 6.4131745245171040e-002
      8.7827006652099790e-002 -1.0428664274526589e-001
      1.0467402956101675e-001 -1.0260957360604933e-001
      -1.8397972714186958e-001 -6.5710766878377305e-002
      1.1184910836264579e-001 -2.4493555264887437e-001
      -3.4141260833584507e-002 2.3980383153257850e-001
      -3.9682424991385412e-002 -1.3219727006237525e-001
      2.2564468592434894e-001 -7.1337110713463270e-002
      2.5891635483863390e-001 -2.7356302628360957e-001
      1.1922223920077520e-001 4.3935530256574297e-002
      -1.6539501360954229e-001 -8.9148317714386513e-002
      -1.4335893621103057e-001 1.1972681762640834e-001
      -3.1408860722570997e-001 2.8279313689082597e-002
      -1.5152963887369725e-001 -1.3444304481632472e-002
      -1.5545377043028283e-001 -2.8479635010409859e-001
      1.8609031745910282e-001 -1.9817727013578229e-002
      2.1553555295354307e-001 -1.8024378702710628e-001
      -2.1391417793913597e-001 -2.2912911433357499e-003
      -5.7288313297241197e-002 -1.1777100179924177e-001
      1.3773496678858999e-001 -5.1008256301065202e-002
      6.7454672175892197e-002 9.0640220513760569e-002
      6.3658997570198259e-002 4.3339308442170960e-002
      -4.2793208375479244e-002 -8.2837196765630117e-002
      -1.5263263803359101e-001 1.3974032835807654e-001
      2.3542486841633188e-002 -1.1634243622616820e-001
      -5.4418452599198103e-003 1.2231755346277726e-001
      6.3855852395588858e-002 -1.0396853935097827e-002
      3.2813453821992002e-002 -1.8543774464887999e-001
      4.5662979454759021e-002 -1.4854073854616462e-001
      -3.7078097244497392e-002 -1.7123445325682399e-001
      -3.3389781192852672e-002 -1.3212416668922330e-001
      -8.1785754556153029e-002 -8.2631687722792696e-002
      1.2906998750354595e-001 -6.0916312518903164e-002
      2.5440867577098205e-002 5.9518758216629469e-002
      5.8859114054790045e-002 -2.5915260511982195e-003
      -7.9606639833774792e-002 1.3014893158424254e-001
      1.9407845809093888e-001 -1.4992168229495326e-001
      2.4742451108746982e-001 -1.2283742828865554e-001
      1.7473711386668620e-002 7.0034779221539875e-002
      7.8236716616822174e-002 -4.6268213573815727e-002
      6.9968463508351786e-002 -2.4933288664340181e-002
      1.0064290288815117e-001 -1.3823140546896387e-002
      4.5332094802497877e-002 2.2984399569315635e-002
      1.0656635853279182e-003 -7.6372090628649997e-002
      6.6760207583074049e-002 -1.3322442692762620e-001
      -1.2789354853428220e-001 2.1209201564742111e-002
      -9.8471090253397592e-002 -7.8924516930492628e-002
      1.0361902339710997e-001 -7.6966107628860976e-003
      2.1121251236286703e-001 -1.6608638095600037e-002
      1.4530410524125939e-001 5.6788116618943778e-002
      -5.2189605139765657e-002 5.7870423948425851e-005
      6.7139051073360160e-003 7.4410427070163918e-002
      -7.6759367175572218e-002 -6.8335823490383776e-003
      -8.2020759858814629e-002 -1.5150098193518438e-001
      -1.4916902275018645e-001 -3.0180378983930570e-002
      2.0725119838909130e-002 -3.1185100828194947e-002
      -3.8818154003866109e-002 3.2685171205682810e-002
      -4.3863816816450484e-002 -4.0404176899798486e-002
      -5.2418709403887417e-002 -1.0395218107058493e-001
      -2.3053558659371806e-001 4.8371444208024403e-002
      -2.3563336220792930e-002 -2.4904233662977690e-001
      1.0006213049483461e-002 9.4089269606972142e-003
      -9.1801161525066934e-003 -9.5058898412413620e-002
      3.4109542475055883e-002 -1.8217674678387287e-002
      8.3060464288940539e-002 -9.2570782547129037e-003
      3.8736631058426486e-002 -2.2227409495007247e-002
      1.7130218066216622e-002 5.6933152153559657e-003
      1.2360289945015092e-002 4.1751651408175224e-002
      4.7633036620174672e-002 3.5636235971895198e-002
      4.6975889426065079e-002 -4.3410798901953013e-002
      8.4511870245051225e-003 -2.9708329091908486e-002
      -4.1434135347337029e-003 8.5088658932432004e-002
      1.4724121599600277e-002 -3.9399993938897204e-002
      -3.3185771360241055e-002 1.1871365777498724e-001
      -1.9066604804399478e-002 5.1837624333399772e-002
      -3.6162795556791236e-002 -2.6434543208083930e-002
      -2.1752572603637260e-002 4.2349864681927647e-002
      -3.9046934053849548e-002 -1.1100815867030196e-002
      8.9965916153069245e-002 3.4718180747300174e-002
      -5.6148823223938502e-003 -4.6711578390763710e-002
      -3.0543660687006941e-002 2.1911614492037153e-002
      2.8376817670202080e-002 2.8715969181196670e-002
      -6.4819405883854986e-002 -1.1250919361913021e-001
      8.5376222088490786e-002 -1.9880400195341704e-002
      -1.2197195285148835e-003 5.9172071078509580e-003
      -2.5707997946730739e-002 -6.1328340692993623e-002
      -4.0187645438136917e-002 5.7422340065461756e-002
      3.1083743163005880e-002 -8.3883056238569891e-003
      -3.8576776347347561e-002 6.3030924913557482e-002
      5.8907907427207126e-002 5.1586277017856341e-002
      8.7413141711893044e-002 -3.1873473482349375e-002
      5.8084429223090019e-002 3.6017671976713357e-002
      7.1899101149144676e-002 -8.3029704277685509e-002
      1.4913566844670781e-001 1.0394466487346674e-001
      5.5119766004491470e-003 5.2306934718697670e-002
      -3.5796143316565297e-002 -5.0246273969284895e-003
      -3.6409813917941479e-002 6.2391170300673218e-002
      -3.2071772565713121e-002 -1.4933083797095445e-002
      2.7210107640702470e-003 -2.4534809544009502e-002
      3.5194112580576065e-001 -1.1927833088386842e-001
      3.1209230497549898e-002 3.2457118635244558e-002
      -6.1306010842498891e-002 -1.3655459635045823e-002
      2.9007117581432606e-002 1.5143179441117113e-001
      -4.7792702504346890e-002 1.0984203552416909e-001
      -1.7055092962395327e-001 -1.7247216519964392e-001
      -4.2640336271705076e-002 8.9810454543743312e-002
      3.9480805754102066e-002 -4.5546429417258713e-002
      1.2490123877499497e-001 -3.1156353838900841e-001
      -9.1505502221146270e-002 -1.6762013313856050e-001
      6.2959470842090831e-002 -4.1607284571333933e-002
      -4.7763461395721692e-002 -6.1213527360587321e-002
      1.4704359054865586e-002 -2.1888182174664667e-001
      1.3011082635989493e-001 8.7803927346070121e-002
      9.9921950397624346e-002 -1.5205063355003398e-001
      1.6120259915057719e-001 -2.1679276778399201e-001
      4.8447360326769842e-002 1.4339852133500897e-001
      2.2726963268193359e-001 3.5063886483397956e-002
      2.3970327802586977e-001 -1.6855501621683335e-002
      -5.9473664382100992e-002 -4.9863360631512935e-002
      1.0105534541535270e-001 1.1430173077248176e-001
      1.1003224512950664e-001 -1.0635350747264688e-001
      3.8602926749827189e-002 -9.3322058978660569e-002
      1.9858181450880302e-001 -4.1515584003034484e-002
      1.0987504659185358e-001 -5.6218899467924875e-002
      1.0051303535509103e-002 -4.7755601924875053e-002
      4.0890453126327268e-002 4.8957240828787621e-002
      -3.0536699525059285e-002 -1.8776763597643092e-001
      -5.3106055776077445e-002 8.6067914484928204e-002
      2.3174381147697679e-001 3.4167173251275683e-002
      9.3614826036701616e-003 -8.6393172080917263e-002
      -2.4430371037143803e-001 1.6642317859850680e-001
      3.6734246292706503e-002 -4.3972629780190294e-002
      -2.5355212604792227e-001 1.8246446385623280e-001
      -1.2457464196228070e-002 3.5111214882892317e-002
      -8.4025455490293388e-002 -8.6233482669543005e-002
      -9.0844694495491318e-002 -6.0219318155825874e-002
      -8.7688092345248395e-003 -4.9256086712351946e-002
      1.1560395506600074e-001 4.3718781378719526e-002
      -3.3672712818309938e-004 7.2403805783573305e-002
      1.2754069222520137e-001 3.1836922408512519e-002
      -1.1056185294201114e-001 2.9107384508534812e-002
      -1.6868219808031559e-002 -9.3960894131123504e-002
      6.3714191478190865e-002 1.2188902847695689e-002
      7.6096764635788822e-002 -1.0385554876787768e-001
      -2.2001395665648890e-002 3.3413106350850118e-002
      -3.1009779576657903e-002 6.5865957537398359e-003
      2.8831442593288778e-002 9.0648458089699582e-002
      -7.7715964383234165e-002 4.4933673471136922e-002
      -1.9912730539674246e-002 -2.0739895768667103e-002
      -1.3674504667684736e-001 1.3551568809170671e-002
      4.6911433030864813e-002 4.1897154577798794e-002
      4.4890121032261962e-002 1.2521387720726759e-001
      -3.6917182929808674e-002 -8.8233380571008221e-004
      -9.8871818901393252e-002 2.5071938197359152e-002
      -2.8790875784155262e-002 7.6615095081885187e-002
      8.1144993887709974e-002 -1.8403401023160491e-002
      -8.2449360598270904e-002 5.1090971720008121e-002
      4.8496320335415207e-003 -8.7910063226283475e-002
      -1.7019339476087681e-002 -7.7629088890384433e-003
      -7.5074095443059610e-003 -5.8262272673125941e-002
      -1.7326510224973332e-001 -3.1785637943195867e-002
      4.2368730015357840e-002 -3.3882092374607341e-002
      -4.7138911711759317e-002 4.3465112073702475e-002
      6.5544884222886610e-002 5.8878161064890008e-002
      -9.7362437607537336e-002 5.7959792005290361e-002
      2.6920275520527392e-002 -3.8600263370977272e-002
      1.1503398651643203e-002 -2.2704900525060356e-003
      -7.8556201785084198e-002 -2.2064240996458311e-002
      3.9096384065629187e-002 3.7100000887807766e-002
      -8.6286211908413790e-002 -8.1263662461528979e-003
      6.6966679561189207e-002 -6.5550658228335737e-002
      1.3296819518205089e-001 -3.4154021032343398e-002
      4.9171508751818208e-002 1.7067128526906800e-002
      1.0155353325571452e-001 -1.3930718846950968e-002
      -4.6370846434773558e-002 7.4647479324448540e-002
      -3.9198484083350596e-002 -1.8824719769292814e-002
      2.0585448752480778e-002 8.9304200208338888e-002
      4.3734519455196970e-002 -3.1393074467055720e-002
      1.3167590466236945e-002 5.9299966525441512e-002
      1.1584322475575798e-001 7.1748025550480701e-003
      -5.1578741828551510e-002 4.5405137614719843e-002
      2.8926182929993525e-002 -9.8691748660705726e-003
      6.7638295862209735e-002 1.3022697049415879e-002
      5.6902610440743615e-002 -1.1446643206234284e-002
      -2.7194913337697885e-002 3.2496372926857371e-002
      -4.3440747101310372e-003 -1.0091593016389558e-002
      2.8509096589352925e-002 6.5884564097144396e-002
      -2.8880859927560197e-002 7.3768960049850299e-002
      -3.9585997319720803e-003 9.3412824059313192e-003
      -9.0845441003341063e-002 -1.0973829328273937e-002
      1.8686962337613099e-002 -2.5546211709108448e-002
      4.2334010159522076e-004 5.3714004205112659e-002
      -2.4500776456886100e-002 -3.7247008419313388e-002
      -4.4309869468759921e-002 3.5076430804751445e-002
      -2.1525299488929492e-002 9.7233680210242285e-002
      4.0968474677602396e-002 -1.9085909821152946e-002
      -3.8311111447926184e-002 -5.6349430868521448e-002
      1.5547480511225545e-002 -6.6812249727388237e-002
      5.6498156006312304e-003 2.4461227026833097e-002
      -3.8616808972927984e-002 -4.3721407916678577e-002
      -9.8000497242944865e-002 4.7931067390557823e-002
      -2.5791361708203623e-002 -2.7318275074658109e-002
      -5.1800793013801652e-002 1.2500608056177536e-002
      -7.2386988034396277e-002 1.1248809056537620e-002
      -1.3711629211400584e-002 8.6786033139985841e-003
      7.6477227365020052e-004 3.3888860251246292e-003
      1.2212787737300052e-002 -6.9268577620138095e-003
      3.3359055257907798e-002 1.3937310849792492e-003
      1.2370112776655111e-002 -4.9189337459961515e-003
      -3.2811500781223329e-002 3.9525862803499942e-002
      1.0839037111694570e-001 -8.8664993636592693e-002
      -2.2217315515641073e-002 -1.4319587606034407e-002
      -2.6789784144859536e-003 -5.3024457833020726e-002
      2.1044385467126222e-002 -2.9460391933226519e-002
      -3.1929246342533898e-002 3.8352725131606237e-002
      4.8605649081378023e-002 -5.4895981668012385e-002
      -2.4485215661210095e-002 3.0271766387870755e-002
      -2.8903405241115517e-002 7.6805895662190343e-002
      2.2679219631208652e-002 -2.5275404450821617e-002
      1.7423409534012643e-001 4.3235728990173333e-002
      6.2086633233145540e-002 -3.5831510272302566e-002
      2.4819039213708080e-001 -5.8847901963261624e-002
      -1.1144962717361262e-001 -1.7452676826865046e-001
      -2.2114351975899116e-001 1.5803766408101330e-001
      1.8600218148868955e-001 -6.8308257611574316e-002
      6.6284610898757826e-002 8.5839991830491957e-002
      -5.2503364778711328e-002 -1.4689223015527657e-002
      -7.3442453730908713e-002 -1.1765172335399687e-001
      1.1614421168309687e-001 -6.2654261968052349e-002
      6.2091482531303954e-003 -9.4242679439734772e-002
      -4.7055461550710692e-002 -5.8990377774639433e-002
      -1.6210827193289712e-001 9.7604874789054399e-002
      5.3969018674066872e-002 -7.1917398391308620e-003
      6.6275377171078672e-004 6.6211864723362338e-002
      1.0260789198252209e-002 1.4614767202247164e-001
      -3.0135326083062478e-002 4.5852173133622026e-002
      8.0016420181466916e-002 -8.3938588435247249e-002
      1.6342865221145966e-001 -1.0534572110139176e-001
      -2.7238750614647762e-002 7.7591615208223649e-002
      1.3575304775238956e-001 -1.9959583059434047e-001
      3.0550509906143133e-002 -3.3915817668636966e-002
      3.5390909677866580e-002 6.2461012611346456e-002
      -9.4735719925690132e-003 -7.3346444772954614e-002
      -7.8452385442176184e-002 -4.6985569928581480e-002
      -2.9474709785763081e-002 -1.7893788008203756e-001
      -1.9433807996454969e-001 8.6663275766566301e-003
      -9.2645559474935885e-002 -4.2460034398167203e-003
      5.6834477643912709e-002 1.2300701500120121e-002
      9.5106981965893844e-002 -4.6863903348151832e-002
      1.6972044478491302e-001 8.5129845297050713e-002
      -5.7370193729682127e-002 -1.5197128311970082e-001
      -1.3563374698759575e-001 5.0667879318060306e-002
      1.0917248025838021e-001 1.0335602294040366e-002
      8.8310948047326133e-003 1.7145654391313006e-002
      -8.2998507948724806e-002 -7.7610124834421425e-003
      9.7724822398104774e-002 9.2127450932974114e-002
      -6.0758188097574668e-002 -5.2588550258087050e-002
      -3.4032988172030383e-002 -1.2163672079801056e-001
      -1.3220980739302793e-001 6.1621836983485256e-003
      5.6543026651517481e-001 3.0696411072925190e-002
      5.7409288857374376e-002 -1.8867958005955591e-002
      1.2501684895548789e-002 -7.1559409852093817e-002
      4.2633640468805911e-002 4.7786490052779372e-002
      -4.4295908605356552e-002 8.5837158498882307e-002
      -7.9124516720778443e-002 -1.7983014168121411e-002
      7.9598472559030478e-002 9.9579845834563710e-002
      1.9537490180051166e-002 3.4642953818885568e-002
      9.1202221866019464e-002 -3.6345451070418110e-002
      2.2171093494756034e-002 -1.0394395988110400e-001
      8.5141879489320366e-002 8.3505233396116027e-002
      -3.3249560276414291e-003 -5.0068230477854511e-002
      -4.4227262232383477e-002 -9.1738998518396588e-003
      -9.5978417389744938e-003 1.1920908203062006e-001
      1.1024280495621322e-001 -6.2887464208379221e-002
      9.8698033069325564e-002 -2.0783051426677957e-002
      7.0886956072746268e-002 2.1394926748359539e-002
      1.9054411966708328e-002 -2.1776104295299907e-002
      5.2546333650317023e-002 -5.4687748497190880e-002
      6.4855066524510341e-002 5.2538026283789604e-002
      3.1221618512541943e-003 1.4629674685157473e-002
      4.4423836470216999e-002 1.4854669415200295e-002
      -7.2792280308045409e-002 -5.8222498426800509e-002
      1.0477224670267712e-001 -5.3162160555149732e-002
      -5.8750480786753087e-002 6.8687494397147563e-003
      1.1410864674484067e-002 -6.6121908202894292e-002
      -6.4497537544760869e-002 5.0764473435468201e-002
      8.9691765936458830e-003 3.6244352415317524e-002
      4.6074048274736899e-002 1.1445768211685645e-001
      3.9188457856193896e-002 -2.1595083519633879e-002
      -2.7512455971180849e-002 -9.4916301393929130e-003
      -7.9082330445132340e-002 1.7253952443249891e-003
      -3.6201642855627214e-002 -1.1010198564425358e-001
      -5.5938991749337752e-002 5.0860147084056249e-002
      2.8598935023957862e-002 9.7327271358769799e-003
      2.9773179375849903e-003 -1.1385092769947045e-002
      7.7965332206291569e-003 -4.4467099689857750e-002
      -7.9982174403633657e-002 -6.0073430282631471e-002
      1.1248994948425652e-001 6.3934534171088631e-002
      -1.5775759708420722e-002 7.5758902581870985e-002
      -1.1218600531632780e-001 -5.6671603126439665e-002
      9.5830958353469498e-002 -3.5582842710897823e-002
      6.6332874290413901e-002 5.1532091653126076e-002
      -8.1978301270855244e-002 -6.6694235308818794e-002
      -1.3473390120992340e-001 4.3878840220960710e-002
      5.6412537271972013e-002 5.8177055756250200e-002
      -2.5228484806050937e-002 9.8542832590900825e-002
      -4.5799594168489471e-002 -1.2735845883198069e-002
      -8.2130203006873695e-002 3.0668852931135936e-002
      4.6685839166875067e-003 -6.0095360343555636e-002
      -8.4127608204024734e-002 -1.9629369604842420e-002
      4.7645432140819947e-003 -5.3461627664720721e-002
      -3.7717600998752966e-002 -4.9034114584228065e-002
      -9.9607500831183134e-003 -4.4601804213882434e-002
      -2.7894196785710618e-002 3.2297206620606145e-002
      -1.1747999132004006e-001 1.3275533867491685e-001
      -3.9302644995962394e-002 4.4017990024715278e-002
      2.0264096335375171e-002 1.7581446769102543e-002
      4.6736747659568305e-002 -5.1666060796752913e-002
      -3.5811864691767857e-002 3.3301383999700743e-002
      -1.9987087801776309e-002 -5.6804788950316612e-002
      6.2650283183956268e-002 4.7896480727683773e-002
      6.2470346856817009e-002 2.4563842579214692e-002
      -6.3505807681543680e-002 -2.2667116876674172e-002
      -7.5431959505254900e-002 -8.3295619681382424e-003
      5.5565956647806128e-002 -1.3625356940865729e-001
      -8.2851265374975738e-002 8.0177061851599146e-002
      -2.6797119667510253e-002 1.5729691686637591e-002
      6.7268893862434620e-002 -7.0871229351172293e-002
      3.2427598909010945e-002 -1.4870902312237985e-001
      8.3917718897775356e-002 7.6169909340982722e-002
      3.6818929694992751e-003 -1.4996779036229824e-001
      -7.2184419717463755e-002 5.2695005546665084e-002
      1.4440381899685682e-002 -2.3355351567124191e-002
      -2.9037260530591288e-002 3.2987936043315166e-002
      -6.5362559802042419e-002 -9.8985495073160748e-002
      9.9438504467581845e-002 4.2075897377572724e-002
      1.1139493539094832e-001 -1.9415297017106706e-002
      -1.6242354871725578e-001 -1.3748291908503961e-002
      -3.6639342413875918e-002 -6.7896446278862599e-002
      -7.9834440433860041e-003 -2.3227415611873553e-002
      1.0288313184603438e-001 -1.0949929808810033e-002
      3.2777709638936024e-002 2.5479153813295165e-002
      -1.8060867575404989e-002 3.3899263562107575e-002
      -6.8174593045286072e-002 3.3524097606076976e-002
      -2.6295620947164554e-003 1.0628430923876217e-001
      -8.1406129709295661e-003 6.6066894932294742e-002
      -7.1597178039845374e-002 1.7849395685765976e-002
      -5.3552759003091088e-002 7.7029334066025357e-002
      -2.2327108838347952e-002 -1.7818802715125905e-002
      -4.1959875586398972e-002 5.8417528165876392e-002
      1.7754685209329449e-002 -2.6087526663068919e-002
      -2.1839490136752477e-002 -3.1640924472105862e-002
      -5.9986427282234252e-002 -1.0375060491919753e-002
      -7.6229723291182448e-004 -6.6294239845061692e-002
      -7.2959644472132851e-002 2.9054535875528115e-002
      8.2612474663224002e-003 2.3133075218136727e-002
      -4.1025504327805946e-002 1.7092375780920134e-002
      -3.5094036641427358e-002 3.5744948016891487e-002
      -4.5496572525764438e-002 1.7995479041449138e-002
      -2.0963484162426944e-002 5.3699093045325094e-003
      5.5740328865487847e-002 4.1077218304114822e-002
      -1.7914121077308810e-002 -4.5938583522189026e-003
      -1.5518867354941349e-002 -3.9790578946677035e-002
      -1.1263733020541107e-001 1.3621050861056536e-002
      2.3620886314352482e-002 -1.0390129608012251e-001
      -4.9991819901757197e-002 8.5702088528446393e-002
      2.7507421689018648e-002 5.9167735871451618e-002
      -1.4470654877420346e-002 -5.0890848271250899e-002
      -4.1847584655276278e-002 -1.4377150997625890e-001
      2.7526346302606853e-002 2.8099822503762726e-002
      -6.1354967687149960e-003 -7.9777633080260452e-002
      -1.2726873381818332e-001 -6.4471541465358174e-003
      -1.7538818247216332e-002 -1.4247282556041121e-002
      -5.1330161704612812e-002 1.7728344632615776e-003
      1.0078111842284529e-002 -7.0613635607249522e-002
      1.3131003801477978e-001 6.2338896682586610e-002
      3.3779911001140597e-002 -8.1415164421644592e-002
      -7.9669910725232634e-002 -1.0713260519566040e-002
      -2.6978745985849106e-002 -2.4490539296004209e-002
      -3.4979336959192847e-001 -1.2606789894524890e-002
      9.4527825851306035e-002 7.0989748325423985e-002
      -1.2039867444440751e-002 1.0598360009978143e-001
      -1.1671977919274654e-001 -1.4143718068185623e-002
      -1.0955755279208618e-001 6.5188087249721957e-002
      1.7340268069650649e-002 -4.5798422145557675e-002
      -3.7750763874087440e-003 -1.7582690341243545e-002
      -6.4390361429712925e-002 -1.0119004187406502e-001
      2.2285245669129348e-002 -7.0090847806605155e-002
      3.1235028760422799e-002 2.2386435599779111e-002
      -3.0257406414071965e-002 -2.4260606894294174e-002
      -7.4491540759996963e-002 2.5950726034176877e-002
      -4.4199395336579697e-002 -1.0585032378973884e-001
      1.3483142964930942e-002 -3.4689214194939026e-002
      -1.1632656113994548e-002 -1.0995596944481040e-002
      6.2008456570656838e-002 -9.0230691313672340e-002
      -1.1231978491162597e-001 4.7051128144516465e-004
      4.1122229031119874e-002 -1.3829346804383799e-001
      -2.3553346235644236e-002 7.1039738857834517e-002
      -5.9865892013666808e-002 -1.1198677799205387e-002
      5.4364300045859515e-002 5.0352070722233085e-002
      1.5419209343327761e-001 -7.8607898990803463e-002
      -2.4683960717734738e-002 6.6604843724174773e-002
      7.5136284621296789e-002 6.4321445408358241e-002
      -2.2256809716673549e-002 -5.5783820270337410e-002
      2.1747267558230293e-002 -6.7354103504117524e-002
      -4.9331295205358200e-002 -4.7319922981543312e-002
      -9.7812429523476928e-003 2.6836498958925762e-002
      -4.0155153791719536e-002 -6.9939579997342474e-002
      -2.4861031017387191e-002 -8.9261721577470979e-003
      1.0824434882915986e-001 -5.5552553334225988e-003
      -1.3267794581632025e-001 5.2229847773516330e-002
      -4.7926753961060393e-002 9.2761664857474127e-002
      -2.3676364629933264e-002 6.8587870839021792e-002
      -1.8030456330929168e-001 -4.7424226795229764e-002
      5.2450008986982780e-002 -4.4051011171429670e-002
      6.2440450962698124e-002 5.9615601941523294e-002
      -5.9852964237885518e-002 -6.1253604630382187e-002
      2.1681257424972556e-002 -2.3872042374410259e-002
      -2.6455690997479523e-002 -3.3547787655842577e-002
      -8.4086098896806483e-001 -4.5343476746366643e-002
      1.0320066330401335e-001 8.3777844763154530e-002
      -2.8528958811491079e-002 2.1225571506949262e-001
      -2.6931542538533965e-001 -7.2576906765727783e-002
      -1.9267284347919217e-001 4.7967659026688897e-002
      1.1222238504235438e-001 -9.5945135691859109e-003
      1.5121158187913306e-003 -1.3174017918541980e-001
      -1.5455927086432852e-001 -2.4061356101393730e-001
      -4.2527297370362663e-002 -3.0311560129109832e-002
      4.5364212209127390e-002 1.9532130219581198e-001
      -1.4290212610130426e-001 -3.3377154949178145e-002
      -9.2510328082527973e-002 1.2124427793210307e-001
      -4.8612813837772655e-002 -1.2591057968665048e-001
      8.0389133606962784e-003 -2.3858349430056702e-001
      -1.9499989284710853e-001 -2.1113157716079699e-002
      -8.4944108555674427e-002 -1.1594599589196949e-001
      -1.8908457228567388e-001 -4.1974034446304855e-002
      2.6437514052980195e-002 -3.5140225825966501e-002
      -1.0384224080290409e-001 2.7555668244827347e-001
      -4.3740275473177471e-002 -7.9380226816473404e-003
      1.2325691029229143e-002 1.1547562145760101e-001
      3.0603890936664258e-001 -7.9893851403360999e-002
      -3.7615634240226570e-002 1.8598396325547326e-001
      -2.4608488822724494e-002 9.5910802982451221e-002
      6.1809342549533026e-002 -5.7406586890690781e-002
      5.0018270778411249e-002 -9.5651894564090748e-002
      -7.2145573089902854e-002 -4.4879486005097169e-002
      2.1205927983171381e-002 8.0449089720389541e-002
      -4.4361508809624424e-002 -2.8384786701988712e-001
      -1.3719992555667665e-001 -3.0610775830720839e-002
      8.4754299461085716e-002 -9.6337361715136439e-003
      -8.7028841157344355e-002 8.0598361769095017e-002
      -1.9832300602063271e-002 2.9272120123717793e-001
      2.5583189344837897e-002 -1.7991753820476918e-002
      -2.2036129010415434e-001 -3.8882460195452302e-003
      9.7502462234621390e-002 -1.0761381189371635e-001
      -1.5417729432768033e-002 1.5167351416572755e-001
      9.2805367333454708e-002 -9.0086756669858631e-002
      -1.0604839267683240e-001 -1.8693355758361360e-001
      -5.5474165699444855e-002 -1.1686848722395353e-001
      2.0168258114181981e-001 1.6419756692180883e-002
      -9.1603652861755487e-003 5.8343853717190662e-002
      -3.5299664548104660e-002 -1.5920380626593771e-002
      1.0736288277229566e-001 2.5349363525663134e-002
      1.7167638932125256e-001 -6.1239691444512218e-002
      -8.1060433034834442e-002 1.1561211384834445e-001
      -3.1978683190741874e-002 -1.1628865674968689e-002
      9.5876200152700472e-002 1.0514463660049163e-001
      3.4242188463749366e-004 1.6743048390292045e-001
      -4.5187214911714235e-002 2.4179135968748461e-002
      -6.7919995952793355e-002 1.6056889718522628e-002
      8.0259979154714972e-002 -1.5158623319228820e-002
      7.5183059642323136e-002 2.3140345745656151e-002
      -7.2327219556793831e-002 -1.5677108517678021e-002
      9.7205708297227952e-003 4.8732018707591446e-002
      -8.2335572540686658e-002 6.3689440720698778e-002
      2.1591165858867327e-002 -4.0332875209666746e-002
      -7.6138498329088491e-002 -4.5957308013062373e-002
      -4.5561045115866956e-002 -2.8130878654210073e-002
