<?xml version="1.0"?>
<opencv_storage>
<ANN type_id="opencv-ml-ann-mlp">
  <layer_sizes type_id="opencv-matrix">
    <rows>1</rows>
    <cols>3</cols>
    <dt>i</dt>
    <data>
      300 60 7</data></layer_sizes>
  <activation_function>SIGMOID_SYM</activation_function>
  <f_param1>5.9999999999999998e-001</f_param1>
  <f_param2>1.</f_param2>
  <min_val>-9.4999999999999996e-001</min_val>
  <max_val>9.4999999999999996e-001</max_val>
  <min_val1>-9.7999999999999998e-001</min_val1>
  <max_val1>9.7999999999999998e-001</max_val1>
  <training_params>
    <train_method>BACKPROP</train_method>
    <dw_scale>1.0000000000000001e-001</dw_scale>
    <moment_scale>1.0000000000000001e-001</moment_scale>
    <term_criteria><epsilon>9.9999997473787516e-005</epsilon>
      <iterations>1000</iterations></term_criteria></training_params>
  <input_scale>
    2.6535934362005554e+002 -1.0707982329681267e+000
    1.0025881096612369e+003 -3.9717636834056042e-001
    6.9261204982206232e+002 -5.2250950416931030e-001
    1.6965222676965894e+002 -2.0261768501806099e+000
    8.7367602560270859e+002 -4.2943718664511238e-001
    4.3720786010411308e+002 -8.7513077778797244e-001
    6.0153106522181815e+002 -6.4663412624083061e-001
    8.5707573407405391e+002 -5.0230987081045408e-001
    4.4506408255559741e+001 -3.3810645005720446e+000
    1.0141190154494250e+003 -3.4263463690567869e-001
    1.0311117875976395e+003 -3.9417049910654861e-001
    2.7260360711362028e+002 -7.3508897200077394e-001
    5.7014752141748875e+002 -5.5364633860960044e-001
    1.6093001428511059e+002 -2.6788098722353486e+000
    5.1628679723922687e+002 -6.9394752339655363e-001
    5.3202632445417130e+001 -2.1094358983743429e+000
    6.2792469495906050e+002 -6.1611499989972218e-001
    5.3991150300565302e+001 -8.3308932748825248e-001
    4.4503117600729490e+002 -6.9343442600102800e-001
    1.0238857924054922e+003 -4.1679530866382042e-001
    1.1918109095238704e+003 -3.3710700269133265e-001
    3.3924884495229094e+002 -8.1393533392415451e-001
    2.4497391918902599e+002 -1.3363505670702589e+000
    3.4923688990503615e+002 -9.6797796301706684e-001
    2.3972103126153732e+002 -1.3206538875042697e+000
    4.1076683727244483e+002 -7.5488728674988059e-001
    8.7112770744787201e+002 -4.0255255916143756e-001
    3.8514766448488592e+002 -8.8080495856012242e-001
    9.8917797169828839e+002 -3.8289081596080005e-001
    2.4077479069568619e+002 -1.3741644575212120e+000
    6.1697351916380092e+002 -7.8181145895793958e-001
    3.1243152414098711e+002 -1.0634900100246496e+000
    4.6514456899465972e+002 -1.4687369378068436e+000
    5.2352203903353904e+002 -6.3528352709025215e-001
    1.2681452299061962e+003 -3.1391545635955087e-001
    1.5573461641557662e+002 -2.1801900225799993e+000
    6.1243606341230668e+002 -5.9402153680485448e-001
    4.0591032733828325e+002 -7.7882612717152044e-001
    3.6152557868165718e+002 -1.7266681933758574e+000
    1.2954365541305205e+002 -9.3401612162108105e-001
    1.6704880112171699e+002 -7.5862517132761542e-001
    3.4153564611715746e+002 -1.1046276817331906e+000
    4.7470376547173817e+002 -5.9465481048266056e-001
    2.7268064236159603e+002 -1.3616127594039842e+000
    6.3528462447624622e+002 -6.9238939715951331e-001
    3.3393441335132093e+002 -9.4688736076120239e-001
    1.0043006293096790e+003 -3.7681668738268276e-001
    3.3211137957106263e+002 -1.3092850072249154e+000
    4.2662574308201368e+002 -7.9000981119980407e-001
    6.5997191917194687e+002 -6.4411806678610051e-001
    7.7306344718369621e+002 -4.4705047834844419e-001
    3.4259790052911609e+002 -4.5614577542785101e-001
    9.3753346606554055e+002 -4.3925388517196756e-001
    4.1295295224681109e+002 -8.6868356762145327e-001
    7.5085953131703513e+002 -4.7703940156486668e-001
    8.0016641829374134e+002 -3.9629852547483757e-001
    3.1329907295965285e+002 -5.8214864196706184e-001
    6.3049856898102541e+002 -4.1905618902233749e-001
    4.2172099821478810e+002 -7.7639268495816949e-001
    7.3020072012867797e+002 -5.9868038569287341e-001
    4.6682623723605116e+002 -5.6967157463414564e-001
    1.3699806174790331e+003 -3.0875107264981733e-001
    7.3222896034604059e+002 -4.8411530625193422e-001
    4.7763826356614294e+002 -8.1169136801065012e-001
    4.5419472725342040e+001 -1.2805870013395597e+000
    5.5623815631763648e+002 -5.7943900387055058e-001
    6.1403959373372732e+002 -5.3504059874626453e-001
    9.3866793839965976e+002 -3.8759505571897340e-001
    9.5681862146278968e+002 -4.1352841287467856e-001
    5.3722195720286447e+002 -6.6254305661393431e-001
    1.2123916057472647e+003 -2.9601851418157626e-001
    3.9459521746396723e+002 -7.5332921770825867e-001
    1.1057648922628505e+003 -3.6058572813025552e-001
    9.3441242223343988e+002 -3.7601015241699010e-001
    8.4707645949987227e+002 -3.8242804376001971e-001
    5.0909104408509120e+002 -5.8947902128599061e-001
    6.0638551467388470e+002 -8.1859519232104339e-001
    3.3843251416468570e+002 -7.6728503474987908e-001
    4.3341983812832314e+002 -6.2532612012350008e-001
    1.6557347451845106e+002 -1.4965758160866378e+000
    8.3525010115522105e+002 -4.0625928989030008e-001
    1.5465217351431590e+002 -1.5353419890542870e+000
    8.3201285654033768e+002 -4.2210219628420453e-001
    1.0463202600429123e+002 -1.0672631418292280e+000
    7.2549456853620043e+001 -2.5222620579245350e+000
    3.5114848405792276e+002 -9.5747291989720273e-001
    5.8521492251809480e+002 -6.0237480615784522e-001
    6.5683459663386361e+002 -6.2091667102290216e-001
    2.7436845146526974e+002 -8.0126028977672048e-001
    5.0695530224400522e+002 -7.5788796078400522e-001
    8.2864378750358821e+002 -4.7549365630822737e-001
    1.2697141705025481e+003 -3.2573198282504956e-001
    1.7509601651528081e+002 -1.7396140042413881e+000
    1.3073650049926712e+003 -3.5029562061009217e-001
    6.3637640087950626e+002 -6.0488736914061803e-001
    3.1872902650517864e+002 -1.0994414100625163e+000
    5.1748309022384956e+002 -1.0847520798063672e+000
    5.5689606454533794e+002 -7.5154416200217722e-001
    4.4683513296662102e+002 -8.7269256232341141e-001
    7.0018302771283984e+001 -5.4447677656512172e-001
    8.5565914849644867e+002 -4.5796891801547762e-001
    8.1164569713227490e+002 -4.5732264380391652e-001
    6.5160611533326858e+001 -2.1966678351582067e+000
    3.4843136944710210e+001 -8.4123386282571777e-001
    6.8938641267420269e+002 -5.0111522431631172e-001
    3.5364585014868379e+002 -1.4420280454084562e+000
    8.5502936824542724e+002 -4.3223290051914592e-001
    6.3677478246186377e+002 -5.5370093907458640e-001
    1.2423046453221236e+003 -2.9558648053124698e-001
    3.5163269006455170e+002 -9.0577451852754443e-001
    6.0153545792547550e+002 -1.6413724183538321e+000
    6.4306888211311480e+002 -5.7826487529395543e-001
    3.3323395125850965e+002 -1.5281687395703099e+000
    7.9641514035554314e+002 -4.0417164200718081e-001
    4.6163334075990110e+002 -7.1096327471794984e-001
    2.7266693129497014e+002 -6.1993160595033714e-001
    5.5460334034733273e+002 -6.6575951712799053e-001
    3.3710288656204409e+002 -9.5091215089142711e-001
    1.3962812067954647e+002 -2.3845253713123293e+000
    1.0943566870665866e+002 -2.3552746606063639e+000
    7.6862272455266930e+002 -4.9725824519868933e-001
    7.0963128170816731e+002 -4.8315823629880672e-001
    8.3520905460229562e+002 -4.7009120873029997e-001
    2.9743612446367922e+002 -1.1765104697695992e+000
    5.6320449430701740e+002 -6.5234296214357512e-001
    7.8415079453827536e+002 -5.1934091380178404e-001
    5.4361016703695157e+002 -4.3008920400885287e-001
    1.2788729889043195e+003 -2.4201631900270826e-001
    4.8963186255604143e+002 -5.1947675306230146e-001
    4.2361320805258555e+002 -6.0601505738071582e-001
    5.0417367953852084e+002 -6.2289273462577865e-001
    3.4200314963610816e+002 -9.6983278644634396e-001
    7.5124428166463781e+002 -4.9374665965515990e-001
    4.5085745018010823e+002 -6.9699020901322395e-001
    3.3232591981418767e+002 -7.5547069945006495e-001
    9.6573122240044916e+002 -3.9913776637135212e-001
    6.4398191181060020e+002 -5.0579158929484191e-001
    9.8813718214468713e+002 -3.9466102279032006e-001
    8.5070805113918209e+002 -4.4270307546868004e-001
    4.9118836590608424e+002 -6.3280441308872959e-001
    4.2333271529315846e+002 -7.2109944754764910e-001
    3.0413667018640490e+002 -1.5712261344795215e+000
    3.6482750067386047e+002 -1.6175913963881370e+000
    1.1698765061240367e+003 -3.2912840499257684e-001
    8.0558162128557910e+002 -5.1480125887676975e-001
    7.2495724924083220e+002 -4.0272415174935422e-001
    9.1079251940976758e+002 -4.5152851803552457e-001
    6.1568131310089757e+002 -6.1785614522907395e-001
    7.9466127085284222e+002 -4.3898253744112564e-001
    4.5722856876062866e+002 -7.3871321195903894e-001
    5.2659071045381847e+002 -6.5150467376472310e-001
    4.4106572646000728e+002 -7.6740014462537165e-001
    7.9049182483488426e+002 -4.1589896210493549e-001
    2.8058870612640351e+002 -1.0172925475675787e+000
    4.8604595398578334e+002 -5.8938142612675481e-001
    3.7750626994348977e+002 -9.3691181685577374e-001
    7.7952768364170731e+002 -5.1644881889643346e-001
    4.3605156638602728e+002 -7.3789516628705931e-001
    4.5818085759539542e+002 -5.0602018182707276e-001
    5.8404900472006034e+002 -5.7163164471915684e-001
    5.8532129346715885e+002 -7.9501865464937693e-001
    5.3531090019037867e+002 -7.2374300587323204e-001
    8.7200600377270337e+002 -3.7572451703517024e-001
    4.6237652044912903e+002 -4.9669705057529501e-001
    6.1986858027583241e+002 -6.2771433426837631e-001
    6.8201995874399086e+002 -5.2748398682884046e-001
    8.6379063148221564e+002 -4.8814337851708095e-001
    6.7956858083571228e+002 -4.6767790100216561e-001
    7.4441129186593184e+002 -4.3731107138971248e-001
    3.1659751189425219e+002 -1.0621488530543099e+000
    8.6425022088731714e+002 -4.4585266376118027e-001
    7.1837163603968150e+001 -1.6852627956032198e+000
    3.5233389241301938e+002 -8.4833642862708236e-001
    7.5544790790339107e+002 -5.4912099168824735e-001
    4.4024830861892804e+002 -6.3884006305149821e-001
    4.8316629247111177e+002 -6.3529968756883648e-001
    7.9229857739559975e+002 -4.6815168084539976e-001
    6.2767428421132377e+002 -1.1691019113491381e+000
    4.9377112187966759e+002 -7.1029376908749120e-001
    8.3826949138778548e+002 -4.8642377527974678e-001
    7.8558107935236228e+002 -4.7174129891324046e-001
    6.6905556479722361e+002 -5.2786742597109138e-001
    5.4524440112437935e+002 -7.1725365598841639e-001
    4.2201080375943735e+002 -8.1067886799540356e-001
    5.6697678235656940e+002 -6.7394684237539404e-001
    1.8655887233418801e+002 -1.3905937545449558e+000
    5.9674153134074731e+002 -5.6738458242650025e-001
    2.3693336656689444e+003 -1.7318625835608448e-001
    5.2465400259704541e+002 -7.0284110551926249e-001
    3.1635231974016403e+002 -9.6434917098457140e-001
    8.4044227332957928e+002 -4.6622699090925168e-001
    1.8220211115651043e+002 -9.1658867269305855e-001
    1.0561400672878989e+002 -2.1599442904095429e+000
    1.2216085698753179e+003 -3.5323416896101395e-001
    8.7936445102398966e+002 -4.3254423560924743e-001
    6.3887880436748878e+002 -6.1848041717575386e-001
    4.2201773697996151e+002 -9.1774400480702212e-001
    6.1261566335579539e+002 -6.7038037571485520e-001
    1.1559547656495338e+003 -3.6110865241240397e-001
    6.6512565302990367e+002 -5.9220250528512353e-001
    1.4387256643698502e+003 -2.6824212244100576e-001
    4.8454112180324364e+002 -9.4894906834401227e-001
    4.9275401234703651e+002 -8.2303183387617140e-001
    5.8655193402696284e+002 -6.3629861399395793e-001
    4.8670857448788837e+002 -6.9051035377004422e-001
    4.1980005780790640e+002 -5.8972591634848248e-001
    3.8729031613917698e+002 -9.6586832460323646e-001
    5.4104640195359457e+002 -6.5612898983119694e-001
    4.6924929797394748e+002 -6.7276353691569057e-001
    1.7698494810628534e+002 -2.0018157194267721e+000
    5.1052727297324459e+001 -1.1008042684769956e+000
    6.2216603771283381e+001 -2.1492584698805417e+000
    4.8098325537711276e+002 -6.9158803476472042e-001
    8.8117309428031649e+002 -4.2664755402238491e-001
    8.4362788102674347e+002 -4.1927428095902192e-001
    7.8545010061809114e+002 -4.9030063813074465e-001
    6.5382984903662447e+001 -1.9428580182661097e+000
    6.3326241517738003e+002 -4.7660620736874765e-001
    8.4291062779208403e+002 -5.3131934026205263e-001
    9.9320037352770316e+002 -3.8545744690432193e-001
    1.2827658714468926e+003 -3.2519564631357073e-001
    1.1466333792658806e+002 -1.9753830146213678e+000
    3.4771006356814382e+002 -6.1725383075564655e-001
    4.0236666491956692e+002 -1.0106484906655480e+000
    6.2301647645422088e+002 -5.9680381619405487e-001
    6.1802341975432682e+002 -5.9338506064925678e-001
    6.1476499602039280e+002 -4.9390218639654698e-001
    4.5698079880667717e+002 -7.3659600747773435e-001
    9.0344771538396515e+002 -3.8345501891491024e-001
    1.0061734961886970e+003 -4.0590856049425372e-001
    1.9473830106234416e+003 -1.9075042345608015e-001
    3.7258789280484234e+002 -8.0791437030602797e-001
    2.6445422776957776e+002 -6.2566299453157992e-001
    3.0400999594286668e+002 -1.0747431147781938e+000
    7.7656034726161079e+002 -4.0876434678150098e-001
    5.6168777281657503e+002 -3.0311544003890589e-001
    5.5779488973479474e+001 -2.5348385385261132e+000
    1.9737401717848095e+003 -2.0842047008516071e-001
    3.7097359321635616e+002 -8.3186804284540594e-001
    6.3016599896504465e+002 -4.2149900944398133e-001
    3.7433238258040353e+002 -8.8416090087449994e-001
    4.0087617994589328e+002 -5.8980318665851672e-001
    7.2234279409016278e+002 -5.8227672981993162e-001
    5.1166099970771614e+002 -7.1715813677819973e-001
    5.4384027888895173e+002 -7.3685258133821530e-001
    3.8475020563243805e+002 -9.5068160652013234e-001
    7.3896175014304697e+002 -5.2510445157474439e-001
    8.7393362609912515e+002 -4.2897943593959081e-001
    5.7342961652137569e+002 -5.3396997793088774e-001
    2.4780756099924465e+003 -1.8863338101297891e-001
    5.0275272456839315e+002 -5.6516504306277970e-001
    1.4047654717048015e+003 -3.0229601875895767e-001
    5.2277535764109837e+002 -6.2139308767675983e-001
    3.6271512525818315e+002 -1.0140929734345598e+000
    1.8730086169529607e+003 -2.0732032170770365e-001
    8.2956419614518325e+002 -4.0524727926177823e-001
    4.1074166076779898e+002 -6.9298175515070959e-001
    3.4141406485691260e+002 -9.7423389783070169e-001
    6.0029862165366478e+002 -5.8979687300738659e-001
    9.0232962194697961e+002 -3.5621869054701349e-001
    6.3259479890506179e+002 -5.9459304816079450e-001
    7.9542750214314765e+002 -3.9160392906485642e-001
    3.9559656716049602e+002 -1.1849661592055258e+000
    3.6375678193059451e+002 -1.0017178585931230e+000
    6.8205755557895213e+002 -6.1065200457246227e-001
    2.9658682228952233e+002 -7.2375962105531511e-001
    7.5843389858151795e+002 -4.5392497192271702e-001
    1.5369657931379658e+002 -1.3201140260897715e+000
    5.3044511119804690e+002 -6.7043903819113226e-001
    4.7500817324770804e+002 -6.8656693519910694e-001
    2.3624350253140312e+002 -1.0873301526590582e+000
    6.2129810881274148e+002 -5.1672919884107171e-001
    1.0609609130377360e+003 -3.8824868453910466e-001
    4.2766043326762309e+002 -5.2586403358714306e-001
    1.0628502131589762e+003 -3.0425551184889815e-001
    5.7588227677072280e+002 -7.8243023168900161e-001
    6.6711951274328351e+002 -4.3238138347807054e-001
    5.8406557902083000e+002 -5.7103941452098428e-001
    4.2460508087807727e+002 -7.1674207254051059e-001
    8.7641482794040417e+002 -4.5718948330091669e-001
    5.1265150918526081e+002 -7.2519671245260420e-001
    2.9685844075615211e+002 -1.0916815564783819e+000
    7.7398569755804886e+002 -3.8013229385159036e-001
    4.0282961068771624e+002 -8.9165996931445679e-001
    3.5697342594670829e+002 -1.4819182945451073e+000
    8.8976925669380989e+002 -4.5699302088297794e-001
    4.1142693618492763e+002 -1.0521382678205868e+000
    2.6322649412085792e+002 -1.2587328552940278e+000
    2.6134877589959518e+002 -1.1092387149315690e+000
    4.2166128103634742e+002 -5.3871258916544706e-001
    5.7080300827757412e+002 -5.8223869674093753e-001
    9.9774759132403904e+002 -3.4149985750311246e-001
    2.6050388992896745e+002 -1.1405327269240848e+000
    4.5845150284983595e+002 -7.6000833220919106e-001
    4.5825267507611392e+002 -7.7112177876241061e-001
    4.3287129424770666e+002 -4.2047576286590088e-001
    8.7158151235687092e+002 -4.4103976746447915e-001
    5.5199625258975198e+002 -6.6541808354895238e-001
    3.8239195526764007e+002 -8.3899030707213562e-001
    6.0071590538747785e+002 -6.3453349352944066e-001</input_scale>
  <output_scale>
    5.2631578947368418e-001 4.9999999999999994e-001
    5.2631578947368418e-001 4.9999999999999994e-001
    5.2631578947368418e-001 4.9999999999999994e-001
    5.2631578947368418e-001 4.9999999999999994e-001
    5.2631578947368418e-001 4.9999999999999994e-001
    5.2631578947368418e-001 4.9999999999999994e-001
    5.2631578947368418e-001 4.9999999999999994e-001</output_scale>
  <inv_output_scale>
    1.8999999999999999e+000 -9.4999999999999996e-001
    1.8999999999999999e+000 -9.4999999999999996e-001
    1.8999999999999999e+000 -9.4999999999999996e-001
    1.8999999999999999e+000 -9.4999999999999996e-001
    1.8999999999999999e+000 -9.4999999999999996e-001
    1.8999999999999999e+000 -9.4999999999999996e-001
    1.8999999999999999e+000 -9.4999999999999996e-001</inv_output_scale>
  <weights>
    <_>
      -2.6273263001316971e-001 4.0523881628674478e-002
      -3.1293354610316026e-001 1.5639230451851727e-001
      -1.0529776877775211e-001 -8.3289145671782722e-002
      -2.1644530636537909e-001 -1.0889397524108335e-002
      1.5233495947047596e-001 -1.0792914568019700e-001
      8.4539509200208494e-003 3.8638601626217649e-002
      4.0489853032519153e-002 5.3592330162865543e-003
      1.0373753213694770e-001 4.0521066576774276e-002
      3.0277692202990761e-002 -1.2520991548919780e-001
      -2.5064822443796996e-002 -9.9796889511691619e-002
      -5.1415032305883263e-002 1.3880600660692774e-001
      -9.0242411751849438e-002 -1.9190553767636331e-001
      -1.3204117050807601e-001 -1.7506830020467068e-001
      1.4826442556039279e-001 -4.5281020845274744e-002
      -1.0763531036861579e-001 -5.0139653845403941e-002
      1.1387191273518023e-001 2.0282322185356676e-002
      1.0560700568938050e-001 3.7291461258308338e-002
      -7.8319034007917704e-002 -1.8008200623279076e-002
      6.4701001901869393e-002 2.3406305358447219e-001
      -1.2533002696426074e-002 -2.2626988130533907e-001
      6.3375842260821019e-002 -1.3557130279455248e-001
      -7.2575852242411268e-002 8.2216395332210923e-002
      3.2616433805270621e-002 5.1447105803189758e-002
      7.5805206070099274e-002 6.7332074172594847e-002
      -2.3144855751197867e-002 2.3507927626047237e-003
      7.0441358123822503e-002 6.3056474510307464e-002
      -1.7938133121931171e-001 2.1986819542228747e-001
      2.1668689405914066e-001 -1.9111593275933170e-001
      2.1045018185549280e-001 -1.8081864988583385e-001
      1.4295437727147906e-001 1.2710738876268378e-002
      -9.2938350203817188e-002 -1.7537533323913859e-002
      -1.0266128724471700e-001 1.7840171423537911e-002
      9.7160693239075835e-002 1.0038371657302239e-001
      -1.0444654229690992e-001 8.5437859861051735e-002
      2.6950239732859017e-002 -3.7941253335468203e-002
      -3.7812460675768073e-002 5.3789793408304028e-003
      -2.9360976602670674e-002 7.6532946145923594e-003
      -5.1866036207225019e-002 1.3505491594835781e-001
      -1.8905342685935130e-002 -2.9483936808893593e-002
      -2.2656988046681821e-002 -4.6425285611524300e-002
      -7.9209260452605679e-002 6.0576495129900529e-002
      -2.0679897741932275e-002 -4.6162710812859442e-002
      5.1585436672217537e-002 -7.8188036657198270e-002
      4.4056723946498767e-002 7.5450192009076836e-002
      -2.6114232713101478e-002 3.1390142358268418e-002
      7.0731224687130154e-002 6.7968565750381724e-002
      -1.0257053924612163e-002 4.0232521068826700e-004
      7.5065775471013119e-002 -3.3865967637906752e-002
      1.8260499874528772e-002 -7.8574638458918378e-003
      6.9087254629904365e-002 -3.3073322693967594e-002
      -4.0333470655213054e-002 1.2390314587693409e-001
      2.1857639274546904e-002 -1.2282227422902113e-001
      8.1629216703044391e-002 1.1336222250096703e-001
      1.4238931408801336e-002 9.1279106576143035e-002
      1.5428330046402748e-002 -2.2594671681298965e-002
      -1.4323342661813475e-002 -3.1443200497265990e-002
      -3.2587463861952201e-002 7.8546265760516890e-002
      4.2659951475363812e-002 -4.1715976335256685e-002
      -1.3858220023508871e-002 4.9319609564796724e-003
      4.4424238249705504e-002 5.4681174635207948e-002
      5.0813552941787699e-001 3.6166391454082347e-002
      6.3286581748502949e-002 -7.1978983024521867e-002
      1.0531600677856731e-001 -1.2324942016444107e-002
      -5.1131002199332781e-002 1.3046733596515200e-001
      1.5016602357642590e-002 6.4902969081306341e-002
      -3.7914382113357133e-002 -1.0045018094062191e-001
      -1.4552257710710431e-001 -8.6453353774763972e-002
      1.0246699343569428e-001 1.4437060739906330e-002
      -4.4663527613714178e-002 -1.8391718226643164e-001
      7.5626039870808820e-002 6.1496512598941920e-003
      -1.3455845830956159e-001 -9.7282619110428074e-003
      6.7403524756721012e-002 -6.4068133604129496e-002
      4.8643217919832331e-002 -3.7026173221618379e-002
      1.5967959432138166e-002 -7.3334922713292186e-002
      4.7084996158554215e-002 8.9521736919141198e-002
      8.6538627504480242e-002 6.6841401819385290e-002
      3.5658590820400800e-002 5.1278603458916674e-002
      9.1882354301888292e-002 -7.0869797396746287e-002
      5.0574530417180519e-002 -4.5375598012306298e-002
      1.0406535913155768e-002 -2.2531315536619707e-002
      8.1703980044540311e-002 8.8360367113433785e-002
      2.6834644281198031e-002 4.1004027090016729e-002
      -7.0451411039314613e-002 1.4629607370301154e-002
      1.2670655530169825e-001 1.0186820545641014e-001
      -3.8134432444076653e-002 -4.0164257494456318e-002
      1.0452245933962390e-001 -4.2304483892389159e-002
      -1.2633643912314377e-002 2.5643053485890206e-002
      5.7092335739963945e-002 -4.6001225071324675e-002
      -1.1966021600407746e-001 1.1246464550020405e-001
      1.4301313608388785e-001 2.2346314851760616e-002
      1.3625798759136740e-001 -4.9742675001662517e-002
      2.3941740530839667e-002 -1.9871082674894791e-002
      1.1123896634207568e-001 7.1209693814942451e-002
      5.6438125262597762e-002 4.7901112297982509e-002
      4.9638193408536480e-002 9.3982325059390026e-002
      3.2190322934543950e-002 -1.3567720569009836e-001
      2.9012862133959483e-001 3.1730839745773137e-001
      1.9801431112283618e-001 3.6726188601209714e-002
      -1.9121015229240444e-002 -9.8731773152265140e-002
      -9.0015756071654074e-002 -2.0462922652443032e-002
      8.1987216876271127e-002 -1.9133043924451101e-002
      2.6216334599002054e-002 8.4775539707461295e-002
      2.4451961660082653e-002 -2.6699712205182160e-002
      -3.4336250448205902e-002 -2.2323121348428090e-001
      8.5991443054732313e-003 9.8383999190899310e-002
      3.5778726219702801e-002 -2.2470017519969750e-002
      1.9854152167914108e-001 -6.5346596410996258e-002
      -2.8918068538915695e-002 -8.0446925205724690e-002
      -1.2887062036713728e-001 1.0893712072036795e-002
      -2.1593544063419942e-001 -1.1060550699244704e-002
      -1.2449648012184560e-001 -7.5858343987520534e-004
      -2.1502149734479575e-001 1.0375353301930747e-001
      3.2576325741726565e-002 -1.8273733276310730e-001
      -1.2943871340987584e-001 -2.6253551330990891e-002
      6.1556363282892955e-002 -2.0437377967343581e-001
      1.3749502312034978e-001 -3.7544705739957412e-002
      -3.9023517861581501e-002 1.0692463744628521e-002
      4.3438667319836623e-002 -7.6827369404030538e-002
      2.1423831158252124e-002 4.2269730510951835e-002
      -3.1850777123248936e-002 -7.9439269975682375e-002
      -2.4025712463288834e-001 -3.5029326940164596e-003
      -1.2876644974118667e-001 2.8511625931417060e-002
      3.2676707063411622e-002 9.2084632125531932e-002
      -1.4796756480462536e-001 3.0500626356291517e-002
      4.8832990893592276e-002 -1.1898943507720397e-002
      -2.3453757342742944e-002 5.0682086556348253e-002
      -2.4192683504029668e-002 -7.0361487953403606e-002
      5.2864202192100286e-002 1.3463690033363646e-001
      3.3031891436415071e-002 1.9699484290597202e-002
      -1.6598726617767214e-002 -3.3226524016644179e-002
      -2.6212550669207225e-002 4.5966787299188822e-002
      -4.9667374028759946e-002 -2.2622075028221559e-002
      -3.0479227271964615e-002 -3.2290511462737460e-002
      7.5356550033028923e-003 6.9054277203578849e-003
      -4.0437386658669097e-002 -1.8553736670798911e-002
      1.0136687188925889e-002 5.8979639482458560e-002
      2.3573018463596516e-002 -2.8686829627882583e-002
      2.6265289220094541e-002 -3.6864248186039277e-002
      2.5496240010235812e-002 1.8101008323962785e-002
      8.7858652018795017e-002 -2.4474971099855740e-002
      -3.6921049124653396e-002 4.5441215976548807e-002
      1.6568835292244000e-002 -3.6432536476048119e-002
      6.1379111112134919e-002 8.9189289239686373e-002
      4.5181500596279948e-002 4.9738897602498215e-002
      2.1381623410397749e-003 -1.7802907449965221e-002
      1.7883991188095711e-002 -1.0408311384731039e-002
      -1.9748220482229902e-002 9.0726884062238139e-002
      6.3878272462360858e-002 -6.0860705699994057e-002
      4.2773826023551446e-002 -1.4522833043820092e-002
      2.3586240396674608e-002 6.9162864654067582e-002
      -2.9932810695134632e-001 -1.2027161058776981e-001
      4.2703026710002104e-002 -1.0694748974447747e-001
      -1.0972858193110406e-001 -1.4802304714134848e-001
      5.6469761496150399e-002 -1.5508460200985612e-002
      -6.7559294203073036e-002 -2.2898609367835037e-002
      -4.5842336606467693e-002 -8.5194722864580432e-003
      -6.7081622269511643e-002 -3.5793394613564442e-002
      -5.0831298884030165e-002 -6.8641699657523814e-002
      -5.5055717822327280e-002 -1.1996341626970029e-001
      -3.5581493418202777e-002 -1.6302429360975271e-001
      -5.4300263807276289e-002 -4.0528827861136332e-002
      -8.4201596818846786e-002 6.1063119321854188e-002
      -5.1417669263357909e-003 -6.3343795426087828e-003
      -1.3460246766394965e-002 4.1447979616729544e-003
      5.0377540075676353e-002 -4.1981992287166238e-002
      -7.3363479234884954e-002 -2.1007938960131110e-003
      -1.0189953115323033e-001 -1.5500087359683398e-001
      -1.7128912690101525e-001 3.0926549106559224e-002
      2.8475676201374665e-002 -8.6630332076006678e-002
      -4.1780420492941513e-002 6.8182240639709263e-002
      9.7236155621085368e-002 -1.7144858492390416e-001
      1.8868339955360452e-002 3.9531861335702904e-002
      4.7548582607496906e-002 -2.6084608793085162e-002
      -9.5362743655876714e-002 -1.6285383522861643e-001
      9.0426834252833044e-002 -4.5054659009305678e-002
      -3.8756211677009635e-002 8.3117864956972903e-002
      -1.0460954113382792e-002 -6.3180707841814315e-002
      -1.5707805376915771e-002 9.0460164340101443e-002
      1.2152709894932318e-001 -2.7429752309355009e-002
      -1.3131037282706426e-001 8.4176724941508005e-002
      -1.2423419503491942e-002 9.5228728410603092e-002
      4.4972143005137057e-002 9.0499026209104758e-002
      -2.4368087519309405e-002 4.7159984957705521e-002
      -3.1820452292218596e-002 -3.8943344208607761e-002
      8.0364200760517979e-002 -9.6287880661102540e-002
      4.4372687251395876e-003 -4.5493186388709278e-002
      -9.0657120974496783e-002 -1.1844750347355863e-001
      -9.3826285899728884e-002 1.3363693183231054e-001
      -4.3724266518908759e-003 -7.9786312991855207e-002
      -3.3774675840838556e-002 -1.0739770487895538e-001
      3.5303977409645068e-002 -4.7106881124825306e-002
      6.9610174644157197e-002 -7.1852150637343140e-002
      5.6855072400441029e-003 -2.0921940088418474e-002
      8.4228734421905357e-002 7.8831978515422299e-002
      -5.1679544468339042e-002 -1.0392446520694097e-001
      -7.6833091271152273e-002 1.0984227128762890e-001
      -2.7849318430248592e-003 -5.3270545944048238e-002
      6.8967894421594261e-002 -5.9688362819493704e-002
      -3.9759399782226840e-002 -1.3579418979714750e-001
      7.8258729927985521e-002 -1.0933314572045828e-001
      -5.3927128288514828e-002 5.3681985050770105e-002
      8.9576836560425935e-002 -1.1078903254315958e-001
      4.9058807565351900e-003 1.8256615468392501e-001
      4.1327319991930241e-002 -1.9767364812335462e-002
      6.6993912138626599e-002 1.5673268560443873e-001
      -1.9297890728327171e-002 -8.6721376508934189e-002
      5.7606039885180552e-002 -2.3337636414802732e-002
      1.4259848724867391e-001 -7.2415215619458604e-003
      5.4585402211492731e-002 -5.8987218481622375e-002
      6.5367886590566068e-002 1.3160989287571606e-001
      6.5154846202722883e-001 -1.3797851947921255e-002
      3.0595197425323163e-002 -2.2059498802792666e-002
      2.8626363036426611e-001 1.8332263473139815e-001
      -5.4867265624133750e-002 2.5583201696329766e-001
      1.3247475183966187e-001 1.6487603173930787e-001
      1.1929442016971512e-001 -2.4549836473057102e-001
      3.3421636270529660e-003 -5.2245783544137440e-002
      -5.3863854634031358e-002 4.9754290792168358e-002
      4.8784441156983875e-002 -2.2258850159790719e-001
      -1.1715532298641383e-002 -3.8430643169946765e-002
      -1.1343678071456120e-001 -5.0069089453109686e-002
      3.2276317259905027e-002 1.0170052127722862e-003
      2.8975917885731138e-002 -1.4732391008511433e-001
      -5.5078951645469269e-002 7.2333752177595911e-002
      4.1831969103956784e-002 1.0987741553199119e-002
      5.9270865937041749e-002 1.7339192794847656e-002
      3.0940988264606506e-002 3.0451955596354306e-003
      3.8366337666859186e-002 -2.5060440154942693e-001
      -4.0052351130398525e-002 -6.5361074259434285e-002
      3.0177229143109004e-002 7.9596241119828260e-003
      -4.8464734765895710e-002 7.6861964766074736e-002
      7.1224193891748458e-002 -1.5616922303464642e-001
      9.9411892677343655e-003 8.7581604758863701e-002
      1.7995985965242788e-002 1.6798018176238919e-001
      5.5836928308650342e-002 3.5354126120324916e-002
      2.1107491139102819e-002 -2.5554778732379235e-001
      5.4648265353226068e-002 4.7372381580046826e-003
      2.9856075466261536e-002 1.8065330353266677e-002
      -2.6633120020145687e-002 1.4565315455129796e-001
      5.4902025906053585e-003 -5.9135510728373933e-002
      -6.2902233570281033e-002 -2.8962926839276815e-002
      -5.0460348086711938e-002 -2.8281859732415347e-002
      5.7462999133415162e-002 -4.7330245872007570e-002
      -1.2398036198145754e-002 4.0578146740293780e-002
      -5.4060733250249540e-003 8.2934360804794147e-002
      8.0720060196518437e-002 -2.8064911552201682e-002
      -1.8930816203108713e-002 -1.5489172157283784e-002
      -1.0462141042132769e-001 -5.4746632589910416e-002
      4.7812436200171005e-002 1.4843479627889716e-002
      -3.7283904124529015e-003 -6.7486281363919754e-003
      9.6708330220389015e-004 4.6546889277716892e-002
      -2.6937907568666302e-002 1.9793415698578991e-002
      2.0180110206107775e-003 -1.8992514466672855e-002
      -2.1079440155109236e-002 5.7891788286531784e-002
      1.3760984146612414e-002 -3.9605781525794423e-003
      3.6059203196551329e-002 -2.9325076987133651e-002
      -3.1581100368919167e-002 3.8519805105219990e-002
      -5.8757416075002296e-002 -1.4341800969726067e-002
      4.1660772897214498e-003 4.5949504543041392e-002
      3.5063400359628696e-003 4.1526259061703097e-002
      2.4565656516036722e-002 -8.4546586529581358e-003
      1.9396190472388126e-002 -1.5986700084809201e-002
      -1.2628818126440909e-004 9.6920325803927190e-002
      -5.6324866227331488e-002 1.4075541655365554e-002
      -1.1569042302825428e-002 2.5491282240015869e-002
      -4.3055638501759481e-002 -4.0865831420135945e-002
      7.7896801074469058e-003 4.8754494732744118e-002
      -2.8161797218453483e-002 3.7253705419084022e-002
      -2.6898172011207856e-002 4.5939634914988814e-002
      -8.7730363417388754e-002 -9.7215508000817012e-003
      2.5466080675127761e-001 9.0767012072444170e-002
      -1.4987809078707693e-002 1.0484733519431172e-001
      1.4093794509476135e-001 6.0626767177007698e-002
      -4.3540347523333890e-002 6.1640713489250404e-002
      6.4789284029130950e-002 1.4464786064727070e-001
      1.9430545961448546e-002 -1.4151495855205318e-001
      -5.3981395172534592e-002 2.1332924158660994e-002
      4.5632359136551601e-002 3.8255218379538207e-002
      -4.0819536777142285e-002 -2.4884690152012254e-001
      -1.7900186824806232e-002 5.3508057541434033e-003
      1.3154147984700973e-001 -8.4791625371152035e-002
      1.3233049449719048e-001 -7.1012110416198426e-002
      1.3392942202056737e-001 -1.1513411486823232e-002
      -1.7182258893554823e-002 -3.7543282488811787e-002
      2.1163237374683359e-002 6.8152948301932845e-002
      1.1266386297497348e-001 5.5763749987494109e-002
      2.7196675956646751e-002 -1.2731085670534343e-002
      9.2893411165655179e-002 -2.2368581661183412e-002
      -1.2391514810037813e-001 -2.9951744512765405e-002
      -1.0608708174546389e-002 -1.7943195331873277e-001
      -8.8726531122825858e-002 7.6036451880960795e-002
      -2.1753913693458370e-002 -6.0597426065357271e-002
      6.7782588364313806e-002 -7.0566224806960518e-003
      9.2946706009792296e-002 6.4522051221932955e-002
      4.0016979774519880e-002 2.4227312120484179e-002
      2.5986456860169743e-002 -6.8900473007754378e-005
      -7.8801926457594401e-002 1.6187124270349070e-002
      1.5825157246189270e-001 -1.8156605120474148e-001
      -6.6846384119047461e-002 5.5771937489306860e-002
      1.9687248762527976e-001 3.3832085139575752e-002
      -1.9066755399517751e-001 -5.9194586326969452e-002
      5.1501023678477587e-002 8.4947310136831589e-003
      -5.6834228103067173e-002 2.7669697551788341e-002
      -9.6408919966130182e-003 -3.8490109796358189e-002
      -5.0845823600517724e-002 -1.6694481434954757e-002
      -6.1510399104318818e-002 9.8120137476169170e-002
      1.1410987232288972e-001 1.1503002459351068e-001
      2.8517759821116484e-002 4.7659613956977454e-003
      -3.7329640700463032e-002 -3.7918250479397703e-002
      5.3998361028270096e-002 4.1779156529107651e-002
      7.6880360767294445e-003 -2.1139005982866648e-002
      3.6842879190599094e-002 -2.9986853730608720e-002
      4.6855111046850140e-002 4.3426131450650649e-002
      -3.2592992139298863e-004 -4.3121939096001691e-002
      6.9153931194399941e-003 6.0961382231522622e-002
      2.2179125924080008e-002 1.3177148433580874e-003
      1.7525912567612066e-002 1.2671510462037713e-003
      5.6882310155512768e-002 6.3662330874556347e-002
      1.5123177278689854e-002 -8.2585867414522451e-002
      -5.2200368795809859e-002 4.7879752612429029e-002
      2.7581104843284590e-002 6.6430515555628386e-002
      -4.2327554274229053e-002 2.8042566264930180e-002
      4.8921924996565454e-002 -7.2880046923342032e-002
      5.8288531197249714e-002 1.3815566641414086e-002
      -6.8795745600998184e-003 -8.6077488436957561e-002
      2.7034716535606917e-002 4.6442644470848172e-004
      8.1162289227339670e-003 -1.5551759017229887e-004
      -6.5711289432679607e-002 -2.8326070486757636e-002
      -4.8877251296416076e-002 2.1371660159069843e-003
      3.0989224722783985e-002 -5.1847148658642060e-002
      7.4109726565112652e-002 2.7787368479383453e-002
      -6.8835561933489914e-002 9.6409080457279209e-002
      -3.7496863133651123e-002 -3.4898867139767385e-002
      -1.7278658943122208e-002 2.3578601975080587e-002
      5.3337730956173043e-002 3.0472063734274758e-003
      -9.9014496288964381e-003 5.5247942258752417e-002
      5.2980094882736715e-002 3.1140062496662790e-002
      5.9159044652406401e-002 1.2820398770220737e-001
      4.7012061899924205e-002 9.5757909262177296e-002
      2.9888033461900207e-002 8.8113436139746204e-002
      -1.2108779948085615e-002 -1.2723966295337416e-002
      -4.9262183092675989e-003 -1.5016068383065070e-002
      -3.7536071865705602e-002 -1.1098749873799619e-002
      -7.5624898229248753e-003 -3.8552462988170041e-002
      -7.0184004023895283e-002 1.0302599036583799e-002
      4.5917005505544985e-002 4.2445663951393660e-002
      6.8069461412363461e-002 9.9691051836989439e-002
      3.5650383129478387e-002 -3.9059639169103280e-002
      5.0763817799155168e-002 2.4290553253346284e-002
      2.1568482783271689e-003 -3.6896050290599457e-003
      -1.6971316367484585e-002 2.6699174836847035e-002
      -3.0493381963774889e-003 6.7844138726937953e-002
      -4.7910491122057329e-002 2.5014656230799803e-002
      6.9873405150393267e-002 5.1551031009953764e-002
      -6.8631697444820380e-002 -3.8678332383519226e-002
      6.0890888023643626e-002 -6.1564998543800223e-002
      4.9308871252885036e-003 9.5466448804429165e-003
      -5.3940061894238002e-003 -3.2039626107478347e-002
      -3.5501986734355458e-002 7.7711516223037420e-003
      5.2749331381871677e-002 -1.0143171240282413e-002
      -2.1348022852042084e-001 4.2063201348627600e-002
      5.7465595543647101e-002 1.0701475655827992e-001
      -6.6799371369329077e-002 3.7801741766481566e-002
      5.8689916166945820e-002 -2.1627322131432362e-002
      4.0316975495218836e-002 -9.2829603157929694e-002
      -2.0504202372395901e-002 4.7733307203076329e-002
      8.8296528815759778e-002 4.4862093342625212e-002
      9.6041497645919988e-002 5.5616918086134823e-002
      4.0624315243676441e-002 1.2859585740921597e-001
      7.0559753472269060e-002 1.2513664263187574e-001
      -1.5349472985722987e-001 -1.0142719041474500e-001
      -6.9086589730653611e-002 -1.8224369349386437e-002
      -1.8726558201581093e-002 6.6016952023621969e-002
      5.0730925886114608e-002 -4.5848733201399580e-002
      -9.4599625193591191e-002 1.9031456788184565e-002
      -1.4176059818987741e-001 3.4794938803518916e-002
      7.0165640717994859e-002 9.8499639384707280e-002
      5.5602876559588475e-002 -1.6071893859032689e-002
      4.1461301140197956e-002 -3.1464089710916236e-002
      2.0443639607775597e-002 -2.3920890904915452e-002
      -1.8834576394986157e-002 1.1446099788432862e-001
      -2.2049429058621676e-002 1.0068284036037632e-001
      -2.0363049473853680e-002 -3.3242263255642945e-002
      1.1431142700176627e-001 1.4071321405869665e-002
      -8.4317247310698673e-002 -5.9485586979038087e-002
      2.4802348096297260e-002 -8.1271963305319939e-002
      1.2561835638236699e-001 -1.3648676345814142e-001
      -1.2037917733628034e-002 1.6340686585332637e-001
      -3.8417293967987654e-002 8.5033384406302832e-003
      2.5997628846723176e-002 8.8169998079845394e-003
      -2.1063608313082169e-001 -2.9120205013438309e-002
      1.8635135824593307e-002 -3.4369347066732121e-002
      -1.9628041314194211e-001 -6.4825101064096599e-002
      6.7280210533372672e-002 -3.9820271584390055e-002
      1.3612601088538925e-002 -1.3884126760077062e-001
      -7.6866563479259936e-002 1.8173826258757322e-002
      -3.6076937314788109e-002 -7.8062283341557390e-002
      3.4322565416818655e-002 4.2498634674841253e-002
      2.2169321317376801e-002 -8.8337338176013483e-002
      -6.2496674472228571e-002 -1.7912380067887027e-001
      -9.8680489244036926e-002 -2.3676221777050341e-003
      -8.7278709757734205e-002 -1.6672347479180460e-002
      -1.5173015363079922e-001 -3.9472236786719295e-002
      2.9110727899191467e-002 -7.1434961805398288e-003
      1.9088058346298512e-002 -1.0508618730263411e-001
      -1.2673175639773279e-001 6.5723221624635578e-002
      -3.5142718203387671e-002 -8.1309976882114082e-002
      -2.3021203328822770e-001 -6.1866751325070239e-002
      1.6138396547210561e-002 1.8379820156675591e-002
      2.7421717697799032e-002 -3.8615378835834463e-002
      4.6766813917301982e-002 -2.1482800848338929e-001
      6.5766834936844942e-003 5.4925700102483058e-002
      5.8808776368292712e-003 4.1700548873237125e-002
      -1.0624485425513715e-001 -1.3536383002450655e-001
      8.6688740690370594e-002 -2.4959884659754239e-002
      9.9917168243260509e-004 1.4873948538846231e-002
      -3.9906894067997814e-002 -5.0145028241531484e-002
      5.3786760859802538e-002 1.2946306872210270e-001
      2.3693860383868534e-001 -1.0402446950694894e-001
      -5.8508134462607374e-003 1.2410669638536063e-001
      2.7332723194074504e-001 1.0706475987738835e-001
      -4.8904732005657731e-002 4.0993138858404159e-002
      3.6290846140448349e-002 -1.5430205569821773e-004
      -3.4492510623156093e-002 -1.6248399800411498e-001
      -1.8838069500212950e-002 -3.4172077808729134e-002
      -7.1843334440553269e-002 5.7010493991588071e-002
      -5.3375346791640015e-002 -1.1215196256035372e-001
      1.4502023491566482e-001 1.4405777202452388e-001
      -7.3495660757496029e-002 -2.9786562008977453e-002
      1.6256365579995477e-002 1.1487115261366336e-001
      2.4497391049387215e-001 -2.0935508775329296e-002
      1.7005561227186539e-001 -6.6472832854516065e-002
      9.0178695295880948e-002 7.6638417392665956e-002
      3.4488077010423286e-002 -3.5150635027645358e-002
      -4.0873733282649205e-003 5.5871152838668676e-002
      1.0767493051826930e-001 7.6489684657225165e-002
      2.6906485506763108e-002 9.0153063014076981e-002
      1.5805019341291673e-001 1.6354119158896238e-001
      -1.1773774404943579e-001 7.0873526393428671e-002
      6.9325903413571185e-002 -1.2238993803023708e-001
      -9.1993035220352112e-002 4.3028211298276796e-002
      7.0415573227134667e-002 -1.4318914461196954e-002
      9.0770005082413466e-003 -7.6097566847288745e-002
      1.7207073646645782e-001 3.2798148049352965e-002
      -8.1918376958555000e-002 5.6920517241747751e-002
      3.4340108636511567e-002 1.5993692229893164e-001
      -5.6346071198750215e-002 5.8257746175300960e-002
      1.0835253879672287e-001 -2.4591863686011478e-001
      -6.5223231741849408e-002 -3.2281973319948372e-002
      2.1215263079850055e-001 -4.1056770932059186e-002
      1.9735051298185644e-001 -8.7247551735469241e-003
      4.8203023978167225e-002 -7.9103942353519696e-002
      4.2704335150825822e-003 -6.8651632659842185e-002
      3.3767662389111608e-002 -1.9671408294327630e-003
      -5.9331387275237013e-002 8.3846109646028108e-002
      2.9824681174953321e-002 3.5260307139135562e-002
      -1.5191516048442568e-002 1.8534925387034044e-002
      -3.0957875305375436e-002 -9.2328228951587862e-002
      4.4823608569801728e-002 3.8820518147682512e-003
      5.1005073456628532e-002 1.6863757307694592e-002
      -2.3903335905126166e-002 2.9716849838870681e-002
      1.0461927377378536e-002 1.6051617334945124e-002
      -1.8760248737982994e-002 2.1015061166270724e-002
      -5.7620653834202964e-002 -3.0934963609735395e-003
      5.6372531009532392e-002 2.1115590090663557e-002
      5.6443854492959813e-002 -6.0295182777760643e-002
      1.5660299277823471e-003 4.1922999483628182e-002
      -7.6304587447395839e-003 2.7576109693234499e-002
      3.2441765701348615e-002 8.3001806683492291e-003
      -1.4463074321377457e-003 5.7170769380881788e-002
      7.2166924568133922e-002 3.7372682709323667e-002
      6.1202607449413722e-003 1.9041744548573040e-002
      -9.1782017813860972e-002 -8.9302659580436129e-003
      7.2632335392932195e-003 9.0772156644237934e-003
      -4.1869885112971607e-002 -4.2074448892071813e-002
      1.3147855384595952e-002 2.3802692107694125e-002
      -4.1161950981268638e-002 -3.6310168019796159e-003
      -7.9876093748887309e-002 4.0411268488242932e-002
      -7.6899306782329493e-002 7.2825764117013844e-002
      1.3508464428945688e-002 -6.1061369077058503e-002
      -7.9577980338652921e-001 -6.4621840455720198e-002
      -9.1296280404269126e-002 1.1611953408563794e-001
      -1.1256326167976745e-001 1.0346157746028746e-001
      -2.7652161425438131e-002 -7.3675448045314217e-003
      -2.9733121194200334e-005 -1.2357566912065861e-001
      -7.2846248866768465e-002 1.0682114625026995e-001
      3.9330172631837981e-002 -1.0765731177186969e-002
      -3.8379981181693577e-002 5.0221537386259646e-002
      1.3840233135097696e-002 1.0536547864682894e-001
      -2.9108945514518848e-002 -2.9980549450597527e-002
      -9.7794543535036457e-002 8.2000833005739526e-004
      -1.1854868266373397e-001 -7.3326173693829379e-003
      -7.1337168889441319e-002 -2.9671914272756700e-002
      3.9449399245177763e-002 6.4278772756283950e-002
      -7.6824969000488658e-002 -5.6141319566244970e-002
      -1.1363740046122074e-001 8.4446347220148474e-002
      -8.0158362401462707e-002 1.7174104118665068e-003
      -8.2072640763154320e-002 2.7973349204458625e-002
      7.6597513383858090e-002 -4.2357476630389872e-003
      7.1708572343809451e-002 3.4000725592338611e-002
      3.1575586467203660e-002 5.1442065070335816e-002
      3.3631485016156669e-002 1.0583827484655910e-003
      1.0998716790890123e-001 5.7699980755682598e-002
      -4.8195708613931694e-002 -3.5703053854888110e-002
      2.0138183640316366e-002 -9.0123619769813451e-002
      -6.4900990783755982e-002 -2.2509010852373151e-002
      9.5629155512580805e-002 -1.0129976162325176e-002
      -3.5425560827576322e-002 1.2053470082475956e-001
      8.8344436833623655e-002 -6.3583354149464991e-002
      -1.3586743276876967e-001 1.5545991259782391e-001
      9.6840260282595195e-002 -4.7803814794075465e-002
      2.8063708932888041e-002 -4.9154493332763255e-002
      -6.4373693979276447e-002 -1.4307392630303544e-002
      3.7016960578086462e-002 1.5648001171180856e-002
      -6.0728909947491954e-003 -4.0345706636023626e-003
      -2.0953241612715369e-002 -1.5592102808000144e-002
      4.7856637420296014e-002 5.1995099341478550e-002
      5.7139059305240193e-002 -2.1807916851587662e-002
      1.0102656875412506e-002 2.6695663065002352e-002
      1.6755181834423799e-004 -2.7145080705388951e-002
      -5.3153253227561516e-002 -1.3382172079124550e-002
      -2.1107349679568631e-002 2.9366648781232893e-002
      -4.2319676218049683e-002 -1.1180321184114094e-002
      -1.8274526837793001e-002 -4.1969533908241603e-002
      4.1617337759543077e-003 -1.3515020432459994e-002
      -2.5185518919051800e-002 -2.6415816272934486e-002
      2.4160038353962302e-002 -3.2762313402560556e-002
      -5.5484874879522479e-002 -2.3592103212408674e-002
      3.2247366749777948e-002 1.4169023174653941e-005
      -8.2763613099961206e-002 6.0322727808300385e-002
      8.2975577163124613e-003 -6.5558045987064134e-002
      -5.6268803579277923e-002 5.4119934717161824e-002
      -1.3387600808387934e-002 -2.6334351005111167e-003
      -2.3826408641667421e-002 -3.2238329447385132e-002
      3.2270866324145511e-002 -9.3238965002704136e-002
      4.9415093290991946e-002 -1.5401801835027165e-002
      -3.2597462497575766e-002 -3.8144891672139185e-002
      -5.0683475001088309e-002 2.1195461847333504e-002
      4.2290453596040715e-002 2.4246917169062902e-002
      -8.3943262472466015e-002 -2.6473942077607567e-002
      3.5064784463531240e-001 9.8832350221917345e-002
      7.4316950629425518e-002 1.1838638103385341e-002
      -1.0471547972025333e-001 -3.0341967444944135e-002
      1.5053595424040020e-001 -6.7182666427324775e-002
      -2.9624684164515087e-002 -4.7446070857918863e-003
      2.4358741739593039e-002 3.1120893198233624e-002
      7.1179197995732170e-003 -1.5897151336474041e-002
      -3.5092363719080991e-002 7.1752938213608970e-003
      1.1033803006703700e-002 1.3977454326985278e-001
      5.5097217447057307e-003 8.5600887620839908e-002
      3.0019215738254768e-002 -6.6216143745305295e-002
      5.3462629708278073e-002 5.3304852695698748e-002
      -1.4856915304534443e-002 5.4815211257788800e-002
      -3.1986999741069062e-002 2.8696230249703369e-002
      1.1383634377591292e-002 -3.6657015667424922e-002
      -9.5018867463718376e-002 -5.1803703856326745e-002
      2.1379200351602477e-003 -1.1380448368539391e-002
      -1.7257361389774760e-002 1.7874732286526245e-002
      -7.6034360065622378e-002 -3.6424376247800060e-002
      2.3149356252243729e-003 2.4275733827766544e-002
      -3.9863480916301916e-002 -2.1031741663298013e-002
      2.4817503815977807e-002 -7.2252840784219202e-002
      -8.2773431317035448e-002 -4.4861780332252302e-003
      -3.5616855728235086e-002 -4.2872372760803808e-002
      1.4177177282103987e-002 1.7079081702503118e-001
      -2.7886912639558781e-002 -1.9472688218936253e-002
      7.7840970549396274e-002 -1.1177153511702027e-001
      -3.5633558242944140e-002 1.4097725733484787e-001
      -6.9745511134920446e-002 2.2736907699848754e-003
      -4.7254961977133509e-003 -1.2771180811614153e-002
      -2.4666424393351705e-001 -5.6060607833531471e-002
      8.3893680750997485e-002 2.0274607770716237e-002
      -1.2634952476254885e-001 -2.4195473121403879e-002
      -9.0730281511345864e-002 -6.9750481517174417e-002
      -1.0579011304264771e-001 -1.2701962182309065e-001
      -1.6795005030875781e-001 2.5611827746475457e-001
      -6.9752893717297502e-003 2.1855336800806733e-002
      9.9618666049521243e-002 7.9865926175765031e-002
      -2.4970321188222414e-002 1.0644789668472648e-001
      1.0598551023519712e-001 7.8760903633007334e-002
      -2.0361290384968994e-001 -2.7572329349210298e-004
      -1.4347150972953141e-002 -4.4386799483285437e-002
      1.3455441312384096e-004 1.2633326586561555e-001
      7.3532906174833554e-003 -5.8538849646296645e-002
      -3.8894441338066819e-002 5.3222103971013422e-002
      -3.0641496691690487e-002 9.3489611590046082e-002
      -4.3372856797062407e-003 5.7516138804455393e-002
      1.5245833184414784e-001 7.9489229675269502e-002
      1.2655106781895298e-001 -7.8513928290379467e-002
      1.8423691577455836e-002 1.0378977906026891e-001
      7.1460062075102734e-002 1.7716679301448313e-001
      3.3744264649007848e-003 1.3889960493913961e-001
      -2.0625142309892427e-002 -1.7404831451150980e-002
      1.9034212627829095e-001 -3.6502649564705010e-002
      -7.8280734869296528e-002 -4.6991519977485109e-002
      3.8691597196043370e-002 7.0122504756166930e-003
      7.8671797208809569e-002 3.6308406649892730e-003
      -1.0407647987307880e-001 8.3267734119376380e-002
      -1.7498905033683496e-001 6.6681850431118697e-002
      5.4549361256216761e-002 4.3157298357827459e-002
      7.5306839345712695e-002 1.4409509793261522e-003
      -3.4205347928723151e-002 -8.6126007812453206e-002
      -8.5917046415988421e-002 -3.1954728568262002e-002
      7.9183125609481306e-002 2.9434781066555261e-002
      -2.5950490089229976e-003 3.1086237389702821e-002
      5.0559188721303105e-002 -8.0027436539642796e-002
      1.6256096515172636e-001 5.2000713012696279e-002
      -2.1389660934482834e-003 -2.2460533328836126e-002
      2.8113994889066560e-002 -8.9295119555220126e-002
      -2.2998582364207473e-002 -9.4649730797946058e-002
      -3.3908278399233313e-003 -1.7870149116831331e-002
      -1.1300259112800751e-001 -5.2168923114275297e-002
      -3.3706423393585941e-002 -6.6175034597052346e-002
      -4.5195768872625082e-003 -3.9741061457095099e-002
      9.1866947569903268e-002 3.3989724614928135e-002
      3.9956327381735400e-002 -3.6427446828420106e-003
      3.6144809396634885e-002 -2.0045426130371399e-003
      -8.1773888432722569e-002 -1.8024318234041662e-003
      4.4123942003708991e-002 -1.5192617340360278e-002
      -5.1535010360638095e-002 3.2426723233790762e-002
      7.2393746226485603e-002 -8.1822138625654350e-002
      -3.2680757148504283e-002 9.4514476756132323e-002
      -4.0032949375209577e-002 -5.5404967862544986e-002
      -5.9490647610810403e-002 -6.9085493993242411e-003
      2.4302737575075131e-002 -9.8950605570550521e-002
      3.2848478212486203e-002 -2.1251159507282371e-002
      -1.0573881876970319e-001 -1.5512946292263907e-002
      4.0682614499880330e-003 -1.0215888285606330e-004
      8.5789100005180724e-002 -1.6568385719427644e-002
      -1.8153177378748834e-002 5.3327190626802301e-002
      -1.1638319794549492e+000 -2.0816322521167313e-001
      -2.8538506038441863e-001 6.7798115640286316e-002
      1.6244948152781433e-001 9.1525994706163363e-002
      -2.6849445070338374e-001 6.1267010697251871e-002
      -1.2728400707540896e-001 6.7700375434255319e-002
      -1.0856371916402156e-001 1.1513680588445620e-001
      2.9987996874357697e-001 4.0287048781266760e-001
      1.7099460553187279e-001 -2.8695648672691110e-001
      -1.8381833405660952e-001 1.8256624137595751e-001
      -6.3189697336167319e-002 -3.3678252427292200e-002
      1.4016617769070974e-001 2.4632865084946395e-001
      -1.3719633580803345e-001 8.7347742009771565e-002
      1.8552238070193425e-001 -4.0371654140850102e-002
      1.7965307485007007e-002 -1.7983679882698769e-001
      -7.6377715085418810e-002 1.5374867029660169e-001
      8.9573466143480732e-002 -1.8489144784718228e-001
      7.3346506849475482e-002 -1.8322489371599884e-002
      -2.8628438217707573e-002 1.5646080727412398e-001
      3.5949425955771497e-002 1.5822144841668068e-001
      -2.5103131128198852e-001 6.6325946304564551e-002
      -1.0774348864819807e-002 5.1538778721781371e-002
      -2.9294707329442971e-001 1.3668033485388642e-001
      1.4330071107513126e-001 -2.4608647249594645e-001
      -1.6048122030210182e-001 3.6788886968987418e-003
      -6.8827608016742606e-002 -1.1632219501839659e-001
      -3.1332576268882271e-002 2.0788840392289284e-001
      9.5103086040103490e-003 2.6829351201156043e-001
      -1.3253514528922392e-001 -1.7985495051188746e-001
      -3.8745120828786873e-002 -3.0465918325392097e-002
      -2.1753752573422350e-001 -1.1558274259808282e-001
      1.8005684340801886e-001 1.1348395025830643e-001
      2.5776247203389779e-002 2.6534417476094755e-002
      2.9058163311094874e-002 1.5227803175571322e-001
      1.2802579179982515e-001 -3.7171393458041900e-002
      5.5528390670253572e-002 1.3015903894389225e-002
      1.1087762979192202e-001 -1.4648643068657999e-001
      3.2976243083011156e-002 -3.8668040165462221e-002
      2.4671621041801244e-002 6.2415171064357858e-002
      9.4606904601580635e-003 1.0368921984716602e-001
      -2.4168871783590458e-002 1.2034985687033414e-001
      1.4160130753866465e-001 -1.0872506404135829e-001
      4.6993218078314887e-004 5.7232522138288264e-002
      4.4438372207761312e-002 2.0426935764470511e-003
      -4.5996508366954215e-002 6.6223721093351751e-003
      -2.4131074306342530e-002 -3.1933373188791109e-002
      -1.3455817887768015e-001 -1.4471205985935600e-002
      2.8984767176074434e-002 3.6633734578381386e-002
      -4.3992819020390685e-002 -4.1933304985225673e-003
      -1.2357605305163330e-001 3.2646089035827902e-003
      2.1991155478202774e-002 -1.1433438709495014e-001
      -1.2616349481814493e-001 -7.0952204176412570e-002
      3.3934640171774534e-002 -9.9306881942421502e-002
      3.2566620444351671e-002 -5.8310728149671406e-002
      -1.7682134453979197e-002 2.1407621568211112e-002
      -2.5094124024364502e-002 6.4192590705547609e-003
      1.1353015718045371e-002 -5.1546306015557146e-002
      6.0797811781973216e-002 -1.3194144131189933e-001
      9.7999369183120980e-002 1.0300262837322012e-001
      4.7317647957671731e-002 -2.4465507078030076e-002
      1.2238543956667420e-002 -7.2169876694297239e-002
      3.0579967843758249e-001 6.3543462659702453e-003
      2.8903686920269327e-002 -5.9216800722457393e-002
      4.1566669834234592e-002 2.0556049745485198e-002
      2.7295425187820192e-002 2.6485945394905393e-003
      1.2422234098100358e-005 9.5189409944609338e-003
      4.3349316636332354e-002 -8.7479515252349468e-002
      3.7627460086062638e-002 1.0462569926683216e-001
      -7.3505004689574632e-002 -2.5421886236550652e-002
      -3.7197070190185817e-002 -1.4813268931732820e-001
      -8.0613947095269870e-003 -6.6993925966824214e-002
      1.3096680444000761e-002 -3.6571135564069379e-002
      3.5648537115934943e-002 -3.9119258926193209e-002
      3.9084932124059453e-002 -4.0650204549592769e-002
      -3.6823882944401489e-003 -3.5589783890666291e-002
      9.1674748384632798e-002 5.8976417213582653e-004
      8.1076729734800831e-002 -1.6949187445962247e-002
      2.7883157315927398e-002 -1.3920690864125002e-001
      2.7385243865037431e-002 -5.0276871234833771e-002
      -4.0306185881179932e-003 -1.0403178938387693e-001
      -1.0810311447255719e-001 3.6351760564815296e-002
      2.0719818625946018e-002 -5.4099290771270743e-002
      -5.2615992212019333e-002 -7.4336200535988772e-002
      -7.7174999588628555e-003 -3.9135413008361736e-002
      3.3886650017491533e-002 1.5754666645141312e-002
      1.3110204548487622e-001 -5.9576384385228505e-002
      8.2440363232807956e-002 -2.7815310946116077e-002
      -1.0065315911516344e-001 -1.9472199977487309e-002
      4.0305224470243824e-002 -8.2629292667513107e-002
      5.4637114225066941e-003 -5.7426487590596358e-003
      9.2542863104875139e-002 2.0653427526839158e-002
      1.8475885191095531e-001 1.0508381691056759e-002
      1.5097486152727640e-001 -4.8280466906481072e-002
      -8.9278515906141581e-002 -6.9568348964410887e-002
      3.1188999850358778e-002 -7.2027610074754903e-002
      5.6941957770832640e-003 -8.6432049556135038e-002
      -5.4902516711255969e-002 9.3174840651102508e-004
      -1.9070402840090117e-001 -1.5415498733427319e-001
      -5.7744684352019723e-002 1.2922906142472282e-001
      -1.8869942114159689e-002 -1.7948630773087759e-001
      1.3570894498567373e-002 -1.0447113252227223e-001
      -1.5319235476102153e-001 -9.7258356862412368e-002
      5.5308904363544208e-002 -6.1034196770852672e-002
      -1.1284302996806406e-001 3.1730495528203916e-002
      1.3421748502665433e-002 2.1437358132008824e-002
      5.7689031178900313e-002 -9.2348822806611011e-002
      -4.9101076767941662e-002 1.8267088049615188e-001
      -6.8748267875235414e-002 -1.8589950576053860e-001
      2.4674802316330249e-002 -4.3671307766111514e-002
      6.1458421762899305e-002 -1.7794994375866535e-001
      7.5460178249985910e-002 7.5541532266796149e-002
      1.0391919389537406e-001 7.1967658933473674e-003
      9.8929646230883378e-002 -4.8216120325020768e-002
      -5.0725020158093680e-002 1.4003314181871160e-001
      8.5374128760995621e-002 -8.0051401469241723e-002
      1.5906979561410581e-001 8.9383361342612322e-002
      -1.4231859071768452e-002 -1.7838660390985927e-002
      2.1286704997217496e-002 -7.7945033726707774e-002
      3.8806727748281922e-002 3.6445215347737293e-002
      3.3376603191303436e-002 3.0054806841325159e-003
      4.7784341891244038e-002 2.2665352432387936e-001
      -1.4410646113591100e-001 2.1409039428619058e-002
      -3.9517622675854000e-002 6.7319491105277185e-002
      -4.8379345573392102e-002 6.9305325806644641e-002
      -6.1164833497128375e-003 1.2414532062450878e-002
      3.0762543492076508e-002 -3.7334883075211350e-002
      -1.5490676712716788e-002 6.5369878657432823e-002
      3.2809458921845752e-002 -5.0947294334917487e-002
      -3.7696252804659415e-002 6.0651460645939827e-002
      7.2638379980231010e-002 6.8201501656656532e-002
      2.9255773567417584e-002 6.8210722807909643e-002
      -2.6510724261150496e-002 -3.2818069322679701e-002
      -5.1141286623673066e-002 -4.4007518940146657e-002
      -3.1605831685590974e-002 -3.0458709543658133e-002
      3.4214810795942664e-002 6.3732923198510344e-002
      -5.6313664741668268e-002 -4.3169838669764683e-002
      -6.6601208518027061e-002 3.3799549641356952e-002
      -4.8208821708886934e-002 2.8680946929360844e-002
      -6.3015472605808228e-003 -9.5632087870130677e-003
      3.4672726815531518e-002 -2.6154635257842019e-003
      1.0025465711265168e-001 -3.2977368960726103e-002
      8.9597261776840041e-003 4.3523721407369024e-003
      5.4395935763983952e-002 -1.0325695082474873e-002
      3.0463597434164248e-002 2.5396309348378304e-002
      5.9272199238237580e-002 3.1723645094661176e-002
      -1.9975731682954769e-002 7.5221082264784647e-002
      -4.9087875575181822e-002 -2.6388682274916427e-002
      6.9735792300763724e-002 -3.8723435996638203e-002
      7.9174382703525881e-003 7.2619833363748623e-002
      7.1481667514152275e-002 -4.9210186483749238e-002
      1.0898775118105497e-002 4.3901130493432305e-002
      -4.4698593728053855e-002 4.7074175450413050e-002
      2.8474786953040128e-002 9.9056533187343504e-002
      2.9567691464010698e-002 9.5882357065799145e-002
      2.7717186655023939e-002 -3.7616742355168792e-002
      1.7767287337878968e-002 -1.7654033211319548e-002
      4.9146061888734334e-002 7.0192800597844870e-002
      -7.7111472851164223e-002 -6.5501818313284277e-002
      -1.8593520520978943e-002 3.9621662730441445e-002
      -1.4467834515112786e-002 1.5555543671134775e-001
      1.1534021367051213e-002 1.0483517416293499e-001
      1.4789762356491249e-002 -5.8586833570122059e-002
      3.1556731541016271e-002 4.1981999458487157e-002
      4.1323985276172280e-002 1.8144873796323263e-002
      2.7774554759500903e-004 3.6430303778464332e-002
      -5.8568008333216827e-002 -2.2360977569316612e-002
      -8.5101557790938046e-002 -2.0521430133087141e-003
      -8.6309337326165858e-003 8.3014083596437138e-002
      7.1989373352459793e-002 -6.9240351443642873e-003
      -7.6444403987661641e-002 5.5558950952056844e-003
      6.1807164836367237e-002 -4.8720909392136066e-002
      -1.0780081819830997e-001 6.7727528264846917e-002
      6.1462677061369528e-002 -8.5023076752930027e-002
      5.3598210339486946e-002 5.1134719793850545e-003
      1.1713887209308450e-002 2.1373770449510249e-002
      -6.5046957787121190e-002 1.0366150997013857e-001
      -5.7168535475166031e-002 -4.5606966165747935e-002
      1.3255365189485813e-001 -8.2751313501917639e-002
      -1.0960207519116428e-002 5.4187961141266290e-002
      -6.3474150297991971e-002 3.2381630136628682e-002
      -1.7937428539462300e-002 -6.9666611967456313e-002
      -5.9207075849741456e-002 4.1515156025340359e-002
      1.3227637302871126e-002 1.0787454885654256e-001
      3.0646024705339361e-003 6.7187648763502056e-002
      4.7375275900080005e-002 -2.1585682758745568e-002
      1.9941644727752294e-002 4.5383065443187730e-002
      7.7781684933915338e-002 -1.3870303807995685e-002
      1.2128509573487439e-002 -9.3777378617279413e-003
      -7.8548779774814934e-002 -3.3476982639309392e-002
      5.7438384422154647e-002 6.8152778469392272e-002
      -5.8167171514978298e-003 6.8407096858248459e-002
      6.9569052776880413e-002 -3.2587067035946632e-002
      1.8517341281556628e-003 1.3497591036654773e-002
      4.6889155237945825e-002 4.8028760985585452e-003
      -2.3927412682999208e-002 1.0029101720820363e-001
      -6.0998427071073419e-002 -8.2166508547475384e-002
      -9.4221864486221898e-002 -3.7186849096364161e-002
      -3.6440897039146387e-002 3.2989716500926524e-003
      -3.4323543631206606e-002 -2.7441530934818176e-002
      -6.8661405358395974e-002 7.5393082616800108e-003
      4.4908632258458092e-002 -7.0680344581741841e-002
      -9.8761344903820603e-002 -1.1029665280232087e-002
      2.2064318587076397e-002 -6.9766039521160908e-002
      2.5400641848233423e-002 2.0863890043643337e-003
      -7.2573981550055110e-003 2.4313144201753078e-002
      5.4291808395296945e-003 2.0012369792331494e-001
      -1.3096044025929263e-001 -3.6915282007958045e-002
      5.3718888644482501e-002 -3.1832792650583412e-002
      6.1496278155571760e-003 7.8948578406314501e-002
      4.5114938310175011e-002 -4.5259645223596288e-002
      -2.6179849537503030e-002 -4.0407021221878142e-002
      -4.2620335736509912e-001 -8.0591822965599469e-002
      1.4908080534513585e-002 -4.0142928668735353e-002
      -8.5017271835529734e-002 -6.3618310483704796e-002
      -1.4518311444104440e-002 5.8481121873677828e-002
      -5.6532093556436257e-002 -4.6235235658052674e-002
      -5.1800777969171326e-002 8.3409273125430741e-002
      2.2610951502004529e-002 -7.0587957287483391e-002
      -3.0211120580195809e-002 -3.9887112623597315e-002
      8.3274430605186134e-002 7.9664048446478522e-002
      5.0491441723550551e-002 2.0320627259793589e-003
      -1.6167676778782603e-001 1.2850926893515829e-002
      -1.0305025417740767e-001 1.1538073397201413e-003
      -1.2290561501134532e-001 4.0184967083093021e-002
      6.0965954121126333e-004 5.0057002112893377e-003
      -2.1760338497970735e-002 -8.0790302718302939e-002
      -1.4124824511792330e-001 2.2886870114758498e-002
      -4.3944749951228906e-002 -1.4837376122823501e-002
      -7.2113291770611293e-002 -6.4623340026639692e-002
      1.2612681545887031e-001 -6.7718504227132492e-002
      5.5733056114954771e-002 1.0332289887499897e-001
      1.2641631139199813e-001 -1.3291163171678682e-002
      2.9391496992903499e-002 2.1761312063763855e-001
      -4.4573968042040918e-002 4.7950855649844609e-002
      -2.4124806101677051e-002 -5.1043467613375415e-002
      -4.3808718043894402e-003 -5.0872846728364542e-002
      -3.9131825921232974e-002 -5.1655754963329414e-002
      7.7681306368173914e-002 -8.6526353732924669e-003
      -6.6043347064357813e-002 1.4469707818816796e-001
      3.8995776072780639e-002 3.4145772138086125e-003
      -7.4427770092467968e-002 4.9587393266199105e-002
      -4.1336463856407401e-004 5.9408542660257774e-002
      -1.0709268767195128e-001 7.3930405529408355e-002
      -4.6378719518919781e-002 3.2804151355863537e-002
      -3.0626465275729913e-002 -7.4871361703454167e-002
      1.0642078795849066e-001 -5.5456235318552941e-002
      -2.1502095762704510e-002 -4.7015814396853886e-002
      3.0360902314730803e-001 3.5741848657876313e-001
      2.8661236752796937e-001 9.1729848368123409e-002
      -3.8708378705912580e-002 -7.9475043877048276e-002
      -2.9432095790004602e-002 2.0089308863630560e-002
      4.0533867151994196e-002 1.2455033749312287e-002
      6.0954469556740512e-003 -9.0923082886230716e-002
      -3.7465010666910153e-004 -7.3087893832573012e-002
      8.6468782802362767e-002 -2.6714390705185231e-001
      -5.6249457064553234e-002 9.0923943325467591e-002
      2.5268894439461953e-002 -1.8591420662110471e-003
      2.5915965121834766e-001 4.6472046643043038e-002
      4.1506226901171200e-002 4.8338848669115156e-002
      -5.8441333060089133e-002 1.4990442140244550e-001
      -2.4492632323998942e-001 -1.4740785567664053e-001
      -4.6091859053996813e-002 -5.7912853324752281e-002
      -2.7130527196960874e-001 1.3729383653693697e-001
      5.4792208047515362e-002 -2.2503614547008247e-001
      6.7325296178705890e-002 4.1260548759296488e-002
      -3.9939824863145477e-002 -2.1737842323067760e-001
      1.7390361066039736e-001 7.2914155771588839e-003
      -1.0231356640257987e-001 4.3333347785826690e-002
      1.4760903269053885e-001 -8.7673813144329385e-002
      6.9594835967041260e-002 -9.4864137091497228e-002
      1.5785065160890127e-001 -6.8874161372105863e-002
      6.3892264419300993e-001 -7.1176206171195203e-002
      1.0999251755132181e-001 -7.4905439117036857e-002
      3.1302249696629864e-001 1.8617850128134700e-001
      -1.7446787059301291e-002 3.3580138609028992e-001
      9.2814931719268981e-002 1.9436894589954762e-001
      1.2568797587391264e-001 -2.0872564045897157e-001
      5.8299430809753854e-002 2.6232420384687441e-002
      -1.3275089053311948e-001 1.9757792214021429e-002
      1.0797972394187431e-001 -1.2337189943488043e-001
      2.7377737206613986e-002 5.0919426730713875e-002
      -2.0099519940733404e-001 -5.6247168890842941e-002
      -6.4597864910385647e-002 8.8046236264157016e-002
      1.5759965203234451e-002 -1.1927392908350182e-001
      -1.3724654436086769e-001 7.5867363986671973e-002
      4.7870242545362297e-002 4.7545445170747769e-002
      -1.1578959814277782e-003 -4.6101327162848253e-002
      1.5751434777650543e-002 -2.7495676539458044e-002
      2.8852185722307907e-002 -3.2785657827233805e-001
      2.0185854925921856e-002 -1.8032220090531986e-001
      1.9407830510227542e-002 1.2116222297894522e-001
      -3.3220766104720190e-002 1.3653383000386979e-001
      5.6784873868937810e-002 -3.2489346729252501e-002
      -4.0372190784630030e-002 3.4841910775445751e-003
      5.0191333210559338e-003 1.6789673473367822e-001
      6.3761377788909016e-002 -1.1170200585389381e-001
      3.2455493379103022e-002 -3.3500253186476031e-001
      1.6613839777245484e-001 -4.2625570142434309e-002
      -1.0842162534156817e-001 9.4513645948034380e-002
      -9.5697845975248871e-002 2.5862670687865263e-001
      -1.1070933947233776e-001 -1.6890806115723148e-001
      6.5473451209624473e-002 -2.1896907866544458e-002
      4.7360565970265729e-002 -1.6874221524018174e-001
      8.1594232866005603e-002 -4.7158860733897433e-002
      -2.1349289954559182e-002 -1.9761397124295671e-002
      -1.1995151947064980e-001 1.8670491061150374e-002
      -3.1851652331368156e-002 -3.3271858634279464e-002
      -8.7067375878610520e-002 -1.3513591380540665e-001
      -5.2534881479747554e-003 -1.5480703486436747e-002
      -3.4505095616140534e-002 -1.0796924901270104e-001
      -8.3960553518321861e-003 -1.0921469454106149e-001
      8.3349594219131296e-002 5.3661432556429030e-002
      3.0151208849370077e-002 1.5644129718992948e-002
      8.3600759216576045e-002 5.0659636290506169e-002
      -1.9546327849989442e-002 4.6884465848368091e-002
      1.2224109843153506e-001 3.1757939057857253e-002
      1.1944671557705859e-001 4.1809909595914796e-002
      -4.8883339138431257e-002 -5.1523113771880347e-002
      5.0917697840605389e-002 1.1178287769639574e-001
      1.2976364212717209e-002 -2.1497597455348376e-003
      5.8130907244829430e-002 6.5261178544724935e-002
      7.4469166725778541e-003 -3.9764808873517000e-002
      3.9136876408803610e-002 -3.7925249219854650e-002
      2.1338375449587780e-002 1.0474775067175392e-001
      -2.3077593558725181e-002 4.1566771813052504e-003
      9.8523960661733283e-003 8.4161611330176370e-002
      -2.7335124327269443e-002 1.2291138761199658e-001
      -1.2802520074899887e-001 3.4378660642021157e-002
      -5.4104440008227908e-002 -1.2094495606607668e-001
      -7.7007551374672814e-002 8.6152492625652752e-003
      8.6503085965343174e-002 8.4905457266534812e-002
      8.3146596934644812e-001 2.0415973529287962e-001
      -6.9706398642683631e-002 1.3981445322872160e-001
      3.5132659717981862e-001 2.1547959377102524e-001
      -1.2212017677938485e-001 2.1175283059316308e-001
      1.7359243115999498e-001 2.7426547590646272e-001
      2.2264437471612902e-001 -2.8335233426802003e-001
      -1.1359905391485247e-002 -1.3794141763849759e-002
      -6.1272735460828190e-002 6.0542189756356994e-002
      2.3499224048769488e-002 -1.7560370112807402e-001
      -2.5082482438209045e-002 1.2306997435845915e-001
      2.0579264641067138e-001 -4.4323281414099719e-002
      1.5506164423665708e-001 -4.3758744266040005e-002
      1.4649839954068122e-001 -1.4119093885820408e-001
      -5.8706214213861893e-002 4.2353568192770245e-002
      -1.0317299636459536e-002 4.7722399341548358e-002
      2.3248424994603206e-001 -2.8331848655979784e-002
      1.3852784498593973e-001 6.1120651850903275e-003
      1.5345584404441939e-001 -1.9970460811977075e-001
      -1.7139839973259516e-001 5.0966600807102240e-002
      1.0216356607707205e-002 -2.6824044502751287e-001
      -1.8894971825150833e-001 1.5934048163057460e-001
      2.4196862625420427e-002 -1.7643156018179171e-001
      -8.1959896729814127e-003 6.5927436326000760e-002
      9.1234518759429853e-002 2.3814341908378045e-001
      6.3734607544000690e-002 2.9696132135700316e-002
      9.0563077495929470e-002 -1.4846131309891741e-001
      -7.5904808528091158e-002 9.8384565146968167e-002
      2.0531597966070192e-001 -2.1631438725851193e-001
      -1.3988818308685605e-001 9.1860918736110506e-002
      1.5905019498232303e-001 -1.9970291756657790e-001
      -2.2041254759733747e-001 1.3659325758752776e-002
      -1.2463655719902059e-001 1.0367871134896563e-001
      7.9325865720448488e-002 1.4620905653418959e-001
      -8.7838873772967660e-002 7.2499545948743471e-002
      4.9760905227283846e-002 6.3596438882496872e-002
      5.1535948444003242e-002 -1.4595695587527099e-002
      7.8604624191660737e-003 -5.3499029941710595e-002
      -3.1059370605491039e-002 4.6259126517222563e-003
      2.0279018128560224e-002 1.7410824694617302e-001
      5.7280642768027992e-003 8.3055177044306927e-002
      8.6610806697996229e-002 1.9426943634796249e-002
      -5.3444674318046226e-002 -1.1211369962650111e-002
      4.6712216364093416e-002 -3.2281439140605828e-002
      9.9952540481897823e-003 9.4051657649279627e-002
      -7.0268213469033516e-002 4.3056334393240032e-002
      8.4254191776847506e-003 -8.5115057692847079e-003
      -4.6849728043845039e-002 1.2097425105621148e-001
      7.4724215303560423e-002 1.2566145721410540e-002
      -1.7498679754276169e-002 7.9044514807842137e-002
      1.0543241241501683e-001 -2.1873119512623170e-002
      -7.8077227790293566e-002 8.8442099155074269e-002
      3.4277683889246673e-002 -7.8188695526257845e-002
      2.3323780539883897e-002 -1.8420801932165293e-002
      2.1865786864071188e-002 1.0655646480683043e-001
      -1.1140080273791379e-001 9.8485238728550431e-002
      -9.6829659761970749e-002 -1.1945266603448246e-002
      6.7779700364322695e-002 3.6998653796544594e-002
      -4.3771093692297425e-002 -4.6363408260817078e-004
      -6.7536169092277776e-002 -2.0207367354269125e-003
      -3.7401594962341966e-002 -5.3065555445813213e-002
      -9.9883737445540008e-002 2.4460956969764063e-002
      -1.0514898313045834e-002 -3.3714445115094575e-002
      -1.7598173930197447e-001 -1.5303550855347275e-001
      7.2874812512324957e-002 -6.7533023011649498e-002
      6.0750381223690572e-003 -9.0457101577666441e-002
      -1.4314472312059075e-002 5.5372541062554490e-003
      8.3648939463681488e-002 5.9033239011100289e-002
      4.7274657352327783e-002 2.6258711761599687e-002
      3.2403219760792899e-003 2.3755631233366714e-002
      -2.2284922149400199e-002 -4.4473326460668670e-002
      1.8344178279749206e-002 -1.9563845901230562e-002
      -5.4042312566118911e-002 -3.3375593079804290e-002
      -3.3476095746192903e-002 1.2705049039413706e-002
      7.2530074656140586e-002 -5.2326205616336878e-002
      -1.5892876529474072e-002 6.7440107733551602e-003
      -7.3039320568709515e-002 1.3466349817079211e-002
      3.5631747190389765e-002 3.2413947230131850e-002
      -5.1876307546189840e-002 4.2095993156549556e-002
      1.5708454858742272e-002 3.7261493401364539e-002
      -8.0069758609409195e-002 -4.8191800780165203e-002
      5.0499021471971710e-002 -1.0342444792469495e-001
      -6.7295166584866090e-002 2.4316726670726020e-002
      -3.6229928893396539e-002 -3.7134985704894104e-002
      -3.3662472761413285e-002 -8.8248048430389581e-002
      -2.3647873861239059e-002 5.3611436698457375e-003
      3.1852508951583099e-002 -1.6372331698624169e-002
      -5.8351727434344941e-002 -5.8985023885219180e-002
      6.3732682781468111e-002 6.2725798341419781e-002
      3.6225478750215187e-002 -9.5153900919043299e-002
      1.6402280102844401e-002 8.3473495959652338e-002
      -5.2812495627417810e-001 -7.3232859885250370e-002
      -3.7850565198392812e-002 -1.3448227699849449e-001
      -1.1168835127366528e-001 -1.2849315721674634e-001
      -2.5248285291717552e-002 -1.1219019269971198e-001
      -1.6024201126467788e-001 -2.4762589031942606e-002
      -1.2749167971843658e-001 2.0216153040885282e-001
      -8.8569231085347574e-002 -3.7358452502760112e-002
      4.6485428334181435e-002 -1.3850247643198144e-001
      -5.7808164911801643e-002 1.1803733073195299e-001
      2.7314018406865534e-003 -6.7951896458017622e-002
      5.0074628305265385e-002 1.3407336025406152e-001
      -3.8408607899841872e-002 7.7902329991833240e-003
      4.0456399637121020e-002 6.8676164434577899e-002
      2.4879314006264738e-002 -5.6822062286373889e-003
      4.8339518760516766e-002 5.9029034932075293e-002
      5.4735367388245200e-002 -3.8991196684803678e-002
      -6.7184272059824732e-002 3.2967838428726894e-002
      -7.8892795162979062e-002 2.1417717689695734e-001
      8.3585110639086177e-002 1.1110624719699738e-001
      3.2348946138600093e-002 4.6035130346598736e-002
      1.4053465523859091e-001 -7.5869259909526865e-002
      -1.4680519465715410e-002 4.5188238147592916e-002
      2.5239888378509018e-002 -5.6206747375609552e-002
      -9.2999920159007682e-002 -1.3985142070916090e-001
      -6.9777229222616158e-002 -4.4345643132691496e-003
      -3.5847237415441109e-002 2.5379361303938647e-001
      -1.0130042438882562e-001 8.8969002795557597e-002
      -3.8942263605824208e-002 4.7659294548845990e-004
      -1.2015159172018588e-002 -8.0644939871314408e-002
      -3.4108194672914885e-002 5.0470932693442223e-002
      -1.9127353596207011e-001 -6.8649595464155763e-002
      -7.1682850957453748e-002 7.7779640299142097e-002
      -1.7287456324735390e-001 -8.4209918550396654e-002
      -8.8506975473313220e-003 -4.7932252131669309e-002
      4.3055119442186866e-002 -7.7737108081718700e-002
      -7.2472014260342207e-002 1.2233823691245202e-001
      2.1000498006859191e-003 7.5786326254254438e-002
      1.4829947685680270e-001 5.2628323755297544e-002
      -9.8556556792749658e-003 1.4971019246845355e-002
      -1.6713963340333562e-002 -9.4226385362726442e-002
      -1.5505044555297032e-001 -1.7335413802870958e-002
      -1.4883297729958309e-001 -5.5764203240471308e-002
      -1.6475568582843697e-001 -2.9119360084452560e-002
      2.6707994949954097e-002 -1.2373794405447285e-001
      -8.6903067593976896e-002 -1.9263242308077614e-003
      -4.9765424934826781e-002 4.4770339087172983e-002
      4.1158875662699955e-002 -1.4059915944833643e-002
      -1.6634430305165285e-001 1.5402654117842165e-002
      5.2322731659035726e-002 3.3762846893026520e-002
      -5.0423533280302732e-002 5.4574912020575479e-003
      7.1732532685891970e-002 -8.3413711880513691e-002
      -4.9647113029108340e-002 1.3353591291381943e-002
      -4.0792356941704584e-002 -4.0072291711892985e-002
      7.6711521900086179e-003 -8.3499346069361713e-002
      4.0551804861641921e-002 -1.6188635548327848e-002
      7.4660310307295807e-002 5.6036535620447456e-002
      -4.1590179356938685e-002 -1.0499831781725109e-002
      6.7497068524499304e-003 7.0199000159100022e-002
      2.2260827526243182e-001 -7.8320699829861368e-002
      1.2322815850640342e-002 8.9891978859352850e-002
      1.3459414352214796e-001 1.8013297313006757e-002
      1.3421756130453016e-001 -1.2455860356840706e-001
      -5.9991102507583743e-002 -7.7246253987546767e-002
      7.9424677721060891e-002 -1.2750135951132782e-001
      -1.3589215044486824e-001 -1.3692825052204929e-001
      -1.0190245751485041e-001 1.1804373607080375e-001
      1.6051618553856800e-001 1.8126486581579015e-001
      1.0699231333588849e-001 6.3798615065512432e-002
      -5.2249884759669130e-002 7.9094161659612708e-002
      6.5557519105573461e-002 5.9646432137572938e-002
      -1.1125173801101569e-002 -4.3858860244956263e-002
      3.1000559146716244e-002 1.5507268553477570e-002
      3.1113937058412044e-002 1.4509081031854401e-001
      3.3004390219037213e-002 -1.1154644616045967e-001
      1.5052212472106719e-002 7.2393640778240065e-002
      -5.9393878623977950e-002 3.8275597126702761e-002
      5.8138387276832078e-002 5.4166384167976277e-002
      1.3111235670291727e-001 8.6544705588627147e-002
      -1.5541172715634521e-002 -5.9972004894663651e-002
      -1.3648856410245258e-001 9.5498161967273676e-002
      3.3079244052261099e-003 7.3366300665785616e-002
      -1.2743647619801327e-001 1.4633348079794437e-001
      -6.7557608555741944e-002 -1.2758241716075661e-001
      9.1393720413305138e-002 -8.9530825666092176e-002
      -1.0962738736448699e-001 -1.2445744905935163e-001
      6.6962690491955260e-002 2.1450998419056767e-002
      5.0604918635314564e-002 -1.1170216881281718e-001
      -9.0221258129218176e-002 2.0185126621177656e-002
      -1.7914389704020064e-001 4.9316819560183363e-002
      9.5881379131834782e-002 9.9682808643572259e-003
      6.0385533243715128e-001 1.4310385267524894e-001
      2.1645483723046480e-002 -6.8298294732982469e-003
      -6.7991824977126039e-002 -2.9597709607903713e-002
      5.7470070247214525e-002 -1.6217886901357708e-002
      8.8491602417199389e-002 1.0174126399079836e-002
      1.2669944743698963e-001 -4.2228608426283891e-002
      -2.1631956432810476e-002 -4.6884996473621501e-002
      -1.1031231176186206e-001 1.0012253358580372e-001
      6.6492711722210149e-002 2.3035936467332208e-002
      5.0836521011146260e-002 4.0054472353361244e-002
      -2.0839671169512634e-002 -7.9084080158582565e-002
      -3.2673606785810598e-002 -6.5093934318721902e-002
      -8.2190840450324001e-002 -2.4654873792898210e-002
      -1.6664519774299347e-003 3.1121581758235498e-002
      3.3315900240896305e-002 -1.1541013029866286e-002
      5.6559458855170788e-003 1.0997589061541775e-002
      5.0572594304287760e-002 8.2286569164170556e-002
      3.9871311964744652e-002 -4.7763781618740057e-002
      -3.2276596794371744e-003 -7.8255874560093260e-003
      8.9189789962884920e-003 -3.4814062442710694e-002
      9.8340548939360971e-003 2.4811964279934793e-002
      4.7810855212837636e-002 -7.8523481226011396e-002
      -1.4763387460648916e-001 1.0304868193636886e-001
      8.6194930739399815e-003 5.9213612197081371e-002
      -1.6178265788187037e-002 1.0284888092507335e-001
      3.5075685422297241e-002 -8.9014019082212237e-002
      -7.0473522881250875e-002 -8.0684475076666651e-002
      4.8404794812351007e-002 1.0047826139354317e-001
      -1.0798876377114940e-001 2.5715050812290835e-002
      5.9513816393691209e-002 -2.4624583701786284e-002
      -7.8672324973921431e-002 5.6148196912710099e-002
      -5.0276195859318161e-002 3.8653100412306435e-002
      4.0644084213508742e-002 6.0931418979442542e-002
      -2.9056425740150386e-002 -3.0646169682988784e-002
      3.6983705896712654e-002 5.0113572193457266e-003
      1.6231089425267086e-002 6.0078095248490872e-002
      -9.3142417767403868e-002 -8.8473895467421543e-002
      -1.2069709453245672e-002 8.1641644614008343e-002
      1.0987629676441457e-002 9.9260817820489233e-002
      3.2843958300899277e-002 8.9069044231370020e-002
      -1.0073330576046646e-002 4.5257983662599865e-002
      2.7085014652190813e-002 -9.6431723198565356e-003
      2.3194121629763337e-002 -1.5522427189979223e-002
      1.8047582374873257e-003 6.1571247972580047e-002
      -2.7560930289675125e-002 3.4378625894551970e-002
      1.6776232625538755e-002 2.7674260464720392e-003
      -3.1282214362602423e-002 1.0513793087633655e-001
      6.2954943863464119e-002 1.0506508511050084e-002
      2.0051707505414195e-002 6.1948076880668494e-002
      9.2107341992804334e-002 -8.8437221103233654e-002
      -2.6465430061329200e-002 5.0492511026023722e-002
      5.8034431583748283e-002 -7.9206114488986498e-002
      4.0836731248906036e-002 8.2181713285035679e-002
      5.6323612521633017e-002 7.4228904894580880e-002
      -7.3675245737374079e-002 -3.1477677320465018e-002
      -7.5783524955163441e-003 1.0159960797123975e-002
      -1.9026796966055606e-002 1.9059262140023629e-002
      6.7489655773530582e-002 -3.5705620394348150e-003
      -6.5462540271362502e-002 -1.1262511782338199e-002
      -5.3076290789790910e-003 -4.4510883026684371e-002
      2.7020822133779959e-001 -8.4766065139567234e-002
      1.1594624517069452e-001 -6.0224618357176164e-002
      3.5642803496014890e-002 -5.8853536012492574e-002
      7.6194239169305233e-002 9.7547077937173543e-002
      -8.9145775112998993e-004 3.9192392051199551e-002
      1.1702607899764454e-002 -1.2251867113217312e-001
      -5.1363162251359042e-002 -6.9397341328549661e-002
      -1.1666988351139385e-001 2.0650999794838737e-003
      1.0866579600118352e-002 -1.7979693597729335e-001
      -4.7794909219298756e-002 -1.5834203364162663e-001
      -9.2946145708571931e-002 -4.4330878359903729e-002
      -3.2561680460235908e-002 5.6937187946751559e-002
      -3.7423316156389191e-002 -4.7209279302550311e-002
      -5.3516119551200364e-002 7.8085516623583540e-002
      4.1495560219029892e-002 -8.8768307623670148e-002
      -4.3441629826882024e-002 5.6437734518321445e-002
      -5.3010776693989195e-002 -1.6194327404961217e-001
      -1.7859988728431664e-001 -1.0911829249166242e-001
      -9.0071566707148453e-003 -1.6279219266560185e-001
      -1.6280434746618742e-002 9.7164299530319256e-002
      -2.8761264816787969e-002 -1.5951433587380026e-001
      6.2675794461214199e-002 -5.7788770393688474e-002
      -4.6776901302771519e-002 1.0806558957422521e-001
      -1.4402080768344203e-001 -2.4990999859951124e-002
      1.6470236920578141e-001 8.9843107122325308e-002
      -5.5437054069299323e-002 -6.3476626241272344e-002
      -1.4800100283293709e-003 -6.1981615210432585e-002
      -3.0724500362830365e-002 3.9259125197194551e-002
      1.2794036021411503e-001 6.7707277989996081e-002
      -1.1591752989418444e-001 9.7124144750718358e-002
      -1.8394190244834671e-002 -6.5708812808607242e-002
      9.0739058168252298e-002 -1.2767014564639978e-001
      6.4110884501250950e-002 3.2506030252170706e-002
      8.7926846787768145e-002 -8.9010526339771620e-002
      -1.5307331918446815e-001 -1.9239067350642385e-002
      -7.7566620432142561e-002 4.0411276931061814e-002
      3.9090905036938677e-002 5.2999536129998297e-002
      6.5879560741775839e-002 -6.5131176380631720e-002
      -1.1662402075661424e-001 -7.2369729197782992e-002
      -1.7100250966189345e-002 -1.1099516183774534e-001
      5.7797510440375559e-002 -4.7272975749864103e-002
      3.3795653666140235e-002 6.0663159068081916e-002
      1.2745433291788069e-001 7.8481427187378328e-002
      -3.5736570736373025e-003 -6.5945397205522852e-002
      1.0399423428750805e-001 4.5983438412437440e-002
      3.0446284255132412e-002 -3.1891939426082538e-002
      -1.5541853742683454e-002 -4.1088990352380249e-002
      3.2707840204072608e-002 1.6570490524592596e-001
      -1.0034681425384655e-002 -3.8205334120460191e-002
      -7.7900647484420840e-002 3.7410371668646671e-002
      2.5672926477227759e-002 -4.9409580024777057e-002
      -6.7901452263478532e-002 -4.1698081865040877e-002
      7.6117095588282193e-003 -8.2122976908020645e-002
      -4.9680955479814153e-002 -7.3533600457461712e-002
      -6.2872924830504459e-003 -2.7760165907949746e-002
      1.1285782505971911e-002 1.6296710097139447e-001
      -2.7249772773663226e-002 -7.3811860058885612e-002
      -1.9574582364755028e-002 1.6636421310681170e-002
      -7.4346020964459081e-002 1.9556822228107562e-002
      -2.3636593296385740e-002 -1.8940184090168777e-002
      -1.8548154858238786e-001 -1.1695988102385911e-001
      9.1374085634443936e-002 -3.7500917317837570e-002
      4.9357906093878759e-002 4.2389142343233419e-002
      -1.6883808016995096e-002 -6.0351335185451372e-003
      -7.3691801025528567e-002 -5.3594537006630465e-002
      -9.9075056151063337e-002 2.2500003319835742e-002
      -1.1788542775899052e-001 -8.2447079480335500e-002
      -7.9957579775137275e-002 5.8117187828954892e-002
      -6.5470964901289272e-002 -3.6487441361928753e-002
      -1.9866962781687595e-002 -2.3797252319603376e-002
      -3.5774984026098193e-003 -2.6029249539660668e-002
      3.4926182442117405e-003 6.5944119514890612e-002
      8.4486965031051520e-002 5.0589772729261170e-002
      -2.1232342031932232e-002 1.0980166345236844e-001
      4.2495558070478290e-004 -2.4552497365232170e-002
      -8.7421424988835331e-002 5.8366014787592180e-002
      -1.3233933499113201e-001 -1.2660945582119962e-001
      -6.1801301877708818e-002 7.5401811779057359e-002
      8.8428526394934443e-003 -1.2248375495134461e-001
      1.1064868593883839e-001 1.0198316590393561e-001
      -1.4873849825773364e-002 -2.0911778152360828e-002
      1.3128311836456527e-001 -1.0221304782764777e-001
      1.0126375619745541e-001 3.6761423645391041e-002
      -5.4393965776895724e-002 -6.7903110486439225e-002
      6.8421100979497301e-002 3.8754663821511923e-002
      -8.1463842057257499e-002 3.5011433468048088e-002
      1.4259805478439502e-001 -3.3026459959206625e-002
      -7.7669217781923365e-003 6.2787190815014604e-002
      5.1176694971928387e-002 2.2005639974205248e-002
      -1.0622687988029390e-001 6.6835264001769965e-002
      1.2662780142425978e-001 9.5345045671925241e-002
      7.0590489770217799e-002 2.8974683160191844e-002
      9.0497869026935907e-002 5.0674596461439229e-002
      5.9365244533666872e-002 -3.7940858145197098e-002
      -8.4741827743173362e-003 2.2209879765337733e-002
      5.6679743774094835e-002 2.1598855693774347e-002
      -4.9802910623763165e-002 -1.2255662699382310e-001
      -8.9477992714888044e-002 4.7320568096910258e-002
      4.1211648697046216e-002 1.2195751600026852e-001
      2.9596635475256747e-002 1.4981413205369740e-001
      1.2800143312895179e-001 -5.1054871259675387e-002
      7.8277844818378309e-002 6.2004772706088132e-002
      6.7429097190196657e-002 1.0750421244686537e-001
      -5.9399042323173418e-002 9.5102014065503934e-002
      -1.1844606416013148e-002 -1.7047665111322593e-003
      3.7117963253990312e-002 -8.6966268409623231e-003
      -5.8627121077860340e-002 1.0404019049221022e-001
      1.5267483209155175e-001 1.3572021406358792e-002
      -7.4661489093349173e-002 -5.7626857996707033e-002
      1.0382868845108116e-001 1.8394697172045112e-002
      -8.0927150019373256e-002 1.3260940559748416e-001
      1.1205696224818935e-001 -3.7324559241098565e-002
      -7.8096968927039698e-002 2.6939484776062120e-002
      5.5008417670336561e-002 2.8274667769027848e-002
      -7.8558343079832227e-002 1.1725895049460047e-001
      -1.0673633663686918e-001 -4.0814601820626774e-002
      7.5085101679147823e-002 -4.3879792711137545e-002
      -9.0320916633763071e-002 -3.0331727362324451e-002
      -1.7966555990947219e-001 7.3506761600503012e-002
      2.5891866297724730e-002 -5.4162122201469085e-002
      1.2448325311188467e-001 4.3285290848460937e-002
      -6.0705659665593818e-002 4.2696832197073570e-002
      -2.8479765533102993e-002 1.5024175108098845e-002
      2.1923927942449073e-003 2.6242821924478282e-002
      3.2297775511628851e-002 -5.9774825415971421e-002
      2.9066647194520682e-002 1.7007093454702225e-002
      -4.2284190958955199e-002 -5.1222118092125075e-002
      -1.1974926569590212e-001 -4.6402962319140270e-004
      7.2679113006349577e-002 8.6569352872706049e-002
      3.2457931048177978e-002 5.6678830111029553e-002
      -6.4708988677374651e-002 -8.6028960193793944e-003
      -1.1781166095939632e-001 -3.6141168786052191e-003
      -1.4532216173378307e-002 -3.2191869803759696e-002
      5.1414220711029270e-003 5.5911892595988506e-002
      -4.9340144847823286e-002 -7.9636871065612680e-002
      -6.5397211216297657e-002 -1.0703263945895380e-002
      -3.9082442850381288e-002 1.4443730493441082e-002
      -3.2330907880011930e-002 -1.0699601631195351e-002
      4.7420151616930514e-002 -1.3486933768273290e-002
      1.3414226774585423e-002 -3.0944090689881139e-002
      5.3382272330375156e-003 1.1181088966369301e-002
      4.5724607651150370e-002 -2.2857878116509845e-002
      -5.4227305254536309e-003 2.7784676426094522e-002
      3.5418049420368039e-002 5.8846725782911564e-002
      -2.1513545752065822e-004 6.8897897435315394e-002
      -3.5068672035881175e-002 -7.3844254652786850e-002
      4.7331458300613118e-002 -4.8537832856657692e-002
      6.5442847364200916e-004 1.3266953142365343e-001
      3.9798068493966894e-002 4.8614735187018782e-003
      -3.5429847275965737e-002 1.5024795651797332e-002
      -2.7681228585516171e-001 -1.4259694885358803e-001
      3.2399165515845089e-002 -8.6138273819898831e-002
      -5.4611036302129365e-002 -2.8559959051804779e-002
      -6.5273460055890534e-003 4.3845260703055132e-002
      -8.3065811234649664e-002 -3.9466939400157081e-002
      -7.7902733348310840e-002 6.0163794615980322e-002
      3.2171344678410874e-001 3.0600861675737123e-001
      2.2902213740652647e-001 -7.4257398745835078e-003
      -1.7237863928298697e-002 -2.1105674123931523e-002
      1.3655742799500725e-002 5.9712934148307461e-003
      -9.8555012217413362e-002 -2.6983159735831674e-003
      -1.1616772350712468e-001 7.8595287259650704e-002
      2.1488427997472030e-002 6.0781114094566879e-002
      -7.7737785539836656e-003 -2.6059940725681974e-001
      -2.6678726488768554e-003 1.2876093322630314e-001
      -7.5485518579696750e-002 -6.9644974237975110e-003
      1.8135045673364408e-001 -1.0167842645372156e-001
      -7.6865287223631647e-003 -3.0044341599648101e-002
      8.5130700209771384e-002 -9.7719176665580762e-002
      -1.7576479777431389e-001 1.2229186984058855e-001
      7.2752320786721725e-002 6.8580140001517423e-002
      -2.0061218745015064e-001 2.8361378387605124e-001
      -7.2577076817901499e-003 -1.8537424575137332e-001
      -1.6539176280590168e-002 -7.8341051135482939e-002
      3.3839234422002061e-002 -3.7317334012176240e-001
      1.7759794820155819e-001 -1.0668543256313071e-002
      7.0200772140483716e-002 -1.3983535244505753e-002
      -1.1586315371688619e-001 6.7043724822960130e-002
      -3.6309999152854135e-002 5.7655801924651806e-002
      -6.7003946261358416e-002 -4.6962298386138961e-002
      -1.3437926191517205e-001 -1.2558983169995305e-001
      7.0705856385644339e-003 1.9031178995295071e-002
      1.0588789609395143e-001 8.6897221787490597e-002
      -3.7315184300949066e-002 1.2082291787702638e-001
      -1.5294912880733036e-002 -5.8606200617257839e-002
      -5.5368129792120878e-002 -4.3251110900135267e-002
      1.4972066573550322e-001 1.3183924738905514e-001
      6.4048870667742569e-003 -1.0723793260080479e-002
      -5.3990224644741092e-003 1.3695902965857688e-002
      -6.2743269532603077e-002 -6.6550827658666781e-002
      -3.9995971149546901e-002 7.1634600810814549e-003
      -9.0815465115001617e-002 1.0021027463833247e-001
      -1.9359748815271905e-002 -2.5879566292960076e-002
      7.6921720127728181e-003 -7.0310889248583738e-002
      -7.4387254986417808e-002 -3.7772469693092940e-002
      -9.6629202219991564e-002 2.0881914282089458e-003
      5.5389654504925070e-002 -1.2658321759769015e-001
      -8.5382291920900383e-002 -7.4432006736934120e-002
      -8.9047500757268271e-003 -8.3393544450230658e-002
      -1.1111137859778064e-001 1.0188214609574234e-001
      -5.8193992974489205e-002 -2.2503150882678693e-003
      -9.2410333353229235e-002 2.0777514019722259e-002
      8.7832297848044097e-002 1.7023591163122388e-002
      -1.2717392247496748e-001 -6.7624315188631615e-002
      1.0015624307654933e-001 -1.0543622917433472e-001
      1.8445926319678403e-002 -5.1106651851155573e-002
      1.2306642773562054e-001 8.8724880656207098e-003
      -7.2853829482761034e-002 5.0777513495666185e-002
      6.0771540996711226e-002 2.1053715224626287e-002
      -1.3251668070521080e-001 6.9642604256947224e-002
      -1.3111232972487841e-001 -1.0126479970614660e-001
      -5.8715937792819868e-002 -8.8330485391348093e-002
      5.3434832247576856e-002 -3.2385491087673361e-003
      -1.1066342487465886e-001 1.2800134525774620e-001
      -3.9457901266304815e-002 -2.6038463619059587e-003
      -4.7559403365091374e-002 1.7455647893625664e-002
      2.4731120814164759e-002 6.1773697276619934e-003
      1.0236881802963334e-003 1.8108337191328400e-002
      2.2748753410107392e-003 -1.4749207486385804e-001
      -9.4070650997187463e-003 -1.1478338807338094e-001
      -1.0143509592649184e-001 8.2938267737952195e-002
      -4.0022703572859891e-002 -3.5708698183407023e-002
      -1.2536969750539128e-002 -4.8538981591524755e-002
      -7.4089149023627834e-003 1.2101167819063457e-002
      6.8311493852442159e-002 3.5953850305789271e-002
      6.4653959142075904e-002 5.3737717889903377e-002
      -3.7933763717179049e-003 -1.2705636015476923e-001
      1.3749386021740469e-002 -6.3113474731189570e-002
      7.4258172061737918e-002 -6.7659204896682590e-002
      2.3854345590188900e-002 1.1416186426275918e-001
      5.3030676134833941e-002 3.3247663489234136e-002
      1.2886881979900093e-004 3.8839444716471813e-002
      5.9287364558851578e-002 2.9018616021117296e-002
      -3.0212166937206922e-003 2.3799634482728489e-002
      9.5736975923888107e-002 1.4806787365015308e-002
      -1.9255864479849696e-002 -1.5792355795730184e-002
      -3.0695345030121862e-002 1.3114014697288776e-001
      -5.5847840231300044e-002 -1.0298449582679506e-001
      2.7019277654356372e-002 3.4048114033548106e-002
      1.5386694007987917e-002 8.9032097678510100e-002
      -6.7309425469696219e-002 -1.1126224666299227e-001
      -3.7178767697560185e-002 -1.7748484698611083e-001
      1.2486969649378558e-001 1.7910472244411210e-002
      3.7746567928256473e-002 1.3022523854870660e-001
      -8.4935864871036063e-002 6.0809016743091297e-002
      -3.2826223258344842e-003 -3.6596336726693192e-002
      2.1381359589104701e-001 8.3918233438411191e-002
      -2.9910135064531523e-002 -7.2316091118421577e-002
      4.2243439304325607e-002 -8.4319562448297039e-002
      -3.0286647246192740e-002 -1.1698216025989357e-001
      -1.1658992773351617e-002 7.8450815461639192e-002
      -9.5611157594122656e-002 7.2532764703810385e-002
      -2.3524020963407503e-002 -5.5192002860692549e-002
      -3.2286934527537788e-002 1.0168261348079164e-002
      1.0419319481480649e-001 3.7332062446331443e-002
      5.9530410360358915e-002 -5.3227821891428655e-002
      4.2202676341348694e-002 -9.8818430825608927e-002
      -7.4171642455884312e-002 -2.8994493000135502e-002
      8.1311042227971836e-002 1.3635928885711090e-002
      -2.4546199030306061e-002 1.7510360454971693e-001
      5.6290037104250110e-002 -3.5258226233339414e-002
      -5.9169693111600356e-002 6.3003602587173024e-002
      -5.0557907009743342e-004 1.0671005543457159e-002
      -2.0317633539748672e-001 2.1451038782865958e-002
      6.2547995154673783e-002 -1.7896766588320603e-001
      3.3274312334708789e-002 1.9308637424116142e-002
      -1.4715951393772377e-002 3.9066971706762058e-002
      -5.9190805157650232e-002 1.5493484244632148e-002
      -2.5777460422257429e-002 5.4419740638042474e-002
      -1.7003088366784461e-001 -4.7758668463872165e-003
      5.0391373743023993e-001 1.2960548791551513e-001
      -6.4021054527870795e-003 1.1383719970803456e-001
      1.4493751319809789e-001 9.2162281920265543e-002
      -7.0931991706188025e-002 3.2695218239796028e-002
      9.5065196060340570e-002 5.6610359579227644e-002
      3.8979268918304451e-002 -1.3253525750414669e-001
      -1.7893584394557499e-001 -1.4825771582103067e-001
      -6.7424335116896966e-002 1.3225947488528247e-001
      -4.4433922489380662e-002 -1.6895826326686245e-001
      -1.0778430844210122e-002 7.1093317121485491e-002
      1.3580739459441113e-001 -1.0431686464670710e-001
      1.9159194704339721e-001 -8.1841953056291203e-002
      1.0831285097830962e-001 -3.1339321687606780e-002
      2.7071562667273893e-002 5.1175700441479108e-002
      -3.7421307987802369e-002 -4.9402994387854185e-002
      1.7110428870052114e-002 9.5749968651351713e-002
      -1.8480179697539408e-002 -1.2052683958521755e-002
      1.6615157114735146e-001 -6.2553309272526711e-002
      -1.5965342857518686e-001 -4.0352273964539762e-002
      5.2554614451247150e-002 -1.3679053813156627e-001
      -1.6581634349163760e-001 7.2357513312736890e-002
      9.9867701000071474e-002 -2.4238154638022291e-001
      4.1708760476953398e-002 1.1741530104883185e-001
      1.5535232714899444e-001 1.2647452533335504e-001
      3.6104346729685405e-002 2.2389578737011648e-001
      -4.3557206775094379e-002 -1.0150060616607032e-001
      4.3343001099455700e-002 1.1543740325501175e-002
      1.3883290123113304e-001 -1.5688719284516997e-001
