<?xml version="1.0"?>
<opencv_storage>
<ANN type_id="opencv-ml-ann-mlp">
  <layer_sizes type_id="opencv-matrix">
    <rows>1</rows>
    <cols>3</cols>
    <dt>i</dt>
    <data>
      200 80 6</data></layer_sizes>
  <activation_function>SIGMOID_SYM</activation_function>
  <f_param1>5.9999999999999998e-001</f_param1>
  <f_param2>1.</f_param2>
  <min_val>-9.4999999999999996e-001</min_val>
  <max_val>9.4999999999999996e-001</max_val>
  <min_val1>-9.7999999999999998e-001</min_val1>
  <max_val1>9.7999999999999998e-001</max_val1>
  <training_params>
    <train_method>BACKPROP</train_method>
    <dw_scale>1.0000000000000001e-001</dw_scale>
    <moment_scale>1.0000000000000001e-001</moment_scale>
    <term_criteria><epsilon>9.9999997473787516e-005</epsilon>
      <iterations>1000</iterations></term_criteria></training_params>
  <input_scale>
    2.0454761525725746e+002 -6.5753775968835648e-001
    6.6924266523675328e+002 -2.8923851332700851e-001
    2.2280651718325527e+002 -7.9998923040861014e-001
    4.4455110014283571e+002 -4.5811333409269506e-001
    7.8495010882813642e+002 -2.3237932182650717e-001
    2.4141811983442321e+002 -7.2255704048678826e-001
    1.8650638978771883e+002 -9.0430928472378780e-001
    1.3692961815851260e+002 -1.2084872578797883e+000
    3.3719926749380875e+002 -5.6390454709890936e-001
    3.5095333582221855e+002 -5.7667349009114877e-001
    2.4750240901639086e+002 -8.9202758522097036e-001
    3.2244925767837151e+002 -5.6550172160862988e-001
    1.8170483574451833e+001 -3.4855597951063424e+000
    1.3329009875719618e+002 -1.7093699849702921e+000
    2.8987760238580006e+002 -6.5563742441741757e-001
    2.0323865633654304e+002 -1.1635696271791858e+000
    2.4845200754295232e+002 -6.9838538774509118e-001
    5.2209946323361646e+002 -3.7869191039851097e-001
    1.8946699063273670e+002 -8.8254775669920571e-001
    2.6884697722707347e+002 -6.5058201985627706e-001
    2.0418360120299093e+002 -7.6586993130220249e-001
    2.3510430830751872e+002 -7.8552013830486977e-001
    7.4450067594762368e+002 -2.5530104019293454e-001
    8.1759031858002430e+001 -9.9124256233140584e-001
    2.5665982000580840e+002 -8.4501029270511840e-001
    4.4506488833269771e+002 -3.9017977240549312e-001
    1.9788389620106392e+002 -7.9257192433582813e-001
    2.3280828827190464e+002 -1.0571307193147086e+000
    2.3598489491256379e+002 -7.7757258895253045e-001
    2.1145801891881518e+002 -1.1023104228686942e+000
    2.3904051004626317e+002 -8.3730721940172104e-001
    3.6363308042017781e+002 -5.5826799874618849e-001
    2.0790517621142391e+002 -8.4983560853368201e-001
    1.9835157678003969e+002 -9.9430749854922429e-001
    4.7026273329244435e+002 -3.8322928892081976e-001
    1.7279888381959830e+002 -7.9114815521562032e-001
    2.8878858416062104e+002 -5.9126868015729506e-001
    1.2634512479420775e+003 -1.4854182362559659e-001
    1.6407136607424565e+002 -1.0574449753950830e+000
    3.4345448810999079e+002 -5.7965183794111264e-001
    1.6479949305057920e+002 -1.2546114043655465e+000
    1.6813634247685485e+002 -1.2194388792098427e+000
    2.0466997754285399e+002 -1.2667882379449302e+000
    2.3600911006417056e+002 -6.1871029464283822e-001
    2.6618329746526109e+002 -6.1254706860415276e-001
    1.5592125395059597e+002 -1.2361875686734829e+000
    2.4351606835913836e+002 -8.1547518181270562e-001
    2.9547695193798637e+002 -6.8122788507968446e-001
    5.2809216216690243e+002 -3.4826361388877608e-001
    5.5475705231317795e+002 -3.5345570610357502e-001
    5.1895388811811949e+002 -3.8722995011133632e-001
    2.6434049626808365e+002 -6.7350119834548172e-001
    2.7630455514255021e+002 -8.5515050895407008e-001
    2.5126013384686746e+002 -8.7313585106687885e-001
    3.7288573212832455e+002 -5.2986029703987225e-001
    4.8144161797949721e+002 -3.8213378154889616e-001
    2.8052471748689089e+002 -7.5179254440572163e-001
    1.9708055703538764e+002 -7.7520402568667524e-001
    2.2833759396670754e+002 -7.9678238494360498e-001
    2.9194934458975422e+002 -7.4205231042801489e-001
    2.4145566581353725e+002 -7.5033129099408935e-001
    2.9567005913055232e+002 -7.0335225309983107e-001
    3.3542191621142058e+002 -5.4521748113003932e-001
    6.6382443429960244e+002 -3.0186679994205329e-001
    3.2739750730957019e+002 -6.3690092952809885e-001
    1.9340306365732062e+002 -9.1033130097550807e-001
    1.8039747248757178e+002 -1.1004912433728178e+000
    3.0926623179098090e+002 -6.6803653123919304e-001
    8.9939873231485990e+002 -1.4715518030887315e-001
    6.6916068720089345e+002 -2.7190715517978969e-001
    2.9236385200417413e+002 -6.9474399855112889e-001
    3.8039278296080039e+002 -4.5260787997015639e-001
    3.1799552129995726e+002 -6.0148084861949547e-001
    2.1720214698342073e+002 -9.1967641142682188e-001
    4.4359507278693445e+002 -4.2109031301258004e-001
    5.2991390087835771e+002 -3.2256586928291836e-001
    8.3244709127633243e+001 -1.2201643336127792e+000
    2.5152555408337611e+002 -6.2796408018118255e-001
    1.7056662911530950e+002 -1.6157820939085252e+000
    1.9219265908804877e+002 -8.6421655233169747e-001
    3.0002622546893622e+002 -7.0167397937924192e-001
    1.4794981172605043e+002 -1.2892027069209457e+000
    2.7843712131523819e+002 -9.1494391324928870e-001
    8.6557341617228218e+001 -2.5593591038989714e+000
    3.4521128600424925e+002 -5.2094314436812983e-001
    3.2158645200455248e+002 -5.0009465082682825e-001
    1.5145796367109131e+002 -1.3257330772173255e+000
    4.1281413713045464e+002 -4.7122333582908793e-001
    3.1200005078699928e+002 -5.7988231185659411e-001
    4.0796127989359331e+002 -4.4311262118038441e-001
    2.6839367785669350e+002 -6.9419757541498395e-001
    3.4920698471073314e+002 -6.0648025025178609e-001
    2.8478445269747232e+002 -6.9053746532911442e-001
    3.8265839393471373e+002 -4.7105977594651649e-001
    1.6768779203499557e+002 -1.0093680567402690e+000
    3.5226422663990905e+002 -4.8004937414370330e-001
    3.1005713732822460e+002 -6.0157157313434517e-001
    2.7776360426302625e+002 -6.2975381077091985e-001
    2.7787506742161622e+002 -6.2312134107912465e-001
    3.3528138566247748e+002 -5.1227459479340787e-001
    2.2429786710712565e+002 -9.1069670030002092e-001
    1.8674593256467566e+002 -6.9226419559898678e-001
    8.2101213824789374e+002 -2.1293208060487434e-001
    7.6164875160283725e+002 -2.6566959550643632e-001
    5.6551994665161646e+002 -3.6834595776998236e-001
    2.7673220307698506e+002 -6.7946160653241960e-001
    8.6341312742098282e+001 -8.7011882657987627e-001
    2.1270332452606192e+002 -8.9189590797312512e-001
    2.1077202592801729e+002 -1.0237899058551769e+000
    1.4181238574333602e+002 -1.1150084292522833e+000
    4.3705944124833456e+002 -5.2245971348356479e-001
    3.4224888755199703e+002 -4.4680874624648925e-001
    8.7092095146184207e+001 -2.4757733134042845e+000
    4.1695962964947608e+002 -4.4370950613684518e-001
    4.3399486170609464e+002 -4.0000214106795956e-001
    1.1989115664626172e+002 -1.1782853233944706e+000
    8.3928498465273162e+002 -2.0581360414914945e-001
    2.7145724936265140e+002 -7.2214183952700339e-001
    1.3654611032262540e+002 -1.2976899074462336e+000
    1.4632163368641034e+002 -1.2279467714639971e+000
    1.4384605508276144e+002 -1.1662565062260295e+000
    2.6252971757548255e+002 -7.0086093035771402e-001
    2.0888252509319307e+002 -1.2018512397364638e+000
    1.4990659021553515e+002 -9.0893168003880975e-001
    8.2443532875972537e+001 -2.1355744768350768e+000
    1.2896250642567068e+002 -1.9350805427305364e+000
    6.1140863228595015e+002 -3.0229704968205218e-001
    8.0664453315311948e+002 -2.1246050213173093e-001
    9.5524742007472435e+002 -1.9388536552024110e-001
    2.6497162925945781e+002 -7.7356215699593467e-001
    7.6032240724885469e+002 -2.6403474160981089e-001
    6.3066323422770131e+002 -3.0558988537876880e-001
    2.5490169992720425e+002 -8.2154489790785523e-001
    1.1240672307259719e+002 -2.4922457034181198e+000
    1.7350942909901877e+002 -9.0078194405547163e-001
    1.5699176665252696e+002 -1.2458127399156993e+000
    3.1832608833923501e+002 -5.8738860688650207e-001
    9.6037989225444505e+001 -1.9987312150550793e+000
    2.7353718979029736e+002 -1.1903671669079143e+000
    1.0244465663263965e+002 -8.4016777335348247e-001
    2.3504007042299216e+002 -6.2972507979919079e-001
    5.5561111161774704e+002 -4.5581550797821796e-001
    2.9230928854442084e+002 -4.7736669608375232e-001
    4.9599467808280468e+002 -3.4718269959791720e-001
    3.7220499908344397e+002 -5.0005237011462300e-001
    8.4835214539082941e+001 -2.2403485957672449e+000
    1.9710507589981353e+002 -9.8244900716627259e-001
    6.2195001803980404e+002 -3.2749016246001728e-001
    3.5740737684657751e+002 -5.1756188324981245e-001
    4.3954433002847884e+002 -4.7371485758375570e-001
    2.6042436453140925e+002 -7.4734564710960838e-001
    3.2194174148147516e+002 -5.6348762718378254e-001
    1.2270638284823755e+002 -1.3747142426174406e+000
    3.3257603794417702e+002 -6.0229455100273810e-001
    2.4827882611530708e+002 -6.6591320576359092e-001
    3.0852418143932516e+002 -6.6747186117649193e-001
    3.1375247856046786e+002 -5.5847579852748741e-001
    2.8928812525644400e+002 -5.6622680976743578e-001
    1.4165373314131045e+002 -1.2831101123933359e+000
    2.0712307546362038e+002 -9.0258333217722353e-001
    2.2386769734296709e+002 -1.1069723204935515e+000
    3.6190647946283849e+002 -4.8610555841461955e-001
    2.9448943418145279e+002 -6.6261143708439829e-001
    2.3641640246215874e+002 -8.0954778958908258e-001
    3.4422812874300490e+002 -5.3876831581256679e-001
    2.0152706104246744e+002 -1.0872345307601066e+000
    2.4914926471006868e+002 -1.1133686547674375e+000
    4.2964575557158145e+002 -4.3798534187194488e-001
    2.5880703029987484e+002 -7.6658905914583297e-001
    3.3286741580607077e+002 -5.4450913191415484e-001
    3.0575088146560421e+002 -6.3796956018985385e-001
    2.4098731343846683e+002 -8.4380516230556790e-001
    3.7831914983240728e+002 -4.7128175337990136e-001
    6.2674393738459207e+002 -3.2212385026936458e-001
    1.1289589283841096e+003 -1.7042472243024043e-001
    1.7244446745850473e+002 -1.0353721644314371e+000
    4.2007778891562401e+002 -4.2106347454125959e-001
    3.8435717108374149e+002 -5.0771710214279075e-001
    3.8636279125297216e+002 -4.4578720153179302e-001
    3.3942380802247669e+002 -5.9174926098942882e-001
    2.0531148465979501e+002 -9.6204656061665172e-001
    2.6551427204153680e+002 -9.0905383028291431e-001
    2.9728540779237881e+002 -5.7102984465253381e-001
    2.0689604474080820e+003 -9.4002144536183302e-002
    1.5445846076965447e+002 -9.0458819059286066e-001
    3.9514139553386883e+002 -5.0353635686743525e-001
    1.3652209483724644e+002 -1.2161618251617263e+000
    1.8553334079256425e+002 -8.5442331198571886e-001
    2.5782353636060833e+002 -7.6671723511861678e-001
    2.0710219105661335e+002 -8.2629551672473045e-001
    5.7531416943683121e+002 -3.0362917702975040e-001
    3.8531441935000538e+002 -4.6155497414285818e-001
    3.4781974981868564e+002 -5.3263794785650465e-001
    2.4348080335147523e+002 -7.0997899833751776e-001
    2.5138583355720351e+002 -6.8494438951076742e-001
    3.7325456876516404e+002 -5.9174139879643883e-001
    6.4692077365471448e+002 -2.7340081533398031e-001
    3.0258491484476122e+002 -6.3041311209861162e-001
    2.5392183469867882e+002 -8.9537194663976460e-001
    8.1848665026577862e+001 -2.5319015491056542e+000</input_scale>
  <output_scale>
    5.2631578947368418e-001 4.9999999999999994e-001
    5.2631578947368418e-001 4.9999999999999994e-001
    5.2631578947368418e-001 4.9999999999999994e-001
    5.2631578947368418e-001 4.9999999999999994e-001
    5.2631578947368418e-001 4.9999999999999994e-001
    5.2631578947368418e-001 4.9999999999999994e-001</output_scale>
  <inv_output_scale>
    1.8999999999999999e+000 -9.4999999999999996e-001
    1.8999999999999999e+000 -9.4999999999999996e-001
    1.8999999999999999e+000 -9.4999999999999996e-001
    1.8999999999999999e+000 -9.4999999999999996e-001
    1.8999999999999999e+000 -9.4999999999999996e-001
    1.8999999999999999e+000 -9.4999999999999996e-001</inv_output_scale>
  <weights>
    <_>
      1.4036175845506393e-001 9.3611228973756150e-002
      -2.3071157515005384e-002 -1.7772863744816481e-001
      -3.7145753332804204e-002 1.7051259931053625e-001
      1.2535081113868438e-001 -2.6168808040247821e-002
      -6.6242948504784960e-002 -2.2109207374329857e-003
      -1.4516623575094645e-001 5.9209018863170655e-002
      -9.3501144827816726e-002 -1.2426842390216340e-001
      7.0218223126511728e-004 -1.7824469683526248e-001
      -1.2464834178200053e-001 -3.5058956899198146e-005
      5.5397233253758484e-002 9.3329034003472366e-002
      1.1439397822169807e-001 -7.5688086100423421e-002
      -1.7867858643066337e-001 9.4644126227608552e-002
      1.5803050397143320e-001 -9.5811101327714282e-002
      -1.0091340449880294e-001 -6.6569787939566347e-002
      -5.5832087488362991e-002 1.8231233481246521e-002
      -2.0575450854813448e-002 -3.1828051866147920e-002
      8.8193380466774551e-002 1.5120313494177257e-001
      2.0442309508594292e-001 1.3359176941338644e-001
      -1.8226089035806907e-002 8.1735558135289502e-002
      1.8262318032357377e-001 1.1159458241142142e-001
      -1.0759423069279078e-001 1.0096912899810174e-002
      -1.0761198979842923e-001 1.8682646778992348e-001
      -7.7677153433476323e-002 1.2065886884638206e-001
      -3.3601612942960064e-003 9.0917224330270593e-002
      2.3457997221495336e-001 8.1601513514131446e-002
      2.7918246365827137e-001 -3.0695558204703377e-001
      -2.1558959861851393e-003 1.1212924790153396e-001
      -3.3055313003320562e-002 1.8775770373534381e-001
      -3.8372480010601236e-002 1.2058767070465311e-001
      -8.2846492190819146e-002 9.6268339356839761e-002
      -7.0157542478960236e-002 2.7216262694204321e-002
      1.7117320236448152e-001 1.9234646938345595e-001
      -1.5775342147365441e-002 -6.4087913140159519e-002
      1.0268831378860498e-001 3.0102791624142620e-002
      3.1347992823256836e-002 4.5135022388293179e-002
      -1.7941620952826126e-001 1.2715997454811834e-001
      2.0467570956083089e-001 -9.4462249583451605e-002
      -6.4943478135461363e-002 1.2632527045903733e-001
      2.8514219376326845e-002 2.0801009147180739e-002
      -1.0208936205343215e-002 1.3242446995636427e-003
      5.3893552089827684e-002 -4.8526041069140255e-002
      -3.7972901737422127e-002 -1.3982809446514846e-001
      -7.4986721654016028e-002 1.8353611082093960e-001
      -5.8694772780980994e-002 -4.2611973059390497e-002
      -2.7317104499496859e-002 -2.8960956049626000e-003
      -9.5832256027413076e-002 -1.1241762231346531e-002
      2.4884855545143406e-001 -2.4391419749328486e-002
      2.7125545114282733e-002 -4.2053494712214486e-002
      -9.0959601596406633e-002 6.0079452221431531e-002
      -2.3561461537700897e-002 2.9212023306876302e-002
      5.2657627589559726e-002 6.4021975611994325e-002
      -4.4055913486799360e-002 -3.3951250464053284e-002
      1.0280885885000988e-001 -1.0295294131122151e-001
      -4.3064421499662421e-002 -2.2849346122913956e-002
      7.7965201597570560e-003 -4.8485806966495300e-002
      -4.8179817671588264e-002 -4.2884468607011311e-002
      -2.9701266761367206e-002 5.1742250899827043e-002
      8.2189634576844944e-002 -1.2386266342872099e-002
      1.1089429363934779e-001 1.2794151764658093e-001
      1.1288565468794035e-001 -2.4807972160606500e-004
      4.8235163752310711e-002 -7.9417710335938793e-002
      -4.5560123058492989e-003 -3.6355190977423540e-003
      -1.5275651283858682e-001 -7.8734077427150828e-002
      -4.8312154410152582e-002 9.7213876620754012e-003
      1.1659898237289300e-001 2.3899034650432093e-003
      1.4506509407632465e-001 -1.0072903175035118e-001
      -4.4893702754884017e-002 1.4435251483232611e-001
      -8.4717401716688387e-002 -8.9210712664994675e-003
      7.5949725361806802e-002 1.0887114787438597e-001
      -1.0443781961507578e-001 2.9574655326961353e-003
      2.4096684929932895e-002 -6.2694368351415036e-002
      -8.8599097230736210e-002 -4.8628264318564277e-002
      -8.1962351795014571e-002 1.4118368468126397e-001
      4.0849811709607824e-002 -2.5999450463944456e-002
      4.9602884572136741e-002 1.1226058498145762e-001
      -5.8180956095161850e-002 2.0591970390612061e-002
      2.6162561756930637e-002 -1.2745015623173986e-001
      3.3746678214180099e-002 3.7672036736895891e-002
      -2.3102680708334974e-002 -3.9428196412734554e-002
      -1.5423878304043188e-002 2.5490825770896597e-003
      6.4777406166475940e-002 -7.3273066847819590e-002
      -5.2695143648627325e-002 -1.1710351443622911e-001
      -3.7850598856383054e-002 7.3795145278862759e-002
      1.1712658837751347e-001 4.8671550641712115e-002
      -1.3899543986319937e-001 -4.5602141658650147e-002
      -1.0560683519553014e-001 1.1032454555823636e-001
      3.7803096272744106e-002 5.7850640811658381e-002
      -1.2636591669251273e-002 1.4176118582308692e-001
      3.1818386375603150e-002 1.6924864976595924e-001
      3.1799662576240034e-002 -4.6306863178015724e-002
      1.8725708504306573e-002 5.9619816755251678e-003
      -1.3949004592647235e-001 -1.1839240647672965e-001
      -9.9872285564040458e-002 8.5410687164823348e-002
      -1.5993801278922661e-002 -1.5013099645226302e-001
      1.0523446146158022e-003 1.7710734325553510e-002
      -6.5294085400821281e-002 -2.8070550535178894e-002
      1.6563696980446081e-002 -4.9363701536558072e-002
      -1.3741917913588841e-002 -1.0359755295582335e-001
      -3.0743670573172073e-002 1.4868925489464122e-001
      1.1472366532674357e-001 -4.6054701734860058e-002
      -6.3212159336522040e-003 -8.4058917609678444e-002
      2.8047845126823113e-002 -1.3571305809995041e-001
      1.3023440434862716e-002 -6.6979486230512433e-002
      -8.8778120492016572e-003 -1.0482756543365340e-001
      -1.9955981461779883e-002 -8.4378076128632573e-002
      5.2482768446864177e-002 -1.1312040969837660e-001
      6.2224453840574394e-002 1.8663430687147203e-001
      2.0110497577277564e-002 -1.2488882852793112e-001
      -6.4249177867769555e-002 6.7361831483346735e-002
      -1.3425836273981542e-001 1.9854295272020768e-002
      1.1932926578574790e-001 1.0285537432405842e-001
      -1.0769399830884668e-001 1.6644073664650379e-002
      3.9357729061826954e-002 1.6726962269000326e-001
      8.1961587810579842e-002 -4.6971644377305083e-003
      -7.5848058216683428e-003 6.8398549049531077e-002
      -4.0824245749910518e-002 5.4275993028318155e-002
      9.7993036010390208e-002 3.9344735367605556e-002
      -3.2607376935093919e-002 -1.2589815985108953e-002
      1.4263863715263697e-001 -1.2493359557568936e-002
      1.5385445721831441e-002 -3.3969626316860131e-002
      5.1991569266760340e-001 -1.2138796247706887e-001
      -1.2185306027144163e-001 -1.0924874588457748e-001
      -1.8332092022927682e-001 3.1500249147992931e-001
      3.7570695868964152e-002 -6.9922286994729591e-002
      5.1230109929001823e-002 -1.8355651770129267e-002
      -3.2068523888404898e-001 2.6496459091834089e-002
      1.5566725148892677e-001 -3.7111877764046577e-002
      7.5722736003137045e-002 -8.7736321956135718e-002
      -1.7958876778139946e-001 1.4143881269492318e-002
      3.4166466894805680e-002 7.6887799767991469e-002
      6.5687203628862462e-002 1.8809895285326275e-001
      -2.9022398863710419e-001 7.3335063947737672e-002
      1.2076626873009831e-001 -1.9164607039872122e-001
      -1.5791987979850142e-001 -1.4373675054325402e-001
      -1.2299553520332624e-002 -3.8892130096123648e-002
      -3.3832558877908070e-001 -6.5923698303753275e-002
      -9.6338973884399742e-002 1.9893236438077599e-001
      2.7238150446868503e-001 1.1273693552264631e-001
      1.0809537261714787e-001 1.8695569421854022e-001
      1.0656585310950675e-001 -1.1096697704435008e-002
      -4.2243383425436112e-002 -5.9290558962193686e-002
      4.2571750052588009e-002 -1.2300647782040337e-001
      -4.2750585866394303e-001 -1.4115221451069343e-001
      2.0019863190151029e-002 1.6293570908269434e-001
      3.9973323696474372e-001 -9.1905037071886492e-002
      2.1449768856929424e-001 -2.9200687131405917e-001
      -1.9868229836749778e-002 3.4011120724434235e-001
      -9.9290146273340110e-002 8.1748066948800657e-002
      3.7731520463960756e-002 1.1723177038821716e-002
      -2.5753372892757070e-001 9.7703357664493506e-002
      8.4150291683403489e-002 -4.7298458276192841e-002
      -1.8793885199404789e-001 -1.2871553794189489e-001
      -1.4383976069738252e-001 2.4463899134585784e-001
      -7.4775977605144900e-002 -5.2022954012863123e-002
      5.1009834879977546e-002 -5.1495782509141073e-003
      -1.9346379875892938e-001 1.3158525159131251e-001
      2.0941555899359679e-001 -1.9559492416658719e-001
      -1.9351984064894959e-001 1.2300498736806943e-001
      3.7496782471153595e-001 -3.2697394471692759e-002
      -5.2876104667004828e-003 -1.2399817962225909e-001
      -1.7944586960384620e-001 7.3447134900633315e-002
      2.9513694651184447e-002 1.3094132241656398e-001
      7.5779067467183395e-002 -1.5434785899723236e-001
      -1.9028725313655362e-001 7.8729626240995349e-003
      2.4672139013915573e-001 -1.3647871381929811e-002
      1.0658458736483509e-001 -1.5261540362765319e-001
      3.6975791100265117e-002 2.4303049171874140e-002
      -4.7112147262512893e-002 -3.9707587876661073e-003
      6.4531929212234577e-003 -3.9616261286485779e-002
      5.3240323000965768e-002 -3.5617947190187543e-002
      -1.5073504560272172e-001 -1.3504555884435707e-002
      6.3426786122034964e-002 -8.1249958751305265e-003
      -1.2154797338440816e-001 1.5382661839677209e-002
      1.4697700540300609e-001 1.1744123127643602e-001
      -2.9016146460933675e-003 2.6916119178682679e-002
      1.0094078111038177e-001 3.6237341738594810e-002
      1.1049008836582067e-001 -2.2838977042540315e-002
      -5.4549035967261149e-002 9.0658413602411128e-002
      -1.8649256609102807e-001 3.8403084999416234e-002
      -1.6957938085690932e-001 -9.5958107162377057e-002
      -7.8329894609654199e-002 -3.3092199274450222e-002
      8.6837682248254167e-002 5.8234982961993649e-002
      1.1693122779960081e-001 8.0469478444988932e-002
      -3.0226554435948023e-002 6.4910038545530568e-002
      -9.5120991604163249e-002 -1.5253267547478407e-002
      -1.1571222400935491e-001 -8.5480831258868562e-003
      1.0732169954024652e-002 -1.7681424408838539e-001
      3.8611910288008540e-002 1.8010132853240574e-001
      -1.2889539190550961e-001 -5.6438914622639731e-002
      3.4247524122763481e-003 5.2817868168023502e-002
      2.1538903019848715e-003 1.7965056825047276e-001
      1.5732907486380912e-001 7.6376429911961904e-002
      5.9440821769682468e-002 -1.1614452433795211e-002
      9.0042008832063745e-004 -1.1946434443537804e-002
      2.0150563810574826e-002 -9.2548732029170716e-002
      3.0518152197418054e-002 -8.7429807713826191e-002
      -6.2438001042596336e-002 5.0325641449563446e-002
      9.4999280974675984e-002 -1.4915941708531968e-002
      -2.6210370640488823e-001 7.9678009175775943e-003
      3.8593428344805836e-002 5.7219697326281096e-003
      -4.6674746099258457e-001 -5.8798420319282257e-002
      8.6484930105968041e-002 3.5486465044428267e-001
      -1.5605591322764853e-001 -4.4849952613096983e-001
      -1.9294866220524012e-001 -1.6404586900964274e-001
      -1.9551200710295067e-002 -9.1376052786734177e-003
      1.6813654774519263e-001 6.2842122521395757e-003
      -3.4777622022371762e-001 -2.7875383448177143e-001
      2.5503742782869254e-001 -3.4687831008919073e-001
      -1.3563973524355505e-001 -3.0386987482314332e-001
      1.0576446870762522e-003 8.4677260478473571e-002
      7.7789690328129851e-002 5.3064490357966412e-002
      2.6833345815501497e-001 3.3135959918956592e-001
      -3.8717368823627946e-001 -2.9028775671075002e-001
      -4.5546097476767957e-003 -1.0506150019827992e-001
      1.9570239152743893e-001 -2.5202568421519528e-001
      -2.1619127581543868e-001 -1.8836820573645105e-001
      -2.5963491121954108e-001 2.2357509481350729e-001
      -2.4019037792494927e-001 -3.3152422625439520e-002
      3.7311274259438719e-002 -3.1260992787738423e-001
      -1.6691739337141778e-001 2.1203482358319814e-001
      -1.2635325433373598e-001 5.0508656911136207e-001
      -5.9233206274093197e-001 -9.9630827044683401e-002
      -1.9954171855358749e-001 -1.7094034258049753e-001
      -3.5144679238223708e-001 -1.0911274084383106e-001
      -3.9570838710566597e-001 -1.0019357827050342e-001
      2.9443860902135893e-002 -2.3386667953381301e-002
      -8.5900601012785363e-002 -1.9601150822307109e-001
      -1.5333503919091382e-001 9.6209439794213883e-002
      1.3316691943511360e-002 2.1124518787154625e-001
      2.7311347583174500e-001 6.9066717939669967e-002
      -4.6860534291381506e-001 -4.4072699747482194e-002
      -1.3620285838611965e-001 -3.2978229443940887e-001
      -3.7049892748586577e-001 -1.5773044706570344e-001
      -1.9486536409611169e-001 -2.6962130420859115e-001
      -2.4299392722245242e-001 6.7387142038326742e-002
      1.4112450392099152e-002 -1.0392208262459914e-001
      -9.8172472281549419e-002 4.2208832274097030e-001
      -1.0613775373849019e-001 -1.8168828584010496e-001
      5.1697883964128236e-002 -1.6365470413636907e-001
      5.9503860452628579e-002 5.5669794659719593e-002
      1.1609056779042499e+000 -2.5029740359844605e-003
      -2.1284051328865858e-001 5.0117365411279119e-002
      -1.8846883731402028e-001 4.1478095651197762e-002
      -2.3183159193701685e-002 -2.5902853312102413e-002
      2.0423103258429701e-001 -2.1169730091102960e-002
      -2.8571251191082980e-001 -2.7631859618494910e-002
      5.2759996166099388e-001 3.4313731199035974e-001
      -1.7210880137574594e-001 -3.2105243444421638e-001
      -2.4250195299625893e-001 -1.1877866626327807e-001
      1.3689331053697457e-001 8.4125006298653368e-002
      -1.1222778616391998e-001 3.0974888191652816e-001
      -5.2248373345465382e-001 1.9540717773214394e-001
      -9.6324545848846560e-002 -3.0579358290435660e-001
      6.1218454507047076e-002 3.0733590122267296e-001
      -2.3435535157685448e-002 -1.4357845080047679e-001
      -1.5390109043198685e-001 -1.2857670413164013e-001
      -1.2014311267290173e-001 4.3061726954417762e-001
      1.8146634672388756e-001 2.2898586608168381e-001
      -1.0353565885758227e-001 1.6826758727763930e-001
      -1.8254742704610255e-001 -2.5684630606071757e-001
      -1.1913193526635843e-002 1.5088248307411606e-001
      -2.1384183400786530e-001 -1.4552614820490785e-002
      -2.7358949656245735e-001 -4.8562270968659227e-002
      -7.6360704167323223e-003 2.4385143421581479e-001
      8.9078845840121657e-002 -2.1879415182526835e-001
      -1.3278812796392633e-001 -4.9314046518476667e-001
      -6.3629158637118752e-002 4.0060310469221105e-001
      -1.7077479007430330e-001 1.9853236828784485e-001
      9.3688844430189992e-003 -2.1574062977636349e-001
      -2.7136186029281861e-001 1.4547165923070066e-001
      5.9767656186199017e-002 6.6413496763814653e-002
      -2.1589510378386832e-002 -1.4000076009692206e-001
      -1.2735139614845786e-001 3.3473929603965202e-001
      -1.5839145375986199e-001 -1.3673874037486478e-001
      -1.0132089700111717e-001 -2.3778557889395727e-001
      -3.2748207213403874e-001 2.5334317680885704e-001
      4.5778465307576433e-001 -1.7025486615496990e-002
      2.1354746151607185e-001 2.9054818474482585e-001
      7.8769741681613728e-002 3.0988449723194311e-002
      2.7826454610649653e-002 -1.6173905024746715e-001
      1.2034840822611870e-001 3.8141402164804366e-003
      3.2116948449068074e-002 7.7324708690103633e-002
      5.6843460226448156e-003 8.8412268053745149e-002
      9.0332833319001465e-002 1.0566136395832994e-001
      2.1817398148488770e-001 5.6630624979025643e-002
      -1.0261120048991913e-001 -1.5149060325118577e-001
      -1.8931803050214187e-003 2.2847133968014532e-001
      -1.4395177189214489e-001 -1.1249996392288726e-001
      -1.0500032771876663e-001 -3.3666467705404109e-002
      9.8952630012408116e-002 3.5068436583558314e-002
      -1.0307015229141603e-001 -5.5601425242782637e-002
      -2.6842977991079309e-001 1.6552653826860950e-001
      1.8262089250447486e-001 -8.1510710360304231e-002
      2.9687976677439956e-002 -1.0663625035745491e-001
      -1.0933621047982969e-002 2.2308810690056777e-002
      -2.9849425081459807e-002 4.8591236114729014e-002
      1.3209639813242022e-001 1.8015692714633383e-001
      1.8574227950668304e-001 1.3644334901558286e-001
      4.4219959326437304e-002 -8.8433353785686009e-002
      3.0463349812043425e-003 -5.4250553177271153e-003
      -5.7872738731172824e-002 6.8965094404035948e-002
      -1.4193421381011820e-001 1.3458413702310412e-001
      -7.5551397093742673e-002 7.1994342852135296e-002
      -5.6398368153695961e-003 3.2172947857902402e-002
      1.1900280550858243e-001 8.6803309890333857e-002
      -1.3109782516287158e-001 -2.4636460473242403e-001
      1.3734377372746820e-001 4.0495721200463575e-002
      -2.3517332466148483e-002 1.1371087578059151e-001
      -5.1299756344580600e-003 -2.4034855174491252e-002
      5.0898225336693435e-002 -3.2762278747521058e-002
      -8.8609320489153751e-002 -8.8171341849095697e-002
      1.5429624484124861e-002 1.4061066557189528e-001
      9.6847698751468841e-002 -4.4824464404894841e-002
      7.3088180631184427e-002 4.1191062167798519e-002
      -9.2882598270339706e-002 -4.3046338713369429e-002
      -1.2980985033490042e-001 5.1738378259355983e-002
      1.6151370700414053e-001 7.4580765091592704e-003
      -8.4072302213064401e-002 7.0162888913947286e-002
      1.1872637543532541e-001 -3.8107633729081714e-002
      1.4486801784085240e-002 5.7893859481241067e-002
      -4.3413771814183999e-001 7.7969576539649223e-003
      1.9400064016952992e-001 1.9773462090576627e-001
      -2.5559219603466611e-002 -7.5553846695626065e-002
      1.7652437257746248e-001 7.6562524748833599e-002
      -1.0329720914005515e-001 4.6527746279182290e-002
      1.6389166643024711e-001 1.1247102851777359e-003
      -4.6626632517472522e-001 -2.8383044790182589e-003
      -1.2840114363778671e-001 -4.9437951513567369e-001
      3.8315703234048780e-002 -1.5906951546021134e-002
      1.0605091368887003e-001 9.4194980352547378e-004
      7.1639921906451298e-002 -3.0722331847917267e-001
      -4.7109225854021178e-002 2.6565974718011576e-001
      1.0570036056885067e-001 -7.2221685044547068e-002
      -3.6943983452263233e-002 -5.0687902565175935e-001
      6.5843686837275123e-003 1.9689470693159223e-004
      -9.3937856109799892e-002 6.1779444999918540e-002
      1.1989062038583154e-001 3.2531982569862111e-001
      6.6912737368203329e-002 1.9993324726951556e-001
      -2.6264633781124626e-002 -4.2527799198970062e-001
      1.1995607093271742e-001 1.8933504521757041e-001
      -2.3395880939787050e-001 2.6262026963527468e-001
      -5.9789035565288018e-001 1.5477357689996993e-001
      1.1933242715375666e-001 1.2033949980622589e-001
      2.3710517289205618e-002 -2.6157852216199756e-001
      -1.9185564352135559e-001 2.4442160537670088e-001
      6.2320390213565738e-002 -4.7261786388896443e-002
      3.0306829500239940e-001 -3.0731850495185697e-001
      -5.2063449087644285e-002 4.7671588378245855e-001
      -8.3953235829818257e-002 6.3622299034161556e-002
      4.1683265789706508e-001 2.5781508401212815e-002
      -6.2197577826895911e-001 8.7144073427181286e-003
      -1.0435671124227303e-001 1.0224236818575907e-001
      1.0772565335403890e-001 -3.3391747736374044e-001
      1.1556586230780225e-001 6.1718510277577299e-002
      -4.9143911514798971e-001 9.0187414350718798e-003
      -9.6244087266017894e-002 -4.2775915011647563e-002
      1.0391947860785478e-001 2.0181439334083784e-001
      -4.4865058602203539e-001 -3.3985008658810108e-002
      2.9920084277577436e-001 -7.5681562278880940e-002
      4.1881244612929899e-002 1.1857979201966659e-001
      3.2417389911195460e-001 1.3871504837465649e-002
      2.0483737353412964e-002 9.6419526114701573e-002
      8.3671365305420763e-003 6.3064900612488387e-002
      1.2150426768237256e-001 7.4971537256328810e-002
      2.4606237343715899e-002 2.5937656484631290e-002
      -9.8628432188280463e-002 -1.0194331948306337e-002
      -3.1866502048088685e-001 3.1746598142849064e-001
      -2.0071420888399916e-001 -2.3342683628345828e-001
      -1.5226576892365951e-001 -1.3041390051981136e-001
      1.0118945888523841e-001 4.5172367372261553e-002
      -1.5091506163336776e-001 -1.7903415946454923e-001
      -2.9772962241938200e-001 2.3450105731918588e-001
      1.7397136018523562e-001 -1.9277590946356035e-001
      5.5822377201004067e-003 -1.0300032581301494e-002
      -7.3544820254008523e-003 -1.8538211075794314e-002
      4.1193454515814153e-002 6.5355093222099724e-003
      1.7033554504969872e-001 2.7464803363113499e-001
      2.1692005870448444e-001 1.7758445714266344e-001
      4.3543472179084060e-002 -4.5949545467814962e-002
      3.9423373270292536e-002 -1.8101766610003255e-002
      -1.9043971770038784e-001 2.1800760396626989e-001
      -2.8840029536215472e-001 1.2960136415457185e-001
      3.0951870751564720e-002 1.8760814648756058e-001
      -6.3179545929292744e-002 -6.3081294368575624e-002
      -7.4428194933862560e-002 1.2404063917842229e-002
      -3.5344888771758248e-001 -3.5453558863695511e-001
      1.2597631652376598e-001 -7.0651947730554568e-002
      -3.2548173347853419e-002 1.5145988749092656e-001
      -1.6845438448794488e-002 -7.2212336739607636e-003
      2.9846118198425170e-002 3.3095520113311745e-002
      -1.2286391853296175e-001 -5.1197072832308850e-002
      3.7042040048167496e-002 2.2947702044014337e-001
      5.4987132097188841e-002 -1.3655618709652834e-001
      6.8825073463340186e-002 3.2378740346005262e-002
      -2.2645785995444692e-001 -7.6073319615106480e-002
      -1.7735057822993752e-001 1.4136245123114009e-002
      1.4945393776340535e-001 1.0556215351887110e-001
      -3.8184497292323323e-002 8.2593293380436569e-002
      1.0907924254305221e-001 -8.8498480069392635e-002
      2.3280342646461002e-002 1.7016966951025090e-002
      3.8689165832538386e-001 -6.2126074692148182e-002
      -8.5496789570816880e-003 1.2835853911479628e-001
      -1.6796088590606693e-002 -1.2600225476597510e-001
      3.4195890359148845e-001 1.6106825646877473e-001
      1.1883743401171622e-001 2.3048214794607280e-002
      -6.5026577548477751e-002 1.0584766443943441e-001
      -1.1780765464995362e-002 7.0759624708928852e-005
      5.2359094796062725e-002 -2.5081992856940565e-002
      -8.8442036656470768e-002 2.0496281997371313e-001
      4.5572993211121703e-002 -1.0683320740232380e-001
      -4.0658871993599223e-002 5.3726915550889306e-002
      -2.7104365861963137e-001 -5.7634706872732588e-002
      2.6209406856670812e-002 -1.2371520158088298e-001
      -1.1118603640552230e-001 -3.3427974692683421e-001
      2.2586402891802786e-002 8.7738981375439038e-003
      -7.6427036979387117e-002 1.4259752585773524e-002
      -7.1835157106855993e-002 9.5173058612308598e-002
      1.2826262581869288e-001 -1.8225813006057001e-001
      1.9899316162137345e-002 -1.5503866613847583e-001
      -7.4590630487036860e-002 2.3550634984336235e-002
      1.8161737305156081e-001 8.4277685599560503e-002
      -2.3738052962700770e-001 -1.3738608865805946e-001
      -1.4490234744150415e-001 -7.3718705530072129e-003
      2.2032259585355082e-001 -1.5715934220183903e-001
      -7.6947937619267409e-002 6.0615460055129265e-002
      -2.1707087564037869e-001 -1.8414891340155401e-001
      2.4199137794094880e-001 5.4773211926989619e-002
      -6.0932066020769692e-002 -1.4117985231121366e-001
      5.6722677161156629e-002 9.4275003190166060e-002
      8.6253575160761889e-002 -9.9729909125014088e-003
      -7.4552396932734341e-002 -1.7417124211680138e-002
      -1.0327372044431109e-001 -2.1294376559655888e-002
      8.8864214858987253e-002 3.7920798343610909e-002
      1.3611441392099462e-003 1.1151797389153308e-001
      -1.4583540850427085e-001 1.3458488926223003e-001
      -1.2398593202229410e-001 6.4263447808848351e-002
      4.9134137667523045e-002 1.6841897839712958e-001
      -3.6643038790163068e-001 1.3653110238152197e-001
      2.8885008973202869e-001 -1.2547495553193491e-001
      6.5661793939277652e-002 -4.7112225275176681e-002
      -3.9121631478972813e-001 1.5313767057772947e-002
      4.5491993075869361e-002 -6.8692416880477428e-003
      1.4554592095465457e-001 -4.5195584734712038e-002
      -1.2381492708588551e-001 -2.6109868670705517e-002
      -5.0669478553657089e-002 1.2452711558427511e-003
      1.8934574625728245e-001 -1.2318189044361544e-001
      4.6388597514754479e-002 -1.4912237339387130e-001
      6.1959698686467744e-002 1.9551566687312649e-001
      1.7194851020059376e-001 3.2345277771506968e-002
      -6.6430586799504684e-002 -3.9081907082660655e-002
      -1.0723800879738237e-003 9.8335991320613339e-002
      2.5809645385414021e-001 -2.2614342984504560e-002
      -1.5257749781486266e-001 1.4387511420807944e-001
      1.1562081760611201e-001 5.6327417001915528e-002
      -3.0483326029532849e-003 8.1287427709007362e-002
      2.4673820230958493e-001 7.8912332063931348e-002
      -2.9250301644697559e-002 -2.1322897523170120e-001
      -2.5201037715004304e-001 -8.0563599408170775e-002
      1.8553898008759283e-003 -2.7197711685044449e-003
      -3.9536782611236228e-002 -5.7151224187892931e-002
      -1.3221109649449900e-002 -1.8552925278585528e-001
      2.4824511151454398e-001 1.7581151609171272e-002
      2.1473069815740370e-001 6.1945009570408384e-003
      -1.6952429238790184e-002 -1.1307943841334347e-001
      -1.7310459801403766e-001 -1.7234350576174114e-002
      3.1714226328762224e-002 2.6557087694522102e-001
      6.5295626066179446e-002 -6.9590624421266165e-002
      1.3316847143970723e-001 -1.4206672485276481e-001
      -4.6553254918467145e-002 -8.4681988845995537e-002
      3.0102451536704929e-002 -8.6416561987776447e-002
      1.8526407452465123e-002 3.2938463685784798e-002
      7.5791233230756413e-002 -3.7415569051526272e-002
      1.2060727703964077e-002 -7.5692889846152717e-002
      -1.3381445020090485e-002 6.5904062863750015e-002
      6.5126021265599299e-002 1.1248624269372440e-002
      2.1373616739778564e-001 -1.7863404074994371e-001
      -2.2974811032655967e-001 5.7878425992112558e-003
      1.4455084153507919e-001 -1.0550274217740353e-001
      -1.0844571855776231e-001 2.4802094124343321e-002
      -1.2460654233880073e-002 4.6956526130289569e-002
      -4.0874815549900362e-001 7.5239950586405757e-002
      5.5565336526905061e-002 -2.4429996855388266e-002
      1.9181795530887280e-001 6.9955151388918294e-002
      -1.1270242091130210e-001 -1.1568367435859170e-001
      2.3477503442494665e-001 1.2036061436201277e-002
      2.7615109914312670e-003 -2.3862868573733556e-001
      -1.6377006118161419e-001 -8.5133267607889113e-002
      -5.1715740549840600e-002 1.9686439052917676e-001
      2.1572862779864511e-002 6.8297856542827037e-002
      -8.6457106794292610e-002 1.1823660764214304e-001
      -4.9784149796599834e-002 -7.6955038956037919e-002
      2.6308256366906430e-001 -8.4436975845796111e-002
      1.6336958849947780e-001 1.4117208731743872e-001
      3.9918871359134175e-002 1.5672878592549788e-001
      -5.1691229852258741e-002 1.2950037385228189e-001
      1.8965676105635920e-001 1.0836577297526510e-001
      1.5865001638135484e-001 -2.2003766705695130e-001
      -6.6794840265368026e-003 2.1370987999082557e-002
      3.8793918209937030e-002 7.3106741386830862e-002
      1.9874031694296523e-002 2.0805744927084979e-002
      6.0937064163389190e-002 -2.0190000870949387e-001
      3.4514278358444556e-001 3.1460080269761645e-002
      2.3205562752132589e-001 9.2222134045718024e-002
      8.3013132795322450e-002 5.8743701894822420e-002
      3.3882329082437307e-001 4.9168339645402348e-002
      1.2878551784782993e-001 1.7594956262418920e-001
      -5.9100644208258980e-002 -1.3685433316254000e-001
      1.6135209919963325e-001 -3.6633945927448737e-002
      7.4512306313414656e-002 1.2685093157126192e-002
      1.2904286551367408e-003 -1.0325269917161631e-001
      2.1741942852950884e-002 -7.0434695745811626e-002
      5.8242613630873324e-002 1.2989596223344524e-001
      1.0936680493293784e-001 -3.8621187056897870e-002
      6.5603923243519172e-002 1.0789679334930560e-001
      1.4849645325645058e-001 -1.9640118023137622e-003
      1.6695672955394311e-001 -2.1261327870900781e-001
      -2.0419707702151491e-001 -2.0946698969153857e-001
      2.0676800466200665e-001 -4.3470019951206980e-002
      -3.9180497941151665e-001 1.4052127546381302e-001
      -8.6365656100271124e-002 1.0556676346373878e-001
      3.0918915612254061e-001 -2.0537805084132059e-003
      -7.3981987480371769e-002 -3.6307343974289058e-002
      4.9782610911728753e-002 -8.3349660390792009e-003
      -4.9736827879011743e-002 2.0652157433694019e-002
      3.5943036941246975e-003 -1.0961732755763318e-002
      8.7836042914703014e-003 7.3889685176671216e-002
      2.1960915764114744e-001 8.7095625781609398e-003
      2.2626480208871969e-002 -1.4558581377385095e-002
      1.4740949376269680e-002 5.6593763555090860e-002
      8.4768095681108466e-003 -3.3218267536270760e-002
      -4.6320058318446836e-002 1.0585019565246608e-001
      9.5604187766782547e-002 -4.4940199068087536e-002
      -1.8816404858132834e-002 5.5891473006897500e-002
      4.8823834068299883e-002 5.7420388310589605e-002
      4.0156201519729153e-003 -4.7972940210769095e-002
      1.6531640594205235e-001 -3.9369584761640444e-002
      -2.6159787415591568e-002 1.2873663892532769e-002
      -2.1778362185075648e-002 -2.7714363788436901e-002
      -3.0183361365532870e-002 1.0886095745513737e-001
      -2.6879802440404827e-003 -1.0897639964555821e-001
      9.0249221183898443e-002 -2.3063773457555961e-002
      1.6898222825706966e-002 7.6938315002142710e-002
      -1.1127339339493745e-003 6.2133324388949085e-002
      -4.2708046347168550e-002 1.1866620992561454e-001
      -4.2691124746512356e-002 -2.1366769726454155e-001
      3.9158191581789736e-002 5.0729330503213786e-002
      -1.1562287907722973e-001 6.9033212461161411e-002
      -6.1981053788318023e-002 -8.5893046710680571e-002
      9.7811277996691690e-002 -1.6555916486022709e-001
      -1.3134831741628908e-001 1.6460307037593758e-002
      1.0964521999457351e-001 -7.0744028288104749e-002
      1.0378761262111182e-001 -8.6380713082901281e-002
      1.1717926696799061e-002 -1.8743205255707333e-002
      -4.5669416604739901e-002 -7.6086065429931182e-002
      1.2549619323998082e-001 -2.0667135617337289e-002
      1.3512948100424412e-002 6.5526869283080338e-002
      4.3913316618257557e-002 2.8832544599147040e-003
      1.2177215789621985e-001 -3.3499368709941899e-002
      -1.8482511218714581e-002 -3.6440546486055186e-002
      2.4578545723091066e-002 -1.0222747917146807e-001
      -1.9103549341842249e-001 -7.4389590433895508e-002
      7.4521626495854002e-003 3.7998537324014836e-001
      -2.2445204260770532e-001 -6.7882486314292612e-002
      -2.6661426471951055e-001 -2.2058620112871502e-001
      4.0775082912882310e-001 -4.0462163972831609e-002
      -2.3353149769634646e-001 -4.7565754950203137e-001
      -1.2622215130946771e-001 4.6416787845242014e-001
      -6.7713010170549842e-002 -6.6568884465581823e-001
      -4.2146963453888814e-001 -4.9549044558931049e-001
      1.0443542521791922e-001 3.2544105112098937e-001
      -1.9793997636736468e-001 2.5074909438986225e-002
      -1.6242735511449921e-001 6.6667962105818257e-001
      -1.1035637200647853e-002 -4.4736986680418189e-001
      8.2735007473366456e-002 1.3803062331892141e-001
      1.5757146020294438e-001 -2.3118364626161955e-001
      -2.2649601646925019e-001 -2.0009185863186668e-001
      -4.7249003368855819e-002 6.3241264354584803e-001
      2.9225964047895597e-001 3.4708224092257134e-001
      9.2859440741675570e-002 -7.8367818117411517e-002
      -1.5863289380976253e-001 -1.1053535380838388e-001
      -4.3806277666484206e-001 5.3655233840766148e-001
      -7.5360803811346588e-001 -1.0852271124026321e-003
      -2.1078766598311396e-001 -1.5825313042430039e-001
      -3.5003522679103749e-001 -3.9675741937837607e-002
      7.4735807217308992e-002 7.7201777567742404e-004
      -1.0491051573757418e-001 -7.3144063532604164e-001
      -1.7919112957451758e-001 1.6326155085362815e-001
      -1.5601770699039738e-001 5.9784421144975508e-001
      6.1770420427105073e-002 -4.6917395658049574e-002
      9.2012521112907653e-005 6.2054397175873625e-002
      -4.3259892582977910e-001 -1.2613386131531405e-002
      -2.0216827270624982e-001 -6.9423161997769947e-002
      -3.0812997339227605e-001 -4.0612978990399451e-003
      -1.3244852646162808e-001 -2.3364800954006290e-001
      -2.1710639278428784e-001 -2.2546118315523780e-001
      -3.5852743001384169e-001 -1.5565715633464575e-002
      3.4180294319133903e-001 3.3208654552473116e-001
      3.4330016324413376e-002 -4.1317599488778348e-002
      -2.8294691152809994e-002 -9.9372486642857527e-002
      2.1979701774872892e-002 4.4038559211944932e-002
      -4.3185799597028379e-001 5.0389920466337446e-002
      2.8772300011116081e-002 -4.5124117460001938e-002
      -1.3115066400553829e-003 7.7352923326220499e-002
      1.3174854030431846e-001 2.0384275198237128e-002
      -1.3060311255489399e-001 8.2552810729072060e-003
      5.5260364034091999e-002 6.1339556201284685e-003
      -8.1918226491213997e-002 -2.8945946292517101e-002
      -4.3864325965813702e-002 -5.0089248838626295e-003
      -6.6455588627524200e-003 -7.9288022843046375e-003
      -1.8491060671718695e-002 3.9434999574613473e-002
      8.0112515281954663e-002 -8.6923628772771863e-002
      2.0111999831030744e-001 4.2340143604446691e-002
      1.0855045777157796e-001 -2.6883791245436356e-002
      -5.9226468907610762e-002 -8.6660879591767936e-002
      -1.8435755945173670e-002 4.2447934201326538e-002
      -4.2285941524987138e-003 3.7760230018043420e-002
      1.5814173312799076e-001 9.9707136040498977e-003
      2.3937677248139548e-002 1.9886582524468874e-002
      7.3261838627253053e-003 -2.5625654939172470e-002
      8.4462011613130314e-002 5.9931398855462920e-002
      -1.0067343369052561e-002 2.8768386958641749e-003
      5.1020684186437910e-002 1.4782056186241094e-001
      1.6933243647379517e-001 8.9015843585089779e-002
      -1.6825752479824842e-002 1.2310710123941276e-001
      5.3209005930726964e-002 -3.9629990101302415e-002
      2.6765113562730449e-002 1.1501101166518074e-001
      8.0156359957937767e-002 -1.8334609114697131e-001
      3.3769262221021272e-002 -3.9611694805528536e-002
      9.8901788325494844e-002 5.2172659044824272e-002
      2.6313200512682863e-002 -1.9601277127435212e-002
      -7.3692563752250306e-002 -1.8854799098641795e-001
      3.6227916448893449e-002 1.0949188896170065e-001
      1.2482515409325319e-001 -8.6560548278536556e-002
      5.7106887370395432e-002 5.8499547037994919e-002
      2.2559128493766109e-002 7.5521172263184763e-002
      4.5146978548097301e-002 2.1545349459146310e-002
      -9.1834103218618582e-002 -9.4359403483011611e-002
      -1.3488786542887710e-001 -3.1651451098353815e-002
      8.6721973602265856e-002 1.4186056797561172e-001
      -4.2037711568871358e-002 1.8166842664281074e-002
      3.2200057942593235e-001 -4.1309198758766298e-002
      -1.1160560517661014e-001 -3.0877600502735063e-002
      -6.8261815553360458e-002 8.8843132718892590e-002
      -5.1859301502391465e-002 -1.0301277925553887e-001
      1.5204882030387626e-001 -1.6466113362321809e-002
      -1.2374338865269335e-001 -4.9733581575670469e-002
      1.8085450435240605e-001 5.2165357126244725e-004
      8.0284100538175779e-002 6.9620016877657717e-002
      -6.4567348370917349e-002 -5.3412484511805650e-003
      -4.0239295606986580e-002 6.3799693026571930e-002
      1.5940931575411026e-002 3.0047757761847819e-002
      2.2140951110880266e-002 -2.5061621524146906e-002
      1.0587030804341932e-001 3.6274801312876845e-003
      -2.9471090512780021e-003 2.3747359617907504e-001
      -1.3576446594126296e-002 7.5289527171363384e-003
      -8.9632774533903045e-002 -3.8889351042936428e-002
      -6.9898610194495600e-002 -5.2021873290557918e-003
      1.4595436201424094e-002 2.9410517563972761e-002
      8.6630667087738755e-002 2.3144403471207417e-001
      1.8179711005716481e-002 -1.5389968180873521e-002
      1.1037721577683965e-001 -4.8668965143351388e-002
      1.5540155568417430e-001 -1.0588387843445539e-001
      -7.9487131692971114e-002 -8.8142889929857929e-002
      4.8903462286843231e-002 1.9228020479653887e-001
      1.8084918712857465e-001 -9.1929431211103002e-002
      4.5058041978401867e-002 -6.1650544109253811e-003
      -1.2164252952535719e-001 3.0432016447221777e-001
      -6.4821783166076610e-003 -5.5668568543259141e-002
      7.4637145085652279e-002 -3.8432739015299292e-003
      -2.8521238148368566e-001 -1.0864179441378786e-002
      2.0437226956005008e-001 -7.7426744129806213e-002
      -2.1650194850460991e-002 -1.4202364786342974e-002
      -1.0184380804285731e-001 2.6039801039935706e-001
      -1.6126093439979679e-002 -1.0839325112810185e-002
      1.5095529811846112e-001 3.1574278557518535e-003
      -4.2034491379444551e-003 1.1538716984825424e-001
      1.3338084958832139e-001 -1.0190115353652288e-001
      1.6595086735581085e-001 7.9361191170011312e-003
      -3.1193708168807642e-002 4.6664057472558078e-002
      -3.0965248505655414e-002 -7.4617758680633459e-002
      -5.7380311104714754e-001 5.0888769494575901e-002
      1.0301001230404368e-001 1.4041011342378640e-001
      8.6351503772032392e-002 -7.4947233769592475e-002
      7.9818969959515984e-002 2.8679710337619225e-003
      1.2746040483674667e-001 5.6257003199347124e-003
      1.5186534467751561e-002 -1.3242235888533166e-001
      -6.5768805910247002e-002 7.5504677249073726e-002
      -1.1140298626185147e-001 -2.0454031578900772e-002
      -3.6777946629557690e-002 1.0805406460478442e-001
      6.6604670895533341e-003 9.9436944213657411e-002
      -8.9462367281517421e-002 -8.6799291424403180e-002
      1.2768473865582505e-001 6.9678945689892982e-002
      2.8496888994231254e-002 4.8974878499065309e-002
      3.6998610014373754e-003 -1.3126220107151565e-002
      -1.1435621410890533e-002 1.0541677478630862e-001
      5.1445751752278800e-002 5.2617520742477199e-002
      1.5248305429819253e-001 -2.2355635007964733e-001
      6.5489762178548044e-002 1.4629435170236033e-001
      1.7050092515305506e-002 2.6335921624661467e-002
      -5.8647544743357691e-002 8.0435487779057763e-002
      -1.4130597273865758e-001 -6.2102687080751076e-002
      5.0705586893457985e-002 1.3803405810843647e-001
      2.3720905470009038e-001 1.8886093688145686e-001
      7.9442374498453233e-002 -7.4992543852530930e-002
      1.4184617796953311e-002 3.1148229456209760e-002
      -1.3812537280541426e-001 1.8294540763058512e-001
      1.1263734550428046e-001 -1.5629827592629308e-001
      6.4122189758356374e-002 2.0000368578117353e-001
      -6.2844855895573121e-002 -1.1443438532787242e-002
      1.9363622861186522e-002 2.1578912745683965e-002
      -1.9569700125350764e-001 2.0233001278391925e-002
      8.7597880411434584e-002 4.9690844265977065e-002
      1.8199262691405627e-001 -1.4663150653707738e-001
      4.8622875516774272e-002 1.1376081745357841e-001
      -1.5365011667955628e-001 -5.4136404630885093e-002
      1.4130312222335598e-001 -1.2764277690718021e-001
      -1.6977248683644935e-001 -9.7158837348434372e-004
      6.1332660467940302e-002 -6.5695870318643282e-002
      -1.6394129851632414e-001 3.1292072978808351e-002
      -2.9565013106226314e-002 1.3132514774750415e-001
      -6.9176124223500490e-001 1.0487474010696247e-001
      1.4322564451992784e-001 -8.4076083142490265e-002
      1.5037183140145116e-001 2.7338056875703542e-001
      -3.7475950053843209e-002 -8.4981354967168785e-002
      1.2741767368934934e-001 -4.0636344614771466e-004
      1.5355765697524087e-002 -4.1858542644161290e-001
      -5.5961105180616211e-001 -5.2640260789762285e-002
      -1.0036279598165739e-001 -1.0780873402892097e-001
      1.4089616621698228e-001 -1.3549794930439474e-001
      -7.2934700763683066e-002 6.5090115104298879e-002
      -4.8559985137910031e-002 -3.5814740804270362e-001
      2.2978101850128343e-001 1.2731631209041705e-001
      3.2738924918624490e-001 2.0406549933304988e-001
      1.3231708237557568e-001 1.2561819052773462e-001
      -4.7405461626560876e-002 1.2426848299234360e-001
      2.5462325108157136e-001 9.2208434124653918e-002
      3.5394073451496694e-001 -2.2461191665028950e-002
      1.0333025113552761e-001 1.7564024973832437e-001
      -6.8653537609657284e-002 1.2226299062247814e-001
      1.6304262367667155e-001 7.7645049768973870e-003
      -2.8756358630635659e-001 -9.2155440321499294e-003
      -2.8903249440663522e-002 1.8466528621751521e-001
      4.8922649755277603e-001 1.8530281623435946e-001
      -1.1472284561876497e-001 2.4913647431814515e-002
      1.9320289255686388e-001 1.7278339315643079e-001
      1.0793227282290145e-001 -4.1058802373597207e-002
      -9.2415796471105233e-002 -1.9726173122652002e-001
      1.6474830166989562e-001 9.8305576196056885e-002
      -1.0960976651681908e-001 -9.7150832184688771e-002
      -5.6822192133586677e-002 -8.0811405578553167e-002
      -1.0507311678169508e-001 9.8922283433765162e-002
      8.3821946407733508e-002 3.9362210404693154e-001
      8.7345330248825084e-002 -2.6612488751550600e-001
      1.8259861649328543e-001 8.3821848701436830e-002
      1.2115095698115974e-001 -1.1063185288020051e-001
      7.0161011972621201e-002 -2.1797295816601506e-001
      -8.6777296925549197e-002 -1.2269217557921185e-001
      1.2351040814403097e-001 -1.4588324260763499e-001
      -1.1514709512576192e-001 9.8917765105347458e-002
      -6.3483043423672586e-002 1.3602185359257835e-001
      -1.0372841116326563e+000 7.4843799171832731e-002
      1.6290096921486893e-001 -2.2834938988341144e-001
      1.0674954014074182e-001 2.9457455462600607e-001
      -2.8628207298126984e-001 -2.0019934021782654e-001
      5.5298479562137057e-002 -3.8316425100675261e-002
      3.9879983308991382e-002 -4.0597668022571021e-001
      -6.7239398985788490e-001 -2.7671359747338931e-001
      1.8558359003639693e-002 1.4485760288944856e-002
      8.1330130924852542e-002 -2.7468721189524070e-001
      -8.4340664965821183e-002 1.6983593691709689e-001
      5.5683831360193663e-002 -3.9985418632334080e-001
      4.0008166563300013e-001 1.9045514125308891e-001
      4.1346993975689705e-001 1.7147941811316847e-001
      1.7317518238072283e-001 3.2551039826401362e-001
      1.3348407311275116e-002 -9.4747721731681250e-003
      3.6425144636229756e-001 -2.9537120259474428e-002
      3.0499734190354705e-001 -2.4041735316573473e-001
      2.4155918981618483e-002 2.0119246397720536e-001
      -1.3605000431224479e-002 2.0555038300019429e-001
      2.6018048041343728e-001 9.7721103453913896e-002
      -3.9382407872023079e-001 -1.0795842242861822e-001
      2.8384193750579384e-001 2.4972596882406106e-001
      2.6620339361977019e-001 9.5606508847595861e-002
      -2.2737275913409749e-001 3.8353685401293754e-002
      2.2733758495620521e-001 -7.1106426173038204e-003
      3.1966978718315875e-001 1.0148361018655074e-001
      -1.1187409160760922e-001 -3.0680090055883602e-001
      8.4771251854930660e-002 3.8513985143553883e-004
      -4.1501405963486414e-002 -1.0539201540163774e-001
      -9.4026681116451544e-002 5.7256241031798841e-002
      3.9973713436325768e-002 -2.7854608771337063e-002
      1.7183297159525759e-001 4.2864363646435344e-001
      -6.0278709371304973e-002 -3.5740014839471029e-001
      2.3655887648209187e-001 -1.2311513371243901e-001
      3.0060515574005964e-001 -1.4742479986764326e-001
      1.7623909820185227e-001 -2.5331543628476699e-001
      -2.1508080265876242e-001 -2.4804054089667588e-001
      3.4370242785802801e-001 -2.6051638544592864e-001
      -4.1886895796733747e-001 6.1890866624197606e-002
      -8.2033927643366228e-002 1.4119288953600218e-001
      5.5012169623176299e-001 -1.4294773316270595e-002
      -3.2694747529443152e-002 1.3155803627255994e-001
      -1.3260317461803756e-001 -2.7030081821166596e-001
      7.8613461656490049e-003 1.2496805515637804e-001
      -2.3079069498728910e-002 -6.9061714212850908e-004
      5.0920365139070119e-002 3.5950474233507813e-002
      2.0376376961019424e-001 2.1950982511605480e-001
      -3.8127425898448385e-002 -2.3792236777907455e-001
      -6.8522518004464142e-002 -6.0051677257581822e-002
      8.2994259809025403e-002 -1.0030747943774437e-001
      -9.5314671292628703e-002 2.1890043977151780e-001
      -1.3084916159192039e-001 8.1449514068658219e-002
      -2.6939317128548301e-001 -1.9727578546612060e-001
      4.4419871186018790e-002 3.9854117657976175e-002
      5.3573481079965034e-002 -1.1149853118708050e-001
      -4.7123600923183927e-002 -6.8838685140315395e-002
      -2.4606241088316297e-001 1.2687241667850091e-001
      -8.7290136351362874e-002 -6.3446176149335246e-002
      -5.1568080476254066e-002 -2.0880493877705295e-001
      -2.1776735928956506e-001 -9.2693292043126971e-002
      -2.1099431470541517e-002 2.8383385009134726e-001
      -5.2005636193816374e-001 -6.3092266844940209e-002
      -1.9657793197295506e-001 -1.0362065985640916e-001
      -2.6573978894654609e-002 -1.0799357927618213e-001
      -2.7782071359923477e-001 7.0192003436001918e-002
      -2.1004045179320133e-001 -8.9200774605049063e-002
      9.1718398772792795e-002 4.1461391343726395e-002
      -1.0568804309458736e-001 7.6218282618626704e-002
      -4.0565140456984325e-002 2.9031769175625412e-002
      1.7412602462833987e-001 4.3382773376515235e-002
      -2.1454120700750401e-001 -1.1741496557798169e-002
      -2.1224371948564184e-002 -3.9627958688110360e-001
      -6.7191283899810023e-002 9.1264516695347860e-003
      -2.1060160547084927e-001 -2.6732929480505631e-002
      -2.7341192186499047e-001 -3.6502648233648085e-003
      -8.9266865830508607e-002 7.5798922997740867e-002
      1.0625870750113908e-001 2.6938816637442348e-001
      -9.0960833560884968e-002 6.2896351874144149e-002
      3.2150141506418477e-002 -6.9282847391082217e-002
      7.7573476253590984e-002 -7.4537348676538676e-002
      -2.6777241558430182e-001 6.5357566567501683e-003
      -2.2198296749521309e-002 1.9946149671502857e-002
      -4.6339030634096362e-002 -5.0542062450776769e-002
      -1.4196562925743811e-001 -1.6433115021907821e-001
      6.8741465681882191e-002 -3.0125264022834886e-002
      3.9732700577705766e-003 -7.9397559614208746e-002
      1.0227708968327258e-001 1.9179150750249652e-001
      -2.4500430392875149e-002 -1.4245561120559381e-002
      -9.5497040765285923e-002 -2.1777742985433618e-001
      2.0211851298431116e-002 1.5105186448602145e-001
      -9.4260905863864750e-002 1.5566215188065871e-002
      -4.4316607315680309e-002 1.3983424133003028e-001
      -2.0276909774258745e-001 -9.3498399940341273e-002
      4.1685604585813427e-002 2.0989483409547066e-001
      5.6433664170735406e-002 -1.0240714179270191e-001
      4.4185160939904752e-002 -8.0816537893368373e-002
      -4.1651701152307340e-002 7.7435775922699665e-002
      -5.9520147670545302e-002 1.1649871456267225e-001
      -6.9324137622848031e-002 4.4449749676711281e-002
      -5.0418881811049213e-002 -5.6295381081034067e-002
      -1.1418325533202167e-001 7.9660583255420261e-002
      4.8557603792814805e-002 3.6410789587471327e-002
      -8.2977920602135102e-002 -6.4635232539146770e-002
      -1.4077280359003264e-001 1.0880190502959561e-001
      -9.9020372620730546e-002 -1.0313229574291596e-001
      -5.0601982745293690e-003 -1.0215274551689162e-001
      -1.8711036088032323e-001 -4.4084787914520926e-003
      -4.5296204506499953e-002 4.0277644634446615e-002
      -3.0749399449449488e-002 -3.6667881550370049e-004
      -2.8639447601022570e-002 8.3413075920457172e-002
      5.2982532277037774e-002 1.1524591798745212e-001
      7.1986092841002991e-002 4.3659790898158218e-002
      -1.6717294083275769e-001 -3.0525492377929325e-002
      -9.7483468811310099e-003 -1.3930359450695051e-001
      7.0380118107528339e-002 -8.5034870578806654e-002
      -6.1672493836825167e-002 -1.5669953624319145e-002
      1.0695334194863315e-001 4.1235218327134483e-002
      1.2697703322497514e-001 -4.2137136366700724e-002
      -7.0895551045424249e-002 -1.0686020682892037e-002
      -6.5929965420841678e-003 5.6201597667084123e-004
      -5.9061064697106824e-001 -1.1201520381469134e-002
      4.5258051555389325e-002 1.1813126720179738e-001
      -1.1439612441733797e-001 -7.3091092347709094e-002
      -1.7487174342460032e-001 -1.7867645163817913e-001
      5.5384943666253607e-002 -2.4728541252743905e-002
      7.0475817278192908e-003 -9.6284987326625354e-002
      -3.6389569401166244e-001 -1.6652293417804245e-001
      9.5458234371696815e-002 -1.4336905808754508e-001
      -4.4447541065830126e-002 -1.5888202071299326e-001
      -5.7594108665735638e-002 1.3444475912339590e-001
      9.4904268634920005e-002 -1.1282534406256260e-001
      1.8735948004090619e-001 9.7580068234280726e-002
      1.5725291491393165e-002 -1.1664964482945299e-001
      5.1439208125797220e-003 -7.5643890850780507e-002
      6.6224943954187557e-002 -1.7776745781514622e-001
      -1.2843163526289375e-001 -1.2921713248327973e-001
      -4.1398945653823328e-002 -2.6790182007248153e-002
      9.0529153434472046e-003 -9.0062917182212737e-002
      -2.7388369037952824e-002 -7.1804494238937991e-002
      1.6648479452990739e-002 1.2135862754970056e-001
      -7.5641911944506077e-002 1.8463933497903251e-001
      -2.9256215100063282e-001 5.8609688988855373e-002
      3.5498002373562797e-003 -6.4969951760560744e-003
      -2.6842831181005539e-001 5.3468297025175249e-002
      1.8652117037198983e-002 -4.8759407332722118e-002
      1.9625687558884436e-001 -1.6302027614430479e-002
      -7.8087740448196580e-002 -1.0093754838592656e-001
      -1.0126145096819437e-001 7.5284335366612484e-002
      2.6075040907269087e-002 2.8291957601568756e-002
      8.4540599376008524e-002 5.9205839285920984e-002
      -2.3136083176979416e-001 3.9829632638263168e-002
      -5.8016777187416366e-002 1.2310130484547609e-002
      -2.4016484103366645e-001 -1.1139729024175470e-001
      6.1050497331870098e-003 -2.5619450641355146e-001
      -4.2220549230485363e-003 2.6529837002234796e-002
      4.9229685794655594e-002 -8.9996759460696553e-003
      -3.5202371667849855e-002 4.4719652533536228e-002
      -1.1683618885370721e-002 -8.4351649049051611e-002
      6.5630996743265418e-003 1.0121921932496480e-002
      -2.9366950781256406e-002 2.5159369261633983e-002
      7.0746000481068838e-001 1.1213841455547534e-002
      -1.6472001612500883e-001 -2.4790416920569300e-001
      -1.7442898896621700e-001 1.6105970399527625e-001
      -4.5678394562870137e-002 -9.3034175080456999e-002
      -1.3213300771709971e-001 -2.0411614878533473e-002
      -2.5336138575327516e-001 2.5130703441133693e-002
      2.4001174265370334e-001 -4.1340696493113449e-002
      5.1010721873294231e-002 -3.1750487829980571e-002
      -2.3552438457340047e-001 -1.4583760700544454e-001
      -1.2533423813388530e-002 1.5462389990186140e-001
      1.6602737057378864e-001 1.6076767176612083e-001
      -2.1447102095071530e-001 1.3833888775858660e-001
      5.8656138724788510e-002 -2.1874106164638016e-001
      -8.5620361850196725e-002 1.2210663792435680e-001
      -1.7047802189979925e-002 -1.2318519836085058e-001
      -1.0309636262852276e-001 -1.5465327616847624e-001
      -9.5058428078374918e-002 1.4771124068357888e-001
      1.0462020628087947e-001 5.7353202995379236e-002
      7.5494235847036573e-002 2.0405511984437461e-001
      1.1529250007763345e-001 -4.8434562537646705e-002
      -4.1250736691078517e-002 6.8095797108359592e-003
      8.0636270774662039e-002 8.9016070194039620e-002
      -3.2580291402762263e-001 -5.3105688205510267e-002
      -2.5827895221732948e-002 2.1574044174916718e-001
      2.0148516495193006e-001 -1.0841838058006377e-001
      2.4643058636979856e-001 -3.0567874505272946e-001
      -2.8142353639766343e-001 2.5756200278229507e-001
      -9.0434956379530876e-002 5.2537029983165368e-002
      1.7133315145872696e-002 6.3818886195205538e-002
      -2.5272475727566074e-001 5.7256751946149251e-002
      2.0766688928874083e-001 5.3263346398258180e-002
      7.3861357511681713e-002 -1.8670765048522147e-002
      -1.2399705514775539e-001 1.2439068596877029e-001
      -5.5681406983025920e-002 -1.0157821151914785e-001
      1.9389542203927099e-001 -6.5989293181179824e-003
      -1.9730465880001755e-001 1.6836693508645964e-001
      2.1401044170748842e-001 -9.7055046539788012e-002
      6.6775595238859772e-002 1.6317585109793437e-001
      -2.8234980340202661e-002 3.0435877035924003e-002
      -3.3807746747866872e-002 -9.8353102723901659e-002
      -6.4412293647497798e-001 -2.0210359266741529e-002
      1.1797028903575283e-002 -2.1802130358796589e-002
      2.1053170556743394e-002 -4.7097547549957604e-003
      -1.4242969709138562e-001 -1.2122388825848576e-001
      2.8164782528229515e-002 -5.6539915652313227e-002
      2.1120856770421716e-002 -6.1463403065549489e-002
      -1.1699013139806478e-002 -5.9044803693340982e-002
      2.4972969999994092e-002 2.8166142725248762e-002
      3.5151095797414503e-002 -4.4325943895076117e-003
      -5.2927831563563690e-002 6.5082918330305328e-002
      -8.6226568162848585e-003 -4.5667746551369293e-002
      2.6428329081200308e-001 3.9910020757523090e-002
      8.8452112588010751e-002 8.8310584479099313e-002
      6.7872492336627371e-002 8.2719084704987442e-002
      2.9868618059838259e-002 7.6488178686952950e-003
      8.4709658735978327e-002 -3.2726884768761323e-002
      -3.7032575719499476e-004 -1.0418807237937479e-001
      6.4352856771090580e-002 -4.8767475561308400e-002
      -1.3229261437774970e-001 1.4394251109556661e-001
      3.3013631174534042e-002 -2.8341616649990273e-002
      -8.0565028974869932e-002 -3.4508013523953947e-002
      7.6490376170368732e-002 -9.0694141482554780e-002
      1.4837447063569065e-001 -4.4529109521966280e-002
      -4.4209684755877852e-002 -4.3201750528011562e-002
      -2.7593258336295320e-002 -6.4829260160089205e-002
      4.2713501505634771e-002 -7.1907101335736759e-002
      -6.1077594211830934e-002 9.5854526902082376e-002
      2.6541640081801956e-002 -6.4580844009118649e-002
      -1.0827547290461766e-001 -6.2803393528067367e-002
      -1.3398321859083867e-001 1.5683132646971576e-002
      5.4685834957890769e-002 2.2739105772097296e-001
      -5.8759720890116810e-003 7.4063269653453459e-002
      -6.9754431828819140e-004 1.0755678347547698e-001
      5.7305654174570834e-002 -2.5523954144447941e-002
      8.2459950568776377e-002 -5.5043372066057548e-002
      1.1549706506732332e-001 -5.9111450885682225e-002
      -1.3711090422984440e-001 4.7628644035345663e-003
      1.3010826760276684e-001 -1.4417919885389680e-001
      -1.5977941938553186e-001 -4.2950583705890770e-002
      -1.0496960391236130e-002 -2.2129389867488553e-002
      -4.8617773280246947e-002 1.0155836929825640e-001
      -4.6678807138020022e-002 -1.4611243879112251e-001
      7.1107577444947820e-002 2.6997305033680107e-002
      -1.3644595240332753e-002 -1.6632780527122835e-002
      -1.0585036310735532e-001 3.2085723646888388e-003
      -1.7215528159473848e-002 6.7222893712132997e-002
      -3.9496636719651770e-002 -9.1930304023469175e-002
      1.1665856787712774e-002 1.5849057960831067e-001
      -5.3960202200325699e-002 -1.0316839192828667e-001
      -4.3900875098888369e-002 3.0770527933921422e-002
      -9.8427588439139527e-003 -3.5977518593408399e-002
      3.8387728969635415e-003 -1.0216177561837439e-002
      6.1517882777779705e-002 3.5431839905956143e-002
      7.0326107144717043e-002 5.7569450928974766e-002
      -4.0348135820403114e-002 1.7910861255762685e-002
      8.5013845176816080e-002 4.1200852739520309e-002
      1.0215861453899723e-001 -1.7635895564963625e-001
      3.3763806729911104e-002 -1.4363001149196758e-001
      3.5622223473266913e-002 4.6068461409440938e-002
      3.8313738858403099e-002 -1.7466263995620226e-001
      8.4306780095311368e-003 -8.9768523720936536e-002
      1.8660964432056129e-001 8.6938834478024349e-002
      -7.7548719986719805e-002 7.0703155451282515e-002
      -5.8175216112791774e-003 3.1474128983202870e-002
      7.6469248191089453e-002 -7.4340587690902113e-002
      1.5404726237733721e-001 -6.3766769404975096e-002
      -5.9414857415404330e-002 -7.8685728943176884e-003
      5.0782940268817238e-002 -1.8619854564193977e-001
      -3.6787932809534984e-003 -9.4789027275272109e-002
      -2.9847394175051944e-002 -3.3734693468517839e-002
      2.0767917570473327e-001 3.9181893221426387e-002
      1.2775305096151657e-001 1.7884917868312608e-001
      -1.0283557210570364e-002 5.3093459395191840e-002
      6.9760749324071919e-002 -1.4214574232921565e-002
      2.1027429594397309e-001 -5.1409917847213341e-002
      2.4542257335998584e-002 1.5369794925480714e-002
      -2.6509375301137582e-002 -3.5128848892139665e-002
      3.7966351584768888e-002 1.5377696629734883e-004
      -3.8694178317962194e-002 2.6317622293072766e-002
      -3.0928886621456771e-002 -5.1201012636313367e-002
      5.4117157671435079e-001 1.7072909166981345e-001
      2.2755510958640921e-003 -8.9151602738234761e-002
      3.2323944847439090e-001 -1.6672565114222404e-001
      2.0448257918108662e-001 3.6559757174988022e-001
      -9.6268656554213794e-002 5.4115910881129783e-002
      2.8942779328253820e-001 3.4914579607858648e-001
      1.8146261447977374e-001 1.6675339206791054e-001
      -1.7366645386968652e-001 3.1661090868076586e-001
      3.7649864676064482e-001 4.3513444513366567e-001
      2.6845324898361975e-002 -3.4322906737900016e-001
      -1.1656525198561314e-001 4.4010051007322061e-002
      1.9426081367219142e-001 -5.8766500268002020e-001
      -3.3150272387192459e-001 4.5830847331308133e-001
      4.7878915396628148e-002 -3.5410687608624829e-003
      -1.7014556223533728e-001 3.7536838138070644e-001
      2.4514940418096989e-001 3.3961516783457590e-001
      1.1678971163884526e-001 -4.2444634510208351e-001
      -3.2591206523936755e-001 -1.9730123297029620e-001
      -4.6339447994758615e-002 2.5389752682664208e-002
      -4.4021849408806137e-002 -1.7084249516089689e-001
      2.8211127173682399e-001 -3.1582851266524359e-001
      2.9191002616119116e-001 1.7575703880062701e-002
      2.7218214715675360e-001 2.9296617394033070e-001
      4.6266827907496122e-001 -1.5973500039976160e-001
      -1.9236062617052810e-001 2.3681972194765116e-001
      -2.6582861288871368e-001 5.2636605214012788e-001
      1.3909769214124459e-001 -1.1941437972532466e-001
      2.8243766197780545e-001 -4.7874271142185704e-002
      -1.0148742406237730e-001 8.8420973656024946e-003
      1.0675361937354713e-001 -2.1612140198546520e-001
      2.3239447737840643e-001 6.6060547987239482e-002
      3.0516513602967560e-001 2.0936861984946077e-002
      4.9985480018640882e-001 2.4439135274679700e-002
      2.9856086607246805e-002 4.6732016833389434e-001
      -5.2148346697810419e-002 1.4121951599661425e-001
      2.7552365547045199e-001 2.0176502385062831e-002
      -2.2016447516652171e-001 -4.2460753191328152e-002
      7.3864698266383005e-002 9.5502217122220671e-003
      -1.2489343258898902e-001 1.3202443779201423e-001
      1.8079057693676571e-003 -8.5856339430000386e-002
      -4.9312116069380024e-001 3.8823437539449224e-002
      7.1772371752592684e-002 1.9628976524759761e-001
      1.1956035196962049e-001 -5.5818458957241822e-002
      -3.8045355713907497e-001 -5.4217111512456832e-002
      2.8388294787666685e-001 -1.9692166006028765e-002
      1.2901859166702517e-001 -3.9220577053001943e-001
      -1.8069633022749604e-001 1.9441717535686351e-001
      -2.1533948547335427e-001 -2.1162585471064477e-001
      4.6133361620474420e-002 -2.6522787354537281e-001
      6.1859962809270939e-002 4.5928611955821839e-002
      -2.9880804911911696e-001 -1.8407398340929120e-002
      2.2518367277412618e-001 1.5816093361754660e-001
      -6.4441911354204615e-002 6.5586169341231224e-002
      2.4588559913851582e-001 2.5531417423820274e-001
      3.6956718146030104e-002 -2.4578523937126642e-002
      4.5044905657369055e-001 2.6040630336253780e-002
      1.6995558744448486e-001 5.5060538283918332e-002
      -2.2711409068100839e-002 2.1355262921794829e-001
      -4.4928199769350828e-002 -3.7704525011931528e-002
      -9.5070446662393754e-002 -5.4809175875999830e-002
      -3.4355488732475542e-001 1.2507386564816234e-001
      -2.7830656659180580e-001 1.0554167423653305e-001
      4.7767263167876500e-001 1.5975033878214048e-001
      -1.9794361220810461e-001 -2.7815965086930461e-002
      -1.1326272993996706e-001 -2.0682937619394201e-002
      -3.4043596597419884e-001 -6.4210090807851297e-002
      -1.3964622635473284e-001 -9.1998437585746967e-002
      -7.7769052591626165e-003 1.9208547083977684e-001
      -2.2698233179181303e-002 -5.5582865493315127e-002
      3.0479022986267427e-002 2.0555483515120970e-002
      -1.9709069153278364e-001 8.6323299230587250e-002
      7.7702058422994186e-002 2.9983153137924028e-002
      3.0867969133185947e-002 -2.0231876452233408e-001
      -4.7994987113310850e-002 -3.1833179535484715e-002
      -2.3502199631725262e-001 -2.0926143814068718e-001
      3.8260337999660506e-002 -1.3336559399493195e-001
      -1.7031542095535940e-002 1.2582003226799948e-001
      2.5759388010872186e-001 -1.3311052192123721e-001
      -2.5521687652277092e-001 -3.9884136300119499e-002
      1.5552605352689732e-002 3.8586390278994943e-002
      3.1827321722386565e-001 2.1446761818051451e-002
      -5.2302211550058306e-002 3.5700386497028280e-002
      2.9773692995585181e-002 -8.3017994431157788e-002
      -7.9131102956706261e-003 1.2112137353400637e-001
      5.6961661987396019e-003 -6.1601510238518532e-004
      4.0969855901162672e-002 1.4227995178977351e-001
      2.3493192866441653e-001 2.5735225318573418e-001
      -4.3826915006044916e-002 4.6957824100796419e-004
      1.1390540835200463e-001 6.8144871111960298e-002
      2.1947621349549688e-002 -1.0408246562365366e-001
      -7.3280326602068832e-002 1.6809532475939734e-001
      5.2102174159236805e-002 -1.0936212501164469e-001
      -2.5451520715995329e-001 1.4913299313420156e-001
      5.3338665900772193e-002 1.8162254047822396e-001
      -3.5557436139713919e-002 1.1068067156747398e-001
      6.0643273450657564e-002 5.0369794801736249e-002
      -2.7595704534011913e-002 -5.7363353247380643e-002
      -3.4045579272183928e-002 -3.8143703614371134e-003
      -1.0953251366726224e-001 3.8595031133305938e-002
      -7.5582112940813295e-002 -2.3103747880115624e-001
      1.9733726616183576e-002 -7.2877062008157772e-002
      9.5520833763052329e-003 6.2673072952798822e-002
      5.0626295504777749e-002 2.5312327996894517e-002
      9.7212983780742931e-002 -3.3759036834004982e-002
      -1.5183983366442855e-001 -5.8524620384565969e-002
      -1.3566949529470612e-001 5.6284848402905631e-002
      -5.4822226468813393e-002 2.2649294602789014e-002
      4.5750413518011603e-002 8.2707279153836147e-002
      -7.1818655916922589e-002 -1.1381363814267498e-001
      -3.8774015427562196e-002 1.2421216977399710e-002
      -2.4443584755860265e-003 7.6419052354076547e-002
      7.4883489681902088e-002 -1.2759286471458184e-001
      1.5272217428861368e-001 1.3430532197729191e-002
      -7.3296786693437449e-002 1.2998824246071583e-001
      -7.1894545433372328e-002 -3.1947891886079674e-002
      5.0557267361022125e-002 1.8412486225627508e-001
      -1.7648933680744511e-002 4.6332082138026615e-002
      1.7418816399047937e-001 -3.3669375642990766e-002
      7.9806481452233263e-002 4.7554981051230800e-002
      7.4323090102515379e-004 -6.8905648540705050e-002
      5.3839555398561875e-002 1.4297472010084117e-001
      -3.5515689680664549e-002 2.8193698363506747e-001
      2.5538279240022676e-002 -3.4697465017908746e-001
      -2.0874531579789737e-001 -5.3240546296089028e-002
      1.7278990368015051e-001 -1.8476419420026854e-002
      -3.4509902427736776e-003 -2.0827770711081142e-001
      2.1312235663531753e-001 2.5504066876348891e-001
      -1.5019827307168326e-001 -2.3744640939802103e-001
      -1.8088006974821652e-001 -2.7328976703726909e-001
      1.0863086596572266e-001 9.9988268753178747e-002
      -2.3494202862644328e-001 2.5653723021253927e-001
      1.5248172456012354e-002 2.1231459612256193e-001
      -2.9309271777183676e-001 -1.7032293236984394e-001
      1.3728213422002530e-001 2.8402777002294111e-001
      3.3044110499322474e-002 -1.1198966621916183e-001
      1.5690904770766043e-001 -5.9435867639864678e-002
      -1.2674270361848955e-001 2.1526239119987442e-001
      -3.6930593168595503e-002 1.8180970392914236e-001
      -2.5943497362235699e-002 -1.0231133064129407e-001
      -2.6507937348198574e-001 -1.3737149409417909e-001
      -1.4708247200730271e-001 2.5887512999716472e-001
      -2.3283498072898212e-001 2.3813255120311178e-001
      -7.2742484764386217e-002 6.9507468536984252e-002
      -2.0351718994959048e-001 1.8173776512074907e-001
      -1.7066625235719751e-001 -8.2248614029677161e-002
      -2.1268974644318009e-001 -1.8482060394465746e-001
      -1.3763831912676719e-001 -6.4399234127906074e-003
      -4.6919670857656776e-002 2.4939209930964154e-001
      -5.1743895636658307e-002 -1.0867661247793876e-001
      1.1521864360360250e-001 1.1712205188235095e-001
      -2.0933473245817449e-001 9.2498523076192558e-003
      2.2473279969320561e-001 -2.4722553335333003e-001
      -8.5933972721111793e-002 -9.9660010007001004e-002
      -2.1059560664314525e-001 -1.6228825112393461e-001
      -1.0964077256141856e-001 -1.5357693593386054e-001
      -1.3634390792275444e-001 -1.2696880769605070e-004
      2.2851945098610449e-001 2.4246883155816901e-001
      2.6255875074674795e-001 -4.8964331533367274e-002
      -2.7546384462701068e-001 3.1562736958021385e-002
      1.1942937457139492e-002 2.3474050644848631e-003
      -4.4947423233484873e-001 1.9679933459450412e-002
      4.6654704820872001e-002 -7.6547821844028377e-002
      -3.3882126107175330e-002 1.1369788531973504e-001
      -7.3495702014091998e-003 -1.6890874484745264e-001
      2.6167387866249291e-002 -3.2380010334890207e-002
      -1.1432522830009771e-001 -1.9188363605231876e-001
      -1.8329025515132857e-001 -5.7668833521326020e-002
      1.1170801790507086e-001 -1.2560555805483120e-001
      -1.2920453980122240e-001 -2.9923979140969961e-002
      -7.9775144804064321e-002 1.9815249191041806e-001
      2.1099914007840045e-002 -3.3557727739789323e-002
      7.9491187634884636e-002 1.1758738082234445e-001
      2.2052949445646841e-001 -1.0962049617748963e-001
      3.1499290081585564e-003 8.5797169942456383e-003
      2.5515598497236044e-002 -8.6000777074241669e-002
      9.9178020838327205e-002 -8.1953912234906043e-002
      5.8571483261162155e-002 1.0825832375728677e-003
      1.7214200998756610e-001 5.1372864962362208e-002
      5.8757330659289217e-002 1.3747114412598493e-001
      1.0553455530131002e-001 1.3189066639731667e-001
      -1.4789546660455127e-001 -8.2731833139829569e-002
      6.8577653331598529e-002 1.7352591984793989e-001
      3.3966416416458898e-003 -1.2625158119691641e-002
      -6.6940241067940859e-002 7.7243272022920154e-002
      2.5850484264134121e-001 1.0248400043759357e-002
      1.4851879476012148e-001 -2.2453792999786046e-001
      -1.1380605039756714e-001 -9.1296159680030631e-002
      -8.9495266819440769e-003 1.8982364732973900e-001
      -2.6894695559734203e-002 5.7657928288483019e-002
      -1.0417764230051189e-001 2.1607760745898645e-002
      5.8112026687090972e-002 7.5892977675135628e-002
      6.1502512553141375e-002 1.5232362259277168e-001
      -1.1780773469155409e-001 -1.7652456756601978e-001
      8.9659679858273070e-002 -1.2549717572189176e-001
      2.4501422572969556e-001 -8.6828199494340216e-002
      -2.1375298845754856e-002 -8.1223922849595606e-002
      1.2006445650128509e-002 -1.5446708995990047e-001
      4.1727081196707899e-002 -5.9276539618557215e-002
      -8.6623086138760366e-002 4.1798020419793594e-002
      -7.1976063079223551e-002 1.1585551968408736e-001
      -5.7566502672586894e-001 -1.0503800667838402e-002
      1.0491117462443741e-001 2.1064046243965431e-002
      3.7891583106280054e-002 1.2601866615244581e-001
      -3.9594555503516440e-002 1.4553960061398998e-002
      7.8481392522676288e-002 -1.1898224317923003e-002
      4.3171638921110436e-002 -2.9415533681496958e-001
      -4.1774904947905356e-001 1.2930571166940655e-001
      -2.0270703547921487e-001 -1.3997060520699806e-001
      -2.1837482226246336e-002 -5.8412475054609996e-002
      4.3580560567375734e-002 3.3551800160345077e-002
      -1.6920716869061128e-001 -2.1580355256877218e-001
      2.9632626627046889e-002 1.9276050230083264e-001
      2.1511321440694203e-001 -1.1863845446037104e-002
      9.8823933261346641e-002 -7.5848988996461128e-002
      1.8659644119178972e-002 -3.3014976118562959e-002
      2.5174645115469779e-001 -2.8929186640191586e-002
      2.9460579651865126e-001 1.2263692511557553e-001
      8.4003529769585181e-002 1.9578269674225268e-001
      6.6121239647907119e-003 5.0929230868976575e-003
      1.1319977240219505e-001 8.4154410052771439e-002
      -2.7236667174535734e-001 -7.9069516017584343e-002
      2.9036443560281133e-002 1.9970725933645922e-001
      1.3059282525633395e-001 1.8236581030310348e-001
      -9.6071404762276463e-002 -1.3778757912240311e-001
      2.8966751919205166e-002 3.5197322958839490e-002
      -1.0522980860229104e-001 -7.6968220699650217e-002
      5.2054600576374739e-002 -1.3589175460624417e-001
      -2.5392244278824153e-002 1.9164190412903151e-001
      -2.3449061267210660e-002 -9.5056583296890096e-002
      -9.6666308485920099e-003 5.5402907831312402e-002
      -1.7065929106259883e-001 -3.6343792998118782e-002
      -3.5439642941269146e-002 3.0148851283152828e-001
      7.7199499411075179e-002 -2.8727054611182934e-001
      1.6417692948663010e-001 -9.9450762555388372e-002
      -9.3942731572990490e-002 -1.5760780299357952e-001
      -5.0649003026714746e-002 -1.2219184419034708e-001
      4.5112230131354070e-002 -5.7296682217283297e-002
      5.0767311140980970e-004 -1.3948037906059418e-001
      -1.0975693926480488e-001 -1.2196972126798868e-001
      3.7186388229724206e-002 1.1075521985028149e-001
      5.0818338448198430e-001 -9.8637159736476299e-002
      -6.0372105829679303e-003 1.9877270560484847e-001
      2.3945330669755717e-003 -3.5056526065443200e-001
      1.4641794615307896e-001 1.8465892785470731e-001
      -7.1771483007319115e-002 2.8360377797974557e-002
      3.6541638383081561e-002 2.4188005564507636e-001
      1.0564723712772957e-001 9.1837747717626386e-002
      5.7348221791210852e-002 4.6952755816963940e-002
      -6.7610271472803391e-003 1.7727422370296847e-001
      -9.1333496926010189e-003 -2.1649166471572914e-001
      -2.1565614065005477e-002 1.6834612590821349e-001
      1.1159519386992328e-002 -9.9675913712605271e-002
      -1.9160139009798677e-001 -4.0920782274835886e-002
      -9.1126449742866628e-002 -1.8421282046103810e-001
      2.1147780399884943e-002 1.0602496447734042e-001
      -2.0009222911723604e-001 9.9598321831945558e-002
      -1.4445758557751592e-001 3.4280978173255754e-002
      -1.1201588883323450e-001 -3.0242153520675541e-001
      -6.9398501366878307e-002 -1.4610323281697951e-001
      -2.7420344443752109e-001 -4.1395676712547680e-002
      1.7842705094811065e-001 1.2061670635754985e-001
      -2.7355825562130381e-001 -2.2478145296717011e-001
      -1.3992383997058830e-001 -3.6239878017401250e-002
      1.0190906327618085e-001 -9.9254147980869248e-002
      -1.8326177725471279e-001 1.2584031718463001e-001
      -2.5946958413167875e-001 9.9657437353882924e-002
      1.7345218536922416e-001 -5.4537100475831574e-002
      3.1406158171702184e-002 -2.3617340237741544e-001
      -2.8661320909156407e-002 5.6690819630299448e-002
      1.3887927725243213e-001 -7.3272551805427938e-002
      -6.3672891828162118e-002 -7.6688963477631973e-003
      -1.5786097829137150e-001 -2.5796338928514884e-001
      1.3730931052978565e-001 5.8423031076378126e-002
      -1.5106806618182769e-001 1.6716806313319157e-001
      -2.3386652501914851e-001 2.0121863480155705e-001
      4.9878539537662817e-002 5.5551516504574447e-002
      -7.9991868236444594e-002 1.9606818554124095e-001
      -2.1737053995536429e-001 2.5216539234860072e-002
      1.9712295699185772e-001 -5.1212740529137046e-002
      5.2525871032092622e-002 -3.3467243459042624e-002
      -2.0438156802781313e-001 -1.0034644697529134e-001
      -5.8940379071455735e-003 -8.6561498301493574e-003
      -1.4507857974945948e-001 -2.4472791874156508e-002
      -2.9726177262919273e-002 -1.4558818379141542e-001
      -8.6826623102699008e-002 -3.2930436335618742e-002
      -6.6362415581810191e-002 4.0397347705144603e-002
      2.7961237650908938e-002 -2.6959033386426895e-001
      2.1392413453877454e-001 -5.1973516538984375e-002
      -3.6577233233474296e-002 -2.4814933623211774e-003
      -9.1510437771547631e-002 7.7938933835490332e-002
      1.5420986660872171e-001 1.4630264054634346e-002
      1.9267648865291881e-001 -1.5266812467177674e-002
      2.3452691912938910e-002 -6.2843057408940070e-002
      -1.2259921001312342e-001 -5.0711515248776012e-002
      6.5720212487838908e-002 -1.3573384352915088e-001
      -2.5254213680273624e-001 -1.0082448770054875e-001
      -2.2128018592885212e-001 -5.2854174502891912e-002
      -3.9968885096527462e-002 -2.0319209498371726e-001
      -5.1410895299850729e-003 1.0633152012921896e-002
      7.0904189183770422e-002 1.7061985730601073e-001
      6.9307886232655895e-003 1.2225193433560022e-001
      -2.2835225977894894e-001 -1.6085812456595674e-001
      -2.8239770825245447e-001 -1.9656599334588673e-001
      -1.6152567336327198e-001 5.8868535087284520e-002
      1.4258700693630311e-001 -6.7112232536534755e-003
      2.1170658593492728e-001 9.4547737873554943e-002
      -4.3484962328297572e-002 -8.7642695741748499e-003
      -3.5756219399737089e-002 3.5755857806288274e-002
      1.8422074104366918e-002 9.6480358885267931e-002
      -1.4711819594596567e-002 5.4400405963471246e-003
      4.3519786501969977e-002 2.4500377149099320e-003
      -1.5954303601934414e-001 -2.1629787400358166e-001
      -2.5112372734540928e-001 5.8225898715656296e-002
      -6.5284094686435853e-002 -1.9887811940182332e-001
      9.8322405677292321e-002 2.2595846767286765e-001
      8.6375046931011695e-002 -3.5326834056142342e-002
      -1.4741646038870104e-001 4.5013266155521280e-002
      -9.9202689313156373e-002 -1.1949351306648162e-001
      3.5839015418855917e-002 -2.9990878378037676e-002
      -3.1930538901042922e-002 7.0066670108382715e-003
      2.9970458417422224e-001 -5.1829468372499854e-002
      -8.1225653059184055e-002 -1.1746984149722195e-001
      -7.2550803699877112e-002 1.2851851969197803e-001
      1.1275604669167877e-001 6.0203663272225059e-002
      1.1021636105964006e-001 -1.8915988760277461e-002
      -1.1133559296425030e-001 1.8884726042659099e-002
      3.3365050795198253e-001 -1.3677414285106179e-001
      1.3084441787010367e-001 1.9371558274739442e-001
      -4.2817107818133193e-002 9.7829181495983547e-002
      -5.1553510792949883e-002 -2.0750480493187236e-002
      6.9993141437445033e-002 1.7941674430724464e-001
      -2.0077462654307904e-002 -1.5506763363327630e-001
      5.5872112134773014e-002 -4.3647652917092924e-002
      -6.5626400463515880e-002 5.2740925178302429e-002
      8.8251826523455968e-004 -3.6893141453407330e-002
      -1.0111702112201783e-001 -5.8586440895397218e-002
      -1.6576431382791554e-001 -1.1424986812003307e-001
      4.3567690295245633e-002 -2.5200891299187184e-001
      9.7985105565539132e-002 6.7607563940816157e-002
      2.0948304240946045e-002 -1.8684691327428740e-002
      1.8220175657997978e-001 -9.4544495877739651e-002
      8.0863583360469907e-002 -4.9065453859168183e-002
      -2.2821730430047618e-001 -1.3518642870894662e-001
      6.7581873381075838e-002 1.7341363286075270e-002
      1.0271647114710618e-001 -3.1072970182190615e-002
      4.7451860007875470e-002 -7.0179203736911748e-003
      2.9487039999973715e-002 1.7333345776054812e-001
      -3.0374679938308689e-002 -3.0132301645520149e-001
      5.8064719958767393e-002 1.2627529419759115e-001
      -8.3611335266667988e-002 -3.6671107432860125e-003
      1.8782042187830211e-001 -6.6116728224913934e-002
      -1.6145982181862324e-002 -1.7721781133499309e-001
      -7.9675791117142861e-002 1.6936824066186748e-001
      -4.1740625053978672e-002 -4.8012414619032828e-002
      7.4179159539766032e-002 1.4668636842470315e-001
      2.1150422009173529e-002 2.4767327726729158e-002
      -5.0391369114571552e-002 -6.9103329787900417e-002
      -2.6802519115517221e-002 5.3087014785552319e-002
      -7.5860886652158984e-003 -4.6271090250820185e-002
      3.7615747656652050e-003 -4.9414689311956958e-002
      -2.7978572949884012e-001 8.1634243516347918e-002
      2.5238291539526465e-002 -2.8653546039975392e-001
      7.2757819254233677e-002 2.8369995735578683e-002
      -2.3803637245689017e-002 3.7594735137433826e-003
      -2.2410003576338972e-001 -3.0049027177504586e-002
      8.8118427868098204e-002 1.7903395091139702e-002
      -3.5138085129868005e-002 -4.0959044868250227e-001
      8.1559828541634169e-002 3.6418464171761195e-001
      1.7413864511565230e-001 7.8405157192808494e-002
      -5.9208942787857932e-002 -1.8592984938510228e-002
      2.0389912265461102e-001 -1.3322395891145153e-002
      2.5585115481979026e-001 -1.8775768081525471e-001
      -7.2190092425039321e-002 2.4421204999161911e-001
      1.6332359275111480e-002 3.8266857260941816e-003
      -5.2973606929287272e-002 8.2156835322651167e-002
      1.9185088283420565e-001 3.3107096851048200e-002
      9.4781900086622226e-002 -4.3522457661469183e-001
      -1.2170208117489767e-001 -9.2640940820899270e-002
      -5.4004475588039599e-002 1.3210612351480952e-001
      9.2202829453398721e-002 1.1664228341470732e-001
      -2.5842980272091542e-002 -2.4915430428446156e-001
      3.9541807799879319e-001 1.1777706248811010e-001
      2.2603586431604869e-001 1.0531751605557098e-001
      1.3810911170538492e-002 6.1827096746631012e-002
      -2.0112434407484552e-002 3.5986376567435335e-002
      2.3560648227929618e-001 2.4665395634506601e-001
      -7.7893720928158619e-002 -1.1855100202827250e-001
      9.5782592218219720e-002 -1.6474628427830074e-001
      -7.3576003014051178e-002 1.7978176781803658e-002
      -6.4047721299877583e-002 3.8329831069450000e-003
      1.7819382376964063e-001 8.0675718781538619e-002
      2.1901373209345285e-001 1.1275014208381463e-001
      6.8547808576192470e-002 -1.2101708920271342e-001
      5.9633707014274374e-002 5.1284392642299524e-002
      2.2935503280152000e-001 9.9961109685468591e-002
      2.0516506690816000e-001 -3.4691299413641859e-002
      -2.1216645835676984e-001 -1.1648931152901869e-001
      5.1440548697402846e-002 -6.8096003524226442e-002
      -9.4954013509697746e-002 7.2302483614270954e-002
      -3.7731647087525147e-002 1.7798216325735833e-002
      -2.0782041184879024e-001 -9.6617477753315431e-002
      -5.8539334758792520e-002 2.5252873616062915e-001
      -1.0674032442462777e-001 -1.4086626775079261e-001
      -1.8337790376453597e-002 -1.0028091557161174e-002
      1.9741705846562443e-001 -2.0969882545683060e-002
      4.0325656384269180e-002 -1.9960310663680614e-001
      1.7893140074692951e-001 1.9938681964214275e-001
      -2.3959041912109482e-002 -7.2876315862725402e-002
      -7.2612203282854990e-002 -9.2834128381511033e-002
      5.4043120076785210e-002 8.3762731034553780e-003
      -1.6833555812740247e-001 1.0468053179833993e-001
      8.9435828194496442e-002 1.3523424247077895e-001
      -1.6502596432820493e-001 -7.5417849705068277e-002
      1.0195832120098983e-001 1.6879495185832916e-001
      7.5702052982185630e-002 -1.0915280198787980e-001
      1.1973026712194733e-002 -9.8995322674656938e-002
      -8.5908080247615468e-002 -2.4236646307081715e-002
      -1.8437537205271037e-001 3.3047042720756072e-002
      -7.1926624353976371e-003 2.1680746180169175e-003
      -2.3113946052014187e-001 -1.3055326819189986e-001
      -1.1028949681044940e-001 1.0765594938475483e-001
      -1.4938565037898849e-001 -1.2737577811746356e-001
      -1.0573517399373300e-001 -8.8478565034636067e-002
      -1.2517317644611256e-001 -7.2623363564951277e-002
      -1.1765481770398209e-001 -1.2096140240037767e-001
      -1.9523723931120640e-001 1.5736810079529057e-001
      5.6821174573676851e-002 1.7384248654452161e-001
      -1.1921234160797493e-001 3.0241183294447957e-002
      -1.0358834754084201e-003 -8.0054728308532455e-002
      -3.1862853632315807e-002 1.0002522063282678e-001
      -2.2475904897687984e-002 1.1114661254815172e-002
      -1.5623128189180524e-001 -1.7016218793751192e-001
      -1.3604463860315830e-001 1.1539170030968013e-001
      -1.0579288597652255e-001 -1.1898755245349452e-001
      -1.1531372460485013e-001 -4.8075382277509231e-002
      6.6812805829808877e-002 -3.0628049348334782e-002
      -3.9461038771401856e-002 1.2559270233662834e-001
      1.3720032861187598e-001 -1.4341876419131042e-001
      -1.8510008916668966e-001 -1.2870263529445447e-001
      4.4587080595668266e-002 -3.5268114479031547e-002
      3.2810303035740708e-002 -2.8610387168573236e-002
      -2.9315167870542277e-002 -3.9425647048812691e-002
      -1.2182962392935583e-001 9.8248292692635839e-002
      -1.3043801258999918e-001 -1.3100245464486909e-001
      -9.5159253727807973e-003 -1.1830778099040361e-002
      -1.1343051194118960e-001 -4.4093098244865028e-002
      3.7997567915180872e-002 6.0283720206401284e-002
      3.4351242805205642e-002 -1.4291085037362572e-001
      -2.0884388861137823e-001 -1.2889763024715792e-001
      7.3925353868883967e-003 2.0119425457215231e-001
      7.4756746852510034e-002 6.4665247016589145e-003
      -7.8576395988437450e-002 1.5525643546807388e-001
      1.0718334297880446e-001 -1.5548753965609555e-001
      -6.4182123027040100e-002 6.0619202579784096e-003
      2.9097705751478339e-002 -9.7396463348814202e-002
      -1.6360684108132420e-001 -9.9898716669266821e-002
      -1.7702110181257186e-002 7.4808871576827432e-002
      2.1327469622298231e-001 1.2192786624087354e-001
      -1.0127941621422640e-003 5.5127607272035389e-002
      4.2134834608416341e-002 2.0255896184423663e-002
      -8.0941506032679078e-002 8.5804663101107334e-002
      -4.2776091827612626e-002 3.9933991474598356e-002
      -1.0943483618488779e-001 -5.2804532406196612e-002
      -7.7925043028873167e-002 5.9308263800135194e-002
      2.0703446108704932e-001 -4.2306030099831624e-002
      1.1457031304777870e-001 -2.5056296826742797e-001
      5.8244533076702671e-003 5.4636718871246368e-002
      -7.5902307617040587e-002 1.2725434713952344e-001
      9.5350329401619124e-003 7.4208462050923490e-002
      -6.0890127107913410e-002 9.4104849330649012e-002
      -3.3043993274274791e-002 8.9691433103894613e-003
      -8.1426908550946780e-002 -5.4960629791235716e-003
      -1.2826315425488399e-001 -6.3248817963743964e-004
      7.8751901176903130e-003 -1.5214836751431443e-001
      7.6136087075356581e-004 -6.7966080823419012e-002
      -9.8942852160001316e-002 7.6395859894855769e-002
      8.6957842999036569e-002 -2.2446610089313489e-002
      -1.6461274992551386e-002 3.5859621773370459e-002
      1.1555272570944571e-001 -1.0194269404405626e-003
      -1.1111926206101746e-002 -5.0207169426103072e-003
      3.6958672486020895e-002 1.2329036311333182e-001
      9.4090365831130465e-003 6.9979053896579102e-002
      1.7975327707601943e-001 4.9656477652242251e-002
      -1.5272628661878557e-001 7.1651903367388803e-002
      -6.0367538831779801e-003 1.9420700317096348e-002
      1.3798202001907009e-001 8.7489018414506494e-005
      3.5178662465605713e-002 4.6730235902477368e-001
      -3.2489627597000420e-001 -8.8669580428068190e-002
      5.0987037935068806e-002 -1.0445708329597959e-001
      7.8554252721346834e-002 8.1690208699980570e-003
      -2.8220705177913602e-001 1.0972608344125490e-001
      5.8856917961089140e-002 -6.0849299117726720e-002
      -4.1805314754327597e-002 9.1026709419779708e-002
      1.4122495013488187e-001 2.9488715127554388e-001
      -9.8807841201611606e-003 7.8371967430425363e-002
      3.8994777595320029e-001 9.0493982190860703e-002
      1.3773686504675411e-001 6.3081511445596775e-002
      -2.5758110648863474e-002 2.3418691167655964e-001
      6.4872584374150985e-002 -5.1129454790266343e-002
      -4.7538461874197011e-002 -1.4046524416392833e-001
      -7.7888480918959752e-002 6.1696049819968610e-002
      -6.5988256310356153e-002 2.2280788977114493e-001
      3.0291837366010788e-001 2.4984379009421909e-001
      -4.3814859460416578e-002 -1.6138832361315369e-002
      -1.2274253631155342e-001 9.1575929962882385e-002
      -2.7943661430479533e-001 6.1619650366641875e-002
      -1.5589485057731431e-001 -1.5569545592385692e-001
      9.5298853287589635e-002 3.3049818095502786e-001
      -9.4974078560241953e-003 -1.1025696098190135e-001
      7.1692519272384458e-002 4.5013141105090505e-002
      -4.8415955148602488e-002 -6.5711746273798610e-002
      2.3799317363772915e-001 6.9535657384351454e-002
      1.6202133193342427e-001 -1.4179967122421125e-001
      -4.4283683872533182e-002 3.6084856165155860e-002
      -6.2940268604017746e-002 -1.3688078791493336e-001
      1.5562855681633112e-002 3.0614715680244622e-003
      1.6751207511412201e-002 7.8415548056746429e-002
      2.0661447098812424e-001 -4.6429835621539309e-002
      -6.0515112845093769e-002 -2.3707909278462735e-002
      1.0029094561342823e-002 1.6618381069917455e-002
      5.8660952877176431e-001 2.8550454175597761e-002
      -1.3179749963377635e-001 -8.6919371857321084e-002
      6.2252176732459620e-002 4.9232884404305635e-002
      3.5205679284825882e-002 4.7677237660529566e-002
      2.2799580854032917e-002 2.1176605649789817e-002
      -1.4852797721436273e-001 1.2608415737995973e-001
      2.5529445936746309e-001 8.4835854410095404e-002
      -7.5843514443546173e-002 2.2886528107031878e-001
      3.5629626138704698e-002 1.3673778277828960e-001
      -6.2598988325501842e-002 -6.0540819033065768e-002
      -4.7295525444415606e-002 2.2167895711020533e-001
      -4.4731037080510884e-002 -1.8454232477308041e-001
      -3.7675546134003784e-002 6.8347998697430842e-002
      -3.7284963425016665e-002 1.0887828674704518e-001
      -7.2098913054699287e-002 7.9180739969105657e-002
      -1.6196202602459240e-003 5.3036966498724469e-002
      -1.8110421123699049e-002 -5.8702763165139137e-002
      6.7518891735368208e-002 -1.5990976936050316e-001
      5.3148892860249118e-002 1.4485287793264554e-001
      -8.2046080439097197e-002 -1.9119638968380762e-001
      2.0078384462584922e-001 -1.5781034469346336e-001
      2.7100272982327928e-001 -9.6822446168540618e-002
      -1.3229359092685244e-002 -1.6106058659199972e-002
      1.5911254139771078e-001 1.5563747758308705e-001
      1.3124557023853001e-001 -4.4569857318331775e-002
      -9.3318450179865578e-002 1.9716419847001686e-002
      -2.0069292783291984e-001 2.3095396513151384e-001
      8.1400081116853984e-002 -2.5153297079522557e-001
      1.0465620894962868e-001 -2.3277882810481570e-002
      -2.0449804291043644e-001 -1.7951395814757973e-001
      2.5065348415490885e-001 -8.9414844533684049e-002
      -3.0876023032102493e-002 -3.3027346815538157e-002
      1.2064362022375488e-001 2.7184742165788173e-001
      -8.7688571145200192e-002 8.2223249558512859e-002
      1.1317472696527080e-001 9.6281354032627900e-002
      1.7999689901656826e-003 1.1926362713398161e-001
