<?xml version="1.0"?>
<opencv_storage>
<ANN type_id="opencv-ml-ann-mlp">
  <layer_sizes type_id="opencv-matrix">
    <rows>1</rows>
    <cols>3</cols>
    <dt>i</dt>
    <data>
      100 80 6</data></layer_sizes>
  <activation_function>SIGMOID_SYM</activation_function>
  <f_param1>5.9999999999999998e-001</f_param1>
  <f_param2>1.</f_param2>
  <min_val>-9.4999999999999996e-001</min_val>
  <max_val>9.4999999999999996e-001</max_val>
  <min_val1>-9.7999999999999998e-001</min_val1>
  <max_val1>9.7999999999999998e-001</max_val1>
  <training_params>
    <train_method>BACKPROP</train_method>
    <dw_scale>1.0000000000000001e-001</dw_scale>
    <moment_scale>1.0000000000000001e-001</moment_scale>
    <term_criteria><epsilon>9.9999997473787516e-005</epsilon>
      <iterations>1000</iterations></term_criteria></training_params>
  <input_scale>
    2.6091676023681555e+002 -1.1966440164402476e+000
    1.0222266093640003e+002 -7.5977329562602469e-001
    1.6049089646299126e+002 -1.1791417463716285e+000
    8.5446201092116524e+001 -1.8465221822556044e+000
    1.3730572196803232e+002 -1.3745225892054578e+000
    6.3601511715120225e+001 -1.0446965925393981e+000
    9.3517854590661912e+001 -9.4980958982417452e-001
    1.4205542380245899e+002 -1.2794573564018799e+000
    1.3183162185345196e+002 -1.4355680090732721e+000
    1.3973308156652840e+002 -1.0192222282113030e+000
    1.5214806415596550e+002 -1.7656559122149589e+000
    1.0097117088196315e+002 -6.9063619829400580e-001
    1.3676053182169983e+002 -8.8784554998220100e-001
    1.1490602075647261e+002 -1.3894504720769385e+000
    1.3021168137239829e+002 -1.1787130416332727e+000
    3.3079418863442179e+001 -9.5390377778133584e-001
    1.0230846653018635e+002 -1.3877166718505118e+000
    1.5215405357346268e+002 -1.3280124868892595e+000
    1.2452889822418578e+002 -2.1215963659817083e+000
    1.5284562864866638e+002 -1.1508312484701497e+000
    1.7599194007761699e+002 -1.2472736129131845e+000
    2.3679525222627788e+002 -1.2856163309309199e+000
    6.6918964490629577e+001 -1.5519394689143096e+000
    1.3269629891039867e+002 -1.5016504311604564e+000
    1.3756565747883823e+002 -7.8211900530947909e-001
    1.5301729296599805e+002 -1.1105080095881612e+000
    1.2026978287196803e+002 -1.8154811133425421e+000
    2.5891934605025858e+002 -1.2362970039041141e+000
    1.4205886468124339e+002 -1.0019429723418229e+000
    1.1952405245119625e+002 -7.6876491035690941e-001
    2.4601888366207544e+002 -1.2819105031535698e+000
    3.3152691146093639e+002 -1.2195028688230209e+000
    1.2736443073215314e+002 -1.0261171297125697e+000
    1.6510480880026580e+002 -8.8825428686538865e-001
    1.5182698072961105e+002 -1.9682699759617428e+000
    1.2370807118896192e+002 -1.1623966780280177e+000
    1.1531096545029318e+002 -7.2567279884808322e-001
    2.8878783099081363e+002 -1.3244747974981641e+000
    1.7352169511958178e+002 -1.0312764224034696e+000
    2.0964740728709364e+002 -1.2520162993990083e+000
    8.0641167991309359e+001 -1.1749675092811287e+000
    4.5698388456263871e+001 -9.5107935800060184e-001
    1.8872146547586513e+002 -1.5447250812413180e+000
    1.2597028643684365e+002 -1.2994927820635758e+000
    1.6725542737901836e+002 -1.3669374350334236e+000
    1.6050009226541104e+002 -1.4378771705042803e+000
    1.5134863778457714e+002 -1.3855831059338237e+000
    9.3700740713428331e+001 -9.9488103731566158e-001
    1.7831566885622988e+002 -8.7851510334045846e-001
    1.1180419680693481e+002 -1.8801767809637995e+000
    6.3030272238924084e+001 -1.2699363032667217e+000
    1.7403679497902786e+002 -1.2382040117625890e+000
    1.3123863894304546e+002 -1.2265624182300270e+000
    1.3895176461439604e+002 -1.6407445199855750e+000
    1.7156601378482509e+002 -1.5330740679514567e+000
    1.4606727015308445e+002 -1.4765141738437115e+000
    6.1433909739273481e+001 -6.0914627578058778e-001
    1.3701923479928806e+002 -1.7686579196002201e+000
    1.6995094087878792e+002 -1.0218318768879755e+000
    1.5439172329141056e+002 -1.1972392352622916e+000
    5.9235084358214436e+001 -1.0102650046802952e+000
    5.9158616013706776e+001 -1.6355643707230190e+000
    1.5629427452210720e+002 -1.5007297552569971e+000
    1.1755296926535530e+002 -2.2619789281785891e+000
    1.1019678245109387e+002 -7.2651535846004223e-001
    2.9974221845157774e+002 -1.0571065852540782e+000
    2.0756293992225935e+002 -1.7179659782339474e+000
    2.4056265279560247e+002 -1.0000495623087331e+000
    1.0666145238235610e+002 -1.2772249786745817e+000
    1.3969271293426337e+002 -1.3002516929431787e+000
    1.8209615966245948e+002 -2.0737979057004954e+000
    1.2934510850032038e+002 -1.4066058055106236e+000
    1.5430502785800411e+002 -1.5848998328810984e+000
    1.7368631768032776e+002 -1.0510026691641925e+000
    1.2066892901086838e+002 -1.0298733278682435e+000
    1.7106870294465358e+002 -1.0900788531763861e+000
    1.2782666609308478e+002 -1.2821594172397603e+000
    2.9595104065984185e+002 -1.4582023839214000e+000
    1.3132928619088588e+002 -1.2687598084247940e+000
    1.1116441172318427e+002 -1.1702218654475378e+000
    1.3372301650455736e+002 -1.4494688869302863e+000
    1.0308540933853243e+002 -4.8921429617113016e-001
    1.0312103151429341e+002 -1.1385793452909476e+000
    1.2499199484461116e+002 -1.2109192124774222e+000
    2.9186869974509887e+002 -1.6373425522672316e+000
    1.6557831693564972e+002 -1.2956594432130035e+000
    3.4797104072516845e+002 -1.5131736166741636e+000
    1.2491815982503215e+002 -1.4903008147884893e+000
    2.4104173750261711e+002 -9.8215588814750421e-001
    1.8004042984882841e+002 -1.3526244584742149e+000
    1.1300384862811407e+002 -1.6075939279576628e+000
    1.1470633163817310e+002 -1.5924619723831253e+000
    7.5468186539202435e+001 -1.0972769206492339e+000
    1.3508017308110360e+002 -1.4723047311762878e+000
    3.1903596726849207e+002 -1.4489724231093191e+000
    1.3660817064455040e+002 -1.7114772565930196e+000
    1.8263015585095457e+002 -1.4099639508037141e+000
    1.4519314846263211e+002 -1.2132630735956562e+000
    1.0630111962981667e+002 -9.0377639027470869e-001
    1.2818387849367710e+002 -2.2107789435899252e+000</input_scale>
  <output_scale>
    5.2631578947368418e-001 4.9999999999999994e-001
    5.2631578947368418e-001 4.9999999999999994e-001
    5.2631578947368418e-001 4.9999999999999994e-001
    5.2631578947368418e-001 4.9999999999999994e-001
    5.2631578947368418e-001 4.9999999999999994e-001
    5.2631578947368418e-001 4.9999999999999994e-001</output_scale>
  <inv_output_scale>
    1.8999999999999999e+000 -9.4999999999999996e-001
    1.8999999999999999e+000 -9.4999999999999996e-001
    1.8999999999999999e+000 -9.4999999999999996e-001
    1.8999999999999999e+000 -9.4999999999999996e-001
    1.8999999999999999e+000 -9.4999999999999996e-001
    1.8999999999999999e+000 -9.4999999999999996e-001</inv_output_scale>
  <weights>
    <_>
      1.9153785188603403e-001 5.1605108473501464e-002
      -3.8888105929144140e-001 6.8375955238939456e-001
      1.3970869356258114e-001 4.4206833143040610e-003
      -1.9130024189858019e-001 -1.4670679419652294e-001
      2.5602546587012681e-001 5.6702221709073686e-002
      -8.1538350248493860e-002 1.9355827821405189e-002
      -1.1984351956373362e-001 3.1487099127404511e-001
      7.5300632380811083e-002 -3.5200234056201424e-001
      5.4014522041815817e-002 -2.2806702921431601e-001
      8.1322587918225872e-002 1.7140744812035363e-003
      -2.2460126131367053e-001 -8.3024208192076776e-001
      5.9284302509213727e-001 -2.2797043696942565e-001
      1.6393275397738605e-001 -2.0433114086338081e-001
      1.1713994585418906e-002 5.2691642171307984e-001
      7.2438479766392350e-001 -3.8944496521085442e-001
      -1.8584728689554078e-001 2.0009863287465693e-001
      1.8636370817508885e-001 -1.1395603077805015e-001
      6.9898276978389962e-002 -9.3932412192506379e-002
      1.7262338722919457e-001 2.1104822242357404e-001
      6.1604243596924635e-001 2.1500784609518692e-001
      -2.8028895968509404e-001 1.9649210617694890e-001
      8.5192838719759231e-002 -3.1278614645528842e-002
      2.4112561278274961e-003 4.6190782458242052e-001
      1.3701972320392822e-001 1.7788744586421171e-001
      -3.5725734697145545e-001 -1.0663291023311194e-001
      -1.3543730397515080e-001 -1.0126506652366057e-001
      -1.8174235102730521e-001 -5.7356319632655773e-003
      4.2684543935894548e-001 -5.6934684227223775e-001
      1.4072229399226466e-001 2.4174527222065714e-001
      2.5525157386646002e-001 -2.6379765048793080e-001
      3.3360038385840174e-001 1.0952686459219431e-001
      -7.4105660313226229e-001 -1.9522261773148392e-001
      6.8320535747410163e-002 -1.1614953120145673e-001
      -2.4652432902194696e-002 3.2073204185960456e-002
      6.3750060235122996e-001 2.7147781159999490e-001
      2.5542588727288817e-001 -6.8429486196203329e-002
      -6.3158443263461650e-002 -1.4283460171160850e-001
      -2.1776037153092832e-002 2.4311503387435598e-001
      -3.5544388293213153e-001 5.4573634483824485e-001
      -8.8887799709234361e-001 -1.2992844709545617e-001
      5.9202384443950973e-001 -5.2814176945372437e-002
      -1.6950583192163513e-001 2.8997509283870038e-001
      2.3539682560955061e-001 -1.4656884006954163e-001
      -1.4315872959289214e-001 -2.1791967091942718e-001
      1.4453161244828691e-002 -1.1225790546472916e+000
      -3.5620199149546013e-002 -3.4016668745921952e-001
      8.8264587059188743e-002 5.1096271670761251e-002
      -1.4717657147973365e-001 -1.6257104714217563e-001
      1.6257590635215366e-001 -1.4240158504686745e-001
      -2.3000436971812857e-001 -1.2541270036314231e-001
      1.2547391916167205e-001 -3.2365033828902717e-001
      -1.2614434294681121e-001 -2.6905522390314668e-001
      1.5885938967272875e-001 2.7562491005057588e-001
      3.2230839323102597e-002 7.8505106902036526e-001
      -2.2181776483363824e-001 -3.2039435703845198e-001
      3.5622869600990131e-001 -3.2396133260927767e-001
      -2.3359228240245750e-002 -3.6163775522279951e-001
      1.4385239600604040e-002 -1.9178778411278205e-001
      2.0393929845229136e-001 2.7963570871385629e-001
      9.1953622728656148e-002 3.1661878016549738e-001
      -1.1595124663153990e-001 1.7249032626978669e-001
      8.2427859338130779e-002 -3.2558191679278470e-001
      1.0634309308047060e-001 1.3468493339084592e-001
      3.2824060381565871e-002 -2.9289062281130468e-001
      -2.7404836868087906e-001 -5.7448768349305561e-002
      1.4970011357254162e-001 -5.3849231330571623e-001
      1.0922327223403384e-001 -7.8378207898024160e-002
      -3.0820637385512845e-001 -8.3153842377994849e-002
      -2.6262713798479373e-002 9.8100216065377471e-002
      -5.9055289204791903e-002 -5.7338215170486033e-002
      5.6318761728971899e-002 -2.8660975516089393e-001
      -5.0059006980944099e-001 -2.6939828985773651e-001
      -1.0000451581137432e-001 -7.0642198648289523e-001
      3.7767892186041463e-001 -4.4128351174396660e-002
      7.9555338118977970e-001 2.2990985592064733e-001
      5.7783809054830625e-002 3.1778095237996701e-001
      -3.2838338597746118e-002 5.2735134114967763e-001
      -8.1500393925996145e-002 1.2274933294486653e-001
      1.4612371638464072e-001 3.6029406099190470e-001
      -3.2779209947375904e-001 -3.9120520077390630e-001
      -1.1659649524024591e+000 -1.1287147663766986e-001
      -9.8930441193543384e-002 -4.4555776716898599e-001
      1.7784881458882829e-001 -1.2479795133595857e-001
      -7.9854127835644861e-001 4.5269628939096619e-002
      9.4259400628747842e-003 3.1803682583536302e-001
      9.2581576990800926e-002 1.5964487330654803e-001
      8.6724212573859830e-002 7.1167760274790415e-001
      -1.6357757284971745e-002 2.2481925442564132e-001
      -3.2534029641406850e-002 4.4278487320893289e-002
      8.9269317422994487e-002 -8.7234656358255086e-002
      -4.1466094868603080e-002 2.5749614430385748e-001
      6.0312380145319117e-002 7.4064684073442508e-002
      5.9338427056372545e-001 -2.8871451997379177e-001
      3.5594686570794780e-002 -1.4417291530123294e-001
      4.0094647840197289e-001 -2.1942430502469559e-001
      -2.2814711517167374e-001 9.6019411045092928e-002
      1.7249689935807788e-001 2.8427526276328996e-001
      -1.7608811904048235e-001 1.1926496475727309e-001
      -5.7106258479920402e-002 -4.4294091824329623e-001
      2.2647571036034173e-001 -7.4656875884763219e-002
      -4.5690402567772556e-002 -1.8732955302424897e-001
      -1.5070376516262276e-002 1.6656855716247512e-001
      -2.1975625472873353e-001 -1.6418548180087686e-001
      8.8498740924768574e-002 6.9846085934674507e-002
      5.2179256324490823e-002 3.3582506549188255e-002
      1.8586386008053310e-001 1.1862711084598955e-001
      -1.8587044017367795e-002 -1.4592327423143633e-001
      3.1373470141272697e-001 2.7644510691438057e-001
      3.0155489291180847e-002 6.1601398043879107e-003
      -5.5074479657999165e-002 -6.5587221519809435e-001
      1.1280676262331922e-001 -8.9720555503427675e-003
      -1.4865963586133926e-001 -2.3326204356607885e-002
      -8.3726050768853279e-003 1.1446844412069659e-001
      -1.5540505021921974e-001 1.1431786564157437e-001
      -6.0601280078815434e-001 2.3732325050028141e-001
      1.3762267118427179e-001 -1.8751488754846582e-001
      -1.6430967724642032e-002 -3.1636590196523268e-001
      1.7110698132606414e-001 1.8516573799969361e-003
      -9.1126486791264144e-002 1.1880257006101119e-001
      9.7820251190984780e-002 3.2323972438973886e-001
      2.5547770162570832e-001 -4.2824381880591914e-002
      1.4534828030257529e-001 -3.1612699604021954e-001
      5.0512424777651388e-002 2.1799889350768353e-001
      -4.8337338003946279e-001 3.1448130451531102e-002
      -2.7584977141818751e-001 -3.6887257628287090e-001
      -8.8163580105505623e-002 3.7684028707228048e-002
      1.1927909082860061e-001 -4.1454517742358954e-001
      -6.3155794038413329e-002 -2.8770895429869592e-001
      5.0023191923781393e-002 -1.8586772618644026e-001
      1.9703256617073384e-002 -1.7676025462420172e-001
      -1.5251587139107150e-002 1.2378498882962530e-001
      3.6986820346537891e-001 -2.4463608819795982e-001
      -1.6778269008116223e-001 -4.2894205793867995e-001
      -2.2489337767343795e-001 2.0389733910985239e-001
      4.3880695671945064e-001 -1.6197505346275101e-001
      1.1196004095488023e-001 -2.9115599692615740e-001
      1.9204461127451206e-001 -2.3712277533137434e-002
      4.9543306590953580e-002 -1.4658527871628785e-001
      -1.3272522926810668e-003 -2.0767049812852875e-001
      -2.3760656134080148e-002 2.1217454279266662e-001
      2.8636780343663837e-001 5.8655680412799900e-002
      -3.0878341922222208e-001 2.8406425110566436e-001
      -3.0164614589145836e-002 3.9570875499017688e-003
      3.0521728722590213e-001 -1.0716487983629620e-001
      2.5925787766758046e-001 -4.6367112023763474e-003
      4.7741497621352845e-002 -1.7532646500761412e-001
      -2.9119185215996934e-001 -2.8055898681809754e-002
      -1.3568654628437879e-001 3.8682521113999624e-001
      -8.3401348439162526e-002 -1.5705296205768615e-001
      -1.0809470988903530e-001 2.5014103791063924e-001
      -1.9840438180940476e-001 -7.2558052051536065e-002
      -6.5783783489738279e-001 -1.3640173646171905e-001
      2.6151669170629266e-001 1.7544478281487093e-002
      3.9312739475101062e-002 -4.4709697911534740e-001
      8.6090102982914174e-001 -4.3316242990231701e-001
      1.8514501671487152e-001 7.9035886545773226e-001
      1.7940609816213815e-002 2.4965333487119965e-002
      8.1960874897126057e-002 2.7773883301655788e-001
      1.7604895946554713e-001 -3.0043168953855454e-001
      -9.6853142964730354e-002 -3.2636929642409926e-002
      -6.6983886722490671e-001 -1.1887813398488102e-002
      2.0173110429451041e-001 -1.9635325540069956e-001
      5.9056913291130686e-001 1.2702319057278616e-001
      4.4056735648418133e-001 7.0495994286096250e-002
      -1.3101782818736479e-001 2.7900372072722285e-001
      1.1489825416613985e-002 -6.8662820898216209e-002
      1.5517125447575270e-001 3.5872935952134782e-001
      -3.8319531792677147e-001 2.4065209811828439e-001
      -5.1061350426054475e-002 1.9788461837429258e-001
      -8.9976224224914067e-003 -9.9727756625250727e-002
      -7.6109783520998120e-002 7.1095381701998292e-002
      -5.2649615426754370e-001 -1.7605492686372504e-003
      1.0315532009461961e-001 -1.8016508355278657e-001
      7.7312332377929990e-002 -1.8287817777583405e-002
      5.1794607709036811e-001 7.9957013504105001e-002
      -3.1877457067189413e-001 -3.0889794588099245e-001
      -1.2680597238595986e-001 1.6358744398283048e-001
      -1.7480745083710354e-002 -7.3915009782039201e-002
      -2.2728453519806711e-003 -2.1315011574619971e-001
      -2.9237330964615849e-001 6.8438743625917967e-002
      -1.0224393056949463e-001 2.6136669941137081e-001
      -1.1981931714700050e-001 1.2026596155915960e-001
      -1.3901713068846974e-001 1.0643702590367797e-001
      -1.2933759677603188e-001 2.2640949396358626e-001
      1.0339557043555477e-001 8.4828095527448841e-002
      4.3789231668535204e-002 3.9916930091801023e-001
      -7.8457059994796283e-002 5.0457639542452866e-002
      9.2282666088099624e-002 -2.6809426763700094e-002
      -8.4775372250046943e-002 -8.0813709843611664e-002
      -2.0262153820741241e-001 -1.1001555171970070e-001
      -5.6211040161406607e-002 -6.9023003637088312e-002
      2.5358888374404404e-001 2.5645094834207256e-002
      1.1764801771241437e-001 -4.0218580395885850e-001
      1.7986901311482215e-002 -7.5871256344738347e-003
      1.3018561515062990e-001 -3.2163148292707566e-001
      -9.1388272670366137e-003 2.9362193520029800e-001
      8.1463208975992314e-003 -3.0452511694317907e-001
      3.4968400874087542e-002 -2.6726485547729045e-001
      1.2940513675065152e-002 -2.0975924922750408e-001
      6.7740346265805618e-001 1.8169564267480062e-001
      -2.7699794032044218e-002 2.1060923163147194e-001
      -1.4864346727210354e-001 1.8579005771335960e-001
      2.0835112031398381e-001 -1.2053238136951727e-001
      -6.6433639064014105e-001 5.9920702960639678e-002
      6.7765552915430450e-003 1.1843166024529446e-001
      -8.4429082708068023e-002 -1.3410437831576599e-001
      -3.4418931625948934e-001 2.3379942593304104e-001
      -8.4724787422575054e-002 2.1146014423181186e-003
      -2.6697701559154852e-001 6.5940445993599425e-002
      -2.7134116201311512e-002 1.3340343372286098e-001
      -1.4389251487590130e-001 -7.0418733720406773e-002
      -2.3204964021099206e-001 1.2945815361785057e-001
      4.8410897234795658e-001 -5.6521667773701889e-001
      4.4274224094571102e-001 2.1732915838222869e-001
      -2.1991448356959674e-002 -6.0370953154209350e-001
      5.8387315367195625e-001 2.5221843101730018e-001
      -2.1976788429299735e-001 2.8566134980965840e-001
      -3.9280488674781226e-002 4.4822442374732319e-002
      5.1019333375570450e-002 2.3469687684916413e-001
      -2.6602371744997605e-001 -2.6787864488189012e-001
      -8.4112170176629378e-002 -4.8631409375479401e-001
      2.1972172170638915e-001 3.0742332740097578e-001
      -4.6609650337596031e-001 3.9937640418213011e-001
      -2.0406133280627883e-001 -1.0190923135070268e-001
      -2.3106688332261202e-001 -3.3861278643406698e-002
      -1.0797581017997666e-001 7.0795635899316267e-001
      -2.4570730361533391e-001 1.5718208554491189e-001
      2.4176050553612635e-001 -3.9617995145190560e-001
      -5.1259609618963052e-002 7.6097816742599148e-002
      1.5416793857642393e-002 -3.9942524379792149e-001
      -1.4108035737352295e-001 1.8020084090014166e-001
      6.2583669026297484e-001 2.7202181028641850e-003
      1.0928465513786842e-001 1.7550301993996972e-002
      2.1242636677867796e-001 1.9964994903636404e-001
      -8.1493535233432501e-001 1.5282178773406541e-001
      -2.1916107611717525e-001 -2.6759168207896377e-002
      -2.1191986394159836e-002 9.0376438884908650e-002
      -7.0529685638927114e-002 -3.0937054906311218e-001
      -6.8690120078894357e-002 2.0047148270207105e-001
      -4.0607239751863677e-001 6.1275251300808430e-002
      3.4031014065655274e-001 -2.2500128021985136e-001
      8.2023444877008841e-002 5.3944391983559735e-002
      6.7395275542819350e-002 8.0582244326603408e-002
      4.9175272401722682e-002 1.6456291304837459e-001
      -1.6942578612195924e-001 -5.1637858327132236e-001
      1.3672876417640828e-001 1.4952207780686208e-001
      -1.6059557126451934e-002 1.1520974736585282e-002
      2.3495153427030674e-001 -2.9935761311411885e-001
      1.3226878192922412e-001 2.1863495664590712e-001
      -2.5229960093342236e-002 1.7476132164610327e-002
      2.4945822751878660e-001 4.3614006348165735e-001
      -1.2855841268080728e-001 1.0425261172915523e-001
      4.5777137113342697e-001 1.5937240228184046e-001
      -4.0324723809136036e-002 1.6805698862248089e-001
      -5.1305203386432408e-001 -7.5730500273134743e-002
      1.0689396876122291e-001 4.0799963567957603e-001
      -2.2373583438776384e-001 3.4201629911320602e-001
      4.2321673328254067e-002 2.2059113882274725e-001
      -1.9682400184351767e-001 -1.1725295550848516e-001
      2.7226153564331873e-001 -1.9065665841369844e-001
      1.1793012249362229e-001 -2.3345151993885821e-001
      1.2061209416635515e-001 3.6926316118940185e-002
      4.9339680992355466e-002 -4.5373982465264939e-001
      -1.5348459632187714e-001 4.4381831593494389e-002
      2.6610179235776654e-001 4.4105978743612219e-003
      -2.4249011272225332e-001 -2.4346273097769167e-001
      1.5996024573301107e-001 -9.0395533696281088e-002
      2.8088143138976057e-001 -1.7273788461291290e-001
      1.3842799367399267e-002 -2.1376746136634875e-001
      -2.4059299459755813e-002 9.4909854609796951e-002
      -3.7767599302218735e-001 9.0974373998282079e-002
      2.4715071734194860e-001 1.8836205271667794e-001
      -2.2139170976071162e-001 1.4942755997618365e-001
      -6.8837072280258829e-002 -1.1591691083287954e-001
      -9.8924686043181012e-002 -5.5003609900217187e-001
      -2.2979572570562323e-001 5.7239539564279707e-001
      5.3336801707624920e-002 8.6589334329583809e-002
      -1.2461744240358512e-001 1.0216706746993021e-001
      3.1633768828710740e-001 -2.2846898396707671e-001
      1.8893735534483463e-002 4.2234078209230058e-001
      1.4168621890635265e+000 1.6708965296814113e-001
      -2.8409206535710087e-002 -1.5827876326207044e-001
      -1.0058818414996682e+000 4.0359428150882309e-002
      3.8788143872553200e-002 -1.0743788663672414e-001
      -1.2271299413879753e-001 -5.6473649098959286e-002
      -1.8221694295214758e-001 6.6958590075489929e-003
      4.7528021861160535e-002 -1.8452814269702766e-001
      3.8516762048913028e-001 -5.7523088588794347e-001
      3.5232495961905741e-001 1.5964315885190417e-001
      -6.6560186329545953e-002 1.4149082068106419e-001
      -1.0937945602005295e-001 2.3176618005724389e-001
      5.6600416959359057e-001 -5.9348945620039367e-002
      1.2489269516142322e-002 -1.7509270902957761e-002
      -4.5948501307176615e-001 1.0900798793754563e-001
      -7.8552262626433089e-001 2.7655040982762102e-001
      1.0094352773607616e-001 -1.6752718410888950e-001
      7.9538474614163718e-002 -3.3432548122330263e-001
      4.8774267467431270e-002 1.9812885607011127e-001
      1.4644280313336197e-001 2.3099769595244438e-001
      -8.5448710721048526e-001 -7.3650749955583211e-002
      2.8102148689236084e-001 1.9838992112155514e-002
      7.9646559277172665e-002 1.0752613299998415e-001
      7.7168021893854433e-001 -1.0251566724252079e-001
      -1.0303975192837277e-001 -1.0639044578191037e-001
      7.7064229182720889e-001 -9.2917524055116121e-002
      -7.5427385438638361e-002 -1.3137213765068418e+000
      -1.8868148134736543e-001 -4.0597539405076266e-002
      -4.6200148710412187e-001 -2.3314316694079604e-001
      8.1667900235427388e-002 -2.9967172798264402e-001
      3.2756630563948375e-001 5.8970514067810142e-001
      -1.7614843539887054e-001 8.7185526288240334e-002
      4.4754978268304590e-001 7.0394637592348749e-002
      4.9234632388834638e-002 -4.3851607644624774e-001
      2.1429745095352518e-002 1.1929999176443144e-001
      5.2734569029852152e-001 -6.6801441531164196e-001
      2.5417712955456782e-002 -3.2178676323656080e-001
      7.4820385361013847e-002 6.1395087765022516e-001
      2.6302628067566676e-002 2.9658152278714117e-001
      -1.9664535791707749e-001 -6.3000851727551754e-001
      -4.7069322927555385e-001 -1.4401721442987903e-001
      -2.8784119921945389e-001 -7.4540989143098479e-002
      -3.3338955778300045e-001 -1.0374850025748334e-002
      1.2320514559903255e-001 6.0243222326577438e-002
      -7.6593042912324616e-001 -1.4077271465712818e-001
      -8.2234681071241142e-002 6.0898924006141963e-001
      4.5243941277484399e-002 9.6578497120300658e-002
      -6.9077846556375180e-002 5.8560432397602902e-001
      4.2049493897468471e-003 1.0501290454427209e-001
      -9.8820232223807876e-003 -2.3762791897434735e-001
      1.2859585038005544e-001 2.4266142428566834e-001
      1.0204906683629887e-002 -4.9172637946161474e-001
      -2.0835095248211674e-001 5.4689741455607420e-002
      1.4068048174182868e-001 6.6257171071317553e-002
      -3.9121482363872737e-002 -1.0509012201438618e-001
      2.1872619000270632e-001 -6.9652373070587970e-001
      8.8068568096203725e-001 5.0237030480486067e-001
      -2.7913501409319585e-001 -3.0100845670944471e-001
      5.8689761550123634e-002 -1.7464563945964351e-001
      1.8846344860517002e-002 8.1878620599744023e-001
      -1.6009521345631614e-001 -5.2002181543935620e-002
      3.1946592795172646e-001 -3.1860426459719524e-002
      4.4205724583466705e-001 2.6935793200218339e-001
      2.9349191996240677e-002 6.7923059132768915e-001
      -6.3052097938497842e-001 3.7341142539530026e-001
      2.6687452212009277e-001 -7.3173455939119850e-002
      1.7301221282039420e-001 3.2471411447485034e-002
      1.5440667886844495e-001 4.6647939923443894e-003
      4.6345665986847917e-001 -5.8868919436813594e-001
      5.9329065681800706e-002 2.0681255629526111e-002
      -9.7574186441936203e-002 -4.4819280718056781e-001
      -2.8821881169764263e-001 1.4231655236243856e-001
      1.1501311234287110e+000 -1.6092898078714180e-001
      -1.6814054945423235e-001 1.1708713037533733e-001
      -8.7726786340270257e-002 1.8288712409604987e-001
      -4.6345011034463773e-001 -7.5507758138798675e-001
      -4.5921983389839455e-001 2.0287531470088163e-001
      1.3734345742576046e-001 2.3856667493628561e-001
      6.4935087148287884e-002 -6.2083499294884589e-002
      7.4280571419569577e-002 2.5969081670242494e-001
      -2.5225527201551418e-001 -2.0829716891809688e-001
      -1.1740609621645854e+000 -1.0135067074036759e-001
      6.7614166118214039e-002 -3.2156154277636562e-001
      7.1865638198832305e-001 -7.7579179713140106e-003
      1.9709940219425023e-001 1.5235087664940092e-001
      -1.8220893737095983e-002 6.0953663347184117e-001
      4.4304723525934724e-002 2.4174009476146910e-001
      1.7700143813371005e-001 3.3124528225881122e-001
      -1.0563504765051412e-001 8.1479422361437703e-001
      -1.5317077083556646e-001 -2.1129633996531688e-001
      2.9049730905703675e-001 2.3369841606205925e-002
      -1.0848671459015904e-001 2.5364911577073418e-001
      1.4059090644039521e-001 1.0389234434776219e-001
      3.9919068750533665e-002 -2.9604858020968225e-002
      1.0120625748445207e-001 -2.0694111658977429e-001
      9.3551803832550406e-001 -2.4154155146109843e-001
      2.1830176810400365e-001 3.2910402252408932e-002
      -4.0889419789592862e-001 2.6059094586889381e-001
      3.4157321790195483e-001 -9.2148528149385470e-002
      -7.6126856037407389e-002 9.3549228458037453e-002
      -2.1821919437625320e-001 -6.1993054790309712e-002
      -2.1982569620528306e-004 3.0375821389069391e-001
      -3.3008165879161902e-002 1.0601612740927836e-001
      -2.5653473531740917e-001 4.7935641694664383e-002
      8.3162894282686972e-002 6.2754739999905437e-003
      -1.1698715437433308e-002 -1.9536089853802835e-001
      -9.0996177001878703e-002 4.0188519262103872e-001
      1.6631032131514495e-001 4.2810095654254914e-002
      8.6835661269447306e-002 4.1966808007003747e-001
      1.2876851483646073e-001 -2.2200454651046816e-001
      -1.2396739815450530e-001 -4.2560467610511576e-001
      1.5975486079930581e-001 1.9014728631011965e-001
      -6.3936753107951561e-001 3.5607789687278804e-002
      -9.4760806180957072e-002 5.6799457301288814e-001
      -7.8621531948873988e-002 -1.2290999920384310e-001
      9.3185939933273787e-002 2.9606853612297579e-001
      -5.1135297069878599e-002 -6.2620290432530779e-001
      9.3378993201331542e-002 -4.2395871476558555e-001
      -3.2022116580882637e-002 1.8121117743183007e-001
      3.1385499808864914e-001 -6.8740797439363088e-001
      9.7681364503866108e-002 2.4712737361301466e-002
      8.1735561433657455e-002 1.4022439765988587e-001
      3.8633851264662324e-003 -3.3429291859240551e-001
      8.8207191110370287e-002 -9.1312506006115318e-002
      -2.5880735137890350e-002 -5.2006841569775523e-002
      1.9204978104674336e-001 -6.2358379949771017e-002
      -5.4507252304188861e-002 1.4752829785065408e-001
      -1.6561344894610869e-001 -2.1725645361934501e-002
      2.3039337571795093e-001 3.6743975679020885e-001
      -2.7685093413318537e-002 -6.2329049079667839e-002
      1.9343462083019650e-001 1.1676587266611212e-001
      -9.6496559932458502e-003 2.6389614635427000e-001
      2.5490488192547656e-001 4.1312042447055074e-002
      -3.5095801327440564e-002 7.2493413076823263e-002
      1.1853802179057014e-001 5.7630161533131802e-002
      -5.8709812146467177e-001 7.0646403165202321e-002
      2.1346073336095076e-001 1.6757087645773849e-001
      -2.7770181510409711e-004 -7.4379969235332105e-002
      -5.9443346316728263e-002 -9.4470138249882402e-002
      -6.5589618298317567e-002 -3.9216664545745711e-002
      5.6965109868709229e-002 1.0932665036410485e-001
      4.3634198581743840e-002 -2.1336886279763179e-001
      9.0900949854626475e-002 -1.0826217968999283e-001
      1.3272456416975997e-001 5.2061000161969254e-002
      -2.5254746083885748e-001 5.7112013653622264e-002
      3.7839164977638495e-001 7.4970202622634569e-002
      -3.6716729347251356e-002 -1.4533865983517863e-001
      -2.7705567061721028e-002 2.2215586476211763e-001
      1.4613757603927754e-001 -1.2301575013044425e-001
      -1.6615923674222416e-001 -2.7831729002729594e-002
      -2.4180276272988746e-001 4.9993896976477069e-002
      -3.3721172767565671e-001 -5.1341780655305943e-004
      4.2163447162995799e-001 -3.4834470123533280e-002
      2.1251978728643098e-001 -3.5881884118236057e-001
      1.0447772470748963e-002 -1.8454551991458318e-002
      -3.5732020394678343e-001 -1.0738819202757220e-001
      -1.5395947935405199e-001 -3.1419622840789213e-001
      3.9482894258039844e-002 -1.2515066706787906e-001
      3.6156721249355546e-002 -5.8934111813965682e-003
      -8.7101229031437424e-002 5.4579561300897764e-002
      1.3817320836073771e-001 -2.7656147059837575e-002
      2.6857000801535696e-001 1.3065761311240855e-002
      1.8552965203924376e-001 1.2139754952461750e-001
      -3.9464236623472798e-001 -1.9085228116368544e-001
      5.9321377606757253e-001 4.3612705039415695e-002
      -2.4815506975886978e-001 3.1538932183415153e-001
      -1.1548070912173614e-001 3.9288390253386790e-002
      1.3903529150600760e-001 -8.0365977592130489e-002
      5.7480240479927634e-002 -2.5312730996465743e-001
      1.4724333443209986e-001 8.2659246184611040e-002
      -2.7836166639619953e-001 -1.7796144222350104e-004
      -1.0054325475958051e-001 2.6541966308571008e-001
      -2.8858809930138507e-001 2.0270756856653535e-001
      -3.5800469963526627e-001 1.8522047760288490e-001
      -1.0287579616448913e-002 -5.4989778518669286e-001
      -4.9681283087938077e-001 2.2322182974690685e-001
      -9.0035827698599302e-002 -3.6459477076153179e-001
      -1.2455700580030094e-002 -1.3554908667344293e-001
      -1.2559000877692931e-002 5.5639356644795440e-002
      -1.3275622569141768e-002 7.7530630304091255e-002
      -4.3025920148356200e-001 4.2254520229651558e-002
      1.9790220217971349e-001 1.5596326322769319e-001
      -1.6542489927176673e-001 -1.6371522325327342e-001
      3.7782686277039790e-001 -1.4967048626435842e-001
      7.5217795280804189e-002 -4.0021950224684189e-001
      2.8026527728092099e-001 2.4642663350574873e-002
      8.5258715081435829e-002 3.1193283973436831e-001
      -6.1577102685773259e-002 -1.3213519307335206e-001
      -2.4704456974203301e-001 2.0724288508114014e-001
      6.4238833911050341e-002 -1.4681705831962569e-001
      -3.6577830513505327e-002 7.7403532913028109e-002
      3.8856851073576054e-001 -7.4800677009246780e-002
      -5.4758884857943085e-002 1.8027307927213362e-001
      -7.0134289980236783e-002 -2.6196007226561201e-002
      1.2726134684436824e-001 -1.6307117703062943e-001
      1.6732733992575125e-001 -4.7510002051641592e-001
      -6.2331733443347616e-002 -1.6938577469810490e-001
      4.6958970264971540e-002 2.8128778409102551e-002
      1.5553629689338094e-001 -7.8955320228493150e-002
      3.1737982918504402e-002 -4.6751078714325273e-001
      1.5166348703939761e-001 -1.2373098960636741e-001
      1.6124877475480348e-001 -6.6539437812023951e-003
      -2.9355834374975187e-001 -5.3438577220575778e-001
      5.7290330573544379e-001 5.1194855108068905e-002
      -6.5764581962405352e-002 -2.3492385918226819e-001
      -1.4624372024200099e-002 -5.7161864705153875e-001
      7.2765607662881135e-002 -4.0758746194555151e-001
      -1.3575252771993732e-001 1.5704867781846407e-001
      -1.1393671985887611e-001 3.5769935919098350e-001
      -1.9793042172762099e-001 -1.1467671669254607e-001
      -4.7227887223648501e-001 2.5019113640460160e-002
      -1.1425980312938917e-002 -2.9307639362672117e-001
      -7.8553377440274252e-001 -1.6229845235219756e-001
      8.8458964031026419e-002 6.6540239593560258e-001
      3.0639515375255749e-001 7.7608977473777252e-001
      -2.3334517987426098e-002 -2.1877455041740329e-001
      3.8325781371165651e-001 1.1604935194449781e-001
      -1.6203238303137302e-001 -1.6165821013444545e-001
      4.3798934354329589e-003 1.8401015889857361e-001
      1.8979837044271519e-001 6.1016873504948932e-001
      -1.5803130849697267e-001 1.1197673486064627e-001
      -2.0505830230963795e-001 -9.4726444348196395e-002
      2.3435026094888226e-001 7.9105741078501698e-002
      -2.8891904129066809e-001 4.1026683134136743e-001
      -4.1924207754250892e-001 1.3995084551956714e-002
      -3.3125921368130817e-001 4.9863536427717035e-002
      2.8769861593282914e-001 -6.2621613128665388e-001
      2.2893957621251490e-001 3.1931226203494471e-002
      2.0628436884496190e-001 -3.4172876814629626e-002
      2.2830689721433196e-002 1.5620165583714030e-001
      2.0165554226505328e-001 -2.6730150665940527e-001
      -5.8488223811820894e-001 -1.6485887256295706e-001
      5.9575534666020911e-002 -1.6728768075561420e-001
      -1.4981479226577105e-001 -2.7974379583341746e-001
      2.4073128398872121e-001 3.2143605453625372e-002
      -3.5909444863344943e-002 5.3339733487771247e-002
      -2.3233768283354927e-001 -1.1614498167859573e-001
      -1.1297675644250980e-001 4.3628037822428412e-001
      9.9437553840769632e-003 -1.1101617410723677e-001
      8.5461585593032234e-003 9.4725785727639053e-002
      4.0684994670358021e-002 2.0633303071205360e-002
      1.4385257984262606e-001 1.3118981900186963e-001
      4.3099253435945617e-002 -3.6581923716692871e-001
      -5.0600782598230776e-001 2.0408960366063855e-001
      -2.0123111045775929e-001 -1.3134108113266862e-001
      2.4240043221168772e-001 -3.6050789752946183e-001
      -4.5242712457055079e-002 5.3475016979926356e-002
      1.1663555344691827e-001 -2.3646376595699634e-001
      6.4311869701793103e-002 -1.9013549773959701e-001
      1.3178830551489523e-001 -1.6645084897082610e-001
      1.5699598661965586e-001 -6.7488539805686004e-002
      1.7886974640296052e-002 2.7227400683660874e-001
      5.5094435054477829e-002 -5.2883134007559764e-002
      5.2285607711112118e-002 2.0216631833324689e-001
      -3.7703342176693555e-001 2.2490342327125193e-001
      -2.3254549425433266e-001 5.7278397372279681e-002
      -1.7363943072921606e-001 -7.4412427835361186e-002
      5.9303583083535998e-002 -1.9150073010030841e-001
      9.4877964663955441e-002 -4.0225226233616534e-001
      -3.4038536530831921e-002 -2.4555756716089483e-003
      3.9416820377318924e-002 -1.3341928043211396e-001
      1.4497662092939065e-001 -1.2205646135825782e-001
      -2.4929933733393789e-001 7.0324933583402499e-002
      2.8119504768630688e-001 4.0360130150547194e-002
      -5.7386977378467624e-002 1.4009948876035258e-001
      4.7579600980759279e-002 -1.1767082950915052e-001
      1.6881964453290932e-001 -4.6915036655998299e-001
      -2.3533390065929052e-001 3.2686124232698247e-003
      -3.2128138744810558e-001 9.3656537188372316e-002
      -4.1929695795472018e-002 2.1117565795740416e-002
      -2.3601925916602337e-001 3.5182324841472729e-001
      -7.1426405566758000e-001 -1.6514867517879292e-001
      -4.0187505283369668e-001 -2.6123588570416939e-001
      2.0770012420184192e-001 -3.4741460846883226e-001
      -3.7320966952665756e-002 -1.3270240977526837e-001
      2.0744463397350174e-001 -2.2752252264041306e-001
      6.3355973878275268e-002 4.5057404789946881e-001
      7.9083196577586293e-002 -4.8129378495031447e-002
      2.0545893805577001e-001 9.6189818662734544e-002
      9.9448545911200309e-002 2.9302902304945294e-001
      4.0239630235630386e-001 -1.2881511127651102e-001
      6.4307108676650027e-001 -6.3456311992165906e-002
      -5.8954736935676330e-003 1.6488714589424611e-001
      2.2563030887001398e-001 2.0779839150178461e-001
      -3.9132488280080047e-001 -1.3084720941161282e-001
      7.5456927707644936e-002 -4.4442874386650161e-001
      2.1655407070704735e-001 -5.9417776234901298e-002
      -9.3839804227014129e-002 -4.1452118546002870e-001
      2.6303282834628383e-001 1.4537180741093136e-001
      1.7706300414050236e-002 7.0346889423705790e-003
      4.4997584173925333e-002 -5.9322846742741332e-002
      2.8658357922642180e-002 -2.8315417541985644e-001
      4.5599473590742789e-002 -2.3567640773435494e-001
      -1.4725015390220980e-001 -5.9197529379420209e-002
      -1.4811650054146933e-001 3.1521712505473026e-001
      1.8069535741146864e-001 3.4451052282909997e-002
      -2.0641299571604896e-001 8.7584061040156133e-002
      -2.0861172988717413e-003 -1.4801990835806447e-001
      -1.7219432589298486e-001 -1.1282188707922549e-002
      -1.5708934646511219e-001 -1.1046316565634076e-001
      4.7826920700063158e-001 1.7183621952370132e-001
      -7.1021484947454361e-002 9.6072323565676868e-002
      -1.0379805698492817e-001 2.3452782309534870e-001
      -2.4815578901790480e-001 2.4748400475953244e-001
      -6.3430976072038819e-002 2.4404001023234889e-001
      -2.7780713911662297e-001 2.3055122611718534e-001
      7.8459699741213178e-003 -2.8566238513105313e-001
      3.5585610752513352e-001 9.6973891716024760e-002
      1.3961362335711783e-001 3.0408450455723179e-001
      -8.0209549521225651e-002 2.0005329028974422e-001
      8.9084657520555652e-002 2.8897065171583203e-001
      -2.2101109194421656e-001 -1.2739696694197972e-001
      3.2739353696789925e-001 -1.4600560965951001e-001
      -3.5649081678121142e-002 9.3922627195621028e-002
      2.3836003144019047e-003 -5.1731790092435415e-001
      1.6259897179412428e-001 1.9036772932782725e-001
      8.5366286490523996e-003 1.6046233963564832e-001
      -8.4253045178302885e-002 -1.0963507807720925e-001
      9.3099272285057696e-002 2.2254182000213765e-003
      1.4628464703600000e-001 4.6963459949042563e-001
      3.0430845582643135e-001 -5.3573411417161133e-002
      -8.7121327308999652e-001 -1.0459335998088132e-001
      4.4259419939320932e-001 -2.0064486028998621e-001
      2.9123441881951018e-001 -9.7660289839287137e-002
      7.3887101177419889e-001 2.9436721407524119e-001
      5.4884991060592234e-002 2.6990187979422566e-002
      3.0098294901362327e-001 3.7266844245020142e-001
      9.5654804929760334e-002 -6.2982309725825469e-001
      1.3263252421263899e-001 9.1979901851995685e-002
      2.4997313475873117e-001 9.9050691459485668e-002
      1.0278289592625345e-001 -2.9382995863259787e-001
      1.6015204659812812e-001 9.4988049636633898e-001
      1.6726500235805036e-003 2.5231231781577712e-001
      -9.7892309764049701e-001 4.5131275347299593e-001
      1.4882854075070737e-001 -5.9772874868397863e-001
      4.2403316289218884e-001 6.5693110261122523e-001
      -1.0562580242592257e+000 -1.6633866141078590e-001
      6.9297970187061297e-002 1.7206002347677485e-001
      -2.7680682511761234e-001 3.3784657884934793e-001
      -3.6682510389377743e-001 -1.1034529992199400e+000
      -2.4015193254022771e-001 -8.0640557334235655e-002
      -2.1894194712331405e-001 -2.5951341366762089e-002
      -5.1487172970979100e-001 -5.3661413495365060e-002
      -2.3005887878383657e-001 -7.7966206146059736e-001
      4.7169431911704252e-001 -1.8783273437379169e-001
      -1.1362295378735290e-001 2.9272067450214778e-001
      1.5345916327972897e-001 3.8130186763103979e-001
      2.2108843459204769e-001 -1.1728029400794127e-001
      -5.7965939886290813e-002 5.3930884217375896e-001
      -1.1861241658537011e-001 -2.7420954630425359e-001
      -3.7445622740060530e-001 1.0086707520147746e+000
      1.0255642113330575e-001 -3.1024288483294765e-001
      -7.2557216603619656e-001 4.1951809563373865e-001
      -1.4344723488480640e-001 4.0986683068581037e-001
      -3.1709341926088397e-001 -4.8489183033812466e-001
      -5.8805290282009559e-001 4.1080720723063829e-001
      2.9251269470827768e-001 -4.5404338194172383e-001
      -1.4644836519437815e-001 -1.0572833151729197e+000
      -1.1692804911595286e-003 -1.5891410640214321e-001
      5.5873169810891432e-001 -8.4559611303766036e-001
      8.7891979768864448e-001 4.9482819421046415e-001
      -7.9396535324554374e-001 1.3120819343271456e-001
      1.5867369439706006e-001 2.3861084746789524e-001
      9.9685517775491372e-001 -2.7902267498325961e-001
      1.0166891945808432e-001 2.6126865077309630e-001
      8.9328100484234285e-002 4.7142745274764075e-001
      -1.7393207482912624e-002 -1.3770163134978176e-002
      -3.4472112282490683e-002 7.5040629027571193e-001
      -1.0887386553610501e-001 1.3307520031805267e-001
      -2.1602858999337515e-001 -2.2761531418700491e-004
      4.4066120562314420e-001 -9.5740797171481692e-002
      -1.7125159993038858e-001 1.8622711507992459e-001
      -1.0724215674064108e-001 2.5591816863919553e-001
      1.5224790332030061e-001 7.0253032938153631e-002
      4.0124739273603410e-001 -6.6634084726960507e-001
      8.6583722318788126e-001 8.2957145604397944e-003
      2.7639473826076314e-003 3.5097524123423547e-002
      5.4047795950334293e-002 3.1274837385594539e-001
      1.8817141124363730e-002 -2.2465948655912123e-002
      -2.6895092611617155e-002 -1.6990913598373231e-001
      2.6201348262010332e-001 -1.2551725121510104e-001
      -2.4225800661528168e-001 3.2062552379753022e-002
      3.4115852543706186e-002 2.0181234434750367e-001
      -3.4361836383836597e-001 4.4026406173311367e-001
      5.9567963338645802e-001 -4.2248169999692176e-001
      -1.2484379358442996e-001 -1.0073584872668732e-002
      3.7592111730548820e-002 6.1100599034054748e-001
      -1.6951031578630066e-002 4.9811727546685405e-002
      3.6524717142621654e-001 1.0416952057394398e-001
      -6.4592307066747914e-002 1.2271329098706997e-001
      -1.2821763134406505e-001 -4.4331818471732448e-001
      3.0081295367516253e-001 1.2600355744979551e-002
      -5.8764782168288121e-001 1.8482329124536973e-002
      1.0798541754518261e-001 4.5972705028163738e-002
      2.3765888495289669e-001 2.6648406196449013e-002
      -6.1963307862443007e-001 2.8575338402935657e-001
      2.6542447367956867e-001 -4.4062641704355981e-001
      -2.5893570001442601e-002 8.5183517611822537e-002
      -6.1158146647878504e-003 -2.3641551667927255e-001
      1.8277837510131373e-002 2.0889091822368225e-001
      1.4895049953366374e-001 2.9040055484919436e-001
      -7.7806706578976337e-001 -5.8601166074553554e-002
      3.5732491041673836e-002 -6.4123782751630587e-001
      -1.7500378183068843e-001 -2.8416191759503585e-003
      -4.8363593806170307e-001 -1.1078609593842474e-001
      1.2003183386955246e-001 4.2031146973474187e-001
      1.6937300947534702e-002 3.5644580778249962e-001
      5.0792036432062804e-001 6.1557092805040736e-001
      -3.9962280751719187e-001 -4.2038159676295800e-001
      1.1033196170575187e-001 -7.0555430723291554e-002
      8.9287482402314211e-002 -1.1627799831958473e-001
      -7.2735278567078496e-002 -2.8473900102293648e-001
      4.2134961696223397e-002 -1.4442698014467609e-001
      8.1831964553419034e-001 -6.3880135858924592e-001
      -7.5290789711526496e-001 3.5710681586630842e-002
      4.7101635789002100e-001 -9.5532783780123462e-002
      2.5168899068493916e-001 -3.1616741030970097e-001
      6.1390542537527008e-002 -8.7340214549230988e-001
      5.1725625926426324e-003 -4.4499231585593940e-001
      1.6101602347833041e-001 4.6626497903832820e-001
      -1.9123328092192529e-001 1.8231427716835669e-001
      4.5051101719701181e-001 5.4344377297698665e-001
      -2.4152075301959597e-001 -2.0911922214822945e-001
      6.1541224761126452e-002 4.1116104934076947e-001
      6.8246448975538512e-002 -3.1083526169685394e-001
      4.5328400491054288e-001 -1.2842756933149854e-001
      1.8528464211176254e-001 -6.3713387014363121e-001
      -1.3975471757376390e-001 -8.0180108413795997e-002
      -3.0630718966675675e-002 -1.5345198331973159e-001
      2.7977885335539712e-003 1.3473985701794184e-002
      -4.3458482103364438e-003 -6.9366587899410503e-001
      1.0813794426207704e-001 -1.1340937271995359e-001
      2.1965299147682010e-001 -1.1456176159934059e-001
      -1.6945386979641003e-001 -8.6372431430553717e-002
      -1.3761748682510622e-002 -5.7134282902997671e-002
      1.5022327197087080e+000 -5.0334939502926679e-001
      2.6249304114803751e-001 1.6543341984681129e-001
      1.3980247489700634e-001 -3.7375438104450265e-001
      -4.8706736132488222e-002 4.0544495609262193e-001
      -2.8494151724142514e-001 -1.3582588237925591e-001
      1.5472228856311018e-001 -1.5671161256812904e-001
      -5.3682332771568453e-001 4.7944524476865237e-002
      3.0490979809048635e-001 4.1975223078335600e-001
      -3.1404546555095814e-001 1.8885825043655405e-001
      4.9756160075478223e-001 1.9186383841772386e-001
      4.0902057949710202e-001 4.7390117657254052e-002
      -1.5640662505241015e-001 6.8614645117800299e-002
      4.7344928164901678e-001 5.0294558976447701e-001
      -4.7349085315222494e-001 8.7455921392896128e-003
      -6.3907022835965081e-003 -4.7711543271722189e-002
      8.8807850823352796e-001 -1.4090610277326182e-001
      3.6227343868535389e-001 -5.1993287192351974e-002
      4.7380077433483703e-001 -6.5219907879759786e-002
      1.0352463202373335e-001 -1.5880509261363410e-001
      -3.7189336864137607e-001 -3.9722959436649008e-001
      -4.3721430219647117e-001 -2.0814869895293051e-001
      -4.3369787869355197e-001 -6.7877290186795869e-001
      1.1622338170863764e-001 4.7723268097619148e-001
      2.7679689679445729e-001 -7.3673084159446156e-001
      -1.5014025413417989e-002 -7.9574056531972048e-001
      3.4127202629912125e-002 1.4058191075399643e-001
      2.3968278400023524e-001 1.0573397252891992e+000
      -3.0395457309506368e-001 -1.4923307902875674e-001
      3.3940943228621634e-001 2.2220988168139585e-001
      6.5189368396185821e-001 2.8317201586801743e-001
      4.4825987452203014e-001 -1.6269294180799038e-001
      -3.2213226591602723e-001 5.5956951956376144e-001
      -3.1923848608871785e-001 2.0893809188931375e-001
      -2.9344587403186778e-001 2.9963502973825545e-001
      -2.2760360670702531e-001 -1.0694678804798334e-001
      -2.6897102677985768e-001 -2.9229380478495492e-001
      1.9575291104887396e-002 9.9411858987974722e-002
      -4.2346237908385259e-001 -1.3774768317723673e-001
      -5.1599932034290065e-002 -7.1842497567361246e-002
      1.9297562209745570e-001 2.7850454717975520e-001
      6.1090842998295347e-001 -8.3951041720816333e-001
      1.9947833662924447e-001 1.0723964620562865e+000
      1.5657011717122429e-001 -1.2565763959647419e-001
      -3.1809774769010901e-001 1.5038986813907426e-001
      2.3685368318587588e-001 1.8850692232381472e-001
      -2.2104738098968957e-001 -1.1452824013539213e-001
      -9.3854695693354129e-001 2.3215779429747757e-002
      6.1905504524305772e-002 2.8833335790759973e-001
      6.0738240380180344e-002 -2.3919259016966662e-001
      -3.8688171880499167e-002 2.4982931438926656e-001
      2.1085842469009705e-001 1.7278427582422518e-001
      -1.0068461589101003e-001 1.3498066561882321e-001
      1.5371718606735743e-001 4.5889321598350086e-001
      -5.3078056475791252e-002 4.3020623715892636e-001
      -1.4281890989710078e-001 1.8926339623959904e-001
      7.0270320407001408e-001 9.4526614344507612e-002
      -1.0961835403133240e-001 2.4303723679476322e-001
      -3.5387553303592563e-002 2.7652945486013564e-001
      4.9856752862404369e-001 4.8131342582749433e-002
      -1.0987022035632010e-001 -7.8227332944602612e-001
      -2.1555675882217704e-001 1.3429435873660381e-001
      -2.6136630488812825e-002 2.9915693411454647e-001
      -2.0379502654424148e-001 4.0519880482147907e-001
      7.5980806184504007e-002 -5.0167938479540153e-001
      -1.5468200539333414e-002 -1.5975143938764164e-001
      -3.3160062829924941e-001 -3.2544246095975327e-001
      8.7950463095622433e-002 2.0996219125587787e-001
      1.5198703951824752e-001 -6.3044859572511949e-002
      -3.0595198654990722e-002 -3.0642455875798238e-002
      5.0227077794921349e-001 -1.1774699058258070e-001
      1.5531095009742329e-001 -2.5501939150082914e-001
      -1.2790394664841351e-001 1.1325464753147167e+000
      -2.3890084232657446e-001 1.1790708829509366e-001
      2.6600623705077958e-001 -4.1029795365870469e-001
      -1.5505659848721699e-002 -1.3043189335705788e-001
      7.4227366477070955e-002 -4.0074550993384472e-001
      -4.9838177936121186e-001 1.6699279167048700e-001
      1.6157653981604511e-001 5.4447081725626449e-002
      -1.1895194847974613e-001 1.8614899951533925e-001
      -6.4069712821146665e-002 5.5464515572053763e-001
      -3.2343232737481653e-001 1.1762137457173329e-001
      -5.0150096448842774e-002 4.6171450320953755e-001
      1.4408983470955877e-001 4.1966392437409600e-002
      -2.3836870865168943e-002 8.6276246730023959e-002
      -4.5696408853283702e-002 -2.1184367860790290e-001
      -1.2413710661738039e-001 7.7236400414753877e-003
      5.9178975216739904e-001 -9.2524522052957331e-002
      1.6124302743995028e-001 5.1954963803036536e-001
      2.4130388490718902e-002 -2.4067411866977299e-002
      5.4626186472893981e-002 9.5246511712896567e-002
      8.4017090572379882e-002 2.0484949712788664e-001
      -2.4692516068832850e-002 -1.4236738055774359e-001
      1.1673359463231715e-001 -5.5926340370445388e-002
      -3.2359183008008129e-002 3.3862865141966431e-001
      1.5099316123653383e-001 -9.2435141036123020e-002
      3.2369737689216227e-001 -5.2646384973840089e-002
      -2.1313916148705386e-001 -1.6330147307854403e-001
      5.4358802074323431e-001 3.7242774792039954e-002
      -6.6847655434135300e-001 5.1138991817004475e-001
      -1.4305937927105367e-001 -6.7800262471814610e-001
      -3.2339669406834176e-001 1.1659796607445505e-001
      4.8006226920714995e-001 5.7303353029017637e-002
      5.8445395632611578e-002 -2.0680463806633848e-001
      6.0805520133170927e-002 -7.8988270890582524e-002
      1.1546668112184825e-002 -3.1258478572565911e-002
      -2.5303471938689809e-001 3.0911664108022749e-002
      5.0066062949322622e-002 3.8355754240132361e-001
      1.5279441740668337e-002 -2.0800855161222701e-001
      4.3474723377349789e-001 -1.5053335903780168e-001
      3.9650252115674955e-001 -6.9416761712620299e-004
      5.5418937305763749e-001 3.2281410400537384e-003
      -4.0136518644305547e-001 -1.5121693604862307e-001
      -2.6893380705151813e-002 -7.9694033419884930e-002
      -1.3026433748036989e-001 -3.6706312705179600e-002
      3.0915627117423201e-002 -4.9589906069952214e-002
      6.5022456107712470e-002 4.3178326087863650e-002
      -2.9133232886337856e-001 -9.1166246004808896e-002
      6.7306534968662166e-002 8.5131011002335027e-002
      1.8083798628753278e-001 -1.9823102615844476e-001
      -3.9943223850966533e-002 -3.7163978659526298e-001
      1.0309768307408168e-001 2.0560747795997286e-001
      -2.6441184655900042e-002 4.8685242538896623e-001
      -3.2652518290785193e-002 5.0227711201064618e-001
      -1.4702677198386353e-002 -1.2530408946493972e-002
      1.0274604173775002e-001 -1.0363918577226846e-002
      1.5138846129243708e-001 2.5696498899895692e-001
      -6.8884985259318232e-001 1.2046623302989055e-001
      -5.0574475540111470e-002 2.5043429909442921e-001
      -2.1832046712227444e-002 6.6647269067556719e-002
      -3.6214106128194795e-001 9.7475855391376487e-002
      5.3777961920671948e-002 1.3169948203480494e-001
      7.2723262445838002e-002 -8.5544007033754893e-002
      -1.2498408869242711e-001 1.6919133645107789e-001
      -2.6378024201404282e-002 4.1440147320824577e-001
      -4.7208407695893607e-002 -4.2621028497905007e-002
      4.9332178105760427e-001 -3.0232655503330302e-002
      1.2269541014439518e-001 3.7674483588803609e-001
      1.3202473215327729e-001 1.0082462777957869e-001
      1.1014032084679402e-001 -2.3198251287776681e-001
      2.9252432253603520e-003 -4.8171810736397430e-001
      8.1449125559820434e-001 -4.0270380654105278e-002
      -6.7541390501996187e-002 2.1966037116590190e-001
      -2.4512671556653204e-001 2.0812471942974170e-001
      -2.9795914641377732e-002 -2.1945167791819148e-001
      -5.0331977171459305e-002 1.4471385318040678e-001
      -6.7025960506248705e-001 -2.0990091564840690e-001
      2.0197046113979576e-002 1.7766696163199668e-002
      -1.0515450420951282e-001 3.0756749467790261e-002
      -2.3283238734088257e-001 -2.6129340616887864e-001
      -1.4022565715837612e-001 1.5130529051137293e-001
      7.8193101901772866e-002 2.4173874829672898e-002
      -1.4993054747682938e-001 5.9547557474488277e-001
      4.3872948899474767e-002 1.2793103377239029e-001
      8.2875711620731018e-001 -9.3766809781101218e-002
      7.4119069363875476e-003 -1.7796912676466822e-001
      1.2936090123855329e-001 -9.0291383833169078e-002
      -1.7645433581995701e-001 -3.8516170640700891e-002
      4.3076800365228757e-001 -9.6319861091092959e-002
      -2.5990498272944451e-001 4.9521834714955576e-001
      3.5345863107598013e-001 -1.4252422336520848e-001
      6.4249059419195631e-001 -4.3532126820185285e-001
      2.0373915943176368e-001 4.6322625352173924e-001
      5.3591404971169918e-002 -5.6569240025146617e-001
      -1.6453495118517913e-001 -2.2860400344709206e-001
      -9.1005598498297077e-002 -5.6263842373823991e-001
      9.0827265322949616e-002 -1.7590006452319293e-001
      -1.4680932067057635e+000 -1.1474726247824972e-001
      -2.0820440183560882e-001 -3.8203105888768030e-001
      6.5368658604489838e-001 1.2845458987042530e-001
      -3.5488026705557441e-001 -9.1081469447386876e-002
      -2.3679743670641470e-003 4.3653420028942036e-001
      -8.7524001114824695e-002 1.0607712808972524e-002
      4.7870253909733693e-002 6.0353631033544086e-001
      9.1630456258674386e-002 9.0027197863124642e-001
      -3.6504665471108538e-001 -1.0922406005307883e-001
      -5.6811389230770191e-002 2.4372616289152112e-002
      -1.9818742784318288e-001 -4.2814443461092516e-001
      -3.7290536016276704e-001 -7.0826749584734908e-002
      3.1554062710343983e-001 -1.7156127056749554e-001
      -5.4412996002318761e-002 -1.1310381374018066e-001
      1.2266671051480746e+000 -9.1602719295673183e-003
      -3.5501789263794403e-001 -8.7723113948440685e-003
      2.4850005893658531e-001 1.3257313498850132e-001
      1.8433641238980328e-001 -2.6222791775424803e-001
      1.6364514343775791e-001 6.7525767590428543e-001
      7.7377381672779233e-001 1.6848152492056265e-002
      -1.0538640427887624e-001 4.2193583070928520e-002
      -4.9863874538207564e-002 -5.4234412519223840e-002
      -5.1406051059462865e-001 3.9289935174176555e-001
      -3.9269774024784104e-001 1.3197933263559972e-001
      -3.1241292911932339e-001 -2.4850137316020468e-001
      -1.1268118423555985e-001 -3.6333776979469123e-001
      -4.5954309794922155e-001 -1.6441810698553311e-001
      7.5582522303815702e-001 2.1660485287524420e-001
      1.9404218254958294e-001 4.0837989439037703e-001
      7.6886143427183501e-002 -2.2493589194288319e-001
      -3.9192939036402469e-001 9.0455467556218444e-002
      -1.2264316002964959e+000 -3.1271214662428587e-001
      2.4620010098806772e-001 6.1616247575726624e-001
      -2.5143652580955345e-002 -1.3467841439601157e-002
      -1.2595463784939951e-002 5.5279265695315949e-001
      8.2632678912901686e-002 -2.0931081140565597e-001
      -3.2494246412242869e-002 -3.1030582434021997e-001
      1.0099343435545237e-001 1.2649758414746107e-001
      -3.7423895713978889e-001 6.5936668740980409e-001
      1.4940852030984561e-001 -2.4464267621638347e-001
      -6.8853386475293232e-001 3.7450507725451504e-001
      -3.0413298073076939e-001 7.5525175614870144e-001
      5.8683546374329008e-002 5.8812994843737462e-002
      -3.5915857709969363e-002 9.5885570266684803e-002
      4.3180272171626261e-001 -2.2668724310824936e-001
      -1.5326612338794648e-001 -1.2353460135638875e-001
      -3.4489218859274384e-001 7.9210861119954554e-002
      5.5231921379083435e-002 -5.9876118951666746e-001
      -5.5984921846592461e-001 7.5499492257217748e-002
      3.3153765648149580e-001 1.2537058152612440e-001
      6.6806545651264503e-003 -6.6567561915640350e-001
      2.2612013620860505e-001 2.5825620163088592e-001
      2.5199938172339470e-001 -8.3198530060759202e-001
      6.5102126629472112e-001 -1.8935002410260190e-001
      2.7107328650509988e-001 -8.9284708367848142e-003
      1.4361849453022085e-001 5.9394596206202181e-002
      6.9726756802316631e-002 3.2840214160648357e-001
      5.6321861085288583e-002 6.4644067012024922e-002
      9.2703980079088436e-002 -2.5864192269738989e-002
      8.6938103910059010e-003 -3.3853369202340161e-001
      -4.2726589855251756e-001 -5.6829119011226015e-001
      4.3188190416726030e-001 2.1861201043270534e-001
      -5.8660515504013810e-001 6.0188605963248420e-001
      1.2878703054600218e-001 1.1904676032715887e-001
      -5.8113918918679064e-001 -1.8884274318885900e-002
      -7.9727131807110635e-002 9.2723560067925526e-001
      -1.0806275719406717e-001 3.3351500613502399e-001
      5.5909705744413736e-002 -5.7056018647656048e-001
      -1.0098175804771350e-001 4.0465395527920967e-001
      -8.3274876811606835e-002 -2.2084817983836675e-002
      5.0753737860428183e-001 8.0698038939843869e-002
      8.4888278686005680e-001 -2.5661656454840958e-002
      1.1917074457810332e-001 -1.5934083449181460e-001
      6.9820460817584140e-002 3.4920862336168268e-001
      -8.1759863747787054e-001 9.5618227550929558e-001
      -6.1384106837287372e-002 -3.2427332804747527e-001
      -1.0821303222583879e-001 -2.0385676335665771e-002
      -8.5985186857728935e-002 -4.8115590292029098e-001
      -1.5565579927657155e-001 5.3377357001764925e-001
      -5.2265012568587377e-001 1.7946894626145862e-001
      -2.2732337100663044e-001 -4.5917727752713099e-002
      2.7517425646790532e-002 5.5068009602975609e-001
      7.1129213068675326e-002 -1.8791753508749187e-001
      7.0306762557757296e-001 1.1130251846577786e-001
      -6.4293082141152369e-002 5.3395255536756092e-001
      7.7146080204344533e-002 -2.8034003134562019e-001
      -4.0211259473346345e-001 -6.6964187811848108e-001
      4.7351380345639077e-001 1.2998844198725023e-002
      -1.3001868612709358e-001 1.9887378992910743e-001
      2.4593836538043171e-001 -1.1057419705061081e-001
      -2.2126016113283492e-001 1.8345873083304851e-001
      -6.6604231674313258e-002 3.5336727507668525e-001
      -5.6754585681963066e-001 2.0364006479022592e-001
      6.0462302559838310e-001 -6.4329548376154944e-001
      3.3761336348055843e-001 3.5308412372007081e-001
      -5.4715049236195568e-001 4.8056368615022266e-001
      8.3128464503647498e-002 6.5964889214845901e-001
      -1.9507506639581795e-001 3.4998273914788697e-001
      -8.3262689243384855e-002 -6.4350742247511153e-002
      -1.1144485781605960e-001 -2.6049109327042780e-001
      -7.0984000138576409e-001 -4.0449764528179660e-001
      5.1828600722412341e-002 -3.5357836261896791e-001
      -4.6078495466287056e-001 -1.5687199141628361e-001
      3.2790386451359960e-001 -2.9210380726591861e-001
      -7.1132772956879664e-001 2.5587377330760619e-001
      -1.4932135653733886e-002 1.1268441364478807e+000
      2.4439281041582026e-001 -4.8261533048539702e-002
      -2.8518220827017132e-001 1.6724124958799608e-001
      7.7050236325126621e-003 2.3874230027822799e-002
      2.7423569237107984e-003 7.0399490913804252e-001
      7.8296006340055924e-001 -7.6605079900492631e-002
      -6.9549811060348921e-001 1.5237238130591088e-001
      1.7848202622175017e-003 -1.3632439187402365e-001
      9.3932285439730451e-002 8.0047991076846542e-002
      -7.5800575040904039e-001 1.2098472856752545e+000
      -1.0348673895537638e-002 -1.2703625419082558e+000
      -2.1809436663839524e-001 -2.0318600857895783e-001
      6.3203301878453660e-002 -2.0898571216435441e-001
      1.5031721896798161e-001 7.2990253457304699e-002
      4.7370193720313614e-001 1.3789768408737088e-001
      5.0661324075577819e-003 -7.8605433770880681e-002
      -1.6855785015590671e-001 3.2721983001833460e-001
      -3.1787904103303166e-001 -1.5468911175124334e-001
      -1.8136084460183291e-001 2.5910777751398106e-002
      -1.6513017423423558e-002 4.3287581634986017e-001
      -5.7399728387018380e-002 -1.7089986202869617e-001
      -7.8142288226298207e-002 1.3502758477339580e-001
      3.9977181820226151e-002 -1.0364599357289024e-001
      -2.2204649407819788e-001 1.6453658116613096e-001
      -1.1249321041855002e-001 6.4633220171379471e-002
      -3.6794094778513191e-002 -3.4728931588037987e-001
      -3.8836468835958832e-001 4.4962965706575105e-002
      5.7736873487860518e-001 -1.8310363815852623e-001
      1.5376485268227397e-001 -4.2423955938697416e-001
      2.5614593084391390e-001 3.9607332106462570e-002
      5.1268018318775821e-001 2.8513575174538985e-001
      -5.9703884463747123e-002 3.5286986220811062e-001
      4.2975223296434377e-002 2.6222408159091376e-001
      8.3716275645606686e-002 2.6711189720875178e-001
      -1.5578847959162947e-002 2.1626290521270793e-002
      -9.4361094614483255e-003 -1.5079173899462855e-001
      3.4991981415741896e-001 2.0335940885293224e-001
      -2.9466859504557497e-001 2.4625606204948572e-001
      -3.5895863404045568e-002 2.1778151680963791e-002
      5.2614476235969586e-004 2.8992072888755452e-002
      -1.9359998936309644e-001 7.7769720367778750e-001
      1.1546362750738924e-001 2.9985714383465607e-002
      6.2377119235044298e-001 -2.1877625971664408e-001
      3.6830709599040806e-002 6.4705136110850756e-002
      1.9768423484733660e-001 -9.3739153954267088e-002
      7.6086136685975458e-001 8.8570030063972738e-002
      2.7371710086753992e-001 -5.5601046685816662e-002
      -2.6251019832582440e-001 -3.5512262706842095e-002
      -1.5080447443712960e-001 1.5223203389735365e-001
      -1.8041017943812548e-001 1.7997527971916039e-001
      -2.5111557269181434e-001 -1.0019591485309159e-001
      -7.7001463224137820e-003 5.8339056203084849e-001
      9.9650799385909844e-002 -2.3800583301403277e-001
      -4.3921513964841705e-003 1.8856532684039923e-001
      -7.2339732074098462e-001 -1.0129741126152754e-001
      -4.6036383968674782e-001 2.5164853188139985e-001
      -4.0868921494052836e-002 -5.4080732650302143e-001
      8.1972335558801857e-001 4.1827165286055387e-002
      -6.3121583084341160e-001 1.3110741066761011e-001
      1.0968946699890569e-001 2.6634737526032870e-001
      1.4368740104937366e-001 3.1703600316841229e-001
      2.0162077023531039e-001 7.9558704334428554e-001
      -4.7287641327229180e-001 1.5812094384621295e-001
      5.9708374803202402e-002 -8.4055738844316080e-002
      3.2476266649550350e-001 -9.0364326594613700e-002
      -1.7092455259503889e-001 -1.1360962496234031e-001
      -1.0401636881955419e-001 -9.6442362504199047e-002
      5.9454326103841837e-001 -4.0765478384020926e-001
      -1.3415275234134708e-001 -1.0443456745583499e-001
      5.5561532989627016e-002 -5.9424160370452495e-001
      3.9206996369610575e-001 -5.9712107642579018e-002
      -8.1780680434515973e-002 1.3469923489055854e-001
      1.4086145923953425e-001 -5.5787484077317606e-001
      -1.2067532946484001e-001 2.2542770903788958e-001
      4.6764677922657295e-002 1.1252797194792284e-001
      1.0195141954908619e-001 1.8060774774764735e-001
      1.2865522228259397e-002 -3.2112210620152473e-002
      -5.7008980762281086e-002 1.3184378700296273e-001
      -2.6221942713792334e-001 1.5915004915961850e-001
      2.9402791184461130e-001 -8.0441001636757839e-002
      -1.5879379607879128e-002 2.0103940327989589e-001
      1.1163925910340081e-001 4.7205652277132054e-002
      -1.5344234364546849e-001 -9.0628937421695921e-002
      -1.5751512273267095e-002 -3.8350239483426994e-002
      3.6625346515233657e-002 -9.5890021116487445e-001
      -2.9764362659334970e-001 -4.7239558231493645e-002
      3.3814821754391583e-001 -1.1287988898414725e-001
      2.6602258168291487e-001 -3.6150824746341298e-001
      5.6936097981685904e-002 -1.8650828864686503e-001
      2.1677288982905867e-003 -7.9694260743545542e-001
      1.1062653382688056e-001 9.6548059994095736e-001
      8.6096911971775922e-002 -3.9337697660561066e-001
      1.6172734189285989e-001 1.8801453854283962e-001
      -3.2533977532484348e-001 1.0647645029324800e-001
      6.4848543264562253e-001 1.6016709340372026e-001
      4.5990314852708070e-001 3.4005219786489335e-002
      -2.0070238004748570e-001 -3.7973360208683643e-001
      -5.6903460305829767e-001 2.4511124659647929e-002
      4.0797817361382249e-001 -1.5198598156559850e-001
      4.6685282594561957e-002 3.9199261429517240e-001
      -1.8849317762236123e-001 1.5460056199867050e-001
      -2.2344894794068074e-001 -7.9273667439715756e-001
      2.0938076058912428e-001 4.4584060085922700e-001
      1.8528364231536490e-001 1.5041237790961992e-001
      -1.9344421911044224e-001 1.2129783812922856e-001
      -6.9124198794819708e-002 -3.5074716944467504e-001
      3.3386728763832002e-001 -1.7524262385503644e-001
      -8.2844254710737908e-001 -4.4364626429991380e-002
      4.1151354502365331e-002 1.8168680756227198e-001
      -9.8773016359879465e-002 -2.8088975470151937e-002
      -7.9384885726511784e-002 1.9366250976737076e-001
      2.6659145007025570e-001 -1.6670401748410249e-001
      1.7314363394000099e-002 3.8074105219498622e-001
      4.0805455700430156e-002 1.0649985155626777e-001
      3.1515953889411702e-001 1.9662651905431774e-001
      -4.6898505766110772e-002 -4.1025505936672577e-002
      6.6458834581608006e-002 -1.9373038865968573e-001
      3.0378631296323932e-001 -3.5159141367605527e-002
      -6.1090442365021529e-002 8.1387799731678673e-002
      -2.6489935713304646e-001 -4.7557634741215160e-002
      1.1849733240932432e-001 -5.0914938008562649e-001
      -3.3011380195437301e-001 8.8630221614507315e-002
      3.2657211459608793e-001 -2.7343984545156862e-002
      1.7792083784710824e-002 2.3361157539874497e-001
      7.7742946422403536e-002 7.3313872714097150e-001
      6.4983123735601511e-001 3.0017164204147706e-001
      -8.0936827509682618e-001 4.0170849369026993e-003
      5.6418015038313861e-002 2.5387242173181240e-001
      -2.8102078531140601e-001 5.9363039116962418e-002
      -1.3449163280914835e-003 9.0443218295309047e-001
      -4.4061629097046771e-002 -1.2509575711073861e+000
      -4.4535841594647241e-002 -2.6026247604152974e-001
      1.2119806289107747e-001 3.1502087095496167e-001
      -2.0782153395052033e-001 4.9143039344802064e-001
      -4.3381062669275910e-001 -1.9600082676182681e-001
      1.0035269381146326e+000 1.7871523410139595e-001
      -1.2886866077591910e-001 3.0240750192288390e-001
      4.5967017381329900e-001 -8.9503344096688434e-002
      5.8875069771623663e-002 -1.5360785484537889e-001
      -7.6472126613766317e-002 4.4949156269457324e-001
      7.3258972125572849e-002 -5.5609696386767438e-001
      -1.8321651109860113e-001 3.0739897332669325e-001
      3.7736265146824308e-002 -7.9030651929391023e-004
      -3.6850022535930796e-002 2.0266558175742899e-001
      -3.3971706108159355e-001 3.2807719630253973e-002
      -1.5195400951622320e-001 -2.1278860404828701e-001
      -7.5848129525531993e-001 -5.7857405191874829e-002
      -4.0108041650984411e-001 4.3680762251255600e-001
      4.5338803672028555e-001 6.5868979607866349e-002
      -1.5632165682655869e-001 -8.0081021489710719e-002
      3.4157481393136047e-001 3.1333550086120027e-001
      -8.6721722081129063e-002 -3.1876819823686275e-001
      -1.6823746392477015e-001 1.3691734230223795e-001
      1.5935501705772701e-001 5.0915858717352191e-001
      5.3116886039756883e-001 2.1487888168937810e-001
      -3.3280462368348795e-001 1.4168833295218070e-001
      3.9361398402262227e-001 -1.3333839857404750e-002
      5.2758270715157589e-002 1.2347708780767484e-002
      -2.9154504197400627e-001 -1.0139041863499862e-002
      -3.1595285699003944e-001 2.0805901193892207e-001
      1.5280103763878702e-001 1.2380500080409610e-002
      2.7687444857683280e-001 4.1732810088249687e-002
      1.6210469971951316e-001 -2.3161692034813211e-001
      -1.5677953450042668e-002 1.5845604324613291e-001
      1.4574898203020636e-001 -2.0517633598995519e-001
      -1.3925284026780038e-001 -1.2120481114247018e-001
      1.5671790998193516e-001 3.0717898387930258e-002
      -4.8959957858417523e-002 -5.6604916145048723e-001
      3.1638986618050791e-001 -1.4784514020070336e-001
      -3.2696513041391462e-001 7.1045319591815292e-001
      -2.7136631427207986e-001 -1.9515777928229514e-001
      -1.0593592456758508e-001 9.1053223079863022e-001
      7.8710265590963044e-002 -3.8897017458825089e-001
      2.4809059566044764e-001 2.4998358717212740e-001
      -5.7557094532076392e-001 -1.4109331956851820e-001
      -1.6093494499574729e-001 -1.9534760823680114e-001
      8.8192156479665745e-002 -3.9607828189098448e-001
      -1.3380419016044415e-001 3.2449750101232355e-002
      3.5043031191355967e-001 -2.0021501635706960e-002
      -5.9494433471011154e-001 6.9569250380641234e-001
      1.9602086616167422e-001 -2.9649886711011198e-002
      1.7776450301479625e-002 -2.6573456053378786e-001
      -6.9875476929113153e-002 2.9372314116184339e-001
      -6.6222588934845575e-002 5.7324821115691871e-002
      -6.7904346752734213e-001 -3.5600683054558838e-002
      -8.7974241366520475e-002 3.4937633383876443e-001
      -4.5503420267537570e-001 -1.7678053577761403e-004
      -2.3380339608700895e-001 -1.7060400589071364e-001
      3.7794502593961922e-002 -1.9303229496637497e-001
      5.6843519878528470e-001 2.5867104329900414e-001
      -3.3193554049631291e-001 6.1488286208722445e-002
      -7.1400918516327221e-003 -5.6317895221958014e-001
      -9.1573000963223655e-002 2.9279102665793771e-001
      -1.7197370437302753e-001 2.8349156516632174e-001
      7.2933871834297739e-002 1.1165927250841597e-001
      -1.6314892678123274e-001 -2.6673864963514110e-001
      -1.8308443661789139e-001 -6.5885862236180953e-002
      -2.5227381923468550e-001 -1.6644230648360422e-001
      -4.9595475990769905e-001 -2.5465553752107573e-001
      -2.8670828198457904e-001 2.8185147303340424e-001
      1.0075018721416623e-001 -5.3856222826394302e-002
      3.2800727291163467e-001 -2.0667448767008146e-002
      4.8270808399473525e-001 3.5848666670140228e-001
      7.1434602672456687e-002 -3.9144746985563000e-002
      1.1051574516550659e-001 3.3931075299251023e-001
      1.8522480165608984e-001 -8.9026421202315006e-002
      -6.4469110693239559e-002 8.6628370612042219e-002
      -1.4715552766576781e-001 1.8012542255062844e-001
      2.5585620228670330e-001 -2.1827005954301601e-001
      2.2803498496706695e-001 5.6369423278100704e-002
      -1.2883855644356665e-002 -2.4009279306354195e-001
      -9.9961364890864463e-002 -2.8167224680828951e-001
      5.6108179710975994e-002 -4.1457013097889139e-001
      -3.7564099642677713e-002 -3.1816313845443284e-001
      5.2837247969078638e-001 -2.3012680708537325e-001
      -5.3418028409560980e-001 -8.1432557413844947e-002
      -6.1681247126005603e-002 2.1347695032449795e-001
      -4.1293073638485223e-001 -3.6048666631092130e-002
      5.6608583336586837e-001 7.0192430082123197e-002
      -9.5340817744615655e-002 3.5155804194773660e-001
      1.1107438026919490e-001 1.9466044865534238e-001
      -2.5839679368590326e-002 -4.6657024214387705e-001
      -1.5561089816423318e-001 3.0399875973194007e-001
      -3.8177957285716710e-003 3.4367802115180851e-001
      3.5082013460305800e-001 -3.7216111702890901e-002
      2.6019209729259713e-002 1.0909113989301651e-001
      9.8737200202608330e-002 4.2951394872106509e-002
      -3.5719539171604298e-001 1.1694294965795314e-001
      1.3554725143039043e-001 -3.4085180886037375e-001
      5.0786843043261543e-001 5.0957587027461282e-001
      -3.3106980325876917e-001 4.5399266193294668e-001
      1.0579775391227060e-001 7.5007787850917385e-002
      4.3110793331167831e-003 3.6924790657399043e-001
      -2.3832669489328190e-001 1.9736649433713570e-002
      3.1292572418531339e-001 5.8579548660402887e-002
      -2.8055768382708002e-001 -2.6228803217268254e-001
      -8.7534558504219859e-002 -9.6369102129718817e-002
      -2.9768047210476795e-001 -4.1432821897402272e-001
      -1.8764488737014032e-001 5.7063066307522252e-003
      -2.2238613582962025e-001 1.3205061869944568e-001
      -4.7100071045218100e-002 1.4491642672197941e-001
      1.9969997327207553e-001 7.7885879732715449e-002
      3.7223402438578734e-001 3.3073456845079202e-001
      -4.1187753588666838e-002 -7.2066177405564452e-002
      -1.2425748213498591e-001 6.9135053128780266e-001
      2.6956645198487217e-001 1.2003052325970057e-001
      -3.9716854182894451e-001 1.1497983786572313e-001
      -2.9940550558064877e-001 5.3502717789005760e-001
      -2.0143130639527598e-001 -3.8268144890946992e-001
      -2.3884935767332768e-001 3.3185632475605520e-001
      4.6935027163117510e-002 -9.0501351230609914e-002
      -8.5451828441477570e-002 -6.9084940802938621e-001
      -9.2338862382538620e-002 -5.8235286170598706e-002
      2.0873967809941771e-001 -2.1382065742876466e-001
      1.2591546400052261e-003 -1.1423029229270382e-001
      -7.6769303596058866e-002 -2.2071131564139040e-001
      2.2603565349157539e-001 6.2022572794731357e-001
      1.2295100543758238e-001 3.0989968688508441e-002
      1.8478142287652324e-001 3.3838369487720893e-001
      1.5695734754235816e-001 1.3443670534574204e+000
      -8.2015389286512683e-002 9.6660677799594655e-002
      1.2881710086436360e-001 1.0342707890299501e+000
      -6.8526772607651790e-002 -3.4114970705583725e-001
      -2.1357953822939782e-001 1.3850922215314126e-001
      6.0213749127235372e-001 4.1230552221146854e-002
      2.1715912785250679e-001 -1.9612075039053437e-002
      5.5333188838226777e-001 3.6514908148548308e-001
      9.4177523509914407e-001 -8.4182312441014684e-001
      9.7466487776211974e-002 -6.0737042220512338e-001
      6.8045392611976813e-002 -3.3784459400151962e-001
      9.0873376837886474e-002 1.2347494035930599e-001
      -2.4040889385815564e-001 1.1181138910326677e-001
      5.2292580787114884e-003 -1.6021741942532797e-001
      -9.1768612425133494e-003 -5.5484328304556374e-001
      -4.7105322904531688e-001 -4.2034535385825361e-001
      2.4084015231183847e-001 5.5626409909961461e-001
      9.7896304780983420e-002 -1.7059689816903714e-001
      -5.0158943450574200e-002 1.6757355604357324e-001
      3.6754760784424767e-001 -3.0553823748534792e-001
      3.5112712032292864e-001 -5.9435945344464988e-002
      -5.2606696007203871e-002 3.9789696001845598e-001
      -2.2416686004469788e-001 5.0887142944143614e-002
      5.5667226118954506e-003 -5.9124095729631898e-001
      -5.1148593375270217e-002 -1.1497877719705114e-001
      -8.2215884282702809e-002 -1.3404985295001266e+000
      6.5186772781875846e-001 2.9912427308959638e-001
      6.8173758082320313e-001 2.6019762472281049e-001
      -2.6917356213098537e-001 5.4508109555951131e-002
      3.3815877198869658e-002 4.1317793372299755e-001
      -7.2892620182607049e-001 -6.0845666128786602e-001
      8.9182463098471679e-002 -3.2890139222157810e-001
      1.4992018047944930e-001 -2.0449372923030307e-001
      -2.7070914013372116e-001 -1.2011343408135430e-001
      -1.7181321448628187e-001 -1.7991588104355130e-001
      -3.4022257155460656e-001 1.9182560735501419e-001
      -4.5790522278547657e-001 -2.1015343601589057e-001
      2.0624303939481406e-001 -1.8624820048863672e-001
      -3.9108238111685989e-001 -8.0551056947744462e-002
      1.3066689697576545e-001 2.3663812017373442e-001
      -1.1290151456213950e-001 1.7330881806005133e-001
      4.8054463493526607e-002 1.1361050167061017e-001
      6.6702933099038228e-002 2.3027724125046101e-001
      1.0225124826587956e-002 2.3742210610261347e-001
      1.4588799341259093e-001 -2.0217410988204922e-003
      6.0931168195145914e-002 1.1896392854765823e-001
      2.3450353088017448e-001 8.3927457053633359e-001
      -4.8123489393752550e-001 4.4504124228719721e-001
      2.1183763460024868e-001 2.6628827716551684e-001
      1.3021592149396705e-001 -7.2623700043476513e-001
      -7.9985171231945973e-001 2.6964275038444646e-001
      2.4953665681208801e-002 1.4953764385135343e-001
      -2.2188959048428311e-001 3.0895199395505607e-001
      1.6918541879936047e-001 3.6588929843446344e-001
      -6.3318474120230367e-002 1.8002185561974970e-002
      -1.1889616593501169e+000 -5.5023295782372006e-001
      3.2912263667206154e-001 -1.3826399579507936e-001
      2.4565530345141851e-001 -4.5804128680744224e-002
      1.1152466957791063e-001 -5.2911059900927604e-001
      3.2927043813842059e-002 -3.6465324801315598e-002
      6.9186647268317314e-001 -1.0877784349978879e-001
      -6.5051612081430149e-002 5.7321201351881601e-001
      2.3563638981328808e-001 -8.3683421933169674e-002
      -9.8759012536779114e-002 -6.0546615424907690e-001
      2.9641264370987283e-002 -5.0008659113945053e-001
      2.5259108628136861e-002 2.6827233863815253e-001
      -7.6980261417280899e-002 5.1891228713893907e-002
      1.4215509066944307e+000 3.6428303845243865e-001
      -3.1567310053144348e-001 -6.9298646278768999e-002
      -3.0873413080752593e-001 8.1720715441021818e-001
      -7.1825352802170328e-001 -3.4653572556695239e-001
      -2.1221304861244089e-001 -2.6722131943612298e-001
      1.5069552337738734e-001 5.4754241445721319e-001
      -2.1317621257254554e-001 9.3772015980795778e-002
      1.4464762876251056e-001 -1.0696388019068210e+000
      -4.0604723560622061e-004 4.8384033005988886e-001
      -9.8690623740517491e-001 5.5770182572773927e-002
      -2.5826457375083800e-001 -1.9137342662612536e-001
      1.0332969888081138e+000 4.1716314778125008e-001
      -4.6606740512915323e-001 -1.3899751411357072e-001
      -1.0963417285448410e-001 -1.7858976539312943e-001
      2.2425120891383801e-001 -1.7487290501265945e-001
      -4.2905270980446736e-001 -2.8782613156262732e-001
      -1.5813135648158994e-001 4.9577269178236233e-001
      -5.5614539536524932e-001 -4.3675837643632232e-001
      6.3751331768401573e-002 -9.0847507060857383e-002
      3.3585287222525567e-001 -5.7709198955765950e-001
      1.3320385313424304e-001 -2.7186805530997527e-001
      -1.0137324703942548e-001 1.0645632293404178e-001
      5.0180570343624609e-001 4.1890790324942090e-001
      1.5824187254563056e+000 -3.9389181100717976e-003
      -3.5017987859023586e-001 1.1113452775132446e-001
      2.1794971936006408e-001 8.0864588147588734e-001
      4.8177817747898762e-002 6.0495517135208121e-001
      7.2989034269519137e-003 -8.1550830455388149e-002
      1.7487086009080741e+000 3.4445323523022264e-001
      -6.9947871140518469e-001 -4.3558515236627643e-001
      -3.3236226969075813e-002 -5.0928183255801486e-002
      -1.1804765674979376e+000 7.1532341655762977e-001
      9.5260283263199200e-002 3.3122285500524662e-001
      -1.3666833498994364e+000 2.5313598011843841e-001
      4.7933712835848422e-002 5.2773655501445971e-001
      3.3939732593548344e-001 -1.3810539906853417e-001
      1.1186370173886147e+000 4.7882941467302254e-001
      1.3203311498654574e-001 7.7547582200160359e-001
      4.4420284703361146e-001 1.7395702663151638e-001
      4.2298188591833114e-001 -7.4925908422884227e-002
      -6.3726573749172899e-001 -5.0348630147087563e-002
      6.5297326444071241e-002 8.5644992865486347e-001
      -1.2488468271901193e-001 1.4385963603613014e-001
      -8.9752717307509944e-001 1.5029841822228289e+000
      2.7418006543778151e-001 -6.8233386394280104e-001
      -3.2454766917386063e-001 -1.4729289904112849e-001
      -1.3923921103308824e-002 -3.7566707139678540e-001
      -5.5271166893461265e-001 1.5054805886274842e+000
      2.4034220526192848e-001 -2.3469671266861437e-002
      4.2146756998882873e-001 -2.8540358955790462e-002
      -1.5196919128260558e-001 -5.1385678047228911e-001
      9.3650618519422094e-002 -1.9588770201181560e-001
      -3.3566192778188969e-001 -2.4031000773010322e-001
      1.1819607133645861e-001 -1.0447097325461994e+000
      -9.2239699630376856e-002 -6.0908366486942620e-003
      8.0055918132129311e-002 -7.1983699043355219e-003
      2.0757557981114751e-002 -3.6700785057995389e-001
      2.1476585665179126e-001 -2.7649914268763953e-001
      -3.8703946709326351e-002 5.3172276859664511e-002
      -2.3885602883909654e-001 -1.6343971224132217e-001
      -2.2187735346737350e-001 -2.1330362541926828e-001
      2.1773829765538821e-001 4.8343541522637978e-001
      -2.3180384731539497e-001 1.0993595969657262e+000
      8.9627536533883501e-002 -2.0849399155568191e-001
      3.3181596650560330e-001 1.5669861046130554e-001
      3.7382406652873318e-002 -8.4552184669873998e-001
      3.8601755311394974e-002 -1.7128146179494083e-001
      1.3943856605416732e-001 5.2136427328451407e-001
      1.1568942801024465e-001 -7.1450871684814607e-002
      9.0617938769396680e-002 -3.0054235500138131e-002
      -8.9224973434602395e-002 -6.5513952401833345e-002
      1.8783070555345469e-001 1.5594102141627639e-001
      -4.6840570776032797e-001 -3.0372465255220671e-001
      -1.3876700890667028e-002 -1.8193866007631707e-001
      9.0228974992593011e-002 -1.2156483418375807e+000
      -5.7603690043945686e-002 -8.6726358709110107e-002
      2.8424712871344643e-001 -5.7197161151598314e-002
      -5.9233823277879240e-005 1.2520933482171714e-001
      7.6096590293828767e-004 -1.7898103362454784e-001
      -3.8177997120827739e-001 -1.3729836613103996e-001
      -2.0082486977420044e-001 -2.0488150127338561e-001
      6.1508364981462645e-003 -6.1025253530765577e-001
      1.1950636122547259e-001 -2.7428331135528738e-001
      3.1733217415400411e-001 2.3618114156608469e-001
      -1.0937372359415047e-001 1.0143883628572976e-001
      7.2601740529024711e-002 2.4012048076978165e-001
      -1.2600645793312878e-001 3.4074073854961234e-001
      -2.0244939092354458e-001 3.5681515046552620e-001
      3.2011175678981131e-002 -1.1904027900431481e-001
      1.9909281537438844e-001 -3.0351458376026902e-002
      -2.2646016434144145e-001 -2.2033205672062534e-001
      -5.5446227032809758e-001 3.7318145141855580e-001
      -2.6203718170644885e-001 -1.2473694227058335e-001
      -1.8904199306819439e-001 5.1307345069450450e-001
      1.6433417042220965e-002 2.7626119135296939e-001
      -7.8428074637890713e-002 -1.5928344517561405e-001
      2.7436948067724759e-001 7.2800596014426999e-001
      -2.5525367223894913e-002 -1.3326907443249308e-001
      1.1982783536756524e-001 1.8774387221461039e-001
      2.2697925135226640e-001 5.3879985249020183e-003
      -4.4341817482138352e-001 -6.9633243217394711e-002
      1.5363611321528023e-001 6.7633314437482939e-002
      -1.9634656323218486e-001 -1.3467460559898223e-001
      -7.7326147835697634e-002 1.8120203657626829e-001
      4.0822442397841741e-001 7.2036022271871125e-001
      -3.8304237439679589e-001 7.6091123329770555e-002
      1.9618037180326084e-001 -1.1083460583744699e-001
      -6.1770271604344930e-002 4.3639577867576279e-001
      -2.1276012699443220e-001 -1.0316496232090534e-001
      1.1749560504208677e-001 -5.8526754589081553e-001
      1.6937004314310203e-001 1.0566898600194807e-001
      -3.5395253069659910e-001 -2.1848784828557805e-001
      -5.2960564738529525e-001 4.4231179683285804e-001
      7.0747912441038910e-002 -2.0600055184363406e-001
      3.2260114089232302e-002 -3.2658002170817729e-001
      -6.9718082282061819e-002 -1.6444863172363187e-002
      5.4048632707144806e-001 -1.1391231736888524e-001
      1.4147458076389505e-001 -1.6412357783029982e-001
      3.4234003732837776e-002 2.1111334881978955e-001
      -4.6453224252362829e-001 1.4879397285498769e-001
      4.1609174673798321e-001 -1.8911787551431977e-001
      1.9083480624898508e-002 3.3555389427681015e-001
      -1.4299658858698472e-001 2.2024454712285624e-001
      -1.8935515509619644e-001 -3.8270713076363988e-001
      -1.9898288253448446e-001 -5.8077662075341652e-001
      1.1422261395790813e-001 -4.5384363552735833e-002
      2.9200554644116358e-002 5.5310459179151936e-002
      5.0327211870159108e-002 -3.4711430819238559e-001
      4.8920138164049548e-001 -2.7912764904080850e-001
      2.6836283555260393e-001 4.9165997642848597e-002
      -2.8504084294114646e-001 2.8629853049748172e-001
      -3.2681346988643450e-001 1.8745610618355985e-001
      -2.3033883977730973e-001 -1.8247414007463594e-001
      8.8951182130510023e-002 3.5309742318401505e-002
      -2.9903816244990511e-001 -2.9424592911890168e-001
      -2.2041626474126014e-001 6.2667317564284319e-001
      1.6309124853103721e-001 -6.1080603027978309e-001
      -1.7792779477825355e-001 -1.0395629955273786e-001
      -1.6660588873191204e-001 1.4631739993626308e-001
      -2.2901348726052559e-001 -6.9785155657179365e-001
      1.3956888134962986e-001 -4.8259783165750886e-002
      5.3185588566111308e-001 -2.2518474539518798e-002
      1.3663738262180286e-001 3.0347107781190025e-001
      1.7818121321396832e-001 -8.2619649732232278e-002
      1.2040422057351551e-001 1.3705404749237995e-001
      3.7304902147342341e-002 -3.3878508733966062e-001
      1.3202860965497010e-001 -1.3113050277029670e-001
      3.1868090278826133e-001 5.9932337456218537e-002
      4.2373632371596742e-001 -1.3111932549447622e-001
      -1.9724241891289623e-001 -2.4173398537291393e-001
      2.1134157133273426e-001 -1.3773208061578996e-002
      1.2918643443551908e-001 3.1098183377259336e-001
      -3.3097799076048311e-002 5.1281081452288829e-003
      -3.6345599333081535e-001 -1.3126973198320749e-001
      -1.9050716958050287e-001 -2.0591113959203022e-001
      -3.4364658949153215e-001 4.2893782128925695e-002
      -2.7379578386135164e-002 -3.6735629041385331e-001
      3.5864201011668394e-002 3.9024390900315953e-001
      3.6071226857191341e-001 -7.7174332094259546e-001
      3.4106165607515304e-001 4.8935718064852904e-002
      3.5973669919072779e-003 -1.8492878607861976e-001
      1.6794682543742051e-001 -4.3329679169293983e-001
      1.7927454787144745e-001 9.8195645857961089e-002
      1.6999659443364137e-001 6.0557196576591876e-001
      -5.6209117593162355e-002 -1.7489541278312778e-001
      5.2395173159378895e-003 4.0085890733137586e-001
      1.0495105025195424e-001 -2.1811396459967047e-002
      -6.0564577224971161e-001 6.7571885289899314e-001
      -5.5068786355299004e-001 -3.5949899950885300e-001
      8.3452643679293184e-002 -3.0803229246075020e-001
      2.1502954915822683e-001 -1.5831963961706311e-001
      -1.2089323384904004e-001 -3.3433847111015397e-001
      3.1113574200327049e-001 9.3405445531767314e-002
      -6.2178075860560914e-002 1.5762177596026677e-001
      2.0418258075761392e-002 -1.4149334967560750e-001
      2.5920657142655212e-001 -4.1326088114710846e-001
      -2.0489716474324862e-001 9.2228556151600569e-002
      2.7858977110230126e-001 2.4821294854189593e-001
      -2.7497113262172196e-001 -2.2902103292121367e-001
      -1.0160632926073361e-002 -5.5762901227171438e-002
      2.5415029692335056e-001 -7.2028967357702797e-002
      -3.2331470422699843e-001 5.6393371674062620e-001
      -2.4577655162518244e-001 -9.1478074301748091e-002
      -3.2007324893348475e-002 2.9447890606557181e-001
      -1.2341482614768906e-001 -3.9729218743615724e-001
      3.0866023936867115e-001 -6.1387116636290218e-001
      -4.1153735101803347e-002 -3.4486928196812490e-002
      7.8707702519618034e-002 -1.8117655119684595e-001
      1.2266515691581650e-001 8.2585465177439449e-002
      -8.0803308242638414e-002 6.0027386960627649e-001
      -1.9935382008430719e-001 -1.3741624655476994e-001
      4.9800903868738039e-001 -1.4312885397915859e-001
      4.1858916239167376e-001 -6.5876376471736731e-001
      4.6702541415074773e-002 -4.2947017291080594e-002
      -2.6818155561319762e-001 -1.0151162263707230e+000
      -2.9703936166075245e-001 -1.8137532149837424e-001
      2.6118029085574805e-002 2.2316084266877334e-001
      2.0971139158256730e-002 8.4631852879979305e-002
      9.6958761437971858e-002 1.1152901808472959e-001
      -5.0180930808091738e-002 -1.2793700570757371e-001
      -3.5194702446189807e-001 5.8835378365814733e-002
      1.2349508206358388e-001 3.7875448738296397e-001
      3.7524592511909149e-002 -3.8093077339354325e-001
      4.1109123464312725e-001 2.9201375384908551e-001
      3.1963857779599020e-001 -3.2189924182285237e-002
      -5.1467165979860709e-002 2.2499914352782763e-001
      -1.6731309956987420e-001 5.8202978392042215e-001
      -8.1039843872553613e-002 4.5233462636019892e-002
      3.2988917444551419e-001 2.8906051907039709e-001
      9.4179894697846611e-001 1.3509155214328764e-001
      -3.9528857053229463e-002 4.7784046448830936e-001
      -1.8642876710646421e+000 -6.9305939072224529e-002
      7.3665903121864729e-001 -1.3524682618560352e-001
      3.2395672193372615e-001 -6.5729229719070292e-001
      -3.4506185445782822e-001 -1.6051134740570397e-001
      -1.8093964187395692e-001 -8.6391436031859203e-001
      1.8668806888031236e-001 -1.1540563373781134e+000
      5.4833253779179369e-001 1.5990435844682203e-002
      -2.1694969307279571e-001 7.6852974644111047e-002
      -2.4209167452597610e-001 -2.7143240494249311e-002
      5.2219418649032834e-001 6.6392109018503009e-002
      -7.0023565200436311e-001 3.8181429892846264e-001
      2.1851374682890390e-001 7.0244751493981883e-001
      -1.7218279187703212e+000 7.9438780079715943e-001
      -3.9057206670474226e-001 -1.5923121159471817e-001
      2.7757403522365459e-001 -2.3955420496121826e-001
      6.5912751710137538e-002 6.6526864535801977e-001
      2.8666598169521446e-001 -4.1468148889571323e-002
      -1.0507872278555122e+000 -2.0246518862897739e-001
      -7.1704183075068983e-002 -5.3443360701268337e-002
      1.1975002329042708e-001 -6.0802881663576162e-002
      9.5753835978115698e-001 -5.4778781764237217e-001
      7.3494374443230059e-001 3.1755720521865860e-001
      1.7082657017782665e-001 -1.8407443032530804e-001
      1.6517792233908818e-001 -1.7809677245388267e-001
      -3.4103846652004771e-001 -1.0143519732564402e-001
      -1.2561236846898463e+000 -4.1828964543063507e-001
      -4.8151981207061781e-002 -1.9658407133880665e-001
      7.0325373753023834e-002 8.6339664649935655e-001
      8.4764227288978367e-001 -1.4418595220452771e-001
      8.9076904607944485e-001 2.5833652074792696e-001
      2.6564170622021699e-001 -8.2934081636807921e-001
      -5.0620260838923226e-001 5.2618958174178956e-002
      4.6899270037366041e-002 4.6103153991968981e-001
      5.8777323874059303e-002 -9.3782858379923784e-001
      -1.0017306154798168e-001 1.0289173077033478e+000
      2.5639435982793918e-002 4.3195070052057039e-001
      -1.3293185531633780e-001 -3.4669091650207073e-001
      -8.3948679209381472e-001 1.2573380331912040e-001
      -3.7114296181595974e-001 -1.8089593977739590e-001
      1.6986780276911973e-003 4.1733582515781315e-001
      4.0994324113166841e-001 3.2627751746656164e-002
      -3.4352256546497245e-001 2.1380423166778018e-001
      4.8804201902012213e-002 2.8598691510194246e-001
      8.4239231204462472e-002 8.2193460685852315e-002
      -1.3990892743960670e-001 6.5521837394932880e-001
      2.6457301994620730e-001 -1.6974617820824350e-001
      -4.4938884628505971e-001 9.9568359795548761e-002
      2.1091930000145781e-001 -6.3666087828896628e-002
      2.9955025426918558e-001 -1.8706411267528558e-001
      1.7542189473479408e-001 3.3935493756402618e-001
      6.7300886684875250e-001 -5.4165272870401826e-001
      1.4903703351776085e-001 -2.8403649173926876e-001
      2.1684858147703207e-001 -7.1995871931233657e-001
      2.6322493738419089e-001 1.8250915524766434e-001
      -1.0383493724125131e-001 4.0457351178956619e-001
      -3.4841268872532805e-002 -3.2696742695724640e-001
      -1.6012475129942616e-001 1.5614778917131311e-001
      2.6497623972937401e-001 -3.5451184960428966e-001
      -1.2758361309063101e-002 -1.6373742197941202e-001
      1.4802543763368145e-001 5.1112684604402901e-002
      -4.5626365134582497e-001 7.1492348569819941e-001
      3.0552445728529436e-002 -7.4487753695902229e-002
      -2.9699631573549989e-001 1.4370795571818248e-002
      -1.2576277461685489e-001 7.7630675634937396e-001
      -9.3485914403663092e-002 1.2083842698468007e-002
      -1.0693534006297636e-001 -2.4208287748595983e-001
      -7.1300774026720045e-003 8.8068557492839955e-002
      -9.0267255673654623e-002 -1.0309127960680151e+000
      5.3665131749184158e-001 1.3942543332786117e-001
      3.7425140159650622e-001 8.0138668157594503e-002
      -2.3308795601070248e-001 1.6322418188147644e-001
      1.9295826965541155e-001 2.1051652068058968e-001
      -1.8424333470659943e-001 1.0844155391673069e-001
      4.1602613774236373e-002 -6.2427034521294289e-001
      6.0980656914535497e-002 -1.8846533436772173e-001
      -3.5787721505421166e-001 -2.0352977869992248e-001
      9.4356081043284218e-002 1.9598188447696288e-001
      -1.7632732646209343e-001 2.4365261303814359e-001
      6.8817356990203624e-002 -1.0387504926210880e-001
      -3.1569750153191867e-001 -7.0613238280957236e-001
      1.8223927474378110e-001 2.2904013167126439e-001
      -2.5381587496759883e-001 -2.7645207324393856e-001
      -4.5879315847114432e-001 4.3953362100505455e-001
      -7.1461302274220817e-002 1.3393895470403935e-001
      -1.2158151138538329e-002 -1.2104510352585374e-001
      1.0298391983545378e-001 8.4041208043530602e-001
      -1.3879158007760206e-001 -6.6872782559253561e-003
      -4.1535588465833873e-001 1.6986088667739924e-001
      1.2191249535916739e-001 -4.3382348849688268e-001
      -9.1258743714806612e-001 -2.5778447158187939e-001
      8.3053237637583363e-002 2.9775708373006815e-001
      -2.3818861668909580e-001 1.2769944820611553e-001
      2.0503578383379573e-001 -1.2872401418562404e-001
      5.5887628655787869e-001 -2.2987898489124632e-003
      -3.9073454173291383e-001 -1.9118919371492091e-001
      2.1503756751409986e-001 -1.7791291736082504e-001
      1.0076685713648093e-001 6.1256369621255014e-001
      -1.4699151385930931e-001 1.8803865385585561e-001
      3.1854076054521163e-001 -5.9753767702550509e-001
      9.5789058512704778e-002 1.6888125637544887e-001
      -3.1151986716318930e-001 2.4710436891941021e-001
      -7.2078641119294229e-001 3.1681046206634711e-001
      1.7588020296515608e-001 -1.0551856693398742e-001
      -3.5187377903512958e-002 -7.5767823454166450e-001
      1.4235186095594055e-001 -8.7486864590135577e-002
      4.3169137743525882e-001 1.7384417508912201e-001
      2.5359556588168219e-001 1.0659972876902059e-001
      2.6641584300544585e-001 9.9547544572573893e-002
      -3.9970706604820883e-001 1.3778150285341759e-001
      4.6713832216121548e-001 -1.9843761396635759e-001
      -1.6839055757473856e-001 -3.7621459793737232e-002
      -9.4818123327567311e-002 -1.2523992676125328e-001
      4.8975485157297265e-002 -6.7810824184765928e-001
      -3.2366065178101044e-001 -1.4161534880394533e-002
      1.3282911965869929e-001 1.5086899453738803e-001
      4.7684992822300293e-002 -9.3096640766167152e-002
      -1.5302497117494043e-001 1.1427414199325033e-003
      2.8974857649592578e-001 -4.0025635577981594e-001
      1.0380376874643449e+000 -1.2665496583301225e-001
      5.3259795454767458e-002 8.8381489269753855e-001
      1.5860352811505521e-001 2.3256494223910962e-002
      -6.7195164707415850e-002 1.8388144685914304e-001
      -6.6651858732058727e-002 8.7753213863510454e-002
      7.4660169674770252e-002 5.6313587930331539e-002
      -1.0114419834641214e-001 5.8295509547070079e-002
      -2.7993644493556694e-002 -3.6114816064485272e-001
      1.2481495307604423e-001 1.4009340423198088e-001
      9.0898039871045611e-002 5.5357902370564906e-002
      9.1028244690598448e-002 4.2203522513823317e-002
      8.0186797581426522e-002 1.8376771603230599e-001
      -1.1333174098029555e-003 4.5624155899781638e-001
      -1.7056822058520005e-001 -1.6914462828109561e-001
      -7.5671253139579120e-001 -1.3815480408237618e-001
      -6.9597546237984038e-003 4.6880657406029363e-001
      -1.0480091473532165e-001 1.7280261509851913e-001
      -5.3694451839650291e-002 3.8446509272470394e-003
      -1.3885738340988740e-001 -9.3783689040584067e-002
      -4.9576634224206273e-001 -2.8813982692466533e-001
      -3.3706320994634095e-002 4.7263797115108613e-002
      1.9330102500263116e-001 9.9948166973380326e-002
      4.0742030572682603e-001 -4.5882986509192591e-001
      1.3491492072539177e-001 5.2599835219198449e-002
      1.8978540786779147e-002 3.3889585954312351e-002
      -1.7619297867546813e-001 1.3955964033899865e-001
      1.0501018070071184e-001 -2.8208061700833075e-002
      9.0216507927343093e-002 -4.5253400262049037e-001
      1.2060808578770420e-002 -1.5403590596130404e-001
      2.0192845730502185e-003 -3.5506324257668942e-001
      -2.1245342335912235e-001 1.3244516957226868e-001
      8.9373550751674358e-001 2.1262974881923213e-001
      -9.9260899145238349e-002 2.2728918863385314e-001
      -1.1361354246678294e-001 7.5958132521086436e-002
      -1.0741235870887043e+000 1.2528752567254703e-001
      -1.4292235173187676e-001 8.0030989144855458e-002
      1.7992660216284033e-002 3.5365117856156558e-001
      -2.1284732869844028e-001 -5.1225514563387198e-003
      3.9872485194061597e-001 -1.7541477907733757e-001
      -5.4217567351269313e-001 4.2913238351449312e-001
      1.2320504447050619e-001 7.3361778218390100e-002
      -3.9702553973255811e-001 7.4324899839039282e-002
      -3.9368499755285746e-001 3.5047287394988448e-002
      -5.6996070353602390e-001 -9.5272424034197140e-002
      1.0133940550701472e-001 -2.2313140788207694e-001
      -7.9908784528125096e-002 -1.9819652287552733e-001
      -3.0365237365237813e-001 1.0779980810587596e-001
      1.7382277330064769e-001 -5.2033379444572661e-002
      -4.0679404928510271e-001 8.1513653599879818e-002
      1.7819765850515393e-001 2.5251744152828770e-001
      -1.2521418376200638e-002 -9.1886798368700540e-001
      -9.3072604907432563e-002 -4.6846740415421653e-002
      8.0985892440354909e-002 -6.1410085522254032e-001
