<?xml version="1.0"?>
<opencv_storage>
<ANN type_id="opencv-ml-ann-mlp">
  <layer_sizes type_id="opencv-matrix">
    <rows>1</rows>
    <cols>3</cols>
    <dt>i</dt>
    <data>
      300 60 7</data></layer_sizes>
  <activation_function>SIGMOID_SYM</activation_function>
  <f_param1>5.9999999999999998e-001</f_param1>
  <f_param2>1.</f_param2>
  <min_val>-9.4999999999999996e-001</min_val>
  <max_val>9.4999999999999996e-001</max_val>
  <min_val1>-9.7999999999999998e-001</min_val1>
  <max_val1>9.7999999999999998e-001</max_val1>
  <training_params>
    <train_method>BACKPROP</train_method>
    <dw_scale>1.0000000000000001e-001</dw_scale>
    <moment_scale>1.0000000000000001e-001</moment_scale>
    <term_criteria><epsilon>9.9999997473787516e-005</epsilon>
      <iterations>1000</iterations></term_criteria></training_params>
  <input_scale>
    2.6767965344001539e+002 -1.0745340818354039e+000
    1.0068870891109075e+003 -3.9623173385839144e-001
    7.0138946570674284e+002 -5.2918529399476855e-001
    1.6968453035529217e+002 -2.0364795299587732e+000
    7.8211134037331988e+002 -4.6226076427028734e-001
    4.3009197471170802e+002 -8.9565372677788280e-001
    5.9654796188341652e+002 -6.3168430750890969e-001
    8.8131878483924743e+002 -4.8495468069406172e-001
    4.5003170955011846e+001 -3.4359268837734596e+000
    1.0381920406130864e+003 -3.3936577423711112e-001
    1.0264754321440812e+003 -3.9632307802764216e-001
    2.7019222415862515e+002 -7.3999958078008721e-001
    5.7276806829960640e+002 -5.4444104179209551e-001
    1.6515192963560116e+002 -2.7400892621600752e+000
    5.0729595583989965e+002 -6.9077389156919811e-001
    5.3945280005785960e+001 -2.1007971231704405e+000
    6.3603669626934720e+002 -6.1616563230842492e-001
    5.4938902304594613e+001 -8.4048332327314945e-001
    4.3861918109896766e+002 -7.1903368415233082e-001
    1.0540033415568475e+003 -4.0646302833087555e-001
    1.1692122605497739e+003 -3.3786499711263779e-001
    3.4451532013934951e+002 -8.3249201306946985e-001
    2.4787955535058521e+002 -1.3579694596695597e+000
    3.4138329862367146e+002 -9.9185317697597875e-001
    2.3883488120613265e+002 -1.3092158184300677e+000
    4.1581934786826480e+002 -7.5740233864811135e-001
    8.8405242339785434e+002 -4.0247005877524755e-001
    3.8861909823166815e+002 -9.0618703319701388e-001
    1.0248065210576874e+003 -3.7342511084884877e-001
    2.4208059848161312e+002 -1.3873226723347272e+000
    6.2374711653952841e+002 -7.6223267239681369e-001
    3.0815177972992404e+002 -1.0723940879203053e+000
    4.6717821637951067e+002 -1.4795068749419911e+000
    5.1644883967036401e+002 -6.1065691580085624e-001
    1.2016883134506361e+003 -3.1446894735008912e-001
    1.5869211892751386e+002 -2.2352613990013843e+000
    6.1903774464974833e+002 -5.8264133820943553e-001
    4.1611714935178708e+002 -7.6234515257676472e-001
    3.5906932049365082e+002 -1.7184839759922972e+000
    1.3039280605243687e+002 -9.3285780252539530e-001
    1.6874398865537370e+002 -7.4790649946294563e-001
    3.3883898004306980e+002 -1.1271345721492354e+000
    4.7731011054246949e+002 -5.8820946359114223e-001
    2.7949950737185031e+002 -1.3703820481532742e+000
    6.3358146358936892e+002 -6.9091809120697956e-001
    3.3416403708999314e+002 -9.5466651622540044e-001
    1.0351561569339017e+003 -3.7130027485730216e-001
    3.2938022565523613e+002 -1.3082734919525383e+000
    4.2969844826403050e+002 -8.0819339483236108e-001
    6.4560954118202449e+002 -6.2279710704489288e-001
    7.9014988440283128e+002 -4.3815765158823572e-001
    3.3573392641592011e+002 -4.5524892278601725e-001
    9.4346236514782515e+002 -4.3854267383801548e-001
    3.9636631032728121e+002 -8.6555372538905273e-001
    7.5043470834871175e+002 -4.9570229818644623e-001
    8.2467667221886234e+002 -3.9754804651808795e-001
    3.2089916144923041e+002 -5.8933373258738664e-001
    6.2321550477951337e+002 -4.3488124029347081e-001
    4.2242387372755474e+002 -7.7818105567678697e-001
    7.4045429259437196e+002 -5.9805632477793758e-001
    4.7244184563274223e+002 -5.6485123551682426e-001
    1.3129011169058490e+003 -3.1991600827176980e-001
    7.5716592471604554e+002 -4.7372894889332084e-001
    4.8722810624539972e+002 -8.0098815707871052e-001
    4.5878709512099910e+001 -1.3037978709032116e+000
    5.6993593298879955e+002 -5.8325925159255343e-001
    6.1600784251526875e+002 -5.2949831874005804e-001
    9.3603462766576047e+002 -3.9362098137975654e-001
    9.3881844271231444e+002 -4.1934301155638615e-001
    5.3832311884316437e+002 -6.5518044790885399e-001
    1.2543062491394469e+003 -2.8999509907599552e-001
    3.9198311835555961e+002 -7.3918892171976192e-001
    1.1690414200478365e+003 -3.3955034393058831e-001
    8.8560632137007144e+002 -3.9076307958280554e-001
    8.0891051343371419e+002 -4.0351880588887057e-001
    5.0450777030772383e+002 -6.1078397508626536e-001
    6.1523962638534113e+002 -7.9290268648061990e-001
    3.4100763341822159e+002 -7.8428497278318909e-001
    4.3682208639097877e+002 -6.2001672946697139e-001
    1.6543711243779873e+002 -1.4768255711304943e+000
    8.0874112743445960e+002 -4.3415479444838934e-001
    1.4952293224213503e+002 -1.5461367559202734e+000
    8.3632048069821701e+002 -4.2205825631825394e-001
    1.0805197060740107e+002 -1.1064879726898995e+000
    7.3264088376129379e+001 -2.5328314383775905e+000
    3.5619893215150211e+002 -9.6155705958766768e-001
    5.9460335105079434e+002 -6.0860604848332134e-001
    6.5721599997169528e+002 -6.2118640099775435e-001
    2.7300372290950645e+002 -8.1088864899545188e-001
    4.9900772765521594e+002 -7.6268371852216044e-001
    8.3679062158899740e+002 -4.7348839325835657e-001
    1.2740409408307669e+003 -3.3448279445461931e-001
    1.7198978676471242e+002 -1.6669736750060513e+000
    1.2853678550787185e+003 -3.4477970444220463e-001
    6.4188814819264940e+002 -5.9980042604621342e-001
    3.2033605040170033e+002 -1.1074990391540640e+000
    5.2280323231214709e+002 -1.0806749173284536e+000
    5.4787432145045364e+002 -7.6896510080734637e-001
    4.4877129558846593e+002 -8.9004051943987417e-001
    7.0945073511511424e+001 -5.5006113976434445e-001
    8.5117688496347705e+002 -4.7194780536028769e-001
    8.1037442950804291e+002 -4.8141465246160015e-001
    6.5956447316894142e+001 -2.2233627514407734e+000
    3.5669492932210517e+001 -8.5570100776535574e-001
    6.8827319394499580e+002 -4.9922244098139790e-001
    3.5619688447335761e+002 -1.4456595262014060e+000
    8.3833328317711232e+002 -4.4426080888137659e-001
    6.1902800129445484e+002 -5.8501217703018826e-001
    1.2365251428022550e+003 -2.9893318160214594e-001
    3.5727362336566466e+002 -9.2485126149822272e-001
    5.7989158652288972e+002 -1.5634519654104104e+000
    6.4137546041812016e+002 -5.7948668735963704e-001
    3.3857781500292231e+002 -1.5587104184474114e+000
    8.2376566262425922e+002 -3.9230092409077805e-001
    4.7107238822765618e+002 -6.9536913548632806e-001
    2.6931019427627626e+002 -6.2708871472651140e-001
    5.6139142665115116e+002 -6.4892409724077715e-001
    3.3945826460075688e+002 -9.5789447003258310e-001
    1.3817748870552231e+002 -2.3959931735727604e+000
    1.0989440909181381e+002 -2.3669447546233924e+000
    7.5004843384153071e+002 -5.0692290269743145e-001
    6.9250740619972021e+002 -4.9948568827240558e-001
    8.4904280915130346e+002 -4.6666101139046895e-001
    3.0376744224614049e+002 -1.1921458747627718e+000
    5.7598325501584259e+002 -6.8066547915880082e-001
    7.7455865538287469e+002 -5.3609675718967997e-001
    5.3458837528021809e+002 -4.2962065204049438e-001
    1.3097855959033850e+003 -2.4418464667575865e-001
    4.9866758914640286e+002 -5.2387225913850965e-001
    4.2319336039261867e+002 -6.1188853939543641e-001
    5.1349089542295656e+002 -6.2744043476315337e-001
    3.4132791851489895e+002 -9.2674832475004187e-001
    7.5400705914978766e+002 -5.0131751391884682e-001
    4.5935254360738196e+002 -7.1613960505989582e-001
    3.3117538714076096e+002 -8.0665934574833920e-001
    9.7649800948960228e+002 -4.0603423587553633e-001
    6.4349843229472367e+002 -5.2330445262991465e-001
    9.4418330447852816e+002 -4.0464061519651423e-001
    8.3998091650001993e+002 -4.4837515496668873e-001
    5.0072648559701821e+002 -6.1773776752810827e-001
    4.2363642248182526e+002 -7.2527546890560080e-001
    3.0729058862866623e+002 -1.5732641111074803e+000
    3.5735253560631190e+002 -1.6063996496731676e+000
    1.1462187368894299e+003 -3.3189855909152438e-001
    8.1299357827677204e+002 -5.2095148782482259e-001
    7.2813357984826382e+002 -4.1094433395020064e-001
    9.2132973113155697e+002 -4.4734660431443057e-001
    5.8889103271959914e+002 -6.0563631438266696e-001
    7.9136865328109832e+002 -4.3946317384848987e-001
    4.6064323052845850e+002 -7.3367583679821025e-001
    5.3265273926185989e+002 -6.5595164383034432e-001
    4.2856885259429691e+002 -7.6699967953971460e-001
    7.9186812844360736e+002 -4.2996847169208485e-001
    2.8197286595505591e+002 -1.0202873080540615e+000
    4.8809610141791524e+002 -5.9203371095373547e-001
    3.7399451462167508e+002 -9.5877227123096864e-001
    7.2663991354467316e+002 -5.2929153509781235e-001
    4.4272133292138739e+002 -7.3552524339570735e-001
    4.6658486861886865e+002 -5.0510544159361914e-001
    5.9979732684301382e+002 -5.6145749613426355e-001
    5.7104745111994634e+002 -8.1345013840575375e-001
    5.3081316518447568e+002 -7.4471116227336309e-001
    8.2957517846629855e+002 -3.7012603888115941e-001
    4.6028969959424921e+002 -5.1941799853342085e-001
    6.0776332417589265e+002 -6.6149470950467670e-001
    6.8054065225015836e+002 -5.3455457031066855e-001
    8.2100611655280466e+002 -4.8492668280920370e-001
    6.9379877668892527e+002 -4.7181212850641241e-001
    7.3569444092991102e+002 -4.3891941333260964e-001
    3.2317659449336719e+002 -1.0806545886065679e+000
    8.5587427364675989e+002 -4.6533942455089244e-001
    7.2761275954629184e+001 -1.7220803285466939e+000
    3.5989567582785673e+002 -8.4705790755113486e-001
    7.5406975772702890e+002 -5.3374348101392721e-001
    4.4537444311616844e+002 -6.3513614848797062e-001
    4.7631843492440549e+002 -6.4416392155779578e-001
    7.8863992647196972e+002 -4.8109745589588709e-001
    6.3657573398193472e+002 -1.1867108296831461e+000
    4.9620347127958888e+002 -7.1771748479510744e-001
    8.5073911794112121e+002 -4.8664792705101689e-001
    7.7682368876429462e+002 -4.7978934049611965e-001
    6.5842832617323302e+002 -5.3487346251186751e-001
    5.3804294275294512e+002 -7.4247160950431346e-001
    4.1640677435711189e+002 -8.2231730719700324e-001
    5.5130846984855225e+002 -6.7900004557285720e-001
    1.8740883176076449e+002 -1.4105553356456124e+000
    5.5944259999860594e+002 -5.6885503424028472e-001
    2.2462796955169233e+003 -1.8660390858448944e-001
    5.3232990044690484e+002 -6.9255991791254023e-001
    3.1104978298697591e+002 -9.5331034362200806e-001
    8.7367858605830099e+002 -4.4782088392570008e-001
    1.8454351307715172e+002 -9.2402566707670497e-001
    1.0615920401543261e+002 -2.1349131809623518e+000
    1.1858921561190771e+003 -3.6780130943009820e-001
    8.7970053674499286e+002 -4.4108601157069277e-001
    6.4703065856280739e+002 -6.2600397970141408e-001
    4.1706495653236374e+002 -9.1351756862704347e-001
    5.9662413449639803e+002 -7.0051099612731726e-001
    1.1394943597199797e+003 -3.6540816674799514e-001
    6.7078575750526795e+002 -5.7854859250978585e-001
    1.4981736294340133e+003 -2.5578490358908640e-001
    4.9198837823039014e+002 -9.6850934861850568e-001
    4.9236845951559854e+002 -7.8799995981580195e-001
    5.5989219403483946e+002 -6.2175044475314045e-001
    4.8731936842770824e+002 -6.9220624024048116e-001
    4.2722621465202502e+002 -6.0003454392017175e-001
    3.8126167094322000e+002 -9.7985142351072541e-001
    5.4547566861803432e+002 -6.6131998273202874e-001
    4.7257603584878080e+002 -6.8303535166676776e-001
    1.7791918152654139e+002 -2.0116401387625418e+000
    5.1102715727519147e+001 -1.1074079144799243e+000
    6.4385526043263738e+001 -2.2041238086665000e+000
    4.7941105276968545e+002 -7.0737848694025129e-001
    8.7433820111401280e+002 -4.5641737152820017e-001
    7.9352035495569714e+002 -4.4176823396903997e-001
    7.7128975597744738e+002 -5.0456111256353442e-001
    6.5138625691283693e+001 -1.9146394236526811e+000
    6.4392994723190930e+002 -4.7853237265386595e-001
    8.1802701246030006e+002 -5.4861307746035437e-001
    9.8163409981648886e+002 -3.9080571494561889e-001
    1.2174613875971372e+003 -3.4550259052382148e-001
    1.1501344165791757e+002 -1.9820573871161655e+000
    3.5238409441703431e+002 -6.0826172551418922e-001
    3.9724600896565482e+002 -1.0098011149362345e+000
    6.3054447806534085e+002 -6.0075789263824553e-001
    6.0605870058892231e+002 -5.9032084990461331e-001
    6.0986317287669908e+002 -4.9556625824171974e-001
    4.4447089595121071e+002 -7.3643859623669183e-001
    9.3238133405964072e+002 -3.7808851981332098e-001
    1.0180498516281070e+003 -4.0399126926514090e-001
    2.0702392173097296e+003 -1.8120870193139538e-001
    3.7945568508082431e+002 -8.0213579656245781e-001
    2.7255697852117748e+002 -6.3932957192417350e-001
    3.0980030143736724e+002 -1.0734388006489484e+000
    7.6254732186840079e+002 -4.3328846196121507e-001
    5.8954957201083619e+002 -3.0362095096508163e-001
    5.6092234150166988e+001 -2.5199500192269215e+000
    1.9264774259171645e+003 -2.1665562582548675e-001
    3.7986120962002747e+002 -8.2651299434606151e-001
    5.7827243896023958e+002 -4.0879838096384535e-001
    3.8134692194546756e+002 -8.3611393205214812e-001
    4.1157902422810889e+002 -6.0048932625823881e-001
    7.2317445031373461e+002 -6.0128959257983972e-001
    5.0049955560118082e+002 -7.1924638601486901e-001
    5.4892128944005026e+002 -7.3369184028166046e-001
    3.8273633844638141e+002 -9.6707738507648577e-001
    7.4372582332978664e+002 -5.2004594146276117e-001
    8.6782285243610102e+002 -4.1834079630946513e-001
    5.4351980976818891e+002 -5.2785394150435472e-001
    2.2189453411010736e+003 -2.0455735617655144e-001
    4.7151902524381347e+002 -5.5936714060440629e-001
    1.4267513161984548e+003 -2.9156730638621486e-001
    5.3130951488643780e+002 -6.1344665194248005e-001
    3.5658261182255876e+002 -1.0305063354488431e+000
    1.7621200273052659e+003 -2.2061611339606693e-001
    8.1092610943665841e+002 -4.3542396596371591e-001
    4.0905749000166168e+002 -6.9921103853120392e-001
    3.3922054280582904e+002 -9.8469826877222288e-001
    5.9123732725687648e+002 -5.8688199521604778e-001
    9.3543313177118307e+002 -3.4771349667718743e-001
    6.4123355209159456e+002 -6.0333002905822908e-001
    8.0123822642296989e+002 -4.0390134499557295e-001
    3.9680976058843669e+002 -1.1681500003119165e+000
    3.7009111970193680e+002 -1.0038980705175993e+000
    6.6938941968114216e+002 -6.1156239517754951e-001
    2.9479961703302160e+002 -7.3430391076738799e-001
    7.6668953466502990e+002 -4.4664986512420674e-001
    1.5561506340258617e+002 -1.3083662234858082e+000
    5.1062111180110207e+002 -6.9468978060063413e-001
    4.8950360885175246e+002 -6.7972517011962474e-001
    2.3422685695615999e+002 -1.0534099838870588e+000
    6.4307542495227608e+002 -5.1007577173733343e-001
    1.0393167152921410e+003 -3.8967719221090580e-001
    4.3429723816867471e+002 -5.3977401821108506e-001
    1.0966863478692740e+003 -2.9693802964272326e-001
    5.7778885551292024e+002 -7.9715778107162616e-001
    6.8989040900449572e+002 -4.2883998116349209e-001
    5.9176368513169609e+002 -5.6927634569118335e-001
    4.3379078337191606e+002 -7.1857467086872828e-001
    8.8462627879226875e+002 -4.5756200802062708e-001
    5.0351255265106073e+002 -7.2167122492895308e-001
    3.0114452304535962e+002 -1.1287451345940887e+000
    7.8371563547447033e+002 -3.7982542817794041e-001
    4.0535949605705156e+002 -8.6524633604148748e-001
    3.5586200533295931e+002 -1.4754647822590057e+000
    8.9107167062685915e+002 -4.5720589684979490e-001
    4.1269568800171669e+002 -1.0622987124606347e+000
    2.6543854046485166e+002 -1.2577624868227391e+000
    2.6212572673129142e+002 -1.1193636411342112e+000
    4.2197607697194195e+002 -5.4805872334060568e-001
    5.4656615657513942e+002 -5.7726206519367751e-001
    9.9175361607624257e+002 -3.4002548203030425e-001
    2.6675312100628543e+002 -1.1565789998881983e+000
    4.5636835665160555e+002 -7.7601650639945374e-001
    4.5293589731628697e+002 -7.5855987847651252e-001
    4.0322752396179817e+002 -3.9821494196852553e-001
    8.6358954446800522e+002 -4.3274890990860404e-001
    5.5417658006527950e+002 -6.5952269247764983e-001
    3.7461520144275181e+002 -8.2702823338790943e-001
    5.9697695460402258e+002 -6.4654855791276922e-001</input_scale>
  <output_scale>
    5.2631578947368418e-001 4.9999999999999994e-001
    5.2631578947368418e-001 4.9999999999999994e-001
    5.2631578947368418e-001 4.9999999999999994e-001
    5.2631578947368418e-001 4.9999999999999994e-001
    5.2631578947368418e-001 4.9999999999999994e-001
    5.2631578947368418e-001 4.9999999999999994e-001
    5.2631578947368418e-001 4.9999999999999994e-001</output_scale>
  <inv_output_scale>
    1.8999999999999999e+000 -9.4999999999999996e-001
    1.8999999999999999e+000 -9.4999999999999996e-001
    1.8999999999999999e+000 -9.4999999999999996e-001
    1.8999999999999999e+000 -9.4999999999999996e-001
    1.8999999999999999e+000 -9.4999999999999996e-001
    1.8999999999999999e+000 -9.4999999999999996e-001
    1.8999999999999999e+000 -9.4999999999999996e-001</inv_output_scale>
  <weights>
    <_>
      -3.6447517819482883e-001 1.8900562935907195e-002
      -3.4537628015265276e-001 2.0476009102284815e-001
      -3.4509324471541235e-003 5.0879688158252334e-002
      -2.9108682080535669e-001 4.6160332302325477e-003
      2.4415588989191905e-001 -1.6089339604990649e-001
      -2.5683418247299306e-002 -4.5293988417945416e-003
      -8.0209010059936713e-003 -7.4278730351943947e-002
      6.2085389588873108e-002 1.5086988796465478e-001
      3.1294821123792713e-002 -1.2193754050685635e-001
      -4.3320626370459990e-002 -1.4010826258041212e-001
      -7.5405130036735463e-002 2.1205667541335224e-001
      -5.8509578093011161e-002 -1.7467703602463366e-001
      -1.2035254892792083e-001 -1.8187472297491422e-001
      1.9864417686079630e-001 5.7155065798261934e-002
      -1.5686874329063918e-001 -4.5967258493114060e-002
      6.7051908748596900e-002 9.6642797379139611e-002
      7.8242138964487715e-002 -1.6592272189441419e-002
      -2.4387237113082310e-002 -4.2215893854999229e-002
      4.8401093352796583e-002 2.4260369772582996e-001
      1.0203976210581654e-001 -2.2362646940150499e-001
      -4.5166939379617924e-002 -8.0935355971399198e-002
      1.2938752584222174e-002 -2.5356790573971708e-002
      1.1292933001985653e-001 1.4808693507186099e-001
      6.0846064640950132e-002 1.0581660881788962e-001
      1.5944025902234926e-002 4.3028932960503162e-002
      3.5530139558660641e-002 5.7251516743156575e-003
      -3.8265429162775741e-002 2.9100893672304612e-001
      2.2343572744192539e-001 -1.9138674871146252e-001
      1.4016814194343466e-001 -1.6046611082579315e-001
      1.1285784017042361e-001 8.5147416979099416e-002
      -2.4268096717406773e-001 -1.0849304862460567e-001
      -8.9050569059842627e-002 -3.4529319090013694e-002
      1.4678969580853263e-001 1.6094211069214914e-001
      -1.0615985972812335e-001 1.0385776626096516e-001
      2.8374447097730297e-002 -2.2398397685070424e-002
      -5.1471150728860375e-002 -7.8154494418170677e-003
      -2.1887525332596391e-003 4.4236231445781746e-002
      6.5357319735032726e-002 -4.9160915259797841e-003
      -3.1954526272192640e-002 -8.6506273616660287e-002
      -4.1465652803099134e-002 -1.0624300458014234e-001
      -4.1791931068144147e-002 9.0872153289449878e-002
      6.6154929425153693e-003 2.8218897104910771e-002
      1.0436166414061691e-001 -4.1343401061421092e-002
      1.4159156186582877e-002 6.6388533108711761e-002
      2.6162489479726582e-002 5.3476148496211441e-002
      8.9097708576288626e-002 1.9526476044484372e-002
      -6.1723672844185166e-002 -8.0979727214164965e-002
      1.6471210756057349e-002 -1.7270212090823946e-002
      1.6138420943456612e-002 3.7938551454302720e-003
      5.8165176583011340e-002 6.7989551013626276e-002
      -2.8733949480837941e-002 5.6646984173312979e-002
      7.8423388704582063e-003 -3.0950190223172965e-002
      1.8301587344613313e-001 3.2121791396712025e-003
      -5.3629411372143561e-002 3.7564238537154258e-002
      6.3595360044320474e-003 -9.4705574952740401e-002
      -5.1249348210503684e-002 7.4920545223464315e-003
      4.3211215689070812e-002 1.1217677295737323e-001
      7.4085390180648912e-003 -7.5823403750901325e-002
      -1.5462479611694731e-002 4.1750575848322438e-002
      -6.0978724909319951e-002 2.7904181275373998e-002
      5.6916192373395169e-001 -1.2935810845068211e-002
      1.8096751362741633e-002 -1.6076182995509645e-002
      2.0580983834098604e-001 9.6160185310311411e-002
      -6.9136791220165805e-002 1.8735651823083860e-001
      8.3361970402817537e-002 1.4697476780336813e-001
      3.4492193154902671e-002 -1.0608053479411093e-001
      -2.0312008555133713e-002 -4.5179948893659609e-002
      -4.8452217037374283e-002 4.7210786475150132e-002
      2.6000859682899738e-002 -2.0962917785189583e-001
      3.4016973565581810e-002 -1.1227491850771423e-002
      -6.1481328728916908e-002 -4.7255054402953765e-002
      5.3288341297369639e-002 -8.8185508763756418e-003
      5.5105815437319204e-002 -8.5208479069385140e-002
      -5.4817040961131616e-002 4.9311911683042095e-002
      1.2442517854543336e-002 6.6715782564246137e-002
      8.8559973249705548e-002 3.1289836207572273e-002
      9.1317741893244316e-003 -1.0816825076966907e-001
      8.3265599957676531e-002 -1.9952068559809094e-001
      2.0488434293549143e-003 -1.7203036783361628e-001
      5.6993576737099497e-002 5.6945006544911692e-002
      3.1768796892324702e-002 1.3273805929161389e-001
      7.3991726580665079e-002 -3.3211315693914278e-002
      3.1323772650201760e-002 5.8814937274626861e-002
      7.2879039319296859e-002 1.4060697354638058e-001
      1.2766988681322627e-001 -9.2172477053872118e-002
      5.7131195162985295e-002 -1.7687258816220344e-001
      6.0220631821039400e-002 3.7927763681295058e-002
      1.1240479989446035e-002 -3.6590679002634095e-002
      -8.3886091896194684e-002 1.3388642458378949e-001
      1.8255643870502235e-002 -7.6351920774764451e-002
      2.1715864859008085e-001 -1.0671928679660348e-002
      -8.9964067832105532e-002 1.2373197516943524e-001
      1.4006783336595965e-001 7.8634772527313920e-002
      -1.1259339682707158e-001 -3.9417293907505896e-003
      2.3370407333895383e-002 6.4987870800238837e-002
      -6.5165742382372979e-002 4.4711234526758493e-002
      2.2461692987703147e-001 2.8185736431727404e-001
      -1.1235680887596569e-001 9.5193747002996071e-002
      -8.0398358923984531e-002 -8.5329635435791570e-002
      -9.0675461411952360e-002 -1.0298814030836973e-002
      4.6794192769766756e-002 2.8483265916211850e-002
      4.6120111000502978e-002 4.0106288760452982e-002
      8.6059015920050622e-002 -1.2917454429751937e-002
      -1.5947692840929430e-002 -2.0697303158167524e-001
      -5.0732848161034648e-002 -6.5073745455226595e-002
      2.5271867552214399e-002 5.6943219257382556e-002
      1.7190598521957279e-001 1.3905453621262083e-002
      3.4190626328171540e-002 -9.2911230570963052e-003
      -5.0946055571487979e-002 1.1379301833716163e-002
      -1.8520221657960834e-001 -3.3283444035127271e-002
      -7.5484397882769963e-002 -1.3295282529679726e-002
      -1.6771733332976207e-001 -1.0146507044883205e-001
      -1.3955105180088204e-001 3.6931268487832354e-002
      -6.0752207832826532e-002 1.9215988671084242e-003
      5.1983175505906594e-002 -1.6871540302252758e-001
      1.2027632165210464e-001 8.6673420919781245e-003
      7.8058651273987797e-002 9.2930645637618839e-002
      4.6395268552190068e-002 -1.2249329642755512e-001
      5.3624553759588571e-002 3.0091536779504484e-002
      -3.5515818159049382e-002 4.2314782756002096e-003
      -2.6433545704314509e-001 -8.8760434765383103e-002
      -5.1471472807747770e-003 6.4983641203176609e-002
      3.6477455874321968e-002 1.3314954011243724e-001
      -1.1662124038431354e-001 2.9145202384165618e-002
      3.7518136746970174e-002 -4.8444135350821628e-002
      -8.3062781169948280e-002 5.0503130708148991e-002
      -9.7034135996374532e-002 -2.4085821557441109e-001
      -9.0263307985099114e-002 1.3220223251606308e-001
      -3.5042827287615616e-003 -7.4990034623264201e-002
      9.2193860918452688e-003 -4.0234676007273831e-002
      -1.5905304234378401e-001 -2.7499535825479249e-002
      -5.3646418186793464e-002 -5.4201105795359669e-004
      -1.5663962324785625e-003 2.1436291209745044e-002
      1.6829638145100453e-002 1.2731328265079636e-001
      -5.5499496388878113e-002 -5.4071031088195776e-002
      -8.8348662251371946e-002 7.7390739332758987e-002
      -8.6042025711108028e-002 -1.2162446371469095e-001
      -1.6015176081836457e-002 -6.4800488961956448e-002
      5.2761714493267532e-002 -1.2437123336028290e-001
      1.9587277310062118e-001 -2.2565151117498974e-002
      -8.5660778587469868e-003 3.7959934947324005e-002
      1.7454218300264404e-001 1.2544708091985639e-002
      8.0946456677853731e-002 9.0469003224130096e-002
      5.2035066526958898e-002 1.3662385451862692e-002
      6.2017115052682426e-002 9.0284810642818056e-002
      -7.3693370455624699e-002 -8.5304079117235976e-002
      1.2673122607390666e-001 1.5446467294138091e-002
      2.2168379250523913e-002 -4.3036929976652686e-003
      3.8934685785068444e-002 -2.9241923674439563e-003
      1.6378923072493765e-003 7.1343131657414557e-002
      -1.0164129824242470e-001 -8.0374894156118704e-002
      1.7013894644946090e-003 -7.5490753659225853e-003
      -8.8402561454039935e-002 -1.2875901188256828e-001
      1.3014191550503183e-003 4.4486260110712973e-003
      1.7254852419040175e-002 -6.2499368892131341e-002
      -3.8800847241091730e-003 -8.0776408710494362e-003
      1.3362501647155519e-003 -3.3618826383765829e-005
      -7.3673678682003751e-002 -1.3602118035897384e-001
      2.7214075072584044e-002 -1.3512044223749445e-001
      -2.8388480222509203e-002 -1.3195324710407044e-001
      -1.0793201698105592e-001 -1.8003707718823279e-002
      -9.5791394178147971e-002 8.1665080837112578e-003
      -1.1410560668316792e-001 -4.5903682786666004e-002
      2.0592491847968686e-002 -5.7970682068313262e-003
      9.4178927122765960e-003 -7.6371380414474985e-002
      -6.1435885659885517e-002 -1.0268166289578405e-002
      -3.3229174876283428e-002 -1.5793673770270997e-001
      -1.5418011019492545e-001 -4.4051633576174629e-002
      4.9451736243197979e-002 -1.9654881926104654e-002
      -3.5122673541295182e-002 3.1869024281346798e-003
      9.0442610848451607e-002 -1.6609092096885583e-001
      -1.1497674767439412e-002 1.7487241381239335e-001
      2.6075539770311655e-003 -5.0908824863248062e-002
      -2.2194787899494590e-002 -7.5591556788527248e-002
      1.2680210992848634e-001 1.0298184583441438e-002
      -3.1454889852835992e-003 1.8671104042860508e-002
      1.4984024596719376e-002 -2.8831721199082665e-002
      -7.4723547887983396e-003 5.7417888349068677e-002
      1.1000154348087256e-001 -5.8957827026680260e-002
      -4.0001441465457324e-002 7.5039673636375773e-002
      -1.7440006671608893e-001 -9.1270704944351952e-003
      -4.1646200074237950e-002 6.1098992924782845e-002
      -2.2813900503741149e-003 6.1556727021726133e-002
      -5.4020380774230048e-002 5.2159297889542260e-002
      6.7021166021062450e-002 -3.4708770887887500e-002
      -6.9862104101188517e-003 -6.4276180814992701e-002
      3.3607669408998703e-002 -2.7854927057493262e-002
      -3.2264686796930522e-002 8.5152955474640718e-002
      4.1308985184162636e-002 -1.0956280386645180e-002
      3.8542251968795913e-004 2.2610665562908434e-002
      -3.3692710526997800e-002 -1.7572446887448183e-002
      -1.8581915421566220e-002 -1.6929735845873817e-003
      2.5147644365186097e-002 -3.8344083798646345e-002
      3.0580339945372962e-002 3.3672872469632097e-002
      -5.5285326066020685e-002 1.4803844335871418e-003
      -2.0095415051449520e-002 6.8053810707664142e-002
      2.8424071009492961e-002 5.3118451562349837e-002
      2.8582428864377091e-002 -3.5837083345103778e-002
      3.5641809121668207e-002 4.3942657330172753e-002
      1.0050490680732536e-001 -2.6919865281072711e-002
      -1.2733874351539656e-002 2.2789321252688770e-002
      3.3210287248112501e-002 4.7492289048167699e-002
      7.0419516252444414e-002 6.2459923049233070e-002
      7.2776789376100534e-002 5.9745915078910597e-002
      -2.8477870893517570e-003 -9.9005059393682454e-002
      9.0548895317799829e-003 -7.1349294890145187e-002
      1.4933343972545594e-002 1.1120341018760690e-002
      4.1928671238331126e-002 1.9438022191279287e-002
      -2.1487515899763911e-002 -8.5386827533647982e-003
      8.8127220557703400e-003 5.6430064212426273e-002
      7.4757049273041043e-001 2.2994855107978242e-002
      -2.4378028462707830e-002 4.9753619788680023e-002
      2.1934241056093962e-001 1.1413910231912273e-001
      -9.2352545914215239e-002 2.7789294739649428e-001
      1.9603395726727363e-001 1.6366914207696054e-001
      1.3668787267591476e-001 -2.0560067438641977e-001
      2.4249160016816024e-003 -8.3353543790356935e-002
      -1.4383543003377974e-001 1.0296969741868242e-001
      1.1571481478711866e-001 -2.7699992593542272e-001
      1.1151410181176056e-002 -3.4695930087985376e-002
      -1.6086816705204735e-001 -5.3342198281087480e-002
      -2.6588523541765871e-002 -6.0653553931682681e-002
      -5.6374026116935129e-002 -1.8440668534465948e-001
      -2.8923895247434921e-002 1.0381323140528616e-001
      7.4969899610629670e-003 -2.6811077066337917e-003
      8.0916075337383500e-002 5.9049610186418265e-002
      3.3701039381245988e-002 -7.7158065920341343e-002
      4.3382943662172567e-002 -3.0204234533297403e-001
      2.8476430740212506e-002 -1.0440213847178068e-001
      8.3735138178242838e-002 -5.7261803370765221e-003
      -1.4279324607111525e-002 9.8307833450802296e-002
      7.9636005938428137e-002 -6.0200844044935087e-002
      3.2860623556277363e-002 2.1194433166456744e-001
      4.8386141852372208e-002 2.0443045419657152e-001
      1.3071588706497067e-001 -5.4178786812223975e-002
      3.6341904029260283e-002 -3.0703026238481451e-001
      3.6045222659040689e-003 2.9090236976557531e-002
      1.1275240658116918e-001 -3.8557238188685172e-002
      -9.3363199568332524e-003 1.1693494272875629e-001
      2.5360705700012052e-003 -4.6517793233028501e-002
      -4.7050342238836801e-001 -7.9999833945069987e-002
      -4.6274788443855366e-002 7.3530691318163238e-003
      -8.0719057676324132e-002 -9.6406438106642581e-002
      2.7117360590477983e-002 7.7444054199310358e-002
      -5.9884931346312127e-002 7.6656043558510259e-002
      8.5493791275700101e-002 1.8125559074447489e-003
      5.7106143613264576e-002 2.1852644877169591e-002
      -7.0261817430700216e-002 -1.6341266800939860e-001
      3.4463835558259957e-002 1.7907088997356263e-001
      -1.5760133182056602e-002 1.0156835254475129e-001
      9.7801193385161481e-002 3.8129525784530466e-002
      -1.6392285917872459e-001 8.4800339035274425e-002
      -2.0733165030391307e-003 -2.7120449348772484e-002
      -4.8769196319286306e-002 3.7171158647876901e-002
      -1.8863437219471244e-002 3.0865806905441523e-002
      -3.6609233425938290e-002 -1.1754239544855601e-001
      -1.0817154538767332e-001 1.2968423662052739e-001
      -1.5045555011318226e-001 -9.8756143565944671e-003
      -2.2922701190438911e-002 7.9185623781319367e-002
      -5.8158548135208959e-002 2.2337605441619866e-002
      3.3798518616598675e-002 -5.3583323138429916e-002
      -2.2991230942558602e-002 1.6954325357791702e-001
      5.4956423042516397e-002 7.1350468977748752e-003
      -1.5123841709263200e-001 -2.3794599305596166e-002
      -7.3240168057673555e-002 1.3002264219607296e-001
      -1.3136093012663755e-001 -8.7044874760653177e-003
      -3.0262656536399739e-003 -7.5629403824359707e-003
      -1.0025502125655038e-001 1.2991050704617785e-001
      -1.4373537781429911e-002 1.7368250291835842e-002
      -1.8793908057413203e-001 -1.1706472605913397e-001
      4.7656250603781114e-001 1.1662492661089387e-001
      2.1930840596232383e-002 5.6295045415613608e-002
      5.4175417459023524e-002 -1.0457298007717160e-001
      4.8065798311921162e-002 7.1306690288333946e-002
      7.8670009684155565e-002 1.5254199517859846e-001
      8.8251163257072662e-002 -2.0021000132499589e-001
      -3.0477125054178197e-002 4.0997915113016509e-002
      -6.2349384231866797e-002 2.2695401794323087e-002
      -2.2922483736316276e-002 -3.0017182633955419e-001
      -6.3287711387489454e-002 -4.6588190496912249e-002
      1.5080439638837814e-001 -9.5586322863104090e-002
      9.8770428295827412e-002 -1.5210614479508045e-002
      5.7465674404339716e-002 -5.6454426885617470e-002
      -1.6472107241617056e-002 -4.3289372387989564e-002
      5.8430875414719412e-002 7.1233390973799271e-002
      1.2382799602219417e-001 3.8048608463758251e-003
      5.5882748013234097e-002 -1.1521510897612576e-001
      2.9654678370265471e-002 -8.4963108785426858e-002
      -1.5062666452241394e-001 -4.2990455728005895e-002
      -8.0700515011756777e-002 -1.8102445326641978e-001
      -9.6794812856113549e-002 -1.0858410721937327e-001
      -3.5566663453525577e-002 -1.2002416069287088e-001
      -4.0684748972964042e-002 5.4272195322202441e-003
      -2.4119077919371318e-002 4.0669446086670641e-002
      1.3556162406145214e-001 6.4992969788441546e-002
      3.2767304086130551e-002 -4.9787848809782195e-002
      -1.2764667702638172e-001 -1.1629469903088149e-002
      1.6975938566031423e-001 -1.1754594772138484e-001
      -1.0237258903319306e-001 2.1747079933620642e-002
      1.5234071272191568e-001 -6.0316154994948502e-002
      1.1100646270157272e-001 -3.1920516870195384e-002
      -7.2109030602783716e-002 5.6816455818625947e-002
      7.7446152866223000e-002 -3.0187819732509807e-002
      -2.4982230157404257e-002 9.8729177793696367e-003
      -1.3702023570201430e-002 -9.7261371697256165e-003
      -3.1474555220207819e-002 1.6065487659869149e-002
      1.2437012531906266e-001 1.0155271699369244e-001
      1.9907398343760176e-002 1.0082826862800300e-001
      -6.9517127962242062e-002 -9.7185873801259134e-002
      -1.5656011227378891e-002 -3.0670840793683658e-002
      1.0468295523163783e-001 4.8646403890426383e-002
      9.7057173740670730e-002 9.6590055825467903e-003
      8.7766678933167835e-002 3.9898422035229635e-002
      2.1146030471535446e-002 -3.8959738703756144e-002
      -3.4953859772685988e-002 2.1001213006895624e-002
      9.1810742330340339e-002 6.8495022458004526e-002
      5.6855492826736409e-002 -4.1131752821221383e-003
      1.6183876730137689e-001 1.2678176204080654e-001
      -1.3024015000672488e-002 4.4962611940243140e-002
      -2.9659059673975374e-002 -5.5944114336344657e-002
      -4.0149907364736170e-002 1.7440545722210658e-002
      -9.1216651610586452e-002 -1.0093326975863025e-001
      6.4782137647341489e-002 5.6417487334917409e-002
      -4.9297916945927089e-004 1.9434907194095644e-002
      -6.7993439012818515e-003 -1.1956803392577478e-001
      2.8089400711514261e-002 1.0322053908270783e-001
      2.0428664276843169e-002 1.0319795173313694e-001
      4.1157909844198558e-003 -1.6406894276493333e-001
      -4.6847296946645328e-002 -1.9685071996031818e-002
      -9.6920930971809205e-002 3.5296834431901458e-002
      8.6751694501249643e-002 -5.2435258372746416e-002
      2.7713086100672750e-004 1.0858516180386460e-002
      -7.2638741192111297e-003 2.9410058674813895e-002
      -6.4206243811819483e-002 -4.2188843224908526e-002
      -4.2606869337068629e-002 -5.0912400516691457e-002
      -7.4704785135895346e-002 1.3221953781291582e-001
      -9.3650791343613191e-002 -1.0436420169636804e-001
      6.1409796910118844e-002 7.6370705106633671e-002
      -1.3435787311699938e-002 7.0565977764207782e-002
      6.0361567548075964e-002 8.7697669219120158e-002
      -8.2376950154045517e-002 -8.8498258817662386e-003
      2.9450926613937303e-002 -4.5382095656236344e-003
      5.3186767257864661e-003 5.8583197299347516e-002
      2.3510497247034115e-003 2.8188427160050007e-002
      -2.3531393878845803e-002 6.1008288775717436e-003
      -2.3086106630432753e-002 8.7038329797361563e-002
      -9.6076690250617679e-003 2.8073186631701958e-002
      1.2073673237289846e-001 3.8229392729809859e-002
      6.0985965662137293e-002 -3.6608371319776851e-002
      6.5612544968371683e-002 4.5788759930346985e-002
      3.8550837961606327e-002 1.2413248566244604e-001
      8.0578682201351462e-002 -3.4128422132879122e-003
      -3.3321297857035186e-002 3.6863547315940222e-002
      1.4564786508758862e-001 1.6971598704606367e-003
      -5.7148707176396744e-002 9.8108908891239374e-005
      5.0238203144661167e-002 4.4271260920148388e-002
      6.4356912800506622e-002 1.0186064290344715e-002
      -2.7645991773310449e-002 -2.4213803857498460e-002
      -8.1310046663295374e-002 1.3613061970552549e-002
      4.6282934551069247e-003 1.1443555865222927e-002
      1.3860490843534962e-001 2.5742635765845831e-002
      9.6147709217904886e-002 1.2579336683433654e-003
      -5.8361562487534414e-002 7.4993772090196101e-002
      1.0168616554496945e-001 -2.7372600808179919e-002
      -2.1597468133906804e-002 -3.4468626275603938e-002
      -3.2635008619266350e-003 2.3488192155727040e-002
      3.2470627091321709e-002 -1.6822205022536953e-003
      4.0900131156667539e-002 -1.1300062243413173e-001
      5.9378398907720391e-002 7.9627396504700396e-002
      5.6906656814432618e-002 4.0539643518895191e-002
      -6.5075955766790122e-002 -1.3425249826583441e-001
      2.4374545530262772e-002 -3.1577314915313937e-003
      -1.1026508846819816e-002 7.8279066791483748e-002
      -2.4056874974835316e-002 -5.2061820833749724e-002
      -3.7997860187720216e-002 -2.5331263565867606e-002
      -1.1368031396733344e-001 3.4288028437959452e-002
      4.1327399956099076e-002 -2.5809378412242793e-002
      8.9733941782446189e-002 -9.7628803441777323e-002
      -2.4022309238034903e-003 -1.0805487127085253e-001
      3.4351250916463051e-002 3.9370637210630617e-002
      2.2025830299889065e-002 8.7632994207566747e-002
      1.8214146914663287e-002 2.3413130242665045e-002
      -4.3643637593238360e-002 -1.8027819758796487e-001
      1.0115550788077228e-001 -5.6178860434095285e-002
      2.8343648185329699e-002 -1.2285652206554691e-001
      4.4986784062308306e-002 -1.1311988213175729e-001
      1.3362887556066835e-001 -1.3006150192919114e-001
      -6.2308603632228926e-002 9.9453295518231385e-002
      -2.8543793962108072e-002 3.6896339029642143e-002
      -1.6077353582309175e-003 3.7569820204334192e-002
      2.5174496852134537e-001 -2.0647662012307201e-002
      1.2735190616450873e-001 -9.3150970836315447e-002
      -1.7433942974178704e-001 -1.5105500956859882e-001
      1.2755213502422577e-001 -1.1175866147459515e-001
      4.0850788571566692e-003 -1.6805721295628692e-001
      -3.3272724652040522e-002 4.6450616173053613e-002
      -6.1522725181619806e-003 -2.5042662663388678e-002
      5.7956204973633352e-002 1.4035999485831525e-002
      1.2104362261954636e-002 -9.7323761835707762e-002
      -1.1289383031547589e-002 -1.2289289770914646e-001
      -1.9084620989902870e-001 -6.5402499247436560e-002
      -6.0956290201474063e-002 -3.7576447121818866e-002
      -1.5866600837645173e-001 8.6598690349138415e-003
      5.4383730636431177e-002 -7.4172303537002979e-002
      5.0783098354820526e-002 -2.8772912698044426e-002
      -8.5216919591144649e-002 1.0578611035628399e-002
      9.7434714142617829e-003 -2.5513484316266849e-002
      -1.4377778429083901e-001 -5.6553366229063928e-002
      7.4940952506994493e-002 -7.9897386150998437e-002
      -1.4194409353688224e-002 4.5092433225531407e-002
      1.5330754952962389e-001 -2.1902348111052353e-001
      -7.0272619429944646e-003 1.1940727726373092e-001
      -1.5542681127672495e-001 1.4197691596689472e-002
      -4.8361606293145017e-002 -1.2826283139314831e-001
      2.6765191134045132e-003 -1.4365228014667986e-001
      1.1333466465302139e-001 -6.0017113871520769e-002
      -1.6660072304241106e-002 -1.3334232230199275e-001
      -3.0168500109767751e-002 1.1661623740942205e-001
      6.4121900879086285e-002 -4.0432761474043587e-002
      5.0657163640526588e-002 1.7860276428887992e-001
      -1.8758442964617403e-001 8.6635226628391071e-002
      -8.5247586448569543e-002 1.0215505796560251e-001
      -5.6702699479529071e-002 -4.5912021883239298e-002
      -8.6835148393291289e-002 -1.8616701145866549e-001
      -5.8763723826144726e-003 -9.5453567007131090e-002
      -1.0524191055114247e-001 1.0897958969254774e-001
      -8.1417806572348567e-002 -2.9622741523352061e-002
      1.1248815702530671e-001 4.7463365560471309e-002
      -1.0709576008343710e-001 -2.8041338673135571e-002
      -2.9486981113385775e-002 -3.5386973118708490e-002
      1.6166322271032660e-001 1.9420728970531636e-002
      1.1067658928308771e-001 -9.3088159328390638e-002
      8.3004751257876250e-002 8.0479583451939410e-002
      9.3799415501367153e-002 -5.5367702035332866e-002
      -8.4409031654519781e-002 -1.5441516953148817e-002
      6.1491305748477290e-002 6.5219475189814038e-002
      2.2049510219125834e-003 3.3848066835524854e-002
      9.1530710164552442e-002 1.6028567590991458e-001
      -5.2877972960939434e-002 1.5371219711190381e-001
      3.2092240238079349e-003 -1.7796149155818486e-001
      -4.1486240978020034e-002 -5.4570918710385372e-002
      -1.0658222393767115e-002 -6.3102349210276548e-002
      2.2764128635047360e-002 -5.8673418965569941e-002
      1.0207639641466298e-001 -4.6539129162688361e-002
      -4.7020430371340259e-002 8.9179622220394272e-002
      -9.4210782797001461e-003 1.6066951523443121e-001
      -2.9462887336848941e-002 6.5560368276602166e-002
      1.4322356180244047e-001 -1.7061401939074658e-001
      1.1053859424762388e-002 -1.2596813423193812e-001
      1.5889277597301316e-001 4.3399094279611812e-002
      1.1582322634274783e-001 -4.9911393433342388e-002
      1.5286772417193278e-001 -9.9315008086260648e-002
      -3.7542739978234721e-002 -4.5578971092243716e-002
      5.7070514004155762e-002 2.7130552499040065e-002
      -8.4527617202584865e-002 -3.5559361692246771e-002
      -6.3391452687680397e-004 -1.9586042229348018e-002
      -9.3030082362792033e-002 -1.4310002613197731e-001
      -4.8662287790104092e-002 4.8649684256894074e-002
      -1.4516633055771829e-002 -1.3383512194492752e-002
      5.9739328237442352e-002 1.1042327178850158e-002
      -7.5482207694150857e-002 -7.5041017944849298e-002
      3.4624052265415775e-002 -9.4127708826433933e-003
      -1.2827723921859246e-002 3.8863199335620317e-002
      -3.3775387254230432e-002 4.6956293407999769e-002
      5.5935633022702491e-002 6.3706916561814861e-002
      -2.4329395284168234e-002 8.4174326885504386e-002
      -8.6461503795644851e-002 3.7077660964945566e-004
      4.8616170077143452e-002 -4.9912922833730770e-002
      9.5203728625441342e-003 -1.1918457049502060e-001
      7.5961357468386809e-002 9.8519569589335262e-002
      3.9568598866303331e-002 6.0840487003662756e-002
      1.2583940514720049e-001 3.1987614997868438e-002
      1.0755041814123309e-002 1.1632783165554718e-001
      8.2842772048723201e-002 -1.6184178978936568e-002
      1.3925969972109768e-002 6.0619531991133728e-002
      -6.4901399882705033e-002 -3.8111271615126861e-002
      -7.4741499962501755e-003 -1.0724849557491521e-001
      -3.3819397728410437e-002 4.5550630056043713e-002
      -1.1131171249511293e-001 7.8803604252470183e-002
      2.1897430510182610e-002 6.5282399339861730e-003
      -2.5148714940573169e-001 5.8415233596636779e-002
      2.5489291464472784e-002 7.3462789836532205e-002
      -6.1150722209036612e-002 2.6271654230701352e-002
      -3.0585008740042177e-002 -5.5847002201589772e-002
      5.2991403968914684e-002 -1.8021179614271518e-001
      -4.7615735789392960e-002 5.9916040940291411e-002
      9.0339320692505234e-003 -1.4219647875796196e-002
      8.4928924988103768e-002 -4.9818626059390927e-002
      7.4644076716728375e-002 8.9997241806209397e-002
      -1.1994620925973077e-002 -1.9209068234493150e-002
      -1.1484201476079174e-001 -4.6499683712800235e-002
      -5.7792419376711299e-002 -4.5372572309189591e-002
      -9.3469668215215101e-002 5.4483597867341612e-003
      7.8848529946236645e-002 -3.0158879818515047e-002
      -7.1657707796315598e-002 -9.3749199208578909e-002
      -1.3103637141690980e-001 3.3790438715475810e-002
      -1.0269155079711178e-003 9.6375755134353633e-002
      -5.0836319611493326e-002 -5.6313515413895898e-002
      4.4517935841963917e-002 -1.0217247732347558e-002
      1.7579890706462056e-002 1.7155163669160590e-003
      2.4684840144071570e-002 -5.4772697105458353e-002
      2.6260359408621591e-003 1.0583322752454043e-001
      -8.7959099077269176e-002 -4.2315818667757375e-002
      -2.6335203618572531e-002 -2.3230257513441536e-002
      -8.9784610504421866e-002 -3.0336466590737913e-002
      2.3831628280966289e-002 -1.0078255973889118e-001
      9.0684545383115184e-002 -8.0931568625105407e-002
      -1.0518551246805320e-002 1.2287277410454819e-001
      4.7658621144558884e-002 -6.2775931525985817e-002
      -3.7358477093427017e-002 1.3287789176476031e-001
      2.8454338644820498e-001 4.0128768787425252e-002
      6.7365407822506246e-002 -1.0602650420266415e-002
      -6.7054335901555850e-002 -2.2860618477883034e-002
      1.0392157824845340e-001 -6.1832018025400844e-002
      -2.3041307845005074e-004 3.6081432063727777e-002
      1.6304743348996054e-002 -2.3522173793526849e-002
      3.0546637276608540e-002 6.8984291974140938e-002
      2.3734768977378196e-002 -8.0547652407312927e-003
      -4.0239967576770029e-002 2.1545672666875453e-002
      -1.5221472951260757e-002 2.9624534111930445e-002
      5.0398147949977101e-002 -1.0420465455595444e-002
      -4.8587320633453117e-004 1.2214742464277094e-003
      -7.8534387929982390e-003 3.4485898592403991e-003
      -1.5177249825431217e-002 -6.7895258192824992e-002
      1.8585729563229847e-002 -8.5796554179374835e-003
      2.1015756008283912e-002 -4.5276845227008991e-002
      1.7109514637996721e-002 1.2645467300205640e-002
      -2.7816952911018974e-002 7.3593179541768708e-002
      -1.9028213535586622e-002 -4.1617004281797695e-002
      -8.1373512729315325e-002 -5.3299899652977684e-002
      1.8994671167249715e-002 -2.9373336323608654e-002
      -6.1615444468492722e-002 -5.8364532469067948e-002
      -4.7796382325992613e-002 -1.5884410957315576e-002
      -4.5220578732715823e-002 -2.8926629548511641e-002
      -1.7840553878097096e-003 -7.9606082403217801e-002
      6.9442446100542746e-002 6.0701759748037327e-002
      -3.8611271355939995e-002 -4.7951829000072124e-002
      5.5700294153709473e-002 2.4012938046955569e-002
      7.5178946954263817e-002 -1.7735436488588437e-002
      -2.1967845214077634e-002 -5.4579513891426609e-002
      1.0159520663593494e-001 9.4930618337977252e-002
      2.6339570176707122e-001 -9.1891669549450956e-003
      -5.9513676269222264e-002 -2.3473503104335845e-002
      2.4889134495179810e-001 -1.6442858677450772e-001
      -6.1451440249365726e-002 1.1723889398846516e-002
      2.1907776772758111e-002 2.3871890193644121e-002
      -1.5846942260329744e-001 -1.2073054004293640e-001
      5.6430868741654927e-002 3.2318493490955516e-002
      -4.1629494358782770e-002 9.6713669221095269e-002
      3.1074248230694764e-002 1.3551813361166734e-001
      1.9633779747473337e-001 -2.1894784129461634e-001
      1.6075259990115107e-001 8.0461998724644074e-002
      1.1532422756272012e-001 1.8036993909446802e-001
      -7.5376196200836867e-002 7.3079200247653797e-002
      2.9450392498206870e-002 -7.8306419981914396e-004
      -1.2102334713316476e-001 -4.6262969313665671e-002
      -9.8758564518934097e-002 4.4936073733249260e-002
      8.0320886124320812e-002 9.6392887855839882e-002
      -1.7480259152200606e-001 -1.8276607044474596e-001
      1.1140629187441740e-001 -2.9098014109401885e-002
      -1.1715569434434600e-001 3.7722826947083399e-002
      1.0978815286579699e-001 -1.1265123614146198e-001
      -6.1889415027039391e-003 -1.5019275789378245e-001
      5.3034500797456655e-002 -9.2014996825059883e-002
      -9.0106264578796724e-002 2.4913633412692271e-001
      -1.0237656719539638e-001 2.3299745966482634e-002
      2.3590745295195619e-003 -2.7134604955523739e-001
      -6.3870110801321517e-002 8.5340545058312511e-002
      -1.0781850717516554e-001 -8.5421931293387116e-003
      9.8347038008231372e-002 -3.0637340500309213e-002
      1.5815349793642397e-001 -3.9700305820280925e-002
      7.8720346664184621e-002 -2.3100460590636963e-002
      -1.8449166414247348e-002 -4.5858083335315021e-003
      -6.9833558082178738e-003 -9.2525613564947568e-002
      -1.0367563280941225e-002 -8.4379188514762102e-002
      -6.5110007621504318e-002 9.9254963087206383e-002
      -6.0945951227421871e-002 -9.6160614117623208e-003
      -2.6103471929572391e-002 1.1115175590149265e-001
      1.3722024407914016e-002 5.9117665422807907e-002
      -1.1081157863516470e-002 -1.7979339586832649e-002
      -1.9819342266828296e-001 -3.4011832932737969e-002
      -1.2833197723343707e-002 -2.2489371889109593e-002
      -7.3358913524321084e-002 3.4121740791114893e-002
      3.2624897546083623e-002 1.3235609646941097e-002
      -3.2038389221182323e-002 -1.0774971387607966e-001
      -8.8543888229486806e-002 1.1347320320659950e-001
      -4.2302345502315687e-002 3.0978132485948221e-002
      2.5659393434137999e-002 -1.2954791361685031e-002
      9.2625581264913479e-002 -1.2763184898039354e-001
      5.4192564103545122e-002 8.2036152693604106e-002
      9.6575595666668609e-002 4.9956692816924810e-002
      2.8896862891517761e-002 1.1020470870352563e-001
      -6.2234273951907143e-002 6.7603439167696247e-002
      5.6816422011287573e-002 -5.4576984464126684e-002
      -7.0095283441594328e-003 -1.6486335490365253e-002
      2.7386478862351221e-002 -5.4174843430964910e-002
      9.4073587152175800e-002 -3.2255691336140584e-002
      -2.7640768972836585e-002 2.3116510142054805e-002
      4.4961905379728079e-002 3.3759968734160851e-003
      -6.2737695693619445e-005 1.2535735481974822e-001
      6.1269467419155010e-001 7.6556383727265989e-002
      1.1284497696148497e-001 -1.0831082960325134e-001
      -7.8616398104691690e-002 -1.4980746702331027e-001
      1.2568159843924676e-001 -6.3251673795235677e-002
      1.3001502518622475e-002 -9.6154035261009130e-002
      3.9587670065164407e-002 -6.7351574865899197e-002
      -3.5230706724309412e-002 -8.7794845071060459e-002
      2.2141201915431862e-003 -7.5755423231451097e-002
      -6.3932870156503934e-003 -1.0484585965810678e-001
      -2.3286139863413044e-003 -6.6635592975998761e-002
      1.9651236442490241e-002 -1.3219072426528328e-001
      8.2149331865070618e-002 -7.9776272719876001e-002
      -9.0496572436930378e-002 6.0354405655770105e-002
      3.0095784415834968e-002 -1.8041296192921948e-002
      5.9501925493810226e-002 -2.8833578983747388e-002
      7.5251472628834405e-004 8.2232210242600551e-002
      4.9770521861042007e-002 -1.3966491210081383e-001
      3.9389754777665285e-002 -8.2495235421882432e-002
      -2.8947329988652407e-002 -1.9253664485310298e-001
      -4.5994905211079629e-002 3.1663585368568607e-002
      4.7526311251226815e-003 -9.7748411582340447e-002
      7.2439591949436999e-002 -5.3907930663176132e-002
      -1.4415965197160283e-001 -3.7958375368091407e-002
      1.5984615841759645e-002 -7.7564874168697326e-002
      9.8201290920676046e-002 -6.3318583179313853e-002
      8.6830360372115056e-002 -5.6425473061415675e-002
      -6.2508418007915123e-002 -1.2051351771554876e-001
      1.6429810049000754e-002 -4.3968740282148443e-002
      -5.8821464014028414e-002 3.0467298619831707e-002
      7.3694453830001255e-002 1.5254956004247400e-001
      -6.5066129636749670e-001 -2.8165456249919418e-001
      -1.4799736333229735e-001 -4.8376655426298739e-003
      2.1204782898890714e-001 2.0674157066504065e-001
      -2.1553787515260961e-001 3.4130685579887639e-002
      -1.9321447791483418e-001 1.3482110258901253e-001
      -1.9240884649548937e-001 1.7054114059180972e-001
      1.0147811769783308e-001 2.2480259856115339e-001
      -1.2509573223375270e-001 -1.4144091525910735e-001
      -2.0607703312186720e-001 1.3483811985158956e-001
      -7.7705864960713994e-002 -3.4151044745087338e-002
      1.9940389359526794e-001 2.7173739985324902e-001
      3.2251161524199837e-002 1.6137467870228156e-001
      2.6967603624877645e-001 8.3358488618648405e-002
      -8.7886001316841378e-002 -1.6082766224165276e-001
      -4.4408731272594058e-003 6.7198474204697350e-002
      1.2105034942855465e-001 -5.5507642195887892e-002
      -7.0402463988031303e-003 -1.2795634877371539e-001
      3.3160261094497150e-002 1.9233895548723759e-001
      7.4908298087373121e-002 3.4748899734079529e-003
      -1.6964295319091588e-001 1.5227345814422485e-001
      -3.0536924066439815e-002 1.4965360677270656e-001
      -1.5429218543682191e-001 -5.6134877626959616e-002
      -2.3560495364482580e-002 -1.4813499846226668e-002
      -1.7520626992680527e-001 -6.6626294311380008e-002
      5.1157371361462319e-002 -2.3511909909981091e-001
      2.1577459452324199e-002 2.2506373925589432e-001
      8.3036649889794811e-002 2.7150757419700594e-001
      -2.1329512637090914e-001 -1.6363784443198662e-001
      -3.2180588056611420e-002 1.1481121141227574e-001
      -2.8442654062383765e-001 -8.8380832062013831e-002
      4.8836620547102819e-002 4.7957693409064049e-002
      -7.0409868297011374e-002 1.2506774456019873e-001
      1.1582146835416432e-002 6.3788287266329666e-002
      -1.9393428245292603e-002 3.8562427733438820e-002
      1.1143009304767862e-001 3.2064389250349962e-002
      6.6346862943770693e-002 -1.2121567388333271e-001
      7.1140584605956280e-003 3.9158284558722660e-002
      -4.2396673098783214e-002 5.6646502702757838e-003
      7.9005009763040368e-002 1.6040527634227666e-002
      -4.4176751769516610e-002 -2.6963169259858703e-002
      5.2411881545174017e-002 -2.0221529431335355e-002
      -6.6399568881787524e-002 1.6336274458513236e-002
      -2.7620802985512373e-002 -7.9529303749533112e-002
      4.9928392422095404e-003 -3.1077916775720488e-003
      -6.7669255641796905e-002 -8.6079294475440923e-002
      -6.3888628583541995e-002 -5.2519780271832572e-002
      7.2331015780796787e-002 2.2055480147344261e-002
      -8.6647466710015220e-002 -9.1477838045818480e-002
      -6.6768553389766575e-002 6.0509751391225282e-002
      -6.0845568769635344e-002 -1.6544844727856636e-001
      -8.4655127713912773e-002 -1.2508129099016535e-001
      -2.2705054170139259e-002 1.2382390220302160e-002
      -4.6769818323334517e-002 -3.2843051861618414e-002
      -5.8948585077216072e-002 5.9908457302040259e-002
      4.7167621940021236e-003 1.7031570033663634e-002
      3.8169202788770874e-002 -1.2011696106313563e-001
      1.9172390439342622e-002 -2.0014218574054089e-002
      9.8315984214754501e-002 9.2917622204535394e-003
      8.4571134801990744e-002 -7.9793961613834813e-002
      2.8301759552890909e-002 -1.2708423103163499e-002
      4.3509975165028331e-002 1.0491730571509394e-004
      -2.8297175388920442e-002 -3.1052566829962679e-002
      3.4408044117553986e-002 -3.5726403200739948e-003
      -9.4261632556972702e-002 2.2669708901460205e-002
      -5.7340031164226757e-002 -2.6764525890952063e-002
      -2.2766536130759431e-002 -1.8287858886688504e-002
      -6.1056464138904150e-002 -6.2274141002974126e-002
      -1.1040830128105919e-001 3.1039569147383823e-002
      -4.0266681710500456e-002 -1.1920372419643011e-001
      -8.9322411152419484e-003 -9.3730459552180956e-002
      -2.5903479706024253e-002 1.7730642406691054e-002
      5.7845103029032743e-002 -3.2353838158996666e-002
      1.4772194986084867e-002 1.6977418449591993e-002
      1.2734515874170071e-002 8.4358054470446503e-002
      5.9314402148740800e-002 -2.5945390379660340e-002
      2.6505313401476431e-002 4.2692457425458255e-002
      -3.7338723397482274e-002 -1.6441018859634032e-001
      5.3208129453316419e-002 -2.7682918146160516e-004
      -1.7329464768746538e-002 -1.2069506922976249e-001
      1.1037863377403029e-002 8.8692924105908996e-002
      -4.1959497856221759e-002 1.5781606723515067e-002
      6.7973532676321405e-002 -2.3780767997966273e-002
      1.0854078712042073e-002 5.9009973211400557e-002
      2.5808179254978209e-002 -1.2708210979587600e-002
      1.4114315265503311e-001 1.8694024137486803e-002
      1.7288590896000625e-003 4.2112887913514509e-002
      -3.1683404890462126e-002 6.6426699977673295e-002
      1.0847666308672725e-002 -6.0824472501910691e-002
      -3.7932428153800095e-002 1.1583029308154882e-002
      1.0668633016505777e-001 7.1838544265775489e-002
      -6.1940731012301894e-002 -1.5561994535892123e-002
      2.0745658918189334e-002 3.1593751150223399e-002
      3.1168798477697612e-002 4.8393184667649324e-002
      -5.6675258277755325e-002 -9.9202413940296507e-003
      4.1688168298334154e-002 -7.2685552152085872e-002
      -5.8650466417605504e-002 3.0370630461076690e-002
      -5.8392070655465832e-002 -4.1628461148542198e-002
      -2.9523815502797375e-002 9.0372490811205838e-002
      6.3417737972906230e-002 -7.4790874322054309e-003
      1.5645159199950062e-002 7.8968486576323736e-003
      -1.7172681090719871e-001 -2.1212625286651958e-002
      2.6566982801542485e-002 -3.8607596038475495e-002
      -7.5867512411358515e-002 4.1978375833046470e-003
      5.1011125439062381e-002 3.2661128388026324e-002
      -2.3497731444610481e-002 -5.1156071299094649e-002
      -6.4444784435990735e-002 8.3768819378443535e-002
      -9.0345210824139977e-003 3.2575475396876649e-002
      1.3225693928181121e-002 -9.6556320713071478e-002
      3.9438191834597604e-002 -3.3405332989554212e-002
      7.6609314187417552e-002 4.0727224631766236e-002
      3.4461171234443810e-002 4.2211777122460069e-002
      6.5509964092236250e-002 1.1066781793617522e-002
      9.8381075024808213e-003 7.1724924185755753e-002
      6.7320014973716757e-002 4.9561800945627848e-003
      -1.2603340437714759e-003 4.1894395513374372e-002
      -2.0738044566180583e-003 -1.1680312798409734e-001
      1.2218855241336934e-001 1.3809569564682562e-002
      1.7671131048185466e-002 3.4333723317577065e-002
      1.4513368503657836e-002 -2.5471044155983381e-002
      1.5184949336081686e-002 6.4409594700129719e-002
      3.6470241578092366e-001 5.5777949542615668e-002
      5.5833708948636145e-003 -5.6499134037504194e-002
      -2.4945519075532913e-002 4.8993248866953214e-003
      -2.5911193725277854e-002 2.3160793613779710e-002
      8.9442385449361922e-002 -1.7804957785234662e-002
      2.2067622196311625e-002 -2.2918004326049315e-002
      2.8562947262346414e-002 -1.9581951031263960e-002
      8.7610270488605022e-002 -4.0691543400903550e-002
      1.2489149526884387e-001 -6.8861186809445918e-002
      4.6151143412477245e-002 -1.4090618860497473e-002
      -2.0874485166023377e-001 1.3950145426337265e-002
      -3.3956065917376800e-002 -7.3772978717355164e-002
      -1.0570622512836365e-001 -6.0745590176656199e-002
      2.5969721527342848e-002 1.2283664965043873e-002
      1.2729913713122615e-002 1.0029349332139474e-002
      2.4371618251609245e-002 3.1970360324031354e-002
      4.8975406805825239e-002 -1.8919977345325377e-002
      3.2343915398086717e-002 -1.3986071868765029e-001
      8.4759150324908022e-002 -7.4629269795791098e-002
      1.0235172405479723e-002 6.2665958526488749e-002
      6.4953113694058678e-002 2.3343471372186203e-002
      1.8397748530392409e-002 7.3166180345290210e-002
      -3.9571943673910225e-002 -4.4279619091629224e-002
      5.1694109401010116e-002 4.1551815721993353e-002
      1.2013189303802047e-002 -6.4444728496370368e-002
      6.4014069871808257e-002 -1.1077120913064455e-001
      -1.7649215055203584e-002 2.5504991984808736e-002
      5.3763255088990856e-003 3.0602164708697106e-002
      2.3525723259037439e-002 1.6005053710229085e-003
      4.5360435515059611e-002 1.6569328143221054e-002
      -6.2082743440164102e-002 1.4531768626551264e-002
      -5.0188282495673413e-002 -2.8571495524513386e-002
      -8.9878569177402352e-003 4.8246302822592152e-002
      -1.6407323504474332e-002 7.9180463823608788e-003
      -3.5125211375151386e-002 3.1210401717273135e-002
      4.1926225784910077e-003 3.6967338873493349e-002
      -3.2422740688120719e-002 -1.7758269131634172e-002
      1.4187729863009846e-001 -1.1941954377389255e-001
      4.8049646077198631e-002 8.1579755867460621e-002
      8.9566891633103704e-002 8.2985485449963037e-002
      8.0903601942812747e-003 2.1129684165213606e-002
      -4.4975623589013441e-002 -1.1305091982573498e-002
      6.7997245947855597e-002 -1.6402524669860766e-003
      -5.7116441362867173e-003 -5.7270261742584525e-002
      1.1414909573842242e-002 4.0535536842321383e-002
      -3.7620307896079556e-002 -5.0767434431107296e-002
      6.2386477649296369e-002 1.0601506899290969e-001
      3.1506172227778545e-002 1.4909846705634826e-002
      4.5840271269195716e-002 6.7609482284741687e-002
      3.5279114256463392e-002 4.1832361301601298e-002
      7.6761456358427446e-002 1.0757659777978398e-001
      -1.0972386270668665e-002 1.0840150369188274e-001
      7.0215387749062129e-003 -1.6881346441250145e-001
      8.9575093082456092e-002 1.3036450576425673e-002
      -1.2329189272523115e-001 -6.0657458797496934e-002
      4.0150018533987419e-002 -6.7120178325760062e-003
      6.5798482073936335e-002 2.3306226829377587e-002
      -6.3335292426807285e-002 4.3547391694568970e-002
      -5.4112062832714324e-002 3.7763374677950545e-002
      7.6337465537000507e-002 -8.8067889433157645e-002
      1.5589883394634768e-001 1.5453777735215172e-002
      1.3054348188516990e-001 -4.3097913821318855e-002
      2.3251544176066141e-003 -2.2789956649903994e-003
      8.8264906697665665e-002 -1.7508452689118697e-002
      -7.7863762282209578e-002 8.5750255419750787e-002
      4.4383953448960116e-002 -8.1966502338582228e-002
      -5.1781792856436880e-002 -4.0534142635944848e-002
      3.4984582515886833e-002 -2.5121453947721171e-002
      -6.7873797163604643e-002 -7.6695429973614074e-002
      8.1769258155356059e-003 -1.5573304629019548e-002
      7.0901726381095195e-002 -3.8453165757959450e-002
      1.0738223725511262e-001 2.9892243993471915e-002
      8.1670812736373097e-002 4.6469647977691743e-002
      -3.9659941203247083e-002 3.3641943493408426e-002
      8.2269047949862908e-002 7.7844949160888452e-002
      5.8627933751348255e-002 -5.0533436806588672e-002
      -2.4462960991372396e-002 -8.4051931150837783e-002
      -4.6299123921485401e-003 4.0660146295498092e-002
      -7.4427091632064693e-002 -3.2080006197886257e-002
      2.8383802691455125e-003 -4.3013475304210021e-002
      -5.1598834492744702e-002 -5.9054156393124772e-002
      2.5427829980916871e-002 -7.4928834352313289e-002
      4.6668144747101320e-002 -3.6022138238521788e-002
      1.3190473112308674e-002 -1.6449762243756220e-002
      2.3855219965101541e-002 8.7294131243404127e-002
      -4.5748944777352751e-002 4.6515826740045861e-002
      -1.0439139407422249e-001 -4.5924768878562658e-002
      3.5768975429071675e-003 -3.0088126214731233e-002
      -4.4982651244150240e-002 -5.8928107841757830e-004
      8.8284359320401309e-002 -8.1624604540490295e-002
      -1.8275785112507725e-001 -1.1905731604993430e-002
      1.0998032011869378e-001 -3.9236224911803376e-002
      -7.6987324528624737e-002 -3.1183652485162049e-002
      1.1268805883162102e-001 -1.3912312759685021e-002
      -6.8352047267665084e-002 -1.4183336339185240e-002
      -1.5906522661056004e-002 1.0762636608398472e-001
      -4.1023931441085522e-002 -2.3513951954890335e-002
      4.9226214656720529e-002 -8.9709279978093817e-002
      2.8102473413597458e-002 7.1350255334757973e-002
      4.9032549087595870e-002 3.9816730095951720e-002
      -2.5264242217787600e-002 -1.2803845898125428e-002
      -1.4864108082236090e-002 -9.0762439615113179e-003
      -4.8793942966607211e-002 7.2304178760905335e-002
      9.3285616283702456e-003 4.8872115587547907e-002
      -6.0446349239468521e-004 -2.2845876310983209e-002
      -4.7168935073673791e-002 -9.8694355394961311e-003
      -6.6209605448962483e-002 2.8962546466087469e-002
      -6.4070604707893771e-003 1.3865563027688831e-002
      4.0422586356527131e-002 -9.1244157140023430e-002
      4.7516891120224336e-002 9.3652818542351704e-002
      5.9538637718539192e-002 6.0603751569923592e-002
      1.3702032525330397e-002 5.7880204530056559e-002
      -3.5964557561992710e-002 -1.8871452741786809e-002
      -1.4196693433672259e-002 -4.5552513370436885e-002
      -7.1904854028232032e-002 1.1923396731478521e-001
      -5.4307843871891533e-002 2.4456162187092459e-003
      4.3474372815116701e-002 -5.1540119164859136e-002
      -8.0527618192705666e-002 9.2095541967219710e-002
      -3.1399854958515744e-002 -9.0055513541544511e-003
      -3.0621247185066819e-003 1.7325072242959705e-002
      3.0074047149148991e-001 6.7227376399858763e-002
      -1.3638547356048453e-001 1.9673959398856539e-001
      -5.1129621592153653e-002 -1.3625808192460875e-002
      -9.8591524809259076e-002 -7.3549109150399736e-002
      1.7618088580833813e-001 -7.2119112128105622e-002
      -2.1531370510159468e-002 -2.1321288990043284e-002
      3.5385635728115261e-001 3.6604719021343174e-001
      -7.6970200057991281e-002 1.5634791203089488e-001
      3.4972931923737370e-002 -1.1016248238125564e-001
      -1.0576203295092716e-001 -1.1660779598188115e-001
      -2.7268243541772451e-002 4.8747066267157114e-002
      -1.9632088571167383e-002 -9.3162894679278616e-002
      -6.9452246995170178e-002 -1.2742174951921145e-001
      8.2058633646942866e-002 -2.3804546236581625e-001
      -1.2320305600523510e-001 -1.7579763188562936e-001
      -3.1049321664764616e-002 5.0369921615263602e-002
      2.2868273911846260e-001 -3.8419637813383027e-002
      -6.1606546680381929e-002 -4.6383555393060827e-002
      -3.0379965696782025e-003 7.2002092791559238e-002
      -2.9492961139732476e-001 -1.6882119219220668e-001
      -4.3017223793206147e-002 -1.6295265523565150e-001
      -2.5719972516735318e-001 -4.5250036197562538e-003
      -1.6610145052437916e-001 4.5377416687553448e-002
      -2.5965331273933396e-003 1.8080909179052281e-004
      1.0134184578490212e-001 -2.3226315313980564e-001
      1.3758824880815887e-001 -1.4597189754350846e-002
      -1.2865951379976237e-002 8.8251638983315298e-002
      1.3644732054868891e-001 -7.6840533460301674e-002
      2.7067664774523692e-001 -9.5763731824835510e-002
      -9.2809649408379449e-003 9.9648354150183666e-002
      7.3072864167133467e-001 -1.9171789332594724e-002
      5.0541391372647716e-003 -5.9595793991001386e-002
      2.8553187440181321e-001 1.3907771968867022e-001
      -4.2558958434266284e-002 3.2225688541486047e-001
      1.2700411888392293e-001 2.2003061391095222e-001
      1.2731795082460834e-001 -2.2749684760384481e-001
      7.5080328915567124e-002 6.4074161422927212e-002
      -1.5221403544533521e-001 1.0686896785046426e-001
      9.0213964965808802e-002 -2.6857117892665727e-001
      4.4906980372282339e-003 -4.8901045400381878e-002
      -1.8559505323155626e-001 -2.2992168796431487e-002
      -2.4300313275409931e-002 -2.5087628725267062e-003
      8.1807448388034889e-004 -1.5539691078665552e-001
      -1.1041892166452807e-001 7.3974697489999894e-002
      7.7824110037278321e-002 4.0349860550499828e-002
      1.1535892909922701e-001 1.8813205165176365e-002
      6.0532466298899697e-002 -1.6240836832734165e-001
      2.3828080912688850e-002 -3.5110582867020590e-001
      6.4130578081426928e-002 -1.4972511263736721e-001
      7.0082586257542729e-003 9.3692555751337003e-002
      9.5820966463777326e-003 9.7783164494936473e-002
      2.9778325373108289e-002 -4.9764457132090906e-002
      -7.0046826360647650e-003 1.2188830504569986e-001
      2.4263684768850040e-002 2.1543501315216432e-001
      1.9364223824176741e-001 -1.7923911222751227e-001
      9.8991976125392109e-002 -3.3453663336072575e-001
      4.0678550277552315e-002 2.9725174777087696e-002
      1.9663740264380034e-002 -1.8790663365291147e-002
      -2.0757346981404190e-002 2.0445210605382255e-001
      -1.2913944256967482e-002 -8.9220970107576736e-002
      3.6791156575719125e-001 1.7277666112889958e-002
      1.4428633560725815e-001 -2.1530402678215901e-001
      7.8692725805860078e-002 -6.2100929493700885e-002
      1.1188526099779786e-001 -2.9727208994936544e-002
      -1.6531886498236836e-001 6.5539542445769011e-002
      5.9536289579401448e-004 -5.9175370996268177e-002
      -3.5547394849891917e-002 -1.8544669948643955e-002
      5.7412186444705665e-002 -3.6349789320607374e-002
      -7.1846348531980200e-002 -7.9920572269836593e-002
      3.1906196882647397e-002 -6.3614912597110787e-002
      7.8135874292591695e-002 -5.5977385878089987e-002
      1.0107962821275705e-001 3.8674483248529512e-002
      6.6619999180024647e-002 9.6593077349863832e-002
      -6.8309744543060172e-002 4.2987870179131429e-002
      1.7198216738499236e-001 1.0327335697934595e-001
      9.4445587543561221e-002 -2.2116345962945476e-002
      -3.4012389707623145e-002 -6.3840030713299800e-002
      5.7051050037537111e-002 1.0018936683168084e-001
      -2.6496554463124024e-002 -1.0506428414226121e-001
      -6.3316717319392242e-003 1.5154698861483262e-001
      1.8676981946098934e-002 8.7179439587899716e-003
      3.3468634789309247e-002 -9.7235088579857298e-002
      -2.4468630572180419e-002 -3.9584574147766692e-002
      -7.9316770644743007e-003 -2.6715390745213827e-002
      2.3038479950878377e-002 -6.4892577692586663e-003
      -2.2378185736579254e-002 1.1082228267523354e-001
      -9.5678865038636915e-002 -6.2614904509358582e-002
      -7.1851867593239457e-002 -7.2332972278653845e-002
      -1.4623851691538692e-001 6.4807052621267430e-002
      1.2708417784883361e-001 -3.5581516846251316e-003
      4.4620871425304698e-001 2.5341168417852222e-001
      -2.1867488037369970e-001 3.1464736277744115e-001
      2.7786610898152314e-001 2.1016723384196942e-001
      -2.5393948375822917e-001 7.1712409639192620e-002
      2.3357146366593776e-001 1.4887257285982736e-001
      1.9300725868518731e-001 -2.7408201845346680e-001
      -6.5939577454443371e-002 -1.8863824605104305e-002
      -1.9656333966161208e-002 2.0270913988094993e-001
      -4.3348647327218465e-002 -1.5031187566600190e-001
      -4.5370555956099533e-002 1.3490369913623260e-001
      2.8894260496504959e-001 -1.1758086245615480e-002
      2.0827294396227328e-001 -1.2131530681424486e-001
      1.9080358895198762e-001 -1.5408699494503858e-001
      3.8100757560686316e-002 5.0865752619898938e-002
      -8.4292176306027131e-002 6.3575344621912069e-002
      1.7849624298782632e-001 5.3624314212375110e-002
      1.1150893797771778e-001 1.6550219501136493e-001
      2.1991615009084581e-001 -1.4315630607227947e-001
      -2.4473860190358818e-001 1.6111492722002788e-001
      7.0375120270463012e-002 -4.4174440325959569e-001
      -2.4848918080222196e-001 2.0869892171035601e-001
      2.1833199140002649e-002 -3.1122500357152433e-001
      1.0952446238936595e-001 9.2685181193896821e-002
      1.4576446163873916e-001 2.5417760027579600e-001
      -1.6107328190492983e-002 2.4279493930548260e-001
      7.0092995234150770e-003 -1.2723883170206968e-001
      -1.0492530545700260e-001 2.0559505005965556e-001
      3.5773504340662349e-001 -2.6082987985977191e-001
      -1.4473946655446401e-001 -6.9463423152436813e-003
      2.9352398589566120e-001 -1.7634995841802714e-001
      -4.8914634787210393e-001 -9.4030707150300954e-003
      -4.7654371451752393e-002 1.3176460007796587e-001
      1.4563592207498965e-001 2.1972532689260346e-001
      -9.3341421624612675e-002 3.5900704136073568e-002
      3.2140609807768013e-002 2.4589452949557458e-002
      -2.4276312980151656e-002 2.3226072624892530e-002
      3.1413957346609546e-002 9.3448164275962229e-003
      -2.7815741508589346e-002 -4.7223780473061347e-002
      -2.6325846421934408e-002 1.5823860753839702e-001
      -2.7549318733703754e-002 4.0790434232789288e-002
      1.2094712085637555e-001 5.5406057627163455e-002
      2.9931410921478444e-002 4.8704579087482096e-002
      1.1821760050459199e-001 4.7874906984494314e-002
      9.3803365780376624e-003 9.7462127800951245e-002
      -1.0657756609901584e-001 -3.6127692179867825e-002
      -2.3086304309544493e-002 4.1940297468383125e-002
      -8.0138334072908893e-002 1.7904069525075672e-002
      5.0696117965483879e-002 1.2411611020318418e-002
      -4.5011072862562576e-002 -5.5298948459525439e-002
      9.2749728185402794e-002 -6.8463560966608135e-004
      -1.4570020739286327e-001 1.4036104043063202e-001
      5.1926819504840030e-002 -1.1075732520365045e-001
      1.0570810564737516e-001 5.2890279733565061e-002
      -2.0739563659955166e-002 4.0269585002114319e-002
      -5.8530474947639882e-002 6.7499532297904299e-002
      -1.3029210691910073e-001 -4.7317208496787611e-002
      8.8435108433702170e-002 6.4959692147438686e-002
      -3.1049498964896952e-002 1.7208098528792900e-002
      -2.8140594893697326e-002 2.4643815500354341e-002
      -1.0382866417953268e-001 8.5608814668184392e-003
      -3.1054449979020092e-002 -1.5960023504576610e-002
      -1.9793748215119446e-002 1.7442402050841941e-002
      -2.5176483901455719e-002 2.7884485150560034e-002
      -3.3215851276371902e-002 -2.8141914186660771e-002
      3.2520651818278443e-002 -4.6596499005168074e-002
      -1.2808148167172436e-002 -3.7429200981413551e-003
      9.6976338853898059e-002 1.1517922275615998e-001
      -2.0707282773295782e-002 -4.7578489361634661e-002
      6.7718649366186587e-002 7.9158181735246122e-002
      -2.3806148457575983e-002 -1.3254199146154992e-002
      -8.3975666962869164e-002 -8.8041194065591813e-003
      -4.1804275797818639e-002 1.9491796806995403e-002
      -2.4995241731135379e-002 4.3396397217390241e-002
      2.3859151557619571e-002 2.4626866797497472e-002
      -3.9307256755708252e-002 -6.3555441615113950e-002
      -6.1962292069153165e-002 -4.1544238786645704e-002
      -1.6894477261084236e-002 1.6422825725897129e-002
      -4.2539857252298932e-002 -4.5175054325984759e-002
      4.6035883220861648e-002 1.0458526603934313e-002
      -1.5074124777344126e-002 2.3254601711290936e-002
      -8.8754077247306072e-003 -3.0073383806258350e-002
      -4.2019085438914534e-002 4.1412879446869832e-002
      7.8316591101980845e-002 -8.6712088922906355e-002
      -1.1105138206903323e-002 -3.8828270975212506e-002
      -1.6931698538498009e-002 -1.7765910598530020e-002
      -5.1493879494127030e-002 -8.1262814473384695e-002
      7.3916079668712970e-002 1.1455511527316810e-002
      -4.0147166891608632e-002 4.5180924862556121e-002
      5.8903323830306983e-002 1.0787499931509377e-002
      -8.4676892355283251e-002 6.3974725133189081e-002
      -3.5554218020551287e-001 -1.1507261094771841e-001
      1.5905117179889437e-002 -6.4226632202071574e-002
      -7.3038893868980118e-002 -5.8067823658814778e-002
      3.1121070983273907e-002 -7.7570143406651970e-002
      -8.1101199898696727e-002 -7.9067185608469509e-002
      -8.4925307606026068e-002 1.0267479555682181e-001
      -7.5962319513884352e-002 -5.6362140665847986e-002
      1.1102781036824258e-001 -7.4842677156388135e-002
      -4.6373251016463425e-002 4.7256398843983943e-002
      6.9026639968384849e-003 -4.8143794072793650e-002
      -1.7597090163367846e-002 4.7596745374972417e-002
      -3.4630861112510139e-002 2.4943799197590075e-002
      -2.9068012890604868e-002 5.5905083105031651e-002
      2.4952496192034407e-002 5.6651028199372871e-002
      1.9369285425658231e-002 6.2425392459423461e-002
      -6.5292759357525433e-003 -2.7118638481581064e-002
      -7.9547543002029777e-002 1.2916156840943391e-002
      -3.9669412333987658e-002 1.1517774518972806e-001
      5.9463043016303181e-002 1.6078372425167842e-002
      9.3379718658274533e-002 1.1001039557782585e-001
      8.0909822432756975e-002 -2.6141688721999959e-003
      4.1391161841258219e-002 6.6236680239327994e-002
      1.0732638121502712e-001 -4.2700473461132420e-002
      -6.0464985809842983e-002 -1.1055382500720601e-001
      -7.1240830846894171e-002 -4.3138157200732115e-002
      -3.3795815507710165e-002 1.3196191687081729e-001
      -3.2943449187547859e-002 -9.0475629405034896e-003
      -7.0303610288967089e-002 3.4457463842619703e-003
      -6.4842242021856247e-002 -2.2687039468944344e-002
      -7.5134377268274738e-002 6.8802292042239116e-002
      9.8084663079954129e-002 -2.2701103359066777e-002
      -9.9934574581799773e-002 -5.8618663802993687e-002
      -1.7669121985612674e-001 -2.5323985598428250e-001
      -3.8271461322451655e-002 -1.2663875181034403e-002
      6.9359377062701219e-002 -6.9322248792134486e-002
      7.8463162247851426e-003 6.9708166795467374e-002
      6.0733368789986572e-002 1.5576007758472252e-001
      1.1120030055862484e-001 -8.9716841534948286e-002
      8.7465776786141924e-002 2.4760217207443765e-002
      5.9169343771666594e-003 -6.5172674973656822e-002
      -1.6927137580882320e-001 8.7577207560029818e-002
      -1.4567137830284396e-001 -5.6841752876962658e-002
      -1.9153155772903988e-001 -3.8467929439758478e-002
      4.3605460280713076e-002 -2.0394645949530052e-001
      2.7381060960297347e-002 4.1384810351933685e-003
      -3.2467404642342851e-002 -1.6632664007094500e-002
      1.0249766590902101e-001 6.9176818012476299e-002
      -9.2119743888519248e-002 -3.2314272788253162e-002
      1.1487774292758580e-001 9.8273840200582163e-002
      -2.1224930162056596e-001 5.0951244403678174e-002
      1.5389965422061713e-001 -1.5333292187188471e-001
      -1.1622195268833234e-001 2.8326757263083840e-001
      -2.3562182332955289e-001 -1.2418656577479653e-001
      -8.2090675220287991e-003 -3.5880467083546953e-002
      -2.4517594733479576e-002 -9.4510589919519800e-002
      1.3921846180257674e-001 1.9785642874304413e-004
      -1.0164064615428520e-001 6.7855366631856553e-002
      3.4526437805123102e-003 8.0758151193006094e-003
      2.4646422347309380e-002 -8.6166254781540677e-002
      1.0671242149923563e-001 2.7377227785244488e-002
      8.1448020745822330e-002 2.9267974132340942e-002
      1.5754503392300287e-001 -4.2752432092335722e-002
      -1.6317239821759832e-001 -1.4914736785119814e-001
      1.1818804119745999e-001 -1.9786677515905338e-001
      -1.0947042273541766e-001 -1.7134611656427329e-001
      -1.0942220387346553e-001 1.8826592041093615e-001
      8.8923686207731500e-002 1.6996523533340788e-001
      7.7593291592814431e-002 6.0081814388662294e-002
      -2.2133419654230546e-002 1.1970311464464406e-001
      7.7915141905316343e-002 4.8264149257114281e-002
      -4.7942738873173942e-002 -8.8811076455001164e-002
      5.8756873886056528e-002 -2.3766937278540942e-002
      -5.7027058228792822e-005 1.5974395458099316e-001
      -7.6844400118112090e-003 -9.4892155536845643e-002
      -1.0408549116494664e-002 -7.0326222728926677e-002
      -8.4262007674282949e-002 1.0179499527943035e-001
      4.2193311098398932e-002 4.3722913329452842e-002
      9.0766888833646100e-002 7.7916130558846344e-002
      3.2351728567672752e-002 -8.8265685416703682e-002
      -9.3002133903006143e-002 9.5657092531737625e-002
      5.8409242164209202e-002 7.1977346835687295e-002
      -8.4979081190158332e-002 9.9052300354949691e-002
      -1.2734415293641152e-001 -4.0547499509560124e-002
      1.4811045997071987e-001 -1.3259810076309519e-001
      -4.3727077516871701e-002 -8.6400739626717724e-002
      6.2946221295988827e-002 2.4512041498387500e-002
      9.4199703710752231e-002 -1.2381817724107781e-001
      -6.5179437112455441e-002 2.6428633000140745e-002
      3.4538569951482259e-003 2.3708112107101189e-002
      6.2503315829841102e-002 1.3981035265641228e-001
      2.4238214311732312e-001 1.6245617135076240e-001
      7.7401271547923270e-002 -7.9315643209837278e-003
      2.1473755100836784e-002 5.7477518599049336e-002
      6.2741101579627950e-002 1.0959961474027001e-002
      7.9689783369698008e-002 7.9794342203742836e-003
      1.0380636987652070e-001 -1.0537490887202126e-001
      -1.5091088894725294e-001 -8.7701625275915712e-002
      5.0947624688125762e-002 -3.0421809429416857e-002
      6.9577864086174723e-002 6.0932644326832569e-002
      2.1574187627542867e-002 8.6970058118991070e-002
      1.9474039191354754e-002 -1.1927517882481557e-001
      4.3628002561687203e-002 -3.6817240820226159e-002
      -1.7983812067340475e-002 -3.1080402470996119e-003
      -6.6423881351043339e-003 6.5581831323274262e-002
      2.7990894375992999e-002 2.8652891110383764e-004
      -1.9061250419128456e-002 -1.8660257753882931e-002
      -1.7085311250771142e-002 1.3718297009380101e-001
      3.1426916967468570e-002 -1.1000181122184265e-001
      -7.0468195710576179e-002 -3.1968223691015138e-002
      9.2141441936143292e-002 -1.2463590191076453e-004
      -2.3757277727473849e-002 3.3029786635149501e-002
      5.4496057364033443e-002 -8.6106636860475115e-003
      -5.8937943329492645e-003 -1.1767964849517694e-001
      2.7747706950201262e-002 6.2451670382063472e-002
      -9.4147600568220913e-002 8.4973172896460281e-002
      -3.1312937360742726e-002 -1.6253711627228395e-001
      8.2306534616741513e-003 -1.0166994554071847e-001
      3.9477908075113012e-002 6.0157322584505415e-002
      -2.6389567874600183e-002 3.3059747587573331e-002
      7.7434242249588586e-002 -2.9668648720124629e-002
      -2.7866188255979407e-001 -1.9586274755654481e-002
      3.7060221508397537e-002 -2.9064197167083496e-002
      -4.3391671685865947e-002 2.7651911038622964e-002
      -8.8068900715667139e-003 -4.6590122011162062e-002
      -2.1201718962172909e-002 -1.0435094387662228e-001
      -1.4826866886765270e-002 1.1992061140302819e-001
      -1.0245289344565967e-001 -1.5335808229839556e-001
      4.3398993744000476e-002 -1.1791849804047143e-002
      1.7567621967379193e-002 8.2513976640404940e-002
      7.7190223592025792e-002 7.5641575019047919e-002
      -1.1014213485122445e-001 -4.0497461230698127e-004
      -5.9068018567066220e-002 -3.5833496007604279e-003
      -2.4747489641765614e-002 5.6753911320310726e-002
      2.4659372175751940e-002 8.6078122673907853e-002
      -2.7470143977365330e-002 5.4871811556560610e-002
      -2.5216257767111526e-002 3.8880643248634203e-002
      -8.0585207887320098e-002 3.2031979698754896e-002
      -4.3404894198145836e-003 2.4307664500708596e-002
      7.2394871715782003e-002 1.6238523814928990e-002
      1.7203730233982525e-001 5.7943174073385086e-003
      4.1096979551818291e-002 8.7344412620948136e-002
      1.0834323037295161e-001 2.3016200368958246e-002
      7.3803160905561729e-002 3.3957425528804361e-002
      8.8719089495246109e-002 6.6154579508990070e-003
      -4.5295609510732991e-002 -2.1067151360496496e-002
      3.8924540315509785e-003 -1.2942876773828186e-002
      8.1199171637795053e-002 -3.3803956085110796e-002
      -1.9010702456362029e-002 4.8674980861718932e-002
      -2.7686801180537381e-002 -1.7537307769884897e-002
      -6.4109586857745132e-003 4.5289585009408495e-002
      5.5922792203409977e-001 -8.7202869152815360e-002
      1.7993305630024592e-001 -2.1006062552673838e-001
      7.3454358345353937e-002 1.7096017067529900e-002
      1.6591991111279933e-001 1.3301735369910844e-001
      -7.1612464964314851e-002 1.3381274245752772e-001
      7.6475895002278541e-002 -1.5465638719491936e-001
      -3.4374506589873385e-002 -3.7673682411872585e-002
      -2.5481726769301726e-002 -9.5967575720233358e-002
      1.1286258986060269e-002 -1.2014032664786672e-001
      1.8574614819281299e-002 -4.6240153109930147e-002
      -1.2019571393224854e-001 -4.4970483705307741e-002
      -4.9277814519765824e-002 9.4244301887073043e-002
      -5.6414079149338797e-002 -5.2318425268211094e-002
      -1.3119963709831697e-001 1.6300546842207799e-002
      1.7560712616627619e-001 9.4182267985801066e-002
      5.3872365646087793e-002 -8.2257048791442092e-002
      -1.4273535321178775e-002 -1.8787250507445097e-001
      -1.0118141490381263e-001 -9.8346511181445245e-002
      1.2134220551827156e-002 -1.5275156747216240e-001
      -1.1220777550842470e-002 1.5909150902885924e-001
      5.1907972058393037e-002 -6.1297184660690514e-002
      2.7426884007399458e-002 -4.5078219124530604e-002
      -8.6851227619238455e-002 -9.0607456129641703e-002
      -6.5900263214368843e-002 2.4084137142919581e-002
      1.4743537772981291e-001 -4.9940521950184641e-002
      3.7183896907824955e-002 -4.7920299248415316e-002
      -5.9702485349676544e-002 -9.3228800304283807e-002
      -1.2049791271994897e-001 9.2306691858169740e-002
      -2.2627025609591317e-002 1.3706249722111297e-001
      -6.1245012055254247e-002 -9.2595826113430493e-002
      -9.9889422285267204e-002 -3.3969596715981855e-002
      1.7084933398581548e-001 -4.4446153944936923e-002
      -6.2822181857667747e-002 -7.1512149581889839e-002
      2.0205020299489773e-001 -1.3729741741105306e-001
      -1.3342256268834202e-001 -4.8004463546243548e-002
      -5.1147588134269291e-002 -4.7934129859969763e-003
      6.1015484898700643e-002 4.1742494495830486e-002
      -1.0537933850511638e-001 -6.8527740126227990e-002
      -8.1572315737556925e-002 -7.7872180721717352e-002
      -6.6275047289024974e-002 -9.2251171965961734e-002
      1.5350243174394740e-001 -1.2739734323155896e-001
      4.6009150836170611e-002 7.1793351529778462e-002
      4.4209330116083051e-002 1.1871230476370581e-001
      -2.1534044666993650e-002 -5.5037858745628353e-002
      5.4998850173570667e-002 -6.6668904934774634e-002
      -9.2377258114854657e-002 5.4862788439007347e-003
      -2.2030326181169554e-002 -1.3029140664334740e-001
      -1.0831089761909357e-001 1.4004906815192253e-001
      -8.9881856881265598e-002 -1.2994857270144058e-001
      -1.5385983648939064e-001 -1.3284928773410665e-002
      -2.0636106152647528e-002 -1.8194502177507910e-001
      -4.6118789109516015e-002 1.8232256518038208e-002
      -4.0460748999211774e-002 -4.0727634922456027e-002
      -8.9073124686651184e-002 -1.8895447479701113e-001
      1.0887798814529168e-001 1.0159550610946501e-001
      -4.4045804466621229e-002 1.5393374996313047e-001
      -2.8441931562652886e-002 -1.8299094008272007e-001
      -3.0073951328256996e-002 6.1829671780084881e-002
      4.2924075782600497e-002 -3.8905322029214061e-002
      -1.5897543761755221e-002 1.1527162400025051e-001
      1.1342423137520097e-001 1.3594825548298828e-001
      2.8405841923988876e-002 2.8828874116760370e-002
      -3.4388781937461872e-002 -1.9885582816481926e-002
      5.0149169329575180e-002 -8.7347521019926502e-002
      1.0518907444101666e-001 -1.6084844247189398e-001
      3.5353199123511890e-002 -5.9981117497729330e-002
      -1.5795587786408949e-001 -1.3757446919392413e-001
      -8.3011397935502818e-003 6.2012332543779004e-002
      6.7958535145130824e-002 -5.2036080865907434e-003
      3.1796366933408409e-003 -9.5411441960640397e-003
      -3.6416725762114646e-002 -1.1695916011428983e-001
      4.6918645777257871e-002 -7.2659639537338366e-002
      -6.0689604402338046e-002 -2.2786820926578482e-004
      7.8568590442425937e-002 1.3628125443155944e-002
      -3.1734177142372942e-002 -9.7300107261749855e-002
      -1.2178630380788383e-001 6.1666655991142454e-002
      -2.1313414286425258e-002 -1.7228165020667031e-002
      2.0280386444503596e-003 1.5704502230749044e-002
      -5.3505420586416504e-002 1.4796711822368247e-002
      -3.2479426612927417e-003 -8.4446882980620655e-002
      -1.0932998334217802e-002 -8.0824302757562860e-002
      7.9565866583667863e-002 -2.1070995812698536e-002
      -5.7545896517746969e-002 1.5054490923349541e-002
      6.7268670274714185e-002 1.2107550921570353e-002
      -1.4339854205804249e-002 1.5852344597018703e-001
      -1.6530431627911072e-002 -4.4513025331631068e-002
      4.4239856808805891e-002 -1.1062078455396028e-001
      1.2053669012143324e-001 2.8049410453803155e-002
      5.9239355108618170e-002 -8.7917104279330749e-002
      1.0594857713161455e-001 1.0804128452537212e-001
      -1.3415109157782637e-001 4.0511040135734894e-002
      -5.4104911224532011e-003 8.1213706954995538e-002
      9.9965154052899213e-002 6.4275408752039645e-002
      -3.2617069805494461e-002 1.4272617553226933e-002
      -5.8267816630743492e-002 8.2376195989369794e-002
      1.6767720097093586e-002 -6.2984639456098002e-002
      -7.5802427936150496e-002 -1.0136366589896934e-001
      -7.9339997666880061e-002 1.1659735168191573e-002
      -3.4769904117035871e-002 4.0669316011718193e-002
      -1.7630479174832486e-002 3.7967809205172717e-002
      7.1765315107718969e-002 -2.8608074534076593e-002
      6.8119241995142618e-002 2.0770917147572399e-002
      6.0712016300751667e-002 3.9961330350478171e-002
      -1.4394028562411896e-002 1.1280845868228219e-001
      -5.1111707947469269e-002 -4.1212520411434056e-002
      6.6765529256019142e-004 2.6768339157706690e-002
      -4.7613404115038033e-002 1.7066534342620791e-002
      8.0852492491773245e-002 -1.1919400611697877e-002
      -7.6912936939986576e-002 7.0332199202652731e-003
      7.0209988705977180e-002 2.8429826948958825e-004
      -1.2342942950935858e-001 1.0191038611295435e-001
      6.4361223175138940e-002 -1.2408578499271469e-001
      7.8466069641734568e-002 4.8410840040575227e-002
      2.3784136255332898e-002 2.7428203728653330e-002
      -1.1970222766394638e-002 2.3281080051922007e-001
      -1.3186021658797190e-001 -3.1476413573155781e-002
      5.1500415959902651e-002 1.9687280777261093e-003
      -5.0477216029832656e-003 -2.7816423321916004e-002
      -6.4832568359943235e-002 2.4748691998407017e-002
      4.9014983708271072e-002 -5.1761152549741646e-002
      1.6062883277066703e-001 6.1930754168849061e-003
      -9.1028064286218777e-002 -8.4684250814198045e-002
      -5.2387662009956487e-003 2.4958659551517650e-004
      -6.1461341090919976e-002 5.8936129447895988e-002
      3.8084904160056693e-002 -3.2319811076380621e-002
      3.1986470593447724e-002 -4.3694837732522432e-002
      -3.4079411057329853e-002 -5.0343641068202868e-002
      1.0117310552427405e-001 -1.9254832830476677e-002
      9.2550214994635338e-002 -1.8609308992844423e-002
      2.9247235550355900e-002 -2.3486843681511872e-002
      -1.2825331074850371e-001 3.7221385701589116e-002
      -9.1671319678784155e-002 -4.5320507346091277e-002
      -5.6786216940990217e-002 -9.3758933247944612e-002
      1.4027182476551471e-002 3.1398645649274207e-002
      3.6719296092831040e-002 -4.2822605393672891e-003
      3.8394056522746994e-002 -1.4117251749103535e-002
      2.1266298100424741e-002 6.8283783558113528e-002
      -1.0257016195829372e-004 -7.8564623769729780e-002
      8.3662877149719497e-002 8.7622086423222542e-002
      2.9147563741352966e-002 3.6674331790100358e-002
      6.6965831482164534e-002 2.3863797830101799e-002
      1.5196557594037825e-002 5.8261056248782694e-002
      2.0398020517244562e-002 1.8231427842134696e-003
      1.6720756257167596e-002 6.9428386165886341e-002
      -1.1551439428737501e-002 -6.2133440886771911e-002
      5.3210524675412436e-002 -7.5886034184429393e-002
      -3.9338270272445144e-002 6.4284723569598828e-002
      3.2018123122094705e-002 2.7442604626319120e-002
      3.3335557388903321e-002 8.6515367494298511e-003
      2.5493514987660691e-002 -3.1907576215363291e-003
      1.6870893761053779e-001 -7.0039956001292272e-002
      5.1042459037925661e-002 -4.5210138775565761e-002
      -2.9647102929717026e-003 -4.7512855285751554e-002
      7.5881502845409135e-003 4.2457186438555138e-002
      -2.5919294793069481e-002 -5.5468048578961281e-002
      -9.8022060800193295e-002 7.3667317823353520e-002
      2.1103954491544266e-001 2.1551125498212093e-001
      -5.2872064726684986e-002 9.0822223781231434e-002
      3.6014227393197595e-002 -5.1224759750904993e-002
      3.0940855996670732e-002 7.4327665624692710e-004
      -1.8374921454696672e-001 -5.5449765782688717e-002
      -2.5597372398146481e-002 2.7929574626257801e-002
      -1.8390317170814231e-002 4.1612821454048543e-002
      -4.5742699856449388e-002 -2.0503414264884517e-001
      1.2620579765135760e-002 -2.4733376772016643e-002
      -9.2643603753459147e-002 1.1115579143496218e-001
      1.7771624066164940e-001 -5.9362603127039885e-002
      4.5644865680253034e-002 -4.3438004056279393e-002
      7.5996825846163574e-002 -9.1254598883507967e-002
      -1.5298074080838425e-001 9.5606097901069345e-002
      8.9399181770315209e-002 5.0300615617082392e-002
      -1.2318531042029340e-001 1.4262121139202028e-001
      -1.9339065390379945e-001 -4.9254462584215328e-002
      9.1625152208299920e-002 -2.8349788152700381e-002
      9.7676817908749783e-002 -2.6540761693544712e-001
      1.6056412017591029e-001 -4.8037768189532974e-002
      8.7401998020848498e-002 -4.8867175168210715e-002
      -6.3414295400703757e-002 3.0464322570225515e-002
      -1.8132083662650796e-003 5.9887463338896357e-002
      -4.6216568402066949e-002 9.6163357955049128e-002
      7.5325872943425992e-002 -1.0540108242541214e-001
      9.7246772464323422e-002 -8.5200617477244625e-002
      4.0351446016602399e-002 5.6840657632359910e-002
      -3.4651577513750559e-002 3.1674327940202716e-002
      -4.1824537426977948e-002 2.4170327847824951e-002
      -5.7866267752786901e-002 1.0159666613645191e-001
      1.4188377519840817e-001 1.4985749104393095e-001
      -1.2764312634192597e-003 2.0003905787575386e-002
      2.5457051690984788e-002 -2.9360079169333621e-002
      2.0056722939819808e-002 -5.2720654272403446e-002
      -1.2234059307778607e-001 -4.7356802147135384e-002
      -6.0487281997314492e-002 5.3944463884091361e-002
      -1.7351935391496643e-002 1.8967463938203430e-003
      -5.4476186750814996e-002 -1.1837369043668987e-001
      1.5614559765362029e-002 -5.9362036170524581e-002
      -9.1299287922743055e-002 1.8687604877949057e-002
      7.8784074460524225e-002 -8.8463201929588758e-002
      -2.5412450079212298e-003 -6.0091206667188549e-002
      7.9199200491053806e-002 -9.5489096642531635e-002
      -6.4130668291307161e-002 1.8666394397781669e-001
      1.1170024341497353e-001 6.5410016281304384e-002
      -6.7361555824639041e-002 6.9404860986226211e-002
      -1.0618330423315386e-001 -1.4219004240421357e-002
      -4.1693092482560741e-004 -6.7243409894165676e-002
      3.2847170015023998e-002 -1.2785049686304062e-001
      9.5664225295969643e-002 -6.2011823450641421e-002
      6.6492998534655040e-002 -5.1468037811679787e-002
      -9.7807471498939563e-002 5.3906481725641213e-002
      3.5061748138911344e-002 8.9266054042594398e-002
      -7.0176238751145842e-002 2.8619284295988184e-002
      1.5035595451313957e-001 -4.5127777249975949e-003
      -1.1828806176663742e-001 2.3554476124947626e-002
      1.9798418752783077e-002 -3.9451327022239836e-002
      -1.3957904637337853e-001 -1.0422701436448805e-002
      -2.7400678831316149e-002 -1.3931782273954227e-001
      -1.1345663596586648e-001 7.0502533791644395e-002
      1.8833343924661738e-002 2.6554997397771663e-002
      1.9562857124181665e-001 -2.3976610277964466e-002
      -6.3298869234752100e-002 -1.7934723264152885e-001
      -2.8284511470331236e-003 -1.6115088604755129e-001
      -1.8009484753531674e-002 1.0725344202259357e-001
      4.2046563258024285e-002 -1.1107927077397754e-001
      -3.8503097542352240e-002 -4.0526509253964949e-002
      7.8558033345877520e-002 -2.8453881421731116e-002
      1.7741136896966304e-002 4.3847506587578397e-002
      1.1992213671809515e-001 9.0631132668290051e-002
      9.9149805250068154e-002 -1.0591793722292187e-001
      9.4303118809806838e-002 2.2151810732094553e-002
      3.4800321450966218e-002 4.3161668837749231e-002
      -9.7299474746673307e-003 3.0843725775614238e-002
      1.2388894304831264e-002 3.3755358439325846e-002
      -3.9013579146545137e-002 4.9005999562998391e-003
      2.0894816394918012e-002 -5.8439598656838058e-002
      7.0715356304099031e-002 -6.3230733529878250e-003
      3.2771999843338756e-002 6.9462028008826747e-003
      4.7513496998350405e-002 1.0071275460114326e-001
      -1.1036761927936950e-001 1.5992849178963592e-001
      3.7484321900354105e-002 -1.8920309843460395e-001
      5.3651065079509973e-002 -6.7140368401351165e-003
      1.4529542870034201e-001 1.3384827956923689e-001
      -4.4962018591047745e-002 4.5795603901657754e-003
      2.7236544722873499e-002 -5.2314742299844341e-002
      5.6116152535789728e-002 -2.1629938934552839e-002
      2.9247866338637806e-002 2.5320370885414497e-002
      -1.0949659918524930e-001 2.6122953884568801e-002
      -3.1907167093777222e-002 -4.6572123269520274e-002
      -5.7303748725328632e-002 -6.2814699364356838e-002
      6.7141685118196487e-002 -1.4859421620887550e-001
      -4.1975785150404045e-002 -5.5864259315169126e-002
      -3.4375750117630208e-002 -8.6597795106711270e-002
      4.4995479148549733e-002 -1.3048760988231540e-002
      4.7491130046477321e-002 1.7402301669413214e-002
      1.9268195208284218e-002 -4.0688162077794059e-003
      -4.8538503262890963e-004 -2.2766806595566590e-002
      3.9428923211543856e-002 -3.5488622623298154e-002
      5.3477623604383157e-002 -3.9700457482653481e-002
      3.3616322147815583e-002 -6.6906163038060337e-002
      -2.5755163383957384e-002 8.4136863434363975e-003
      -5.2248707826552479e-004 1.9865783682384694e-003
      1.4232203971692741e-002 5.9059828343937797e-002
      2.4528487152912170e-006 -3.5856132031932254e-002
      -3.8619466027216623e-003 -6.0548890632696320e-002
      4.7780341077224555e-003 -9.7289081491831852e-002
      -8.0851998376969075e-002 -4.0792419402819489e-002
      2.8525439929152768e-002 -3.2194206959062924e-003
      -1.1677884739724471e-003 3.0305742028457233e-002
      3.4459437933350313e-003 -1.4109688221487728e-002
      -6.1099843801672004e-003 -1.4610221165739913e-002
      3.5601832500678665e-002 3.2228481094583365e-002
      -2.3108708210047527e-002 3.0084445003627426e-002
      7.1029156929564108e-001 2.3582079677068651e-001
      5.2334272312712432e-003 1.0565300668927610e-001
      1.1007992894889543e-001 5.1126707496049993e-002
      -8.8658589392654391e-002 2.9660620173896004e-002
      1.4101936796292525e-001 3.7233011259140796e-002
      1.2239835664312847e-001 -1.7036398723482193e-001
      -1.2984870445639124e-001 -1.6388271969501975e-001
      -2.3621077995667462e-002 1.6097404502457083e-001
      3.3608584961757941e-002 -1.4663141933335308e-001
      5.3921587172754928e-002 1.1847104204395138e-001
      3.7452240165825115e-002 -1.5107905434290850e-001
      1.5974753692616542e-001 -1.0400243151155440e-001
      2.7032132029333393e-003 -2.2013572305764097e-003
      8.4651821565738024e-003 -1.4368456550573521e-002
      8.6999173893128525e-003 4.9689220950755092e-002
      5.9649450770471464e-002 1.2739168458692571e-001
      7.0663423142496809e-002 2.8508820816879481e-002
      2.1829972913052842e-001 -1.0284286850790608e-001
      -1.0043861353595189e-001 -1.7983062736775086e-002
      3.1855118749641066e-002 -1.5107802665109035e-001
      -1.0206495696600654e-001 1.5818451018841589e-001
      1.1500024224502056e-001 -1.4792408055450487e-001
      -1.4560231581953501e-001 8.3300265700267329e-002
      2.2359826108476313e-001 1.3301483997543223e-001
      4.3005262366973759e-002 1.3525923361804221e-001
      5.7192197076478248e-002 -1.0960542293298010e-001
      -3.5293628919181974e-002 2.9704239028806850e-003
      1.2327959090984590e-001 -1.3041919237277083e-001
