<?xml version="1.0"?>
<opencv_storage>
<ANN type_id="opencv-ml-ann-mlp">
  <layer_sizes type_id="opencv-matrix">
    <rows>1</rows>
    <cols>3</cols>
    <dt>i</dt>
    <data>
      300 80 6</data></layer_sizes>
  <activation_function>SIGMOID_SYM</activation_function>
  <f_param1>5.9999999999999998e-001</f_param1>
  <f_param2>1.</f_param2>
  <min_val>-9.4999999999999996e-001</min_val>
  <max_val>9.4999999999999996e-001</max_val>
  <min_val1>-9.7999999999999998e-001</min_val1>
  <max_val1>9.7999999999999998e-001</max_val1>
  <training_params>
    <train_method>BACKPROP</train_method>
    <dw_scale>1.0000000000000001e-001</dw_scale>
    <moment_scale>1.0000000000000001e-001</moment_scale>
    <term_criteria><epsilon>9.9999997473787516e-005</epsilon>
      <iterations>1000</iterations></term_criteria></training_params>
  <input_scale>
    2.7679639102923022e+002 -7.1229143446175969e-001
    2.9125859788189825e+002 -7.4497540237552629e-001
    3.9957458819937926e+002 -5.8427125067529195e-001
    2.9732642581061907e+002 -1.1898637052673926e+000
    3.8030149757980035e+002 -1.6545788395022538e+000
    1.9483160766188362e+002 -7.9490214301677498e-001
    1.9647827749972933e+002 -7.9418655392574589e-001
    2.5472965778862411e+002 -7.4264423725389994e-001
    2.8385876020471557e+002 -5.4972598187346122e-001
    3.2736919398478415e+002 -6.8485014252732601e-001
    1.9858458473505098e+002 -1.0385913677036178e+000
    2.1840239520883978e+002 -4.4757256369320320e-001
    1.2905301687237642e+002 -9.3376822603772935e-001
    1.7895568626382638e+002 -8.3383258151817419e-001
    2.0780412473100046e+002 -6.0088205636079728e-001
    3.6570878180413771e+001 -6.3471269457739066e-001
    2.4948396073212180e+002 -1.1394926662942029e+000
    2.3830795080661406e+002 -7.7126799705537352e-001
    1.6910808429272370e+002 -1.9397578686892836e+000
    2.4412026213785268e+002 -7.4733981161608420e-001
    2.4153633001360745e+002 -9.3750171493913093e-001
    2.5545882627815436e+002 -1.2069200807886677e+000
    4.5323772204652460e+002 -2.1513281554312531e+000
    2.9758607602966310e+002 -6.9129306713484273e-001
    2.4614167211461793e+002 -6.2125264349984344e-001
    2.5316790507721726e+002 -6.4269173954953362e-001
    2.4020619531067788e+002 -8.9840349160986843e-001
    5.5148576930985428e+002 -4.9144681335002399e-001
    2.2674206290275652e+002 -9.4732662924464595e-001
    4.0851563807742480e+002 -3.7097518580944400e-001
    2.5636725317550145e+002 -1.0086919812655857e+000
    3.7673995916379818e+002 -6.2650463751402130e-001
    1.8540582318799525e+002 -7.1895053188309688e-001
    2.6053330494474750e+002 -6.7687406304816078e-001
    2.7645449618263689e+002 -6.7173090161227811e-001
    1.4668104359305417e+002 -8.6020035746193080e-001
    2.7166696133165692e+002 -6.0031612795548639e-001
    3.3069786280988706e+002 -1.2534758169637517e+000
    2.2131723810138178e+002 -8.6722695032169594e-001
    2.6047537610924553e+002 -6.8977289621222315e-001
    1.6308576736659140e+002 -5.7175219959004342e-001
    6.5752741512745217e+001 -8.0539600432739977e-001
    3.4104385198845245e+002 -1.5403015192341005e+000
    1.9745786620541679e+002 -9.3446400503893490e-001
    3.8437094188147830e+002 -7.3688095303213186e-001
    3.1892376112602858e+002 -7.5261049186060136e-001
    2.3925703671202166e+002 -7.5927051556149872e-001
    1.1841038448380962e+002 -5.1915204894950073e-001
    2.7349825507311027e+002 -4.7564250359086274e-001
    2.4412588396201704e+002 -6.2871933907662081e-001
    1.0449777944674943e+002 -6.0866079877194645e-001
    3.7022816745069395e+002 -7.3524902177585438e-001
    2.7110631974235025e+002 -1.0645713769552680e+000
    3.7957845403983168e+002 -1.4330154122158787e+000
    2.6966480132504864e+002 -6.9307155187117819e-001
    2.7401357428381948e+002 -6.6147089613092791e-001
    8.6307440337006980e+001 -4.4212487119274452e-001
    2.1677825878032272e+002 -1.2387388315360752e+000
    2.1696826871508222e+002 -7.5794417350425247e-001
    2.9376462370536052e+002 -7.7772147429489846e-001
    1.2948249470539398e+002 -7.2328435926922663e-001
    7.7334562445592695e+001 -1.3600618337976778e+000
    3.3429884953812655e+002 -9.6455141554172197e-001
    2.1489764490231730e+002 -1.4534939171568579e+000
    2.3622232736902367e+002 -4.9533432725263188e-001
    3.0993671018978512e+002 -1.0378084770194911e+000
    3.7324134612694348e+002 -5.9832680462692756e-001
    3.5711845319771811e+002 -8.7988412455309162e-001
    1.9776285216388746e+002 -7.8847259091629318e-001
    3.0756497844577638e+002 -5.7215883430728753e-001
    2.9628778068289364e+002 -6.7573189654289234e-001
    2.7044729998575474e+002 -8.2052914457878678e-001
    2.9992765354986733e+002 -7.7442766355546211e-001
    2.2047419752969586e+002 -7.8487077273052730e-001
    2.1624238114079071e+002 -5.5445838986048679e-001
    4.0842214141110128e+002 -5.3411342324982580e-001
    3.3458169001111708e+002 -6.5938163271301298e-001
    3.4134460187593425e+002 -1.4732954956675974e+000
    4.2150974120546238e+002 -5.4482260719436315e-001
    3.1632309095907539e+002 -5.9220916828053793e-001
    2.1251383398670035e+002 -1.1993845936609588e+000
    1.8104285372809593e+002 -3.8364205041712574e-001
    3.7351827560555154e+002 -6.9300699858394366e-001
    2.4160041960284875e+002 -7.7678810834314838e-001
    3.1320867820598164e+002 -1.6573816756925550e+000
    2.8775050833117820e+002 -9.4189966169081207e-001
    3.2910862784820512e+002 -1.3557945817865624e+000
    1.7651487485731241e+002 -1.1154235155552008e+000
    2.5904163761312100e+002 -9.2542795531850441e-001
    2.4263250088723464e+002 -7.5572466047480746e-001
    1.8588603776201117e+002 -9.5952301660995343e-001
    3.4417706321165446e+002 -6.8320888733798379e-001
    1.3880007952192946e+002 -4.9265268886735286e-001
    2.5677982950953964e+002 -5.4100208474359790e-001
    3.5057349154699659e+002 -6.7169047132240389e-001
    2.5886252162774832e+002 -6.5116231041342221e-001
    3.3907190646803059e+002 -1.0042652496055304e+000
    2.6831126454433848e+002 -6.8420030027219758e-001
    1.4395572257512586e+002 -5.4492058861931592e-001
    1.9936203647769941e+002 -1.1654659613407548e+000
    2.4305368149120554e+002 -7.6354343966593374e-001
    2.1988590481351861e+002 -7.8858133159633237e-001
    2.8179145519028117e+002 -4.7833524001583005e-001
    1.6829409775693657e+002 -8.9495438779492076e-001
    2.1895303720947385e+002 -9.5090072623951705e-001
    4.2522987831252141e+002 -6.5669198395896344e-001
    2.0250638440260042e+002 -6.4704285349938850e-001
    1.8268217142719439e+002 -8.7576580576276586e-001
    3.4212310717950407e+002 -7.3613195205992543e-001
    2.7244348335812890e+002 -7.8727430975156243e-001
    2.8888441120249570e+002 -8.3595093174583468e-001
    2.7896975541184361e+002 -7.3323953788638430e-001
    2.1029574199405175e+002 -9.1501487555864847e-001
    2.1754218147004590e+002 -1.1079312480876919e+000
    4.0278245803295960e+002 -5.8342514154375569e-001
    1.6882587490946105e+002 -5.0522454813065953e-001
    1.5042038133567794e+002 -4.7564120747767630e-001
    2.0875970654327062e+002 -5.6468360665479256e-001
    1.3151377555624120e+002 -7.3614191438652898e-001
    3.0357116180025969e+002 -6.9785495528051034e-001
    3.0809774013211000e+002 -7.7379631431442741e-001
    3.5486468743905453e+002 -8.7537268185589023e-001
    1.0363228035795898e+002 -6.1626171864758139e-001
    2.2618945409673111e+002 -1.1184242959164488e+000
    4.5362937924099549e+002 -5.1586767625496399e-001
    2.4726307434993291e+002 -8.1190109275999744e-001
    2.3794041908014427e+002 -7.0426167064740397e-001
    3.9185107234232783e+002 -6.1855090369782417e-001
    3.0366774385559626e+002 -6.2976648866174689e-001
    3.1424909573294627e+002 -6.0901626698715050e-001
    8.8924110272371252e+001 -8.3461644515372002e-001
    2.4175094059617226e+002 -6.0889503021460722e-001
    2.1229059284657109e+002 -8.2625464607169086e-001
    1.9629558391267926e+002 -6.9599865373365266e-001
    2.2766814345896182e+002 -4.7833174428513353e-001
    2.5582304664857480e+002 -6.2879725149616550e-001
    2.8323769025098187e+002 -7.5406060261964925e-001
    2.4057584316332324e+002 -8.7531638920396504e-001
    1.5034545719053330e+002 -4.3047886474009939e-001
    2.7087749899633678e+002 -1.5079269192878146e+000
    2.4451723987769924e+002 -8.7331420658370484e-001
    4.5461441724869604e+002 -2.2077118453846376e+000
    3.3461704447362837e+002 -7.0777891236996371e-001
    1.1104356069637876e+002 -8.8143502857021583e-001
    1.2890428618091258e+002 -7.5333107762633345e-001
    2.0154209012699980e+002 -8.1608950169281691e-001
    1.5797916408687263e+002 -1.2352777464284430e+000
    1.7043263384756213e+002 -1.1672254967839677e+000
    2.1351741457289899e+002 -7.7977580238583655e-001
    2.4105316195996889e+002 -7.6412439477229843e-001
    2.6803455045257527e+002 -6.4837637717364494e-001
    1.8413967871298530e+002 -5.1779597678648870e-001
    2.1673347235135699e+002 -5.7182384376759743e-001
    2.4130839977535911e+002 -8.4802694595344197e-001
    3.1964574283900401e+002 -5.2710842468386776e-001
    3.1948510653696741e+002 -6.5989368246728131e-001
    4.5767212418660654e+002 -4.9361101615714353e-001
    6.2530572527441927e+002 -4.7250908910329459e-001
    2.9235327722662475e+002 -9.0106278096487558e-001
    1.8781235709440926e+002 -5.8151773179027444e-001
    2.2602842479353157e+002 -9.6096904399255856e-001
    3.0412103079758907e+002 -8.8138248985688861e-001
    4.6888381613286765e+002 -4.4181001481941806e-001
    2.2185546673366187e+002 -4.1477021627502980e-001
    1.1719356124981213e+002 -1.0147242831579795e+000
    3.4935801461345864e+002 -6.8107617702406908e-001
    2.3697270025222980e+002 -7.9951589956516877e-001
    3.8511068153365125e+002 -4.3064692966218288e-001
    1.6155580839267969e+002 -1.5556626237191449e+000
    3.2604990707216228e+002 -6.8046133295762667e-001
    3.0920853442691043e+002 -9.4583059676926551e-001
    1.9934467719166258e+002 -1.1531043496323137e+000
    2.4870364591643465e+002 -8.4844959382859231e-001
    1.8725485811031345e+002 -1.0149401708202339e+000
    1.2942436470697336e+002 -8.7137130455320122e-001
    5.0138985751652609e+002 -4.6796592620701605e-001
    2.9146954254667367e+002 -6.1593826320759471e-001
    3.3342577363810977e+002 -4.6741138112090985e-001
    2.8034171252376734e+002 -4.5540959888375526e-001
    2.0610824258238733e+002 -7.9284732240397293e-001
    2.3886910682992050e+002 -7.0668233819644699e-001
    2.6840324650327017e+002 -6.9419519051917411e-001
    4.3054038788058165e+002 -4.9130596292893264e-001
    5.2774576319449795e+002 -5.3166200729458624e-001
    2.4581669532103578e+002 -9.6948732006875538e-001
    3.3424013078719867e+002 -1.2485317531393310e+000
    3.5107815260350600e+002 -6.8787822223197936e-001
    2.2442212034405091e+002 -7.6045366341490561e-001
    3.3197817947688952e+002 -1.2172757166089785e+000
    3.4906506500868073e+002 -1.6319137508501627e+000
    3.1047849206819029e+002 -6.2695931741358490e-001
    2.3126009622801186e+002 -7.2621225941470902e-001
    2.6361588817398729e+002 -4.2530562460802251e-001
    3.4763014856504162e+002 -9.8277602152163601e-001
    3.1211703848450122e+002 -8.5484074293206525e-001
    3.4850156196878510e+002 -8.1745808916460816e-001
    3.2578558993422752e+002 -7.2452794322934955e-001
    2.9448675429356382e+002 -7.0126365981495475e-001
    3.3784213566595082e+002 -1.4141627091203306e+000
    1.5180654643825997e+002 -7.3427483128198001e-001
    2.5106077690851458e+002 -1.2077951486332934e+000
    3.4567543212698939e+002 -5.6707951816261648e-001
    2.3435887658394276e+002 -6.5667605729925760e-001
    2.9490583093052123e+002 -6.2608748208627318e-001
    2.9927615991303071e+002 -7.6015898717520680e-001
    9.8954893284475077e+001 -6.6275402232025316e-001
    3.0594601819064189e+002 -6.6083826766823128e-001
    4.2329024484803153e+002 -4.5687123816054881e-001
    3.5293646983376664e+002 -6.6892515599869284e-001
    3.1489619978456523e+002 -6.2531787608880207e-001
    2.5142114076048526e+002 -7.9380514087362963e-001
    2.2338332521264127e+002 -1.0474203214839117e+000
    2.3704379920345880e+002 -4.6794277962103770e-001
    2.9658097919315662e+002 -8.0663134249358226e-001
    3.6922153514108697e+002 -7.2153990339624507e-001
    2.3009899509107370e+002 -8.3340094830089384e-001
    1.9142110022101980e+002 -5.3849397746029792e-001
    1.9061928860626352e+002 -7.2331735899284300e-001
    2.1269751000663166e+002 -8.6802981794009537e-001
    2.8522540102718608e+002 -7.8785602769729379e-001
    2.5516463181451974e+002 -7.3146295236848546e-001
    1.8637693606020031e+002 -7.9206073686999179e-001
    2.6859727650428783e+002 -7.3313811420758046e-001
    1.9569504696241972e+002 -4.6715002973580605e-001
    3.7432464025807190e+002 -8.8660205359855759e-001
    3.6548583682595824e+002 -1.2928791718051735e+000
    2.0097083681081151e+002 -1.0630598704744902e+000
    1.2514993904134650e+002 -5.5998709504633493e-001
    2.3400264431474196e+002 -6.6120781162633846e-001
    2.7892979451718458e+002 -4.7523668303443045e-001
    1.6148419943294530e+002 -8.2549196371561673e-001
    2.2815066475827140e+002 -9.5491850146292023e-001
    3.8895251400506186e+002 -7.8387089493567541e-001
    2.6814535941243309e+002 -5.1457175418938250e-001
    3.3571687823334861e+002 -9.8025042440023658e-001
    3.0309639999095128e+002 -6.6665087537151135e-001
    1.2050984817962394e+002 -1.0058504017517589e+000
    2.2193028842548543e+002 -7.8882569344102738e-001
    2.4030893905049689e+002 -5.7761768296211069e-001
    2.7918688019932677e+002 -6.9419722977031550e-001
    3.1687468855340279e+002 -8.5825802498061221e-001
    3.4074666138987902e+002 -5.8594897531337164e-001
    2.5923989966399660e+002 -6.4642020640155795e-001
    2.9069282028890785e+002 -7.1740049813688067e-001
    2.8993930702253067e+002 -3.9161208379814105e-001
    2.5986143787573280e+002 -7.0744566184558477e-001
    1.2925772091129170e+003 -2.6651916783707280e-001
    2.7844474987168360e+002 -6.7992982997880325e-001
    1.9105839883959590e+002 -6.0518829654446715e-001
    2.6692354035535101e+002 -5.9455169894568161e-001
    3.3025256715893102e+002 -5.6359926873577004e-001
    2.9434746210726672e+002 -6.9949665306092557e-001
    2.6461731981106232e+002 -7.7064983213351768e-001
    3.6959958387823895e+002 -5.4281784956950285e-001
    3.9412223193691665e+002 -7.3597837806304145e-001
    3.1013916219680772e+002 -8.1540044373429921e-001
    4.3051391427651089e+002 -6.2531876682269760e-001
    3.3761270658414463e+002 -6.8164993041350175e-001
    2.7626373481356052e+002 -6.4018968257469044e-001
    6.0805858578509356e+002 -4.3615914858123039e-001
    1.9933177992700914e+002 -1.0059234127614807e+000
    3.3927104160552392e+002 -1.3488642305013607e+000
    2.9282724121988440e+002 -5.1770279571419298e-001
    2.7531952706871203e+002 -6.8545325434072446e-001
    9.7753653483245699e+001 -7.3150704128205735e-001
    1.9869143129768563e+002 -4.8534971403225335e-001
    2.1147819264525108e+002 -8.3198076436158241e-001
    1.8138282943657816e+002 -8.0076259022146901e-001
    2.7833779832332704e+002 -7.1303606106200768e-001
    3.6735928278924621e+002 -5.6199002042538293e-001
    4.0776976565975019e+002 -5.9065103561932042e-001
    2.7958204790207299e+002 -5.1609607933800417e-001
    3.8412751489569587e+002 -5.5436142797053889e-001
    4.6998911474000585e+002 -4.5103437125130502e-001
    4.0530416736381045e+002 -1.8891663303419657e+000
    3.5823747410157796e+002 -9.1859162004969774e-001
    3.0045009440802659e+002 -7.2626671718551694e-001
    1.0682035078965136e+002 -1.1957038463939225e+000
    3.2633309027875771e+002 -5.6407987223369616e-001
    2.1897382546011949e+002 -5.8728643572224715e-001
    3.2140211979030227e+002 -7.3940433918733461e-001
    3.3380637100577235e+002 -1.3908826826874825e+000
    2.6674727995753176e+002 -5.4339088104703037e-001
    3.2254993338568761e+002 -6.8162710247740388e-001
    2.6476816520597288e+002 -5.6837760949382521e-001
    2.3566407166669302e+002 -6.9085000905872207e-001
    1.8748295679098595e+002 -1.0946178713008763e+000
    3.6364613595977562e+002 -6.1523104488360381e-001
    3.6352159735365456e+002 -9.6323868633638332e-001
    1.8718019506087353e+002 -8.2211898809929629e-001
    2.9975217499176119e+002 -8.8994917495626580e-001
    3.6663921312996450e+002 -6.9750112203311898e-001
    3.4702285862226165e+002 -6.3194209814722102e-001
    2.2783085200265683e+002 -4.8178278813248510e-001
    3.5742713623227490e+002 -5.6805928167938213e-001
    3.4632793477950992e+002 -6.3826739057654369e-001
    2.9121791959787242e+002 -7.7686018621599584e-001
    2.8948869828490183e+002 -8.7449186254352196e-001
    3.3557458174302377e+002 -7.8363054609885341e-001
    3.1802519266201949e+002 -8.3399340314782278e-001</input_scale>
  <output_scale>
    5.2631578947368418e-001 4.9999999999999994e-001
    5.2631578947368418e-001 4.9999999999999994e-001
    5.2631578947368418e-001 4.9999999999999994e-001
    5.2631578947368418e-001 4.9999999999999994e-001
    5.2631578947368418e-001 4.9999999999999994e-001
    5.2631578947368418e-001 4.9999999999999994e-001</output_scale>
  <inv_output_scale>
    1.8999999999999999e+000 -9.4999999999999996e-001
    1.8999999999999999e+000 -9.4999999999999996e-001
    1.8999999999999999e+000 -9.4999999999999996e-001
    1.8999999999999999e+000 -9.4999999999999996e-001
    1.8999999999999999e+000 -9.4999999999999996e-001
    1.8999999999999999e+000 -9.4999999999999996e-001</inv_output_scale>
  <weights>
    <_>
      -6.5554562383234183e-001 -4.9804466795287917e-002
      -2.9617362532941255e-002 1.5376113049411628e-002
      -6.2793643218794756e-002 4.6416993400592507e-002
      -1.0627648697948545e-001 -6.1677634995090984e-002
      -8.6207550633985892e-003 -7.4155879485192616e-002
      7.9604759631889982e-002 8.0275537391591347e-003
      -8.7137649202094353e-002 -1.1437263580070577e-001
      -4.6192262818518556e-002 -5.7622615814605600e-002
      -1.6396801507761094e-001 6.4347162510650036e-002
      8.0972883382882219e-004 1.0119711159283601e-001
      -2.2664502283978616e-001 -4.1800742189608990e-002
      -3.5798969534777637e-003 1.3812557378034629e-001
      3.1567657564403662e-002 -4.4309159233112488e-002
      -2.1536699670750493e-002 -1.5640140469784358e-001
      -1.7324468986948541e-001 2.5947549691546670e-003
      -1.6138548735792446e-001 7.9916624719936796e-002
      -4.3979471133701306e-002 -4.8850631395167786e-002
      -4.4534486638532766e-002 7.4147532590639442e-002
      -9.0155203954857210e-002 1.1268922263294111e-001
      -1.2691701332317698e-001 -5.2923060702924601e-002
      -8.6488723809630089e-002 6.8066975053376319e-002
      4.9169671300179331e-002 -2.9852559520234172e-002
      9.7598465109025104e-002 9.4270346331649241e-002
      -1.0005856158278952e-001 3.3906746095320239e-002
      7.9157450535474613e-002 2.7050733845674548e-002
      -7.1061163998552099e-002 9.1552156327227852e-003
      7.3899204070653679e-003 -3.3126988876056022e-002
      4.3793751541366208e-002 -1.1097315174052470e-003
      -1.4407358887967525e-001 -1.8388911196380867e-001
      -6.3042075306123144e-002 -4.3287053279449116e-002
      6.2210670928270609e-002 5.4061642732238858e-004
      1.9469501089950322e-002 -1.0927315088768469e-001
      7.4330722351900677e-002 1.5854406718677730e-001
      1.2244125241522283e-001 3.1255906678684629e-002
      4.0759153447009713e-002 3.9179703964614503e-002
      2.4194802195717038e-002 -6.2198870109713214e-002
      -1.8238891690094128e-002 5.8462602291252629e-002
      1.9251417414420186e-001 -1.2762919500889029e-002
      -1.7802949793153172e-001 -1.2493845325589356e-001
      1.3763318217857087e-002 -4.4384504773584986e-002
      -6.3148534055783356e-002 2.4472153301189625e-002
      3.4950886184145741e-002 -2.2388030257996586e-002
      2.7353100037706340e-002 -7.7699864588838281e-003
      5.2271149635004850e-002 2.0442005180499900e-003
      -3.7248674182004966e-003 -8.3919425973754038e-003
      -1.6793469769453492e-003 3.4410194619436625e-002
      4.9607016930979027e-002 2.2227557273553564e-002
      -1.9894081029663530e-002 -3.4165411422049413e-003
      2.3832916080840542e-002 -1.2330344682471945e-002
      2.4146823201416489e-002 -3.1334709093566560e-002
      4.5175749745478680e-002 7.0926966591980403e-002
      -3.0775002896816410e-003 -9.3602528177588115e-003
      -1.1582731110975710e-002 -6.0212398213666182e-003
      -1.6711885758566917e-002 -2.9197411478942132e-002
      -1.4173513091847528e-002 4.4521746744160297e-003
      2.1594492405952907e-002 -2.7505614927278942e-002
      2.4501852742959414e-002 1.2500115279445311e-003
      -1.1294119228265164e-002 -3.1189511549938893e-002
      8.7834451881333465e-003 -2.0969691783407053e-002
      5.0476996223657637e-002 1.6740630922197450e-002
      -5.5093718463920992e-002 1.6424007949204265e-002
      1.8613225032900471e-002 1.3657138588951730e-003
      -1.3556514174909062e-002 1.1166152652823541e-003
      1.7676843240676673e-003 -8.4487026479537018e-003
      -5.0152365286891418e-002 2.8692044080757448e-003
      -5.3653442615728619e-004 -4.0623116714322664e-002
      -4.5046160229080312e-002 -7.1655175791107142e-004
      8.1291354542761141e-003 4.4906014276708046e-002
      1.5023479610751121e-003 -1.2800607222382659e-002
      5.7808637793161314e-003 -2.6061426471587493e-002
      -1.4222498304795715e-002 -2.0362196075478975e-003
      -1.5470106122388496e-002 2.3096511887230199e-002
      -4.8538790211854997e-002 -6.9398523259896289e-002
      -3.9816203959162355e-002 4.4071792934457640e-003
      -4.5484201411084273e-002 2.7549724164428410e-002
      9.0211104113146583e-003 -9.6684042788779886e-003
      8.8113718176529285e-002 6.8989070393513335e-004
      -6.2952238098450394e-002 -2.0464669310943248e-002
      2.6548731290794162e-002 2.1240948086667669e-002
      8.0904496609388987e-003 -1.9454244577169742e-002
      7.3012701453464418e-002 -1.3817990488212695e-002
      -1.1649048033601193e-001 -4.4721585043912930e-002
      -5.3273564397145534e-002 -5.4555889021261350e-002
      1.0514142615401323e-001 -1.6652162781912686e-002
      2.4698268264648421e-001 -1.7607132164275688e-001
      1.9189667840835856e-002 1.1239298556939628e-001
      -6.0620334780317191e-002 3.8670052228283514e-002
      6.3549708834410745e-002 1.6473607782121097e-001
      -9.5728800588503443e-002 2.0230189897197243e-001
      -7.2366743867993452e-002 -1.0847322259464873e-002
      -5.6884856283845833e-002 8.6639701678247000e-002
      9.5906574800943042e-002 -2.0505727833106831e-002
      1.1022958647802648e-001 1.1230259199812199e-001
      -9.1245626351203368e-002 -2.1585264081531174e-002
      -3.0208725632954827e-003 9.2401102901972371e-002
      -1.5711022634422284e-001 1.4942911989840651e-001
      9.3005381586019314e-002 -4.0737708203923140e-002
      -1.7627726939483707e-001 9.8619050058457530e-002
      -7.8891833952555043e-002 -1.4456370796935822e-001
      1.4502824001615485e-002 6.1462548258307249e-002
      -1.1488642977407088e-001 -7.5246757577064644e-002
      -2.1622264722460233e-001 9.4827759353722896e-002
      8.4263383762738647e-002 -1.5868782859160668e-002
      -1.3227088346068455e-001 -8.6169101332544788e-003
      -3.1369066808609007e-002 6.8771991213059935e-002
      -2.4505432649026916e-002 1.8528146284919272e-001
      6.0090846142134599e-002 4.0043586110545953e-002
      1.5498385339513985e-002 1.6305270455905400e-002
      5.0327904250982936e-002 -4.6644354814356956e-002
      2.5606102920237087e-002 -3.4313527164887787e-002
      -1.7193562149101502e-001 8.0464875162897534e-002
      2.2941547223062828e-001 -9.8322495665398149e-002
      7.5388224759531386e-002 -1.1779842663685969e-001
      1.6786249862359801e-001 -1.1100203494206211e-001
      1.1929088076842841e-001 -1.3309024348768631e-002
      -6.3575815011124734e-002 3.6768905518104994e-002
      5.1217486233018104e-002 -3.6399164705132762e-002
      1.2606812145472662e-001 9.6095249090798848e-002
      -1.0226702839438453e-001 2.2476010611921823e-002
      8.0171800267671650e-002 -1.8572611087848093e-002
      -7.5015883348838977e-002 9.5818786693963334e-002
      -1.0055169623306590e-001 -2.0308762767177926e-002
      3.3379029217123400e-002 -5.5001988837045955e-002
      -2.6500786326283082e-002 2.4338307929093531e-002
      8.8926637896515823e-002 -9.2508854781237604e-002
      3.1670857715806029e-002 -6.0426519680474029e-002
      5.6004867725658769e-002 -1.7216678612358197e-001
      -5.6528270593645361e-002 -2.1919291482775057e-002
      7.6433985651341935e-002 4.7698122072311229e-002
      6.4119801330952075e-002 1.8601656651444703e-001
      1.1596167170812628e-001 8.5288864197512165e-002
      -1.6460610644639814e-002 1.4756131301441811e-001
      -8.1410748936020429e-003 1.0442629095334231e-001
      -1.9643669465699020e-002 7.7307106185519392e-002
      4.0722990908829540e-002 -4.1678133200688118e-002
      1.0812291078697106e-001 -1.1060800824836393e-001
      4.8672720176718073e-002 -8.4436850585337730e-002
      -1.0790802785625631e-001 8.1012814711351813e-002
      -1.4219527427857520e-001 9.9572613362404291e-002
      -6.6103303951605935e-002 -2.0143703826319314e-002
      3.3926886830089320e-002 -3.8193975673136489e-002
      1.2520490701018771e-002 -7.3313593214107367e-002
      -9.5536249874930340e-002 8.1934807866382353e-002
      9.3118000584835933e-003 1.6381985558471437e-002
      1.1495107628905728e-001 1.2388650970708634e-002
      -8.3880929530660564e-002 1.4146757357638226e-001
      5.8784634260721766e-002 -1.3864132547420957e-001
      2.6682439305116386e-002 1.2020829374073080e-001
      -1.0111909653282365e-001 6.6182647552575108e-002
      -1.2991038058621082e-001 1.3947959592652115e-001
      -1.1347598116223348e-001 -4.7798504775667071e-002
      1.7745473580226399e-002 1.2338343821778655e-001
      1.0788172007793710e-001 -5.5986109344815037e-002
      5.0493303855703622e-002 1.6665828347371368e-002
      8.0849065997758957e-002 8.6535773430442331e-002
      1.0428239264753002e-001 8.3796377278201481e-002
      -9.4343259038451033e-002 6.4224543681660098e-002
      -9.8851029519531203e-002 -2.4983968012891173e-002
      1.1577814727324452e-001 -1.6483180263488401e-001
      -2.7738910569516335e-002 9.3474914899296491e-002
      -8.2609504460145172e-002 2.2895832045824394e-002
      -6.6724250855005426e-002 7.8022650941432937e-005
      7.8612039294118308e-002 2.1363912748917944e-002
      5.2020866292983386e-002 -5.2844144091502808e-002
      6.4185930164983571e-002 -8.3500039668254061e-002
      6.5467827317081215e-002 8.5109599724696006e-002
      -4.8852790407387145e-002 5.3938860127536832e-003
      -1.1782558581741125e-003 5.3065610278315078e-002
      -9.1147233022415425e-002 1.5057425007743958e-001
      -2.2356944359947079e-002 3.2470554463764761e-002
      -7.9188612514648010e-002 -2.0746603362608217e-002
      4.4350132793959031e-002 -2.1839517325939421e-003
      4.2649785833654983e-003 8.7134166323746473e-002
      -6.3493684608995835e-002 -2.9484308969137374e-003
      -1.2185443543058345e-002 1.0868491748086923e-001
      -9.3219010062979168e-002 1.4716658092824828e-001
      4.3139097827804927e-003 -3.8960084923320551e-002
      -1.4511756226933023e-001 2.8322107309537024e-002
      -8.7826778494593180e-002 -5.7222261188020943e-002
      -6.3696033846660860e-003 1.9170038987698031e-002
      -6.3873981779377892e-002 -1.1961653483707173e-001
      -7.8343613233203019e-002 7.8734939005869850e-002
      1.1017959899417770e-001 -9.5177229420579466e-003
      -9.0826330954369691e-002 3.2165264411800530e-002
      -2.9954395460335407e-002 3.2245306846014045e-002
      1.2027656287679180e-002 4.8141997068688873e-002
      2.1641059045218149e-002 2.9279110569778630e-003
      -5.2667939657849603e-003 8.1874329533150603e-003
      8.8088313203897265e-003 8.4988547812080723e-003
      1.5887821758425472e-002 -3.2719936548459935e-002
      6.5512995203873600e-003 5.0668538068027326e-002
      1.3206702603792561e-001 -1.1487819979929345e-001
      4.2487405757520351e-002 -4.8027878054809764e-002
      1.1093191894438059e-001 -5.8302467363697832e-002
      -4.7676657687179914e-002 -4.5560760693199732e-002
      -5.8822561685011251e-002 3.0240672546183574e-002
      5.9330542605744933e-002 2.7222396874019141e-002
      3.3410053847436151e-002 8.7843324792082844e-002
      -5.3641872003242032e-002 -8.2411468105227370e-003
      3.3977037779499030e-003 -4.2550929563882040e-002
      -1.9852969959835412e-001 -1.3279024254568663e-002
      4.3807188694293356e-002 6.1729959948802968e-002
      1.9957784242387182e-002 2.4488079426670861e-002
      -1.3120465340488796e-001 -9.5541112616223764e-002
      -9.2743610103884336e-002 8.5014629926803156e-002
      2.5569642197966536e-002 8.9261816798308011e-002
      1.9674397825578505e-002 8.5692758224342594e-002
      -2.1170197775604940e-002 2.5826639533634878e-003
      -1.1466113521078598e-001 -3.2306652364842210e-002
      1.3734036071223234e-002 -3.8451489633285582e-002
      -1.3432146900327663e-001 -1.5620815058107049e-001
      -1.8700796301768178e-003 -5.3307116212511739e-002
      -1.5091115511655220e-002 -2.6021444677472767e-002
      6.5550968668344591e-003 -7.9504362053400127e-002
      -8.8072632753771224e-002 5.9551852294643569e-002
      -1.5795794911586916e-001 1.7881272315205587e-001
      -1.1537523305405534e-001 6.2600978850048089e-002
      5.5327622750558622e-002 -1.0260614223265625e-001
      6.6944522409125046e-002 -1.1745792757524491e-002
      5.9381023540529175e-002 2.9339333622165790e-002
      -1.6053045558564578e-002 -5.1757952960644900e-002
      -3.9181307822291206e-002 4.0015710005491055e-002
      1.4506552656899269e-001 3.1144983270542909e-002
      -1.1245040658013555e-001 -1.5992023778815975e-002
      -1.0921067862863033e-001 -1.0834033497296653e-002
      5.0291915571167654e-002 -1.2874544730036366e-001
      -6.8156659990457544e-002 3.2696741625858262e-002
      -3.2363468791393429e-002 3.3251137184926699e-002
      9.3601495863961368e-002 -8.9389710859086535e-002
      4.3900128330104364e-002 -1.1029881000204282e-001
      1.9510823483842682e-001 7.3481040648285173e-002
      3.0785354025564676e-002 -1.7196932538591980e-001
      -9.4156261417131196e-002 1.6754042735848662e-001
      2.0263089959765172e-002 -2.7045250212032801e-002
      -5.6306833547442633e-002 -1.0439006762286523e-001
      -9.0845882811151482e-002 -3.9651015117871599e-002
      6.2402691588147076e-002 4.2064971851314692e-002
      5.7644467935982213e-002 -3.1304278946941832e-003
      -1.8104485721738287e-001 -6.5923188241583438e-003
      -1.8707870400487193e-002 -9.7566370668414712e-002
      9.8505306843141599e-002 -9.1825114163669577e-002
      8.9613015342686522e-002 -9.8031225652020632e-002
      1.0756882743806965e-002 -1.1321292494006532e-002
      3.3969512287333498e-002 -2.6294650615689939e-002
      -3.5033353392899479e-003 1.6926117506103212e-002
      -5.3873373637262478e-003 9.0310676700086481e-002
      -1.6161758944817705e-002 1.1792817918228739e-001
      -1.6719810246349543e-002 7.6480921323439921e-002
      -6.1133106905104241e-002 5.4237912706142415e-002
      -1.0967050829754384e-002 -1.0050044277799375e-001
      -6.2842248890286681e-002 2.7520225482810082e-002
      3.8519232419868821e-002 -8.8471224861603998e-002
      -1.6608400852182549e-002 -5.8361587800980302e-002
      -3.8196543966667322e-002 -3.1821517461952914e-002
      -6.9972257946971761e-002 -5.5553397494609337e-002
      -1.2673834992231006e-001 1.1911846272692143e-001
      3.1545590635910052e-002 7.2380324994218356e-002
      -1.2810780239711722e-002 1.2194572754886181e-001
      5.9310052060858147e-002 -7.2994951212302386e-002
      -6.6699160885921926e-002 3.1595977941977833e-002
      -5.6942974967595650e-002 -3.4591631646615372e-004
      -3.4975951885765827e-002 8.7864497667449609e-002
      -3.0459068213245691e-002 -2.1732062091051902e-002
      -1.0299612596023294e-001 -1.3869875056057820e-001
      -1.3655384095640530e-001 2.1270883427848306e-002
      4.2390146641692453e-002 -3.9007072760934784e-002
      -4.8608712440497512e-002 1.3970756713860422e-001
      -8.6134538158044310e-003 8.3933868970905087e-002
      7.5371584259411276e-002 -3.8060738636142101e-002
      3.7001720491413190e-002 -1.4686282371471107e-001
      -2.5199558973283000e-002 4.1272815999323823e-002
      8.3327302666385203e-002 -1.2830835079302041e-001
      -1.4547043141401483e-001 -1.3408846606621127e-002
      4.1134288972327779e-002 -2.0791827563702424e-002
      6.6333568311776850e-002 1.1069935603227675e-001
      -4.6432524257904839e-002 -9.1801078543728709e-002
      1.2572583356253852e-001 -9.0128191092992815e-003
      1.3484645805745391e-001 -6.1485717686560797e-002
      -1.0401894185057647e-001 7.2395395322180811e-002
      1.0229274823586501e-003 -6.1669709658889208e-003
      -4.1081114418654374e-001 1.6115318917634991e-001
      -1.3622557421795113e-002 1.2224269727417075e-001
      7.7434032943160730e-002 8.2438598568099208e-002
      -2.0519951027641262e-001 -1.5360886377548916e-001
      -1.8841452392455726e-001 1.2774013735604434e-001
      1.9641278855022840e-001 -2.3054043050997738e-001
      1.4702622117110339e-001 -2.2119976709410716e-001
      -7.0546262043351390e-002 -1.6908481540197651e-001
      1.1286598446427362e-001 -9.9559638171793335e-002
      1.9337498308258583e-001 1.7320394603176714e-001
      6.5397263454539528e-002 -5.3036829359505336e-002
      -1.2280916139103285e-001 1.7395444416359865e-001
      -1.4890844887681040e-001 9.1380423777368422e-002
      1.0336217224415335e-001 -1.0600219783273762e-001
      -1.2680413251652103e-001 -1.4601763946180232e-002
      1.9511229650157089e-001 -1.6203438048890720e-001
      -1.7313356514200687e-001 -9.2648713156794307e-002
      8.3139153752751535e-002 -1.5733460954536096e-001
      -1.6487326007935045e-002 1.2678175999432514e-001
      3.8805861316498817e-002 3.0071285779472861e-002
      1.4270383080980190e-001 -3.6680836988612804e-003
      1.4083592777136769e-001 -1.6761970863365305e-001
      -1.6409950322346251e-001 2.0405349017837968e-001
      7.7361747871548772e-002 1.0773746640733516e-001
      1.3499920163842496e-001 -1.0536515439195049e-001
      -2.3396436683409381e-002 -9.1899571304581290e-002
      -1.1488317162435424e-001 -2.4467931536527571e-001
      -5.8424423842245665e-002 1.0676733937937187e-001
      -1.1368054035476748e-001 -2.9066464223894462e-002
      -8.9145258480261821e-002 2.1205937885798107e-001
      1.5109452382616198e-001 -3.0214223893585995e-002
      -9.7714129043970380e-002 2.0177453871565437e-001
      5.5729672340487618e-002 2.0009446749874996e-001
      1.0889096109451189e-001 2.3621350445618226e-002
      -1.0474426693515762e-001 -6.2027904604668220e-002
      1.2887226240308933e-001 1.2022447398736988e-001
      -5.0678427169170585e-002 1.3218894647082524e-001
      -2.0990098564029316e-001 -7.7892607364054237e-003
      1.0837865408979480e-001 -2.5659331383405076e-001
      -1.0409898025095525e-001 -1.1040177414438945e-002
      2.4295286913980094e-001 -8.7319984184942995e-002
      4.5146874248095423e-002 -3.8515270711400519e-002
      7.5736979446743999e-002 -1.2107683282048086e-001
      1.7937175188583506e-002 6.8882495026128310e-002
      -7.7613762592797106e-002 6.2347721311533010e-002
      -2.5593246133063033e-002 6.2109858986419894e-002
      1.6989978613520657e-002 1.4987529332113814e-001
      -8.5679208125766876e-002 8.7606020211625762e-003
      7.5205773148370155e-003 -1.5761581326643428e-001
      -2.2368586873914822e-002 -1.4933827954194187e-001
      -2.9263461926688945e-003 -2.8552590924075333e-002
      -3.7477461634969671e-002 -6.7521909738245109e-002
      -5.0287404635490668e-002 -9.6974684876273490e-002
      1.3023481253152022e-002 8.4495653346891852e-002
      8.4320070478820508e-002 -2.8142745616657295e-002
      8.4752604612066997e-003 -4.1313615706505082e-002
      1.9974807383506352e-003 1.2732614291313374e-001
      6.6058163722331170e-002 -8.7238096236725252e-002
      1.1051257781504895e-001 -5.0892671992879550e-002
      8.4156975793555786e-002 8.1142494573544516e-003
      1.2571770470778765e-001 -1.1922278833038936e-002
      -1.7671577526154229e-002 -7.4532327319253494e-002
      1.3764895798329854e-001 6.1468819525758150e-003
      8.3796659085486863e-002 -7.5821798954827352e-002
      -1.9058241258588970e-002 -3.0054100766720153e-002
      -1.4290337864731206e-001 -9.9962764919555483e-002
      -6.2217546615960073e-002 7.5049426117933055e-002
      -5.6151123107542451e-002 -7.4879219872096628e-002
      -2.6509972437531951e-003 3.4188906052193595e-002
      1.2613319211307708e-001 -1.1341475713777797e-001
      6.8165129008961836e-002 8.9290396265541087e-003
      -1.3489819930043381e-001 -3.4925594555361102e-002
      -1.6680698658042326e-002 -2.9154328387388323e-002
      -8.8632395031574648e-002 9.5916053547764168e-002
      -2.6061697829648098e-002 -3.0351954909760902e-002
      -1.0605186803468994e-001 -9.1359492961840760e-002
      9.8888980080041017e-002 7.3573104394286160e-002
      1.3483279001016634e-002 -5.6317489115072693e-002
      -2.6510843576385581e-002 -1.9127896440081327e-002
      -7.6047751118453868e-002 2.7089966782327883e-002
      -6.1108746665639042e-002 6.7699213786333095e-003
      -2.8192881483638473e-002 4.5291555623371754e-002
      2.9634630276099437e-002 -4.0063584622696657e-002
      -3.7443969534941696e-002 3.2191220912219924e-002
      -3.9924442597909338e-002 4.3678670612985263e-002
      -6.4256941856035588e-002 -7.5647006809651460e-002
      1.1922357432526171e-002 -9.1533550789927198e-002
      -4.5671674609387279e-002 -9.6356246562290235e-002
      8.5032239923372679e-002 -1.4787970027290145e-001
      9.8602875443366874e-003 4.7693579954012681e-002
      6.5822991588218513e-002 -1.5287413502300224e-002
      -7.0987214553804259e-002 8.0039160115051272e-002
      -2.6982887296358834e-002 -3.4690064199469940e-002
      5.2839516689770258e-002 2.0432488525127381e-002
      -8.2953509699614913e-003 -8.9140961515029125e-003
      1.2838163000767422e-001 -1.4503971272889599e-001
      -1.8152279482542590e-002 2.8319765227269807e-002
      7.3936106671691995e-002 -3.9401234780995928e-002
      4.3011901670552743e-002 7.1962322858083544e-002
      1.5284146744335037e-002 -2.7317672995962074e-002
      1.2626117494334019e-001 -3.4052058164360986e-002
      8.4305702091292178e-002 -1.3082853649566392e-001
      -2.8576599842098521e-002 4.5805011538226158e-002
      8.9737307442982528e-002 2.8549729728813086e-002
      6.3564600897510884e-002 -5.1124531942504173e-002
      -6.4343190011867793e-002 -1.9448448329894932e-003
      2.7594867518222779e-002 -8.7125655389104412e-002
      -4.3445526247915277e-002 -8.7830052756175531e-002
      -4.8440157375951032e-002 3.7249611536865838e-002
      5.4683281949778915e-002 9.0248819049686749e-002
      1.5970172139435548e-002 -5.6438101610106969e-002
      -1.0059839600142967e-001 1.3078057655199662e-001
      5.8923451373099373e-002 8.5533511068844950e-003
      -1.0956292391002369e-001 5.9483618557769027e-002
      3.5800180290162978e-002 -1.7709323900855185e-002
      5.4010576143258396e-002 1.2116098233029247e-002
      -5.8420925893910118e-002 4.7145749099811264e-002
      -1.5605955083288228e-001 7.6292672549126321e-003
      1.2190446732864760e-001 -8.6246920221879880e-002
      -4.0889080995291260e-002 2.4151496944042498e-002
      -9.9849234932844790e-003 9.1460086357192903e-003
      -1.1440227897342557e-001 9.5812520299269899e-002
      -7.7769576085693085e-002 -1.4406695653371049e-002
      3.2715493038217899e-002 8.2103889484724472e-003
      6.2493399596270871e-002 -6.9087919137630599e-002
      -1.1779541692264811e-002 -7.0603342902513494e-002
      -3.5931016019484861e-002 -1.7974665145574348e-002
      1.2143445242989684e-001 5.7364382634806144e-002
      -5.2136367989102379e-002 -5.8784078289465923e-003
      -2.0757070607618614e-002 -3.8478624292017677e-002
      -8.0326607103483896e-002 -9.2760563001785382e-002
      2.1957958950591536e-002 1.3737280290027262e-002
      7.1686223532869534e-002 7.2942106046829769e-002
      3.9590746786248153e-002 7.7981183140654158e-003
      -4.8096601434315774e-002 8.3369277581365711e-002
      2.4578450600281035e-002 6.4692833212336071e-002
      2.2322926382189721e-002 -3.5274943574097314e-002
      -9.5987509134642900e-003 2.9106921221635725e-002
      -1.5195398508999199e-002 -8.3444011007465999e-002
      1.6997172908487141e-003 -2.2521393617664510e-002
      -3.9400333216517570e-002 7.8521902342743241e-003
      -1.1203762488230523e-001 -4.8837490380261020e-003
      1.1788466793561446e-001 -2.0924676984855377e-002
      -2.4805539019888759e-002 1.6247762538957194e-001
      1.3401903325079179e-001 2.2779839037471310e-002
      -4.3742875805054225e-002 7.3693973977092098e-002
      4.0560678267595809e-002 -2.1806767579486751e-002
      -5.6055922806733556e-003 -7.2201537030190083e-002
      -8.6387186423653034e-002 5.5656614470666402e-002
      2.3391591630289053e-002 9.0159332583853349e-002
      -3.9462482207400972e-002 -2.8515037549581342e-002
      3.6602952873827456e-002 -1.4512206781521077e-004
      1.5039965176335385e-001 1.3112005232642131e-002
      3.8741821696922897e-002 1.7095115974311376e-002
      1.3518992191689913e-002 -3.6881013700850999e-002
      -8.1561617281351220e-003 8.3299265003580814e-002
      -1.1205633507762321e-001 -9.9535538592910172e-002
      1.2661433876377987e-002 1.9161513535636612e-001
      5.9179552761289105e-002 -1.4085453108759388e-002
      6.3980016221181560e-002 3.7487935748622232e-003
      1.3956549278142585e-001 -3.9799454782545249e-002
      4.0253197962828155e-002 5.4280422483048540e-002
      4.1668373548000910e-002 6.6625213743121373e-002
      2.7334416111168866e-002 3.1303460232803185e-002
      2.8684443163997254e-002 3.4101097236116200e-002
      -3.3041870362503022e-002 -1.5890353185561965e-002
      -2.2729840525937871e-002 9.6202497710840218e-002
      7.0483928051415547e-003 1.4045044509578638e-002
      2.9576401595980992e-002 -4.3661582860005294e-002
      -7.4780635582391466e-002 -9.3637195172047244e-002
      4.8775580041200681e-002 -6.3738175070298012e-002
      1.4258856287691340e-002 -8.4298146045923422e-002
      3.4821288222302203e-002 -4.9405447098587567e-002
      3.1395102172600407e-002 1.5932364194108602e-002
      1.0812684816062931e-001 2.3303597666233779e-002
      -6.2427289285881468e-003 -5.0733035085591995e-002
      -5.6677122514274354e-003 7.9064486340736304e-002
      7.9111512563765932e-002 -1.0737714413362734e-002
      1.0810600734224370e-001 7.9322774062412192e-003
      6.5032217163788694e-002 -1.2082977251073180e-002
      1.1853553405096963e-003 -1.3210370358616131e-002
      3.8043104576996216e-002 9.6730029396890668e-002
      2.6711917171679127e-002 -4.0882792406235526e-002
      7.4219437458335896e-002 -1.2666577982638599e-002
      -3.2337136251331972e-002 3.0923390678484174e-003
      9.4882509195346784e-002 -2.3672467926413397e-002
      3.8668612940410040e-002 9.2577335548973114e-002
      -1.5422558888100393e-002 -8.3865602869989994e-002
      5.6766394999797271e-002 1.0420694992507031e-002
      9.8851363531898329e-002 -8.5072439468937347e-002
      4.4620037075948422e-002 4.8955225135519486e-003
      -1.5267626786507201e-002 1.1345891209610224e-002
      -4.0254164435681486e-002 -1.0700261917141742e-002
      -1.2316470602851748e-001 -1.5130357071701682e-002
      -6.2278057139580734e-002 -5.5038297183485435e-002
      -6.8058642083334370e-002 -5.6085924830960844e-002
      2.3280336370812938e-002 8.9924439203288263e-003
      4.5944133133857555e-002 -7.3766214450493141e-003
      -7.9138839728542340e-002 2.1045406516056762e-002
      -1.5408871923082509e-002 -8.2194603871431529e-002
      -4.8352150131930484e-002 -8.5904319327439735e-002
      9.4416212338431865e-002 4.1099548368800719e-002
      -4.2358777914572696e-002 6.5761482947417599e-002
      9.2523201186196766e-002 2.2112981809442464e-001
      2.1649302599814801e-002 9.2924437814500549e-002
      -2.0715353767117767e-001 -5.9732537779884701e-002
      -6.2328690199695141e-002 -5.3309340430697086e-002
      -1.2582656597950096e-003 -1.0940091832674234e-001
      3.9447438870165476e-002 -4.4035036092620113e-002
      -9.8368815231306944e-002 1.9371906303033457e-002
      2.1027687067546104e-002 2.6596305966939175e-002
      -3.8659733546494782e-002 5.4392415216256887e-002
      6.1147185570890655e-004 -2.4703285671677672e-001
      2.6547154182539199e-002 5.1527601822130478e-003
      3.8455991049323478e-002 -2.3145929638398308e-001
      2.3008475759459697e-002 -1.9077205949305862e-001
      8.5812586438213379e-002 -1.5191472971491399e-002
      6.9392863219292014e-002 8.9706070206460778e-002
      -2.2581169600655451e-002 1.7513910720393822e-001
      -1.1464076177326128e-001 -9.6625789097671874e-002
      -3.1636678754439776e-002 1.6766830843547648e-001
      2.2167876307727186e-001 -1.5903824434273614e-002
      -9.5791770020411421e-002 -9.2163736528878534e-002
      7.6160635755697356e-002 -2.5954452177256962e-002
      -2.5934116891286173e-003 8.5555715770079636e-003
      7.9670356570886031e-002 -2.2824361151464038e-003
      7.7768150433641992e-002 8.0731026135405490e-002
      9.6163475147768351e-002 -5.8447052188616955e-002
      -1.3032125697205285e-002 -2.2690517121070220e-002
      -5.5195982811785532e-002 4.7871411334867130e-002
      -1.1498038508500412e-001 -1.3445688075607887e-001
      -1.4627153518650629e-001 2.0860341314802169e-001
      -5.2328165387582289e-002 -8.4923984737810973e-002
      -2.6095209629014060e-001 1.1322975766548922e-001
      -1.0626175161703158e-002 9.7483871068001715e-002
      1.0275220508102274e-001 -1.0739391683975286e-001
      -4.6888676364235361e-002 -5.3122131104964915e-002
      5.1734578306505796e-002 -1.2224280267885569e-001
      6.9315536682423060e-002 1.0804465258257349e-001
      3.5132350557752400e-002 1.3172266618706545e-002
      -1.6371617360386814e-001 7.1972014358315517e-002
      -1.0930472009963586e-002 1.3682444301426835e-002
      4.8072254014801018e-003 -2.8938189227447016e-002
      -7.7028256493742217e-002 -1.0395013799587860e-001
      -2.2571624114693399e-002 -2.7139523716004808e-003
      1.0923808130789184e-001 5.5102566460356876e-002
      8.0928220932803663e-002 -2.9711363562186205e-002
      -1.5724030615657365e-002 3.0465295703492178e-002
      -4.9107687909910346e-002 1.3617209504222011e-001
      9.5900099824275081e-002 8.3518144194331081e-002
      1.5946016274679890e-002 2.7719737587973393e-002
      6.7785166343897318e-003 4.8401699433827973e-002
      -2.7024087187618288e-002 1.2050622059303498e-001
      -4.1585562251979555e-002 -4.8310964256730100e-002
      -8.0524026833238060e-002 4.0925205775436208e-002
      -6.3001052488910900e-002 1.2409423328016103e-001
      -4.2708691630721031e-002 -6.1584075731754964e-002
      -1.0469684279963594e-001 -4.1130300608554923e-002
      -1.0455896246952355e-001 -1.7636131924732033e-002
      2.7813903909536579e-002 5.5769777091529631e-002
      -9.8332793530290244e-002 -4.2779923943267614e-002
      -1.0590719130879230e-001 8.1007648464771990e-003
      -3.6367026211275549e-002 9.7429341167872427e-002
      -9.6621230210288220e-002 6.7748429557081380e-002
      -1.5055564059972213e-002 6.6033537262030120e-003
      -5.2214852420666126e-002 -2.4410613697033120e-002
      -9.5389242660852830e-002 -5.3510278085129759e-002
      -7.3062083182960239e-003 1.4672729986242009e-001
      -4.7597026861815175e-002 -4.7016063453807523e-002
      -1.3690586341565616e-001 -9.0811283346719767e-003
      4.7107148179032984e-002 4.6513596842211388e-002
      9.6941840499091977e-002 -9.0252692557274972e-002
      -6.4915993063046074e-002 3.5921965151926243e-002
      1.7525329486422081e-001 -5.4367079003233822e-002
      -2.2026085453642680e-002 -3.0583335698060175e-002
      3.4514402434451245e-002 4.2246744585683810e-002
      4.0402415801467972e-002 5.2509517910321712e-002
      -2.2897236437940869e-002 4.6449826033509743e-002
      -4.3373130959433938e-002 -1.3230010135351494e-001
      2.1334184178773406e-003 -1.4499746311044955e-002
      2.0592094194638262e-002 9.0797245670259055e-002
      -5.6154185577745201e-002 6.5506782681026388e-002
      1.6179857024666369e-002 -3.0887589720312126e-002
      -6.0570128142688931e-002 -9.6863807811102390e-002
      1.3976198792907561e-002 1.3736297826993817e-002
      4.2450533693581483e-002 -1.4642023710625041e-001
      7.0170529502006682e-002 -9.1435535537971610e-002
      5.9290445519902708e-003 -3.4263055284453427e-002
      5.4660113233387486e-002 -7.3285145171759200e-002
      7.5312980077459346e-002 5.9433061742658527e-002
      2.0477637821721448e-002 -8.4058990908317865e-002
      -2.6930300243356697e-002 1.5763303142418167e-002
      -3.8276068407219152e-003 7.2678700596265203e-002
      7.6466043055349348e-002 -8.8033668681115479e-003
      -4.9894725578893032e-002 8.9691426541257932e-002
      1.3034235778444794e-001 -4.1807308238482915e-002
      -4.9657434229325108e-002 -3.6059671744189288e-002
      1.4895626437139058e-002 -4.9296176717268818e-002
      4.6698919575166441e-002 -6.2812375534107887e-002
      -1.3250827578539823e-002 4.0132839241184888e-002
      6.4133529147346602e-002 -7.0791328511529958e-002
      -1.2573078577608556e-002 -5.7449642294760919e-002
      -1.1822285711531023e-002 4.5395336303651168e-002
      3.8475878385750756e-002 3.8159993018918335e-002
      5.4946969590434644e-002 -4.8358877502497226e-002
      -2.9743523804976593e-002 1.7997832298334727e-002
      -1.6448301712945711e-002 -1.3153657050419482e-001
      -7.2660776917337314e-002 1.0215501472117387e-001
      1.6200252466354734e-002 1.9091495894889385e-002
      2.1741253307284211e-002 1.5131282710375496e-001
      4.8770280347233980e-003 -5.0656061658710047e-003
      9.5011870909168031e-003 6.7689746966920691e-002
      3.3264141418097512e-002 5.4091200922949181e-002
      4.6838359268048566e-002 -4.6027643194334826e-002
      -5.2990651211771808e-002 -2.9328212190264788e-003
      -2.9150402301808983e-002 1.1578041488464970e-001
      -4.3076182609667078e-002 -9.7733048694970820e-005
      -1.2078047254566894e-001 1.4732268641467703e-002
      1.0852683642981312e-001 -6.4433313546659543e-002
      -1.0527979480968846e-002 2.7346791543139154e-002
      5.7839460399233178e-001 1.8336620134584456e-002
      -2.4879590921095673e-001 8.6652876101958931e-002
      -1.1569725399708648e-001 -1.8897545286994433e-001
      2.4317300204931558e-001 1.5714420012726460e-001
      1.6818945592780030e-001 -1.3924359061968694e-001
      -1.5209867315510159e-001 -1.9463338573877395e-001
      2.9044956041691852e-002 1.0999347117685404e-001
      1.2809070627487404e-001 1.3203486271056880e-001
      1.5025913851671072e-001 -1.9704241273116818e-001
      -7.6382994329514661e-002 -2.0013215690835237e-001
      1.6834864811321729e-001 -1.0111827720709204e-001
      1.5967663321723214e-002 -7.3284875452328174e-002
      1.1898682965321955e-001 1.3637176440611132e-002
      9.6814503284154654e-002 2.2100591291789168e-001
      1.3080785682820356e-001 3.4105731944922751e-002
      2.4164194417864424e-001 -1.4995048043731729e-001
      1.4938146739968203e-001 7.5778732224836068e-002
      7.6193577975656082e-002 -1.6052992252826741e-002
      1.4862036498743103e-001 -1.7354090296489111e-001
      8.6910556537003428e-002 -3.7551380921209479e-002
      8.3377243436797713e-002 3.1737758146654048e-002
      -2.2531791038444565e-001 -1.2761777352209508e-001
      9.7177638052867735e-002 -1.6221778314716842e-001
      1.3695809927725114e-001 1.4515218643418076e-001
      2.2575240581227674e-001 5.3802943834092851e-003
      -1.7186729308006368e-001 1.8290677545644823e-001
      1.1705863563337640e-001 -5.5050429472714019e-002
      -5.6193797815849447e-002 -1.5838675547720768e-001
      -8.4957241072047232e-002 2.6159990214695400e-001
      1.9497263458370392e-001 2.3480412258706243e-001
      -8.6555311682739208e-002 -7.7871763821641973e-002
      -6.7871739571485942e-002 1.8174508834432515e-001
      2.8859705320210299e-001 -2.3119075631973054e-001
      -9.0954249068513418e-002 1.2805922381720972e-001
      1.0537802716719333e-001 -6.6988470880287157e-002
      -1.2072689853106400e-001 1.2711511059595942e-001
      -1.9425724229981903e-001 -1.4392744647714614e-001
      -2.3731735704373910e-001 1.7751714520433071e-001
      2.3552945935706510e-001 1.5814925979335098e-001
      7.6436490965296283e-002 1.3928419056113514e-001
      -1.2838062621933333e-001 -6.9603125271448588e-002
      -8.5730482529401839e-002 1.9852596868412981e-002
      3.5346635276378483e-003 -6.6608941209180983e-002
      8.5754858439767379e-002 6.8706516568421222e-002
      1.2758564218193783e-001 -1.3777214509572092e-001
      -3.5551042740384745e-002 4.1854886777064622e-002
      -1.0645772353957819e-001 -2.5792811288216731e-002
      1.7607474739490772e-002 9.1053673239415364e-002
      -9.7447987002009642e-002 7.2329632303022723e-002
      -8.3055767026276886e-002 -1.8337733048875874e-002
      -4.4075950338789513e-002 -3.6188439245899456e-002
      5.7648672996917387e-002 2.5103403673044061e-002
      8.4415259228818512e-002 1.0798670534825030e-002
      -2.2116171387578751e-002 4.7492399296308538e-003
      -8.0427961897954082e-003 -1.3308337498749788e-002
      -1.2694457645220783e-001 1.0429279900231809e-002
      9.7090558181385317e-002 2.9749128432628894e-002
      -6.5576049499301736e-002 1.8250654352456297e-001
      2.2646141896618013e-003 2.3183135352820228e-002
      -7.5728534822850635e-002 -7.5565058431680973e-002
      -2.2349595252476304e-002 6.7076706132047632e-004
      -7.2047725005441987e-002 2.8768793441156310e-002
      8.7570078630248849e-002 -5.2693018343866180e-002
      -8.3650605211947976e-002 6.1808796625079321e-002
      5.8606395196902285e-002 5.5583973328400746e-002
      -7.5987198231614345e-002 1.3989289944413785e-001
      9.7055758373000872e-002 6.3880521251442647e-003
      1.2420066759466671e-002 -1.9353135104656725e-002
      -8.4942159423103111e-002 -1.5929209588853948e-002
      -2.4531238471363622e-002 -4.1901173497602346e-004
      -8.8706362643364747e-002 -2.4447216161148533e-002
      7.8924916397325379e-002 1.2693208632620336e-002
      9.8853547528974878e-002 -9.3414209362147865e-002
      -3.1373413779202816e-002 1.3761882577093987e-002
      1.4480576639473308e-001 4.0009455925471497e-002
      -1.8990379965657458e-002 -5.9621287477026521e-003
      -7.1522185247757983e-002 -1.8146494386364179e-002
      6.5948800101047533e-002 6.0990060712419497e-002
      -7.8746883782129448e-002 -1.8424541677125532e-002
      3.9332166060258800e-002 4.5171279383374570e-002
      -2.6282664458693289e-001 4.5843061458279523e-002
      -2.3146473015062077e-002 6.9655477944686314e-003
      -2.0122499230644346e-002 -3.9002885117842565e-003
      -3.5340870500644904e-002 -5.8808576432187294e-002
      3.5450315101505821e-002 -3.5100815688708029e-002
      5.3541251872089836e-002 1.0379578784034098e-002
      -1.3901655776856729e-002 -1.0526400071918473e-002
      2.7949553820316501e-002 1.2477160688430442e-002
      -6.5657117152617531e-002 7.6044283578185781e-002
      -2.9216188402811639e-002 4.9286942981283950e-002
      -1.8229120871191877e-002 7.3901567598289144e-003
      1.0149210659692503e-002 2.0142047541440312e-002
      3.5633295643468767e-002 7.7618412536971992e-002
      -3.2026031033017509e-002 -1.0213337834473145e-002
      -2.0986183331028564e-002 7.2755089199217651e-002
      -7.8509187339161304e-002 1.1848406925964959e-001
      -5.3849672702606877e-002 -5.3816513176583113e-002
      -8.0188902077551499e-002 -4.3306413352218867e-002
      -8.5697917236583751e-002 -3.4465972611657951e-002
      1.8526705120426090e-002 1.7185134131910969e-002
      4.5048471252866068e-002 -4.3265488938397836e-002
      -5.2503046280524969e-002 2.2272454966520593e-002
      1.9867379162597603e-002 3.2959011527503856e-002
      -4.6781776844738845e-002 -2.0823396487602380e-002
      -1.7325338946487974e-002 3.0576428622106615e-003
      -9.3078023260550063e-003 1.9093196414673483e-002
      3.8395645333725359e-002 -5.9207866963166170e-002
      -5.0201059512715472e-003 1.2378138711538715e-002
      -3.4436095775477155e-002 -3.9497962396557125e-002
      -4.5418650537958849e-002 1.4569745821936261e-002
      4.5068538987463498e-002 4.7273767993869599e-002
      5.1689812543665989e-002 -1.2786404644882385e-001
      1.6231477133736116e-003 4.0035680170315925e-002
      9.8483271284817500e-002 -4.3739712070330200e-002
      -6.1330778281841365e-002 -1.0272732347244384e-001
      -1.1160965288560950e-002 7.1098490407755732e-002
      1.6748808218914609e-002 -6.3104395402278461e-003
      2.9541404105751078e-002 1.7000635006568714e-002
      -5.8887771560180116e-002 1.9871288871393816e-002
      1.7672485268222814e-002 3.0474822984392084e-005
      4.8598357123161873e-001 -3.0725022186479052e-002
      5.0024473743702287e-002 -2.8269340876737891e-002
      -7.2669723758198607e-002 -3.7467269476298241e-003
      2.8321159827948306e-001 1.8878065945838698e-001
      2.1039035698851763e-001 -7.7227883791516919e-002
      -1.5831254642519307e-001 3.2717507610188622e-002
      -3.6872842016934013e-002 4.0713229540849348e-002
      1.5481138762316909e-001 1.8383121267572727e-001
      5.9075845658979727e-002 2.5013197197183823e-001
      -8.6872902962013623e-002 -3.4740083367897655e-002
      9.7083179174063644e-002 1.0926999154992818e-001
      1.2394315727823191e-001 -6.7616691563143774e-002
      8.8635315705162740e-002 -1.2582342541492396e-002
      -5.4754895833064428e-002 9.7285258923662118e-002
      1.2610762427411762e-001 -1.1782696402556925e-001
      7.8809112668636761e-003 1.6291910289072380e-002
      2.0747570757005382e-001 -2.4203401033895091e-002
      -9.2203549788680866e-002 2.3506135415883461e-001
      -7.1578438283854504e-002 -3.7911149273403381e-002
      -8.6792588418345126e-002 -1.1423667090584302e-002
      -1.9251119133579506e-001 6.5965790646674502e-002
      -9.8393547855165228e-002 2.2844620677220728e-001
      -1.0926749376014860e-001 -1.9042692917909343e-001
      -1.9238913875345140e-002 -3.0625105048982686e-002
      -1.4530450197591430e-001 7.7423865501177289e-002
      1.5358568451560983e-001 1.2775757840145965e-001
      1.0813647198414673e-001 1.5506357655556316e-001
      8.0438688973865802e-002 1.0876963748561785e-001
      4.3263096068777797e-002 1.1459055893231825e-001
      -1.0077284046490764e-001 -7.0414847945362291e-002
      -2.2161744447929888e-001 -2.3814232973838282e-002
      1.8577930759468994e-001 -1.7001412037038182e-002
      -1.7681015980869372e-001 -2.5266255815896688e-001
      -5.6703861686705770e-002 -8.4703915363240345e-002
      1.0774314384962552e-001 1.6433000619428928e-001
      3.3016859887752895e-002 -3.8173250090249911e-002
      3.5078757200144604e-002 -1.8149658068215280e-001
      5.2924364734247227e-002 3.8885627536073782e-002
      9.6475321706168422e-003 1.9819684185412365e-001
      1.1682315117996277e-001 -5.8203491446540100e-003
      9.1449586122210003e-001 1.0686705510309119e-001
      -1.1795318274275760e-001 8.3890787748920424e-003
      -9.8406770499791754e-002 -1.7761915178979090e-001
      1.9612462549243903e-001 9.1002162155316355e-002
      1.0714076014755199e-001 -2.7341317607068659e-004
      -1.2723749734447762e-001 -1.2309027724614348e-001
      1.1750113794130840e-001 1.0579902981138337e-001
      1.6493750808529548e-001 1.3523651416831897e-001
      2.1546526063891402e-001 -1.2641254025504527e-002
      6.7616524863734137e-003 -1.1611382187775983e-001
      3.0258879162737301e-001 4.9089704712345111e-002
      1.9451883302500809e-002 -1.0483476963656724e-001
      1.9372748803917251e-002 8.1170666788789911e-002
      1.4087662547276027e-002 2.9010241854447155e-001
      2.6432387013207237e-001 3.6212924298209034e-002
      2.5760250523197165e-001 -7.3392276817848004e-002
      1.3035919133417984e-001 -2.1376269199388641e-002
      2.0714753008949523e-003 -4.4814878007331166e-002
      2.3641870415374411e-002 -2.5265366639880538e-001
      1.1846311065209100e-001 5.5864220017912511e-002
      -3.6560382552208166e-003 3.5734511108500934e-002
      -1.7801593632635879e-001 1.5303806627479205e-002
      -1.0710352883373687e-001 -1.2241798044138689e-001
      1.4909152273699197e-001 4.6958430077855988e-002
      -1.4909678618765488e-003 2.9463842947471844e-003
      2.6553504146741860e-002 8.6939993792872414e-002
      9.2745156710727326e-003 -3.1841310158079221e-002
      6.6211265418533128e-003 1.1913317319917200e-002
      2.6111982412116371e-002 3.8199086272922045e-001
      -1.8836170799590190e-003 1.2372800526078971e-001
      -6.8768599821148621e-002 -2.4485673527020739e-002
      -2.1032632594961402e-002 7.3073367305536888e-002
      8.8849206082453974e-002 -2.3963307500553407e-001
      -6.8709454060069050e-002 4.9571274714580033e-003
      1.0306143882289609e-001 -2.2723457399186821e-002
      5.2362934725810797e-003 1.6056722961798392e-001
      -6.2812358131405371e-002 -1.5977768665311659e-001
      -2.4151173180492258e-001 9.5173839680878267e-002
      1.8919570086474574e-001 2.3359901057133392e-001
      7.2692820034630845e-002 1.4311997554095479e-001
      -2.1236499111870807e-001 -2.0857728119671359e-002
      3.3078695266537783e-002 -2.0233536476341747e-002
      3.6850367154275192e-002 3.8373215277511669e-002
      5.3299966408093527e-003 -1.3169936887342590e-002
      -2.9272992228284427e-002 2.6513472981481847e-002
      2.3652476312935988e-002 1.7288875600701473e-002
      -4.8521804742757281e-002 1.4960327829062202e-002
      -7.9510498084511452e-002 -5.9693717227178748e-002
      -6.5062685863544495e-002 -4.1893555917916415e-002
      -2.0526131269914715e-002 -2.7671700655910219e-002
      -8.0153123481738388e-003 3.2562699758712767e-002
      -2.8073980859032285e-002 3.6946225498050933e-002
      -4.3467620382264940e-002 -2.2593818937724313e-002
      -6.1075890939631342e-003 -2.1879445121518043e-002
      2.0922180576993969e-002 -2.3117064607316447e-002
      -4.9037872664866915e-002 6.8340049469978625e-002
      -6.6463056977889255e-003 -1.7235360375353094e-002
      8.0914375039106406e-003 8.8013036475131312e-002
      -3.0982411749412981e-002 9.6501176599055501e-003
      -1.1686097516657758e-001 -2.5084340701829952e-002
      1.8664959311062778e-002 9.0100951201483096e-004
      7.0516829715554660e-002 -2.7862880680356559e-002
      9.5671675470546010e-003 3.4711887031025255e-003
      7.5264517873977347e-003 -7.6700774882291364e-002
      -5.0341884634526714e-003 -3.1732838945376066e-003
      1.4114147342139326e-003 -1.2170738983269640e-002
      -1.1154433765496033e-002 -1.0274246710779093e-002
      6.2690255352679750e-003 -2.5148892030297288e-002
      -7.2188669253949470e-002 -2.9448863774695584e-002
      -9.7904789887942843e-003 1.1044267465775841e-002
      -2.1877779618948399e-002 -1.0313322126747047e-003
      -6.3389241889378237e-002 -4.2742933888218364e-002
      -6.2312297207262238e-002 1.8622595145339669e-003
      -4.9047420359980658e-003 3.9281685020415971e-002
      -6.1108700674040325e-002 3.0770068807973179e-002
      -3.5247721808479944e-003 -1.2342855788203287e-002
      4.9980911337077792e-002 6.0566536665526111e-002
      5.0272586268578688e-002 -9.3790861463823275e-002
      6.6881867090068251e-003 -2.3459885376232392e-002
      -2.8837815535917997e-002 -5.2831983271517243e-003
      1.1804633913584830e-001 1.2881551542160072e-001
      -1.5444037184111900e-001 3.5605787437760744e-002
      3.6329630915708323e-002 -7.5561759410819732e-002
      -5.7568580858506295e-002 -1.6139066060849733e-001
      -1.9165857619769862e-002 -5.8218200368486760e-002
      1.7702722663065742e-001 -5.7583732218457286e-002
      6.3897275752689220e-002 -1.9030276125854489e-002
      2.3949257233103653e-002 8.5776614715575614e-002
      -2.4007432187408327e-002 7.0871451804611865e-002
      1.1017464365207991e-001 1.2914623650062605e-002
      -2.6598117679064410e-002 -5.9952646162112516e-002
      9.1060083542340454e-003 3.8077900642636768e-002
      -2.3864303296608224e-002 2.0580186541813184e-001
      7.0211130723291659e-003 3.5452648407118877e-002
      -2.2049143637720179e-002 1.4211497578926860e-001
      5.6873717879272152e-002 1.5176654522695349e-001
      -2.9340293736908038e-002 -6.1434930699896979e-002
      -7.2014093264380602e-002 -1.1189295001178300e-001
      -1.5779350223764282e-002 -1.5136085139001568e-001
      6.1751339367236965e-002 5.3772925106025042e-002
      3.0247877939843782e-002 -1.3150339099608002e-001
      -2.0955393807903547e-001 -5.0928459234337482e-002
      9.3787322945101073e-002 9.1801446381088211e-002
      -1.0610502183268086e-002 9.2865596504297682e-002
      9.1416124986198027e-002 2.6495210834527881e-004
      -1.2177250607337743e-001 6.7741149063111419e-002
      -5.0300775965428673e-002 -1.4984768535519308e-001
      -5.6555188195419166e-002 4.2601033105665313e-002
      -1.2114792841638289e-001 8.5670770162650484e-002
      6.7779749660805660e-004 1.2181136313023787e-001
      1.5726396528456109e-002 4.4656883606226022e-002
      1.1799301000861015e-001 -1.0078803922680252e-001
      1.6809836288458330e-001 3.4200491550413450e-002
      1.8446923427651735e-001 -1.4727322407282702e-002
      8.2175067676169528e-002 -1.3150053358568206e-001
      -3.7649864381505173e-002 1.5244648526722104e-001
      -4.9040084550760761e-002 3.2585801557969328e-002
      -1.3100304401649199e-001 1.5041745056101719e-001
      7.8341792653058143e-002 -1.2778954472101198e-001
      -3.8610413669131545e-002 3.8752996938567486e-002
      -6.5929157667914268e-002 3.5481167186600049e-002
      1.1579212956640801e-001 1.0899267827317349e-001
      8.6960709187424313e-003 1.8100744874464036e-001
      -8.7837249369102796e-002 -3.3021867378654535e-002
      -1.0994718491496432e-001 1.1546957371855686e-001
      1.5603510890051679e-002 -1.3751653425846128e-001
      3.7147981941414977e-002 -9.7591066346620958e-002
      5.8291009984311817e-003 -1.4255019862592277e-001
      1.0597739446684327e-001 -1.0409223359116447e-001
      4.8133110916228170e-002 8.6922152433910174e-002
      5.9063011457821592e-002 -3.4086542864875953e-002
      -6.6816420429177389e-002 2.3578384382911578e-002
      -7.1985857227010994e-002 -8.7184760296647429e-002
      8.6968813712797813e-002 -3.9408934393570065e-002
      9.3850358742769962e-003 -4.0055938620782230e-002
      1.3188031151148150e-001 -1.2291407935047773e-001
      -9.9324676667159065e-002 -2.9780037010705671e-002
      8.7311123966450868e-002 -1.0292173714371970e-001
      2.3910562278421536e-002 1.0048988859860113e-001
      1.2134845355534885e-002 2.0541406425983944e-002
      2.8573783609470247e-003 4.0220807666485253e-002
      2.2289000579522805e-001 -1.1041460833426574e-002
      -9.7525407807801015e-002 5.7313436379958393e-002
      9.2872737237937764e-002 6.9204721667284960e-003
      7.0293195267789495e-003 -7.4441051386585300e-002
      1.5218223957079885e-001 -7.2884052078949199e-002
      -1.1550024195107502e-002 -3.4544012381456476e-002
      -1.4222713197225031e-002 1.6524863221557079e-002
      3.1787146134927280e-002 -1.9195031849553613e-002
      4.8327194113661376e-002 5.9927112312655073e-002
      6.9683922933771847e-002 -1.5933865343846627e-002
      -9.3020472268997498e-002 1.0151032071737866e-001
      -5.1726212422972241e-002 8.3066720859003032e-002
      -9.0713160214218977e-002 3.6649322585228968e-003
      -1.9666800561986966e-001 -1.2581100133216649e-001
      3.8576882143373750e-002 -2.1362973948509983e-002
      -1.9503259387133674e-002 -4.2878705959553190e-003
      -8.3920383560893402e-002 -5.2264776127089727e-002
      7.5377836565145032e-002 -6.9248303077414128e-002
      -2.2766135831920498e-002 -9.6042014530366066e-002
      -1.6897779316473618e-001 -1.0719217865380930e-001
      1.7574232064483785e-002 4.5601412814882461e-002
      -1.0043438918210709e-001 6.5225305006250275e-002
      -9.8060273718939203e-003 7.1021178891841813e-002
      5.9004801635879948e-002 -3.7026413943124468e-002
      -6.1560381577362717e-002 3.7716848864447872e-002
      -1.1916977163086157e-001 2.5836512455129298e-002
      8.0173622836339810e-003 5.3249723896651975e-003
      -1.0169689737852536e-001 9.4937225166315253e-003
      -7.9364804314906029e-002 -7.0947743617315151e-002
      -1.5205791581622427e-001 -7.1355761092711939e-002
      1.6159698740519642e-002 1.0182267997601482e-002
      9.3277180860193612e-002 -1.0451600231246873e-001
      3.7245221260948896e-002 -6.3647051798824628e-002
      -6.5325615083802330e-002 -7.9584948810203823e-002
      -1.5008699074993875e-001 5.3355265422543152e-002
      1.1654985342505756e-002 6.8174824871889070e-002
      5.4866730572229024e-002 4.7380852937587078e-002
      5.2237775618224964e-002 3.8875664050974784e-002
      -1.0952918255060623e-001 -5.8606875603193553e-002
      -1.2823088857551146e-001 9.3698328863866240e-002
      3.0798739995441707e-002 5.0856958819596974e-002
      1.3072478227307391e-001 -2.8183030076038649e-002
      -3.9958476116770836e-002 -1.0371867144450033e-002
      7.0544370073987755e-002 1.9352283128757766e-002
      -1.4026502959520442e-002 4.1452023661409369e-002
      5.9590736065024880e-002 9.1948334555278732e-002
      9.7354846030114125e-003 -6.8791013747777074e-002
      -9.1598885521206236e-002 -8.1682011125133666e-002
      8.5635078873672721e-002 -9.1187615112032036e-002
      -1.1655925671068374e-002 -3.1168949940221492e-002
      1.5375631333868874e-002 -9.1869215260226039e-002
      -1.1171726902851465e-002 3.6680230528933717e-002
      -2.9544757416310297e-002 6.4409603118568359e-002
      -1.9928801179223382e-002 8.0560495265551962e-003
      -7.4626128570725744e-002 -8.5168065185205158e-002
      1.1287471762588090e-002 -3.7337552861989372e-002
      1.9129497209689500e-001 -9.0739673834933244e-003
      -1.3487596355321896e-001 -1.8697997089202650e-002
      6.1537954213027372e-002 -4.4179132291298953e-002
      5.4250126540078858e-001 -1.0942168682563361e-001
      -5.1406237405037573e-002 8.7908600508017340e-002
      -9.6624709921531812e-002 -7.1592231206004317e-002
      2.2701514418766267e-001 2.2292946062127025e-001
      1.3325492272487047e-001 -4.8063938364891895e-002
      -2.7279088432470516e-001 -1.4178712287633588e-001
      -9.8932990395869780e-002 1.1323276103884582e-001
      1.2484283381878888e-001 4.5758598011526250e-002
      1.1850329231875516e-001 -2.0323391004966970e-001
      -1.6957822726421648e-001 -2.0574479176275992e-001
      5.0227000611773993e-002 -1.2805455715968617e-001
      1.4970812525583260e-003 -1.2716756993731837e-001
      1.1886645063427251e-001 -1.4981171395882509e-001
      1.2133867625115127e-001 9.9783454944818203e-002
      1.0228483071037960e-001 -4.1582656937162787e-002
      1.1576251652974304e-001 -2.0085990580454066e-001
      8.3870848661689187e-002 1.5492698365499272e-001
      2.0219784378619104e-001 2.9374327115519520e-002
      2.8724893949078084e-001 -1.7364454990986949e-001
      -5.5386892174019736e-002 -5.3990842968056361e-002
      8.6338993275765788e-002 4.0750278546695162e-002
      2.0362793789548413e-002 -7.3050939880436719e-002
      6.3696968116597086e-002 -1.9529439628173056e-001
      1.4426377442787136e-001 7.3590376160782595e-002
      1.2715351124976096e-001 -2.6638101456951321e-002
      -4.9328917564889538e-002 1.0233342227564415e-001
      1.8264993994621403e-001 5.7848276981034917e-002
      -5.3585848199589260e-002 -1.7225646652333587e-001
      3.5956571621827443e-002 1.3282418007825725e-001
      2.9096950839379404e-001 8.8966410081694008e-002
      -7.6410226024326164e-002 -7.4006178534071890e-002
      -9.5261455501586642e-002 1.5349120814887787e-001
      1.3813618122839427e-001 -1.6665512130108093e-001
      -2.8877538361942079e-001 9.5961719239301024e-002
      -6.5032419819262555e-002 -1.1013283260793766e-001
      -1.5044102515157851e-001 -2.7420272945980852e-002
      -1.6461342433390153e-001 -1.5925329400335536e-001
      -2.1326021710057499e-002 7.3816901295572043e-002
      5.7600713454110636e-002 2.1617639222203705e-001
      5.1844045347158571e-002 5.1368318757992096e-002
      3.6741070356019756e-001 -2.8309913675769621e-001
      2.8061455614768593e-001 -6.5476324433058314e-002
      1.3322632155818906e-001 9.9512522119898569e-004
      -2.1646275993749488e-002 8.3938126802114363e-002
      -2.0985401326143185e-001 2.6761880101157892e-001
      -1.4182086899607277e-001 5.4510259064196841e-002
      -1.4553808964009504e-001 2.6421790874369355e-001
      -3.8091839071126614e-002 -7.8608588340638427e-002
      -1.0010557421638486e-001 -2.8080884113753957e-001
      -1.1836844118821306e-001 -2.8958141828850703e-001
      -1.5982630721888386e-001 -8.6428005464518939e-002
      -4.1780042715447697e-002 -2.3720364981612166e-001
      -8.9267059405396046e-002 -3.5340855885233879e-001
      6.5176075376831566e-002 -4.6620306453256301e-002
      7.0853908107163285e-002 -1.4776769763958447e-001
      -1.9196425439989845e-001 6.2562925298173727e-002
      -2.8565592586301012e-002 2.3882482543050138e-001
      2.3796381611967904e-001 4.9522857598141741e-002
      2.8261427995498162e-001 -3.8572125094556341e-002
      -1.5185246881699138e-001 1.0875516880303780e-002
      1.3941331787191980e-001 -3.9178700089429641e-002
      2.9214460805940656e-001 2.9002717952906796e-002
      1.6150446160419002e-001 -1.2287882796970150e-001
      8.3986251722431418e-002 -2.4120861946429722e-001
      -1.9278634707945000e-001 -6.1661767242681964e-002
      8.7537897877084214e-002 -2.6279926088572392e-001
      -6.4226045178579910e-002 2.7488028614338950e-001
      -6.2883432154865040e-002 -1.5184121210257318e-001
      1.9391398714430649e-001 -1.2107224290958092e-001
      2.8412784977012973e-001 -3.3429805252908518e-001
      1.3186377028159568e-001 6.7742349691565354e-002
      -2.0638744618784921e-001 -1.6714900118537362e-001
      -1.6762169687312412e-001 4.6523257741734152e-002
      -2.8315872648712853e-001 6.4334364822050794e-002
      -8.1011924851997930e-002 8.1893706710423453e-002
      -1.9745535304645867e-001 -3.3316740140448287e-001
      2.4650451560574271e-001 1.3791399416813534e-002
      2.7225066685708216e-001 -2.2828861103524203e-001
      -2.7483438295454149e-001 2.2749915187006326e-002
      -9.6320911577482168e-002 -5.0683251321016705e-002
      2.2355291469758420e-001 -1.1275835477014408e-001
      7.3579493432575901e-002 9.4776907785933409e-002
      2.9622075514592387e-002 1.0926447751593854e-002
      1.4283090115687808e-002 7.7368522232029405e-002
      -1.4753178716196411e-001 1.4139187902408712e-001
      -1.2396374777148131e-001 -7.3747705970464345e-002
      -1.0161652972014010e-001 1.8770668399393617e-001
      5.8775312603099983e-002 7.7078844092734154e-003
      -1.4023625033645605e-002 -1.6381651581705062e-001
      -1.0848864547461462e-001 -2.5755418338545355e-001
      -4.1017663514396285e-002 -1.3464202791346408e-001
      -7.0745262036515976e-003 -1.2571499099847058e-001
      4.5673882477794726e-003 -9.0450773765767767e-002
      1.3104379110518166e-001 -1.3731937504819323e-002
      8.1300154871355012e-003 -6.6646008787702937e-002
      7.9077747552400053e-003 1.6896100004751245e-002
      -3.6467472773645211e-002 1.3080799624157599e-001
      1.7998636393911061e-001 4.0561527222855900e-002
      2.3292892716117469e-001 -1.2200506590247456e-001
      -9.8448642195423444e-002 -2.0307011689340872e-002
      3.6055025298025400e-002 -2.0711148957838738e-002
      2.8893119130494489e-002 -4.4520088467694631e-003
      7.1891847747141815e-002 -1.3097366604029737e-001
      7.6915139788495374e-002 1.7896500118709243e-002
      9.7034356359125915e-003 -4.8861867366921795e-002
      8.1463865073919076e-002 -1.2866319879287705e-001
      1.8145734155332320e-002 1.0282485527625113e-001
      -6.8556990582702676e-002 -1.6356133598815217e-001
      2.5038239518818357e-002 3.4943094368028574e-002
      2.1594515213845727e-001 -2.2916171051892129e-002
      9.7262174796711287e-002 1.8423734385904205e-003
      -1.0090171465036241e-001 -1.8677548248520973e-002
      -7.4730451429075806e-002 3.9127439236938628e-002
      -1.8105735255903782e-001 7.4009330549980171e-002
      -3.5853869890702265e-002 1.0077955960921668e-002
      -1.5704573502779040e-001 -6.3219407095182187e-002
      2.6433846008121868e-002 -7.6213855806615771e-002
      5.4767164430525025e-002 1.7021022472120020e-002
      5.8409371092725433e-002 3.3757084556279772e-002
      -1.1934247149175634e-002 -2.6313983725213146e-002
      7.4372737751059207e-003 2.9497863954168251e-002
      -9.8814919455444301e-003 -8.4351551991277438e-004
      3.9276816285753524e-002 -5.9752506261741979e-002
      1.8978506404424594e-004 -6.9220847162647758e-002
      1.1261094716896351e-002 -2.7780521668637564e-002
      4.8603877597981945e-002 -1.7190527164145888e-002
      6.9909011036692883e-003 -6.3885713514630167e-003
      8.7452523606819533e-003 2.8908325447433637e-002
      1.4721385506560490e-002 1.6586149885656190e-003
      3.0205339958292377e-002 3.6540301125681664e-002
      3.5622488910516954e-002 2.4853119836780412e-002
      1.0056610788560044e-002 -8.3655965391320301e-003
      -4.7601163813271521e-003 6.3543979863895178e-002
      2.9554712485157127e-003 4.2712034391672080e-002
      4.5149772489196438e-002 9.5074442712409543e-002
      1.7046260723039948e-002 4.0331869318807377e-003
      4.9827025059275684e-003 1.9815495267354440e-002
      -1.8836578936430207e-002 6.8790040942007951e-004
      -1.8369879325073044e-002 -3.5307448142416507e-002
      7.1933644493127974e-002 -7.8341215132025979e-003
      2.7037706209420850e-002 -6.1738743726374327e-002
      -3.7743578740388001e-002 -8.6150220111828237e-003
      -1.3515220013167468e-003 1.3001337595300642e-002
      4.4755573446378701e-003 1.0215693755206586e-002
      5.1644503322620669e-003 2.3216854611395861e-003
      -5.0627155730333474e-002 3.1627868985379066e-002
      -1.3259427867837148e-002 -2.3372944015455394e-002
      -2.2455690775273686e-002 2.9540858779169453e-003
      1.6922397799399705e-002 4.3940996777078675e-002
      -3.9742711564122728e-002 1.3528262368362822e-002
      4.2956957588100968e-002 4.9106665599055578e-004
      2.5754331913482378e-002 2.6519045122718493e-002
      3.6577720206142944e-002 -1.0353637574490690e-002
      2.3601449419929615e-002 -1.9887018981266007e-003
      1.1009146894686700e-001 -6.1683671782521099e-002
      5.1301366602260617e-002 2.2384734349864720e-002
      -8.5071293491092007e-002 2.0749618110391067e-003
      -4.9071159521914487e-002 3.1048486765561316e-002
      -3.0678409877815706e-003 3.4832973493724852e-003
      -2.3633115391570474e-002 1.0723740161049036e-002
      3.6526516287878530e-001 -9.0054675212382831e-003
      -1.3600515226582340e-002 6.5744764822237289e-002
      -1.5605693671166902e-002 -2.6144681267256310e-002
      -1.4216499078096764e-002 9.5733360729830907e-002
      -5.1543214941002065e-002 6.2581430024106932e-002
      -5.1622753903842251e-002 -1.5790993411109505e-001
      9.3199886824659947e-003 2.7879260402654722e-002
      -2.8194819999926013e-002 -1.0442786296949103e-001
      8.7197962791888683e-002 -2.8905337182090185e-001
      -1.8083897854203838e-003 -1.0947352202015849e-001
      5.0446805895858038e-002 -7.3844453897982651e-002
      -8.5169247008327953e-002 -1.0918664798740558e-002
      -3.8946907950726431e-002 -1.0368188725239293e-001
      1.1692803586679679e-001 1.2786770111423107e-001
      1.1983679377166791e-001 -5.5858356304171575e-002
      1.4986175579332772e-001 -1.3424969708921808e-001
      9.2743156604380376e-003 4.5286156924088827e-002
      1.7060796672901193e-001 -1.3704913884989833e-001
      1.4365502733548471e-001 -2.3634974024504065e-002
      1.5585159920297629e-002 -3.4469131700509574e-002
      1.3905242309170140e-001 4.2545335226687214e-002
      9.6255238298833520e-002 -1.1876390339065433e-001
      4.6702800733416226e-002 -2.1491648167976524e-002
      2.1960732634560393e-001 2.9897626779232770e-003
      6.8513749278927463e-002 -8.2937284393058266e-002
      -5.2778588796394584e-003 1.2081878314620750e-002
      8.0727655793459176e-003 -1.9657510891135710e-002
      -3.9201484018496699e-002 -1.3671102829469950e-001
      -3.3858891929789060e-002 1.0992197867079168e-001
      1.7412530658736364e-001 8.0885847544595796e-002
      6.4095022857484406e-003 -7.3075311442953816e-002
      -2.4610041801702104e-001 8.1170525313254874e-002
      3.1010266274805732e-002 -2.2535165195982500e-002
      -1.6994270956727534e-001 1.1454606829326784e-001
      -8.8476771283993005e-002 -5.6992767905282057e-002
      -2.4194541737411774e-002 1.8256883753240323e-003
      -5.0873579948331644e-002 2.1435379283184897e-002
      -1.1892601962550624e-001 -5.1865806320718570e-002
      1.3692737044166189e-001 -8.6230994273621894e-002
      -4.1768805752107833e-002 6.1269433041057399e-002
      6.4371749810707049e-002 5.8882666428186854e-002
      -1.2279211044232279e-001 -3.1367931049242355e-005
      -7.6048129847003515e-003 -2.3939164531893913e-002
      1.0110885184373840e-001 -1.6978329087760591e-002
      8.2312401333097904e-002 -1.0362823892051536e-001
      7.4603838748143157e-003 -2.4104275618171446e-002
      3.4107483976311338e-002 -3.9429584099538263e-002
      4.0547683790147927e-002 8.7183351652573807e-002
      -1.3337164433985894e-002 6.3365468676728487e-002
      2.7086973981255362e-002 1.7367923806122273e-002
      -2.2106622497779914e-002 -2.2695503786311320e-002
      4.0973930458349392e-002 1.0192763345532142e-002
      1.1656699989690560e-002 8.1125087715665373e-002
      -2.4980001649133918e-002 1.0579634955553063e-002
      7.2608485212924271e-003 7.9123927737970848e-002
      4.9798371353043398e-003 4.1242454802083058e-002
      3.3007916075438667e-002 -3.3119553355164207e-002
      -3.6627171345540770e-002 -5.0174496513759582e-002
      -2.9801414302933153e-002 -8.2216041692092942e-002
      6.3457116348153916e-002 3.8240402416497482e-002
      -2.7313950912933073e-002 -5.0603716219952848e-002
      -1.1600575506633086e-001 1.1206605086855505e-002
      4.6674640877855104e-002 -2.9557384652671093e-002
      -4.6024551103527135e-002 7.4017058502053507e-002
      1.6129220265728814e-002 3.8161129772763050e-002
      -3.1059337163772748e-002 7.7199063529685211e-002
      -2.1944149877010353e-002 -4.1141335037197448e-002
      -5.5720491165142817e-003 2.9668964834460545e-002
      1.1349823470545233e-002 4.0695741097037490e-002
      -2.8596858122646236e-002 5.6877821248835010e-002
      7.3566188170189955e-003 2.7549331895566378e-002
      7.5204497696862230e-002 -5.9644797428891325e-002
      1.0691851527649569e-001 -6.3172559459809582e-002
      1.9323814178206417e-002 -3.3957653625030421e-002
      6.9813842234968573e-002 -5.2365311221379045e-002
      -2.4160851527431287e-002 1.0322232493528945e-001
      -1.8105138476440057e-002 -2.3064357841109800e-002
      -7.2895532313562078e-002 9.6925950967054753e-002
      -2.5395021817182582e-002 4.9689641820441888e-002
      1.2312387794760505e-002 1.2438020011926820e-003
      -3.7190188982019551e-001 5.4878441441847864e-002
      -1.0697660103656902e-002 3.3927886053446564e-002
      1.0723096857445642e-001 7.9261160353595261e-002
      -1.4998789588744956e-002 -5.4947593968388553e-002
      -2.2460025191927940e-002 -2.8030464596944034e-002
      8.3329631425362441e-002 3.9927048918124444e-002
      1.5275273217681368e-003 -6.8194125151204391e-002
      -1.9340846101409175e-002 -3.5551285220316496e-002
      -4.6626388994883375e-002 9.1418425209744428e-002
      3.3384010960331605e-002 1.1127619775921106e-001
      -5.9585535346597829e-002 -3.0934352606184639e-002
      -2.4324496072303807e-003 -8.7831829406635024e-003
      -3.6398388479409759e-002 7.1512984484437506e-002
      -3.3890258552040635e-002 -7.7243090930813302e-002
      -7.5963301076362399e-002 7.9604082243390106e-002
      -4.5756396121315275e-002 4.8238399083873923e-002
      -5.4798144619328602e-002 -7.1091372068541422e-002
      -6.8807355206526769e-002 -5.9709941448858840e-003
      -5.8853368192531341e-002 2.7129981752525352e-002
      -2.4058365299644328e-002 1.5137808716184619e-002
      -3.8089609088115685e-002 -8.3965045150932408e-002
      1.3362166065756851e-002 5.5271659230261720e-002
      2.4997073907734757e-002 3.3333078403998517e-002
      -7.1079948998885575e-002 9.1952241888085678e-002
      -7.5301184792666218e-002 -7.0403006782610543e-003
      9.8570802394217977e-002 -2.4188102878729311e-002
      -6.4790789509097460e-003 -5.5996199106209697e-002
      6.6605762993962175e-003 3.9358625442455254e-002
      8.5370624035501178e-002 -7.2322356644865748e-002
      -7.3092692928648298e-002 3.8077635110912542e-002
      3.2643893594030006e-002 4.1091567475714449e-002
      6.3312401606871710e-002 -3.5126132909735007e-002
      -4.5317829575376771e-002 4.6433606561348158e-002
      5.9890188025924634e-002 -6.7263312993440946e-002
      -1.1890578637010511e-001 7.5231751439560517e-004
      -1.6134398865345165e-002 5.1005451817852897e-002
      3.2062667122456937e-002 2.8788935147587565e-002
      -3.8966183628062548e-002 6.1633912744411684e-002
      1.1318486534834429e-002 7.9979037144366563e-002
      -1.2952277304347858e-002 -6.7984722079705642e-002
      6.8368281217412855e-002 2.0723831898480982e-002
      1.5783026062670247e-001 5.0223055540761855e-002
      2.3770870679349726e-001 1.0469210057667730e-001
      -1.4828958729480068e-001 -1.5658448210929671e-001
      -3.0275958322205920e-001 2.2112202646026560e-001
      1.2203230111280708e-001 -2.6852200845986430e-002
      5.2463120780730413e-002 1.5883931427818154e-001
      -6.0102448032053314e-002 -1.0766271415286067e-002
      -1.8565320538660602e-002 -9.6971970953806871e-002
      6.9609232314383929e-002 -8.6632905584033068e-002
      -3.3248359859964119e-002 -1.0667260926872474e-001
      -2.0997378511456340e-002 -1.2808962784175792e-001
      -1.6892187661460356e-001 -3.4030383534588218e-002
      5.6007390846521038e-002 -4.1118854555201312e-002
      1.4924010025537626e-002 5.8598641290067095e-002
      -1.4882652629475367e-002 1.4582306239022169e-001
      -1.5944074694639393e-001 5.0501455948055510e-002
      1.0441252519829747e-001 -2.0398817424105251e-001
      1.0617049907333280e-001 -5.2685576789264360e-002
      5.9524306096183595e-002 5.9475903137313588e-002
      1.1363762311737384e-001 -1.2945797802503906e-001
      5.8538077002317987e-002 5.8999982854195249e-002
      1.7261840634994743e-003 2.4406381952570985e-002
      3.2300599159811781e-002 -4.5086512438354417e-002
      -1.2817624912025438e-001 -5.7012776166384622e-002
      1.3837736282057100e-001 -3.1531171049001061e-001
      -1.5599756299947948e-001 6.9262242670991153e-002
      -6.7722580034648053e-002 -6.5993111995330617e-002
      1.4041395764577622e-001 -3.9713064754598439e-002
      7.2141968591311126e-002 -1.1682224903535614e-001
      2.6200547681439562e-001 9.2989102064469337e-002
      -6.6678662044232562e-002 -2.1259973648669481e-001
      -1.7495115490932359e-001 2.0351489662092737e-001
      4.7967932215395304e-003 -3.7978400593608463e-002
      -1.0098052826497998e-001 -9.4784807794661155e-002
      -1.2166381299580291e-001 -6.3176714138307083e-002
      1.5299318423088834e-001 1.0364222636870157e-001
      -6.1853144278556146e-003 -6.4432832018406799e-002
      -3.5612688931524417e-002 -2.0833043556225471e-002
      -1.2261288022017920e-001 -9.2351980795007574e-002
      2.7011774696025359e-001 3.3294240342741074e-002
      -7.3391329006049721e-004 -1.2203626272391181e-002
      -1.8449734601650412e-002 -2.3495086421202557e-002
      5.6711057786208796e-003 -1.8123487894755295e-002
      -7.3258206650583552e-002 8.0203521689876045e-002
      1.9323411148029802e-002 -2.2653295739722822e-002
      4.6654471546225623e-002 8.6609623898574767e-002
      4.2950477040394217e-002 7.6077049809238725e-002
      3.2137899379256436e-002 3.6699069852631667e-002
      4.1079533192468556e-002 -7.1671804787158913e-002
      1.9176767992094234e-002 -3.5153493541469323e-003
      1.6184933541016005e-002 -4.9266074901527394e-002
      -5.7121831092546073e-002 2.7133121887368460e-002
      -2.5286299232782391e-003 6.0755581154286475e-002
      1.0904333560291765e-002 -3.4229703210656826e-002
      6.0537742991683609e-002 3.6493886911166402e-002
      1.4013269250891689e-002 -1.0836462993082451e-002
      2.5185228992272317e-002 1.0594777976481869e-002
      1.2461325142838278e-002 -1.2292417168476166e-001
      -2.3819118203514466e-002 4.5953180936118131e-002
      -8.7115168182066521e-002 2.6932901276649025e-002
      -7.4108321753302564e-002 1.8618178229494652e-002
      -3.9929931605125230e-002 -2.4630546911586962e-002
      -5.2250824113844038e-003 -3.3990580530997177e-003
      -9.0105062457797647e-002 1.0233970917781984e-002
      3.5544733703602102e-002 -1.0107142952127526e-001
      -1.0858433633790913e-001 -9.1573168012335834e-003
      -8.6095258752026775e-003 6.1527132637391917e-003
      7.9379501475396561e-002 1.0023930915295245e-001
      -5.3141201974771908e-002 1.4628295542118881e-002
      3.3973265175771636e-002 3.1483929491283640e-002
      2.0903247888411101e-002 -6.9486678922346848e-002
      -4.7251169016539377e-002 1.3333962027210751e-002
      1.2495282632746256e-002 1.1605090716337843e-002
      1.2318181933697218e-001 4.0347230965861410e-002
      1.2466134286483557e-003 6.1774076906387559e-002
      7.2765079767552296e-002 -6.0023343237446694e-002
      -6.4695831027761733e-002 4.9731410202190303e-002
      3.9920377440247699e-002 3.9396332625635515e-002
      1.3267824728172447e-002 2.3228431985470595e-002
      -8.0216875847135258e-002 -4.1543700511064756e-002
      7.0656685867903996e-002 8.9287749006526748e-004
      2.1962701333831897e-002 5.8284566010626611e-004
      -8.5932001783306206e-002 -7.6683477467742997e-002
      -8.4818935629805123e-002 6.3490679136017511e-002
      4.6368096962963581e-002 6.3306807285237021e-002
      8.3029923054086709e-003 4.3824873594007260e-002
      -4.1039590253760215e-002 -4.4737514849366160e-002
      -6.5461714604343080e-002 1.7024471941769054e-002
      4.7124325982061031e-002 6.5761993660044139e-003
      -1.0873695449097288e-001 1.4572557016392745e-002
      -2.2717703255723296e-002 -4.3785485308833083e-002
      -4.8364081754621271e-002 -1.9008665488371889e-002
      -1.6482551328990094e-002 -7.1417396428257646e-002
      -6.8874249210455277e-002 3.7164528743958092e-002
      -8.8776279366350519e-002 7.3181330199373854e-002
      -6.7871061522272777e-002 6.8692390067215288e-003
      -1.1260726300825525e-002 -4.4596030488469593e-002
      -9.0915949301367694e-003 -4.8584331251741227e-002
      -1.3568678498047469e-002 4.8946709795164307e-002
      1.0015434822634962e-002 -3.4854650699510450e-002
      -5.3315240791879451e-004 1.2817685922392956e-002
      1.0755532212042821e-002 4.3990780178229626e-002
      -2.4243351306860363e-002 -2.8015142057670958e-002
      -1.1914195635395940e-001 -2.5367354230199372e-002
      2.2768825639241371e-002 -9.9142817547223316e-002
      -9.4289396348145274e-002 3.4696255866780941e-002
      -2.2615582686767565e-002 9.2880531232152549e-003
      8.8265122492215756e-002 -9.0113600560460222e-002
      1.9958253187855740e-002 -9.8735856387389395e-002
      8.7625498688929285e-002 6.7178487386975017e-002
      -3.0635166743916822e-002 -1.2272541565857008e-001
      -9.3562372846650935e-002 7.1271034908757774e-002
      3.3977307884340134e-002 -5.6367155380094063e-002
      -6.3888800070613580e-002 -1.0876076760711883e-002
      -1.3997761196918179e-002 -5.6112201333629624e-002
      6.9647593378668340e-002 4.1851025073075969e-002
      6.2086854646746514e-002 -3.9348812513432016e-002
      -1.3437791474857266e-001 -1.1967440414313206e-002
      -4.3857501766663698e-002 -4.1426522879164346e-002
      -1.0589006930698046e-001 -2.2249761604184445e-002
      4.5098015559680391e-002 -9.2708915843073267e-002
      1.0726883041126296e-003 1.0644412982066916e-002
      1.2552252964021723e-002 4.8620776328520007e-002
      2.2969261155728147e-002 -2.6128295894334502e-002
      -1.6465210234645603e-002 1.1870797902789498e-001
      -1.8041365293468295e-002 1.7611831409491682e-002
      -2.6085396924515687e-002 3.1371653081926160e-002
      -3.0703834434048109e-002 9.9088083007425082e-002
      -3.5404037162300173e-002 2.5783717553591153e-002
      -1.3523873323946389e-002 8.3165838002860260e-002
      3.4915413735880418e-002 -1.0946752606488454e-002
      4.1333153987432876e-002 -2.7219920194284541e-002
      -7.6629773197739920e-002 -2.8097539646970919e-002
      2.5641476852281107e-002 -6.3268360010321004e-002
      -1.1448345264391210e-001 1.0939325649584764e-002
      1.6914929682939481e-002 1.4002031728064773e-002
      -1.8404348841382229e-002 -1.2159934599054767e-002
      -6.5485021124329038e-002 6.0928022990631922e-002
      -1.6609435766605229e-002 -2.1632463577012949e-002
      -1.0408989551953082e-001 3.2916131223426653e-002
      2.3048155149209687e-002 2.2371943373813426e-002
      -2.5254245247802707e-002 -2.3454318407371038e-002
      -3.1248870938205060e-002 -5.5947570532697867e-002
      -1.1591750858852848e-002 4.3445938968556530e-002
      -4.0502410152104353e-002 -3.5409247823958961e-002
      2.9234502215995325e-002 7.1241064999366652e-002
      6.9759918789612574e-002 2.4620379889779210e-002
      -7.0164906977220973e-003 -6.3111587984197276e-002
      -9.2132658751065757e-002 -1.0922186761428947e-001
      9.3528141814087275e-003 7.6331791876816466e-003
      1.6131686858686271e-002 -7.5698485823935902e-002
      -2.5116934660725978e-002 -1.7177143034798726e-004
      -2.7823376041691744e-002 2.0576065146681744e-002
      -2.0343787202539688e-002 4.3472094764388576e-002
      1.7814171238083158e-002 -7.4759671426108773e-002
      6.0367300819070456e-002 8.6956674340998921e-003
      7.2734007173383436e-002 -7.4896502635354828e-002
      -1.3903398739079298e-001 5.2813331981351436e-002
      2.9973443158494671e-002 -3.0630633955705450e-002
      -2.9510269097738984e-001 2.4172185952786598e-003
      5.5019822359408860e-002 5.3906497174171335e-003
      2.1010465583991868e-002 -1.3720873844963153e-002
      -1.0099236824235440e-001 5.2859486704688657e-003
      -1.1334845720771118e-001 6.8740722696085416e-002
      2.4200600653685757e-002 -3.0842404237628077e-002
      6.1368739285079708e-002 -2.2259805200695794e-002
      -1.0427072095351698e-001 -1.3730145875927643e-001
      3.3373838643856180e-002 -1.2961852685596958e-001
      4.2138571948230064e-002 1.8578247786858255e-002
      7.2224512581656242e-002 6.1908786632161707e-003
      -9.3143552957895795e-002 4.9638476887175903e-002
      -6.8084895039365920e-002 -6.8034497352628273e-002
      5.3872455778654418e-003 -2.1679763189016179e-002
      -4.5074361417458887e-002 -3.0343704779136543e-002
      4.6446488531030762e-002 -9.2704453534062758e-002
      -5.1305847445124203e-002 -3.4936014788669602e-003
      3.6408982124801738e-002 -8.5945494072145703e-002
      -5.2852010481837927e-003 6.2108043969104056e-002
      1.6868412157350705e-002 1.2600576457703300e-003
      7.2259259737457879e-002 3.3904908754088421e-002
      1.0189172467436167e-001 -1.5464139557517895e-001
      -5.8816291345186913e-002 9.0242128175524350e-002
      5.9017732677357736e-002 3.5504430152035138e-002
      5.8050872125108594e-002 -5.3047199101479800e-002
      -8.5253989326889892e-002 -5.9730445604520371e-002
      -7.0791725092159891e-002 -6.1514103243860120e-002
      -7.5387270683762980e-003 -8.8009368943350180e-003
      -3.7132183401905001e-002 -5.2279670347697087e-002
      4.5808897913677843e-004 3.9323683081619550e-002
      5.3306938094940928e-002 -2.0118647897395966e-002
      -1.7069501864468811e-001 8.8866434094300617e-002
      -2.9905845745488442e-002 4.4483224525595937e-002
      -3.9939741291568742e-002 7.5321677082172550e-002
      -1.2610790588331611e-001 -7.4001677156363115e-003
      5.0511175477145377e-002 -2.3382082674131714e-002
      -4.3685849125979503e-003 1.0681896187083843e-001
      -8.0652998930167308e-002 -6.7741569761535211e-002
      6.0569789668577810e-002 -8.4154965621479852e-002
      -5.8434809232254498e-002 4.3869048222497896e-002
      -5.5606554009322817e-001 1.5944942031512942e-002
      5.1006082385349399e-002 -7.7564480570621722e-002
      1.2604459974198332e-002 4.3692009579588277e-002
      -1.4323325976187193e-001 -6.7369893160438579e-002
      -6.7105632415588520e-002 7.0430899820350537e-003
      1.1607413713680033e-001 1.1380437578870507e-001
      4.2070711113596830e-002 -1.0356930548876354e-001
      -2.0327140219268330e-001 -1.4901720094195661e-001
      -9.0121759172598140e-002 -6.5115230062126092e-002
      7.7398057669912576e-002 1.2264862061648447e-001
      -1.1143882487776534e-001 4.0436446326232417e-002
      -7.5531815898998600e-002 1.5386852920262081e-001
      -6.3743383969051229e-002 -8.5776958330445604e-004
      -4.9808965564356635e-002 -1.3821846278461014e-001
      -1.3352196266147226e-001 -4.3604959066070634e-002
      -1.0215440029979182e-001 -1.1757892853995295e-002
      -4.0385452931634348e-002 -6.1437710161692569e-002
      -6.1028021528527786e-002 1.1770903090807311e-002
      -8.4657475215931394e-002 1.7134000573264371e-001
      -5.3734652600683157e-002 7.4320193176388395e-003
      4.5888365196297513e-002 1.5025792220600468e-002
      1.5316915208109183e-001 -1.1409171421190753e-001
      -5.0036931323286038e-003 1.7932385974842968e-001
      -3.0294422516419540e-002 -6.3242415650871797e-002
      4.9669992558380373e-002 -1.9221505959425213e-002
      -7.8371823380831679e-002 -4.6651703822372881e-002
      -9.9894334523376330e-002 -7.7478225915589227e-002
      1.7988108879628102e-002 5.6037680126941408e-002
      -1.3179416321860102e-001 -2.1974151460269070e-001
      -6.9443041987235887e-002 -5.5483222326033900e-002
      2.4612067502466105e-002 1.4196705127638806e-002
      -1.0246153977710920e-001 -1.9376733877825854e-002
      -4.1517629397234329e-002 1.0611540760509725e-001
      1.4843804894831059e-001 5.7626749197649207e-002
      1.1305604465312303e-002 9.5804345571158980e-002
      6.2161012192377005e-002 -4.0569492630744580e-002
      8.4753749799649558e-002 1.8588374140678815e-001
      5.2690825876189402e-002 -1.5611911636185050e-001
      -1.0364042304886091e-001 -2.1796928667401780e-001
      -6.7036396656893371e-002 -1.2145131471957329e-002
      -2.1199155918004053e-001 6.7735865835632070e-002
      -1.6245327870703830e-001 -1.3774505752226192e-003
      -5.1675898092455277e-002 3.6836206276679863e-002
      1.1384025755326753e-001 9.4089157155484941e-003
      2.3099429431870916e-001 -2.4171676302808059e-001
      9.5947996570124071e-004 8.5955658200087354e-002
      -3.9902066957191035e-002 -1.4462443978216255e-001
      9.6855292384404712e-002 1.1799777942241746e-001
      -4.8948545323930642e-002 2.4475791539258968e-001
      -4.0492253616605092e-002 1.9255228716419726e-001
      -7.6378522519389702e-003 5.1522757773818754e-002
      8.7231886090433114e-002 4.5295471869787232e-002
      1.0723844060767296e-001 1.5843523825110717e-001
      -1.0628191622188521e-001 -5.3329177075497572e-002
      -5.2428465417300445e-002 9.2065122748415523e-002
      -7.5780273692060432e-002 7.0326971437813274e-002
      5.8306240188959579e-002 -1.2279582553228442e-001
      -2.1957557577022108e-001 1.6583012638600916e-001
      -2.0321596582054979e-001 -5.6211737568375615e-003
      -3.4500040239177111e-002 2.2896378061475639e-002
