<?xml version="1.0"?>
<opencv_storage>
<ANN type_id="opencv-ml-ann-mlp">
  <layer_sizes type_id="opencv-matrix">
    <rows>1</rows>
    <cols>3</cols>
    <dt>i</dt>
    <data>
      200 60 7</data></layer_sizes>
  <activation_function>SIGMOID_SYM</activation_function>
  <f_param1>5.9999999999999998e-001</f_param1>
  <f_param2>1.</f_param2>
  <min_val>-9.4999999999999996e-001</min_val>
  <max_val>9.4999999999999996e-001</max_val>
  <min_val1>-9.7999999999999998e-001</min_val1>
  <max_val1>9.7999999999999998e-001</max_val1>
  <training_params>
    <train_method>BACKPROP</train_method>
    <dw_scale>1.0000000000000001e-001</dw_scale>
    <moment_scale>1.0000000000000001e-001</moment_scale>
    <term_criteria><epsilon>9.9999997473787516e-005</epsilon>
      <iterations>1000</iterations></term_criteria></training_params>
  <input_scale>
    5.2034816111705891e+002 -4.5692099190661417e-001
    3.2416215668353885e+002 -8.9719678324694496e-001
    5.3440903672252375e+002 -7.0289773748687356e-001
    3.0640313938964908e+002 -9.5001054018395881e-001
    3.9027255322640411e+002 -7.6583615982824360e-001
    6.3131169562996001e+002 -5.4395721024777488e-001
    3.2208891763635228e+002 -1.2746491296166056e+000
    3.8581403289084489e+002 -1.2150466968350984e+000
    3.7731379969357033e+002 -8.6171305011710930e-001
    6.0901074528434697e+002 -6.8648550026630473e-001
    1.5846600526743214e+002 -2.0015728026529698e+000
    5.7628045398677259e+001 -2.1052773887569662e+000
    6.1413853433922850e+002 -6.3972321360965390e-001
    6.0248797387307570e+002 -7.0735628613598922e-001
    1.5050061426423713e+002 -2.3523175458157333e+000
    3.2387339518789332e+002 -9.6029911689339564e-001
    2.2440311776782971e+002 -7.7816116224586596e-001
    4.1124287454502058e+002 -8.9099024577496411e-001
    3.9865964917425026e+002 -9.4464198988461512e-001
    3.5093825145935250e+002 -9.4169681248726500e-001
    3.0409040195638119e+002 -1.0269030681097828e+000
    7.9949226189277596e+001 -2.1329209257663666e+000
    4.8816783248899458e+002 -6.9523898097116843e-001
    1.4790658917063575e+002 -2.2837656927337462e+000
    2.9229086783475384e+002 -1.2472458869349596e+000
    4.3369823175046952e+002 -8.1012554159269878e-001
    1.9924371744585423e+002 -2.2229437898653766e+000
    1.0769863288631914e+003 -3.4819109656697272e-001
    3.9840467542785774e+001 -3.1343631942748935e+000
    2.5863666544975769e+002 -1.2816092280990321e+000
    3.8166879059893665e+002 -6.2827618206403824e-001
    7.2119041319117855e+002 -4.7102140230598666e-001
    6.0446841301333222e+002 -4.9802897873824264e-001
    4.2054877952010384e+002 -8.1177446368648065e-001
    1.6704929855935484e+002 -1.8338687847620636e+000
    5.3437984140339631e+002 -8.1321938091490786e-001
    4.6608859889834758e+002 -7.9434113283670427e-001
    8.4282838437908140e+002 -4.2361160263930009e-001
    2.1971274270867750e+002 -1.4999565667563106e+000
    4.1577869337003932e+002 -8.0401280176461853e-001
    3.1498950202078447e+002 -9.5580604788056933e-001
    8.0127490212829287e+002 -4.3120143647591175e-001
    1.8743004636333590e+003 -2.2090899195260380e-001
    2.4142783451149788e+002 -1.1259650434393631e+000
    6.8855407061970959e+002 -4.8396228127357327e-001
    5.6081512330350586e+002 -5.1720003982901985e-001
    2.8335588411580062e+002 -1.1214721090782647e+000
    4.2781534625374695e+002 -8.3348870351966164e-001
    5.3862105090400371e+002 -7.3726068719960547e-001
    4.0089134204736581e+002 -7.7025638717400779e-001
    2.3225966138221236e+002 -1.7497929862374060e+000
    2.9281579770313772e+002 -1.1031039882361506e+000
    5.8863403951420980e+002 -6.0891675764535602e-001
    3.3067181719490316e+002 -9.2882036906443866e-001
    5.3673585408440465e+002 -5.4684229627547098e-001
    3.7643562810653961e+001 -1.5974109408128321e+000
    2.4524338480513052e+002 -1.2021037447723750e+000
    5.7671932795975249e+002 -7.0103272333609923e-001
    7.9568887235911166e+002 -5.1776963775901652e-001
    3.4098260912832257e+002 -8.6728312455561352e-001
    2.3923901647132493e+002 -8.9656750480291048e-001
    4.4605086492070592e+002 -7.8800355890149165e-001
    2.9861882560925181e+002 -1.2461491460564567e+000
    3.9582487774844418e+002 -9.1820311965169699e-001
    9.3210339396333791e+002 -3.8807512140262190e-001
    1.0408588065057465e+003 -3.8023283043965933e-001
    3.9743144386377247e+002 -6.7337592389188594e-001
    2.2215074781761936e+002 -1.3600927737546336e+000
    1.4426667699677293e+002 -2.1835172537778842e+000
    9.9282414065662567e+002 -3.6836145585547792e-001
    3.1829471005717130e+002 -8.5431769582059447e-001
    9.5260709356263283e+002 -4.7143040904992078e-001
    2.0543365321515302e+002 -9.8426303849691432e-001
    3.3994785332236313e+002 -9.2331689273352779e-001
    2.4699027846263851e+002 -1.4462587730733181e+000
    8.7137269628538164e+001 -1.2998459491615080e+000
    7.9019889335181631e+002 -3.9404543683038185e-001
    9.6633415752083934e+001 -1.8805353353762140e+000
    4.6420284351494907e+001 -2.3670288727211752e+000
    8.1637095540227028e+002 -4.4668131196313116e-001
    5.3830572455276958e+001 -8.1584085916780857e-001
    3.7817412957947363e+002 -9.8600879705823286e-001
    1.9547960500317424e+002 -1.6698530116498032e+000
    4.3878218762145701e+002 -8.8489061841052175e-001
    3.4476099972290672e+002 -5.4609466336270696e-001
    4.7300736825844194e+002 -6.5871087501638170e-001
    3.2491102348055659e+002 -1.0684538610818306e+000
    5.4267064241639355e+002 -5.6599541637203588e-001
    2.0873895446959634e+002 -1.6134094557275560e+000
    3.9056305781711961e+002 -1.0317990735234812e+000
    7.6551328227875467e+002 -4.6698257334918031e-001
    6.4188837283680778e+002 -6.2827537335044437e-001
    1.6817518628507021e+003 -2.5784304188647494e-001
    5.3289699832335123e+002 -5.4528075425770595e-001
    4.5275535577739032e+002 -1.7897506101204010e+000
    1.6291989110129740e+002 -2.3609354462546031e+000
    2.2397644583007747e+002 -1.3272453936275486e+000
    5.1526743196979646e+002 -6.7144663985144093e-001
    3.5820947767173686e+002 -1.4276247012318490e+000
    6.4321328079972807e+002 -5.8564770757576357e-001
    4.0859381311058672e+002 -9.9773631288934028e-001
    4.8295361401213887e+002 -7.2675414974325803e-001
    4.5220285793283637e+002 -7.4825598362987777e-001
    2.7365505805111343e+002 -1.2011855995948144e+000
    4.5089483259263704e+002 -7.9671383521701900e-001
    4.8276511168478851e+002 -1.0056861316776327e+000
    4.0308702382814306e+002 -9.6350605865441796e-001
    4.3945243156206783e+002 -8.8697212961082317e-001
    7.9210550314141494e+002 -4.7673212923112745e-001
    1.8605516478178464e+002 -7.6229715397403652e-001
    3.7785525085883779e+002 -9.4639890901983714e-001
    4.1154028888484953e+002 -5.8847443232805585e-001
    4.0268704209983753e+002 -8.4297935874336638e-001
    1.7988261069880487e+003 -2.5954071908764165e-001
    7.2877412137385545e+002 -5.0298162494788112e-001
    1.1600220773618867e+003 -3.2305186151593845e-001
    5.2770859799776110e+002 -4.8497764266349852e-001
    7.3329183275218429e+002 -4.9864438236304354e-001
    4.6542890878048394e+002 -9.8925474774898192e-001
    3.3777987297994093e+002 -1.1573988901281518e+000
    9.1309171501799347e+002 -4.1996042994869559e-001
    4.9800345125480112e+002 -7.0261752174711289e-001
    3.3210066944161161e+002 -9.5831109036370654e-001
    1.4996650803708107e+002 -1.3442483808903649e+000
    4.8680253412479567e+002 -6.8381565073442885e-001
    8.3198845601520429e+002 -4.1423111192380868e-001
    3.0197489869613077e+002 -6.3338171963053047e-001
    4.2501934728795987e+002 -6.9872752299614371e-001
    5.7384737225242577e+002 -6.0805747763837381e-001
    1.3652013633496512e+002 -1.5671617785441407e+000
    1.0842217294380862e+003 -3.0023230184792088e-001
    4.0741625365094535e+002 -1.5147222364357360e+000
    3.5575912872090072e+002 -1.1828823559198143e+000
    4.2226219056579578e+002 -7.0084193875843503e-001
    7.9596881387050314e+002 -4.8672194486319242e-001
    4.0366373795740373e+002 -7.1283491033949886e-001
    2.4625601020735257e+002 -1.9299174933469678e+000
    8.1864512071758054e+002 -4.5438374024360861e-001
    3.6777685947353206e+002 -1.2284855556732417e+000
    5.0669714409362041e+002 -6.4780705954568640e-001
    6.1209100511380450e+002 -6.2706168462657319e-001
    8.0313262255263237e+002 -4.0883813492408666e-001
    9.3645416716482799e+001 -2.0170549954587100e+000
    5.0290482519234388e+002 -7.5966294952927549e-001
    3.8646699245775082e+001 -3.7153973254901600e+000
    7.0164648386688555e+001 -5.8063787747980178e-001
    5.1345424539515977e+002 -7.5590442412617009e-001
    3.3960232635739595e+002 -1.0674003740961968e+000
    4.4823015914992078e+002 -6.3659057728770030e-001
    4.0031969269048398e+002 -5.8573824571457567e-001
    4.2374685879379894e+002 -8.8684161566591313e-001
    1.1119352959682585e+003 -3.6524839645464213e-001
    4.4261846870320051e+002 -7.7915003526277915e-001
    5.4870588677201670e+002 -4.7509755039541884e-001
    3.8844026816343808e+002 -6.6310170575432226e-001
    7.7653663961539530e+002 -4.0901072455346177e-001
    2.2941803160245203e+002 -6.1804740906267763e-001
    4.3810477656593628e+002 -6.3078560417465190e-001
    4.4406363685828580e+002 -6.4673065900719451e-001
    3.7890145814573384e+002 -9.0775772230698648e-001
    9.6360599817550280e+002 -3.9984015462217998e-001
    5.5471996791631420e+002 -5.3715778383565316e-001
    2.7578732054134451e+002 -8.4974451987209065e-001
    3.5329543753939186e+002 -9.0093907844049959e-001
    3.4033454052050666e+002 -9.5816635098367542e-001
    2.3689782673632052e+001 -7.9492766098081480e-001
    3.4042632721939043e+002 -1.6025814924332327e+000
    3.2843598298731484e+002 -9.3244506722850551e-001
    5.4196835026361362e+002 -7.3488413088654569e-001
    4.4732472019708541e+002 -1.0314100835819149e+000
    6.2443137167187967e+002 -4.7990031290648449e-001
    4.3136223168566676e+002 -6.9792323319232075e-001
    5.7266162027451969e+002 -5.9103452907530674e-001
    4.1497733726755257e+002 -8.3403092744836216e-001
    3.4051142382071487e+002 -8.6522239688407643e-001
    8.5033135386285011e+001 -1.3204092396046878e+000
    2.0990255775677966e+002 -7.3724303402143387e-001
    4.9326672423752365e+002 -3.8979956845804642e-001
    1.9505649179978434e+002 -1.8873396178181248e+000
    1.5197629304288949e+002 -1.5167621080769205e+000
    7.9420044483701602e+001 -1.5764531821518517e+000
    6.9828870104909970e+002 -5.1217294915686040e-001
    3.3856429170001059e+002 -1.1548110256392374e+000
    5.4513982841526706e+002 -7.9130183984185531e-001
    8.3914128820889209e+002 -4.5732587044172057e-001
    3.5174609993839044e+002 -1.2695447214397204e+000
    1.9045243890028507e+002 -1.3555985774911208e+000
    5.9566067709026095e+002 -6.0210301931705401e-001
    5.5808457189133424e+002 -6.2335132651530079e-001
    3.0569996209968485e+002 -1.0008972422443578e+000
    7.6669560684714099e+002 -4.8690121190898666e-001
    3.5027452020259290e+002 -9.4405683537028517e-001
    5.0373237722156728e+002 -7.2514903562572008e-001
    5.9475995101971887e+002 -6.2018277131202759e-001
    2.6873750836590381e+002 -1.2594581817936947e+000
    1.6894744387420343e+002 -1.2880249971206184e+000
    5.2801295539376270e+002 -7.9289645615092819e-001
    5.2423820540047677e+002 -7.2535368053626481e-001
    5.5144933301766480e+002 -5.6142651733535398e-001
    2.2847890613534335e+002 -9.8078747469132010e-001</input_scale>
  <output_scale>
    5.2631578947368418e-001 4.9999999999999994e-001
    5.2631578947368418e-001 4.9999999999999994e-001
    5.2631578947368418e-001 4.9999999999999994e-001
    5.2631578947368418e-001 4.9999999999999994e-001
    5.2631578947368418e-001 4.9999999999999994e-001
    5.2631578947368418e-001 4.9999999999999994e-001
    5.2631578947368418e-001 4.9999999999999994e-001</output_scale>
  <inv_output_scale>
    1.8999999999999999e+000 -9.4999999999999996e-001
    1.8999999999999999e+000 -9.4999999999999996e-001
    1.8999999999999999e+000 -9.4999999999999996e-001
    1.8999999999999999e+000 -9.4999999999999996e-001
    1.8999999999999999e+000 -9.4999999999999996e-001
    1.8999999999999999e+000 -9.4999999999999996e-001
    1.8999999999999999e+000 -9.4999999999999996e-001</inv_output_scale>
  <weights>
    <_>
      -2.2224745541697052e-001 -5.6284754346420655e-002
      -7.1199814358863092e-002 -9.5948884582652258e-002
      6.1783653442388863e-002 2.5747211600205572e-002
      -3.8046796357859756e-002 -2.5734426608461564e-003
      -1.2505531633747952e-002 6.1971614476777417e-002
      -7.3471435099485994e-003 2.4032428794140543e-002
      -3.5779537735138582e-002 1.7139533241277621e-002
      6.5416336795313237e-002 -2.0309333991482402e-002
      4.1567268949034113e-002 4.7461239927045859e-002
      -2.5684901410380264e-002 -1.2879507855669591e-002
      1.2814320554275626e-002 -4.8631594703202531e-002
      -5.3078188046939950e-002 -3.3742253917766342e-002
      3.9391036046645317e-002 9.9797058673940467e-002
      -1.0018431585377087e-002 2.3335651465755707e-002
      -1.8581852640031718e-002 3.1747218603221480e-002
      1.3089863620200318e-001 -6.4313823221792438e-002
      2.5992526177018718e-002 -8.0380189372903768e-002
      -9.5148146948609222e-002 1.5316508440090627e-002
      -7.9276078714847986e-002 -1.1504845018454115e-002
      2.4473190872275025e-002 6.7063543237870726e-002
      -6.5106139353659082e-002 -4.5142041471773732e-002
      1.4169595166611553e-002 1.7035144079746132e-002
      -2.4083178456764179e-003 5.9347739636280809e-002
      -7.6930224158820629e-002 -7.4521677114324433e-002
      -6.9868106744250050e-002 -9.6560552819691938e-004
      1.0462715996703648e-001 -8.4611498125216580e-002
      -6.9595682930772507e-002 6.9839508648083951e-003
      -4.3877901717949114e-002 -1.0341517515213854e-003
      -4.1563952346231330e-002 -4.7662227162674993e-002
      5.7898694274846382e-002 -3.7884439704419265e-002
      -3.8390958648204399e-001 -1.2587480589423888e-001
      -9.8722463725008744e-002 -2.6574333276927781e-002
      4.3107067362222529e-002 9.2324415922333744e-003
      -3.6552708906167984e-002 5.0586473234076161e-002
      -4.3580578894338071e-002 1.5826735664397587e-002
      9.7895263799870971e-003 5.9074435045137824e-004
      1.4201739163385338e-002 -1.7313898326784941e-002
      5.7548504470508514e-002 -7.4842450206496311e-002
      1.4297805886452618e-002 -8.7140956594726482e-003
      4.4834896722128592e-002 2.2640069391464341e-003
      1.0097078623170507e-002 3.7345823358793211e-004
      -4.7667194004484971e-002 -3.2631071086481000e-003
      3.2478322310880658e-002 4.0059713949749241e-002
      2.0374380404957079e-002 8.8950721238692299e-002
      3.6449947470527454e-002 -1.9733361713795360e-003
      6.9933285686833019e-002 -5.4169582030433636e-002
      9.4796252011510127e-003 -1.4619183728925081e-004
      -5.5071818687183541e-002 -9.2407566542489980e-002
      -1.2449380352630456e-001 8.9879927065267240e-004
      4.1436207746820337e-002 9.6520979426575077e-003
      -8.1105075370635788e-003 2.8597403374095918e-002
      -4.2064938948788266e-002 1.4084448535555932e-002
      -7.3789776218721168e-002 2.1861502495777910e-002
      -2.0339646224363955e-001 -1.5368787726301311e-001
      -8.4361803370455013e-002 -1.3721133181532869e-002
      1.1099122598863868e-001 -3.2810594231622234e-002
      -1.1423411872754141e-001 5.1290983574225291e-002
      -1.6192730006893696e-001 -5.3452556805609341e-002
      -3.5999523459640539e-002 -1.9585663579206370e-002
      1.7778502754345316e-001 -4.2858411816833912e-002
      2.5431892211312940e-002 3.8773322996411341e-002
      -2.1807097089708405e-002 -3.0519234335567541e-003
      -3.0588551577844878e-002 -1.2677912342424564e-002
      3.0568563613900875e-002 -2.9990685091204155e-002
      -1.0854442005427727e-002 -2.1044111521309729e-002
      -9.3914482698800081e-002 -1.3933155422930976e-001
      4.6324422524998243e-002 8.7068854039524177e-002
      -1.1992705155364548e-001 -4.0957021562401580e-002
      -4.7991677981956929e-002 5.5858946377544814e-002
      -2.3072111151703260e-002 -4.0802700634335373e-002
      1.1940973375154028e-001 1.1658209292643941e-001
      -1.4076755046367895e-001 9.1888680168037445e-002
      -1.0988300027306868e-002 -1.6932861080488776e-001
      3.7669542973144934e-004 5.7752186576465227e-002
      -5.2334611568402155e-002 -1.5809730710610870e-002
      1.9464345191338779e-002 -1.2822925428153085e-002
      1.5032446181098039e-002 -6.1819720534521519e-002
      -1.8696357396484453e-001 2.7430215528680257e-001
      2.3637606539214925e-002 5.9494069657522221e-002
      8.8449960859129095e-002 -3.1582999328826862e-002
      -9.1976465848177563e-002 1.0296645276343958e-002
      6.3330332654085025e-002 -7.5186865511202725e-002
      1.3699853018733291e-001 3.3103216753712507e-002
      1.1718029645629949e-001 -4.4724831101736737e-002
      4.7729881549033036e-002 -9.6426278681881403e-002
      -6.7252125305516899e-002 -1.4059087442812659e-001
      -2.2349542915335838e-002 -7.4766277958827360e-003
      -8.7333884078112552e-003 5.6975282505842613e-002
      -1.9381372044580920e-002 -1.0516022379951667e-001
      -6.9844514140455255e-002 1.3562825960795192e-002
      4.9947229841631434e-002 -3.6236098839459330e-002
      -2.6933194115556419e-002 -2.6481988631987270e-002
      -1.4851377597841329e-002 5.7161182836125680e-002
      9.6548114977715767e-003 -3.1777308323595953e-002
      -2.3461104968381632e-002 3.2606410204570981e-002
      -9.5513103478125604e-003 2.4483952702541268e-002
      -1.5794233051233189e-002 5.7684954584401385e-002
      7.0772579157357971e-003 -2.1795534825947330e-002
      9.4760957761033437e-002 -1.6485122062593015e-002
      -1.5651373522139182e-002 -6.9383894168707813e-002
      -7.7509107364024119e-003 -4.9499662703780083e-002
      -1.3055620100655320e-002 -6.4991286850761526e-002
      1.0303223894030457e-001 7.6337708461024376e-002
      1.8593369504952156e-003 -2.5700194185042088e-002
      -1.8383692096863836e-002 -5.3448686733294420e-002
      7.9957308284517498e-002 1.5576433668103233e-002
      1.2289679519966819e-002 -1.0275952906101869e-002
      -4.3236932283809891e-002 1.5527761210639644e-002
      -3.2868123932714377e-002 -7.3543347762911118e-002
      2.9855412591368435e-002 1.3414861220413819e-002
      -7.0448490111957016e-002 -2.4937111028204943e-002
      -4.3180493319170926e-002 7.6745362146070639e-002
      -1.4330216796217207e-002 -1.9335808832768968e-003
      -5.0047901387682343e-002 -1.0313079067009151e-002
      -1.2306691061980546e-002 -1.2091361233641392e-003
      3.8649466509052349e-002 1.6201889761172528e-002
      -2.9067390420728357e-002 -1.4811178816980868e-002
      1.6448281048042523e-002 3.1556493988796695e-002
      -3.5951713793543068e-002 -2.9785194819523259e-002
      -4.0795661234553651e-002 2.2113391567139304e-002
      7.6313296095961103e-002 5.7814665225094465e-002
      9.1751280018402881e-002 -9.6068449193923745e-003
      -6.6882085225518056e-002 1.2782271519620264e-001
      7.1887982991677646e-002 -7.1644385588587114e-002
      1.4209366850225145e-002 2.1561773923850780e-003
      -2.0607954165127878e-002 4.6039444874806081e-002
      -2.0282165147345665e-002 6.7749669703407650e-002
      -1.0258814561906149e-001 -1.3027012852885383e-002
      3.8516577097262028e-002 -3.5601261084439569e-002
      4.6418828994226301e-002 -2.2071759334281415e-002
      -5.8733539351954300e-002 5.2713882922370654e-003
      8.7542151033610793e-002 -3.5381143523023594e-002
      1.2861371248254096e-002 -3.7513469295392139e-003
      3.7113091665651778e-002 2.3313707014436805e-002
      -1.5157658181056280e-002 -5.0857528768911059e-002
      -3.0803149981259471e-002 7.8112201376086501e-002
      6.3330614404750935e-002 -9.8921386859161950e-002
      -1.2072718052118868e-001 -4.3571905853496858e-002
      -8.1198474887396767e-003 -3.0195020626255294e-002
      -1.3181384434403778e-002 7.9433277436100817e-004
      -1.1359237493441024e-002 -3.1852584793091991e-002
      3.7780373720832504e-002 -5.2532699418631243e-002
      3.8033651095170505e-002 -3.6358056567774112e-002
      1.2681739459361172e-001 2.1067488053106379e-002
      5.2816071469044636e-002 4.2563326564499536e-002
      -2.4554704004538163e-003 -4.9441881644612877e-002
      -1.2046080580240264e-003 5.4965133288843324e-002
      2.4840242329269575e-002 5.1917531910591112e-002
      2.4389448213462717e-002 -4.9889853353116673e-002
      -1.2315003592146181e-001 -3.7667885490447472e-003
      2.9457588733860229e-001 -2.2296140125097955e-002
      -5.1136267152234620e-002 1.4215726983795494e-002
      7.9126073283460094e-002 -2.6258971145909338e-003
      -5.7456261838770895e-002 5.7661220112775746e-002
      -4.5341566878431723e-002 2.0485473727396730e-002
      5.1334708417471335e-002 5.4689623268027808e-002
      5.1592239535476377e-003 5.1513962726514567e-002
      9.2550669279502243e-002 -1.2884855699808453e-002
      1.9211223914863927e-002 -6.1021383345369620e-002
      -5.1827253111690043e-002 -7.2321012588681038e-002
      -2.2104470291682960e-002 -6.2567035529098855e-002
      -4.8447814882879737e-003 1.1882886533821838e-001
      3.7351925345896070e-002 7.9142521297115520e-002
      -9.4428567768168632e-005 -7.6656999666736073e-002
      -4.5175879308642454e-002 -5.8627007647224040e-002
      6.3624221851846505e-002 4.1188354949234035e-002
      -1.3759705911222575e-002 6.7309137209884448e-002
      3.9362569767413452e-002 7.8597285056304020e-002
      3.6917497273584350e-002 -4.5549177460129250e-002
      5.6445618461669234e-002 -4.3560563444661117e-002
      -4.7679012450086732e-002 2.5482973715354292e-002
      -7.8627227307266734e-002 9.7050357104914636e-002
      4.7103447033879246e-002 -3.7645765330243164e-002
      -1.0273705782285120e-001 -8.2444020662091833e-002
      1.6253109466792877e-002 -2.5685767755173235e-002
      3.8055403633028041e-002 4.7039743954254372e-002
      2.3641509506521174e-002 -2.7832620229374466e-002
      4.0961946939403894e-002 8.8184854185045958e-002
      -4.6062955080714521e-002 -8.9966887394047498e-002
      -1.1415685822174097e-001 -3.6729050164096208e-002
      -4.1598290410965011e-001 -8.5103557199863011e-002
      -1.2085152282069625e-001 9.6188298033036176e-002
      -5.5506433298880282e-002 -5.5362968144593246e-002
      8.4627970286782359e-002 3.3601031504027774e-002
      -1.6110714231263915e-001 -8.7311191622490722e-002
      -6.6548583871811798e-002 -1.0236756023133625e-001
      1.2629342265350571e-001 -4.7955142329858348e-002
      -4.5271308898269434e-002 -1.1553642533280983e-001
      -1.3189101019439345e-001 -1.0174063755719000e-001
      1.1108841252915243e-001 -6.5273309247418463e-004
      -1.7001102792415447e-003 1.6783918527768268e-001
      -2.5209482726896171e-001 2.7057597787403720e-001
      -1.0570036754223204e-001 -1.5008135048207877e-001
      3.3660942097124675e-003 2.7604838881079019e-001
      -4.8936005419290496e-002 -3.6617054606224692e-002
      -8.0518682247109879e-003 -6.1124769453073371e-003
      -8.3709203700782733e-002 1.4879271063678973e-001
      2.0889968950966991e-002 3.5337271642904755e-001
      -8.9840895686956260e-002 1.4157434916170533e-001
      2.8999917330154265e-002 -2.3295812330426455e-001
      -4.6554609573419392e-002 1.3610465540606537e-001
      -4.1787388940495388e-003 -1.1824040739612934e-001
      1.7323119454216898e-001 -2.7868426475868853e-002
      -1.0933226162363864e-001 -1.9099893907117060e-001
      2.4531825727630390e-002 3.6400297800709999e-003
      3.7630288577823488e-002 1.4967149803160690e-001
      -9.0666372411480359e-002 4.0924566086705118e-002
      -2.0564041165056196e-001 5.7180318567571484e-002
      -5.1419844491504565e-002 -1.0908426723839901e-001
      1.3242037218827347e-002 -1.8453867231963519e-001
      -3.8300509695791463e-001 -2.1596181751735249e-002
      3.1376663708861845e-003 -3.9405192782025084e-001
      -3.2641935947330653e-001 -7.0248663570267267e-002
      -6.3683891855672831e-002 3.7141292655481176e-002
      -2.0034336444825173e-002 -1.6345901076098741e-002
      -6.2674270511858754e-002 -1.1168840177713173e-001
      8.1733170962404816e-002 -2.3193703620372895e-002
      -7.8705796339349585e-002 -9.1000306973181757e-003
      -2.3070136933570426e-001 1.7780490730231277e-001
      2.4351747350225134e-002 1.3846510397231582e-001
      9.6954403805034728e-002 1.8536245268044563e-001
      9.4383384401530886e-003 -1.9211975962650421e-001
      -1.4814019736568432e-001 -5.7666970180838474e-002
      5.7448420069042404e-002 3.0032368349478793e-002
      -3.7020664632539751e-002 1.4941502373261736e-001
      2.5447242513635610e-001 3.9450329019235737e-002
      1.0701659109664403e-002 3.8035920341987717e-005
      -1.5125468490218258e-001 -7.2871633356065016e-002
      -1.1329853882650810e-001 1.6930942634720628e-001
      -1.8025280509058522e-001 1.1888101357694539e-002
      -8.6379634176244460e-002 1.8755899570273619e-002
      4.0595555171134245e-001 -7.9718754713499443e-002
      2.1872715845358003e-002 1.9938054091340868e-001
      -4.6959670419234149e-002 1.7811249864814149e-001
      8.2055830342234667e-002 -9.2108217797071679e-003
      3.6415329951263210e-002 -2.8096449864620704e-001
      -1.0428544979036268e-001 -1.0668471251646833e-001
      3.4729426429891113e-003 -3.2098877839662018e-002
      1.6699854950317949e-001 -3.6543564610966792e-002
      1.7827239590240176e-001 -3.6295027627762023e-002
      2.3192195361736423e-001 -1.2767508863586757e-001
      -1.8606256848707672e-001 6.8351892426411473e-002
      1.7069539332041847e-001 4.2988315912805011e-002
      -2.4525228184237055e-003 2.5431097043948409e-001
      8.6503540920775026e-003 -6.4279017737783439e-002
      1.3642489100430710e-001 -7.5171809241921364e-002
      7.4735830881076382e-002 -2.1237344830840871e-001
      8.7816354546974396e-002 -1.4744499080713749e-002
      -2.0527775074919138e-001 6.4895040755399092e-002
      -5.1745311737540781e-002 3.0376749582544549e-002
      1.7371540078766123e-001 7.1128881362292812e-002
      -2.0057707915910908e-001 2.0640149383541329e-001
      -1.5622540321930287e-001 -9.1469920925558709e-002
      -2.5829316834122446e-002 -1.7108447639557972e-001
      1.4381202901144207e-002 8.1142761898104723e-002
      2.3076681179004133e-002 -9.3669123684247346e-002
      -2.4616944322372555e-001 3.5411122931387184e-001
      3.6868009806524227e-001 2.0416477466420133e-001
      1.6129166760867727e-001 -5.0292294072131684e-002
      1.6962990708797188e-001 -1.3941134946599590e-001
      1.7642176348112043e-001 9.4916898408993686e-002
      -1.9038035868993597e-001 -1.8533951939846838e-001
      -1.8054899574768253e-002 -5.7711609761167709e-002
      -2.6589500511936559e-001 -2.1726785830738940e-001
      -7.5417708980991260e-002 -2.8068863187105930e-001
      -3.1526393138937119e-002 2.0438744453463120e-001
      1.9738486196740407e-001 -7.1024030897437973e-002
      -1.6865177826648769e-002 -1.0941189863801394e-001
      -6.4393556844404690e-002 1.1711827192656728e-001
      1.1114735539419256e-001 9.8104621275412182e-002
      -6.3269953622063269e-001 -1.3349798279866665e-001
      -4.6007947208961092e-002 1.6928032352754080e-001
      7.0170735307910737e-002 1.1374676231376387e-002
      -4.1655279865828211e-002 -4.5446504932507868e-002
      -3.5861158931422498e-003 -5.1306358874091485e-003
      -3.9356355475036083e-002 -1.4339314302418751e-001
      -1.9191847666805057e-002 -9.4186028518352241e-002
      7.3312189179322959e-002 -5.8457809289403591e-002
      -8.6575840929105391e-002 1.8110416279643377e-001
      1.5483619503763579e-001 1.1604727885793241e-001
      1.2494128567054832e-001 1.1899150670232400e-001
      -1.5616796892193086e-001 9.6540142433994947e-002
      -1.5986862966758400e-001 -1.4329376874973868e-001
      8.7554249666499565e-002 3.5142111868355247e-001
      9.5971245127504379e-002 8.5019593021434539e-002
      -1.3321100988542828e-001 -2.3890250842099969e-001
      -8.5427875086801896e-003 -7.9818173202536827e-002
      -1.0391218836560034e-001 1.4601483554124475e-001
      -1.1368762659651101e-001 3.8848360243681476e-002
      4.7106963479735524e-002 -2.8103781256786992e-002
      6.0720619725948638e-002 7.7204685343107869e-003
      -4.7649441228525512e-002 -7.0284520056704367e-002
      1.5573380941251391e-002 -9.9060625130034784e-003
      -1.1848485029729749e-001 -1.5401995572794930e-001
      -1.6050566474382078e-001 2.1464538271922379e-003
      2.8703983322047870e-002 -1.2600625127651444e-001
      -1.3623432955528392e-001 1.7565224916932035e-001
      -3.0230078546835198e-001 -1.9554223542485707e-001
      -6.4049419981633882e-002 1.9274549563469998e-001
      2.5432329646801760e-001 2.1845180528123530e-002
      -2.7577406050823761e-001 -7.8873809022928884e-002
      -6.6243707598897137e-003 -4.9926466278372515e-002
      -1.4632234265748159e-003 5.8086586927888269e-002
      -3.4453675321852360e-002 6.8503826152284092e-002
      -5.3286739982909323e-002 -7.8043267476112805e-003
      1.4087417653775544e-002 -1.0395993209680271e-002
      -2.2939082310592100e-002 -2.6172701510833080e-002
      5.4567704298681192e-002 -7.5169816433150904e-002
      1.2253473979046813e-002 4.0220300726240776e-002
      1.9343688706945906e-002 -1.6102311033377940e-002
      3.3456041319889973e-003 6.9022624441432995e-003
      -1.1922807533441483e-002 1.3186802886552171e-002
      1.0088449230763373e-002 5.4693516539079334e-002
      4.7451228454900109e-002 6.4757726882202035e-002
      5.9437974275029039e-002 -1.5255505046301306e-002
      2.7440422756721459e-002 -4.3769254744737272e-002
      -2.5661801903904161e-002 -3.0485843013129073e-002
      -4.6363611104744726e-002 -4.2213136652037020e-002
      -9.6301447216384742e-002 -3.0528880200553204e-002
      3.5746922705200780e-002 -6.7697514339511268e-003
      4.9110153548579269e-002 1.0649830817114569e-002
      -1.7960854261014524e-002 1.1940904422522597e-002
      8.5514251080524694e-003 -2.2680923398730467e-002
      -8.6279124048560613e-002 -9.2748285515967213e-002
      -7.7803122554383555e-002 -3.7511681028337206e-002
      5.6735801681334130e-002 -2.4258027762918421e-002
      -6.1085305967128314e-002 6.6532325227900202e-002
      -7.7931741737232038e-002 -6.0463696294873567e-002
      5.9522085836094755e-003 2.8492718855432562e-002
      1.2443171536656408e-001 -1.5683127316880000e-002
      -1.1383652470396784e-001 5.4335968184906071e-004
      2.0111034149888503e-003 -1.1117473905135372e-001
      -4.9032794807177073e-002 -3.6690047612740813e-002
      4.2490931372107327e-002 -3.9959362450279520e-002
      -3.4064326395916077e-002 1.4705900799768502e-002
      -3.6668128028536723e-002 -2.9238364086888884e-002
      1.2728410118360373e-002 6.3266476720679046e-002
      1.1761781147395864e-002 -3.7301946845530900e-003
      -4.2641078198657201e-002 -3.3342727094616088e-002
      -5.7043221184756653e-002 -3.1975165404283981e-002
      2.0444272227637721e-002 4.5248169979562977e-002
      -2.3763051265324218e-002 6.8424754029331014e-002
      -9.2522471961956222e-003 -1.7716380592952542e-002
      -1.2160007545766055e-003 1.8922055573931382e-002
      -5.4077874347576445e-002 7.6006977810449804e-003
      7.2994760101218720e-002 7.6551188406415510e-003
      2.7826590976567332e-002 -5.4738974950896475e-002
      -1.2180210559045575e-001 7.7825388915767763e-002
      -3.2427936681543902e-002 2.1015188638597550e-002
      -1.8913454557155384e-002 1.1592807435900580e-002
      -7.7783729188668785e-002 -3.0701391001626529e-003
      6.0869167131160799e-002 -6.5225396436961465e-008
      1.5873559802059306e-001 5.9371792443856382e-002
      3.6182381012170896e-003 2.5569918191265559e-003
      4.1784068888896270e-002 -2.2122684670247705e-002
      1.9214912784051529e-002 -1.0251890831213056e-001
      -5.4691234251897140e-002 -4.4236358744840935e-002
      2.3218245050687890e-002 3.7766482170794924e-002
      2.3065824081270114e-002 -1.5082606880452412e-001
      -3.8879538637362737e-002 3.1466900788703379e-003
      4.4414595512325677e-001 1.1378793356918253e-001
      3.9919640859053383e-002 1.1800238856812356e-001
      6.7781348733168933e-002 1.0343193628853350e-002
      -1.6571684270649246e-002 -7.0165621575191017e-002
      8.2148147391590029e-002 -2.8206651619561503e-003
      -1.9168752210010118e-002 -4.3337981203525666e-002
      2.5661699891805388e-003 5.6187165272724979e-002
      -5.1963818701222540e-002 8.0017239691642469e-002
      1.6320334745960934e-002 -2.1317522217043996e-002
      -4.8391988308406651e-002 8.5327036206760722e-003
      6.8468938597600532e-002 -4.6498292154563246e-004
      1.8332270591654959e-002 6.1261251916552933e-002
      -3.1190419751959807e-002 -8.7119434910046326e-002
      -8.8966251512298394e-002 -1.7302202696785011e-002
      -3.1077615492172608e-002 1.1298291652747506e-003
      -1.1742368895035114e-001 1.4660826765715812e-002
      -1.6758525732888621e-002 1.0994825896929196e-002
      -1.0998575462185094e-002 9.2922186656841349e-002
      1.4659083126022784e-001 -3.8355487909614981e-002
      4.6495638140703351e-002 -1.3298821668280222e-003
      7.0654799431665869e-003 -3.2470705509964198e-002
      7.0467670986562158e-003 4.1482813734838420e-002
      -1.6284826279233135e-002 -5.1315722609839201e-002
      1.2367497565511162e-001 7.2804119390463037e-002
      7.9790142920836499e-002 -2.7279346015297617e-002
      -1.0441282611949343e-001 -4.7937753281606647e-002
      9.6878039813718619e-002 -1.3208480696581789e-002
      9.7605771107680525e-002 5.3237865503036365e-002
      -4.7808757371832294e-002 -1.4665193698225595e-002
      -1.7083972685887328e-001 7.7167813683488434e-002
      1.2281028536751490e-001 2.9129377863796643e-002
      7.5227856849358413e-002 2.6262944743740635e-001
      9.0383401512252881e-002 -1.8722614152443969e-002
      2.6776170272635166e-002 -1.5073633983958151e-001
      8.4354162536335417e-002 -8.5197487764244605e-004
      1.6012624806903471e-002 6.9359850918142701e-002
      -2.4783610849464035e-002 3.0111397617806290e-002
      -8.0620928751270582e-002 4.1381179804708339e-002
      2.0311901522419865e-001 -1.0773158985848068e-001
      8.2137335672401363e-002 -9.2617222518773329e-002
      -8.7059462886497491e-002 -1.1875739734109315e-001
      7.4319989516694010e-002 5.3014447649910756e-002
      7.7450302002319268e-002 -1.3188013201596393e-002
      -1.1178623414262344e-001 4.0920485158710863e-002
      5.4591767578270903e-002 -1.4845831397897061e-001
      -2.4628706793106855e-001 -4.6723265882666577e-003
      6.0372022228271059e-002 -2.2551811482089835e-002
      1.1364826811885878e-001 -3.6410727075327901e-002
      8.1489086507627012e-002 -2.9356307437685983e-002
      1.9106994051884818e-002 5.2697187893900578e-002
      6.4666224086143018e-002 -1.2114150332937466e-002
      -2.5439118276055833e-001 4.9696905539859608e-002
      -4.1245157649943749e-002 -1.4107106458213706e-001
      1.1524106108198469e-001 2.6003680852003919e-003
      -2.5354807368802461e-002 9.9263118553892540e-002
      -3.6944682507361062e-002 1.9250889541480601e-001
      6.9114049020604362e-002 1.1847772922059902e-001
      -1.6451543328681980e-002 -7.4683616947479594e-003
      -6.5367882327531088e-002 2.7094464125772388e-002
      -6.4258709475554454e-002 -3.8143180732332797e-002
      1.7404474685333618e-001 -1.7309991326657057e-001
      -1.5258000869589106e-001 5.6560041271415756e-002
      3.1577005574421385e-001 7.9582483685004479e-002
      1.0402208858689014e-002 2.3851652930810624e-001
      -6.5655702047052358e-002 4.1319596782236042e-003
      5.3427375944049955e-002 -2.3027888476546046e-002
      -2.9606071497314701e-002 -1.0568406289914878e-001
      1.4059301826795667e-001 -1.0598607136729377e-001
      -2.9647417602156959e-003 4.1073921359820277e-002
      -1.7172881300652221e-001 -1.4938289081709244e-002
      7.4588955775975740e-002 -3.0886502666631083e-002
      -1.8102012593912975e-001 1.5665117402332809e-001
      -4.7288763324454808e-003 1.0212805317195224e-001
      1.0123282183714014e-001 -5.8900691034609813e-002
      2.8472799870116104e-002 5.4980154130085897e-002
      4.7927955526057213e-002 -1.5536901731900160e-001
      -1.3423210013903303e-001 1.5955856130885043e-001
      2.1391183029579414e-001 1.1644616739858672e-001
      1.6116341042867895e-003 -6.0820093776466168e-002
      2.0760928157051609e-001 -8.7435370873224283e-002
      9.0679832941894981e-002 3.5151320580038850e-002
      -2.1395480407385786e-001 6.3537857790926140e-003
      1.9685603841836270e-003 -1.4000276364089136e-002
      -3.3532494879189917e-001 -3.0534547277512253e-001
      -1.7608125638632344e-001 -1.8286108599326964e-001
      5.4896272856458039e-002 1.5336707054902970e-001
      3.2603890880913949e-002 1.7718346938551493e-002
      -1.2049109399230151e-001 -8.5118397952266389e-002
      -1.0387827408433258e-001 5.2421040891228017e-002
      1.8336374076955880e-001 1.0295114010770841e-001
      -5.0010291623461811e-001 -1.8597440036031407e-002
      6.0906850756495337e-002 1.2818262043956408e-001
      -1.0393894778922370e-002 9.5436391832074294e-002
      5.8053349729344721e-002 -1.9550694570615432e-001
      -1.4499779326288023e-001 5.0904511954890062e-002
      -1.5681341667390578e-001 -2.0957147050406494e-002
      -5.6114403988660556e-002 1.9328685514884264e-001
      3.2218461973105877e-002 -1.2070982080632900e-001
      1.9005571837132773e-001 -5.1080437823823738e-002
      1.5076845951427068e-001 -1.0195637186965421e-001
      -8.9276504803738319e-002 -3.2627051360894811e-002
      -4.0803106440725066e-002 1.8071313195354155e-001
      1.3562919660213743e-001 -3.1827783070638972e-002
      8.7192382525482767e-002 4.7272625208092711e-001
      -5.6459126820367781e-003 -1.3626435341012602e-001
      -4.3596436064045133e-002 -3.3513630763452235e-002
      1.3019609251417619e-001 -2.5860077639711110e-001
      -4.4566818011596571e-001 1.7361424134207562e-001
      -2.5951914462314429e-001 -4.9521188050861913e-002
      4.9732067601101028e-002 7.4524009038658594e-003
      -1.6761850928619046e-001 -4.7354702388898127e-002
      -1.0831672473140938e-001 1.1147277301123585e-002
      2.6958547878360023e-001 -5.9926364140665433e-002
      3.2209379828098336e-002 -1.4994129010868748e-001
      -4.5334475125299395e-002 2.1467365951667886e-001
      6.2773873841727335e-002 -1.6590431359327212e-001
      -2.9969633476084356e-001 1.9814923290391037e-001
      -2.3534537319514390e-001 6.4829196404893930e-002
      -1.1886508249030678e-001 -1.8177275438014079e-001
      -4.6350181134287433e-002 -1.2257270096697466e-001
      -3.6989687552314693e-001 -7.1460033633196557e-002
      -1.9967917595342961e-002 1.6686260544805609e-001
      -4.6505707060668776e-002 3.1518391720836668e-002
      5.2569239983295754e-002 -4.9933803191852720e-002
      -9.4979492709356933e-002 -4.2479554413217359e-002
      -1.3877078641458322e-002 -1.2182062924620948e-002
      3.1727742379374903e-002 9.2703902382009675e-003
      -5.9068943032454586e-002 -3.5987529758174569e-002
      2.6384553550256738e-003 -6.4448867446122618e-002
      1.2941183293698685e-001 -2.3648256901470779e-002
      -1.0743675525351916e-002 4.7831150427576359e-002
      -8.5187190615831979e-002 9.4513610534423323e-002
      -3.2312146002957648e-002 -1.2061767360686136e-001
      1.6536152134163646e-003 1.8904599010298132e-001
      3.2281330023739306e-002 -7.0741543334411627e-002
      -1.0330024988484736e-001 -4.3863973013627607e-002
      -2.9417771282044376e-002 4.0517063317556209e-002
      9.1576903862668653e-003 1.1505076678236430e-001
      -9.6179595963677186e-002 1.6025130110223228e-002
      3.3429619239431031e-002 -7.6302523117544721e-002
      3.1681250900880274e-002 5.9362655696931541e-002
      -9.1408607106789053e-002 -1.4789753378374371e-001
      9.0868651303066844e-002 -1.0269104298260211e-001
      -1.3436501693324662e-002 -8.7800989981425381e-002
      -4.4959072143495732e-002 5.5924366974656810e-002
      2.3964741588954161e-002 5.8666861383920070e-002
      -6.5175901046879064e-002 8.6451044420470968e-002
      -1.5769370751640102e-001 1.8383864754103429e-002
      -5.9545718896473719e-002 -4.5658788992732846e-002
      6.9763139408328276e-002 -7.5726935579876670e-002
      1.1804769389192385e-001 9.3844723254527862e-002
      1.3261116533108369e-001 1.4529056662052106e-001
      5.1307306691333800e-002 1.6013148165382296e-002
      4.1950673360885073e-002 -8.1008842284808938e-002
      4.3192057870644264e-002 1.4959461784622994e-002
      2.9785327672173411e-002 1.2115524430262567e-001
      -4.2790247353200153e-002 4.7985112009273176e-002
      1.1735014881087798e-002 7.2193003128712352e-002
      1.8000853922752241e-001 -1.1747174468612565e-001
      7.3519470310978441e-002 -6.1904666277810501e-002
      -1.3008427556255381e-001 -1.4652055280064025e-001
      1.3489471041849807e-001 -1.0932543839681905e-002
      6.0204248769046578e-002 2.7736594351774713e-002
      -5.7257591295571120e-002 -3.4794205319999980e-002
      3.6544459394891658e-003 -8.0110413766001948e-002
      -1.2815029808484685e-001 7.1784537857948333e-002
      5.6994488555851500e-002 -1.8340934962689626e-002
      8.1702718070625208e-002 -1.4003172049246562e-001
      7.1392221907433565e-002 -7.4600628404678645e-003
      -1.7309997466266158e-002 3.0190423060856314e-002
      4.4834492302677290e-003 -3.5491635556719359e-002
      -1.4536106326392739e-001 6.0679614566918817e-002
      -3.8869412030281297e-002 -7.3419664859707412e-002
      1.0858429337479213e-001 7.4032060192501914e-002
      2.4445033215426251e-002 1.6115291445205579e-001
      -2.3095812059731421e-002 1.5085675302648313e-001
      3.4346189197282585e-002 2.0468093739229344e-002
      1.1941194676355794e-001 5.7462616861167472e-002
      -2.6221475194290571e-002 -1.0474395238384466e-002
      -2.1587277849224240e-001 -5.4957130277366976e-002
      -3.6178836806969722e-001 -1.4362279072300818e-001
      -1.5498655155579105e-001 1.1614376134668314e-002
      2.7329458491094635e-002 -1.4793902811774551e-001
      -3.2980804912493951e-002 2.9092612446838518e-002
      -8.8185533535980506e-002 -4.4224123962230757e-003
      2.7992886379628365e-002 1.5603676144278737e-002
      2.1805679953329531e-002 -1.6627828751832406e-002
      9.8602582974227970e-002 -5.7241930333201622e-002
      6.0800294812122105e-003 -2.2057095056426706e-002
      6.1442885398977382e-002 -1.3868151403923733e-002
      1.1654138646900822e-004 2.6055367069858129e-002
      -1.2646277742536141e-001 2.0093735881821211e-002
      -8.4001526162121198e-002 -2.5600556199297693e-003
      3.1491054882668134e-003 1.0986118319355456e-001
      1.6610034473844435e-002 -1.4407336992630268e-002
      7.8445159687066460e-002 -5.6334379227994578e-002
      -4.1081928131664315e-002 6.1470036746099202e-002
      9.3520244573028124e-003 6.5519542205871653e-002
      -1.4203073206742561e-001 1.0869948417715315e-001
      2.8176668564184312e-002 -2.4451752068889915e-002
      3.1640417948342547e-002 4.4381636863931644e-002
      -1.1017436359160569e-001 -1.6326295199115510e-002
      5.2206402007914737e-002 -9.5655573801407320e-003
      -2.7872566648285557e-001 -1.3785871238270303e-001
      -7.6062555506793403e-002 -1.7513272106382066e-002
      1.2111258159394096e-001 4.2130808525475051e-002
      -9.4255790552023197e-002 5.3328115234303107e-002
      -1.3733474702586740e-001 -4.3118554722707508e-002
      -4.5764992750814366e-002 8.8372517237437220e-003
      1.5813985726252641e-001 -8.0609196596310592e-002
      -3.1931999901222408e-001 -7.8064068926986294e-002
      -3.0488312949202862e-002 -4.0288907850361849e-002
      -5.8269465568969316e-002 -2.8774876036279338e-002
      -1.2152912095660525e-002 1.5869988429053825e-003
      -8.6889169768899363e-002 1.7789778370686717e-002
      4.4314949190569282e-002 1.3437964647902417e-001
      2.2773455286531772e-002 -3.9021049648810931e-002
      9.0912437630713896e-002 8.8587650548980230e-003
      5.2510677485889279e-002 -1.6139297670824276e-001
      6.5542867762591231e-002 1.5160981076039149e-002
      -1.2913998918086173e-001 -6.5618605486561551e-002
      2.7097002426142554e-002 -1.3633247682915578e-001
      2.5755129863991096e-002 1.3076401207392543e-001
      5.4051760370807181e-002 -4.3534558132094885e-002
      -1.8817500004401057e-002 1.7396924593705353e-002
      3.5518860990313518e-002 8.6719729313760305e-002
      7.3314007986954435e-002 6.0577672851402746e-002
      1.1841710123564123e-001 -1.1455012076099959e-001
      -7.5284052062293050e-002 -8.0069989029511908e-003
      -8.5212935246264526e-002 -1.9534087891765192e-002
      -5.8837477112987258e-002 4.9314371712741015e-002
      -5.8453633573984601e-002 7.1611474898242752e-002
      -8.2241013267173757e-002 2.3075178597844186e-002
      -1.1951296590912727e-001 1.4706478447466418e-002
      -2.3597998746319989e-003 1.1034176758614037e-001
      1.2343814888608000e-001 1.5776034784608300e-001
      -3.8970867152061647e-002 -1.7610465619037122e-002
      -5.9937220470183752e-003 4.8948891593954415e-002
      5.7100593974624449e-002 -2.1419006655469714e-002
      4.0072341394914529e-002 -1.2096691760310266e-001
      1.6375636775957803e-001 1.3427115589157609e-001
      7.3207121955838117e-002 1.1914643440252710e-001
      -9.2092675380245667e-002 -5.0481963607263446e-002
      8.6345764758793062e-002 -5.2784501306286986e-002
      9.8451867871286375e-002 -5.2648303031087341e-002
      -9.8003578802132452e-003 -8.7749331898667321e-002
      1.5176422854299992e-002 1.8157701568514957e-003
      -1.0074890911032792e-001 7.8760822427644137e-002
      -1.0125921635285265e-001 8.7238399184472445e-002
      8.7572732627332367e-002 2.1007486527073488e-002
      5.6287375293287964e-002 9.6497960330860513e-002
      3.7726386201699831e-002 1.5276949036728993e-002
      -1.2480355931595265e-001 -1.8949858070292033e-001
      -6.6735417091204632e-002 2.3967553231529593e-002
      3.0722381546723614e-003 2.2041528984588249e-002
      -1.2075980569838261e-001 -2.6899065564680767e-002
      -3.2738303440944236e-002 -5.1084476112035981e-002
      -5.5423418875487324e-002 3.6177940452446211e-002
      1.1144608650095907e-001 4.2506559690322486e-002
      -3.1617269645778767e-002 2.6103425203761303e-002
      6.1998435024906956e-002 -1.9322317121313420e-002
      6.4419536846909514e-002 -7.0399839976466552e-002
      2.8806269823946302e-002 -4.8794013349291968e-002
      2.1211890151876928e-001 1.3299467866425105e-001
      6.5186171688183914e-002 7.7649076449808176e-003
      -1.3268334711363111e-001 -1.3629894717334293e-001
      7.1009171100377452e-002 -1.5595099064014146e-002
      8.4622243679394263e-002 -4.8205842399142898e-002
      1.6490492661700577e-003 3.6949412630070136e-002
      -6.5454229378700782e-002 -2.0661092704681784e-002
      4.0577611747400960e-002 4.9790988441728891e-002
      1.3114449343119550e-002 2.3255395518916089e-001
      4.4352503912396646e-002 -9.4589194603812654e-002
      3.8118424825097995e-002 -1.1428202080032840e-001
      -1.4694630008451311e-002 7.2013136327410835e-003
      5.1553534156474151e-002 7.7002509536168356e-002
      1.3246032076742168e-002 4.6411645301041048e-002
      -5.4260381222186183e-002 9.0772190758574497e-002
      1.3972830044726534e-001 -2.3407681216779153e-001
      7.8666852082517419e-002 -5.2804836142114335e-002
      -1.2129055117572635e-001 -9.3218779399740478e-002
      -1.6962365028889540e-002 1.3584854687416806e-001
      1.9797488759734441e-002 -4.2080452400500075e-002
      -1.2661746029246457e-001 -3.6274854850961567e-002
      -3.0244836288560846e-002 -7.0502006308023890e-002
      -1.8150220879072929e-001 1.1673818938298336e-001
      3.3193171822785625e-002 7.4014590493937391e-003
      5.4718351475953463e-002 1.2028238588085871e-001
      9.0182970426148673e-002 5.4620752500370066e-002
      4.6427715827251611e-003 -6.9022334851880102e-003
      -4.5457221314598784e-002 1.5002536125723531e-002
      -1.8983239646065631e-001 4.7993911917001149e-002
      4.8568378215942253e-002 -9.8301721953403337e-002
      1.5669471871097770e-001 -1.4890644602872288e-002
      6.2331425973767139e-002 1.1152813768604695e-001
      -3.1675621417320152e-002 2.0670893280175914e-001
      4.6496239592124435e-002 1.4483379468042198e-002
      8.4069832069753728e-002 1.5156329834940035e-001
      -3.4533448534707280e-002 -5.5752689636020016e-003
      -2.8760944707742908e-001 -1.1763270030914245e-001
      3.1690867414822965e-001 7.7713638667676013e-002
      -8.0341353547098530e-003 -3.2352837971325037e-002
      1.0701796786606588e-001 1.5490707249441106e-002
      -2.7942970139343531e-002 -2.4345624495164749e-002
      8.4793468024781465e-002 4.3914789709346869e-002
      -6.3563547656328462e-002 -1.1080291979541040e-001
      -2.2089776424915684e-002 8.0436548690072773e-002
      -5.8987450383305003e-002 1.6822378392805179e-004
      2.8918109379902274e-002 9.0215168388635289e-002
      -1.4614186229583889e-001 -3.5294259163396145e-002
      1.1317893113326062e-001 1.9176999608978052e-002
      -5.3033510749608562e-002 -8.8475907464721660e-003
      6.7063397587588294e-002 -3.2704298813489983e-002
      -4.4684965318039040e-002 -6.0077378924244002e-002
      -1.3224418565796222e-002 -2.1365443705434451e-003
      2.6721380561486988e-002 -7.3782364410308873e-002
      9.7922576822155067e-003 -7.1111800618418528e-002
      -9.0435875906271640e-002 8.7988838420013191e-002
      6.1463467790657991e-002 -3.0845986842376544e-003
      9.1515949451482961e-002 7.4055941097744993e-002
      -1.9670713768757040e-002 -7.2366067597813888e-002
      2.9648570526863365e-002 1.0426880952369062e-001
      -3.3978982151836687e-002 1.0599260495341784e-002
      5.8554685924252045e-002 -4.1635787711924079e-003
      -1.2438953164807529e-003 -1.2462265928190269e-001
      -1.0608045507398732e-001 -1.4638802869219689e-001
      5.0817977636970164e-002 -6.3983528463703743e-003
      4.4185376705640170e-002 -4.1820634355585820e-002
      -6.6774608853834003e-002 -2.4838637708357335e-002
      8.5951200864981207e-003 1.3491683582059844e-001
      1.5291794907862286e-001 -3.0794900578633228e-002
      -7.2954452979029957e-002 -1.2498907059321258e-001
      7.6718936895609505e-002 -3.2812252235873383e-002
      4.3529805118904114e-002 1.5648166505898894e-001
      6.3285649055540752e-002 7.3617467568179431e-003
      1.0802991661280273e-001 -4.9683052046139084e-003
      -1.3307503279166039e-002 -9.0124819425823718e-002
      1.7013699995253395e-001 2.8914359492566221e-002
      -1.1075874076093178e-001 8.7107582006757819e-002
      -1.3554460463457157e-001 1.3068337978623782e-002
      9.9120991032263364e-002 -1.6044330431456515e-002
      -1.0600922214617330e-002 -1.2861693770443564e-001
      -7.5797560368320346e-002 7.2882963688033348e-002
      -1.6276669854229688e-002 -2.2282974933482513e-001
      2.0385968675090335e-002 1.0490999774253446e-001
      9.6656727085759592e-002 -6.3717505086741233e-002
      -1.0581066765327837e-001 1.3858584447335584e-001
      2.2596205038510328e-001 -8.9789450236744534e-002
      1.2565181990685159e-001 -3.9257542400502242e-002
      2.3271186837242500e-002 -3.4264898183261725e-003
      8.9232293422117109e-002 5.3544750660126372e-003
      3.3186649020905054e-002 2.2547238917337724e-002
      -1.0987754071339841e-001 9.5531279482281052e-003
      -1.5190677505219388e-001 2.6056798059184507e-002
      -3.5205891476809172e-002 -1.7403789591631857e-001
      -4.3675564252214985e-002 7.5559225596243604e-002
      1.7019376087282356e-001 -1.1239255419037224e-001
      9.8807777816179845e-002 -7.4380053252182943e-002
      2.6096222828649481e-002 5.3065055011081122e-002
      8.8889253533985732e-002 1.3399406559959531e-001
      -3.1812595646937877e-002 -1.2649288317293716e-001
      5.2618269007898510e-002 -3.1816310737811944e-002
      1.0276285887615874e-001 4.2072332528536691e-002
      -2.1327203065400074e-001 9.0808965472161010e-002
      2.6807178591788678e-002 -1.5016171352395927e-002
      1.2762368628884260e-001 1.5991755474385480e-001
      -9.4841817657810634e-002 -1.5388702400169280e-001
      1.8101073881575189e-001 2.9849400012326038e-002
      9.1831293741305525e-002 7.7927167165254593e-002
      6.6309087344839979e-002 1.0168560451918537e-001
      -6.5848543672777982e-002 -1.3612437268595046e-001
      1.8136271428132408e-001 -2.6160432811593987e-001
      -2.1136506483513142e-002 1.1514420824009290e-001
      1.6344441712788418e-001 -1.3895174991776205e-001
      1.5336129871357695e-001 8.2454886806947708e-002
      -1.2165436248043721e-002 -5.1404887987951911e-002
      5.9508733425763051e-002 2.2267144214914943e-003
      2.0537588545836263e-001 -3.9988689627125495e-001
      -2.7574579535194262e-002 -1.3319200951187901e-001
      -6.2149538169380084e-002 6.4270116224430740e-002
      1.7501412491674306e-001 -2.3335941127383020e-002
      -8.6468667289721982e-002 -3.2412991408089613e-002
      -3.3263204919917327e-001 -2.3516568844122121e-002
      -2.1359805646937968e-001 -1.0284772086785693e-002
      -1.4943803470348391e-001 8.6922651080156344e-004
      8.6226317697222638e-002 1.6076403212232626e-001
      8.4923991271435184e-002 8.0424604996100033e-002
      -2.2178539978852711e-002 -2.4278719384074948e-001
      9.6158688775836873e-002 3.0822356144411489e-001
      2.8624123887740904e-001 -5.0330063050037926e-003
      1.8258045589854294e-001 4.4094399662516930e-002
      7.2969466304882546e-002 1.6878475961596567e-001
      1.4501984613137950e-001 -6.9767833491514103e-003
      -6.0971829085479295e-002 -1.2919657256352954e-001
      1.4793245447410791e-001 5.4809235365171342e-002
      1.3693330817613744e-002 5.7851754404389610e-002
      -1.0770417961360905e-001 7.2881006984006055e-002
      -4.4387469244856474e-002 8.1448606356090761e-002
      2.3206990420941129e-001 1.0281945008963382e-001
      -2.3074176158671376e-002 -1.1430321663099970e-001
      4.2495786812619665e-003 -1.7247288371005776e-001
      1.2642452620745584e-001 7.1531257056525549e-002
      1.2548700715478373e-001 3.0803129444123559e-002
      -1.6003900207210775e-001 -4.6833411092346088e-002
      7.0095876651875430e-002 -1.5146578687083603e-001
      -1.2174264391127121e-001 -8.2953273037962877e-002
      5.0319344658859483e-002 -1.1942427078985063e-001
      -1.5757928030990770e-002 -1.2827865904664404e-001
      1.0760948984754536e-001 -9.7594242504707079e-002
      2.4966979291026613e-002 1.4269714020422322e-001
      2.2920381553157568e-002 -1.0497779464260665e-001
      -2.0864337341327568e-001 1.1108090897214928e-001
      -6.3761925610767808e-002 -1.2491222878820964e-001
      1.3303931511326456e-001 1.9935438320429349e-002
      -7.1743286956927957e-002 3.6868708002304712e-002
      -1.5278363187708047e-002 1.7618468487037856e-002
      7.1795959791118150e-002 1.1229069382495527e-001
      4.3997601218155838e-002 -5.7298918840805291e-002
      -1.2186091270253675e-001 8.6272715672642247e-002
      -6.9232380641613731e-002 6.9620522568764831e-002
      2.9645556826201985e-001 6.5556215211550001e-002
      -3.0710530666291098e-002 -7.0755715610837558e-002
      -1.0096111001088389e-002 -3.2617978750096081e-002
      4.6516881891802538e-002 -7.2312612191241202e-002
      -3.2248963865886070e-002 2.2571420472938617e-002
      -8.2375330644569381e-002 -4.4430356125235930e-002
      6.8584303044299549e-002 8.1647752150456498e-002
      -1.9195754941037899e-001 -2.6608551378959698e-002
      -4.3311760729437439e-003 -3.4436772879034259e-002
      -9.0455328741771812e-002 -2.4753658210571960e-002
      1.5452841954352836e-002 1.8223154044199146e-002
      -1.1053506492140670e-001 1.4784791904348527e-001
      4.6586230409468975e-003 -2.4070282601234175e-002
      -5.4990922832161809e-002 3.3279844122633150e-002
      -1.2054183444099537e-001 -1.2365944722312555e-002
      1.2352205089923568e-001 5.9033018928705855e-002
      2.0273922048927306e-002 5.5821710931504634e-002
      -1.3049060369731644e-001 2.5285551756667646e-001
      -8.8455598043165710e-003 1.2974787757447051e-001
      6.3016707051300275e-002 -6.0195435541743947e-002
      -1.3897113303579564e-001 1.5507860839724559e-002
      3.8023933604536798e-002 4.7116440457641122e-002
      1.7402009087479384e-001 6.5104555292978677e-002
      1.0711445457544681e-001 -4.6471285671411275e-002
      8.8996733338427725e-002 -1.0119252290841062e-002
      -4.5871505681970279e-002 -3.0746840943284188e-002
      -5.8275648381404067e-002 -1.0831865706505890e-001
      3.8811683271541018e-002 1.6936262110799868e-001
      -5.7041270673913146e-002 -1.6184699080177695e-001
      -1.6842653060188573e-001 -5.7513561429370641e-002
      1.8821838980214497e-002 2.6359272288836614e-002
      -2.8774304122647282e-002 1.8502622846147582e-001
      2.0080580305494044e-002 -3.8827107490124635e-002
      9.5989514966621989e-002 4.0512546919174802e-002
      3.7933864366899030e-002 -1.1450820133689533e-001
      1.9126193879794898e-003 -1.7378725590760150e-001
      9.4535977613041861e-002 -6.6766610084178279e-002
      -1.8021984025489887e-001 2.3775317450862237e-002
      -1.9263640081655378e-001 4.7660726660558317e-002
      1.0263822672767403e-001 4.3421365634107360e-002
      1.1446377346306863e-001 2.0610748794816333e-001
      -1.5458223332810242e-001 1.2065916787547259e-001
      -1.9622038136880338e-001 -2.6746377469048555e-001
      -5.2272665722976980e-002 1.2600046784573372e-002
      1.8713127030811363e-002 1.6961468985413859e-002
      -2.0380825504961020e-001 -5.4107928108236260e-002
      -1.4436100102909410e-001 1.5797386350962339e-001
      1.6308191813394593e-001 2.1693437553822786e-001
      1.7052527500847089e-001 2.0407198666083606e-001
      5.1423791760249464e-002 -1.3746776234307884e-001
      1.2341186463551759e-001 7.9860820427446355e-002
      -3.9566692412120005e-002 -1.9553802160448419e-001
      6.7535430927371243e-002 -7.9488743315292709e-002
      9.6443996974696175e-002 -4.8038396160144520e-002
      1.0150806786728859e-002 -1.3139738049473704e-001
      -1.5320281350338422e-001 7.9680753484219213e-002
      1.5610256888559523e-001 1.3612743879197628e-002
      -4.3831244060261759e-002 -8.3420461802651280e-002
      -2.9773338589307811e-003 6.0281027648377748e-002
      7.8091609717084010e-002 -4.3846201928922801e-002
      -4.9178115045035484e-002 4.6381334707353637e-002
      6.2252685376507251e-002 -6.6855070620019053e-002
      -2.8621146802912400e-002 -2.2461984467833793e-002
      3.4833840037963741e-002 8.1274745197460248e-003
      1.9836091132180232e-002 3.0809693032460631e-003
      5.6382384708909689e-002 5.9516892754215352e-002
      -1.1905217341474634e-002 -5.1431974990603486e-002
      1.1224588392528877e-001 7.5205793748308741e-002
      -3.4699909760377574e-002 -4.4042016948439941e-002
      -1.1585485424329410e-002 4.0872516188357591e-002
      -4.9251921257414455e-002 -2.9430050586656372e-002
      9.8983505433080460e-002 -4.2432782401859125e-002
      -5.8996379396121332e-002 8.5717109293559600e-003
      -2.1591281267850378e-002 -7.0299472047007608e-002
      1.9408718467317794e-002 5.6666038363782430e-002
      -2.0775525758028931e-002 3.4687031122490899e-002
      1.0774214148336556e-002 -7.3754923942902409e-002
      6.3233603325080670e-002 -1.5394037908511365e-001
      5.8054780006690315e-002 -8.9879565982491100e-003
      -7.1660151299052940e-002 4.8560947346239600e-002
      5.4409204218769408e-002 -2.7019668613742017e-003
      3.9463759027519550e-002 -1.7736677696599021e-002
      -7.8627474271569534e-002 1.5453919136203064e-002
      8.9643006475491165e-003 1.0490208107963930e-001
      4.2354884892767231e-002 3.0570182408501533e-002
      -7.1337082941477321e-003 1.8652663304354944e-002
      5.8027753647457263e-002 -3.1792439937668719e-002
      1.0972728073965551e-001 -5.4588294117361566e-003
      6.4062899630454445e-002 1.0930855369295055e-001
      -4.3995557041520757e-002 -2.7517834315958761e-003
      1.1238008698290668e-001 5.8283756692086325e-002
      -4.4054943039383440e-002 1.1911779629275589e-001
      1.5809478682014091e-001 -9.7481658473009963e-002
      3.1001805679174869e-002 -9.1241181377545943e-002
      1.3388106400241398e-002 7.2643340188563318e-002
      -4.0742667643230500e-002 -7.0780895550043707e-003
      5.1084314814176125e-003 6.3202271455959594e-002
      -7.3347628950116248e-002 1.3567527908317617e-002
      1.8315716889011421e-001 -4.2034826805873879e-002
      -8.7361188134691736e-002 -9.4901709379931240e-002
      3.9567998128929423e-002 -1.1639767002012691e-001
      -8.4574254126428758e-002 8.9365898679051925e-002
      4.6072849624626759e-002 3.2084324514365825e-002
      -1.6411880069875118e-001 -2.0165173951451516e-002
      -8.9329557830892831e-002 -3.8830593538925227e-002
      -1.2560033101317672e-003 -3.0762838651523423e-002
      5.0251164344088252e-002 -5.4335317938950219e-003
      -5.4698297148508310e-002 1.7169244297451619e-001
      2.4314083631456040e-002 1.1545105336823434e-001
      1.1355869554219157e-001 4.7031868178189350e-002
      -1.3564846021311780e-001 -5.0142384100876000e-003
      -1.6367619913987438e-001 2.0538880223445710e-001
      6.1960847443424165e-002 -9.0757846731977546e-004
      7.9769511572785112e-002 -1.0792016734446208e-001
      -6.5602433432514432e-003 -1.6227304225278388e-002
      -3.2243537936432858e-002 5.8287428062226811e-003
      -3.2990143536392957e-002 -9.9710015101308683e-003
      4.7600999989597798e-002 1.1520534405306013e-001
      -1.4858862999911876e-001 -1.2302427405366582e-001
      -1.8794941820671132e-001 -6.0246869525102720e-002
      2.9823609913684579e-001 7.7976130431967758e-002
      1.8676415267918748e-002 1.1186947266134270e-002
      7.0493458368673712e-002 1.6253566939093845e-002
      -7.2834836078931806e-002 -1.0518295877354655e-001
      -1.4818967224188923e-002 3.6578168723779600e-002
      -7.4384103745230148e-002 1.3569642229368743e-002
      -1.7009029074641496e-002 1.0513255553924582e-001
      -1.3304380470644425e-001 -2.2489008815721159e-002
      1.3238100802009800e-001 -3.4182262178761871e-002
      -2.6722126788577584e-002 -1.8161284839124794e-002
      -2.4981881289698280e-002 -7.2023451555304249e-002
      2.7692158729268373e-002 2.9805623054516436e-002
      9.6303087711815061e-002 -4.6915161872038060e-003
      -1.3867203217021033e-002 7.4316670559618544e-003
      -6.4798419586252584e-002 -8.9479343868984249e-002
      1.2933780685572200e-002 4.6263407095258426e-002
      5.2349912457268818e-002 -3.2839404693625979e-002
      -1.0700123211693514e-001 6.0585441987912679e-002
      3.6659405224720512e-002 -2.2186283597508002e-002
      2.3249198261000335e-002 1.4321751965687713e-002
      -1.1068876218636993e-001 -3.9020156380509076e-002
      -3.9545963657958400e-002 1.2357003219036096e-001
      7.0529958256327616e-002 -6.3088660141701110e-003
      1.4616263891919712e-001 5.6629496532159991e-002
      5.1649168048702024e-002 6.4073034488475539e-002
      -2.1600454491596366e-002 -4.1009876987378568e-002
      -1.9785262405308316e-002 -2.3246777319578735e-002
      7.5096425102648495e-002 1.1122625676512483e-001
      -5.0318624918465095e-002 -1.1506699615830990e-001
      -1.7268049683984299e-001 -2.2244680760867681e-002
      5.1393354185215834e-001 1.6992502736463536e-001
      2.3425244183331170e-001 1.9332347116016943e-001
      -2.9429384383514310e-002 7.5448800794956000e-002
      -7.1835092747250667e-002 -9.5905458909065905e-002
      1.1282272430932010e-001 -2.9649213570504838e-002
      1.1265164040451381e-001 2.7625618251768796e-001
      -8.3683563753063725e-002 5.6460559595712043e-002
      -8.1337851936205838e-002 1.8911036755843452e-001
      2.2610143955226494e-001 -2.7084694141879884e-001
      7.7351552179917252e-002 -8.4360670188831227e-002
      -3.0282455624424259e-001 -2.7019428000021073e-001
      3.2319051687437522e-001 -2.0647885541287489e-001
      1.5819453443091261e-001 1.1766154100515122e-001
      1.0269402135984707e-002 -2.9142585961989959e-001
      1.9417767499482538e-002 -1.2068035243322486e-001
      -2.4792430675245566e-001 2.6764138919832198e-001
      1.0091864185854106e-001 1.1403101779766849e-001
      3.0158154872829079e-001 -3.8286119935457336e-001
      2.3368435452509673e-001 -1.6693580543571426e-001
      -1.6924577594241969e-001 4.3414873111323860e-002
      7.4291247342325867e-002 -3.3302119250438474e-002
      -1.3402477292314882e-001 5.3439793116850827e-002
      -2.7923537540824411e-001 -1.3744634973322842e-001
      3.1986069060891675e-001 2.7520831124294637e-001
      1.1005382898788629e-001 2.5986674560006157e-001
      -8.5809676527305465e-002 3.5032150261540551e-001
      2.3677795878686997e-001 -4.2858600534594726e-002
      2.9289757011542589e-001 1.1190470290748718e-001
      9.5920729402996008e-002 1.9737187368515788e-001
      -3.5728709878734233e-001 -2.7391363472687471e-002
      -1.6641111126897917e-001 -8.8086245759707235e-002
      -1.3025839902139605e-001 -9.6722297112317307e-003
      1.3327047066218284e-001 -3.9877965300395807e-002
      -4.8229276496809602e-002 -1.3399136126907005e-002
      -6.6336047701743658e-002 9.5988975284827943e-002
      3.0227707217837267e-003 7.3504627666828082e-002
      -4.6954096078549626e-002 2.9697928191886956e-002
      4.0718184399507668e-002 -4.8350750625468134e-002
      1.5335653778533459e-001 -8.1811686195029321e-002
      -3.9013463307284647e-002 -4.7588550081524045e-002
      -1.2841014121236109e-002 -1.1818297717592806e-001
      -7.3246878606187366e-002 2.0789875865323965e-002
      1.2697701050680196e-001 1.3109700612755662e-001
      1.8578660390515516e-002 1.4912393593467507e-002
      -3.5819786697755526e-002 -3.2378562228076953e-002
      1.1482765705924396e-001 -5.2282522786332448e-002
      5.0897369774143102e-002 -1.3572107608079621e-002
      -9.0130021569962943e-002 3.3577016628300184e-002
      -1.5533839163528776e-001 -4.9653609779224221e-002
      1.0630843309945218e-001 6.0945782248033951e-002
      -1.2547789509625629e-001 -2.7225439387685284e-002
      -1.4278905573736206e-001 1.2576360917515025e-001
      -9.2251167649963859e-003 5.7878008607041165e-003
      -6.6061448757776212e-002 -1.4049485349666899e-001
      -9.6955128934983897e-002 1.0595253867203086e-002
      1.3231450540526579e-001 9.8755394083335918e-003
      -1.5675073474795972e-001 3.2649896665294234e-002
      -7.2091114468485831e-002 6.7788945989735935e-002
      -9.9728035984298788e-002 -7.5953810298646382e-002
      1.2590651897591830e-002 -4.2370554944560010e-004
      -5.2319159618577200e-002 2.7871169491745281e-003
      -2.7473851322229386e-002 -6.1181948349464506e-002
      -5.8703638772270549e-002 -3.3239157938408231e-002
      6.3566927183453401e-002 -5.5130428743979040e-002
      -1.7587637447553231e-001 4.7179990118531426e-002
      -8.3387241097865758e-002 8.4843931199766950e-003
      6.0598337600547600e-002 8.7983190197342048e-002
      1.4284726829688734e-002 -1.0298739850276890e-001
      9.8943650283640341e-002 -1.4105783479463671e-001
      -6.0303200573767111e-002 -4.3054437946574986e-002
      -6.2945741548928291e-002 -3.4792476135112854e-002
      -1.0274334334321204e-001 1.8801745794726971e-001
      1.3122936098874777e-001 1.1216484707014074e-001
      4.9280410253694992e-003 1.5250678202377752e-001
      -1.3667956986545726e-001 -1.8806465550088851e-002
      1.4423005041155454e-001 9.8701787821898188e-002
      6.1621262319849948e-002 -3.0487686910668610e-002
      -2.2542269632931361e-001 2.7273827769074316e-001
      -1.2387849692119869e-001 6.3776592321025380e-002
      4.7633491033265300e-002 -7.4462093378817484e-002
      -2.7719704384489824e-001 3.4833444618888092e-002
      -1.7638724016451710e-002 1.4460821016390119e-001
      2.2431169515911192e-001 6.3184545780554824e-002
      -1.8223661625906766e-002 -1.4525143595280099e-001
      6.4422810004863065e-002 7.7400949196521796e-002
      8.2679612047614801e-002 -7.4166580102990147e-003
      -1.8393735017395768e-001 -5.7498702069100870e-002
      -1.8786713646714047e-002 2.0859252586849569e-001
      -6.1459088631925438e-002 -2.6327564289592054e-001
      -2.1023792288684026e-001 -1.4258128245180884e-001
      6.9596685329919084e-001 1.7237521914251777e-001
      2.6799368530858677e-002 1.3362700615402931e-001
      4.5681616332372436e-002 -1.7113018003369101e-002
      7.7384085690906462e-002 -1.6684645876677322e-002
      9.3963014232673961e-002 -4.9849636042188179e-002
      -3.9923322442106789e-003 -3.4701992654178553e-002
      2.9509111798051751e-002 -4.9900047473555491e-003
      -1.7691828653215616e-001 6.3602114057155421e-002
      1.7804791453254230e-002 -4.0653458898590691e-002
      -1.0522470929039242e-001 -2.7257192595079124e-002
      1.3998815833716911e-002 2.8740931878560938e-003
      -6.2260406044808474e-002 1.0782572564196316e-001
      3.6195271911010067e-002 -7.0119200108278490e-002
      -7.3302234923847714e-002 -2.3393499737781068e-001
      -4.8070991236696121e-002 2.8681328583498120e-003
      -1.5036380605995753e-001 6.1656172006309684e-002
      -7.4146637352379835e-002 1.6970864163212351e-001
      2.3865472615182121e-001 1.0995400400640254e-001
      2.4370987138530403e-001 7.5012994064517113e-002
      2.0471629857643250e-002 -6.2659975740308405e-002
      2.7605128292989060e-002 -1.0539448785066918e-002
      -4.1683223313429565e-002 -1.5504140130568432e-002
      -4.1788765126101059e-002 -3.7618456060897497e-002
      2.4531716089163455e-001 7.2019032526927998e-002
      9.6090170344630049e-002 -3.2849935193114542e-002
      -1.8228817077283374e-001 1.1634714402356509e-001
      2.0688617953030100e-001 -9.3702816030771449e-002
      1.9706019755045509e-001 5.3415799422271357e-002
      -1.6003479864811522e-002 -3.0374807883178340e-002
      -2.2804839820847686e-001 6.4472462303831773e-002
      -3.8244420616800050e-002 1.0930642090806232e-001
      -9.9986357119577034e-003 -2.2798170756918160e-002
      -1.7480211018411035e-001 -5.3133604968250217e-002
      3.0449013399534954e-002 -7.7864364606196099e-002
      4.2134226462565975e-002 -1.6436574422265211e-002
      -4.6706431582671931e-002 -6.6933112389595595e-002
      3.1644517422250121e-002 6.2473985114070908e-002
      -7.4903032363174055e-002 4.3940978053158858e-002
      -8.3862698836954339e-002 6.1406868766029708e-002
      6.6614731784896006e-002 2.9124263917428249e-002
      -5.3937088705314487e-003 7.1837958222856213e-002
      3.0612088771050903e-002 -5.9808535135605023e-002
      -4.5942839184255693e-002 -9.0741003673519671e-002
      -4.3853717913282771e-003 8.7773602770436526e-002
      -4.2005317071014334e-002 1.6698057662806649e-002
      1.8769378133290777e-002 2.0318162140357081e-003
      3.6424856335360169e-002 -8.7118622734981291e-002
      -1.8696455080846344e-001 2.2312355994416069e-002
      -2.8324067888751015e-002 5.1261144327764616e-002
      -1.0485843270075418e-001 2.7725234941556730e-002
      -4.6874203993285485e-002 -1.0105686522310640e-002
      1.7313460812198569e-001 3.3668283318274352e-002
      7.3663965044051885e-002 5.3536032969081437e-002
      1.9632867317478442e-001 1.1231038090837160e-001
      7.5638024478063906e-002 1.2311738920321687e-001
      -7.0272386734028455e-002 -1.6748637580610440e-001
      -8.7409640264503069e-002 -5.9169623266717007e-002
      3.0833914337881581e-002 -1.0561447643221741e-003
      4.1116068994862344e-002 -3.7243303678636076e-002
      -1.8439647601872465e-002 -3.0550479462585434e-002
      1.2974169127801066e-001 1.0134843812134279e-002
      -4.5098626656900752e-002 4.9979375560675617e-002
      5.0996470422936917e-002 -4.4697835204886224e-003
      -1.7278181029004986e-002 3.6559605388293948e-002
      2.4459527813422578e-002 -2.4517113880016581e-002
      4.2765698410663112e-003 -5.1920520741692774e-002
      4.4299968318926526e-002 -5.9611269102334066e-002
      -8.8842622691663264e-002 -7.4745762915362952e-003
      -7.6994552723975151e-002 4.1393246595864464e-002
      1.6665733884657870e-002 4.4651031712105292e-002
      4.9395546296051661e-002 5.7505006097764454e-002
      -4.2377861312890258e-002 7.2938734647334524e-002
      -6.7939344744211899e-002 -5.8708344496440794e-002
      2.6089315967967684e-002 -3.2857473591609947e-003
      -1.0637166683720802e-002 -5.8104457503128258e-003
      2.4416403256181090e-002 -1.7975981698138490e-002
      -5.8722013446128006e-002 5.8085525850200159e-002
      4.7952855318454550e-002 9.3236975855095938e-002
      7.5113298931040864e-002 2.9506406178981936e-002
      6.1396750103251761e-002 -5.4966480781706906e-002
      3.6518928683729322e-002 2.3418460875952569e-002
      -4.1524679695384689e-002 -6.7879253676102740e-003
      1.2896295241859529e-002 -2.6900187834874634e-002
      2.4078971205048320e-002 -2.3108274810092037e-002
      1.5392631650450279e-003 -6.5927198699703551e-002
      -2.2676984723873271e-002 1.7455900434957268e-002
      7.0495629198209370e-002 -2.7975500722197469e-003
      1.0592214364510990e-002 -6.0290617324485200e-002
      -2.1809461473180948e-002 2.8468768316760103e-002
      2.9321124024763619e-002 2.4714629459369167e-003
      -9.6493336596935354e-003 -6.6938261738351268e-002
      9.7389987791865196e-003 3.0863352188003471e-003
      6.7744248947275029e-002 1.9639732215596404e-003
      -2.3802265347336461e-002 3.8232899454927666e-002
      -5.0859538304061681e-003 3.9989939742720811e-002
      3.4324164600515676e-002 7.4906216844598472e-002
      -5.3010905214819388e-002 6.3106268674556643e-003
      3.1636532752452082e-002 -3.6201146509025589e-002
      1.2758216715108164e-001 -1.8596746806947596e-002
      -2.9225782791251438e-002 -7.4245277018163108e-002
      -2.1554617723911484e-002 -1.1885229962885727e-001
      6.7912165701205632e-002 -2.1840073889879824e-002
      1.0779396728279041e-001 1.3506733244961430e-001
      4.6114627069028226e-002 -6.9652624083872322e-002
      5.2778214866471308e-002 -5.9228825287905053e-002
      3.6547498459832552e-002 2.4022206145376873e-004
      9.5413842217196496e-003 -6.8879470172979421e-002
      -2.6914173501198679e-002 -7.9620167668560865e-002
      -3.5491723599188382e-002 -3.4687828934377933e-002
      4.2011168936528807e-002 3.4335851777272774e-002
      -1.4545450021837885e-002 -2.5345194362187247e-002
      -1.6080976355214777e-001 5.2105928705097414e-002
      -8.3234187822418912e-004 -2.4776917377126281e-002
      -5.5510240884379905e-002 -6.8554102295261085e-002
      -7.7003130433584185e-002 -3.5211539183185356e-002
      6.1847490094850036e-002 7.0430910954251538e-002
      5.3038691973852333e-003 6.1930260795261351e-002
      -3.6712433240065817e-002 -7.4175602632574125e-003
      -3.7568160208152589e-002 1.7989743758973355e-002
      1.9912805410893363e-002 -7.1325484962919093e-003
      7.0202861175097900e-002 1.6279026220402948e-002
      -4.2425823455485991e-002 3.6115080602830363e-002
      1.7449490355540872e-003 5.3444702138142064e-003
      -2.5836558747774626e-002 2.4585502984262250e-002
      1.6006562515321232e-002 8.9950155620275652e-004
      4.4781892797151938e-002 -3.3550721734606956e-003
      1.8061927652003543e-002 -4.3750938036303276e-002
      -3.1341049217144513e-003 1.9959643675060829e-002
      3.5224708990383206e-003 2.3872031214028418e-002
      -5.8785389312071820e-002 1.3688299406726472e-003
      4.2326462846324102e-003 -6.7335347518976529e-003
      -1.4664858890599262e-002 3.0474817210405947e-002
      -3.7163515478163933e-002 -7.3336663039599175e-004
      -3.7116748492796281e-002 -9.3669727579516290e-002
      1.2584196923711452e-002 9.5834535509086716e-003
      1.3309965609451371e-002 2.7672849686671687e-003
      -5.8851892344086353e-002 7.9599898715911971e-002
      9.5269558869821122e-002 6.5098604550742041e-003
      7.9474318207980940e-002 -1.6267787863657610e-002
      3.2557654877024042e-002 -8.0424353194629948e-003
      5.4029617137139316e-002 1.3569438851138696e-002
      -9.1107281054016137e-002 -4.2322178277195636e-002
      2.8154380309328347e-002 -2.2721203430986457e-002
      3.9869888704943783e-003 -1.0075606492230641e-002
      -2.2887094408632985e-002 -6.3284193871457936e-002
      -3.6063720010648372e-002 8.1382971270852075e-002
      7.6623543954711326e-002 -3.5249044915890294e-002
      5.8414134734423598e-002 -2.1865740506227239e-002
      -7.1143400299801696e-003 6.9757470572217858e-002
      8.9789992535237312e-003 2.9679392461403355e-002
      -5.3150041672097879e-002 -2.1705296841820650e-002
      -5.4578703155070601e-002 -2.9380580743188922e-001
      -1.8499337468952293e-001 1.1626870385596702e-001
      1.5668274672838897e-001 1.5629604539980765e-001
      -2.5054027759837200e-001 -7.9291581371695202e-002
      -4.3471738963049490e-002 1.0619420386926742e-001
      1.1321333904571722e-001 4.5321821297975469e-002
      1.1727145301911582e-002 -1.4562601010044929e-001
      -1.4240953899552758e-001 -2.6699084392756584e-001
      5.1699292950993160e-002 1.4122591762322877e-002
      -2.0593929273764977e-001 8.7456956232945887e-002
      -1.7078125051343703e-002 -8.8954547686424343e-002
      4.3381495076686767e-002 1.4306211669219321e-001
      1.6337786929517786e-001 3.9893578382576927e-002
      -1.1429018094245716e-001 2.6357314856994028e-002
      2.2384658386694087e-001 2.5445280515870028e-001
      -5.0812649532753495e-002 1.7353069516353078e-001
      1.7140125738176165e-002 -8.4515512641380519e-002
      -1.5276398654021026e-001 -3.0097936800469852e-002
      -1.2248013804322920e-001 -2.1701839443863011e-001
      -7.2230440983317448e-002 1.3768346006457052e-001
      2.5029897395626449e-001 -1.0430012422440431e-001
      1.0461292610932352e-001 8.3802243662222872e-002
      -1.1872843352957531e-001 7.5067935751767234e-002
      1.4865199514083574e-001 1.1055113081113965e-001
      6.8512531241948976e-002 1.7364313088826933e-001
      -9.1418236357462393e-002 -1.5810803198874124e-001
      5.1707727789108504e-003 2.1535010674934163e-001
      1.4079004986447302e-001 -2.4693971372747370e-001
      -7.9240007350362365e-002 -1.4175533026309042e-001
      -6.7325042397257770e-002 -1.8233537630227715e-002
      -9.9487107253733081e-002 6.9783877961593485e-004
      1.5382036682900427e-002 -7.0571863901703780e-002
      2.3361977471559901e-002 -1.8285617585685848e-002
      -1.0452658008192656e-001 7.4698649950785670e-003
      -6.2654088017247186e-002 -1.8428551620060799e-002
      6.1512579149159377e-002 4.3390474697680599e-002
      6.3461417062681449e-002 -9.6926019756550824e-002
      2.0353755281751512e-002 -8.3782050786754117e-002
      -4.5700543010927526e-002 -3.4956344720888023e-002
      -3.5439133733749247e-002 -5.2363207430725931e-003
      -1.9085028091429290e-001 1.9428262281519665e-001
      7.6636247017009176e-002 -3.1178658445506504e-003
      -3.1333658715858102e-002 8.6080494786758166e-002
      -7.2608692303718483e-002 -1.9857708471841221e-002
      1.8765695447314625e-002 6.6774575832341768e-002
      -2.7176484221011703e-002 6.5844333642616312e-002
      -1.1258713758075511e-001 2.9886341935449401e-001
      -4.1088000581786424e-002 5.1124841165676678e-002
      6.8194329334622536e-002 -8.5493313639153870e-002
      -8.6497832804458955e-002 5.5964249448775344e-002
      2.4239015254083424e-002 1.5879385968183383e-002
      1.7016611220686290e-001 3.5254191918697324e-002
      -2.7833765792545200e-002 -8.8194976654628318e-002
      5.2849331259846748e-002 2.1962763525492056e-002
      1.6039026357999517e-002 -3.0955103069761427e-002
      -8.5069369177849061e-002 -3.6174756908521774e-002
      -2.9754996762747805e-002 1.2477882456693236e-001
      -7.0594010743890448e-002 -1.5932532601846361e-001
      -1.0128308141817685e-001 -7.5688170378078484e-002
      4.7315939122746575e-001 4.9319884767286826e-002
      -3.6742238584978167e-002 3.9330602402291664e-002
      1.3060894384735819e-001 -2.0953831623035414e-002
      -4.5198535385034447e-002 5.3431326887903537e-002
      1.0286910263474548e-002 4.3372443313609635e-002
      -1.9907788068078525e-002 -2.3589590854629732e-002
      -7.3088879123079655e-004 4.2679248848121652e-002
      -3.0354947580707423e-002 -1.3375357535183209e-002
      5.4553518962979580e-002 9.2157390086288170e-003
      -1.3215140358915045e-001 -3.9175231028048827e-003
      4.0845026442623923e-002 -3.6828985487120942e-002
      -5.3112344659496123e-002 1.3019599925044667e-002
      6.2805661260914566e-002 3.7716735408958223e-002
      -1.4509209938049014e-002 -1.1011473489552964e-001
      -6.8992492468573946e-002 -1.0015020030617055e-002
      2.2848436349736313e-002 3.0637649906796988e-002
      -1.5744646887347110e-002 -3.7922277773280215e-002
      -4.4259005882777418e-002 1.0502381448490508e-001
      9.5010169597033595e-002 1.1364974386893033e-002
      9.9785458109127659e-002 -1.3104780184615784e-002
      -6.5379008883777734e-002 -3.1701621803113054e-002
      -7.4862979352359679e-002 7.6928342861730878e-002
      -3.4703010685242937e-003 1.9502099386771915e-002
      1.9174193838746535e-004 -8.5703812805837266e-003
      3.4168959407598086e-002 -6.6015185928150324e-002
      -1.4595113343000340e-002 -7.4713940919930263e-002
      8.3392280726176313e-002 -5.1211632744956305e-002
      1.1585181117049023e-001 7.5734291926478903e-002
      -4.6669131686561373e-002 -7.4986466142190900e-002
      -2.0198823973336413e-001 3.2068841765706675e-003
      -1.7972118075285089e-002 -3.7451747398253979e-002
      -4.5575878684802125e-002 -3.6069148666813558e-002
      5.1561467921346950e-003 4.7328190357920082e-002
      2.7300453509523735e-002 3.4086965935891084e-002
      -1.2990547835247637e-001 3.4284251884532907e-002
      8.5586096796154958e-003 7.8608187692981391e-002
      3.1974384792804192e-002 9.9134473202656063e-003
      1.9965180184053678e-002 -3.1172034924560912e-002
      6.5038877045679802e-002 -1.7723780632426228e-001
      8.9323391020888834e-003 -5.1241982953161340e-002
      -9.6473545872537342e-002 -6.5999546188106023e-002
      -5.0979758182507508e-004 -2.7947897802185644e-002
      8.6438849011513094e-002 1.3134501535439946e-001
      8.2131801934558823e-002 -4.7990393714974810e-003
      -5.6761678091136553e-002 -1.5797728814562054e-002
      1.0484773367567644e-001 8.6121976957193577e-002
      2.0807639647946841e-002 4.7408105586951708e-002
      6.5711326715817342e-003 -1.3889572713650810e-002
      -5.4695162940792401e-002 -4.5870098260321415e-002
      1.0173291608893695e-002 -3.6648567390500791e-002
      -9.7814224145430118e-002 4.3444138656322746e-002
      -4.7904782571810758e-002 7.7264069589038628e-002
      6.2061342405575051e-002 1.1839559903452456e-002
      -5.8650145633552905e-002 -4.4724981081240005e-002
      1.9696179222708568e-002 4.3323905716013647e-002
      6.2860719111591551e-002 9.1839969689825357e-002
      -3.7224655943102980e-002 -3.7780223378614551e-002
      7.8098364613526875e-003 1.2687157983420747e-001
      4.5721430790422344e-003 -9.3247948680593121e-002
      -6.5643333279244528e-002 -7.5315004812784150e-002
      4.2859651548032805e-003 -4.4417889419248397e-003
      5.3368622253984400e-002 1.1429843115798831e-001
      6.2117862850066541e-002 4.8263859139214800e-003
      5.3845680780645222e-002 -1.9560015328231223e-002
      1.4517084725057231e-002 -1.5711157260891437e-002
      4.6397646856652423e-002 9.0624454429343762e-002
      -3.2498767542846772e-002 2.5021990394924181e-002
      4.3179056690316887e-002 4.5467502699763442e-002
      8.5963770596501871e-002 -6.0504784205923638e-002
      8.6432718338939812e-002 -8.4463250770224513e-002
      -7.8232730204399525e-002 -6.3474850715663611e-002
      5.2221137064998931e-002 -7.5314764978227908e-002
      1.7786169194452944e-002 3.9822266685468198e-002
      -5.4420483924962258e-002 -2.2268051386890267e-002
      2.2872874609181509e-002 -5.4381641392395381e-002
      -1.0248429880178080e-001 5.1862652737216179e-002
      5.4705603189087121e-003 2.1035808518530166e-002
      1.0446336589170244e-001 -2.6196359032088955e-002
      5.1854166614405353e-002 -4.1022368728421160e-002
      -5.0146324289618620e-002 -2.9300481850311567e-002
      6.5777939112265538e-002 -5.4654822908707483e-003
      -1.3512949808502647e-001 -5.2261893688433848e-002
      -5.7928195135579258e-002 -9.7149306239366309e-002
      6.0642404047786556e-002 6.7782365673695069e-002
      -2.0709951257820852e-002 8.8579703269125495e-002
      1.7141544645473582e-002 1.4894649730760096e-001
      6.4981794389171788e-002 5.8653307360292249e-002
      -3.9263732127590668e-003 4.4695091731420764e-002
      -1.9563586673239017e-002 2.3820680334888222e-002
      -1.5313962305769099e-001 3.0079134602229064e-004
      -6.5760208923447666e-002 -2.2118247842589683e-002
      -8.3716265662124589e-002 3.7528953436014596e-002
      -8.9438927541351659e-002 6.2764364773364872e-004
      -4.4945562469672060e-002 -1.4642272017427536e-003
      -1.3946535877261027e-001 -1.7855661159290635e-002
      -6.3276539424194464e-002 1.9554138498074036e-002
      7.8266048406045619e-002 2.4326433909468897e-002
      -1.7102160129484351e-001 -6.4473020746863091e-002
      3.0111679534671209e-002 -2.1778296639997813e-001
      7.2461724502894925e-002 -3.4149357645260965e-003
      -7.5084919889576926e-002 1.3038700766663488e-002
      -1.2107182972710065e-001 1.2347739512415982e-001
      9.5045644077472027e-002 -2.4073081211989655e-002
      8.5432208484307343e-003 6.2845445494939672e-002
      -8.3636500303156919e-002 -9.9062398457651468e-002
      -1.3827813581573237e-002 1.1380836571010106e-001
      7.1714516814297127e-003 9.8572665739960125e-002
      -1.2460916038235310e-002 1.1983005181360852e-001
      -2.9325702505066081e-002 4.3189944471501110e-002
      6.8411645451291643e-003 -1.1303079237012657e-001
      -1.1790909353989598e-001 8.6008206730455880e-002
      -3.8891938569486133e-002 9.8611745300495653e-003
      6.1735709094537010e-002 1.8836584907062300e-002
      -8.0688494043851273e-003 -7.0830230948711340e-002
      7.8317665207237666e-002 8.5192085031117970e-002
      5.8636994964019501e-002 7.5711669394209730e-002
      -5.8129523689771610e-002 -4.4055243853931961e-002
      -1.6610623139365659e-002 1.7485171793343837e-001
      -3.3479600595310313e-002 -8.6302980042115618e-002
      -1.2816795324070904e-001 -1.6718998141528868e-001
      8.9901167341690114e-001 6.3965033168433230e-002
      -1.0769156915471582e-001 -5.1694337230385620e-002
      1.0212444298662490e-001 -7.8301253000182605e-002
      -1.6927311553370725e-002 1.6704095215607501e-001
      8.9461015583512840e-002 3.6210458223892993e-003
      3.3756919472208352e-002 -1.0219023969516432e-001
      4.1914168843071281e-002 -7.1440710440564548e-002
      -4.9473150989075246e-002 2.7166858221288042e-002
      -1.0118912561757940e-001 9.2582700411791549e-002
      -1.9598355652165864e-001 7.9520885247158349e-002
      1.5214904764917006e-001 8.0571085236078744e-003
      -7.1806831967777554e-002 -6.0450087837512691e-002
      -4.5335985082321541e-002 1.6285168025455862e-002
      -5.7551987978051847e-002 -3.1622860618379561e-001
      -6.5733970307319575e-002 1.6852201936661437e-001
      8.0630780470653016e-002 -1.6519278326008038e-002
      -1.4380544796226286e-001 1.2849295063070670e-001
      7.6759698707182994e-002 6.1478542928537730e-002
      1.8611000412686907e-001 -2.2089168531227690e-003
      9.5793925624208839e-002 -4.0583848980897543e-002
      4.5611269643413228e-002 4.5752594124017654e-003
      6.4476758079112476e-002 1.4476314822916436e-001
      -1.1615871911824524e-001 2.2390036296121751e-002
      1.2401666061645580e-003 2.4353373914119628e-002
      6.7853907116158199e-002 -2.2392803270361181e-001
      -1.2097188807082157e-001 -9.3576827157043990e-002
      1.8120285994362070e-001 -1.7718080959592769e-001
      2.0485024645080768e-001 -2.1581316120768364e-002
      -1.9014155826490756e-002 -7.3179438199445701e-003
      -8.3450579715893147e-002 1.3793377384102881e-001
      -2.4900825379598726e-001 -6.4931251415402985e-002
      -6.4079373626482791e-002 -2.3051408180819542e-002
      -8.5043764248744672e-002 3.1933344242512644e-002
      -1.5789906478714448e-003 4.8669785735412426e-002
      -6.4333681160096801e-002 -5.0517251287411663e-002
      3.6821206217181005e-002 5.3202237342552430e-002
      4.6231151508621636e-002 -3.6847285156042485e-002
      4.0937726607448897e-002 -1.7965018374450869e-002
      -6.1978579757323286e-002 -1.1240002399328378e-001
      1.1592185932979510e-001 4.3794411691635671e-002
      -6.4523584204399576e-002 3.4291114414388743e-002
      1.7033935029515907e-002 -1.5457861324237970e-002
      -6.9656311503161497e-002 2.5903428208675985e-002
      4.2170550999900257e-003 4.9955671706052043e-002
      1.5615357581405724e-004 -1.3976547041640953e-002
      2.1537799972771245e-002 7.0297517437169013e-002
      -4.4747423687529278e-002 9.8844852023216453e-002
      1.1026443397536853e-001 -5.2029463784928613e-002
      -5.6206809135257996e-003 2.6555655817630617e-002
      -5.2134585385568824e-002 -8.8433725384633163e-002
      6.8684252325462020e-002 7.9541140723118381e-002
      3.5492277654068358e-002 -7.4208080997731921e-002
      -2.0508907919054801e-002 -3.8997693145367281e-002
      -7.2706157083302317e-002 9.6105405933878865e-003
      2.2100032144753822e-002 3.2288650381594945e-002
      7.3465259967843408e-002 1.4187602670537314e-001
      2.5231406377418119e-002 9.7703997505400077e-003
      -5.3848247099590095e-002 1.8806776966702871e-002
      3.5265968975760294e-002 -3.0659319980123344e-002
      3.3931683044131244e-002 -1.1640528654582627e-001
      1.8590463483826791e-001 2.9105772088330827e-002
      -9.4910038890094282e-003 -6.6886478590308662e-002
      1.6382733685429890e-002 8.2362127111399897e-002
      7.0296418106206252e-002 2.9564583647665909e-002
      -1.0730957634054768e-002 -7.8987524992279508e-003
      -6.9205820763222514e-002 -7.4116149358656500e-002
      2.9786799265791006e-002 1.2550776162606986e-001
      2.3109368400252756e-002 -6.9963945028083410e-002
      -6.9808329473150341e-002 6.4755022299494119e-002
      -8.5076467266398462e-002 -1.1078876037668570e-001
      7.9360591648251502e-002 6.8052593537298312e-002
      -5.8934560261298827e-002 6.0993492779292974e-002
      -1.0458141490102229e-002 -1.9689992424666427e-002
      -1.2545142997625894e-002 8.5363395117396115e-002
      -8.9739504553298082e-003 -6.9494663971943121e-002
      2.0216062125140450e-002 -3.0347876791747504e-002
      -5.3597145213792254e-002 9.3583209190450638e-003
      -7.5954928401079813e-002 1.1919413431033454e-001
      4.6449307015527025e-003 -2.3445000359314534e-002
      7.5966016623059018e-002 -3.2698133594470886e-002
      2.4633718895810799e-002 -6.5245118728409820e-003
      5.7483509671502619e-002 -2.0582247142861557e-002
      1.5887257425937951e-001 -4.4141562608219671e-002
      -4.3094560192209273e-002 -5.8107987919724172e-002
      3.9344777708913280e-002 -8.2048509662753427e-002
      -6.9602662577340352e-002 -1.2475066002020167e-001
      9.3063075948853248e-003 8.2188798922402089e-003
      -4.1939497421442533e-002 1.3934714125157066e-002
      -2.7863762778565965e-002 -1.0839070627306177e-001
      -5.2301086748693980e-003 6.1322866195126766e-002
      -3.3217702444029429e-001 -1.2215459438840387e-001
      -5.1025725688367954e-002 4.6125199190104486e-002
      1.0948537248080785e-001 -7.6340083898501238e-003
      -2.5777399865954870e-002 -5.0907374812029726e-002
      1.3520911926021289e-002 6.2369109538803334e-002
      2.3274331549830007e-002 -1.8733592308256216e-002
      -2.8008759419206913e-002 -6.5939516974482845e-002
      8.6691293542704037e-002 -1.3091101310717158e-002
      1.1437165434328413e-001 7.0783969300919292e-002
      8.0966532884744535e-002 2.7195593410253769e-002
      5.3637398372481347e-002 -5.4221556543081501e-002
      -3.1104302456689700e-002 -4.3442837807755229e-002
      -4.6181700494491475e-002 3.1331287545032067e-002
      -8.1852658151968898e-003 9.2880729529863523e-002
      6.5964728762519131e-002 6.5899338382149264e-003
      5.6524964542763482e-003 -1.6245045788291193e-001
      4.9275816246932197e-002 -1.3358768105096161e-001
      -6.0639606017345631e-002 -5.7092598761492537e-002
      -9.9787246825126047e-002 6.8258189869767213e-002
      3.5688726048819175e-002 8.8215073429837074e-002
      -4.3080448283470876e-003 -4.0150353936934766e-002
      -9.6460724153670324e-002 6.4215956384984327e-002
      -5.2697198669428721e-002 -1.8619033710019980e-002
      -1.2439817006204545e-001 -9.6032303944784736e-002
      -1.1632109011837806e-001 5.8112269877481698e-003
      1.1746714425608482e-001 -8.8314381386853671e-002
      -7.2303882841153383e-002 8.8600272010239706e-002
      -1.2293416553145890e-001 -8.3048044627926282e-002
      -7.0240688677887769e-002 -1.2495144088076271e-004
      1.7978487835140336e-001 1.0116226467972417e-002
      3.9686443372073499e-001 1.0323284937820794e-001
      7.9915427423922158e-002 1.0587792309464712e-001
      6.8012551669487539e-002 4.1665556242261523e-002
      -3.4490310842167179e-002 -1.3802686580877837e-002
      2.2063195734355018e-001 -3.4622676283880334e-002
      4.2592221833222130e-002 -3.4597367114393547e-002
      -4.2549443969307675e-002 -9.0299075154768677e-002
      -1.9122276650744646e-001 1.2453333866777697e-001
      -4.1119128199240802e-002 2.6887780990649962e-001
      6.2771140123403443e-002 9.2745064716821507e-002
      8.2475358805783619e-002 3.6756357170579630e-002
      1.0964919614967404e-001 -1.4718175091306507e-001
      -1.1433568652683296e-001 -1.6925231546950179e-001
      -2.0479690855290278e-002 -1.1591614725760935e-001
      1.1286389456453413e-001 5.7573798264399484e-002
      -1.7222730733734076e-001 -6.5580678123670091e-002
      -3.6247579075158541e-002 -1.4222910809213949e-002
      1.8430819602728424e-001 -1.7875862399199960e-001
      2.0419208968179545e-001 9.1393430299393473e-003
      -2.1074797421299059e-003 9.1093875502427313e-002
      2.0713731960161313e-001 -4.6964518073140775e-002
      -5.4505369914319535e-002 -8.6059771507842317e-002
      -2.3616642211142075e-001 -7.5728966602212663e-002
      2.1034643073537804e-001 1.4205639000526016e-001
      -2.3968065500839221e-002 -5.5555004642369149e-002
      -1.3638721740575693e-001 2.9905330195622174e-003
      2.1149300891280942e-001 1.3794972586896477e-002
      7.7812022036868878e-002 -2.2290550660396136e-001
      1.6302750947895798e-002 2.4849828104867269e-001
      6.7081038141219476e-002 9.0814137284086757e-002
      2.7751837723151390e-001 -1.5412497982321510e-002
      -3.3619512537957599e-002 -1.1679854358748232e-001
      9.4242090581991539e-002 -2.7705204832306065e-002
      -5.9740441124986289e-003 5.3182521022478599e-002
      -1.4582927241356973e-002 5.7941530612582337e-002
      2.1089602618953162e-002 2.0307334681112905e-002
      -3.5444913461226822e-002 9.8170239825305806e-003
      1.4274087185856138e-001 -1.1944286530283482e-002
      1.8676015900642905e-002 2.5203573564322537e-002
      -1.3587997135050359e-001 -6.8708605323715395e-003
      3.7958000046678222e-002 -4.7708341383956798e-002
      -1.2055486809478972e-002 -1.0507668910362504e-001
      8.8777838352703253e-002 1.3985415625916606e-001
      2.4717135548133633e-002 -1.2197923168080925e-001
      -3.3265409191566377e-002 8.1560196735075655e-002
      1.5670199370829890e-001 4.6786085477947218e-003
      1.6602628067657690e-003 4.5916944306732882e-003
      3.9304051495680968e-002 -3.5259253505026025e-002
      2.7256421367482846e-002 -4.0914591922255168e-002
      3.0604980729238500e-002 2.3458796685087595e-002
      -8.7435730111475207e-002 -3.8097625679794488e-002
      4.1423866340722024e-003 5.0282490400992967e-002
      -3.9889507602974564e-002 5.1036356266479746e-002
      -1.3512270423969647e-001 -1.6066860400850362e-002
      -3.9272584010891336e-003 -9.0183948064386080e-002
      4.2624711564485218e-002 -1.0564339861177407e-003
      2.6861180563599468e-002 -5.9573285375318898e-002
      9.5795345011897751e-002 3.1753389059537618e-002
      -3.3540308844166988e-003 -7.8788991391442978e-002
      9.7945749471417907e-003 7.7215765153185845e-002
      -3.8996116439855533e-001 -9.1140632435149541e-002
      -3.3661054377316715e-002 -7.5812789837636396e-002
      8.6841474338502797e-002 -7.8072391639722974e-002
      -8.1362063417367042e-002 -5.2314643348241346e-002
      -6.3192787316759591e-002 7.7252544498891088e-002
      -3.3459566576797685e-003 5.9000068314268433e-002
      -5.1846478368110217e-002 -8.7684238461925700e-003
      7.1283460561115147e-002 -2.4174817620518256e-002
      1.8258953678385159e-001 -4.0786014036815451e-003
      -2.5243015452470135e-002 -2.6891128988397330e-002
      -4.1967919729655648e-002 -1.0945715576868152e-001
      1.9638603931263442e-002 -3.0979266017838489e-002
      9.6812104291976273e-002 1.2746103854235200e-001
      1.0372771236441605e-002 5.9790967016792866e-002
      2.1977508791044181e-002 1.6056028219974178e-002
      8.8332574653492618e-002 -1.8137173864576202e-002
      1.1657766722353237e-001 -1.0943687578521340e-001
      -1.2315715513402437e-001 -9.3676473497793872e-002
      -1.9615347443397071e-001 4.9650227170071580e-002
      4.3521813920810649e-002 9.2882974392109033e-002
      -1.2262148442915931e-001 -3.3290198000914380e-002
      1.7071877638902622e-003 1.0926831244485199e-001
      -6.3974279752141441e-002 6.0945350687700912e-002
      -1.4156249888037231e-001 -1.3095623973942030e-001
      -6.8261792507675598e-002 8.1274668190949459e-002
      1.4435050986389841e-001 -2.9642095482083585e-002
      -1.8755151034611489e-001 5.4020709093699409e-002
      -9.4495255981980775e-002 5.5542502010726986e-003
      -3.4034660122288611e-002 1.0513315645499982e-002
      9.1511216065460629e-002 -4.9863162505043995e-002
      1.3750214637357763e-001 6.0010382240657523e-002
      2.4276265770813397e-002 -6.8111525500103923e-002
      -8.0245035117792723e-003 -3.6909502319940751e-002
      -4.5012425064508484e-002 -8.5078564949481156e-002
      1.4568165459497645e-001 6.4278035945813439e-002
      -5.4126924984170773e-002 -1.3687921076122195e-001
      -5.3849949578166120e-002 3.8344839623513653e-003
      -8.2697681675108242e-002 5.3413562092736420e-002
      -3.4184290404483640e-002 2.5453255445811135e-001
      -6.4519320856382761e-002 1.1079157627701287e-001
      2.0230016411515334e-001 6.8389706092326377e-002
      2.7982081935999405e-002 -9.2383237103635024e-002
      -7.9982822650066510e-002 -3.4211948673136310e-002
      -5.0103640925549350e-002 -1.6012509683431639e-002
      2.4607288399820852e-002 7.0855598145265417e-002
      6.9140944692828624e-002 -1.4037666482399563e-001
      7.1945953256180806e-002 -1.7382457883580063e-001
      -1.6887471628420306e-001 1.7445059940148729e-002
      2.4847505922138361e-003 -1.0932001671851746e-002
      7.1562643613203658e-003 1.5474426122563573e-001
      -4.0385091681309111e-002 -1.1606080629917104e-001
      1.1306769951915915e-001 8.3679476658109112e-002
      -1.0431495927854258e-001 7.3112977522421574e-002
      6.1468081611900774e-002 5.1294707700332204e-002
      -3.2950219082131603e-002 -9.8728483552817839e-002
      -6.8376091741926853e-002 -2.8243595809869082e-001
      -5.1092424946518975e-003 -5.9284956954213913e-003
      2.6606452513770973e-002 -1.3153114024269125e-001
      -2.6161154915465390e-002 6.9010355300828677e-002
      1.1363530809521308e-001 1.6405944729776062e-001
      -9.3249741995941590e-002 -1.2117881929077633e-001
      -1.4530296797894834e-001 2.1957262032707470e-001
      2.8154860234662704e-001 1.6054009152819806e-002
      -2.9928583789965216e-002 1.9652902026897806e-001
