<?xml version="1.0"?>
<opencv_storage>
<ANN type_id="opencv-ml-ann-mlp">
  <layer_sizes type_id="opencv-matrix">
    <rows>1</rows>
    <cols>3</cols>
    <dt>i</dt>
    <data>
      300 80 6</data></layer_sizes>
  <activation_function>SIGMOID_SYM</activation_function>
  <f_param1>5.9999999999999998e-001</f_param1>
  <f_param2>1.</f_param2>
  <min_val>-9.4999999999999996e-001</min_val>
  <max_val>9.4999999999999996e-001</max_val>
  <min_val1>-9.7999999999999998e-001</min_val1>
  <max_val1>9.7999999999999998e-001</max_val1>
  <training_params>
    <train_method>BACKPROP</train_method>
    <dw_scale>1.0000000000000001e-001</dw_scale>
    <moment_scale>1.0000000000000001e-001</moment_scale>
    <term_criteria><epsilon>9.9999997473787516e-005</epsilon>
      <iterations>1000</iterations></term_criteria></training_params>
  <input_scale>
    2.8277109421772923e+002 -6.9781389716089592e-001
    2.8944751648210746e+002 -7.4077155760424318e-001
    3.8843528975534718e+002 -5.9566356454201819e-001
    2.9263445460324914e+002 -1.1858658032698819e+000
    3.8094433140684202e+002 -1.6987635725515864e+000
    1.9923705310469347e+002 -7.7238685730185985e-001
    1.9402868193659228e+002 -7.7284677012659631e-001
    2.4754351963458271e+002 -7.3255078871825074e-001
    2.8564985832765683e+002 -5.7320573653227735e-001
    3.3022223283885211e+002 -7.0028327021234649e-001
    1.9229289370589782e+002 -1.0077296288168645e+000
    1.9951291962334327e+002 -4.7616610634434720e-001
    1.3007707344992659e+002 -9.1737131702867625e-001
    1.8301187047698275e+002 -8.1923503650950069e-001
    2.0829478480881107e+002 -5.8654246169940882e-001
    3.6939373112033763e+001 -6.2951030697400900e-001
    2.4569957110527452e+002 -1.1465566506856140e+000
    2.2764011072127744e+002 -7.8440102385836141e-001
    1.7031429072175027e+002 -1.9354430905885887e+000
    2.4648900886070794e+002 -7.2556534754145430e-001
    2.3405921352726091e+002 -8.7403344425766216e-001
    2.4831702919968919e+002 -1.2001239771020744e+000
    4.5745463612192430e+002 -2.1958391472793570e+000
    3.0127745481309807e+002 -6.7807320370629331e-001
    2.4301016597755893e+002 -6.5658382409132654e-001
    2.6000655881200299e+002 -6.1689348916369213e-001
    2.3989278126821208e+002 -8.9241882621783364e-001
    5.2893103390670046e+002 -5.0616398484930247e-001
    2.2623551293906601e+002 -9.2435413132599709e-001
    4.1646834167071222e+002 -3.7088683287321433e-001
    2.5814138579889760e+002 -1.0253513798035954e+000
    3.6396298865626369e+002 -6.4372630190585900e-001
    1.8729333879005415e+002 -7.2045277044327372e-001
    2.6169324211014197e+002 -6.7814059333149579e-001
    2.8368135218031063e+002 -6.4775966377777350e-001
    1.4847259802882039e+002 -8.5913378706346888e-001
    2.6089890594488423e+002 -5.7955573346254508e-001
    3.2142478750722444e+002 -1.2506380857114627e+000
    2.2160016233982381e+002 -8.5250870377425070e-001
    2.5709595155936404e+002 -6.8720822914655855e-001
    1.5636992911251170e+002 -5.7294231756196190e-001
    6.6091855612524313e+001 -7.9164408791730101e-001
    3.4086226473088612e+002 -1.5455925821919021e+000
    1.9421575336120964e+002 -9.2865533243530796e-001
    3.8335269177038981e+002 -7.1407711345704550e-001
    3.2198455882093742e+002 -7.6012005457376308e-001
    2.4225109819916906e+002 -7.7840058269711465e-001
    1.2645854530544054e+002 -5.1179532048093990e-001
    2.6557045703240078e+002 -4.9023582128744075e-001
    2.4660426407441918e+002 -6.2192699145506281e-001
    1.0760420045462412e+002 -5.8992711583925583e-001
    3.7109218787611070e+002 -7.4665494626350970e-001
    2.7407064989157885e+002 -1.0828104753384578e+000
    3.7636008060924075e+002 -1.4442253062565307e+000
    2.6887558303336493e+002 -7.0936307175487601e-001
    2.7147750774535422e+002 -6.5392868733846254e-001
    8.7756533945031393e+001 -4.3921474150975476e-001
    2.1522153259744661e+002 -1.2307214875711303e+000
    2.2268661958016088e+002 -7.5618661532327158e-001
    2.9616419769423607e+002 -7.8223136282724748e-001
    1.3317982005308895e+002 -7.2572914631052787e-001
    7.7744306319724870e+001 -1.3729705380118804e+000
    3.3204266687147174e+002 -9.7005353655888915e-001
    2.1118394212718175e+002 -1.4553329508054456e+000
    2.3468803906501702e+002 -5.0793480200078123e-001
    3.1090279266129068e+002 -1.0802626499840415e+000
    3.6577998442176795e+002 -6.1070579210223952e-001
    3.4759040260113915e+002 -9.0198471252355472e-001
    2.0160793663718468e+002 -7.8620504985146289e-001
    2.9717402107854275e+002 -5.5544238451281591e-001
    2.9713254520616744e+002 -6.7997221483344839e-001
    2.6227380800543665e+002 -8.1269509749218505e-001
    3.0734433385559362e+002 -7.6717213184035149e-001
    2.2225097303903962e+002 -7.7845262876570132e-001
    2.2287916285028396e+002 -5.4823470871426527e-001
    3.9571378374975916e+002 -5.4079462443020521e-001
    3.4370385723513715e+002 -6.3925946747650908e-001
    3.4356787145241645e+002 -1.4782871192898839e+000
    4.2395620795174682e+002 -5.3401379316723452e-001
    3.1302048429584579e+002 -6.0471334192392556e-001
    2.0898507416961982e+002 -1.1782221832266553e+000
    1.7263143358879788e+002 -4.0999575222824702e-001
    3.7935881447866637e+002 -6.8173456979461611e-001
    2.3954893922163691e+002 -7.8021727657279527e-001
    3.1909043798453092e+002 -1.7252226406025173e+000
    2.6666729720826788e+002 -9.0906332858576977e-001
    3.2852399165418262e+002 -1.3922300302871313e+000
    1.7583390590575203e+002 -1.1049648060553934e+000
    2.5929830825186110e+002 -9.4777165118782636e-001
    2.5108697940693924e+002 -7.7523912976815412e-001
    1.7975308289349690e+002 -9.5325206048360711e-001
    3.5035331662454826e+002 -6.5999273173186801e-001
    1.3873116770565872e+002 -4.9727994698932504e-001
    2.5748769446781631e+002 -5.4119574514426805e-001
    3.5300971426087619e+002 -6.9442778489834822e-001
    2.6552176875584752e+002 -6.4213554186073818e-001
    3.3491539416270734e+002 -1.0055923751194131e+000
    2.7141643103357802e+002 -7.0974709686033910e-001
    1.4009687189074467e+002 -5.5727293683262302e-001
    2.0205628840590958e+002 -1.1748487098031182e+000
    2.4935053618639151e+002 -7.5857214911007020e-001
    2.2279650119373224e+002 -7.8786651412385889e-001
    2.9670289092385212e+002 -4.7647590199086454e-001
    1.6866053607060735e+002 -8.7919486381314849e-001
    2.1740167452591004e+002 -9.7450831463563059e-001
    4.2973465665073695e+002 -6.4656129203345036e-001
    2.0468462151379015e+002 -6.5204076453816506e-001
    1.7680960989985795e+002 -8.6208472178162843e-001
    3.4965196458107806e+002 -7.4095124779618993e-001
    2.7022486185290347e+002 -7.8515404103559039e-001
    2.8888544522260548e+002 -8.4575633930609417e-001
    2.8419407132678572e+002 -7.1143469282721561e-001
    2.1012964992686642e+002 -9.1475626746344585e-001
    2.1154923128990259e+002 -1.0638351005439499e+000
    3.9093156428595603e+002 -5.9373059752206825e-001
    1.6513522387525811e+002 -5.1870235469358805e-001
    1.4971928471196529e+002 -4.9687358601621595e-001
    2.0584022607415162e+002 -5.8321203334059757e-001
    1.3263608588870122e+002 -7.3455342601484541e-001
    2.9942755397529817e+002 -7.0674019985787195e-001
    2.9881033025467036e+002 -7.4840971458987748e-001
    3.4991398657409684e+002 -9.0195652340116117e-001
    1.0477160034692018e+002 -5.9622351049625033e-001
    2.2421262428330965e+002 -1.0800229953373028e+000
    4.5840462838889971e+002 -5.1099869719610846e-001
    2.3887582277787274e+002 -8.1120840362461344e-001
    2.3499565592372377e+002 -6.9171443901597840e-001
    3.7381338545479684e+002 -5.9400953763055286e-001
    3.0429627854164187e+002 -6.4339162973129338e-001
    3.0890295793451924e+002 -6.4219868970349980e-001
    8.8268667652513443e+001 -8.4413661307312948e-001
    2.4425425719554707e+002 -6.0148983996987293e-001
    2.0923865817812805e+002 -8.1041784172308717e-001
    2.0237648172294027e+002 -7.0588188774000149e-001
    2.3241895693218291e+002 -4.8588466037399858e-001
    2.6217749475672696e+002 -6.4232783528376247e-001
    2.8870549573516126e+002 -7.4354351997236356e-001
    2.3883362611702742e+002 -8.6389897382705017e-001
    1.4326054752082953e+002 -4.1958851929814017e-001
    2.8114948313043266e+002 -1.5555447220275758e+000
    2.4020196118137909e+002 -8.6989189946605527e-001
    4.3832295924677857e+002 -2.1515416126142428e+000
    3.3578937425396600e+002 -7.0653772953283300e-001
    1.1325626819819594e+002 -8.7117833578039583e-001
    1.3521437433882741e+002 -7.8210157532357083e-001
    2.0032343602930558e+002 -8.0816165878777468e-001
    1.5753995988453119e+002 -1.1793516470965033e+000
    1.7025070075742221e+002 -1.1857910461414793e+000
    2.0941801100193589e+002 -7.5806961408313245e-001
    2.3358915091703068e+002 -7.7487612784276139e-001
    2.7159540445016421e+002 -6.4416357106023237e-001
    1.8699426007329927e+002 -5.0861366413137055e-001
    2.1846587932678150e+002 -6.0308515005006547e-001
    2.4664338550099362e+002 -8.2571455604316712e-001
    3.1908545757023086e+002 -5.2402489592662016e-001
    3.0730774323392421e+002 -6.6009737446850980e-001
    4.6510584032800375e+002 -4.6765758694949400e-001
    6.2717962366652728e+002 -4.7448306328525169e-001
    2.7946063682919709e+002 -8.7911164930864982e-001
    1.9352166170534912e+002 -5.8078128391927308e-001
    2.3294837248319485e+002 -9.9001629058130947e-001
    3.1245995246523751e+002 -8.7568215763465940e-001
    4.8510119362071282e+002 -4.1808150425567753e-001
    2.0801507382476277e+002 -3.9956158063683883e-001
    1.1596773142522878e+002 -1.0059452552514616e+000
    3.3681141702723988e+002 -7.0472394498168844e-001
    2.4716222433268430e+002 -7.7947899222401618e-001
    3.7030276445718494e+002 -4.1809639339678489e-001
    1.6335415631196852e+002 -1.5604619139558862e+000
    3.2144832690290508e+002 -6.6498373882713557e-001
    3.0226422090802095e+002 -9.3039948450221166e-001
    2.0137758556087076e+002 -1.1590053229903272e+000
    2.4799300017768729e+002 -8.4375108520196174e-001
    1.8666468641493478e+002 -1.0246579722599878e+000
    1.2957012952111904e+002 -8.7041595445468289e-001
    5.0076842091489220e+002 -4.7913919336021193e-001
    2.9124657811279911e+002 -6.0990571698021645e-001
    3.4128555754531692e+002 -4.8088274406485088e-001
    2.8466020338210075e+002 -4.5225494797050836e-001
    2.0470004894943727e+002 -7.9676851068993315e-001
    2.3798136503472179e+002 -7.3160212964803606e-001
    2.7341617575348147e+002 -6.9855002322947768e-001
    4.2700627666336550e+002 -4.9715074980584234e-001
    4.9765508712785982e+002 -5.3466425275027130e-001
    2.4474730704407901e+002 -9.3784627236536899e-001
    3.2164215572459130e+002 -1.1754453910553004e+000
    3.4980632528330921e+002 -6.8478938984224702e-001
    2.1922549621043072e+002 -7.4640680297211248e-001
    3.3941005709665080e+002 -1.2126988700230870e+000
    3.5580432364058464e+002 -1.6525716033704156e+000
    3.1599301093002339e+002 -6.1665535077761124e-001
    2.4357033326713108e+002 -7.1223626467705525e-001
    2.6401123290624952e+002 -4.2759313625390405e-001
    3.3869430035544684e+002 -9.9260768685192768e-001
    2.8982948137877327e+002 -8.2999810700728360e-001
    3.5498224917931782e+002 -8.0783817765596699e-001
    3.1859142307060461e+002 -6.9900347023159415e-001
    2.9548136778651224e+002 -7.1552500626682891e-001
    3.2970967623427020e+002 -1.4194359867593236e+000
    1.5030764217400852e+002 -7.3426144379917424e-001
    2.5121435807260264e+002 -1.1945412939766407e+000
    3.4280325340983899e+002 -5.7103339600572633e-001
    2.3069589695007167e+002 -6.5469880083334486e-001
    3.0138014483812486e+002 -6.2546270081582089e-001
    2.9305094137412368e+002 -7.4919711612344697e-001
    9.8062967083662357e+001 -6.7495366780811084e-001
    3.1342213966141048e+002 -6.3832583092437911e-001
    4.1825866541393157e+002 -4.6573310494813230e-001
    3.4580719380025988e+002 -6.3779716804320807e-001
    3.0411178657592876e+002 -6.2335182390659816e-001
    2.4472685946627033e+002 -8.0084307561743928e-001
    2.3346643746593381e+002 -1.0768994120711337e+000
    2.4138618583920618e+002 -4.8216112116847187e-001
    2.7928881534539562e+002 -7.7327135334435471e-001
    3.7533606831094954e+002 -7.1703338156570517e-001
    2.2513361934473483e+002 -8.3309068475158921e-001
    1.9940346703291334e+002 -5.3345137412034405e-001
    1.9243823610531584e+002 -7.0661879796369920e-001
    2.0652807045510062e+002 -8.6370356415326621e-001
    2.8416138445279432e+002 -8.0342385467690791e-001
    2.4212736244199374e+002 -7.0371198706836169e-001
    1.8274244628611748e+002 -7.8459547812955621e-001
    2.7393122411709487e+002 -7.5584190992961819e-001
    1.9685851806637578e+002 -4.6553048878918724e-001
    3.7374892876215756e+002 -8.8236412822768751e-001
    3.6065963362517141e+002 -1.3140331065146005e+000
    1.9519215641843726e+002 -1.0553336884058997e+000
    1.2247744093240135e+002 -5.6816937504786080e-001
    2.4295456603254030e+002 -6.5597156064018980e-001
    2.7841133867949935e+002 -4.9090615498847129e-001
    1.6535481137050809e+002 -8.1649208189894174e-001
    2.3366064265074834e+002 -9.4421155758934627e-001
    3.9000829456727308e+002 -7.8935702819909714e-001
    2.5920087906404729e+002 -5.2577696218778891e-001
    3.3707483900659309e+002 -9.6243299684003014e-001
    3.0043792175383675e+002 -6.6666159742226083e-001
    1.2396581627484757e+002 -1.0036800502688736e+000
    2.2708699852893423e+002 -7.9407786691499738e-001
    2.4727823818174025e+002 -5.9758990081331698e-001
    2.7643956254600420e+002 -6.7345090474676994e-001
    2.9974616627916129e+002 -8.1095381461933258e-001
    3.2380725665288725e+002 -5.9859401064380879e-001
    2.6057133590657850e+002 -6.2762491622241301e-001
    2.8383317353910024e+002 -7.2290439646690319e-001
    2.7419790537744524e+002 -3.9277279185688652e-001
    2.5722064406273768e+002 -6.9810773067057930e-001
    1.1149348217064562e+003 -2.7124418886108931e-001
    2.7161021737766879e+002 -6.9592805038550198e-001
    1.9438726231914870e+002 -6.1229313329934154e-001
    2.5858703619117995e+002 -5.8854824991574550e-001
    3.4895498882768851e+002 -5.4616136226272527e-001
    3.0349751206158055e+002 -6.7900648941430441e-001
    2.5513700127115413e+002 -7.6558074211946026e-001
    3.7311214934098575e+002 -5.2050463480342768e-001
    3.8689829261335456e+002 -7.4902200351008597e-001
    3.0925716805390522e+002 -8.2683155874339842e-001
    4.3570140295706710e+002 -6.1230571544044166e-001
    3.3993518447487355e+002 -6.7785631531517188e-001
    2.7919599175901823e+002 -6.3412067357322877e-001
    5.9228827619182141e+002 -4.4844313387073692e-001
    1.9724339282406635e+002 -9.9982613089500705e-001
    3.4176445549770642e+002 -1.4044308214426529e+000
    2.8036897965117925e+002 -5.2637264775999726e-001
    2.7325686979090892e+002 -6.7700189274113254e-001
    1.0170059233223699e+002 -7.2957733435362238e-001
    2.0991665334681829e+002 -4.9235198777096723e-001
    2.1540932511385012e+002 -8.3506409498643674e-001
    1.8638943894664951e+002 -8.0491573175688214e-001
    2.8177639097831621e+002 -6.9524961012118558e-001
    3.7170283355391996e+002 -5.8125879700353811e-001
    4.1418636146848246e+002 -5.9943070077233807e-001
    2.6713179199068963e+002 -5.2061472195454916e-001
    3.9092121504438040e+002 -5.7001968044978357e-001
    4.5218524407488064e+002 -4.4665576243463800e-001
    3.9982414912660352e+002 -1.9046786130651241e+000
    3.5625963666242211e+002 -9.2556035948857718e-001
    2.9973527970939870e+002 -7.1213913688888908e-001
    1.0561352058851493e+002 -1.1986278212507067e+000
    3.1942533553911903e+002 -5.6913739982659817e-001
    2.1519907722932430e+002 -6.1843156950716094e-001
    3.2281242267287564e+002 -7.7486825061735787e-001
    3.3570438020219649e+002 -1.4170761956269133e+000
    2.6534330560789726e+002 -5.4227008049188263e-001
    3.2406405355024629e+002 -6.8755242423100094e-001
    2.7130809903687941e+002 -5.6979794322771693e-001
    2.2003817358225947e+002 -6.5990695538966759e-001
    1.8462083881638580e+002 -1.0758388028384969e+000
    3.6879600544253918e+002 -6.1810589202038591e-001
    3.6005808571921273e+002 -9.6360364104571072e-001
    1.8130292614467396e+002 -8.1259285944012871e-001
    3.0889048712558235e+002 -8.8991345111246711e-001
    3.5997079293824169e+002 -6.8045520636858814e-001
    3.4889375761738410e+002 -6.0470862951774207e-001
    2.2293555933362308e+002 -4.8297689984271375e-001
    3.5302927135307095e+002 -5.6439893289275045e-001
    3.4194514831557308e+002 -6.4014969839894964e-001
    2.9166626719705721e+002 -7.6070363085195392e-001
    2.6344373757311615e+002 -8.5477432789919361e-001
    3.3662894088463025e+002 -8.1808286814259801e-001
    3.0456833970105401e+002 -8.0173081447871308e-001</input_scale>
  <output_scale>
    5.2631578947368418e-001 4.9999999999999994e-001
    5.2631578947368418e-001 4.9999999999999994e-001
    5.2631578947368418e-001 4.9999999999999994e-001
    5.2631578947368418e-001 4.9999999999999994e-001
    5.2631578947368418e-001 4.9999999999999994e-001
    5.2631578947368418e-001 4.9999999999999994e-001</output_scale>
  <inv_output_scale>
    1.8999999999999999e+000 -9.4999999999999996e-001
    1.8999999999999999e+000 -9.4999999999999996e-001
    1.8999999999999999e+000 -9.4999999999999996e-001
    1.8999999999999999e+000 -9.4999999999999996e-001
    1.8999999999999999e+000 -9.4999999999999996e-001
    1.8999999999999999e+000 -9.4999999999999996e-001</inv_output_scale>
  <weights>
    <_>
      -3.9743375725811114e-001 5.4581746828155989e-002
      4.9522455152995158e-003 5.0075873863861829e-002
      -7.2004349736198528e-002 1.0347208003407599e-001
      -9.7035607804582868e-002 -9.8425924076619264e-002
      -3.8774543290817289e-002 -5.3153307648476887e-002
      8.3745339257530263e-002 1.0283873972666575e-002
      -4.2193843187114402e-002 -1.3025942729866904e-001
      -5.6319838406374272e-004 -3.9267160011588031e-002
      -1.0808357021070024e-001 8.6687001369638403e-002
      1.0963287429732656e-002 1.2830187517061259e-001
      -1.1179622485469574e-001 -6.3688369180391696e-002
      2.2140694766798866e-002 8.3673653658725991e-002
      8.7610671087100037e-003 7.2502297699961554e-002
      -1.3962826217822646e-002 -1.3781063322076834e-001
      -1.1755784614826016e-001 9.6988597389314132e-002
      -1.0377868862796626e-001 6.6057793451340163e-002
      -4.6842923962344511e-002 -7.9622682329967984e-002
      -6.1517960636725932e-002 6.2670677044551482e-003
      -1.0225468559105390e-001 5.6311344036656524e-002
      -2.0086950731419549e-002 -1.4837540023051068e-002
      -1.2700838830325084e-001 4.4202640913474193e-002
      1.3438702740197463e-002 6.0701764218266473e-002
      4.4797601670784809e-002 5.4547433155556546e-002
      -9.7376187320152907e-002 3.7572520038970464e-002
      2.0507217966870144e-002 2.0687201791372983e-002
      8.3904125222672862e-002 8.1162857066836482e-003
      7.6106720344413913e-003 -4.7932671551879462e-002
      2.3899141637964968e-002 1.2007089631408951e-001
      6.4477514744915466e-003 -1.3689337977244825e-001
      -1.5073442618497646e-001 2.5177560293874569e-002
      3.9969836842280809e-002 1.1351425883101238e-002
      5.6418573020653590e-002 -1.3649803422922392e-002
      -5.3765105460645120e-002 1.2250843011884784e-001
      9.0655166151333386e-002 -1.0536201494584939e-001
      -1.3128193716405839e-001 -2.8261085427523595e-002
      4.2290268141538169e-002 4.4670719110256780e-002
      -4.1875482331542258e-002 3.8350947137571374e-002
      6.5185163222712325e-002 7.4880842458542804e-002
      -5.1065609728615069e-002 -7.5010042449811340e-002
      3.4154193816797122e-002 -1.0735535115481025e-001
      -3.6120257129804746e-002 -5.8028347206633614e-002
      -1.2216033291009978e-002 1.3988256429358273e-001
      1.9462460613125414e-003 -5.9336040772790456e-002
      1.5068255508634434e-001 4.3155486600617105e-002
      7.6277027553264376e-002 -6.8535556254484473e-002
      -6.1805991592613421e-002 4.3007082238444391e-002
      -6.1340691392643684e-002 7.5695294681016267e-002
      9.6200699915097138e-002 1.0563586339719848e-001
      -3.3401648876403407e-002 -5.4905331693338288e-003
      -9.8573373058676195e-002 -1.1881159515753166e-001
      4.2159160752110111e-003 -3.1110205706872941e-002
      4.4353038108400022e-002 -4.9344750811870550e-002
      7.5877205799018632e-002 -1.0226272011667975e-002
      7.3279729831339192e-003 -3.7543699121399869e-002
      -4.7082304454193757e-002 4.0286977145220032e-002
      -7.4230313536038192e-002 1.0754206575547867e-001
      4.3202359517901766e-002 5.2697464288604848e-002
      3.4839091532800154e-002 9.7047744878414569e-002
      5.2396579560475005e-002 -8.3051770418457335e-002
      -2.2671774237082155e-002 -3.7900403424408799e-002
      -9.1169361947335478e-003 -5.1513419918354786e-002
      -1.0225769617604666e-001 3.3470273110719956e-002
      2.9631638225642472e-002 -1.2365861133827107e-001
      -7.0314633519321809e-002 1.3774359458850408e-001
      -1.5915509920690653e-002 2.4457564343748076e-002
      -6.7933501323939938e-002 -7.3111913531779468e-003
      5.1520327883533883e-002 6.1670194068585309e-002
      -1.9760279871296717e-002 -9.5489040984228890e-002
      2.9442016386046045e-003 -2.2656883447146389e-002
      6.1780649183318388e-002 -5.7811916987415363e-002
      -2.2204202805386170e-002 1.1799512216801910e-002
      3.6531689764698262e-002 -1.2848975635080495e-001
      1.8266056714419203e-005 -4.6221145622401247e-002
      -2.5120589168795195e-002 4.9708051047433970e-002
      3.6795944444002963e-002 -4.2146583671515761e-002
      -7.0496290563245662e-002 -2.3061846202323509e-002
      6.6191973318129255e-003 -1.2469674597998689e-001
      5.7117490316227044e-002 1.0346286862863234e-001
      -5.0578453993667657e-002 1.2669731757525135e-001
      4.1903318842079346e-002 -1.7873582870642630e-002
      -5.5987832042411434e-001 -5.7307128063222336e-002
      -1.6580952372425461e-001 6.4944931405186368e-002
      -7.3193164357967119e-002 1.7856874423042457e-002
      3.1935266326121564e-002 6.6434390722211481e-002
      1.9125738114822588e-001 -2.2420564499730170e-001
      -6.3580454532574673e-002 5.6652337340552902e-002
      -1.1625037286792790e-001 -1.0419020894851413e-001
      3.0952141199899700e-002 3.9848441925914656e-002
      -1.5028051906353915e-001 1.2821415185171822e-001
      -1.1923719184354925e-001 8.3284990450717966e-002
      -1.3612677810930507e-001 -3.2150075868067292e-002
      6.4767212823094236e-002 8.3162818045450088e-002
      1.5420736024680379e-001 3.4773980790460566e-003
      -4.3251500019527267e-002 -1.2929037226512302e-001
      -1.0543725269961017e-001 6.8959512058887146e-002
      -1.3687588459404718e-001 1.1711684102185800e-001
      1.5330730625354989e-002 -6.0981336455406231e-002
      -1.2107293714845534e-001 5.9704646681971389e-002
      -1.0640192749127694e-001 -1.3384654174119038e-002
      -1.6738399699834258e-002 -6.8363380696718504e-002
      -8.1034367299887167e-002 -1.5799979748343577e-002
      -1.6307027931840917e-001 1.5790446790290621e-002
      1.4582062880432262e-001 1.8826833603723074e-004
      -1.4771533268417333e-001 1.7096872758977377e-001
      1.2461341239215981e-001 6.9193081760199379e-002
      -7.6551339530044810e-002 1.9555892508332962e-001
      1.5287377381313411e-001 -2.1479708178450112e-002
      2.8761202300279908e-002 -7.5122596339046152e-002
      -9.2357565042942097e-002 -1.5108866638867829e-001
      -9.5039942685133313e-004 7.4836785961250610e-002
      -1.6926809159377673e-001 -1.4006893866137517e-002
      1.4973079040310627e-001 -2.2876866727261535e-002
      1.7779104673247942e-001 1.0630124624289777e-002
      1.4846977018644568e-002 -4.6426789462309083e-002
      7.2790311619075593e-002 -3.2059587221818425e-002
      -2.1789803858696347e-002 2.2789141177790729e-002
      -7.4876986672311130e-002 -1.3029873047042208e-002
      1.1249581069966477e-001 1.1027389101175465e-001
      -6.0976791879115262e-002 -2.6426681256334964e-002
      8.1150337272340001e-002 -6.0131378880007615e-002
      7.6986187757820984e-002 1.0290920350167830e-001
      -3.0963125121733052e-002 1.0699974003410870e-002
      1.3700915041479718e-003 1.6104962315089096e-003
      1.0710548987737187e-001 -3.6112081929774040e-002
      1.0766606790290212e-001 -6.0584089192967337e-002
      1.6561742876924693e-002 -4.9336352851747353e-002
      7.7424764709252844e-002 -6.6176847421989413e-002
      5.3403313128472171e-002 5.6348451626862195e-002
      9.3979734203110940e-002 1.5857299341277595e-001
      3.2247035938144257e-002 1.3797194834247795e-001
      7.8666623492530008e-002 -1.0122907038497724e-004
      4.2367138234247745e-002 1.1041965902190322e-002
      2.0669502280538789e-002 7.8275909267551347e-002
      2.2974801882130712e-003 2.6138145878470517e-002
      -3.4565579707456849e-002 7.9941029293783092e-002
      8.8969385496690798e-002 -3.0917398768359874e-002
      -2.9380305778033060e-003 -5.8177673384974718e-002
      -3.6916951450569821e-002 -7.2350732332898599e-002
      -5.0685167859912519e-002 -9.4869996768692493e-003
      5.3250574756864885e-002 4.6809872467957252e-002
      -7.6920556515952712e-002 -6.7367241038528312e-003
      -8.4117772943473890e-002 1.9593651619851819e-002
      -7.5674512778833927e-002 -5.0655864845970859e-003
      -3.0809127871947325e-002 4.7663362632568568e-002
      1.9993670167167167e-002 1.0656040791185534e-002
      2.0333990512142433e-003 4.4770735532153924e-002
      2.7648886861170431e-002 -7.2669941672892480e-002
      7.6212819566543414e-003 1.1408425482727676e-001
      3.3038175179724655e-002 6.1750779621601970e-002
      -1.1561945654603252e-001 1.2490325206395798e-001
      1.2038027954560085e-002 2.9412709514018004e-002
      1.8465981582771135e-001 4.1056350612593516e-002
      3.4469312298811276e-002 -5.5942861065412089e-002
      6.8564604990453831e-002 -1.2613684771097583e-001
      -4.6777999768151321e-002 -1.1394592271490780e-001
      8.3444128637140638e-002 1.1159813802675880e-001
      -4.3530288599726435e-002 -2.9981486507420472e-002
      -1.2437350528362325e-001 6.0660482862863171e-002
      8.0878882750941364e-002 2.5062266061489830e-002
      4.0195103124815598e-002 -1.6289782313505696e-002
      -1.6391123467024411e-003 3.7138175869444311e-002
      -1.8044679193638374e-002 2.2435517032725075e-002
      1.5546036727176867e-002 -1.8098571142406542e-002
      4.3795231901972966e-002 -3.2102118702838030e-002
      9.2972484912377321e-002 -3.0866900447964040e-002
      4.1902498609084054e-003 1.0317151932776823e-001
      3.3264795481897404e-002 -2.4569973590736045e-002
      4.1752461648261040e-002 6.9120156865505114e-002
      -8.0910080870803369e-002 1.6938888085086862e-001
      -1.2699970112490919e-003 6.0647706078683118e-002
      4.4383051371680936e-002 -1.6855530383429695e-002
      5.2782283306020805e-002 2.0342972776648512e-003
      -1.8340582755571998e-002 1.0170349288710118e-001
      -5.7093924802210629e-002 1.9115433535151039e-002
      8.8381782393029303e-003 8.8739758425748883e-002
      -9.1555175630900779e-002 1.7070692354937264e-001
      1.5415551478853425e-002 -4.2340980149860111e-002
      -8.2975553761326981e-002 -3.4064638260138760e-003
      1.7609923662387469e-003 -5.4090430109457216e-002
      5.3638118608825558e-002 3.7985684107344535e-002
      -1.1114565964743842e-001 -9.7871860817807230e-002
      -1.1716266752758851e-001 5.4239218507182704e-002
      2.2739148296788754e-002 -2.2441011888443999e-002
      -1.2003089478398911e-001 1.0519836339605276e-001
      -4.0504815352722864e-002 3.5368680194917665e-002
      4.2695720897557521e-002 3.9544095705253975e-002
      7.1241724189792825e-003 1.2777609403504454e-002
      6.6255324011920483e-003 1.0008560725369882e-001
      3.4117201437135695e-002 4.6297677352240565e-002
      -4.1197847476489212e-002 -1.2071117122074803e-002
      -6.9098475787097213e-002 4.7971922611935815e-002
      1.4528984970024963e-001 -1.1356471624624376e-001
      -2.7512950114034592e-002 -6.1034745920591223e-002
      1.3435950513644418e-001 -1.0904190643217568e-001
      -2.3672206565052447e-002 -1.5568336605709159e-002
      -3.4648840667643936e-003 2.8008044501009566e-002
      7.2162896830514536e-002 -3.4484993549262911e-002
      3.7869118617188398e-002 5.0715362397008801e-002
      -2.5094392302936253e-002 7.2181606075282942e-002
      2.6993332821804800e-002 1.2449997738715558e-002
      1.4076678910021340e-001 3.1218231962735737e-002
      1.0102496830800774e-002 4.5884531369072293e-002
      2.9993716960407875e-002 -1.8188759444207891e-002
      -7.6502081645936082e-002 -9.4342846205896433e-002
      -1.1299838711699642e-001 2.9581192134728117e-002
      7.1074596802210649e-002 -6.0789883845473597e-002
      7.2119130516070577e-004 -8.5128088983753986e-003
      2.2234187516531178e-002 -5.8126929941323775e-003
      2.3228502613819969e-002 -4.0693346534195429e-002
      5.7075083894288059e-002 7.9296575938646047e-003
      -6.6767470542181658e-003 -4.9434497473060238e-002
      -1.5388521404735327e-002 -8.8871682821797561e-003
      -2.4797266893873997e-002 1.4008570493236002e-002
      3.6593766540528712e-002 2.0016649650779861e-002
      1.3662358248368133e-002 5.1078291084062151e-002
      1.5892817295550390e-002 3.1507383934795845e-002
      -1.9012369124420198e-002 7.1893015785856598e-003
      -1.1814456310673611e-002 -2.7295830187513522e-002
      2.6110032331490892e-002 -5.5744131473552783e-002
      -8.2353749983286543e-003 1.7634836444150124e-002
      6.1131821159259324e-002 -5.2547329162352753e-002
      -4.7503045142275643e-002 -1.7395809399007060e-004
      -9.7824662077736074e-003 2.0830565260854823e-002
      -1.6488728846200985e-002 1.0861145420394597e-002
      2.0927530497885084e-002 -1.8870348870639153e-002
      4.7079795500020907e-002 -3.5463336402133734e-002
      -6.4964211207118927e-002 -6.6456934070063707e-003
      -3.0559714028875241e-002 1.7144799389407762e-002
      6.8250752182201932e-002 -1.2152784246732721e-002
      1.9626855664976260e-002 -2.6398611178095353e-002
      8.8189050706700314e-002 2.5523915830289286e-002
      1.4289543824651344e-002 -1.5986231997361541e-002
      2.2063023625060515e-002 8.1741512870840295e-003
      6.8182293434388738e-002 7.5233660677212983e-003
      -3.8915545398316216e-002 -4.7885233770138695e-002
      -2.5241535358072904e-002 3.0019460662100332e-003
      -3.6945485300672883e-002 5.1876041929397303e-003
      -1.3195952660535196e-002 2.6675864824227690e-002
      -7.9334659377026245e-003 -4.6030940787535710e-002
      -1.7350383189172286e-002 -2.4993138171620324e-002
      5.8088024304214114e-001 -4.7136092131348790e-002
      5.3949320288601305e-002 -4.3241133028909397e-002
      5.9112299733531923e-002 -3.5728129775239856e-002
      1.7890887556877627e-001 -1.0699607294988086e-002
      1.2364999055640622e-002 4.7685034413480272e-002
      -4.5729939525533579e-002 1.1242072873450569e-001
      9.8768799251940931e-003 2.0594665642326812e-001
      7.2060422804248195e-002 1.6457959970700389e-001
      -2.8924693182283322e-002 9.3340870531003164e-002
      -1.0340927910730435e-002 -1.3065673322800461e-001
      1.6121156921875778e-002 -3.1850107008210844e-002
      8.5629497337990898e-002 -1.7651006197935998e-001
      -6.9892337551606580e-003 5.3627238939220209e-002
      -4.7380461068244936e-002 4.5032816112123765e-002
      8.7749806622365881e-002 2.4339069360348013e-002
      -9.8995264692398374e-002 1.9554558784169174e-001
      5.7290963489849779e-002 9.6741185545927727e-002
      -2.8171962895481458e-002 7.6568085556404111e-002
      7.2478947041720546e-002 -1.6286095020594990e-001
      4.6556749617175791e-002 8.5261422484177521e-002
      -5.5438848911565815e-002 -1.1704020761387104e-001
      -1.2685044625113134e-001 1.1780319662101152e-001
      1.3984044687688378e-002 -1.2969895168911369e-001
      -6.1071752261242888e-002 -8.5236195364836440e-002
      -1.4516851819978682e-001 3.5629523958163753e-002
      3.0879055025348517e-002 -1.0167992810764491e-001
      -6.4527839366214743e-002 1.5138215586297685e-001
      -3.5230805862925249e-002 3.6348259021557403e-002
      1.0806667972078182e-001 6.6711987666070130e-002
      6.6520472346565732e-002 -1.6712917106743400e-001
      -1.2751378476036674e-002 1.0698440552410615e-001
      1.4581091972109589e-001 -2.3914182898661418e-001
      -9.2852326346290426e-002 -9.2354467820077918e-002
      2.7482761079930949e-002 -7.0621816648983829e-002
      4.4843755254302169e-002 8.2826493955517784e-003
      -1.2139015764236154e-001 -4.9330144145446835e-002
      1.3191625901773371e-001 -1.0566536816570109e-001
      1.0180543638046098e-001 -1.0571522494384379e-002
      -1.2099044915952113e-001 1.1043614435075987e-001
      9.0643972612858316e-003 -4.2112467439668233e-002
      -6.2740833834025533e-001 2.3358210153167963e-001
      1.1093352118602759e-002 6.3671624731783130e-002
      1.7236736043082804e-002 5.4352177005679202e-002
      -2.3430577376934153e-001 -1.8983002413202493e-001
      -1.7884753824155308e-001 7.7566584941907407e-002
      2.3492716591923049e-001 -1.6681326245572942e-001
      1.8318844255226766e-001 -2.3263783289864975e-001
      -1.1389529440582032e-001 -2.3218828542403311e-001
      8.9822676508473059e-002 -9.2672139487082764e-002
      2.2983611048361111e-001 2.4928540818808931e-001
      4.5256957073986019e-002 5.0729794962350007e-002
      -1.3829921799268288e-001 1.8134400669773809e-001
      -1.4456119166738102e-001 2.2785041395246225e-001
      4.4398207499944428e-002 -7.6562951664997186e-002
      -1.6917162242928857e-001 4.1283047193479604e-002
      1.9782251162632880e-001 -1.6047036409292467e-001
      -1.7433386770820844e-001 -1.7399955271781656e-001
      -4.0818595923670174e-002 -2.4711937385101329e-001
      -1.4496740637087616e-001 2.0861111885646241e-001
      8.7522926370391024e-002 2.4754072469172557e-002
      9.8104128075267860e-002 2.3160544417404366e-002
      1.8121154920103255e-001 -1.9535427871164865e-001
      -2.1282358056243542e-001 2.3805323699360464e-001
      5.2819940369951954e-002 1.0716075527431307e-001
      5.9314157664477930e-002 -8.7724938334737282e-002
      -9.4007326853305664e-002 -7.3735767524818543e-002
      -1.2529368376753355e-001 -2.7327405904606805e-001
      -1.4978535651515384e-003 1.8967012557383428e-001
      -9.7130475321961382e-002 -2.2252977330753439e-002
      -1.6990097361125106e-001 2.0091790460304890e-001
      8.4536072382742369e-002 -5.2480269142166150e-002
      -6.2161045205262840e-002 1.8656213711112907e-001
      -3.2991338877974334e-002 1.9046159144969363e-001
      1.9192148306039039e-001 -2.6170735553669243e-002
      -1.0653287750704855e-001 -6.3204815772988601e-002
      2.3815171038113334e-001 1.5970107264128422e-001
      -1.0430311285695155e-001 1.6093917395652951e-001
      -2.6020978298616021e-001 -1.0495024727768565e-002
      1.5468530129675861e-001 -2.7110835521713988e-001
      -1.0525093237500217e-001 5.2829209338042249e-002
      -7.6087794874977101e-003 -8.0984373218114400e-002
      -1.3885512811539326e-003 2.2376840521664266e-002
      5.0610838150593361e-003 -6.0364178909288940e-002
      -3.3396800048131392e-002 3.6649161508942769e-002
      -5.4438050885910319e-002 5.4767945185532109e-003
      2.1077857176164025e-003 1.0026663461889348e-002
      -8.4644377684399363e-002 7.9645838602985977e-002
      -2.0299387213101677e-002 6.7403624677384059e-003
      -1.6301149924724950e-002 -9.0729439328615630e-002
      -6.4168696365681260e-002 -8.3516158184826841e-002
      -2.7577737092179498e-002 -1.1977735772559903e-002
      -2.3995030585539954e-002 -3.7908848069592285e-002
      -3.3791271416428329e-003 -1.4100682233672768e-001
      -3.9795487394884048e-003 2.5033339333894140e-002
      1.4118350488516772e-002 -2.8042835843277315e-002
      -6.0689217741493252e-002 -2.2800863754532486e-002
      1.9812769599555212e-002 5.1709965436250178e-002
      2.5009200910135736e-002 5.2280831119057666e-002
      3.4950245753033085e-002 -3.4561050946772497e-002
      -2.1682913530424244e-002 -4.3134618212677091e-002
      1.2917520391434240e-001 5.5296262483889240e-002
      4.5369213904372492e-002 -3.2184833395981431e-002
      9.9883201575123592e-002 3.8527485362757777e-003
      4.2229336897538772e-002 -2.2217592016212609e-002
      3.0318651112419638e-002 -4.2904073546048581e-003
      -5.2780977074051015e-002 -2.1095600699290423e-002
      -8.5637816205035994e-003 4.5604378666031876e-002
      -2.9090638140098443e-003 -1.0862915441816372e-001
      -5.8495981641772048e-002 -3.8013188073696177e-002
      6.6442348079917335e-002 -6.7622135750626561e-002
      -7.0214858283523217e-003 -2.3336800079235102e-002
      -1.2437051971320499e-001 -1.6599485895451800e-002
      4.6628466679505730e-002 -2.0826248508036622e-002
      -3.8988964403598454e-002 1.2181906980676546e-001
      3.9138617285244551e-002 2.9693643106043163e-002
      -4.0462198636457940e-002 -5.8962871070551849e-002
      3.3343078685847731e-002 1.7547674727255901e-002
      8.2662745401941407e-002 -8.7094774576433782e-004
      -3.4622050233782717e-002 -2.4352822024357870e-002
      -2.1069185871896011e-002 2.7552039206854936e-002
      1.6252443618669657e-001 -2.4329739103483052e-002
      -1.0937842399140794e-001 -2.7016381086074582e-003
      -2.3319286299702452e-002 -6.6440477383221536e-002
      6.1278047803664693e-002 9.7599967587397446e-002
      4.6045768404204573e-002 -6.3647091948401541e-002
      -5.1318658971855627e-002 -7.2900725862733051e-002
      -5.3842683908860073e-002 4.4029126493822781e-003
      5.1784895988227853e-003 -2.3439447809671537e-002
      6.7613270085805283e-002 -5.6956775581931816e-002
      -2.9257339342076517e-002 -5.4446290044699024e-002
      -7.9219421376204981e-004 -4.9180361425629433e-002
      -1.7478168370365716e-002 2.1674458351999284e-002
      3.4315061719151059e-002 -4.7213825569985393e-002
      4.1846444874489699e-002 4.8970044909364852e-002
      -1.1351716439831606e-002 -1.1093898517901497e-001
      9.2838575988836353e-002 -1.3063487625145218e-001
      6.3947386179765239e-002 4.3760970563904648e-002
      5.2998471378544930e-002 6.3758950063154574e-002
      7.0574076780999834e-002 5.7745358669249361e-002
      2.9275464870868898e-004 -4.5300632864740863e-002
      3.1155968839933809e-002 2.8422132255410317e-002
      2.9328425726813582e-004 -6.5512387021599588e-002
      1.8048127102050362e-002 -5.9068446081396178e-002
      4.2847282365601237e-002 5.1458092216380685e-003
      1.1757909203359361e-001 1.1505184083235235e-003
      -1.0759924560905319e-001 7.7817509013172553e-002
      4.6378273937989517e-002 -6.5213101331753915e-003
      7.9971250902056337e-003 -1.1405416590780160e-001
      -9.0066683565771605e-002 6.0228026297598707e-002
      6.9567240813386069e-002 9.7057314918653978e-002
      -5.5028261968165959e-002 -8.9439548035017788e-002
      -5.8807230626531252e-002 1.3091603275640648e-001
      1.2204752766201488e-001 -5.1419782159828058e-002
      -7.2740990042102285e-002 1.0756806347587577e-001
      7.5469749192805621e-002 7.3933186417185909e-002
      1.6199228272513293e-002 1.5996843504419624e-002
      -1.2451651188233960e-001 -2.1393576500407869e-002
      -8.1476287438720013e-002 -1.4045729360947124e-002
      1.1915488305854133e-001 -1.1275047828953034e-003
      9.3881991894400763e-003 8.2674887172578551e-002
      1.8733414015359795e-001 5.4531037196402427e-002
      -3.8968517104020675e-002 6.0081738651804363e-003
      -3.4108779055494046e-002 7.1495397055014887e-003
      3.8849058971705701e-002 -5.5402043152531118e-003
      8.6438094106556992e-003 -6.3085297637238717e-003
      3.3367007847184257e-002 -5.8343310992159066e-002
      -1.2171746611347794e-002 4.0084485391313235e-002
      6.6371473995212163e-002 6.5849208836620196e-002
      1.1289069802141148e-003 2.6313609980830266e-002
      5.8405142159287139e-003 -6.1869334474459359e-002
      -1.7321253947597520e-002 -2.1486220321339310e-002
      3.3787784947769087e-002 -5.6440353308297598e-003
      2.7928307020508216e-002 6.9514380499140410e-002
      1.2574349808273405e-002 3.2607381712144640e-002
      2.1587394265633525e-002 3.4253829478513582e-002
      8.7088753794256762e-002 5.7798906974915109e-003
      3.7642621065270956e-002 -2.3800194063226855e-002
      -4.4218504651218231e-002 5.4149929733406453e-002
      5.7388154950020471e-004 -4.2263938369042714e-002
      4.4894062571601851e-003 -6.9337918040454360e-003
      -3.8789480439670343e-002 1.3793700796443861e-003
      -8.0251777297950064e-002 3.0459718676648328e-002
      5.0594144006827386e-003 -8.2838064579801290e-003
      3.7255512248700842e-002 -3.9134054364609622e-002
      4.7787619324907715e-002 2.2986890886767940e-002
      -1.1679321092173884e-002 2.3162542031454417e-002
      1.4156935085597509e-002 -3.8103602082840394e-003
      -2.6672864081506622e-003 -3.5521361599844023e-002
      -2.3927470271542805e-002 7.9954552818254768e-002
      -4.0479775516652064e-002 4.8754847381386648e-002
      -3.8423617692849119e-002 -1.1972554286066698e-002
      1.1874102480902964e-002 5.5922702163085569e-003
      4.7753280038939874e-002 -7.6588436683515766e-003
      3.9342771455728745e-002 -1.4622074710258266e-002
      -1.5389864449654227e-002 -1.3133965183227713e-002
      1.4959119308043593e-003 5.6081662512126498e-002
      -6.8575363409261056e-002 -4.1399971571387875e-002
      -6.4326963424516256e-002 6.6869071306750016e-002
      6.0042224231705521e-002 -2.5336524156392218e-003
      3.2411696556602393e-002 -1.3762190815706111e-003
      -1.5160849589939746e-001 -1.2395478309440539e-002
      -2.7453321532933464e-002 8.0371546545529818e-002
      -4.9733303111658467e-002 3.7483115406822087e-002
      3.7164569792274831e-002 2.7266476039075529e-002
      -6.8661112234890689e-004 -2.2512656071331776e-002
      -6.5508927621161950e-002 -6.5714939073011583e-002
      4.4236296732428010e-003 -4.8597784677881527e-002
      2.7428901565192922e-002 2.2936881554649759e-003
      6.0841375834145894e-002 -4.0633259827800312e-002
      -7.2220450964090039e-003 3.8936825926903632e-002
      3.7403304598338946e-002 1.8130836908518445e-002
      -2.0993297220002906e-002 4.0196344232870759e-002
      1.1048925773804877e-002 -9.2067617097667601e-002
      2.3194874943014920e-002 -2.3042861046778190e-002
      -2.1362988509575413e-002 -8.2911593729510166e-003
      7.9694327088020850e-002 -9.2478867372723400e-002
      -1.9645948053642427e-002 -1.6154574184393991e-002
      1.0453367891016712e-002 -3.8587223177068405e-002
      -2.5667890914878866e-002 -1.9506166236193095e-002
      -1.2745733186912973e-003 -1.7772858045397768e-002
      -2.6019099002485162e-002 6.9884022395765646e-002
      -1.4803070001580033e-002 -1.3701722071578619e-002
      -1.2059467983597172e-002 -2.0542737360013254e-002
      2.3667417674487184e-002 7.0595182867762299e-002
      6.3058520373858257e-002 -4.9813892208393122e-003
      3.9613590299635917e-002 2.3645956932473136e-002
      2.7345774265499896e-002 2.4500907018609689e-002
      1.0678227773572928e-002 -7.2495619966327723e-002
      3.4049419118231646e-003 -1.7264494748203345e-002
      2.4429315001900841e-002 4.0655704428908514e-002
      4.6342589571936516e-002 -3.3999308351259631e-002
      -4.2438167553328680e-002 1.0481401352244890e-001
      5.4737559467740463e-002 -6.8064240847419497e-003
      -7.6884795970729614e-002 2.1067083934308749e-002
      1.3513228573224934e-001 -4.2128597443531764e-002
      3.5507381840052181e-003 -1.4717481563173009e-002
      -3.1877079528568178e-002 -5.3377858168983210e-002
      -4.8423164144086574e-002 1.1077937931082629e-002
      2.2563880070396829e-002 8.4477561416922003e-002
      1.7643691096680993e-002 -2.8358680178501478e-002
      1.9744142823077385e-001 -6.3170221636471041e-002
      1.4682569148487018e-001 5.3725985365475550e-002
      -3.4432130107111852e-002 4.6692192890610856e-002
      2.0382900250896605e-002 5.3065057540947265e-002
      -7.8935104281618970e-002 1.4019617276589613e-001
      -1.1995949474135757e-001 -1.7203726159314411e-002
      5.4762801519773550e-002 6.9819657393817347e-002
      2.2565734190762226e-002 -6.8150566928373277e-002
      6.1440642402466987e-002 -1.0667768752322349e-001
      -1.5200870108855291e-002 -5.4581921381982645e-002
      1.2517902140082618e-001 1.6676943215860829e-002
      -4.2867179657537481e-002 -1.1603732780613571e-001
      -3.3339160292047747e-002 -1.7608117293865841e-001
      6.4420470985793746e-002 5.2327633836966411e-002
      1.2486842524092466e-001 -1.1224638319767985e-001
      5.0015506228787254e-002 -2.0973912189685293e-001
      -5.1131964811478671e-002 6.3520795392651236e-002
      1.7909397521937259e-001 -6.4198717644426653e-002
      9.4662231334250724e-002 2.9680708653158094e-002
      3.9517372511667467e-002 1.3080815255262774e-002
      -7.8290695476432148e-003 1.0617641349384124e-001
      1.8146783913458234e-001 4.0599984307091899e-002
      -6.4267838209016451e-002 -6.7208681371067933e-002
      1.0003102934216826e-001 -8.2134793410036752e-002
      -1.1091956468497340e-001 -5.7342150849469913e-002
      1.2028139469231081e-001 -1.0331687590987729e-001
      -1.0875685893347749e-002 9.4060683502521655e-002
      -1.6860494124838862e-002 4.6207645500945173e-002
      1.2579472540632591e-001 7.6252797308117723e-002
      1.9837363773675717e-002 -9.3510076208411022e-002
      1.3937196617604453e-001 -3.2386838386515654e-002
      -1.0497957423425365e-001 1.6036739449030546e-001
      -1.2162146832040226e-001 2.0990703649429763e-002
      -2.3017880441036612e-001 -2.6750069466894132e-002
      -1.1831705476534250e-001 7.7498789276301211e-003
      -8.4122197054040566e-003 -9.6809793163951996e-002
      4.9809136379249261e-002 -6.1912947771609460e-002
      -3.0073678975290098e-002 -1.0498337571591290e-001
      -9.7540079710415630e-004 1.3220285408003560e-001
      1.1636087459509148e-002 -5.7134078150275706e-002
      -2.8272705422495042e-001 4.2218256589532134e-002
      8.1060532886388006e-003 -4.3435766427683285e-002
      -3.2621928669621297e-002 3.8957837573921995e-002
      -8.3125561998640254e-002 -8.3302953061519441e-002
      -2.6432931363118254e-002 -3.2443828906667152e-002
      8.2656718636997445e-002 3.6858736659661689e-002
      -6.2977798990710475e-003 -4.1188327060970656e-002
      -4.2833886359695192e-002 -2.6831143528372420e-002
      -5.6944452420380778e-002 1.0449930180396265e-001
      4.0209984135167340e-002 4.1770444943311821e-002
      -5.4454669180068097e-002 -1.4204251832553902e-002
      1.0643441054678985e-002 2.9137871944671809e-002
      3.4715464464076827e-002 8.8584657388990934e-002
      -1.8652318664011274e-002 -6.2796321286348336e-002
      -4.6266263928294291e-002 5.5608735490096095e-002
      -5.7491855122091283e-002 4.0878233446348868e-002
      -5.5734791498091220e-002 -3.7109291849957288e-002
      -7.2057766451896765e-002 -3.1890597639639653e-002
      -8.7022508351986272e-002 8.9277423909054215e-002
      3.3055553221217004e-002 2.4267005251252883e-003
      -7.7983581418200124e-002 2.0793421209751436e-003
      2.1873846932038036e-002 8.5092723504129122e-002
      2.7599410652862647e-002 8.3512730626215642e-002
      -4.0079485515635546e-002 -3.7354702876203766e-002
      -2.6577474999304591e-002 7.9734448011065315e-003
      2.7564840464206326e-002 -2.2013005382279058e-002
      1.8405983035560862e-003 -6.8635505402628166e-002
      -1.1794392076750612e-003 5.7639125355805204e-002
      5.5051957179179593e-002 -6.4027088235451432e-002
      -6.4096023155341644e-002 1.4116685937328249e-003
      7.8441425927239253e-002 1.9680810055919578e-002
      7.3359367440373843e-002 -3.0531673459563514e-002
      -6.9315529082301777e-002 9.6311617859872412e-002
      6.9027920257895101e-002 -9.1462182885510807e-002
      -1.5268927578246225e-001 3.2690876044886735e-003
      1.5709653255581541e-004 4.4843771992782680e-002
      1.3188632334843445e-002 6.6257771695702836e-002
      1.5612856332405953e-002 2.5710425154101758e-002
      -5.7065874569114959e-002 -7.0010589288049332e-002
      1.4280181278100299e-002 -5.6787058782138758e-002
      7.2732665003252248e-002 2.2549521776202442e-002
      -7.6028024174218112e-002 -2.4513431463762418e-003
      -8.0118555474752821e-003 -5.7812299004079741e-002
      4.4095736814463632e-002 2.5873398273739078e-003
      1.1726559686694285e-001 -5.1924429694707216e-002
      -1.3082032908435305e-002 -8.7927045358894944e-003
      -3.9621770683727171e-003 -1.7254396125860025e-002
      1.1510025569168155e-003 2.4639721628089625e-002
      -2.9148496349889245e-002 2.8721774445043816e-002
      -1.2610041725956738e-002 4.2178394315899150e-003
      -5.8662791361817649e-003 3.4509707669217876e-002
      2.0278447986643893e-002 5.2703381953601650e-003
      5.9149307654125273e-002 -1.0255174559539214e-002
      2.7055923363697872e-003 -1.8285354603381449e-002
      -1.8859598755792416e-002 1.9394208445000623e-002
      2.2811425460772077e-002 -2.3242304515664232e-002
      2.2501548354410258e-002 -2.4376941794995152e-002
      -3.2751470331816135e-002 8.9031241610085868e-002
      -5.3107886983187004e-002 3.9786085876470385e-003
      -1.0967946178483212e-002 -6.0980773557296770e-003
      -1.9421584449508603e-002 -3.0355118456625248e-002
      -1.0584425730356520e-002 -2.4717715546106921e-002
      4.4779626824195248e-003 -5.6196072421472931e-003
      -2.1199950185618016e-002 1.7733332168777542e-002
      6.6671598216233113e-002 1.7513091892034986e-002
      -8.7156704814540145e-002 7.9041943121867783e-002
      4.2746317197622473e-002 -2.9033473057357050e-002
      -1.1347094302569081e-002 1.5876554438639636e-002
      -3.9815597751847807e-002 -7.3362707035810378e-003
      -5.1483432093341584e-005 7.7832089939705723e-002
      -6.2175228407264964e-002 -2.6424608823015283e-002
      7.8802845763150373e-002 3.7445416031879862e-002
      6.9500661972231578e-002 -1.9830714632841401e-003
      -2.3810080331475254e-002 -2.1417534807987155e-002
      -1.5570797269231201e-001 -4.6767176801936788e-002
      2.4133831147917457e-002 2.6836573779906874e-002
      -6.7702319086058518e-002 9.1187665175718503e-003
      -4.3077243532102932e-002 6.6834434967801365e-002
      2.8072924686708318e-002 -2.6522665087058916e-002
      1.5315610073601167e-002 3.5806591989527840e-002
      1.0583166505693440e+000 1.8347451024914099e-002
      -2.4284973948421801e-001 2.9174313511167820e-002
      -9.9979153362276765e-002 -2.7173275982798728e-001
      2.8970703132976028e-001 2.3948491219010368e-001
      1.7754179489979210e-001 -7.9026086219688221e-002
      -2.5773349104872040e-001 -2.2368431601064984e-001
      2.2527622528869383e-002 1.3621930101604030e-001
      1.2590174092574641e-001 1.5582350295049990e-001
      2.1886633466627384e-001 -2.6617837896004620e-001
      -5.9161923347881465e-002 -2.6260829864835594e-001
      2.9045479490001197e-001 3.6175557490086357e-002
      -8.1015979641134404e-003 -9.6665234012823925e-002
      8.6577319011900397e-002 -5.0035196975201209e-002
      9.8885305784644648e-002 3.4288203514416604e-001
      3.1109763969057558e-001 -7.2030370312693881e-002
      3.1827913822358517e-001 -2.5143467032996658e-001
      1.9729975806290329e-001 9.5332135221908254e-002
      1.1436615661271310e-001 6.5011308866207831e-002
      1.7960068307141575e-001 -2.4927346848660925e-001
      7.1270610213218774e-002 -4.0557137898276717e-002
      1.9086254772829769e-001 6.2510720724727117e-002
      -1.9109829758098690e-001 -1.3172052359690722e-001
      1.4125298934169861e-002 -2.0967987594475887e-001
      2.4602335870497591e-001 3.8797242099858451e-002
      1.9261172911535054e-001 -1.9348900583410409e-002
      -1.8691557602196376e-001 1.9982252038399870e-001
      1.2958609243152877e-001 -4.7859582273322931e-002
      -5.9696145515891440e-002 -2.0214236770366167e-001
      -1.4998219524493839e-001 3.8474666969311977e-001
      2.7997609227693127e-001 2.4302635235274175e-001
      -1.1064275238575949e-001 -1.2212521066733920e-001
      -1.6470921305640693e-001 2.5758264860084296e-001
      2.8451066124092017e-001 -3.5920056968566177e-001
      -2.5208350950480912e-001 2.2256275602281117e-001
      2.4111863601167960e-002 2.1722080183395120e-002
      -9.7357783803101255e-002 1.2222102114357458e-001
      -1.9341217835021737e-001 -1.7037132065124910e-001
      -2.7527926179927614e-001 7.0537944529573016e-002
      3.1842132696176656e-001 1.7909755344674610e-001
      6.4394186420024230e-002 2.2042356430300636e-001
      -3.8164174205169932e-001 -4.3917673736864761e-002
      -5.9997028611164099e-002 -2.8157123806635004e-002
      -6.8789420791518008e-002 3.0579801372245068e-002
      2.5768334128424900e-002 4.6311302017531274e-002
      1.1369106728202380e-001 -1.1853244060268690e-001
      -5.5295743578527269e-002 -4.2824708695203490e-003
      -1.0529743008284256e-001 -1.0511077862676972e-001
      2.6233782429330815e-002 -2.7207670869769468e-002
      -7.7039765474962010e-002 2.5077099034695925e-002
      -9.7052032246656969e-002 7.4650676803822549e-002
      -1.0178537679364190e-001 -4.0666288565539506e-002
      2.3895695976577740e-002 5.3258262220145618e-002
      1.1764998502739470e-001 -7.8882542330654365e-002
      1.5970092982445391e-002 -1.1222853483144314e-001
      -5.9374233101628308e-002 -2.1544167633538187e-002
      -1.0308356962756776e-001 -8.4024832672321748e-002
      -9.5397367993812383e-003 -7.9026250020919186e-003
      7.4039089802706666e-003 1.0192018373184281e-001
      -3.9479045599429559e-002 9.2183267150367385e-002
      1.9418687198312811e-002 -4.4638348495523818e-002
      -2.4203203388318731e-002 7.4816874542958461e-002
      3.3022376629097852e-003 1.7053732366070447e-002
      -3.2099757273341425e-004 -2.7124822314842159e-002
      -7.0782798569977684e-002 -2.8949352369429051e-002
      4.7610563249540945e-002 2.5934942072707440e-002
      2.2697239500960038e-002 1.0236338881906104e-001
      1.2443321082055406e-001 -1.7004710484609400e-002
      2.8775019112703745e-002 4.0065233694166112e-002
      -3.7814311224424121e-003 -1.0643234690653273e-001
      -1.0325821462415037e-001 3.4108061217020057e-002
      2.5173957505128075e-002 -3.0950760914230026e-002
      4.2011483419424386e-002 9.7502241264040945e-002
      5.4141241657374939e-002 8.1136182988204048e-002
      -7.2863216113698032e-002 -4.0399840157603478e-002
      1.9912258122051709e-003 -2.0145688168668307e-002
      7.9061710450697431e-002 -8.3921348461035317e-003
      -5.6042974956235808e-002 -6.8005772197102399e-003
      9.2393655004741199e-002 2.2061727154087914e-003
      -8.4134772936242580e-002 -8.6721952012137529e-003
      6.6993473476703397e-002 -5.2760320250570966e-002
      -3.5251614626820821e-001 8.5712053715626610e-002
      1.6383944984007619e-002 1.4605132648934470e-002
      -7.1403504108294574e-002 2.0849071930232985e-002
      -2.1646620450415783e-002 -4.5261880422213088e-002
      1.1117454975455503e-001 -7.7798827643219770e-002
      3.9459635710349682e-002 9.1329845834856177e-002
      -1.0531411849984136e-002 -1.3729394996127581e-001
      -3.2011477164464314e-002 1.8604753526263094e-002
      -1.1007916007217068e-001 1.1454990742264119e-001
      3.0457839758258762e-002 1.8745811733378437e-001
      -1.4501459902661989e-001 3.5904863686191620e-002
      1.6548870233731739e-002 1.1800120595565075e-001
      2.8284032804455236e-002 1.6205732934446002e-001
      -8.3204886646380177e-002 -6.1008949953124447e-002
      -9.4332163367504135e-002 9.6336554674522151e-002
      -1.0270210726059592e-001 1.8293582880142922e-001
      1.7179212857018099e-003 -1.1500432076062007e-001
      -1.7122559827174216e-001 -1.4555929605195687e-002
      -1.3789785037482269e-001 5.4745616330287121e-002
      1.5048711784739638e-003 -7.9984364328206763e-003
      -2.8228870025129849e-002 -1.7999212986000258e-002
      -1.0791219261682000e-001 -2.2481861023868014e-003
      1.8603540746325312e-002 9.6600546499062093e-002
      -1.3643480077488387e-001 9.4277480465305319e-002
      -5.1221610163986256e-002 3.8649456776164340e-002
      3.0078421510012207e-002 7.0671189412490051e-002
      4.6335762758429690e-002 -6.2146220884865572e-002
      4.2610952315943466e-002 6.1471836338094547e-002
      -2.6530105933737329e-002 -9.3371255666873348e-002
      -1.0237274136232384e-001 -4.0669461135115575e-002
      -8.2883963515860137e-002 2.3879417345821788e-002
      9.8038618819442619e-002 -9.8352003617582076e-002
      -8.1090074279272062e-002 1.1194962802378753e-002
      2.1153922712302381e-001 -5.7971607355914098e-002
      -5.2119812022092919e-002 1.2862877624399201e-002
      4.8320652877455669e-002 7.3641828889290731e-002
      5.9420978712675050e-002 1.9392889243698651e-002
      2.7435114934837867e-002 3.1679953640516997e-002
      -4.8697516297500215e-002 7.0717784107728263e-002
      3.0433974478477809e-002 -3.7874093286492203e-002
      6.5135075847873189e-002 -8.0088855413943297e-002
      8.3741349511919527e-002 -7.2910605534841313e-002
      5.4797935885710372e-002 -4.3977083807398003e-002
      1.3017841875962097e-001 8.5325222056085337e-002
      6.2882974899111696e-002 1.7707568099300030e-002
      -5.7339473289793795e-002 1.3756729115008329e-001
      -1.4760327852975104e-002 5.5306590653243087e-002
      3.4176688181820215e-002 8.8172785594084507e-002
      -2.7853993837174428e-002 1.7294808622116750e-001
      -7.6994820639566447e-002 2.6492338537401302e-003
      -4.9665984467523339e-003 5.4044184020427648e-002
      9.3220982582358183e-002 -5.0966410301946236e-002
      7.7846946538690240e-003 -4.9808581529012901e-002
      -7.8451231547901887e-002 3.7254742255578906e-002
      4.8293946626572368e-002 -5.7294425778037589e-002
      -1.0184589539835466e-001 8.1694229808060168e-002
      7.1391773088711738e-002 2.6031858714250424e-002
      -3.0854106636430366e-002 8.6587459804030958e-002
      -7.8021072158562495e-003 2.5065648757585005e-002
      -1.7413572383051260e-002 2.4601466827046999e-002
      -1.2097551538046668e-001 -3.6779247738789357e-002
      -4.1155766049973216e-002 1.4462629562837223e-001
      -1.4455306962297475e-002 -1.0049487451968740e-001
      -7.2645310169180494e-002 -3.4609585758022997e-002
      -1.4919124808191334e-001 5.1954009237133059e-002
      6.1355850015962629e-003 -5.7059697820396153e-002
      -1.0644091219229242e-002 1.4356286848207717e-001
      3.0248979623136208e-002 8.6510892048502555e-002
      7.5949950939310104e-002 1.4498885044020589e-002
      -4.7900556301121541e-002 -1.4063193210920460e-001
      -4.6264273132479411e-002 4.7779307298357346e-002
      1.6727778694479437e-001 -8.3098949966069952e-002
      -1.3383020381517427e-001 -1.0376500682225852e-001
      -2.9254411862688352e-002 -1.1906897412683094e-001
      5.5767533614755033e-002 2.5586134592414593e-002
      1.3963083053933685e-002 -1.0847196289306922e-001
      1.4089850091240969e-001 -5.7969204423212940e-002
      1.3674185768611816e-001 -7.2994899944006292e-002
      -1.0080671487019670e-001 5.2810447042348017e-002
      2.4818426879767545e-002 -1.0808240572525087e-002
      6.5089383805359791e-001 5.5837225555284579e-002
      -1.4938474462345472e-001 2.0955543485634026e-002
      -7.0717885815486048e-002 -6.6551912279886299e-002
      2.5155316545439366e-001 7.4585654508576044e-002
      1.4205446055627485e-001 -1.0183285686287168e-001
      -6.0574501839391635e-002 -6.2593515510696029e-002
      7.6540192836667881e-002 1.1420488092166131e-001
      1.5788436035451142e-001 2.3763953804187529e-001
      8.9741441187163859e-002 2.8556694936176498e-002
      -2.9442102795307568e-002 -1.3359190187854339e-001
      7.8533214617766467e-002 2.4318900558964181e-002
      9.1860418502113753e-002 -1.0438781624206005e-001
      7.9272882988446439e-002 5.2696119989435214e-002
      -3.0724723282496524e-003 1.6704934716015502e-001
      1.3527977374312339e-001 7.4771554217465869e-002
      1.6683462481064409e-001 1.5753347847283078e-002
      1.4656733897319149e-001 -4.1698589671315825e-003
      -6.3271841453853797e-002 1.2704982138664509e-002
      -5.6946809588607934e-003 -2.3759166011813482e-001
      1.4331206909125443e-001 5.0096789617338155e-002
      -4.3060155448540636e-003 -1.4812271080053976e-002
      -2.5029467846370379e-001 1.5405302436555184e-002
      -1.9915446933218679e-002 -1.6816789930289755e-001
      5.1963026430231568e-002 9.0163340279064669e-002
      8.2674372439430540e-003 3.3217467798899343e-002
      -9.2896711587279260e-003 1.4118659933423033e-001
      9.9673648894833692e-004 8.0755419721055769e-003
      -1.6908595844068928e-002 1.9849108996193049e-002
      -1.2997311553974334e-002 3.0087983364675530e-001
      -4.6006787615945500e-003 8.3347126823095585e-002
      -3.8027609761502823e-002 1.0374613893336845e-002
      6.6590741166487971e-002 1.2061387781740453e-002
      8.0572313220932903e-002 -2.5855516379089422e-001
      4.5712096521273740e-002 -1.7823964698052749e-002
      3.2991935829382063e-002 -4.1054310641101342e-002
      -4.2148289770331686e-002 1.2422961141739169e-001
      -5.8252039636872872e-002 -1.4248881966992932e-001
      -1.7815959233669659e-001 1.3424062773809700e-001
      1.5382756814003967e-001 1.4561085981565824e-001
      1.0188632540829004e-001 1.6625288642206051e-002
      -2.5256460924585583e-002 8.0858700237659259e-002
      1.3551049271991569e-001 1.9340510342069524e-003
      1.5207092660514392e-002 9.4194052258433580e-002
      -7.9334708251348390e-002 -6.0698227856085321e-002
      -6.6373499331297964e-002 1.2202513436642125e-001
      -8.9065693666090507e-004 1.8521293567114721e-002
      1.3022083643190643e-001 -7.8500946265415247e-002
      -6.3086718427471017e-002 -8.5763321835810535e-002
      7.0638031895170122e-002 1.1152655256644425e-002
      1.2347356000226870e-001 1.3064732809744029e-001
      5.1764201070318164e-002 6.2968014721893908e-002
      -6.1845240016894232e-002 4.1106591401077204e-002
      -1.1428955676570547e-001 2.3320640769395658e-002
      -1.5698087161897530e-002 -1.9558580891206771e-002
      1.1720070133414719e-002 4.5994725365800002e-002
      8.2011291415862872e-002 6.8186427846490911e-003
      -5.1685881962379665e-002 -6.4292450224916392e-002
      -3.1650162617546176e-002 -1.2000486183621271e-001
      -7.6376072060448025e-002 3.1407967516739570e-002
      3.0646795327876172e-002 6.2993446313377388e-002
      2.1408964514397246e-002 6.6369396263326478e-003
      1.1771528326143407e-001 -3.3185127306551467e-002
      -1.2333539181394257e-001 9.8937210597239603e-002
      6.0790099780417814e-002 8.6174901811958658e-003
      -8.4975265049019186e-002 -5.1583230341419095e-002
      4.3186869677872483e-002 -9.7670440525063504e-002
      -1.0318116096471446e-001 -8.3353190157758106e-002
      8.5456264240032630e-004 9.2411589134014677e-002
      3.3931244187215097e-002 -2.2620952061427755e-002
      -1.2738361555623828e-001 1.6140286691539612e-003
      1.9868078012017950e-002 4.2583639385319297e-002
      -3.7867815918249344e-002 -3.9481331597649882e-002
      -1.4395485361749916e-001 6.3224967068454790e-002
      2.9158916819829420e-002 -1.3417083722836287e-002
      -9.0897343266430911e-002 9.7079138495372898e-003
      1.1122447746686515e-001 1.2673076342789026e-002
      7.9889105245226411e-002 5.1298753181468010e-002
      -6.0504484797817178e-002 -7.9376448813760339e-002
      1.3588212323472888e-002 4.3579495140679603e-002
      -3.4592715044346196e-002 9.9982817526348376e-003
      7.6151929065893909e-002 4.7151129358519693e-002
      -1.6292720492102047e-001 7.0952634856226212e-003
      2.6233430645668191e-002 -5.7387397453068416e-002
      -2.0046825256642319e-002 -1.0097498827341798e-001
      3.2199949843787330e-002 -1.0274171501146293e-001
      1.0727765993354539e-001 3.0687078040734013e-002
      -5.5841157414836966e-002 4.4246117900389716e-002
      3.9276003116578313e-002 1.5135699230377056e-001
      -1.1627683722756935e-001 8.1960375666332019e-002
      1.0937962476366501e-003 -6.5484249688193802e-002
      -1.0738773599533979e-001 -9.7499038600086144e-002
      6.2113204823010019e-002 1.2154171096211190e-002
      2.9714198294429423e-002 1.7772168561541887e-001
      -3.0171321587220176e-002 -1.5856980708267916e-002
      -6.4520433650208625e-002 1.2623740131715813e-001
      -4.8523920466964847e-002 2.0335797000904995e-001
      3.6164304296624449e-002 -1.8169797729740474e-002
      -1.3968711714882523e-001 1.0708853800774569e-001
      -2.7247501624159488e-002 -1.1449837576044880e-001
      -3.4845187362689330e-002 1.6894662437408443e-003
      -7.9309229547392265e-002 -9.9560121638275920e-002
      -2.7641400373238784e-001 3.7442306691326775e-002
      1.7510780063148196e-001 3.7609673778283503e-002
      -8.9345519156409064e-002 4.3776119826152378e-002
      5.5981325032161487e-002 3.9489071019527304e-002
      -6.9999246640226928e-002 9.3631623848041703e-002
      1.2589990278902726e-002 -8.5109138966469045e-002
      -2.0675616960453273e-002 -5.0288838276344429e-002
      -7.8608360761212706e-002 2.0392094208588028e-002
      -1.3140222249884485e-002 9.4765884842104436e-002
      5.8329573200122950e-003 4.1205810823977340e-002
      1.1324275819253458e-001 -1.3250470230808523e-001
      1.1238620443718783e-001 -6.8261001793933095e-004
      1.5432012636891579e-001 -4.2286248441273822e-002
      6.2109482971622769e-002 1.8647951639455929e-002
      -1.2000287091337809e-001 1.2084264189014125e-001
      -2.3371359819416525e-002 -2.4162454744630229e-002
      -1.6949345148161833e-003 1.3982091744194175e-001
      2.4478774874144144e-002 2.9056854553424313e-002
      1.0836269076522416e-002 1.5219166928565068e-002
      -1.5981198349079684e-001 -2.4844901711065848e-002
      9.4476987243936508e-002 -4.5172375728541665e-002
      8.0894337844000866e-002 5.2234850835855245e-002
      -1.4022065793590674e-001 -4.8712298990023398e-002
      -9.0276045334065302e-002 1.0219572375973268e-001
      4.6712336786710759e-002 -1.7580933997020317e-002
      3.8576671719189812e-002 -3.2502429538339192e-002
      -8.6950875261335395e-002 -1.2375018494754192e-001
      -3.5612510231311192e-002 -2.9689191312176427e-002
      2.6986246097719883e-002 3.8759687580674718e-002
      3.1522272458264659e-002 -8.8583841487196741e-004
      -4.8378114517594988e-002 2.6095585710997151e-002
      -9.3206352263197720e-002 -4.6057202757676260e-002
      3.5644018127833424e-002 -5.2746167194824535e-002
      -2.7378035341700784e-002 -2.5770527228369526e-002
      -2.2285736338021851e-002 1.1019251147339641e-002
      -8.5261088797367296e-002 8.4787198326848855e-003
      5.7108728997151074e-002 -4.0112672937707436e-003
      6.8570585144052912e-002 7.3174928553404753e-002
      1.2473711863284786e-002 2.0168132692856749e-002
      -1.5549049551183025e-002 -3.0512405025279656e-002
      1.4235089762675146e-001 -8.3576654877952246e-003
      -1.2661389067458983e-002 7.6014601132532944e-002
      -1.9195174555184595e-002 -6.9954829313286962e-002
      -5.4945657965922712e-003 -4.5777933823672297e-002
      4.1884091646314243e-002 -6.1408619143620793e-002
      -3.6788525840742263e-002 1.9445553378878526e-003
      -2.6380437262765854e-002 5.2715094926639651e-002
      2.5862703797934924e-002 -7.1572220673796760e-002
      3.2093155086109833e-002 -7.7191738849822422e-003
      5.2648820499171377e-002 1.8556871736187669e-002
      -3.8968363183264312e-002 1.0436899366067216e-003
      -1.1031737110021343e-001 1.1345325922735656e-001
      2.7991461793101028e-002 -6.1687120262337476e-002
      -8.4738134304205820e-002 5.6565945530152300e-003
      -1.7958718424107855e-002 -7.6474851923417492e-002
      4.0313759752463360e-002 1.0745723664966568e-001
      3.9937996239894899e-002 -1.0328144958802626e-001
      -3.6106600931446117e-002 -9.3086506403676675e-002
      -7.5650083200698992e-002 -4.2605495173368207e-003
      -7.6266272412484334e-002 -7.8396297889046201e-002
      6.0605226315053690e-002 -1.5056609284748357e-001
      -6.9947103487648750e-003 5.6834841373102608e-002
      -3.1933567022823225e-002 4.1356145536003530e-002
      -6.7835383349919157e-003 2.2942040340729598e-002
      -2.9961961352704750e-002 2.6966176789619576e-002
      -9.2255547634251700e-002 6.2945725683801856e-002
      -4.5882445185918025e-002 3.6035418209981532e-003
      -8.5006954470277549e-002 1.2351572961752447e-002
      -9.0065914516704315e-002 -5.6813640785753190e-002
      -1.2058402995665903e-001 -5.3376820877326960e-003
      2.2836805761652122e-002 -5.0343626927705519e-002
      6.9168488105746675e-002 -7.1096268670611210e-002
      1.2066330658780175e-002 -6.0839456438504920e-002
      -2.4672739491515990e-002 -3.0552057044884159e-002
      -4.8369281006088033e-002 3.0814345526113524e-002
      2.1935947254957618e-002 4.8677086826331262e-002
      2.1262268423471495e-002 8.6329875741440673e-002
      2.6518705187443870e-003 3.2325461314622626e-002
      -8.4326383429671747e-002 -3.3158778808637775e-002
      -7.2641406371545161e-002 4.1261026942330602e-002
      5.9516534060977046e-002 1.0698963659769437e-001
      4.6248022140322601e-002 -2.6134041105731750e-002
      -4.9467291434113873e-003 -1.9460726631110664e-001
      -4.0137787811841366e-002 1.6363357405524099e-002
      9.9890114540968550e-002 -1.8405933895061777e-002
      7.5674690869976316e-002 1.0545841516089650e-001
      1.5047709831338551e-002 -4.9051017739225903e-003
      7.8552717119948573e-002 -6.5883247580788035e-002
      2.2393656465730227e-003 -3.9283263533945283e-002
      2.2558258001276622e-002 -1.8282001528525261e-002
      9.7796087132430813e-003 -4.5944502526054577e-004
      -6.2119945664804298e-002 3.6956670033458261e-002
      -9.8420545134361950e-002 -3.8259535990757286e-002
      -3.0795530264923165e-002 6.6585983353213779e-002
      -1.1211891563692818e-003 -4.9447780110637281e-002
      2.6844992181201649e-002 4.7143714014735709e-002
      6.6362824680973750e-002 -2.2225257943593348e-003
      -4.9093987245750814e-002 -2.9094635057661522e-002
      4.4477848458568732e-002 -4.6495485484625058e-002
      7.1982274083636777e-001 -4.3831884867611998e-002
      -4.8133112167045980e-002 2.0337270435122071e-001
      -1.5344857075086901e-001 -8.3279558127917778e-004
      1.9750282096317812e-001 1.3345717884198935e-001
      1.3003992263033792e-001 6.3754314191803198e-003
      -2.6403434758135053e-001 -2.6235015779778920e-001
      1.4553539794726249e-002 1.2488183804070187e-001
      2.0916285173440213e-001 5.5640834580680240e-002
      2.8478038355736535e-001 -2.2256291488012603e-001
      -9.5875000720040959e-002 -1.6956906802370883e-001
      2.2061675925317273e-001 -2.0193200051337942e-001
      -1.9514380302710230e-002 -1.9242631900902860e-001
      1.0276346427767614e-001 -2.0197064689997185e-001
      1.7433505533145352e-001 1.4307662607701552e-001
      1.7841627272517796e-001 4.6951396282557588e-002
      2.7962347768750823e-001 -2.4524991685671749e-001
      -1.1443906747588387e-002 1.4412289900066277e-001
      2.4944079619985904e-001 -1.5910535246050186e-001
      2.7859091201147956e-001 -2.3130692867543864e-001
      1.6018563469875818e-001 1.8081282265000401e-002
      6.2780376341779520e-002 1.3076978730466143e-001
      2.0686808682825634e-002 -5.2784529264632354e-002
      4.1692042758212242e-002 -1.8544148740160485e-001
      2.2007671261626319e-001 1.1487377832658612e-001
      9.1319797177159795e-002 -7.1855760190118495e-002
      7.5947454727812974e-002 9.6357217700127590e-002
      1.4438446219961815e-001 4.3048676653342853e-002
      -8.0327022520270103e-002 -1.3093070884466274e-001
      7.1861169419896898e-002 2.1497865200746646e-001
      2.2655448482995952e-001 9.9875286752016665e-002
      3.7137259745830931e-002 -2.9990400292291806e-002
      -1.0845639971201675e-001 2.0670983218802080e-001
      1.1093810164404053e-001 -1.3748732676751488e-001
      -2.9318541742235321e-001 4.7392333633721327e-002
      -1.4036489992415532e-001 -2.5468048877013533e-001
      -1.2494983706245669e-001 3.9116580811742810e-003
      -1.3872005203949972e-001 -2.2619481395482302e-001
      -2.2253068128537729e-001 1.3804294882041179e-001
      7.6411549031337497e-002 2.7287614428606310e-001
      7.4006105694889107e-002 -1.7387826583092625e-002
      2.4035904357043145e-001 -3.4398697920684085e-001
      3.9814895118091542e-001 4.8733221352579577e-002
      1.6332203121362210e-001 6.0030781301477154e-002
      -1.2305672572147608e-001 1.3526865763313667e-002
      -3.1796572902160647e-001 3.3260621644337496e-001
      -1.1540651802608078e-001 1.3146421007169204e-001
      -7.8929214324194308e-002 3.9732806459806014e-001
      -9.3783921966052158e-003 -4.9965833652110853e-002
      -7.3991924572408330e-002 -2.0424664699773934e-001
      -1.1753984018656838e-001 -3.3554728640902354e-001
      -1.2142406129870631e-001 -1.1302107864667275e-001
      -3.0571402773317272e-002 -3.4799918643920402e-001
      -9.8047291613022738e-002 -3.6473447229075623e-001
      6.7164412842921545e-002 -1.1863027031691613e-001
      7.0980893110263107e-002 -9.5509772014477134e-002
      -2.8002244929578396e-001 6.5136084059869995e-002
      -1.1863462976835673e-001 2.8886051828192999e-001
      3.3005849014516964e-001 2.0465880013930116e-002
      3.1601017865598463e-001 -8.0387616168293582e-002
      -7.1453609916790436e-002 5.6657317831069191e-002
      7.9784463557881366e-002 -4.9524368550162720e-002
      2.8381076874199540e-001 1.3242303692804525e-001
      6.8708284498724431e-002 -1.0457829275655230e-001
      1.5217562822644548e-002 -1.2955962707858357e-001
      -3.0960388408210998e-001 -8.8167061714928385e-002
      2.0820586593700532e-001 -4.1551610622224810e-001
      -1.2508797359478691e-001 3.4663894307842386e-001
      -9.3708921380428148e-002 -4.5588372680054272e-002
      3.5728698579325185e-001 -1.7082651625249137e-001
      2.5979039492741168e-001 -4.3391993423913672e-001
      2.6173710339154943e-001 1.2375863047731697e-001
      -1.0568970968227694e-001 -2.2715080235408511e-001
      -3.3753374405025405e-001 1.6610807724224061e-001
      -2.8853701274955407e-001 -3.1188205561152076e-002
      -1.7829261968578997e-001 -4.7115821160554912e-002
      -1.7541903054599114e-001 -3.8570288938521419e-001
      2.9870948398532604e-001 -2.2310561070546003e-002
      3.8520809628931946e-001 -2.2814067994985829e-001
      -3.7032168428931894e-001 7.1559434454671028e-002
      -9.4341825640894564e-002 -1.7526532637384781e-001
      4.6488347037895722e-001 -6.5106875980884091e-002
      8.5689000125290238e-002 3.9740161385485716e-002
      1.0165965369881287e-001 -5.4633715265431433e-002
      5.4534971064566055e-002 2.9215503429953171e-002
      -1.3931354584673139e-001 1.6795059831040282e-001
      -7.8299458463437152e-002 -4.8285190562904888e-002
      -2.3094741649000885e-003 1.5538561240482482e-001
      3.6352470538479488e-002 3.3762906968265317e-002
      5.1946697226842855e-003 -1.2636796719563886e-001
      -6.4594877691328042e-003 -1.9968081246634958e-001
      3.8733838465612680e-002 -5.0943360779014922e-002
      -3.6671353845100653e-002 -1.1550125541531520e-001
      -9.2271817470793757e-002 -6.3482922275484327e-002
      6.4697759439572775e-002 9.9352294426882495e-002
      9.4399652042771315e-002 -4.1682953482830201e-002
      8.4067786132395114e-002 -2.3224521558411669e-002
      1.6548764661237322e-002 1.1258116707252828e-001
      1.3740138336938743e-001 3.4758758820521200e-002
      1.9961792142887472e-001 -1.5588506979866246e-001
      -8.1130677625949110e-002 2.0851665182560309e-002
      6.9459242335093041e-002 -5.6598194208537789e-002
      3.7141924749813558e-002 -2.9630988035773628e-002
      2.2591699591946790e-002 -9.0516987627128023e-002
      1.1212351423949971e-001 -4.3398599344546714e-002
      -2.3559363552581605e-002 -5.6739941825855351e-002
      -1.3655096154462382e-002 -1.3723739417446612e-001
      -6.3099351986997468e-002 6.4614583183603913e-002
      -6.4146598350897061e-002 -8.9519757385654014e-002
      3.0214052180649105e-002 1.4847940238791063e-001
      1.5069888926992808e-001 -5.7228883391628869e-002
      7.8553554880610318e-002 9.9819044997663253e-003
      -8.7740945048435562e-002 -1.1269302070909490e-002
      -1.0804305868348104e-002 -5.8133338672275485e-002
      -1.3590723166183102e-001 6.1936016237660034e-002
      2.2983625323800732e-003 -4.7271371059648412e-003
      -7.3701378336364545e-002 -6.2927285267789887e-002
      1.7351556621905840e-002 -4.7459823168122549e-002
      4.1537342294728930e-003 -2.0019741659844086e-002
      3.6352842336466872e-002 6.3754627711874942e-002
      -7.6238932217687405e-002 7.0793771082503773e-002
      -1.0518108455287090e-001 1.0949905376565060e-001
      -1.8998725769983921e-002 -5.9562865977601596e-002
      1.8340665466934178e-002 -1.4188925171518612e-002
      1.5407419972844592e-003 -7.5294173937231895e-002
      8.6017665815188576e-003 -2.6022775542124198e-002
      1.1846573346642489e-001 5.2241998308545194e-002
      6.1384035399827612e-002 -1.0755223838758680e-001
      5.1430528088376492e-003 3.4739627117138204e-002
      1.6736382246105668e-002 1.2534964263245052e-001
      1.0751037113906053e-001 1.6377684488399266e-001
      2.6844420567028794e-003 1.4285879512780547e-002
      1.4229479466138633e-002 9.8451006236866215e-002
      -5.9220197505320996e-002 1.2902711003275663e-001
      -6.1016165712500209e-002 9.4778418859088054e-003
      -2.1236609614940238e-002 4.5322764583730205e-002
      -3.8367266746484395e-003 8.3689692851420097e-002
      2.0190049147087726e-002 -9.1874874862932665e-002
      -1.2805388105085216e-001 -8.0037399435462106e-002
      -9.4283386325127255e-002 2.9806505959423066e-002
      8.6100935205724649e-002 5.2906552219430303e-002
      -4.5353947977005753e-002 2.0786615101154398e-003
      -9.5897730363612904e-002 2.3271835703169531e-002
      -4.7293530276535850e-002 6.3469719783089087e-002
      -6.9103955280065257e-002 -3.8592860848455195e-002
      -3.3463075335100810e-002 2.3091485831283589e-002
      3.2996601534894315e-003 4.4360304398946906e-003
      -8.8100401444504733e-002 -4.0452245281560363e-002
      5.2713673800234159e-002 1.1061472724388556e-001
      -8.1743885456541359e-003 -5.5125838596034402e-003
      -1.6642473768281449e-001 2.9573055098346462e-003
      -4.5415876738239290e-002 1.5674215422809983e-002
      6.8594681133790997e-002 -3.1771803738246694e-002
      5.3903994213565449e-004 -6.4182855191201052e-002
      1.3934711650396300e-001 -4.6232942667911663e-002
      3.1272761079360045e-001 1.1909513177098662e-002
      1.0809293550429024e-001 7.9688099353234121e-002
      4.3722091450645165e-002 -6.8479458366046018e-003
      -7.8732049223603398e-002 5.9259810565669971e-003
      3.9089610779073060e-002 2.1948609322086608e-002
      -1.8497322579441107e-003 3.7130550976083206e-002
      2.8150495701413836e-001 -8.1782532989928797e-002
      9.8995135961978797e-003 4.9036796911322150e-003
      5.9118562772296393e-002 -3.4509529407191562e-002
      -1.5412525416031787e-003 8.2664223114431223e-002
      -1.0424709196152453e-001 1.1738920568616104e-001
      -1.0597071444160144e-001 -1.1471060161300745e-001
      -2.2441902878773970e-002 6.1046125336105629e-002
      -2.4376918085896013e-002 -5.9063607538914230e-002
      7.8821682520796715e-002 -3.0622588255065442e-001
      3.9639446884446395e-003 -1.3823133319835293e-001
      9.1625412109555299e-002 -9.6056717612587217e-002
      -7.5492592714485982e-002 -5.4563535021508784e-002
      -8.0268307009642006e-002 -1.8372127760506599e-001
      1.2389794254931964e-001 5.6658904239015290e-002
      1.1136981992137593e-001 -4.4471940794290163e-002
      1.1523907584286755e-001 -1.3416113605223270e-001
      -3.9960947388588526e-002 1.3418124426070455e-001
      2.3305218901175759e-001 -3.1061068058999986e-003
      2.4149747192489210e-001 -8.1008901907993439e-002
      -6.4029810993012116e-003 -2.0791126505335045e-002
      1.6598236446700076e-001 2.2445574022265755e-002
      7.4510802076870691e-002 -8.1525969914539823e-002
      1.1835350040672200e-001 -1.8499670225714377e-002
      1.7493701613780899e-001 -7.3577196862279315e-002
      7.8856940461602187e-002 -9.0620363184355388e-002
      1.4223767041714843e-002 -8.1853328663066383e-002
      -2.3696197674829438e-002 1.0747178783735753e-002
      -8.1865239812863491e-002 -1.8043555223734975e-001
      4.0243043826148829e-002 8.7079737115098588e-002
      2.4402444752923588e-001 1.1295630651483654e-002
      1.1142665260718629e-001 -3.0202157651021997e-002
      -2.2175072074487118e-001 8.0397302527742395e-002
      1.1496320009823903e-001 2.2640387292840427e-002
      -1.9406783165295013e-001 1.1229288278414079e-001
      -7.0483323389239183e-002 -5.8701581511139606e-002
      -1.2978641898038321e-001 -1.0517052784167295e-001
      -2.4702838064635739e-002 3.6234776580981440e-002
      -7.3589880536400101e-002 -5.4907311860267677e-002
      7.4228016849378076e-002 -2.9845524285889647e-002
      -8.3056289644475478e-002 2.1163423897088120e-002
      1.3843504878492091e-001 2.8340462973575925e-002
      -1.4486136152824033e-001 5.6327280472462819e-002
      -1.7984242476226809e-002 -2.3393173732392074e-002
      7.5907978265500706e-002 -5.8953790470636140e-002
      1.3744015279606664e-002 -1.1775199566450574e-001
      5.3688387671857823e-002 -1.5008898800862955e-002
      -6.4579613738508252e-003 -3.7730089970501583e-002
      7.6527612600780240e-002 1.0549614138368540e-001
      -3.5823953227439614e-002 -2.5713340374641718e-002
      1.9150004210782719e-002 2.2105954742265518e-003
      1.3184584385089043e-002 -3.2431823184974624e-002
      4.5882016931921892e-002 8.4618371867383156e-003
      3.6113052537819323e-002 1.2642226744628574e-001
      4.1627024950384572e-003 2.5721301099744638e-002
      1.8470533983289981e-002 9.0594652773728981e-002
      -2.6630942185592255e-002 1.0596123437967256e-001
      8.3187736762831976e-003 -2.0222621687861378e-003
      -3.2223655411777408e-002 -1.3202834416323831e-002
      6.3492132109901317e-002 -1.4778765539148261e-001
      3.2006546572746264e-002 1.1214027601193629e-003
      3.0934377925624201e-002 -1.0509819484188983e-001
      -1.9636884909099436e-001 -2.6483325594892755e-002
      6.4572066012474477e-002 -5.5916334569789387e-002
      -8.5970415487596624e-002 1.5365337980392912e-001
      8.9475981897032417e-002 3.3598223841604921e-002
      -2.4027286988740695e-002 8.3292239335516979e-002
      1.8589491950911464e-002 -4.4141524847009839e-002
      -5.2495456023501412e-002 7.9147150774448152e-004
      -5.0286339640372858e-002 8.3056033054162176e-002
      5.8062325913336280e-002 3.4819826702588604e-002
      1.3597324139395005e-002 1.2771356168786928e-002
      9.9224730315394638e-002 -7.1187743072635951e-002
      1.6159181536169820e-001 -3.2133500364244255e-002
      8.1192549191112851e-002 -1.7056296883814038e-002
      2.4010696202125719e-003 -3.6521137127422061e-002
      -8.2292603902022893e-002 5.9996597280431233e-002
      -4.6892788734405999e-002 -2.5384076520125053e-002
      -7.6901149031869667e-003 8.5907199472015527e-002
      2.1582363544417237e-002 -4.5001076697861866e-002
      4.2029382344675774e-004 -7.4771082688896975e-003
      -1.6283267687697828e-001 1.1649975106388993e-001
      -6.8332141868275242e-002 1.6879636717190993e-001
      -3.6286341033884922e-002 -1.5464470414968378e-002
      -1.6294685577993556e-002 -3.6322705602005914e-002
      2.9380337922999950e-002 -4.9561883948776336e-002
      1.0520718128230650e-002 -8.6870689474420476e-002
      6.4164099295678512e-002 -1.2066814686198704e-001
      3.6709553034391815e-002 1.6438616592682057e-003
      6.8104943187055180e-003 1.9614191596745408e-003
      8.9781679708126338e-002 7.8510844264178536e-002
      2.6822373894307562e-002 -8.9687708558410809e-002
      -2.5224367744644094e-002 7.1671482856711197e-002
      -4.0104319456232322e-002 9.1127363031417483e-002
      3.5622751609183469e-002 -4.6891210011789641e-002
      -4.5393136590449350e-002 1.0605499500529861e-001
      5.1218038496803071e-002 -1.2089532041860258e-002
      -5.2351800955020580e-002 -5.8768341091159436e-002
      -1.9335390002060807e-002 -1.4246392299629121e-001
      1.8275540379902571e-002 -4.6385061212577801e-002
      1.0051871923105199e-001 3.2048748334952040e-002
      4.5234111835990350e-003 -4.0156510161654391e-002
      -9.9495311994119248e-002 -1.0195971756070835e-001
      1.7552620173504122e-002 2.3930805673525270e-002
      -4.6089659479249201e-002 2.7585952063636721e-001
      5.7345512834013124e-002 -2.0099952401119656e-002
      -6.7256941276707782e-002 6.9905458685951771e-002
      -4.5614120336176798e-003 -1.1855789761325546e-001
      -1.9195198337654748e-002 5.1049201451323807e-002
      -8.3730571342197663e-002 1.6540271933972641e-002
      1.8426694930131764e-003 7.9210265942840891e-002
      -3.4556302407266197e-002 3.0729320191613240e-003
      5.8292539944495708e-002 5.3592551072245247e-002
      4.5111509172250201e-002 4.8788125724090213e-002
      1.0193102113670476e-001 -4.3323952514359831e-002
      -5.8089394524278110e-002 -1.1012755827421027e-001
      -1.1908356416600339e-002 8.1934737376736455e-002
      -5.4379650758313643e-002 -4.5173881759566659e-002
      -1.3090454941521332e-001 8.5196208642092264e-002
      3.8553446152485467e-002 8.9805599109977916e-002
      -7.1524996157275467e-003 2.2511579462466788e-003
      1.5757388116948462e-001 -1.6288281124225437e-002
      2.2274703415315758e-001 -3.8449645313862768e-003
      2.6298846544757903e-001 -2.5919140046411115e-002
      -1.4065842058145150e-001 -1.5960586710958005e-001
      -2.9756186157723458e-001 2.6012854594578583e-001
      1.4928655863168705e-001 5.4788044498450039e-002
      8.1391995739299172e-002 1.7155931450084547e-001
      -1.1458739473565396e-001 3.1811649829189631e-002
      -2.0157422105544703e-002 -1.0024766344057683e-001
      1.1546216296398680e-001 -1.3057514802143805e-001
      -2.7013660320389214e-002 -9.3837363842597769e-003
      -3.8288392066235861e-002 -1.0703682317501007e-001
      -2.4019060477493079e-001 1.4657393125633575e-003
      1.6799561149961784e-002 1.9187988655879128e-002
      -5.4015250692676861e-002 4.8584476698058784e-003
      1.5046351760331881e-003 2.0941487870151287e-001
      -5.3614310087479446e-002 9.0258439208241795e-002
      8.8624086081439346e-002 -2.8109520684545024e-002
      1.5523215365822812e-001 -7.5055635583560487e-002
      -8.1969328203083155e-002 7.2460677514704766e-002
      1.0022519216958098e-001 -1.9974633367951991e-001
      4.1676179322138511e-002 -3.0068284034748968e-002
      -3.1672320921769866e-002 5.6533539128046019e-002
      2.3892545598616758e-002 -2.9430960971964279e-002
      -1.7103483148434395e-001 -5.9606134600356818e-002
      3.1806049132230398e-003 -3.1338920843437174e-001
      -2.5735313583417391e-001 7.6601296531429788e-002
      -7.4589559045507750e-002 -1.4550649496218570e-002
      9.5505653418914288e-002 8.3923186609417347e-003
      1.0913478927248316e-001 -1.6168816467013089e-001
      2.2757253347710765e-001 1.0220147987725921e-001
      -8.9382224407174540e-002 -2.5709365826739095e-001
      -1.6394061018251457e-001 6.1455025176025718e-002
      1.4253774389597568e-001 4.4067336910509652e-002
      7.0003313636959963e-003 2.2019673087899250e-002
      -1.4124482113673362e-001 -1.1706138423340111e-001
      2.3445364199578803e-001 1.1708291506997243e-001
      7.9101459420126245e-004 -1.3022861941016955e-001
      -3.9037732713495511e-002 -6.7780441751241635e-002
      -1.5367606764168568e-001 -3.6691211513986834e-004
      4.8412788404655366e-001 5.6218082353225438e-002
      1.7998465175291738e-002 -5.6538385453149508e-002
      4.6102604151192772e-003 9.4598005760471102e-003
      7.6671511919439023e-002 1.1654053024087920e-003
      -1.6237102143058006e-002 4.7613174428438737e-002
      3.3277713287590480e-002 -2.8919089411198546e-002
      8.5447724790863891e-002 5.6847361328813635e-002
      1.9895854179706626e-002 1.0809470931387437e-001
      5.9237426311170557e-002 5.8040536804358146e-002
      4.1106024277342217e-002 -3.6918688605356950e-002
      9.3047418534390483e-002 5.7763300974273006e-002
      4.0349318627718379e-002 -6.7669240311642231e-002
      -2.2269091305188879e-002 3.2070266787121098e-002
      -2.2761256556928233e-002 6.7179753873830142e-002
      7.6520980921381723e-002 1.0590301492644316e-002
      1.2122053968881569e-001 -8.1994247062632947e-003
      7.1835722899902713e-002 -2.0152869037892072e-002
      -3.9377661245578469e-002 1.4207269177144283e-002
      -3.2797016373132641e-002 -1.1969574184355333e-001
      6.7926867248264203e-002 4.3363353422089856e-002
      -6.9224775274504366e-002 1.1409274089696003e-002
      -6.7820866646997269e-002 8.9498903326019619e-002
      -9.3228438668145897e-002 -3.7643761600598950e-002
      7.1356649594952026e-002 -1.2647381315673650e-001
      -1.0132621087647037e-001 1.7247759897649231e-002
      4.5101590501240872e-002 -2.5488344318762918e-002
      -5.0968184444276136e-002 4.5785764904707642e-002
      4.2487567663987121e-004 1.1782096287025733e-001
      3.9522982052311972e-002 1.6540928352449286e-001
      -8.4845050753535017e-002 -2.7921075743696813e-002
      -4.8455568460661645e-002 1.2070651652578448e-002
      -8.8259241736885277e-003 -1.7781953575694974e-002
      -1.0985956128808019e-001 -1.2047186492129519e-001
      5.4546540736624136e-003 -5.6030659098486632e-002
      -2.7176630695421992e-003 -2.6849052350956967e-002
      1.5371505672684145e-002 2.4456444900882952e-002
      4.3883755311985226e-002 -1.4900288649056282e-002
      -8.8285145960670858e-002 2.2915159126340189e-002
      7.4766386243679442e-002 -2.5235976993528545e-003
      2.7506907223088021e-002 -1.4016492819686793e-002
      -1.2277322639402451e-001 -2.2780950811887385e-002
      8.9132922209521043e-002 8.8821425701740966e-002
      8.3290381848448794e-004 8.5374772757618941e-002
      -1.5373311964185926e-001 -7.4308311303830490e-002
      -1.1865232974465346e-001 8.4500684616312174e-002
      1.0912332191799519e-002 3.4197743830115597e-002
      -3.8192350513756232e-002 -5.6110529724722727e-004
      -2.2311876943305404e-002 -1.0558631692784409e-001
      -7.7143643969576625e-002 -7.2837595765805341e-002
      2.0126856733935397e-002 1.8099538961147708e-002
      -1.1341898123040126e-001 -6.0713983098657165e-002
      -4.1408865487540983e-002 6.1605537577746894e-003
      -3.8820746385848023e-002 -6.2338962462108426e-002
      1.1093638050144785e-002 -8.1941196274895378e-002
      -8.8136319811256331e-002 3.2607136299155098e-002
      -5.8064522203495214e-002 4.2287661580044260e-002
      -9.4508756255305582e-002 3.0937664759623770e-002
      3.2249018798522343e-002 -6.6501213784153787e-002
      3.8225401589001416e-002 3.7390679438041807e-002
      6.9252534038875381e-003 1.5307368808082845e-002
      5.4189517433920628e-002 5.1585990467758712e-003
      9.5035008016893033e-002 -6.6417621045113864e-003
      9.8962085764970870e-002 7.8711621111946087e-002
      -8.3629483594228303e-003 -2.4989512778577951e-002
      -5.0831257843103481e-002 -3.7285930760453799e-002
      6.2821858745846254e-002 -1.1408145447193001e-001
      -4.4749562399561550e-002 -6.2082507751977517e-003
      -3.2943940903233992e-002 -6.7048048904061186e-002
      7.1702751053312738e-002 -1.0532863191389863e-001
      6.9899451975212468e-002 -1.0203893338811937e-001
      1.3452415335820916e-001 3.0626220715287589e-002
      -7.7717857309456739e-002 -6.7962692704198899e-002
      -8.9766132409093771e-002 1.3511745891312718e-001
      -4.4616964346609493e-002 -6.8911345722539926e-003
      -6.0899993897393499e-002 -6.8229152710070171e-002
      -7.0417800969931818e-002 -7.3218859150004742e-002
      5.7565358401460050e-002 5.1102219085178827e-002
      5.0722423375742356e-002 -1.2505948856392076e-002
      -8.9039420373623210e-002 -1.1680260293774246e-001
      -4.5706260330678622e-002 -4.4238376383544560e-002
      -2.1098788746759942e-001 2.7837730710522130e-003
      6.8085147259723797e-002 -3.0427858277001261e-002
      -8.7420863086763723e-002 8.3271607321659169e-002
      1.0784314841703738e-002 5.7134545749603735e-002
      2.8889226502520793e-002 -3.2933036233480782e-002
      -4.1709832098628510e-002 7.8431282729466298e-002
      -2.1089484646956411e-002 -8.4217066211523806e-003
      4.1588501821270927e-005 2.9320034824952688e-002
      7.6380528561439858e-003 1.5747315266094125e-001
      -4.7860703086294414e-002 4.0176836641344874e-002
      3.7337141150188512e-002 4.1239815909695790e-002
      3.6341595931143444e-002 -1.8814434834601639e-002
      3.6899068037529854e-002 -9.6680770404731831e-002
      -4.9207690408304701e-002 -1.2353580988220930e-002
      6.1786701396975924e-002 -1.8446684224636894e-002
      -6.9298189425261295e-002 2.7014254148757855e-002
      1.0788827510164495e-002 -1.9670116055729072e-002
      -2.4006134928110028e-002 4.3870482115219100e-002
      -9.0271247810170013e-002 9.4859326674837832e-002
      1.9909000822873269e-002 -1.1818504461287587e-002
      -8.9850289754689769e-002 7.4035563769864546e-002
      3.6215379876109810e-003 1.1912975420354516e-001
      -6.6852422120454056e-004 -2.8119278091412705e-002
      -4.4313008061499091e-002 -9.1107529216768221e-002
      -9.7003431314521507e-002 2.3775663848887362e-002
      8.6342948954110973e-002 7.0606827872599850e-003
      4.5166590048443270e-002 7.9704757267791693e-002
      5.2373215336283668e-002 3.4757273673934490e-002
      7.2697090059002489e-002 -4.3275260312006097e-002
      -1.2189291704188110e-001 -1.1389654615640968e-001
      9.8412687676932759e-002 1.3239217066326187e-002
      3.6207402271877152e-002 -4.4854071547420021e-002
      -1.0402191249755094e-001 -2.4159933227175846e-002
      4.2716767748718163e-003 -4.9448170981194535e-002
      -9.2877447826577211e-002 1.3764447490079086e-002
      -3.1529433161281574e-002 -5.2696161418913624e-002
      7.3410491341300774e-002 -2.2585043346132108e-002
      1.6522772839528486e-002 -3.7673164427241272e-002
      -5.9465735851089198e-002 6.5000789594230793e-002
      5.7791381721822799e-002 -9.0829270086823288e-002
      -1.3812396421798975e-001 -1.3537774599671896e-002
      1.1005789954915918e-001 -4.4747099697568106e-002
      8.2216020216615671e-002 -2.7872486166050481e-002
      -1.2210737055027282e-001 -4.2936013715165700e-002
      -1.3885404254092859e-001 9.8783015312736325e-002
      1.0449712978276483e-001 6.1721226911390974e-002
      2.3017356384964809e-002 4.2157534127456847e-002
      -1.3115641825306965e-001 -8.3113873004286853e-002
      9.4252753100940133e-003 -1.0765897635006907e-001
      7.7001223043866557e-002 -4.2754056944987393e-002
      2.2524491277310356e-002 5.9157304740327557e-002
      -6.8135313758965227e-002 -5.8472492767795902e-003
      -9.5052528955707524e-002 -6.7508059700883402e-002
      -2.5618896106274075e-002 -1.5316308641684354e-002
      4.0663697627914434e-002 -3.3634114520313292e-002
      2.2922782025495254e-002 -8.3794547764046226e-002
      -5.0579053897484384e-002 2.7965196494926528e-002
      4.3247104309423488e-002 -1.5863184059245090e-002
      8.0381213035100076e-003 5.4382978921561631e-002
      1.0977580684836417e-002 1.6440983413157757e-002
      1.6918103008412680e-001 -2.6766487895028168e-002
      1.2150028317698927e-001 -6.4000533828132936e-002
      -3.1292735562433581e-002 1.0399150475880617e-001
      8.6524414677320124e-002 -6.9670001180453633e-002
      -7.8113130526456340e-002 -4.7333149588841938e-002
      -6.8539786859747084e-002 -1.3816032218649765e-001
      -1.2408182684424601e-001 -2.4805895407371204e-002
      -2.7434392301288794e-002 -1.7840194005397075e-002
      1.2578932004052034e-003 -3.9359313573974979e-002
      4.1322376110514043e-002 -9.5665404802804138e-002
      9.3083315544659886e-002 2.8164221757402713e-002
      -1.6379417492089893e-001 5.7605461245957626e-003
      -7.2260907914253741e-002 6.0757489341399941e-002
      4.0595652568089042e-003 9.5877577462694555e-002
      -8.8524815874034282e-002 2.9032203291460959e-002
      3.0126472760383981e-003 -7.4822137203216746e-002
      1.1243491099118812e-001 1.3493196987165423e-001
      -2.8989550187748236e-003 -1.2457278261698240e-001
      -2.4908425492194335e-002 -1.2253557842479486e-001
      -8.4424435872540907e-002 4.3351605140181998e-003
      -2.0062612613895078e-001 2.5734400484531243e-002
      -1.5084906025588124e-002 -6.1052574594849023e-002
      3.4979029937713652e-002 -2.8107409898451154e-002
      -1.2661822263734099e-001 -1.0435381297266348e-001
      -1.0855615041405825e-001 1.8037294675846464e-002
      1.3354305642091352e-001 1.8050729348107829e-002
      -4.0802002169343524e-003 -1.2060097698221288e-001
      -6.0142930119889401e-002 -1.2265321991780800e-001
      -6.9168073266327498e-002 -5.5529778286836709e-002
      6.2515836157966020e-002 1.1491015217179551e-001
      -4.4842056846339268e-002 9.9186867170672793e-002
      -5.8932433059498759e-002 1.1725860092924685e-001
      -4.5257197111080096e-002 7.5301301962721084e-002
      -1.5133107599191075e-002 -4.6781642077121585e-002
      -8.3922841567148798e-002 -3.2270674361770071e-002
      -4.9562290517793331e-002 -5.7905566245525855e-002
      -1.7221612924497944e-002 -8.0573134423834722e-002
      -6.3341686171808964e-002 6.7390127110671758e-002
      -1.0755342206300565e-001 8.6224767998723750e-002
      -9.7597448714137697e-002 -2.1058141451765502e-003
      4.3630988225967025e-002 -1.0339813973084313e-002
      1.5815136538411759e-001 -3.6989198876304051e-002
      -4.9998541585829691e-002 1.2552994740876491e-001
      1.9463306573646760e-003 -7.4127977225988045e-002
      2.1224507132294356e-002 -2.2855678576989797e-002
      -6.8586511818756274e-002 -1.7907210505219266e-002
      -5.6182472593074670e-002 -9.2064598101732148e-002
      1.2585925413050010e-003 -1.3560919043570934e-002
      -4.6173282550752807e-002 -1.1902145994719684e-001
      -5.9175563035190143e-002 4.2011248646727749e-002
      -5.3060478819584242e-003 -7.8784451003444198e-003
      -7.3353456000921677e-002 3.8366520965561189e-003
      -2.8778425459670600e-002 4.7924948739956300e-002
      6.5407399818019477e-002 1.0719685124677318e-002
      8.9328375082466271e-002 7.5671790123100699e-002
      7.4248113496387699e-002 2.4462088241879901e-002
      -3.8777015257383515e-002 9.7365514200864339e-002
      3.4095824416198593e-002 -3.9170290339585599e-002
      -2.0944278926364645e-002 -1.5321119670856567e-001
      -6.0690961920630747e-002 4.6829216231468032e-002
      -6.8186794898468031e-002 4.3664653728387156e-003
      -9.2646839454659638e-002 2.7655513741780526e-002
      -5.3223612886712082e-002 -4.3741499813818918e-002
      7.6200661532759381e-002 9.0344449694414672e-002
      2.1338209032865366e-001 -1.5574282207273712e-001
      -5.9151565041065279e-002 1.6212176025056199e-001
      -9.6799972600727577e-003 -5.9256634941237028e-002
      1.8672757686615166e-002 7.0260588794303816e-002
      -1.1804582719302266e-001 2.2784458388463633e-001
      -4.2254368389843922e-002 7.8401800709796729e-002
      -5.1730887331597745e-002 5.7600967362705612e-002
      6.4754336430066797e-002 6.0127444499373045e-002
      7.0249361904792126e-002 2.5706468531354009e-002
      -1.2978149503164285e-001 -3.5079971002438981e-002
      1.8710518343578200e-002 -1.3470174162409185e-002
      -1.4049732009204932e-001 6.6909619963207309e-002
      9.3612605788312570e-002 -7.0674775468414136e-002
      -1.7999042468415546e-001 1.0842193624736225e-001
      -1.5626230301993674e-001 4.1492223850366217e-002
      -7.6291811749181898e-003 -1.8343780065641711e-002
