<?xml version="1.0"?>
<opencv_storage>
<ANN type_id="opencv-ml-ann-mlp">
  <layer_sizes type_id="opencv-matrix">
    <rows>1</rows>
    <cols>3</cols>
    <dt>i</dt>
    <data>
      50 80 6</data></layer_sizes>
  <activation_function>SIGMOID_SYM</activation_function>
  <f_param1>5.9999999999999998e-001</f_param1>
  <f_param2>1.</f_param2>
  <min_val>-9.4999999999999996e-001</min_val>
  <max_val>9.4999999999999996e-001</max_val>
  <min_val1>-9.7999999999999998e-001</min_val1>
  <max_val1>9.7999999999999998e-001</max_val1>
  <training_params>
    <train_method>BACKPROP</train_method>
    <dw_scale>1.0000000000000001e-001</dw_scale>
    <moment_scale>1.0000000000000001e-001</moment_scale>
    <term_criteria><epsilon>9.9999997473787516e-005</epsilon>
      <iterations>1000</iterations></term_criteria></training_params>
  <input_scale>
    1.0276719633130506e+002 -2.0115511574980909e+000
    9.9351462646233585e+001 -1.9980299986878249e+000
    7.5628183241198741e+001 -1.6653519026749175e+000
    1.2757654617369796e+002 -1.7238554201464935e+000
    5.8003807085961171e+001 -1.4770327404436596e+000
    9.1358018292842999e+001 -1.5254705851315102e+000
    1.0489853645673755e+002 -1.7341321236385820e+000
    1.2817521907815532e+002 -1.6574018853619690e+000
    6.0629216157935048e+001 -2.1306079638379405e+000
    1.4156364225072878e+002 -1.5617511626090750e+000
    3.1563013424640182e+001 -1.2820969215031606e+000
    7.6253282841142564e+001 -2.5189160417990610e+000
    9.9824227353332233e+001 -1.5292554430634040e+000
    8.5557266342406692e+001 -1.0908541519097723e+000
    3.8131742295073437e+001 -9.9236732946720230e-001
    9.6694014275060184e+001 -1.9237804662562890e+000
    1.0974809775752865e+002 -1.5862186999708812e+000
    1.4080925368632504e+002 -1.9909158854826154e+000
    4.3665605244078670e+001 -1.0407977003120996e+000
    9.1358967294951867e+001 -2.4011577837647140e+000
    1.2888621382863167e+002 -1.9966150525466659e+000
    5.7068216570482285e+001 -1.7956159921074339e+000
    9.1461778785512251e+001 -2.7974031390177219e+000
    1.0281900828566232e+002 -1.8857416927274857e+000
    5.2498101825914112e+001 -2.2105605348107558e+000
    1.0178260533922671e+002 -1.7596139245414986e+000
    8.2373806385541215e+001 -2.4087996010970016e+000
    9.8856282052839745e+001 -2.1553877103997992e+000
    1.0570248005102076e+002 -2.0919341220704908e+000
    1.1561341050889180e+002 -1.8580491634321230e+000
    6.3845561925518069e+001 -1.4419697210876083e+000
    1.4840658488606402e+002 -2.0178608524588304e+000
    1.1266391225962563e+002 -1.9730341425423261e+000
    7.2565666879490678e+001 -1.7994784290512238e+000
    1.8012333186345782e+002 -1.4259841491056038e+000
    9.0066235249409416e+001 -1.4391317648951822e+000
    1.2108475500535691e+002 -1.7285350669280246e+000
    1.1314270439694037e+002 -1.8660073529974626e+000
    7.7981293497600518e+001 -1.5464252072653291e+000
    5.7675289316054247e+001 -1.2058300670559383e+000
    1.2267777556588518e+002 -1.5948694850486820e+000
    9.4148021332983888e+001 -1.6373532765804615e+000
    1.2888803919922194e+002 -1.6733530808039105e+000
    1.2487721188027466e+002 -1.8711807219570880e+000
    5.9448035557126460e+001 -1.1285397835109796e+000
    5.0164697224889728e+001 -1.1937112884969425e+000
    1.2617286369191220e+002 -1.5488416778261942e+000
    1.0250592629610315e+002 -1.4787557474292214e+000
    1.0100992763405223e+002 -2.0480425992488880e+000
    9.2524601364068360e+001 -1.5207860819187424e+000</input_scale>
  <output_scale>
    5.2631578947368418e-001 4.9999999999999994e-001
    5.2631578947368418e-001 4.9999999999999994e-001
    5.2631578947368418e-001 4.9999999999999994e-001
    5.2631578947368418e-001 4.9999999999999994e-001
    5.2631578947368418e-001 4.9999999999999994e-001
    5.2631578947368418e-001 4.9999999999999994e-001</output_scale>
  <inv_output_scale>
    1.8999999999999999e+000 -9.4999999999999996e-001
    1.8999999999999999e+000 -9.4999999999999996e-001
    1.8999999999999999e+000 -9.4999999999999996e-001
    1.8999999999999999e+000 -9.4999999999999996e-001
    1.8999999999999999e+000 -9.4999999999999996e-001
    1.8999999999999999e+000 -9.4999999999999996e-001</inv_output_scale>
  <weights>
    <_>
      -2.2314776188182734e+000 -3.5760219202328131e-001
      7.4981966788641399e-002 4.6390641612358641e-001
      1.3929924039938502e-001 4.0876894516610607e-001
      4.6787269275431975e-002 3.9842997071469460e-002
      -6.3599928705593489e-001 -1.2246943891038964e+000
      3.0177765531286310e-001 -3.2413057268918682e-001
      3.4832427047293280e-001 -1.5731273352464831e-001
      -4.8721931623957992e-001 -8.8617947620848225e-001
      8.5862486019976436e-001 1.0031091423442454e-001
      3.7253934103655090e-001 -1.0211204161470458e-001
      -9.6723883959088575e-001 3.2738999610161044e-002
      7.9530543290180378e-001 -3.4156706111998014e-001
      -8.5561462685631945e-002 -9.4252842734862896e-001
      1.9997835644493828e-001 -2.0268511389955890e+000
      -1.6152361468175938e-001 4.3881068382989213e-001
      3.7379591253210637e-001 9.1889590972237575e-002
      9.7055500490589489e-002 -1.4491611854340916e-001
      6.8472332979001704e-001 -3.4125226540981490e-001
      -1.2067952916493605e+000 -3.5251680595406676e-001
      5.4518042831056057e-001 1.9233708773502298e-001
      2.0111649983506292e+000 1.2824296866666840e-001
      -5.9839197637437613e-001 4.9767863468303059e-001
      -8.8882199055968281e-001 -2.2871169993138202e-001
      -1.0354781310203563e-002 1.8814447979084714e-001
      -1.8249986391788719e-002 -3.2179100236356277e-002
      -1.8843653239551872e-001 5.9068652194769167e-001
      -3.3310313282893494e-001 4.8526940262704721e-001
      -6.1249970985451561e-002 4.1391558760755010e-001
      -2.3209248484325273e-001 2.1552973140533702e-001
      -1.3801630914381088e-001 -1.5336497751773120e-001
      4.4667947332096208e-001 5.9194540736192947e-001
      -5.4126526641845785e-001 1.2243973249463271e+000
      -1.1301722189200041e-001 -1.3013335898727503e+000
      1.3758896275056565e-001 2.4561787975535130e-002
      6.1116054281463626e-002 3.3528237932655813e-001
      -3.8940810723890318e-001 4.4465592214209355e-003
      -9.3212779144672531e-001 -6.2338650996408873e-001
      4.7946139332610738e-001 -5.3771445782237004e-001
      -3.3717306566834443e-002 -4.6700304977630530e-002
      -5.3484305248792308e-001 -3.5161757372061281e-001
      1.4472832263951509e+000 1.1025315676098306e+000
      -3.6310955474221984e-001 -9.8475615590678342e-002
      3.4841263064635342e-001 -5.3353684200882434e-001
      1.1882728402972784e-001 -8.0233217756034103e-001
      -3.9281641314160176e-001 2.7882102873199005e-001
      1.0806635210127260e+000 6.1320115018183408e-001
      2.8004697506971316e-001 -1.6939018111919116e-001
      -3.2334784131893940e-001 8.2104995187219854e-001
      2.4309238308473574e-001 -1.1144125595105367e-001
      -6.9304887603190801e-001 1.8035665482803195e-001
      4.1960310810973817e-001 1.9018426785858197e-001
      -6.8528573254002145e-001 6.2812900312546971e-001
      -7.1406063872078041e-001 1.3853329249856000e-001
      6.1484331223005706e-001 1.2883340539704380e+000
      1.5537415961608164e-001 3.7176841027953206e-001
      -5.5633121366240179e-001 7.4024724622773364e-001
      -4.1642488830584648e-002 -1.0098327330892384e-001
      -8.3994214384982835e-001 6.5157786909848092e-001
      7.1324507680564964e-001 -2.2537494286791268e-001
      3.5373900028022286e-002 1.7027197076450451e-001
      -9.6331974683161548e-001 -1.8338942008107595e-001
      4.6657452124125642e-001 -1.0683176585984249e+000
      -5.4141290647049214e-002 4.7995525794563132e-001
      7.4172158760924423e-001 2.3908259884174299e-001
      -1.2275738205927713e+000 -5.4331562758071006e-001
      -5.2012352849291299e-001 -1.8448151611703412e-001
      -8.2011648732153913e-002 2.0265314605209514e-001
      -3.0882491191604511e-001 -8.2184254515184585e-001
      -1.5049718013885527e-001 -1.3073300413990224e-001
      -3.0652821476710679e-001 6.7210828296445213e-001
      1.1063619377004172e-001 -1.1270162519131483e-002
      2.8589452302211271e-001 -6.9088590773111147e-001
      4.0829582092527200e-001 -7.8297480490224347e-001
      5.5943189877307142e-001 -1.4297769253445997e-001
      -1.9186329838527955e-001 2.6147042526123730e-002
      2.1805960227936511e-001 7.6873025102441495e-001
      7.9734776240215377e-001 -5.9271060977670764e-001
      1.1950109225239363e+000 -3.9584825479054125e-001
      -1.0023357738636014e+000 8.0365169855489735e-002
      2.1788717224619053e-001 4.3956005309364304e-002
      -1.3738035982270189e+000 4.3275246765377334e-001
      8.4051721136763735e-001 3.9087069274343378e-001
      2.5026316651618508e-001 -3.9142559974046393e-002
      2.8381482541901537e-001 1.0445152357146341e+000
      -6.5102179962406936e-001 -3.0180832123541523e-001
      3.8044634287297763e-002 1.0078220852023783e+000
      -5.3779838769083446e-002 6.0220387739603738e-004
      1.2681714133080382e+000 1.0269522143629972e-001
      4.2047333479719468e-001 9.2315905854862756e-001
      -8.5537518952676672e-001 3.2105560036831043e-002
      6.7532443226864225e-001 8.5433892474071482e-001
      3.7810728116797343e-001 -4.5795262949567062e-001
      6.3938854026957803e-001 -1.9181435564724089e-001
      -1.4379931412740662e-001 1.2704130506628372e-001
      -4.0540156772680647e-001 -2.4044081520834476e-001
      -3.1255770602898703e-001 -1.0418692451860631e-002
      -9.6690082974159014e-002 -1.0392661906933587e-001
      3.3380866655217090e-001 -6.0682241503023138e-001
      -4.3800519567447259e-002 1.4829659932150343e+000
      1.6138685036376368e+000 -1.1251526600049958e-001
      2.8631389218056036e-001 -1.3281494552590614e-001
      3.9851446299869225e-001 5.2150027460411175e-001
      7.1672642607275919e-002 -2.4493533167865414e-001
      -1.6871716349164340e-001 3.1461065264424201e-002
      1.2769924713901368e-001 8.4983611813923543e-001
      -1.9159622084045924e-001 -6.0978993198699094e-001
      1.0097504831179680e+000 7.8255601471983971e-001
      1.8868274736734167e-001 3.0249232186248354e-002
      -9.6773149360693700e-002 1.2589580797974540e-002
      4.9697082832418860e-002 -2.7224025159460563e-001
      -3.4450959215847726e-001 2.1914697993838733e-001
      -7.0439766799724812e-001 1.9462823435734783e-001
      3.2743603409272032e-001 -7.9634880532464081e-001
      6.7356868304878914e-001 -6.7312441124366418e-001
      3.3499024827948221e-001 -5.3990677062328563e-001
      -1.9008169295909039e-001 -4.8146618701180095e-002
      -3.9448192725510800e-001 2.5874922081451850e-002
      -4.7150430673046717e-001 -4.2449110360960335e-001
      -2.4526200929776337e-001 7.7766351315964974e-002
      -1.8465357605425197e+000 6.9255994014293143e-001
      1.9326591243389986e+000 2.6815684374016158e-001
      3.1483538673305694e-001 -1.0531392020644079e-001
      3.3402524972361752e-001 -8.0040005205740505e-001
      9.2862074699937541e-002 -3.4090629331565792e-001
      -4.1774428939457925e-001 -1.4931429603532789e-002
      -4.3601865831575687e-001 -1.3457680017500842e-001
      4.0007285462239611e-001 -2.3678036127855834e-001
      4.1055225736202244e-001 1.6330701224879727e+000
      7.7934847218614844e-001 2.5820897411705301e-001
      5.9336253252902371e-001 -1.5745568248495481e-001
      6.5036187787859856e-001 4.9511278742436826e-002
      4.7795905859165833e-001 -8.3142835185866404e-001
      -2.7587198759139914e-001 3.0383901787822698e-001
      2.1030602085010816e-001 5.9528960173271295e-001
      -1.1999364728774742e+000 5.6683917971195708e-001
      -9.8558669675341193e-001 3.2321749767846464e-001
      3.3268292828183726e-001 7.8796239541633131e-003
      3.2604154021229390e-002 1.0066643758975606e+000
      -1.8084002209772690e-001 4.3263349689672903e-001
      1.0391840175648051e+000 4.7454996010568962e-001
      1.2827301309474535e+000 -3.4474136791796350e-001
      4.5753258706577488e-001 1.7875450576234159e-001
      -7.0835043447315016e-001 3.2316233921040022e-002
      -5.2137605608399729e-001 -2.7052945307878412e-001
      -3.1229587791724955e-001 -3.8994965245699859e-001
      1.1513204228368823e+000 -5.0470998873734241e-001
      1.6077354630495339e-001 8.3340294261531334e-002
      1.6273912943581700e-001 -4.5764222972370944e-001
      -1.0399206640590243e-001 1.3548112653678901e+000
      -1.2566156429031200e-001 -5.4825879344075783e-002
      2.1404057865620982e-001 5.1500136481483338e-001
      -1.3332096025125004e+000 -1.3931267052639689e+000
      5.6373397395526742e-002 -5.5575694240370832e-001
      8.0074600531540741e-001 9.3098838544877160e-001
      4.0421388760610533e-001 7.5375737410808177e-002
      9.1510539874487540e-001 2.5354095633735074e-001
      1.1189685564481269e+000 -6.1446198846753147e-002
      -4.5388494827701395e-002 -4.4678217988142660e-001
      -2.0599846946714626e-001 -6.4658247196485691e-002
      -8.0368709125431381e-001 8.5184056739574077e-001
      1.4069269480634472e+000 -2.6178409392890959e-002
      -4.3105379418350842e-001 -3.9653380057703143e-002
      7.3418727426852404e-001 -3.9440791036289541e-001
      -2.1380124212230434e-001 -1.3319096414681144e+000
      3.3973943640637705e-001 -6.1698097498790894e-001
      6.4464273329534627e-001 3.5108091980306216e-001
      2.0510242367674583e-001 -1.0618268402867403e-002
      -5.2018944321665084e-001 -3.4995031060107951e-001
      -1.2911261154203124e+000 1.2801503495192521e-001
      1.2551177135881791e-001 -8.6159159463049306e-002
      -4.3837220212961459e-001 -5.9649326677076864e-001
      5.7999381495209357e-001 1.3979505787862823e-001
      1.0739634251661012e-001 -2.4431824003310099e-001
      8.6298265747462369e-002 3.1672771837643554e-001
      6.2750224350637995e-001 8.2446558424183236e-001
      1.0944637075177906e-001 5.2731683831119633e-002
      2.0291731789765674e-001 -1.3020835981222356e-001
      3.9104209321965494e-001 2.0325604108857306e-001
      1.0330466278525267e-002 3.2637419707661586e-001
      -4.4802622349400323e-001 1.6259832903667809e-001
      -3.9491696809142281e-002 -5.1893504576384593e-002
      1.3226145684078249e-002 -7.5353218181396275e-001
      -3.7780877166575721e-001 -1.3054347174241978e+000
      2.0466436439757416e-003 5.4753645329863918e-002
      -6.3600402428866454e-001 -6.8255129082902588e-001
      2.7907421346065386e-001 2.3338546985283629e-001
      -2.9976829930206572e-001 3.2514501125530254e-002
      -1.8160836000463162e-001 -3.7757829009305355e-001
      7.1349916822004145e-002 1.2448537430265851e+000
      2.8377065103494903e-001 5.6698950587268693e-001
      5.7607105414261284e-002 6.4043618625345536e-002
      7.8067684308259777e-001 -7.5108844394214114e-001
      -2.5873378107167661e-001 -7.7850058998661709e-001
      6.2853505199563131e-001 -5.1964796591078921e-001
      2.8879448318663459e-002 7.6752435141525799e-001
      -9.7240784880649120e-002 1.6070448055973721e-001
      -1.0458918026116433e+000 -1.4849445371981773e-001
      4.9442881681309597e-001 -7.2466687320410050e-001
      6.8728878484915412e-001 -2.4758423228545076e-001
      9.7219406202646519e-001 -4.1229562777111728e-001
      -4.7648617700381368e-001 -2.9434196807346513e-001
      5.4838293633962309e-001 -3.6474750000969508e-001
      -2.4972055157220521e-002 1.0604190185942695e+000
      2.8208933974796546e-001 4.3327817533354002e-001
      -1.7366411465882217e-003 -5.1119995469672808e-001
      -1.1025321277912534e+000 3.4023359531080943e-001
      -7.1955794647197896e-002 -4.0133778004859333e-001
      1.9931152033164502e-003 2.3613120457245784e-001
      -3.0552021271442847e-001 -5.4525505291156862e-001
      5.7169214639918808e-001 -2.1066236851527381e-001
      -3.3762733224719160e-001 -2.3298760809647431e-001
      -3.3063944375642124e-001 -5.0787512087332287e-001
      -1.1098821421817807e-001 9.0181483020892683e-001
      -2.4097928464232377e-001 7.2156664933843739e-001
      5.0074522699027468e-001 -1.0200731919555282e-001
      -3.4199398706221090e-001 -9.8899925073410694e-002
      1.6679387451721237e-002 8.8463626118031376e-003
      -1.7628183532765535e-001 3.3851201705249118e-001
      7.6107127207463854e-001 -6.7187083854199012e-002
      9.5804221892851849e-001 -7.0115597417782380e-002
      5.1688313085946647e-001 -6.4132855789286194e-002
      9.3906892288078733e-002 7.8705210198737929e-001
      3.9428083776116363e-001 -3.1456184701819395e-001
      -2.7771786308062735e-001 -1.6562502650304420e-001
      3.3272660809238724e-001 2.8029862007281836e-001
      -3.8902933851615168e-003 6.0863276333097349e-001
      7.0908716686826112e-001 -1.4814427308104680e-001
      2.1800490984720031e-001 4.0027101979398205e-001
      -8.4993176142340726e-002 -4.6621470439970564e-001
      -2.0778205842589337e-001 1.5530259225936077e-001
      1.0077885917742918e-001 3.6282963198172419e-001
      -5.7193155541408314e-001 -5.6988871743400482e-001
      2.3925530284210203e-001 1.4894198674791470e-001
      -7.0166362443959140e-001 2.5771496466826077e-001
      -4.7824806755342802e-001 -8.1303343099909775e-002
      9.1373152724488393e-001 -2.2359782466125819e-001
      1.1349854287278731e+000 9.2699307280518239e-001
      7.5368500115751358e-001 3.7377980496462498e-001
      9.8304096696268828e-002 -7.0004327701149893e-002
      -1.0498512139332619e+000 -2.9774924452827195e-001
      -9.5434544151743919e-002 -1.3167894139809275e-001
      2.3924489623078967e-003 3.1700127564745412e-001
      -9.1256485288649236e-001 -1.3563762731470117e+000
      2.1345545808306121e-001 -1.9018315832998683e-001
      -5.2134309361774755e-001 4.0781519264433236e-001
      4.6234434688772913e-001 6.3098625985375945e-001
      -2.4359465065408090e-001 4.5467495863274732e-001
      6.6065175905662488e-001 -8.4109433853116911e-001
      6.0248014847665199e-001 9.6659311793041469e-001
      3.3348533746599608e-002 -3.5686503197311037e-001
      4.6977726742624276e-001 1.9084664037393204e-001
      -6.1319214675948296e-004 -6.2804511267924079e-001
      6.1552395443581764e-002 9.2718294107337215e-002
      3.0706784764468205e-002 -1.4687545436907756e+000
      -3.3378805765243641e-001 7.1486289763048338e-001
      6.1440169458433513e-001 -1.2819694875615195e-001
      2.9343037277019762e-001 -7.0205232539279905e-002
      5.7954815647431324e-001 -2.1178629323775237e-002
      -1.4492702325572551e+000 6.5523644394556391e-001
      8.1565462827535717e-001 1.5377443850563707e-001
      -1.7386536172967143e-001 3.3435290909918253e-001
      1.3816704085333292e-001 -2.8889997426091601e-001
      -8.6484492823394687e-001 -6.2638876188510262e-001
      2.2505270354929308e-001 -5.3582753137229810e-001
      -1.7357021564113637e-001 -8.1666486053608733e-001
      1.2851067787858723e+000 6.2756917271506152e-001
      -1.3203139797093337e+000 -3.7360142630958554e-001
      1.8315788219526460e-001 -1.0248055802075215e+000
      -9.5933574193245025e-002 9.5517444889532310e-001
      -4.4380278455720357e-001 6.7017618533252965e-001
      -1.8983538490092169e-002 -3.8859711108400419e-001
      5.2435059294622099e-001 1.9108235352696679e+000
      1.9793177817040725e-001 -9.7385858195923458e-001
      2.0387380421480197e+000 8.8786986914633853e-002
      5.2182083618161201e-001 7.8094812872653185e-001
      1.8400377646241688e+000 1.4564264282734588e-001
      2.3485911667032128e-001 -9.0604674598264778e-001
      -2.0577580506369253e-001 -9.7857866570988372e-001
      3.2491974426297787e-001 4.7750026524563399e-001
      -1.8696352501264486e+000 7.3881536309142526e-001
      1.6999853495475263e+000 -1.4541749950921226e+000
      -1.1410541538677970e+000 -1.0755931806476506e-001
      -6.3607729297977045e-001 -9.3250278779541729e-002
      -6.8958483032443862e-001 -1.2035198788522912e+000
      4.9540642917926364e-001 -3.4406901008496693e-001
      -3.6869825791627314e-001 -1.8036286798811694e+000
      -6.8599907163347473e-001 1.9686075642781350e-001
      -4.6294430587984564e-001 -9.2499169009985882e-001
      -1.7717790461444394e-001 -4.8263627726766384e-001
      2.3933474375336844e-001 -6.7627804501695060e-002
      4.1734044078909766e-001 -2.4111008811507809e-001
      3.0070356156049188e-001 2.4122048566401647e-001
      3.3968071531901461e-001 2.6771582334472832e-001
      -3.5273673115888748e-002 5.0465263367366675e-001
      2.5156334370489458e-001 -3.5268892982897732e-001
      -3.2117383200837131e-002 2.9780201353089192e-001
      3.4868487788765246e-001 1.5842478477362881e-001
      2.9755143271918836e-002 2.2309321314331028e-003
      9.9506790900388234e-002 8.9805746893313179e-002
      -4.8542996630906127e-001 1.5805926850345220e-001
      7.7243338646562731e-001 7.3830889881867187e-002
      -2.9505315950016231e-001 5.5857332197718534e-001
      5.4145014216367315e-001 1.4271274242628093e-001
      -3.2025475689696131e-001 2.4474258221590503e-001
      2.5894016191497810e-001 2.5007157512125733e-001
      2.1422550067865180e+000 -7.3159024396703953e-001
      1.2509405386155428e+000 1.2241790136751182e-001
      6.8613493900484501e-001 -1.0554310695609475e+000
      1.4503082027432559e-001 7.7009243597359178e-001
      5.5601542471949217e-001 4.0594629577379115e-001
      3.6056264330516868e-001 8.3604974584455349e-001
      6.6384597627190914e-002 -4.6429082701647789e-001
      3.6451394755655353e-001 -5.3079034458721330e-001
      -4.1041196063855345e-001 -8.9782333514953427e-001
      2.8959610956189741e-001 1.3589548082299599e-001
      9.4935754063208722e-001 -6.1306396465849566e-001
      3.5275128331399264e-001 -4.9416952978233813e-002
      5.0943465785462561e-001 6.7344002414363183e-002
      2.5985199272800175e-001 5.3858109060899739e-001
      -5.8300804439002918e-001 -1.0817061192902782e+000
      2.6135551670959939e-001 7.6874081042253661e-001
      5.5750429966876824e-001 1.6090119521473259e-001
      -8.2698229345812635e-001 -2.7969387052465322e-001
      2.4566000544116950e-001 8.7112432852606936e-001
      3.6638811093660746e-002 -7.3775328343108668e-002
      -5.9012425489821085e-001 -2.2259880559380552e+000
      -1.0323956462625347e-001 -4.5153114219488776e-002
      -7.0754203702543955e-002 8.8187681485570535e-001
      -7.2323695506799823e-001 -5.9425962560115198e-001
      1.1496020341290127e+000 3.6416117795913729e-002
      -9.3424562775684294e-001 6.0341845540847516e-001
      1.1380116231353105e-001 -2.1378978790075606e-001
      6.0372539294817773e-001 -9.5801713182986137e-002
      2.8701161831808153e-001 -1.2462892283261763e-001
      1.9886342928876588e+000 6.2051339027643382e-001
      -2.7560602813461188e-001 1.2825557819080646e-001
      -2.5046700223423268e-001 2.3502035899004675e-001
      4.4084181659094041e-001 7.1652731039872664e-001
      -8.9446909140599007e-001 -5.1798660761898663e-001
      1.0233802123745175e+000 6.6614669268561563e-002
      2.4553767147236587e+000 -9.9298215256261674e-002
      7.0520011497529778e-001 1.8244785566425045e-001
      -3.5539652834767349e-001 -5.0946973461241878e-002
      -1.4705263610159536e-001 -6.4788141849880876e-001
      -7.5525149755280341e-001 -4.9059315840358921e-002
      1.0228693785449909e-001 -5.0645541882897493e-001
      2.4665512970614318e+000 -1.2191163726283455e-001
      -4.8527602413135379e-001 4.5843621402955698e-001
      -3.9655789285166909e-001 -9.1754532826150492e-001
      4.8924188622793983e-002 -5.4955460836156211e-001
      -8.2851913092975120e-003 -1.0719101380841156e+000
      -5.9663113986031402e-001 7.8656341082551307e-001
      -1.3298828113207747e-001 7.7782177491655502e-001
      5.4423087381991408e-001 1.5985534925078206e+000
      2.1577083286639270e-001 -3.0208963664529132e-001
      1.0417101329599323e+000 5.5477129350914534e-001
      1.0759272755011611e+000 -9.8088450684320128e-001
      8.1548982276710535e-002 4.5747582498388356e-001
      1.6879466914712618e-001 4.0484469415011581e-001
      -1.1028008878069253e+000 1.0599970306216433e+000
      1.3971952122196996e+000 -5.3450793369789973e-001
      -3.4163038422301750e-001 4.1701723350248437e-001
      -1.6486680519520732e-002 -5.8003904340045798e-001
      -2.1738795678495540e-001 1.5688389843900941e+000
      3.1744478054412217e-001 -3.3556972469216528e-001
      2.7591786726534678e-001 7.2486322806517622e-001
      2.7923252058946468e-001 -2.4085037770894419e-001
      -7.6761578944760700e-001 3.1859809631316688e-001
      -1.7361510498082902e-001 2.7826973204594824e-001
      7.7104602568418978e-001 -3.5209661555381089e-001
      -5.3989789297632040e-002 -7.6290727342112630e-001
      -1.6463602016060230e-001 2.4563802726916528e-001
      4.5797109345932452e-002 8.3897372453248831e-001
      6.4116792335580219e-001 8.8884721637491670e-001
      -5.9592061703964483e-001 4.0987017529824621e-001
      -6.9437815472592623e-001 -1.2235568843165852e-002
      -5.8090716336498399e-002 2.0221891833423913e-001
      5.1966687206958662e-001 -9.6217732703406400e-001
      -6.7455536413853900e-001 -1.0880373815431528e-001
      4.9369915402815095e-001 1.9587561496068573e-001
      -3.2903832077018630e-001 4.3986347235045360e-002
      -9.7291239448726752e-001 6.2958661413018857e-001
      -6.4215033599823468e-001 -2.5586196730085670e-001
      4.0147390744283357e-001 7.5425086836665034e-001
      5.4462915779675547e-001 1.0955328848356845e+000
      -2.5766142013023161e-002 4.4962075852251565e-001
      -8.5988812074323506e-001 1.6716763871099544e-001
      4.0252474213651457e-001 2.3360176416042294e-001
      6.1613833504120405e-002 -7.2919732013991334e-001
      1.3180787322497267e-001 6.4159964942419867e-001
      -6.5187186503412053e-001 1.2663449003115912e+000
      -1.3275155388775626e+000 -3.0150114446250981e-001
      1.0821013041280973e-001 -1.0436294034531663e+000
      8.2778968557207233e-002 2.2625799850901931e-001
      4.3341791254077673e-002 -2.2681404809135822e-001
      1.4666666307604390e-001 -5.5698943565610348e-001
      3.5775343310379931e-001 -5.1260782972597130e-001
      8.7300926498730669e-002 -2.0893886309706206e-001
      -4.5306661944196197e-001 6.3093919569155707e-002
      1.4464837510027345e-001 -7.3412294119298149e-001
      2.2254232573445027e+000 1.0451232961859740e+000
      8.4424634389030628e-001 -6.7221753010799290e-001
      -2.8934041979606717e-001 -8.8171735317280592e-002
      1.1431329703607247e-001 -4.3839033727094386e-003
      -1.1781882243781820e-001 4.5790043140799369e-001
      9.1564519341377582e-001 -1.5473897292021155e+000
      -3.9880528335930499e-001 4.7710591408115099e-001
      -1.7642476997997111e-001 1.5466227522946974e+000
      -3.9749984532945187e-001 -2.7157887868818853e-001
      -1.2252109577158037e+000 1.1308132332230970e-001
      -4.8572243458389880e-001 1.1787624259554275e+000
      -3.1462099459291332e-001 7.0095038934084208e-001
      4.9834774930080239e-001 1.3353740093570461e+000
      3.6875101441656033e-001 -1.1387375476500474e-002
      -8.1527469901202154e-001 4.5553278584647106e-001
      -3.2332935450213991e-002 2.1287805550875502e-001
      2.3298242974069964e-002 -9.6087474361541095e-002
      -6.0432755830584539e-001 2.5076875315735010e-002
      1.1348097972849760e+000 6.6267944555693548e-001
      -1.1245441696668197e+000 1.6094766331571653e-001
      6.7804992356237059e-001 8.2171725963186656e-002
      -1.4006914293159076e-001 3.1398013187898616e-001
      7.2182986296226193e-001 -2.4740837542588234e-001
      1.0421350038446260e+000 5.4244733013676405e-001
      -7.0578897118954165e-001 1.0991343367248223e+000
      -1.2369091202678071e+000 -1.3785873893850609e+000
      -1.7188565966287905e+000 -1.5888240693839537e-001
      8.2195453063014720e-002 9.4946487082524633e-001
      1.3226428399663587e-001 1.0890990818350241e-001
      -6.8138490007946972e-002 1.4061231990400078e-001
      2.1167890195135314e-001 -3.8930506631129562e-002
      -3.5097999563644025e-002 -5.8546846599568891e-001
      -6.6590422412994965e-001 -3.8831679399123374e-002
      -1.1313248482530780e-001 -9.8156778942489664e-001
      -6.1980830854219748e-001 7.6013493587648340e-001
      -2.0948625745716987e-001 -2.2337602839318962e-001
      -1.0784844896182784e+000 8.9400069046304598e-001
      1.3478062525294790e-001 2.2546641295849285e-001
      -4.4078420764744142e-001 -1.4213244678164763e-001
      -1.6702944605292878e+000 1.5142822589893312e+000
      2.3769740738120904e+000 -1.1088847779816324e+000
      -9.6130103042301740e-001 -5.7690373380786164e-001
      5.3118984969498162e-001 -2.1768896506285976e-001
      -5.7473841996467420e-002 -1.4570574342499181e+000
      -2.7955851068850535e-001 5.5203677380408478e-001
      -1.4867969842218696e+000 1.7248209531773560e+000
      -6.0336199465620732e-001 -3.6584815071535820e-001
      1.6092410401318833e+000 -8.6519105895468629e-002
      1.1131369273186474e-001 1.4686059215104155e+000
      -1.7552378926833940e+000 3.2408215082788250e-001
      4.2255571596776215e-001 -1.1809303272440865e+000
      -1.9443773481640197e-002 -5.7269800092285850e-001
      -1.2711736490990515e+000 1.2265689184830477e+000
      -1.2174477160939409e-001 5.9045213191990664e-001
      -5.5683983712361407e-001 -8.3107593184797490e-001
      3.7987567368164132e-001 4.5621630723369527e-001
      -9.5106776445390839e-003 3.2351111666988852e-001
      -3.3143613883857037e-001 -2.2291969791869526e-001
      7.0561470099446066e-001 -1.2311372385102453e+000
      1.4960014870189808e-001 2.9819752414145945e-001
      2.5799211602976907e-001 -2.0645336585630500e-001
      8.3234020994516142e-002 -1.0103397397743636e+000
      5.5516270770233722e-001 -1.3086471527818133e+000
      -1.2623950145047830e-001 1.1462515214953693e-001
      2.7502125817567191e-001 -4.5073858007483358e-001
      1.3149893662022221e+000 4.9793596049108091e-001
      -2.5117727714550875e-001 -8.1925802346966725e-001
      -1.1124683353227371e-001 -1.5169841231790051e+000
      1.8561816888819796e-001 1.2782571596199734e+000
      8.5838684979702758e-003 -1.4502808117642475e-002
      1.8575299954234031e-001 1.4542855766864993e-001
      -3.6137792617697305e-002 -4.0594942568915340e-002
      4.3069814053132965e-001 1.1733673996465552e+000
      5.7898297841656821e-001 6.0685909110925762e-001
      6.0201926665563443e-001 -7.7634564897055791e-001
      1.8090858474809324e+000 -2.8014540077283445e-001
      5.3102225157374994e-001 7.6890659903713721e-001
      -9.4657987297501300e-001 -9.0560895747709735e-001
      3.5931628981011643e-001 1.3904949060119484e-001
      1.4919426437140044e+000 -7.7153403344658855e-001
      -1.1064707412690593e+000 -9.6300223085686365e-001
      -1.0035162372370994e+000 -8.7938752035467013e-002
      -1.0327541155008952e+000 -1.1830956861795393e-001
      -2.6541744438977044e-001 -2.4572543443967326e-001
      5.8694113571330220e-001 -4.5675588626927377e-001
      9.4827581195409849e-001 2.2922085918918178e-001
      -5.9829972030955691e-002 -2.6589873323124374e-001
      6.6678973927240015e-001 -1.6643415173955951e+000
      9.6683672999448822e-001 2.6620876193253762e-001
      7.8031326410144575e-001 2.6410145655958867e-001
      -2.5789050882641112e-001 -5.3062549290672134e-001
      -5.4159558381583683e-001 -3.2584156803889558e-001
      -6.9161138754135731e-001 -1.6000630557004011e-001
      2.6094144749777425e-003 -5.5090826244637725e-001
      -5.3448120627350293e-001 -3.4186272660142020e-001
      6.8590673606427766e-001 2.4918706086094711e-001
      4.9052529078824993e-002 7.3917294364473349e-002
      6.0193343491084884e-002 -1.0125843792843616e+000
      1.4129281129182210e+000 -2.9116522646980181e-001
      -4.9219918890344777e-001 1.2463119352236925e-001
      -6.6310369843035666e-001 6.4249258760485461e-001
      9.2854224101254976e-002 -3.2804670943489672e-001
      3.0552642768323207e-001 8.0112757701244797e-001
      -9.2069330111310776e-001 4.7149874002501818e-001
      1.7001102675548610e-001 2.1195966285331133e-001
      5.3039822035467610e-001 5.0214023848812787e-002
      -1.8135568259020710e-001 2.3313058460607872e-001
      -3.8992183694257188e-001 -1.3587184229723364e+000
      3.0319763096659680e-001 -1.1691727863856621e-002
      3.0303270058392212e-001 -3.2031958651607062e-001
      -1.8716509081704608e-002 1.2080545377790868e+000
      3.1447946515645198e-001 6.7785792117590926e-001
      5.4338059639624148e-001 6.9141782871199464e-001
      -8.1928047546811836e-002 -4.1200536361693851e-001
      6.4767114273693704e-001 -6.4880352605565950e-001
      -6.2637430667825122e-001 -3.9479049679466754e-001
      -1.3695835687595286e+000 2.1092719644590083e-001
      -5.1347327064223403e-001 -3.3261290236273756e-002
      -3.3966613337463597e-001 -5.0627773356845585e-001
      2.0151832122922966e-001 -1.2587329270183145e+000
      -2.6478894543834430e-001 3.2066285360415420e-001
      4.7266458954503837e-001 6.0210039486428601e-001
      -3.2490201146306885e-001 4.7665443795973966e-001
      2.9549806194306583e-001 1.6337795497851664e+000
      -1.0561650944676693e-001 1.0734357194783172e-002
      4.8747168336627850e-001 -1.0394195563440232e-001
      3.3795741331305716e-002 -6.7506391764374507e-002
      -1.0515963282423693e+000 -2.9385855747842954e-001
      2.3276268764007213e-001 -1.3164676389174501e-001
      -2.5355477049154412e-001 -2.8462072786630854e-001
      2.6771271429399007e-001 8.3412813476562109e-001
      -4.8072216029226172e-001 3.4984134288540419e-001
      6.5873205909985499e-001 -1.2767731883033366e+000
      1.2916418789498008e-001 -6.3295595273577809e-001
      4.5377113536152175e-001 -4.0432196825344952e-001
      7.8060413940047113e-001 -5.2393383848943553e-001
      3.0191748898437337e-001 3.9989187445729801e-001
      3.7568440135118419e-001 -4.6684184604686829e-001
      -1.1999503664191353e+000 2.6743015049625429e-001
      4.4893711341923942e-001 -1.5153422027234420e-001
      -3.0786065780520339e-001 6.1620011375706331e-003
      9.0430887122896941e-001 3.5976999164085927e-001
      2.6690353579076842e-001 1.1460050479209150e-001
      -1.7387361841103760e-001 -5.6980743765167563e-001
      1.8280971605220245e-001 4.6326709914236869e-001
      -3.3620236142369470e-001 1.0796184974043352e+000
      1.1070428162356722e+000 -1.2348551307474352e-001
      8.5913184479445806e-002 -2.1668251770825925e-001
      -4.1220881891878131e-001 -1.2402540595524532e+000
      -3.7652406710836889e-001 -3.7731670595950312e-001
      -9.1933935961533642e-001 -7.0290776631374319e-001
      -8.9817993099658322e-001 9.9608106115768902e-001
      2.0038238757533103e-001 -9.4009888134615116e-001
      -8.7361352526363367e-001 1.3158302143539191e-001
      -4.3737276736303116e-001 7.0004546629288145e-001
      3.5925384503095903e-001 -9.3214655337864855e-002
      5.4459069551927519e-001 -2.1840965700490222e-001
      -2.9463352684966476e-001 1.6719172501300839e-001
      2.3289068497961130e-001 -9.7820000110677111e-002
      6.1642061974751428e-001 9.2457441775804272e-001
      -2.0820491862164447e-001 -2.2919463185891187e-001
      1.5172579268282122e-002 -4.1559028105109186e-001
      3.6754689566960497e-001 5.6903429477600553e-001
      -7.6375341841209657e-002 6.4058330218999227e-001
      3.9067331306766989e-001 2.1691592795364803e-001
      1.1991044063401419e+000 -1.7084769220023818e-001
      -6.1299449365963161e-002 4.4062124694917482e-001
      -1.6565049766100734e-001 -3.7521555786783622e-001
      -8.3610813130704520e-001 -1.3604243902839179e+000
      -6.1857213400278799e-001 -1.8552829624458644e-001
      -5.7539999786686535e-001 -4.6268261268996519e-001
      3.3260035312971387e-001 7.8046592549489008e-002
      -2.4531982360988000e-001 -3.0185510897045259e-001
      -7.3737725940252274e-001 -6.4001020586516388e-001
      4.5046222757198839e-001 -5.1085742585938432e-001
      -5.3051893708663911e-001 -3.1113770689861797e-001
      -1.5881725906950084e-002 -3.5799683022077483e-001
      2.8007246878604969e-001 1.2070241351153916e-002
      2.6910019276310904e-001 3.7373952325827808e-001
      -6.8848907275618576e-001 -1.3764379517638653e-001
      5.1140838290833790e-001 -3.3087156626876973e-001
      -1.7821447375702454e-001 2.2428296747802615e-002
      3.0235413670032113e-001 2.5431126077434729e-001
      7.1702069465537444e-003 1.6489328776445795e-003
      3.6250428952478325e-001 -1.0147234305383610e+000
      -4.7760631763568551e-001 6.4629874799741055e-002
      -2.0109142310265525e-002 2.1941647024872063e-001
      4.0341906693338224e-002 1.8612197989381904e-001
      2.7522962397287704e-001 3.9064094452016758e-002
      -2.6475674972184349e-001 3.0144834493900635e-001
      -9.4291336487060473e-001 1.5458941084090164e-001
      -4.8141911971147944e-001 -5.1711560011572977e-001
      -3.0957469361440393e-001 2.1720218073315367e-001
      -3.9540402117310169e-001 6.3902911465402779e-001
      -4.7243303119633762e-001 2.7683617606974220e-001
      -5.0658709666975277e-001 -1.7810923349061106e-001
      1.2518220010947436e+000 8.6853974475420925e-001
      -7.1501151700710497e-001 -3.0210343992051664e-001
      -2.9791154906617316e-002 4.0979801642996838e-001
      1.8340391662058450e-001 -7.1771423966325562e-002
      1.4774333563835147e+000 9.4595778090393889e-001
      9.4700410515666689e-001 -1.3148168060055138e-001
      -1.0219694467017728e+000 2.0276573464620973e-002
      1.4966526318131465e-001 -2.7836520413847160e-001
      7.0780672301868985e-001 7.2773639242105548e-001
      3.3896096893884525e-001 -8.0589408300898335e-001
      6.5878465240910900e-001 -5.5818666177714682e-001
      -8.9054983707981739e-001 3.7291131182911780e-001
      1.4686188142722548e-003 -4.6566337651502127e-001
      -2.9202960958601126e-001 2.7422506903503374e-001
      -2.0143097945757833e+000 8.6230840882128040e-002
      -4.2304343615886941e-001 5.8383424782324367e-001
      1.3308170363180363e-001 -2.8845850399058354e-001
      4.4948604535363101e-001 -3.0041012278015705e-001
      5.1865667745211896e-001 4.5118206445380687e-001
      -7.0429682993668641e-001 -1.7015926496898681e-001
      -3.3869414221157457e-001 9.4974849867403441e-002
      -9.6871398609714374e-002 1.1795065814753110e-001
      -2.0728988376619972e-001 1.1345920590823137e-001
      -1.2655428740802943e+000 -1.6536858465091903e-001
      5.2159439398120566e-001 1.5277490717534631e-001
      8.7620157071309357e-001 1.0729087074893187e-001
      2.4386680824502879e-001 3.3279476866220314e-001
      9.5912797845483275e-002 9.2102334553482643e-002
      2.9371929319073153e-001 -7.5728115857376621e-001
      -1.9499600389184009e+000 -1.3791902162767924e-001
      -3.7207729461289235e-001 -2.5694238922679796e-001
      -1.0194354333022715e-001 6.7934597041813538e-001
      -1.2094385128697044e-001 -9.1833406452513699e-001
      6.9300492854870638e-002 3.7062960565312414e-001
      -6.6728105103696911e-001 -1.3468466866397806e+000
      -1.5759740696609128e+000 -1.3016814059476586e-001
      -5.0826046647230372e-001 1.0724141853836708e+000
      3.9337752264727100e-003 4.3240678044091646e-001
      -1.9770083291185592e-001 -6.8572831843542748e-001
      -4.0784427649482208e-001 -3.1561491467764678e-002
      -3.6288677791335022e-001 5.4449867498305582e-001
      8.4894839113859999e-001 3.5002136345512591e-001
      -4.7870946347246368e-001 -2.1698627475373039e-001
      2.9009645396719635e-001 1.0976079512570871e+000
      9.5898878583655800e-001 -1.8977925807541342e-002
      1.3870313554584499e+000 -3.1625994335091900e-001
      1.9881408189610417e-002 1.5777506450434245e-001
      -1.2108661803423436e-001 7.2151450123089900e-001
      3.9398164240360972e-001 -3.1279288141193057e-001
      9.8207167281822871e-001 -2.4733572590347448e+000
      5.9813880371067697e-002 -1.5869645784075803e-001
      2.7665310388111197e-001 1.6663686507054529e+000
      4.3927329777525731e-001 -6.5631990596092071e-001
      -5.3775470503189304e-001 -1.4113236107899085e-001
      -5.0294583598095000e-001 1.2083609282006873e+000
      1.1503169292616806e-002 3.0275031489708099e-001
      1.2730477290812778e+000 5.7580795335512924e-001
      2.6090097165174887e-002 -4.6777496673460589e-001
      9.7692436685541928e-001 9.4257807243068470e-001
      -1.4481353351852042e+000 -1.3274833890694088e-001
      2.0582191711996076e-002 4.4928407213559528e-002
      -9.1459292971837636e-002 -6.3767976451066177e-001
      1.3159250276981826e+000 1.3397813934733200e+000
      -7.7909219419605169e-001 5.3510026349195244e-002
      7.9154899911208965e-001 1.6158232090876501e-001
      -2.4184729009525677e-001 1.3065452867124199e+000
      -3.6378566315811467e-001 4.6560965698016203e-002
      -1.6549584463683331e-001 4.8933817748972583e-002
      5.6863828591723831e-001 3.5759408465051068e-001
      -1.1045854622482709e+000 -1.4781923075689347e+000
      7.5606269381512525e-001 2.4935032681073749e-002
      2.8897840176704492e-001 1.8119422826928169e+000
      -4.9392945955649172e-002 -5.7097239987854420e-001
      5.6657836912334954e-002 4.9993931659665584e-002
      -6.8321110659204976e-001 -9.0210653877709424e-001
      -2.3437432410021547e-001 -4.2358042666545852e-002
      -6.8764741263109685e-001 5.9946371858886804e-001
      -4.9159457628382497e-001 -8.2450519318845483e-001
      -1.6843541418309377e-001 -1.3054501199994328e-001
      4.4365384957648379e-001 -1.4969721160146043e-001
      1.2406542279510910e+000 5.0427921960908351e-001
      1.2090139712571524e-001 3.8106182217677897e-001
      5.6490895718059701e-002 1.2812350060639446e-001
      5.6710964130209207e-001 4.5087841718280341e-001
      -5.4751089949579290e-001 3.8408368922218640e-002
      2.6597171971022845e-002 -4.7466081847666486e-002
      3.5746102396027291e-001 3.5841989100367133e-001
      -1.6304346823362823e-002 4.1217251093976287e-001
      -2.3404191694356763e-001 3.7733742906305923e-001
      -1.4769711963319119e+000 5.2965359913489315e-002
      -3.0596072842444288e-001 8.6338717790506170e-002
      9.4152342306123138e-001 5.3951879450631712e-001
      4.1359369674143082e-001 2.5572994606581489e-001
      1.3203205222348960e-002 3.2184958533129589e-002
      4.7342814395342930e-001 1.0903662044402830e-001
      -3.4648045166850638e-001 2.0822248555554151e-001
      -4.2228845041959878e-001 8.4537695179209238e-001
      3.9636745922533884e-001 -1.0392110304521947e+000
      1.3048704410332155e+000 1.7985076068472486e-001
      -6.1955657050094259e-001 2.7277175195460163e-001
      2.1256409682380595e-001 -1.4978906031421527e-001
      -6.1899375363335851e-001 4.2409366393538572e-001
      9.0966235224049363e-001 -6.6133533246030618e-001
      3.9121265625312915e-002 2.3359294944642128e-001
      1.0197027974051881e-001 -1.5785381773948251e-001
      3.9554187786884903e-001 1.7980607957364106e-001
      -1.8187016259450731e-001 7.3945108374446816e-002
      2.3482421218113625e-001 3.5694361991095908e-001
      4.7741925857348427e-001 -1.7912603339046342e+000
      -3.6445083684076995e-001 3.9815530041294601e-002
      3.6944646693188748e-001 -2.0901963581797911e-001
      -2.3712912228230726e-001 -8.1915259015782549e-001
      -1.8180790637618899e-001 -2.3605301659731676e-001
      -3.3322071055569302e-001 -1.3256441385755227e+000
      2.0095292783047480e-001 -7.7972710849343618e-001
      1.3318239444265831e+000 1.1545240308213480e+000
      4.9184221092298946e-001 3.9707057139688529e-001
      -2.3107209626155553e-001 3.2372802427757974e-001
      7.3414793765504499e-002 4.7977355446094988e-001
      4.5931094727191873e-001 4.0216967158431016e-001
      9.0356329530526869e-001 -5.2503207964895426e-001
      9.5954310450301605e-001 1.9494032335103342e-001
      -6.4405473581950173e-002 -6.7301355651276901e-002
      -3.5012370980851115e-001 1.3214106274798754e+000
      4.3025713698098933e-001 -7.3892369643630407e-001
      -7.1352873598287947e-001 1.3184857719568058e-001
      4.9437878679210456e-001 3.7061489854003440e-002
      -3.8776824488155542e-001 2.8261352402331552e-001
      4.2323946054912409e-001 3.2859514951964480e-001
      4.8966616036694705e-001 3.2441931511753191e-001
      1.8740830028275540e-001 2.4720648465957945e-001
      -1.5258243582303161e+000 -7.9166638334366246e-001
      -7.5547843411228754e-001 -3.5438799267907584e-001
      1.3235256059668119e+000 1.0048203125157237e-001
      -3.4362961719029844e-001 -1.2762049144358287e+000
      -7.0038283788611502e-002 8.3395367438652113e-001
      4.5122822008534055e-002 -5.2165667812910277e-001
      -1.9633049631378119e-001 1.1598613513440197e+000
      -1.9061527402852857e-001 -2.8344469976937570e-001
      1.9325760003833953e-001 -1.3674442374879564e-001
      1.1409542414275481e-001 -8.0891657598996095e-002
      -8.3403223003555196e-002 2.4121523255251301e-001
      -6.3278835690701341e-001 -8.8790915213917543e-001
      -1.0494293092415077e+000 4.2227133563539207e-003
      4.4253427963066055e-001 -2.1743137903601104e-001
      -5.5289955234851473e-001 -8.0876094509809382e-001
      -2.9134674400285276e-001 6.0216188612651333e-001
      3.3742593706137275e-001 3.7921376952965186e-001
      -8.2912097872384483e-001 -1.3675100203462698e+000
      -1.2826607519688799e-001 5.8945359236312034e-001
      -4.3376447172399890e-001 5.5588602139775423e-001
      -9.5316092084986856e-002 2.1514445980729782e-001
      7.7676343295354666e-002 8.2323410377668632e-002
      7.9328775729014228e-002 6.1478427380153311e-001
      -3.3746457906392596e-001 2.8674458402837361e-001
      2.6189076066333372e-001 -6.0260952074522856e-001
      7.8401068069417623e-001 -6.8393159112094115e-001
      -1.0590112394750901e+000 3.6757763723252451e-001
      -1.4765701854098642e-001 5.9663812411622685e-001
      -1.1713275259617242e+000 2.3229783933023718e-001
      -3.7129330602694144e-001 -1.7380706958485498e-001
      7.5206900297984580e-001 -1.9710012944730884e-001
      -3.0671956616305912e-001 2.4714767489270897e-001
      1.8073962946759645e+000 -1.3597321985900297e+000
      1.3147126904537918e+000 3.9255798214059889e-001
      1.3502292925540136e+000 -5.5385657180480174e-001
      1.0722332796450509e+000 9.5469453766038481e-001
      2.7752025477305631e-001 -5.5912346954179981e-001
      -3.9870165265431101e-001 5.7826637848094845e-002
      -1.1267686730042528e+000 1.5240235696014487e-001
      -2.5193217281588276e-001 1.4819284996495005e-002
      -1.8929548654351736e-001 1.4536064781080433e+000
      2.4198232029231792e-001 -4.2506895966347330e-001
      1.2913655062378777e+000 2.1652018433384629e-001
      4.0157373448118927e-001 7.3392711824970291e-001
      3.0224941785722453e-001 4.5745187182050540e-001
      -5.3418103799458355e-002 5.5374151727822063e-001
      -3.3287144314090478e-001 -1.1091196576062259e+000
      8.6868107779916914e-001 4.0996955514608424e-001
      -5.3095345669034921e-001 -2.4134396537694389e-001
      -2.1142301195937144e-001 1.4504924975512951e-001
      -2.5340528011642210e-001 -2.5928059213820031e-002
      8.7270201130356162e-001 9.1179883790704352e-002
      -1.6883856159251498e-001 -3.3104262136594487e-001
      -4.2333413303994355e-001 -3.6390890371389228e-001
      2.6187425729190456e-001 3.6968482068439268e-001
      8.2980491783793228e-002 -6.1236449641254553e-001
      7.7339767505462076e-001 3.2011023671357014e-001
      5.4886782397955337e-002 -8.0221143084172486e-001
      -6.5117319557085274e-001 1.1525813607442268e+000
      2.1073578775062485e+000 -5.2399421510880440e-001
      -3.9509822638715747e-002 3.1633314443467359e-001
      3.0496148582703438e-002 -1.3088797306914482e-001
      3.2994130474837680e-001 -7.1236295133445948e-001
      -3.0526913778100395e-001 -2.0392074285597639e+000
      4.2505269296698189e-001 6.6551272554883134e-001
      3.9290493574604290e-002 6.2430625903223813e-001
      -4.7350163700027742e-001 -3.5086946522095075e-001
      -5.7467084455330253e-001 7.9738176751178369e-001
      -1.6474458860802674e-001 1.2037482104725558e-001
      -3.4765953457474880e-001 -1.0237771479469127e+000
      -8.2339238695901096e-001 2.7272108783428717e-001
      1.8827926450824251e-001 3.3987279315719704e-001
      -1.2257332290476952e+000 6.0783489632999754e-001
      -3.2632764528876215e-002 -9.6528743149233903e-002
      -9.5648521993310409e-001 -5.4452942653356373e-001
      6.5620924165902109e-002 9.4578939507190851e-001
      4.5394596677673565e-001 -3.6551598380353434e-002
      -1.5931545311175158e-001 3.5852960591092647e-001
      -7.2052271710428828e-001 2.3656830356352493e-001
      -6.4378009611852172e-001 7.9498995179219489e-002
      1.7258029423526142e+000 -1.9535887161689580e-002
      -1.5752794193004269e+000 -1.0259101181066357e-001
      -2.8637463667968537e+000 -1.7202393253130627e-001
      1.5271965696495131e+000 1.3019213400843552e-001
      2.4604667702741749e-003 -4.8036131999648589e-002
      -8.8820763890924093e-001 5.5927024368453648e-001
      -7.9638495686761290e-002 1.3191717807466761e+000
      5.9544224774405219e-001 -1.1601469485938467e+000
      -8.4900388154678186e-001 -1.4398284255122415e-001
      -1.7969604344957862e-001 -7.7057598210443279e-002
      -1.1576508690891447e+000 3.2020359823262556e-001
      1.4777005686648619e+000 -3.5867304793801802e-001
      -1.1922362480374406e-001 -4.3559103068312305e-001
      -2.4686242566528280e+000 -1.0544894901235591e-001
      1.3375809323934342e-002 -4.6012818423685603e-001
      1.0967057430725806e+000 8.9203003388491353e-001
      6.3403362743568378e-002 -4.5265327271190609e-001
      1.3668316319073759e+000 -8.0397569112433120e-001
      -7.6444017445207402e-001 -1.9094466586270982e+000
      1.3231764356716689e+000 3.5506772878397047e-001
      -1.0242548959684319e-001 -2.1751884021640744e+000
      -1.2262011349379133e-001 -5.4166359531818815e-002
      1.2221266844021724e-002 -3.5130028022700949e-001
      2.8682111050399911e-001 -1.3060228103254836e+000
      5.1224640173159608e-001 1.5779876695179632e-001
      1.6894848979171673e+000 1.2136075859246200e+000
      -8.7695597021564031e-001 -1.9764798875342797e+000
      -9.5930082070632983e-001 -8.7264469436701897e-001
      3.1866052465704269e+000 1.0972640229453878e-001
      2.1174824260831255e+000 4.9549694393412480e-001
      7.9897142397861720e-001 8.7800660967351141e-001
      -9.7107440379219007e-002 -3.3427446290823176e-001
      6.7580281879368698e-001 -1.8141340256474345e+000
      -1.2892517065234050e+000 1.3879740168674004e-001
      -2.2677259322612404e-002 -4.4436449797449690e-001
      -3.4595557335024824e-001 -4.5652492365213952e-002
      -4.2777326654164560e-002 1.5225974977214951e-001
      -2.7245713790493326e-001 4.9622775089018023e-001
      -7.7421531283924927e-001 -3.3349392546157336e-001
      2.5979641465688441e-001 -3.4134652622230667e-003
      9.2537179200457975e-001 6.7470023939440704e-001
      -2.2541290849924406e-001 -7.8424637145571152e-001
      1.8232915195718699e-001 -5.3831008094940055e-002
      1.1229840333171894e+000 -2.7406335670308468e-001
      4.6099104376629965e-002 1.4313786629813452e-001
      -2.6662003930974515e-001 5.6574071639388979e-001
      -2.3184625778051385e-001 -4.0692616077597754e-001
      -5.0544506121772004e-001 -4.6259270747944237e-001
      -4.0019845905080442e-001 -1.5659308757120682e-001
      2.8000145259281899e-002 1.6553324896486424e-001
      -5.0242624152053317e-001 2.0811742478768647e-001
      -5.4298766448510594e-001 8.5871531963930742e-002
      3.8093975984988443e-001 -1.8194889091222369e-001
      -1.2781305562055147e+000 -1.9045531597455048e-001
      -2.4246069140744255e-002 -2.2221351843655812e-001
      5.7869077348312548e-001 2.2293710250794288e-001
      -8.3292617422849380e-001 -1.0126601210678601e+000
      3.3915620915837158e-001 3.5602060959812698e-001
      -6.0377554095365360e-001 -1.1350245882268386e+000
      -3.0132397353040163e-001 2.0118054901146920e-001
      -2.5109164587344057e-001 -7.2955494116537067e-001
      7.6858511331456797e-002 1.9769946849856412e-001
      -3.0186899316518832e-002 -1.2594036147216481e+000
      2.3642370485741379e-001 9.2409453994253088e-001
      -9.0344489992754642e-002 -5.7242741605634506e-001
      -6.2644209846797039e-001 -7.8123231481513525e-002
      -4.9131869254854782e-001 6.2530828068197292e-002
      -1.1665809780720444e-001 -1.0127250147123881e+000
      2.7416871520995573e-001 -1.5585712432055551e-001
      3.3144868681795903e-001 9.6196921688139969e-001
      -1.0443250020485384e+000 -3.5677433019332044e-001
      -1.3171987997465456e-001 -3.7408710520613647e-001
      4.2348065061836870e-001 4.1049325402247555e-001
      1.6632244808237453e+000 2.0645188139126175e-001
      9.5516215588755959e-001 -5.7732458974946541e-002
      -5.1367666060698558e-001 1.1993573980722985e-001
      -1.6056721488965239e-001 -1.6753000619615852e-001
      2.4719873763907285e-001 5.7414554045558994e-002
      -5.0380618032577451e-001 -7.8475273171816518e-001
      8.3947817830520521e-002 -2.2573185423712983e-001
      7.3819433874759510e-001 -7.7406853945961118e-001
      -5.8931433178615444e-001 -1.3592088824487243e+000
      -4.5239742076614903e-001 8.9738080472452408e-002
      1.3096436266368922e-001 -9.7315094295354021e-001
      -2.0104195469861805e-001 2.7073937383509733e-001
      -4.0693142540510474e-001 2.4155991487154152e-001
      4.2201099340316678e-001 -7.6917503036025026e-001
      4.0410547537001568e-001 4.2271175457567722e-001
      -2.9823035698194500e-001 3.7594198472128221e-001
      7.2906583777401598e-002 8.4974729717463129e-002
      -3.3034092094238510e-001 -5.3067585523761085e-001
      6.3866280297218792e-001 -3.7812838487713407e-001
      -4.1839487395137148e-001 3.8402680867400579e-001
      1.5413457165798310e+000 -7.4097922014200873e-002
      2.2584040522390947e-001 -5.2106390462494268e-001
      5.5350353151410216e-003 -7.9152077586505143e-001
      1.1521834196991345e+000 9.6792116614237389e-001
      -3.3501967411978906e-001 -1.4524777196180843e+000
      2.2480250673511906e-001 3.9680506888878847e-001
      -1.2168124614954626e-001 1.9909982624254399e-001
      -1.1568993536269737e-001 -3.2978301390601705e-001
      -4.8495377845238406e-002 -5.5151939909738601e-001
      4.0371253587587080e-001 -5.2127963598660003e-002
      -5.1012937781943635e-001 -6.0625033993456834e-001
      7.2256518142066919e-002 4.7581649894412109e-001
      -7.8743518564749038e-002 5.5121123500250079e-002
      -1.9229196025134401e+000 6.6951883624356323e-001
      1.6618674941146186e-001 1.8455948543946396e-003
      5.4943161799108542e-001 -2.7178312952923483e-001
      1.1948474324234266e-001 -9.9068782589201476e-001
      -1.8568874594792356e-001 2.6258555631021002e-001
      9.8895401796327095e-002 -4.8592719424676867e-001
      1.1040940595449209e+000 1.1936131200523885e+000
      -5.3092745842615718e-001 -5.3917212252129898e-001
      -1.2501467323239617e+000 3.1359003321608414e-001
      1.4581168758511651e+000 -2.2479547036395389e-001
      5.4490317789233134e-001 -1.6728021245060440e+000
      -3.1825356275618133e-001 -6.0332133209055239e-001
      -6.9706061726442115e-001 2.2332762977031186e+000
      -3.8253946792339827e-001 9.7414462437208069e-002
      2.4531814245182670e-001 -3.1248897426308364e-001
      5.8892843088760227e-001 8.2603024820492932e-001
      -2.0984759989896060e-002 8.8840719722334996e-002
      1.4096256447827302e-001 5.8946498214267473e-001
      -6.9236094221382083e-001 -7.1205558367521171e-001
      -1.1592087144501081e-001 -1.8523721274797716e-001
      -3.4100705245345830e-001 2.9862985991491137e-001
      2.1288185147278868e-001 -2.7800274457350271e-001
      2.6752379304680285e-001 1.6324706214798274e-001
      5.6001156851802805e-002 -2.2934828467196546e-002
      1.9128427729635489e-001 4.3318332707904805e-001
      2.9919461981590983e-001 4.3587068413562735e-001
      1.1917870634317858e+000 -6.5544648697703656e-002
      -4.3661440509847660e-002 -5.7486088767164847e-003
      -5.9093098454745996e-001 4.3137059331323219e-001
      -6.2616928473025613e-001 1.4460157142973690e-001
      9.7217370108159551e-001 -5.4147784414015965e-001
      -1.9972447573174248e-001 -4.7433296725911189e-001
      1.8940975613697684e+000 1.1868227503643014e+000
      2.2611126825669098e-001 3.5816510944612912e-001
      5.7814658183578699e-002 -3.5308649300104390e-002
      -2.1814149113221415e-001 9.2044519076117340e-002
      -1.8779822379710870e-001 4.3790341993308557e-001
      4.3168509935990307e-001 -1.6762420679628282e-001
      6.0371479231900405e-001 -2.6275190571613599e-001
      2.0157445711771102e-001 -1.1822918796570037e+000
      -5.7883210231463300e-001 1.8594402261013490e-001
      2.8784343838544024e-001 1.0128834990406999e+000
      1.8691140522648980e-001 3.3460666006662049e-001
      4.1071364376424441e-001 -1.0188262140211031e+000
      6.0198238713219987e-001 -1.4508225244117712e-001
      2.5757158054953916e-001 -1.6277122650285633e-001
      -4.5999405129297100e-001 -4.9842440821235273e-001
      1.9253967073417577e-001 -2.1304558032437498e-001
      -7.7920947953806685e-001 -4.1304670045432901e-001
      5.9009365871084851e-002 -4.3272030644775100e-001
      4.2681656318370080e-003 -2.6814159008929678e-001
      -1.2547806620952520e-001 1.0973904469042123e-001
      -6.7902089194763815e-001 1.4041950964841170e+000
      2.1720932985013786e-001 2.9546161226681739e-001
      4.1930178292767278e-001 4.3384686625318264e-001
      -2.9570242378955852e-001 1.8849036362563532e-001
      1.5512096829310476e+000 -1.0234470893233963e-001
      -2.1630823951641959e-001 -1.8798490997730555e-001
      4.6371940049710664e-001 -1.4321628888410376e-001
      -6.9920922828923940e-002 6.0774006916491952e-001
      5.4371848077244933e-001 2.3122195355477851e-001
      -4.0504033328074224e-001 9.0425879656758623e-001
      -9.6584842207061938e-001 2.4936118049378314e-001
      6.8165722568420253e-002 1.1433005774583868e-001
      -1.0200550479364466e-001 5.9406932658282327e-002
      8.9850816806654377e-001 1.2581648129742598e-001
      -6.1810906206458649e-001 3.4065488213970685e-001
      3.3998407937246994e-001 -2.0227605039589575e-001
      5.4420115230226807e-001 3.2056519284844742e-001
      2.1588604084599960e-002 6.6907297787497189e-001
      -2.7396714262249722e-001 -7.8032958676334319e-001
      -9.7454653120093016e-001 1.1501999053437328e+000
      -3.2149813370163749e-001 -1.9108117253442949e-001
      4.0893130129901378e-001 -2.1811037609805978e-001
      2.3575722420335199e-001 5.3651538261986531e-001
      1.9589378030789049e-002 6.2037691120987981e-001
      -2.1491652481872239e-001 4.3554483908739193e-002
      8.4713928411049177e-001 -2.8125685937364037e-001
      3.0391007253616187e-001 1.3106934202361709e-001
      -4.1946783741126653e-001 7.0686758349611734e-001
      7.0215187977720167e-002 -5.1452171418854442e-001
      -1.2793894709891576e-001 -2.8787071219442151e-001
      -9.7714657650793946e-001 6.2212527145397223e-001
      -3.9954483258018880e-001 3.8912278137519452e-001
      -4.2708420557531802e-003 9.3943470499755100e-002
      2.6372925198353298e-001 -4.7223527958988143e-001
      8.5206908769422163e-001 -6.5002019618140838e-001
      -4.9197671016890154e-002 -1.6239209038590049e-001
      6.2353954005113499e-001 -1.3802993480902548e-001
      -9.7795334042369120e-001 -1.2530652991353353e+000
      -2.6304497127892695e-001 -6.7308329134740580e-002
      -1.7312879549472648e-001 3.4874557378778348e-001
      -4.3237855722590618e-001 -3.9742605812299697e-001
      -3.5827592319546187e-001 -1.6614156309952988e-003
      -1.5458661115400649e+000 2.4737167210327618e-001
      6.5633143413281148e-001 9.6280656816526433e-001
      5.8590774597765050e-001 -3.4164197571766260e-002
      6.8390491126212771e-001 1.3172060179579159e+000
      -1.4428928169486482e-001 4.3063371779646781e-001
      2.3308810416378373e-001 -2.7096304222091128e-001
      2.8122569420069032e-001 -2.5879092265870540e-001
      -1.3792772091946162e+000 8.3888671985098395e-001
      1.7886514301482309e-001 3.7329681765170236e-001
      2.3089937284176079e-001 1.8453184824700417e-002
      -2.6047820742450190e-001 -5.5485509066852734e-001
      -7.5235731662737435e-002 8.2620988112730576e-001
      -1.0608951789033665e-001 4.0894258163229674e-001
      -8.6486754138343014e-001 3.7411530620336936e-001
      -2.4737856853351245e-001 2.2017912307247203e-001
      -3.0954728321586977e-001 8.0165006763126634e-001
      8.3783258794840800e-003 -1.3659606702001809e-001
      -6.7021763213582586e-001 1.1786123127948487e+000
      1.3102523732210785e+000 -4.8746747809949309e-001
      1.0596536532934532e-001 -6.4635136247887831e-002
      8.5217211728077322e-002 4.1393067577977133e-001
      9.5748753294011391e-002 1.5479668394212559e-001
      -3.7128308829705087e-001 -1.3684286690278041e-001
      7.3065724329654941e-002 9.7650084588639885e-001
      1.2316070151758700e+000 8.8120014495239340e-001
      6.0470911222347448e-002 -9.5407606172637016e-001
      1.6359286037774270e+000 3.2692442179084691e-001
      2.3035725615239677e-001 -2.4496157299257168e-001
      4.9614752140706375e-001 2.5342666346385040e-001
      -9.8718328208218631e-001 -3.3284085029919436e-001
      4.5803035722119839e-001 -6.2267002558309925e-001
      -9.9107323850141801e-002 -3.1619041684427357e-001
      -8.1825254101223510e-001 -1.4924907048361288e-001
      1.1774799537945624e+000 2.1381507253824281e-001
      5.0026969789607301e-001 5.1889787270178234e-001
      -3.7385238061902748e-003 -3.2114309530182539e-001
      -1.2146175287963909e-001 8.3577346909490161e-002
      -3.6087140209993557e-001 4.0029982735640103e-002
      2.2050951525770904e-001 -4.9198714373419927e-001
      1.0740389232321781e-002 -8.4522008468927115e-002
      1.6423466544875496e+000 7.7472963820989571e-001
      -1.1187811232494249e+000 1.0172251570514197e+000
      3.3795836066767071e-001 -3.9151869404403204e-002
      6.7448164309008518e-001 2.9874439676385411e-001
      -2.6029811557045002e-001 6.6408815986200631e-001
      1.8419435566271181e-001 6.2078410783797677e-001
      3.3473834513322837e-001 -1.0526250651369382e+000
      7.0171135958708408e-001 7.6918232974045779e-003
      -8.0951218063241626e-001 6.5768268539769539e-002
      1.3711873468235064e-001 2.0397965746965899e-001
      -1.9845457553531237e-001 -1.8523598500430777e-001
      3.0325636442213028e-001 2.7696324483349855e-001
      -8.5209368471431812e-001 3.2038753350327559e-001
      -3.2019710505307081e-001 -6.0457617872342842e-002
      5.5769216437444302e-001 7.3053236761659368e-001
      -4.3654800706199492e-001 -7.2229113873365092e-001
      -2.6475594691343257e-001 7.0000021514638577e-001
      9.0573337849528357e-001 -6.5240065311199036e-001
      7.1095359513107781e-001 -5.0350743475216153e-001
      8.0811550610232508e-001 -6.9231000151157507e-001
      -1.6199203070155305e-001 9.8681591350208722e-002
      -2.9838763000546220e-001 4.5674380104087242e-001
      8.0229140081463687e-002 -1.4547872952346301e+000
      4.5956424237060101e-001 -8.8183958137535157e-001
      2.8108201248079390e-001 -8.7086420789516984e-003
      4.9155251703786557e-001 2.5974813958566694e-002
      2.8812096129929232e-001 -4.8238141852555921e-001
      3.3027991052068967e-001 -5.2217070667388121e-001
      1.0857150716228110e+000 -3.0272171093620903e-001
      7.4536483657916586e-001 -9.3312426836503348e-001
      6.0932975309067806e-002 2.8761028442106346e-001
      7.2906870276536140e-001 -3.1226851867969533e-002
      -3.8814166333126116e-001 1.3235379240028553e+000
      7.9818675054434229e-001 -1.5274119934271455e+000
      -9.7988124333715731e-002 4.6892419969047555e-001
      4.7053141684905864e-001 6.0642891814344135e-001
      -3.0500265931189818e-001 8.1075866859159373e-001
      4.2178328067813381e-001 -2.5214133246448123e-001
      -1.0769597919081381e-002 -5.6363158712235309e-002
      -1.8582967412459586e-001 -1.3398203768942696e-001
      1.4633230011439974e-001 -7.6655021023231995e-001
      -5.4754818513801162e-001 7.7325459464530188e-001
      -3.1399922084498084e+000 -9.9922375793746743e-002
      -8.6503668297011282e-001 -9.5174755593642191e-001
      -1.2728404235848612e-001 4.9225537485123827e-001
      -5.7991465647464280e-001 3.0565203219448805e-001
      -1.2085106424938393e-002 1.4862749428408657e+000
      -2.2638282210336017e-001 -1.8035016324233328e+000
      4.3333240018445474e-001 -2.2679089396103799e-001
      -1.7733812549917169e-001 8.1987075122529507e-002
      3.0198239898067841e-001 2.0086789463077162e-001
      3.3419327403417004e-001 -1.9187924423227836e+000
      -2.6182610561140574e-001 -2.0177297097637487e-001
      -1.8696009633949406e+000 6.3278444782642052e-001
      -6.1409997799958871e-001 3.1315647932628582e-001
      1.0449191175370121e+000 6.0592652814099340e-002
      -9.6111908664709345e-001 -2.8490939008878025e-001
      1.7680311597466394e+000 1.3052891175927168e+000
      -4.5673406019464585e-001 -1.6544494748004608e+000
      -8.4241945145658870e-001 -2.6763932174421173e-001
      -3.0112078068779796e-001 -5.3710296993492479e-001
      1.3032985419443580e-001 -1.8619411153616514e-001
      2.2994394398880721e-001 -4.4820713341475465e-001
      3.2440143341028960e-001 1.4116400800343227e+000
      3.6127760869784192e-001 -4.6170170243119785e-001
      1.0664119113377293e-001 7.0744920592409521e-001
      -5.4511752141791159e-001 -1.3459272189365363e+000
      -4.1771064764353955e-001 -2.7104231872715862e-001
      1.7160078667279210e+000 4.9119871535431341e-002
      4.1667387796477551e-001 9.6698620085716924e-001
      1.6166974329410119e-001 6.5447728100550751e-001
      2.5393558379379039e-001 2.5756006793200487e-001
      -8.5048367477188558e-001 -1.6163449427901357e+000
      -1.2585954982454302e+000 -5.8465339763750879e-001
      6.0778782609920301e-001 -1.2891844151393211e-001
      -6.8570453137716675e-002 4.5016617181671653e-001
      -1.9601792457073050e-001 -6.5772860905224195e-001
      1.7360888558557477e-001 6.3419560356192461e-001
      -4.0783990644430568e-001 4.2165392193259582e-001
      -7.0750111571195917e-001 7.0896593246046150e-002
      -5.4762577112595752e-002 -7.2082475967576731e-001
      -9.6401009739588417e-001 4.2859271407011368e-001
      1.4929037950261621e+000 1.3199474949911802e-001
      -8.8298712451216135e-002 1.0858506386035906e-001
      -2.7728742040045012e-001 -1.1352600348032002e-001
      6.9044609397045001e-002 2.9825233450232042e-001
      -5.6418077403642519e-001 2.6898552145158783e-001
      -1.2251145198582758e+000 -3.9119114366244301e-001
      2.3845429584550576e-001 5.4221614531182677e-003
      -1.7689484761242999e-001 2.1259967780896973e-002
      -2.3023984102714092e-002 -6.4242492408679719e-001
      4.8487544391365177e-002 1.1845979097418435e+000
      -7.7056849337758115e-001 -1.4427496008544113e-001
      -3.3890172389839895e-001 -6.0112874388921420e-002
      -2.2504621898160344e-002 -4.2182559401689762e-001
      2.5634869824929263e-001 5.0920325970710056e-001
      3.8857136768531864e-001 9.5682588671793556e-001
      -1.5142497416568285e-001 -1.1172598960181221e+000
      7.8231840077450743e-001 1.0331275737037589e+000
      1.1098133472524085e-002 -4.2789759176076542e-001
      -3.4437246360162904e-001 1.7834986865993988e-001
      3.6776062920045738e-001 2.4078505683436777e-001
      4.0989403806930763e-001 -1.3529501173503827e-001
      3.1643842589288090e-001 -4.5624922528498635e-001
      -6.3371857235402818e-001 1.1301982346009671e+000
      7.7507410629811380e-001 3.7684279153949374e-001
      3.4316865350834358e-001 5.6817849775533247e-001
      1.8396912556704073e-001 -3.0561841178744142e-001
      -9.0203026676707387e-001 -4.7966750649508821e-001
      1.6908221370482612e-001 -3.3685812668925973e-002
      -4.4793183515235646e-001 -3.3742840566183196e-001
      5.3052661102430121e-001 1.7310502171875033e-001
      1.6980691826231746e+000 -3.1062501561109362e-001
      1.1319253577218549e+000 1.5851484732412638e-001
      1.0289938529880004e-001 2.8693433428189341e-001
      -7.1761693220333944e-001 8.7131751257071413e-002
      4.2024750640954134e-001 6.4026208611899102e-002
      -1.8041005164023044e-001 -3.6994059176457067e-001
      -8.3123074768849126e-001 -1.9351635765327402e-001
      2.7179089624324143e-001 4.4130265683162262e-001
      5.6158109158754632e-001 7.9641142461421643e-001
      -1.2704293184619755e-001 -3.3830095771217783e-001
      -7.0206718785170030e-001 -2.2620899266830657e-001
      -4.5282339754618472e-001 1.1763049273901465e+000
      2.6178897692907677e-001 9.1940177286912372e-001
      5.8229861630245860e-001 -3.3944448601766548e-002
      -1.1357402424508302e-001 -5.0743265641723312e-001
      1.2590260548434942e+000 -1.2344921559718067e-001
      -6.0582659367076974e-001 -3.9394594586899206e-001
      -1.0675201061734398e-003 -2.2466351254745831e-001
      1.9054359221353703e-001 -1.8951703473855103e-001
      9.4936170422359845e-001 5.2075737141724654e-001
      7.4007520092151735e-001 -1.3934451577150916e-002
      6.3661620917777129e-001 -2.7069153076456448e-001
      -2.4756825937716515e-001 1.1819743181718181e+000
      -9.0770998109049705e-002 4.5717860252276327e-001
      3.4355019408102733e-001 -1.7134069342494340e-001
      3.3833488776264653e-001 -1.2924373067257957e+000
      7.6735612447916890e-001 -7.4863631174637113e-001
      9.5140314240004453e-001 3.1666650592078915e-001
      2.4598777061173474e-001 7.8483749058663033e-001
      -1.0282780894530573e-001 -8.5823151239164308e-001
      -2.5536530273469527e-001 -3.6117746792548221e-002
      -5.0370434490469795e-001 3.3401873016196341e-002
      9.3922433807088757e-001 7.0410889069886229e-001
      -7.5056689593375048e-001 4.3273651271906138e-001
      -2.1495846270719679e-001 4.6590154120612093e-001
      7.9766021716337995e-002 1.7596199954482453e-001
      1.0180406715138113e+000 6.2908559761264957e-002
      1.6245272512965417e-001 1.6739529849258142e-002
      -2.3526526689165295e-001 3.5026254813949437e-001
      1.4819727959668480e-001 5.7868873687488454e-001
      -3.1996354382629633e-001 1.9973129953400842e-001
      -1.5131824324410246e+000 2.4993539323499911e-001
      -8.7766844395591470e-001 -1.5104377414669939e-001
      2.2047808094284460e-001 6.8010640134836042e-001
      6.5281073709134751e-001 -7.0844825666837019e-001
      1.6002793019561010e-001 2.6963335388236803e-001
      -8.5213236928161551e-001 3.3068397278347623e+000
      2.9644216424071729e-001 -3.9367407004331129e-001
      -6.7353022065234169e-001 -2.6245642683422432e-001
      1.1167505017582251e+000 2.6143543412749698e-001
      1.7301926041857878e+000 3.0293191651031515e-001
      -3.6206417381185435e-001 -1.1169190408471241e+000
      3.4871883781428525e-001 -1.5077855457924516e+000
      2.8861919935959429e-001 4.8512704519313121e-001
      -5.2670732794233655e-001 2.4448078112811733e-001
      7.0395430360061395e-001 -3.3139108506451714e-001
      -4.2582765663416944e-001 1.6155919109906738e-001
      -5.3969313679942654e-001 8.2958130109460834e-002
      -2.9420416321737536e-001 2.0950942271306647e-001
      5.0226417438927473e-001 -7.7246176306654013e-001
      7.8399796312797321e-001 -3.9604623264884475e-001
      -1.5365358476477571e+000 -1.9919740156883997e-001
      2.4655037538879676e-001 -8.5353412550224583e-001
      5.2723337731640485e-001 8.4910258571144903e-001
      -5.8380928864250381e-001 -1.6833643396579452e+000
      1.5998432147943453e-001 -4.5024613292733567e-001
      7.7884055918105344e-001 -7.4454842909884567e-001
      1.8580759810091363e+000 4.9464059761326457e-001
      7.9795972791046374e-002 -2.1248299392490427e-001
      -2.5775720177917838e-001 2.1797759972163788e-001
      7.4044359044142277e-002 5.0799963257745118e-001
      3.3008282914154674e-001 -1.1119109427891478e+000
      7.5267279041090518e-001 -8.9894619807807097e-001
      -1.3182408660817760e-001 1.5753652224313788e+000
      3.6818268353707079e-001 7.4302784247350762e-001
      6.1812561384814672e-003 -1.6533100349641310e+000
      -9.7630287231065893e-001 2.5529378605203806e-003
      -6.7613431489676645e-001 1.0672812328323831e+000
      -2.0426652270737855e-001 6.1687997823124729e-001
      -3.8683030948188396e-001 -1.2485676543982076e-001
      1.4551906683387676e+000 -5.1700994350398533e-001
      -8.4449925605742593e-001 2.4522013058963030e-001
      3.2755058156755895e-001 1.0979864486396106e-001
      -3.1120141367704557e-001 3.3617193087432029e-001
      -7.3665502127725957e-001 -7.9011638917368243e-001
      3.6610478605008467e-001 6.4527556240171577e-002
      -1.2531194479692469e+000 -1.0959794713348079e+000
      2.7922263144232573e-001 1.4515072263654030e-001
      6.4217093145013859e-001 3.8401822881046094e-001
      6.2090338154496404e-002 -2.4695313023926152e-001
      9.3782010166578933e-001 -1.4143119654706229e-001
      1.9098670311596658e-001 4.4281630309792980e-001
      5.1880185596125505e-001 7.0241664617968802e-001
      3.9317982741135710e-001 -9.8073736237682307e-001
      2.5379431802757069e-001 -9.3667183852372582e-001
      1.3508493221012821e+000 2.2670134907704692e-001
      4.4302255017123054e-001 -1.4305282290949126e-001
      6.2264868039646183e-002 1.8181727557423794e-001
      7.8606505687507955e-001 1.0152768030984938e+000
      -2.2422266962262949e+000 -5.4767939711337843e-001
      -1.5802516697630564e-001 -2.0606022734957631e-002
      -3.0837027693174351e-001 1.4919705792851106e-003
      -9.1772547992330922e-002 -3.7709457224977433e-001
      -2.0891382320275245e-001 -3.5004026448166020e-001
      5.5891873607505312e-002 4.5360531969053064e-001
      2.0083304417487097e-001 -1.3224630817343455e-001
      -7.1202372833864014e-001 7.4518166722036550e-001
      1.4457827949582276e+000 -2.8823909367298672e-001
      4.3309478540854618e-001 1.0342486879888408e+000
      -1.9918897743577096e-001 2.6651420460069664e-001
      3.2473949959302273e-001 -5.2274537536079169e-001
      8.8797584860035306e-002 -1.1854533483740584e+000
      9.2868743424976460e-002 7.8000573432630838e-001
      -3.5918277956572549e-002 6.2842060964428947e-001
      -5.0101795409662353e-001 9.9556852369502502e-001
      1.8028427348945629e-002 -6.7687657717400118e-001
      -4.7032291146924443e-001 1.9873806031406602e-001
      -1.6120020877789237e-001 -2.6590275357903026e-001
      -6.2749397608244284e-001 3.8052249967037477e-001
      -9.7175596389932312e-002 2.4495437749708301e-001
      3.6683413217676958e-001 6.3229643422888560e-001
      -1.3515808413747608e+000 3.3701716771461476e-001
      5.2947950671725408e-001 6.9196001819541286e-001
      -1.5677521181639711e-001 1.1244608880143102e-001
      2.5853203628626725e-001 6.7594637739624452e-001
      -8.2531801201744692e-001 -1.1636989847142183e+000
      -1.5585692774141429e+000 -6.1227759415382810e-001
      1.9094312622697882e-001 -2.7480308509677326e-001
      -4.4218040331536458e-002 1.6236857437006746e+000
      -1.0863121995951914e+000 4.5247762561706711e-001
      2.2076116121378342e+000 1.4244331380411046e-001
      8.6241051965550131e-001 -5.6156139269434313e-001
      -1.8780079797249535e-001 -2.8484762915990103e-001
      -2.7516720729376626e-001 -5.9094898492839032e-001
      1.8856813475758963e-001 -9.7819730260225390e-002
      1.5506282085432963e+000 1.3372203932142035e-001
      -2.3376401517615854e-002 5.3376308148252977e-002
      -8.5090437763158708e-002 -1.4976626237974319e-001
      9.1223192408948373e-001 6.3823460590616010e-001
      -9.6370939870481243e-001 -2.3342702951165986e-001
      -1.1469555874818189e+000 -1.6037540437451378e-001
      -9.8260744392216315e-001 -4.2235528590104809e-001
      2.6436689906317412e-001 -9.0811808965225016e-001
      -4.0605228878677202e-001 -3.9570946833756326e-001
      6.9321855946036265e-002 2.7690454377307883e-002
      -1.9202581461474896e-001 -1.2475741733295738e+000
      -8.6399724442043291e-001 1.7114732685767514e-001
      2.1913195684288902e+000 -3.2453405426429154e-002
      -2.4590577808681447e-004 -9.8355692772392367e-001
      -4.1665969911014483e-001 -9.7216744838247784e-002
      -5.4669326351799097e-001 4.5099238720749918e-001
      3.3041916243929365e-001 -5.8318203911572231e-001
      -3.4930531961186545e-001 1.8457669783772643e+000
      7.5358498720668754e-001 6.3174952352611813e-001
      4.9654193914080752e-001 7.8884700051072798e-001
      8.7795486187891209e-002 5.0543380356914525e-001
      7.6419916904672691e-001 3.3780850878057678e-001
      5.4301720393501685e-001 -1.0918993557938832e+000
      2.1508697392388934e-001 3.2131699399844615e-001
      -9.8313684906446722e-002 -9.5651018927260023e-002
      -1.0531755062863896e-001 -5.1597697151987199e-001
      -4.0224304312080250e-001 2.2088275329386717e-002
      2.5691520166175252e-001 4.0557742042316980e-001
      5.4324725555125075e-001 -6.0668662129591149e-002
      1.7596668406306465e-001 8.5169174136508863e-001
      -4.6444986626925139e-001 6.4348379447415047e-002
      9.3836230178867774e-002 6.0725470551967808e-001
      -3.9048963163246839e-002 3.5143167354194663e-002
      9.7254653309806471e-001 1.9214900709582771e-002
      3.7774880811392464e-001 4.1125930109087311e-001
      2.5487461516508342e-001 -4.2026204997380204e-002
      -1.0701312045237393e-002 3.1026589302887803e-001
      -1.7400000103320562e-001 -2.7111168375817507e-001
      9.0040294829778866e-001 -1.1030863031155103e-001
      1.1548499936669002e-001 1.7805684698748059e-001
      -3.6015672529260001e-001 1.9127645442291966e-001
      1.0113843955374056e-001 -3.0891022345759300e-001
      1.6204169662694376e-001 2.2087077759166637e-001
      3.9201079213605566e-001 -2.4889210039394596e-001
      -2.6708129451327856e-001 2.0006016360121999e+000
      4.4349801655502846e-001 -1.1753575136227903e-001
      8.2291663943855997e-001 6.6412922673704841e-002
      2.5834416609426031e-001 8.6607589825238571e-002
      -1.6635588328269571e-001 -2.1665333404953867e-002
      4.1481783477956918e-001 4.2669207185727120e-001
      -9.2403134202950973e-002 2.0144945528819425e+000
      5.9268443491036804e-001 1.0569605649379996e+000
      -5.1240478260655564e-001 3.6130564126077275e-001
      1.4076456284886615e-001 6.3880691846444349e-001
      -2.0923376953549180e-001 -4.6912087796814328e-002
      2.5820001180521374e-001 4.1159723375748392e-001
      -2.3512793237478580e-001 -8.2841089256172806e-001
      -1.0033212915705145e+000 5.0059538363514744e-001
      3.3921402407348533e-001 -9.4214930800014984e-001
      1.6219811301307782e-001 -7.9471131736557996e-002
      3.4042045883729666e-001 -4.1080373496291877e-003
      3.6265312424092915e-003 -8.1541587768644300e-002
      4.6624169934472404e-001 -7.0805844143016383e-001
      -3.2555455463854778e-002 1.1550531956804683e-001
      3.8341251612409005e-001 2.3517800186860502e-001
      -2.4476591449261735e+000 1.0984669814975344e-001
      -1.1637527879077396e+000 6.4237456075406130e-001
      2.9322895004287081e-001 2.3871078401480483e-001
      7.0898630336335658e-002 -3.7667583492951562e-001
      3.5369755740290310e-001 -7.2837914989843111e-001
      2.1546044861628141e-001 5.3230430243796556e-001
      4.3494074611495465e-001 -9.3025625155654901e-001
      2.6492269901411269e-001 6.2789284453139205e-001
      -1.4632361783126737e+000 4.7012475814897881e-001
      7.1776336312985384e-002 -1.5304848000493726e-001
      1.5054273755050602e+000 -3.2769583277331488e-001
      -8.5588761705103245e-001 3.4124480582286265e-001
      -6.2705677543001090e-002 1.1471866130955954e-001
      4.8163636070083574e-002 -6.8078947588832872e-001
      -2.7275657918997834e-002 -1.4103085203746020e+000
      4.0005887110513477e-001 4.3030362218281770e-001
      7.5690495883529205e-002 -2.0890810565993404e-002
      -6.0928591859074024e-002 -4.0788922352305873e-001
      -6.3283771845715930e-001 -2.8256413659728352e-001
      6.2353908053478091e-001 1.1887188674072713e-001
      9.7419919248829956e-001 -2.1913758414326506e-002
      -4.1264071555380660e-001 3.3385409957602830e-001
      5.5075578245886914e-001 -3.0820416656701571e-001
      5.7477274731970174e-002 9.4915836433376743e-001
      1.8097907340083022e-001 -4.7895602809891004e-002
      -1.5537786092638903e-001 -2.6396488524869310e-001
      -4.1746853613250240e-001 -1.2387028870137833e-001
      -1.0123047146022808e-001 3.1009332581812616e-002
      -1.8318101468756808e-002 2.2928133768487077e-001
      1.7333601995606412e-001 -8.3945739386918905e-001
      4.5219586299266153e-002 -2.6800562928060173e-001
      5.0444136808511519e-001 4.4171749910653653e-002
      6.4824327687652039e-001 -1.2202639214845155e+000
      -6.4826967512313050e-001 1.6179654376109390e-001
      -1.9104605455103277e-001 6.4728455891599668e-001
      -2.4260727389769744e-002 2.7964638975253847e-001
      -1.5284279646984222e+000 -2.5949015228572486e-002
      -5.9366978096468781e-001 -2.7431375790978640e-001
      -6.4008992025512224e-001 -2.0707731432663873e-001
      -4.9795469755198363e-001 1.4322027702759527e-001
      9.6343856735490940e-001 8.8906765852809710e-001
      1.9058957168005264e-001 -9.6434412252395324e-002
      5.9486717516637488e-001 -4.8423620136086987e-001
      8.8985216258001332e-001 -1.0296653625529553e-001
      -1.7841835042279355e-001 -2.3649745080964873e-001
      3.2003691176323035e-001 4.7359346118992762e-001
      -7.3820400796908092e-001 6.3114793005979597e-001
      -8.1165478063095420e-001 1.4299198928670157e-001
      -5.1600959206867625e-001 -1.3303721637972568e+000
      -7.3493028791519599e-001 3.7458329775588850e-001
      -3.1418938706853405e-001 -7.8401391617096555e-002
      1.7954723303209288e-001 6.2630961252291939e-001
      -1.9233916050353791e-001 -4.9074607759466655e-002
      -2.2210285065062296e-001 1.6860222454316467e-001
      1.2425809604373406e-001 -7.1978840914697340e-001
      5.3928762136911246e-001 1.0103260432403809e-001
      1.5235858647012614e+000 -1.9859971113919683e-001
      4.9848079462658040e-002 -5.3921087771836976e-002
      -2.1280249543195404e-001 -8.0927511234246893e-002
      1.1166202009552220e-001 -6.0058663770643206e-001
      5.8497563040222456e-001 -4.0198080261547538e-002
      6.1431991367162564e-001 1.7423736847359591e-003
      2.7074125716383877e-002 -1.0738454201137280e+000
      -3.3116861590788482e-001 -4.7622818694916819e-001
      6.7228801967878893e-002 2.1876018657578411e-001
      2.5077957032401860e-001 1.3408617242788674e+000
      4.3546511152735790e-001 1.5524751029318105e+000
      -5.4203008827301127e-002 -1.8977110184480314e-001
      -2.9150221300633977e-001 -1.1903806998495696e-001
      9.4600729590298294e-003 -3.1408648147764207e-001
      -4.3432554625731687e-002 -4.1894874309753805e-001
      -7.4303539339860591e-001 8.1117932185661112e-001
      -3.6389784748903270e-001 -1.6299281557791734e-001
      3.4945453328497073e-001 7.6185876264582975e-001
      -4.5243645059414590e-002 -6.2620928374680018e-001
      -2.5368137466319590e-001 1.4091518237151834e+000
      6.0442443447594252e-001 -3.2873419411271643e-002
      -1.0361017456142871e+000 1.3280844727575200e-001
      9.6549554999376896e-002 1.7011433716629110e-003
      1.0269635408175768e+000 -3.8358681337669970e-001
      -1.1349390791528349e+000 -2.9986555270269215e-002
      -2.5856910435124734e+000 -2.3569115912621974e-001
      -5.2965960947848711e-001 5.4945731885166016e-001
      -1.0314616674036410e+000 -7.7944683117905467e-001
      4.4188310926672650e-002 -7.5284651769886579e-002
      -2.2891955027906849e-001 -5.4324433875133568e-002
      -5.2119945956811693e-002 1.2198072421186466e+000
      -1.1841095952853725e-001 7.4896129450565174e-001
      2.0792198990865240e-001 4.6583129725445973e-003
      7.9701007459759565e-001 3.6974696025791681e-001
      6.2288626608307740e-001 -1.2561734966681232e-001
      1.1849388301608847e+000 8.8546411497430783e-002
      3.6630585138436816e-001 3.6323725432197440e-001
      -3.3525807477486391e-001 -2.0754836082752262e-001
      9.8312760773281188e-002 8.0892566293515855e-001
      -1.2382976541847084e+000 -1.2918636874880651e-001
      6.3872718907144521e-001 3.1884611999079396e-002
      -1.2727622871111230e-001 -3.2057659204273120e-001
      -2.7878456090659631e-001 -2.0233660338148807e-001
      1.9222323377688050e-001 6.9856612934034246e-001
      7.6792481733523432e-001 -5.4847947000724602e-002
      -7.6807011784576684e-001 2.0520997482201495e-001
      -6.2422558189654220e-001 7.5290095432393733e-001
      -9.2753506914580319e-001 2.6570767281556462e-001
      -9.0062487975559880e-001 9.9714445900723328e-002
      9.0437728284125096e-001 -1.3271419258866368e+000
      1.3653980225217432e+000 -4.1076231816743608e-001
      -6.6438422520085760e-001 -3.0886753166604780e-001
      4.7754909462152118e-001 3.1035485884623820e-001
      2.4057844952105661e-001 1.9289219549265843e-001
      -1.5667034369930610e-001 -1.1649094819046488e+000
      7.0977780251606892e-001 -1.8405087320945302e-002
      1.9157852329259801e+000 1.3051055159820850e-002
      -1.1537926210431115e-001 1.7732368792453806e-001
      6.2313391405224161e-001 1.9116349920661432e-001
      6.5846648909587602e-001 -2.0479194846538357e-001
      -1.4940113851112291e+000 2.3400163960766149e-001
      -1.4036189859960821e+000 -1.1150653338902241e+000
      -1.4428605006350934e-001 1.0148492148899858e-001
      5.1920203273444343e-001 4.2374051883632052e-001
      9.0832132927255804e-001 -5.1263352135797069e-001
      9.9671881567856280e-001 8.0672913205849095e-001
      4.0372705922785551e-001 -2.7682796007242139e-001
      -6.5385513212146196e-001 -2.3590475714188081e-001
      9.7988668612736307e-002 4.2876185917580961e-001
      -3.1587164045327337e-001 2.2770429869437257e-002
      -1.1449105922619537e-001 -5.3588021160367905e-001
      -5.8859596774146594e-001 1.6249632249931101e-001
      9.8512727874459516e-001 1.7105504497832680e+000
      1.9936934609075666e-001 -9.3445307166013114e-001
      -7.3613849138239595e-001 -2.7401587713576975e-001
      -3.2826441025903041e-001 1.3714649477192439e-001
      -6.1198440696493717e-002 -9.7205204177347837e-001
      1.5984305618764200e-001 4.6921265553433578e-001
      5.0593326556833595e-001 -1.0250301830901649e+000
      1.0487458342277838e+000 3.4732849543564720e-001
      -1.4122774770217303e+000 2.5922511808038284e-001
      -2.7500553332947535e-002 2.1045792306344371e-001
      -1.0795209003093528e-001 3.5442401746342378e-001
      1.1555949611454726e+000 1.4956320053040414e-002
      2.8702295189595961e-001 7.4402451212796622e-002
      1.6640595417207907e-001 -4.6441533035678095e-001
      4.7989494007169081e-001 6.1635421731497975e-001
      3.1078134743769345e-002 1.0812993069572520e-001
      -4.0207376482150192e-001 -3.8084651998954117e-001
      2.6367242516525313e-003 -6.2329301425923889e-001
      -5.1437114307872267e-001 -9.4073556811291825e-001
      8.4299997164623341e-001 2.4919899914041169e-001
      3.8497179165294704e-001 -7.4214093330485820e-001
      -2.7775102124829315e-001 -3.3432513158652366e-001
      -8.1375621700395862e-002 -4.3929434760450531e-001
      1.2874194692821087e-001 -6.7408404364083219e-001
      -7.5669766821850382e-001 3.9239197297479200e-001
      1.5759141693090415e+000 2.6497839788832511e-001
      -3.7564519593527051e-001 -1.8091204611830711e+000
      -4.0444032581701589e-001 -7.9036415761846512e-001
      4.1856735788784766e-001 2.0162996349801846e-001
      1.1953971429991792e+000 3.8530819233235127e-002
      -4.7645677086143001e-001 5.4754686993514701e-001
      1.4220467831069283e-001 6.2951218115555396e-001
      1.8617526164983592e-001 3.4174432443775599e-001
      7.2772363167200538e-001 -3.8670114640000319e-001
      1.7597331728302937e-001 -2.1557222927869338e-001
      8.3472744298330598e-002 2.2659631693197507e-001
      -2.9368282492456033e-001 2.5638261455909811e-001
      3.6137911583049198e-001 4.6255173973086267e-001
      -3.4627837755451424e-001 -8.5850290392332018e-001
      -4.0908658864756098e-001 -5.1082211424964379e-003
      -9.0109320139592164e-001 -1.2020165835645509e+000
      3.1682812009540950e-001 -2.2592932360771500e-001
      1.2302304162972098e+000 -1.5649764698260055e-001
      4.8747870143625266e-001 5.3608543750553750e-001
      -6.9264815322467643e-002 -6.2284342240637169e-001
      5.8595854265577910e-002 -4.2549353693430764e-001
      6.9951809782154400e-002 -6.7873321108232765e-001
      1.0043100873285668e-001 9.6241369070409713e-002
      4.7986037307851859e-001 -2.6407346515667957e-001
      1.7712251886509436e-001 7.1638718460549514e-003
      -4.5437661867927309e-001 4.2695317731518578e-001
      -9.8850655962918765e-001 -2.0452923008282242e-001
      -3.5592538087999850e-002 -1.2035133794171621e-001
      5.9795621756266004e-001 -8.4378334875724464e-002
      -1.6113650400981211e-001 -4.2328021099606583e-001
      -2.8942590365722565e-001 -3.5133547653812286e-001
      -4.9693022041318263e-001 2.6842566667002482e-001
      -4.3063515087500776e-001 1.1258811209654638e+000
      7.4924785087355739e-001 1.3639221524731773e+000
      -1.6028156160432230e-001 3.6294761507273544e-002
      -2.5523033062335787e-001 -1.7990728631270606e-001
      -1.6163707724846582e-001 -5.4414478121792098e-001
      1.7077922901932735e-001 -1.2166802632035671e-001
      -2.7116476216325691e-001 -2.6268834390307161e-001
      7.4630467328756911e-001 4.5300250566216260e-001
      1.5475239126337820e-001 -6.3736402430340500e-001
      -8.9742527846104780e-001 3.4826887833529702e-001
      3.9304899033223033e-002 7.4393980905058144e-001
      -7.5308769899317418e-001 -1.3908188440190059e-001
      -4.9024905068796321e-001 -4.5117752312141129e-001
      -1.6313050396918197e-001 1.3046231825867186e-001
      2.5955778750278541e-001 -3.7347023868912366e-001
      -4.7507986004107261e-001 -2.9611726834744118e-001
      -1.3671701099526172e+000 -1.8415681208074786e-001
      7.0915127155753399e-001 7.7259288935223698e-003
      6.0864775728015919e-001 -2.7919013789486641e-001
      3.7175377382077678e-002 3.7760627845136861e-002
      1.8768107789228722e-001 -3.2044076671793353e-001
      1.9072682688753875e+000 -8.9387902752469783e-001
      5.2323345775915397e-001 2.7281742745978488e-001
      -4.4638209274784207e-001 -5.8415265795723581e-001
      1.8959067836115975e+000 5.5473032491032170e-001
      -1.0983524684159769e+000 -4.4806969767171662e-002
      -7.2642996584204655e-001 2.0515514579637348e-001
      -1.3557396652615886e-001 1.8251649253366403e-002
      -2.5083193117383512e-001 -9.4975049908044684e-001
      -1.2744811366669281e-001 1.6632218533312182e+000
      -1.3486355645781105e+000 3.2630012279740989e-001
      8.8360891952902765e-001 -1.0813663167612338e-001
      -2.8017060982338410e-001 -4.1933627474595342e-001
      -8.4226309854279813e-002 -9.5086840047670729e-001
      -7.4210738172609447e-001 -6.7714343299039848e-001
      3.3934545422678530e-001 -2.1404819979856868e-001
      3.1189394400426235e-001 6.5913445493370082e-001
      -6.5188180717776745e-001 -1.9763449515075784e-001
      -1.8000424693734404e-001 -4.5275491174404381e-001
      9.1024310230608210e-002 1.4226688536705707e+000
      -3.9103001092696671e-001 1.0573795465544888e+000
      -7.3822586798103762e-001 1.0076420105855026e+000
      -2.1419846990429607e+000 3.7489855100263501e-002
      1.9721917690665369e-001 3.3430797897710912e-001
      5.2916088728172195e-001 4.4599174532552903e-002
      9.6882784187154111e-002 1.6214463280119384e+000
      -1.8563738389158041e-001 7.4314135813149085e-001
      3.9521135002668489e-002 -8.3878093179914037e-001
      -9.8691758831193510e-001 -1.9004212060267095e-001
      6.4683655567450515e-001 4.9564750862090806e-001
      2.7843450350326726e-001 1.6147990191629522e-001
      -1.7831689855922046e+000 -4.1847608796857383e-001
      -1.1092466617386794e+000 4.1480049090280408e-001
      -1.1959937138048059e-001 -4.0933112921680792e-001
      -3.1074721141400702e-001 -7.3434330109150125e-002
      -1.5499700123927129e+000 2.0720778556601951e-001
      1.8096757539878450e+000 -6.1255941275604375e-001
      -1.9515297680949870e-001 -6.0640083162727121e-001
      1.0882218754277602e-001 1.4449915671544766e-001
      -4.7112566323019661e-001 -1.4820832706308433e+000
      3.3341275555199290e-001 8.4172004834752581e-002
      -1.9049886881615359e-002 -3.2158893490974810e-001
      -2.9792787624963812e-001 4.7676438582141677e-002
      -2.8153496787797655e-001 7.5803213503520928e-001
      -1.8322748393027246e+000 -2.6326421187327048e-001
      -2.4472068586866302e-001 2.4505933796574375e-001
      -2.5132043701543938e-001 3.6332322204005724e-001
      -6.4900242410595388e-001 3.8156548884956792e-001
      4.2075274703708321e-001 8.8560018794389461e-001
      1.7074235675388469e-001 3.8919458467832846e-001
      2.3746496077166063e-001 -1.5873961052660260e-003
      -3.5645830092923075e-001 2.0730526353457321e-001
      3.4988553696199670e-001 1.7302949955355254e-001
      -9.0072251877493612e-002 -2.0064529466183098e-001
      9.3654964550216036e-001 -7.7452355130297329e-002
      -1.2477302711443121e+000 1.1521171209958977e-001
      1.9580825436607766e-001 -3.9019132430886644e-001
      1.5490415951247166e-001 2.6894480380390179e-001
      1.8986536999391665e-001 2.7863592538534626e-001
      -1.5178001239614250e-002 3.6267544517364164e-001
      -3.6468502890005955e-001 1.2166139346508034e+000
      2.7526572374642633e-001 -2.7632308243886877e-001
      8.5193923789830139e-001 -3.8152423248042633e-001
      2.0723799458463926e-001 -7.5850017811140735e-001
      7.1297814927127820e-002 8.0720489098550785e-001
      3.9596068420496189e-001 -1.8915638231932280e-001
      2.3124104155260679e-002 7.2187137186873596e-001
      2.0710949963149961e-001 -2.2159756387705365e-001
      2.1954495278230937e-001 5.0039300908471133e-002
      -7.5300580163493058e-001 -2.3535897296338576e-001
      -1.5675918801990088e-001 3.3023122264517080e-001
      -2.8712400299321178e-001 -5.6322897202313393e-001
      3.7290273603535129e-001 6.6752015470103965e-001
      -1.6810027569633904e-001 2.0689875313410583e-001
      -1.0542000401573775e-002 6.5490049191459726e-003
      -7.6777206862339720e-001 -2.7613677800942027e-001
      5.5286642686668042e-001 5.2581331325711890e-002
      -4.1708852865333640e-001 7.4878813220731832e-001
      -1.1473758022726135e+000 1.9423285079472305e-001
      -2.4424247912959182e-001 1.0053441482596475e+000
      -3.0457164259867003e-001 -1.4626820385113304e+000
      3.0677887799997522e-001 1.5348134558652538e+000
      2.4968796974649388e-001 -3.6643368693508160e-001
      -1.0537443379389029e-001 -1.5211280384204224e+000
      -1.9492782896889396e-001 3.8213418467307908e-001
      9.0919029816854957e-001 3.0850633951441919e-001
      4.7155200604201369e-001 6.2466729942740669e-002
      3.3684390806117695e-002 6.8263749068653035e-001
      5.7978744236192603e-001 -1.8614010552595570e+000
      4.9584716307825388e-001 4.1457773095843214e-001
      -1.1873572626755039e-002 -8.7174653944305169e-001
      1.2626202231806676e+000 3.7247627601211608e-001
      4.0803749559690616e-001 1.9573703741633977e-001
      1.0063036144401059e+000 6.1409683910910451e-001
      -1.1138062790300802e+000 -6.7544673416747647e-001
      -8.5845217941759283e-002 2.2666274047696558e-001
      -1.4136184494143935e+000 6.2896351979742127e-001
      -5.6660325059434424e-001 -3.5712148200471427e-003
      -5.3629700956132031e-001 1.0514220615083800e+000
      -4.6950261326869619e-001 -6.7646699475543759e-001
      4.0782415636691538e-001 -3.9898699723090147e-001
      -7.6581346489812507e-001 1.1640548938930302e+000
      -7.3441036642200064e-001 2.6809904964514547e-001
      2.0772467784663684e-001 7.4755426159521507e-002
      -2.2259374802456205e-001 -6.6025972283305823e-001
      -1.7931857044334282e-001 -6.7148566259653075e-001
      7.4697435985497529e-001 9.7990552818613319e-001
      1.1223581539436192e-001 6.0565772452090549e-001
      4.4047900695074826e-001 -3.4029782001987474e-001
      9.4537139506605894e-001 -9.3795759477483343e-001
      3.3106092734407311e-001 -1.1051550240554019e-001
      3.9572944916779734e-001 1.3576579965530600e-001
      -1.0285713714161715e+000 -2.2818874536815453e-001
      4.6362909342923037e-001 3.2720711265635249e-001
      -5.0976581666305276e-001 -1.2516235576512340e-002
      -1.3893411051717103e-001 -8.4569558065782158e-001
      6.2270151160086040e-001 -6.4498614439560675e-001
      5.5122267174681483e-001 -4.2364900818685564e-001
      -9.0514390312578363e-001 -8.1360072449785426e-001
      -3.4183406871535582e-001 -6.1519477328307745e-002
      -4.7146667201818732e-002 1.8035377843529721e-001
      9.5418965549119306e-001 2.5377657079876142e-001
      -2.3818198770826168e-001 -2.6266498879589534e-001
      5.4020262486893240e-002 -2.0633349387103561e-001
      1.0773099287029879e+000 3.9948601945370044e-001
      -2.4925322068061249e+000 -1.6413733018724747e-001
      -3.2799656839781344e-001 3.8856202340051621e-001
      -1.5293416823462716e-001 1.1310320756347708e-001
      6.8425986816574791e-001 6.6824730847734248e-001
      3.7375093746556864e-001 4.9237967029214463e-001
      -8.7402125924352492e-001 2.2345252672452279e-001
      -1.1295359265022437e-001 -4.5231852384912874e-001
      -7.8517730975680711e-002 2.9958525433312001e-002
      2.9401142350862369e-001 -5.3464930592042670e-001
      -6.3370710772227890e-001 5.1473797336700178e-001
      8.7770938017786304e-001 -2.7463230173104956e-002
      4.1456788841411568e-001 4.6180035720100149e-001
      -6.8063609239401357e-001 8.1828554172805301e-001
      2.7850933839633918e-001 -2.2239738359209821e-001
      -8.0342082351170752e-001 2.2856424964750219e-001
      6.7643528395348251e-001 -1.0182941037585326e-001
      2.6376404207738269e-001 1.7084464476868077e-002
      -1.3237462481997502e+000 -4.2255981276792309e-001
      -2.3748524265927373e-001 5.4151265601729637e-001
      9.8902337122061534e-002 3.1441972898146808e-001
      -1.5823264868023906e-001 6.6212372283687326e-001
      -5.0670653007041255e-001 4.1080015988560614e-001
      -1.0543914240823991e+000 2.0002836243573366e-001
      -3.9471792072182266e-001 1.6929578422259234e-001
      1.0996692584384538e+000 -1.8389144820300953e+000
      1.0379453665334662e-001 -1.0216645398181763e+000
      7.1531062430996373e-001 -1.5563760788017922e-001
      2.3642825996148503e-001 1.0282780955292559e+000
      -3.3071852898151913e-002 -1.7019857253371226e-001
      5.7245820857854723e-001 1.9693215355247340e-001
      1.5727139353182684e+000 4.3432372221057425e-001
      3.6346782568353470e-001 1.3200082073726902e+000
      -1.4416935586776525e+000 -1.5203942390277883e-002
      2.0143393870062844e-002 -1.2898661342049726e+000
      3.3733900660763559e-002 -1.6210636647968585e-001
      -2.0030197142453465e-001 -2.7916529628679015e-001
      4.2378450660677819e-001 6.2577814649683128e-001
      -4.4049672907276821e-002 -6.5675488556701778e-001
      -4.4302791699022231e-001 -4.5360719268819638e-001
      4.8296828256982210e-001 1.6671603821875614e+000
      6.8494253219700574e-001 4.0655374853003956e-001
      1.0196678129180805e+000 6.9542046307385608e-001
      -6.6844806310578642e-001 1.5735572732554093e-001
      -1.9173764929268577e-001 1.4241283398670240e-001
      3.8861992230682268e-001 -1.5821937578464393e-001
      3.1970664879016225e-001 5.4420814734792267e-001
      -5.1228159817456084e-002 3.2401184963915053e-001
      1.5859384631799853e-001 2.4552577655350291e-001
      -3.9905183379668546e-001 3.0322353415085625e-002
      1.6487458730743365e-001 -7.3855455035220174e-002
      9.5589197584808694e-001 4.6179853468571319e-001
      -3.2407916771629360e-002 -4.8497024907112406e-002
      1.8988148753107825e-001 2.2743990312476717e-001
